tree
version=v4
num_class=1
num_tree_per_iteration=1
label_index=0
max_feature_idx=1847
objective=regression
feature_names=Column_0 Column_1 Column_2 Column_3 Column_4 Column_5 Column_6 Column_7 Column_8 Column_9 Column_10 Column_11 Column_12 Column_13 Column_14 Column_15 Column_16 Column_17 Column_18 Column_19 Column_20 Column_21 Column_22 Column_23 Column_24 Column_25 Column_26 Column_27 Column_28 Column_29 Column_30 Column_31 Column_32 Column_33 Column_34 Column_35 Column_36 Column_37 Column_38 Column_39 Column_40 Column_41 Column_42 Column_43 Column_44 Column_45 Column_46 Column_47 Column_48 Column_49 Column_50 Column_51 Column_52 Column_53 Column_54 Column_55 Column_56 Column_57 Column_58 Column_59 Column_60 Column_61 Column_62 Column_63 Column_64 Column_65 Column_66 Column_67 Column_68 Column_69 Column_70 Column_71 Column_72 Column_73 Column_74 Column_75 Column_76 Column_77 Column_78 Column_79 Column_80 Column_81 Column_82 Column_83 Column_84 Column_85 Column_86 Column_87 Column_88 Column_89 Column_90 Column_91 Column_92 Column_93 Column_94 Column_95 Column_96 Column_97 Column_98 Column_99 Column_100 Column_101 Column_102 Column_103 Column_104 Column_105 Column_106 Column_107 Column_108 Column_109 Column_110 Column_111 Column_112 Column_113 Column_114 Column_115 Column_116 Column_117 Column_118 Column_119 Column_120 Column_121 Column_122 Column_123 Column_124 Column_125 Column_126 Column_127 Column_128 Column_129 Column_130 Column_131 Column_132 Column_133 Column_134 Column_135 Column_136 Column_137 Column_138 Column_139 Column_140 Column_141 Column_142 Column_143 Column_144 Column_145 Column_146 Column_147 Column_148 Column_149 Column_150 Column_151 Column_152 Column_153 Column_154 Column_155 Column_156 Column_157 Column_158 Column_159 Column_160 Column_161 Column_162 Column_163 Column_164 Column_165 Column_166 Column_167 Column_168 Column_169 Column_170 Column_171 Column_172 Column_173 Column_174 Column_175 Column_176 Column_177 Column_178 Column_179 Column_180 Column_181 Column_182 Column_183 Column_184 Column_185 Column_186 Column_187 Column_188 Column_189 Column_190 Column_191 Column_192 Column_193 Column_194 Column_195 Column_196 Column_197 Column_198 Column_199 Column_200 Column_201 Column_202 Column_203 Column_204 Column_205 Column_206 Column_207 Column_208 Column_209 Column_210 Column_211 Column_212 Column_213 Column_214 Column_215 Column_216 Column_217 Column_218 Column_219 Column_220 Column_221 Column_222 Column_223 Column_224 Column_225 Column_226 Column_227 Column_228 Column_229 Column_230 Column_231 Column_232 Column_233 Column_234 Column_235 Column_236 Column_237 Column_238 Column_239 Column_240 Column_241 Column_242 Column_243 Column_244 Column_245 Column_246 Column_247 Column_248 Column_249 Column_250 Column_251 Column_252 Column_253 Column_254 Column_255 Column_256 Column_257 Column_258 Column_259 Column_260 Column_261 Column_262 Column_263 Column_264 Column_265 Column_266 Column_267 Column_268 Column_269 Column_270 Column_271 Column_272 Column_273 Column_274 Column_275 Column_276 Column_277 Column_278 Column_279 Column_280 Column_281 Column_282 Column_283 Column_284 Column_285 Column_286 Column_287 Column_288 Column_289 Column_290 Column_291 Column_292 Column_293 Column_294 Column_295 Column_296 Column_297 Column_298 Column_299 Column_300 Column_301 Column_302 Column_303 Column_304 Column_305 Column_306 Column_307 Column_308 Column_309 Column_310 Column_311 Column_312 Column_313 Column_314 Column_315 Column_316 Column_317 Column_318 Column_319 Column_320 Column_321 Column_322 Column_323 Column_324 Column_325 Column_326 Column_327 Column_328 Column_329 Column_330 Column_331 Column_332 Column_333 Column_334 Column_335 Column_336 Column_337 Column_338 Column_339 Column_340 Column_341 Column_342 Column_343 Column_344 Column_345 Column_346 Column_347 Column_348 Column_349 Column_350 Column_351 Column_352 Column_353 Column_354 Column_355 Column_356 Column_357 Column_358 Column_359 Column_360 Column_361 Column_362 Column_363 Column_364 Column_365 Column_366 Column_367 Column_368 Column_369 Column_370 Column_371 Column_372 Column_373 Column_374 Column_375 Column_376 Column_377 Column_378 Column_379 Column_380 Column_381 Column_382 Column_383 Column_384 Column_385 Column_386 Column_387 Column_388 Column_389 Column_390 Column_391 Column_392 Column_393 Column_394 Column_395 Column_396 Column_397 Column_398 Column_399 Column_400 Column_401 Column_402 Column_403 Column_404 Column_405 Column_406 Column_407 Column_408 Column_409 Column_410 Column_411 Column_412 Column_413 Column_414 Column_415 Column_416 Column_417 Column_418 Column_419 Column_420 Column_421 Column_422 Column_423 Column_424 Column_425 Column_426 Column_427 Column_428 Column_429 Column_430 Column_431 Column_432 Column_433 Column_434 Column_435 Column_436 Column_437 Column_438 Column_439 Column_440 Column_441 Column_442 Column_443 Column_444 Column_445 Column_446 Column_447 Column_448 Column_449 Column_450 Column_451 Column_452 Column_453 Column_454 Column_455 Column_456 Column_457 Column_458 Column_459 Column_460 Column_461 Column_462 Column_463 Column_464 Column_465 Column_466 Column_467 Column_468 Column_469 Column_470 Column_471 Column_472 Column_473 Column_474 Column_475 Column_476 Column_477 Column_478 Column_479 Column_480 Column_481 Column_482 Column_483 Column_484 Column_485 Column_486 Column_487 Column_488 Column_489 Column_490 Column_491 Column_492 Column_493 Column_494 Column_495 Column_496 Column_497 Column_498 Column_499 Column_500 Column_501 Column_502 Column_503 Column_504 Column_505 Column_506 Column_507 Column_508 Column_509 Column_510 Column_511 Column_512 Column_513 Column_514 Column_515 Column_516 Column_517 Column_518 Column_519 Column_520 Column_521 Column_522 Column_523 Column_524 Column_525 Column_526 Column_527 Column_528 Column_529 Column_530 Column_531 Column_532 Column_533 Column_534 Column_535 Column_536 Column_537 Column_538 Column_539 Column_540 Column_541 Column_542 Column_543 Column_544 Column_545 Column_546 Column_547 Column_548 Column_549 Column_550 Column_551 Column_552 Column_553 Column_554 Column_555 Column_556 Column_557 Column_558 Column_559 Column_560 Column_561 Column_562 Column_563 Column_564 Column_565 Column_566 Column_567 Column_568 Column_569 Column_570 Column_571 Column_572 Column_573 Column_574 Column_575 Column_576 Column_577 Column_578 Column_579 Column_580 Column_581 Column_582 Column_583 Column_584 Column_585 Column_586 Column_587 Column_588 Column_589 Column_590 Column_591 Column_592 Column_593 Column_594 Column_595 Column_596 Column_597 Column_598 Column_599 Column_600 Column_601 Column_602 Column_603 Column_604 Column_605 Column_606 Column_607 Column_608 Column_609 Column_610 Column_611 Column_612 Column_613 Column_614 Column_615 Column_616 Column_617 Column_618 Column_619 Column_620 Column_621 Column_622 Column_623 Column_624 Column_625 Column_626 Column_627 Column_628 Column_629 Column_630 Column_631 Column_632 Column_633 Column_634 Column_635 Column_636 Column_637 Column_638 Column_639 Column_640 Column_641 Column_642 Column_643 Column_644 Column_645 Column_646 Column_647 Column_648 Column_649 Column_650 Column_651 Column_652 Column_653 Column_654 Column_655 Column_656 Column_657 Column_658 Column_659 Column_660 Column_661 Column_662 Column_663 Column_664 Column_665 Column_666 Column_667 Column_668 Column_669 Column_670 Column_671 Column_672 Column_673 Column_674 Column_675 Column_676 Column_677 Column_678 Column_679 Column_680 Column_681 Column_682 Column_683 Column_684 Column_685 Column_686 Column_687 Column_688 Column_689 Column_690 Column_691 Column_692 Column_693 Column_694 Column_695 Column_696 Column_697 Column_698 Column_699 Column_700 Column_701 Column_702 Column_703 Column_704 Column_705 Column_706 Column_707 Column_708 Column_709 Column_710 Column_711 Column_712 Column_713 Column_714 Column_715 Column_716 Column_717 Column_718 Column_719 Column_720 Column_721 Column_722 Column_723 Column_724 Column_725 Column_726 Column_727 Column_728 Column_729 Column_730 Column_731 Column_732 Column_733 Column_734 Column_735 Column_736 Column_737 Column_738 Column_739 Column_740 Column_741 Column_742 Column_743 Column_744 Column_745 Column_746 Column_747 Column_748 Column_749 Column_750 Column_751 Column_752 Column_753 Column_754 Column_755 Column_756 Column_757 Column_758 Column_759 Column_760 Column_761 Column_762 Column_763 Column_764 Column_765 Column_766 Column_767 Column_768 Column_769 Column_770 Column_771 Column_772 Column_773 Column_774 Column_775 Column_776 Column_777 Column_778 Column_779 Column_780 Column_781 Column_782 Column_783 Column_784 Column_785 Column_786 Column_787 Column_788 Column_789 Column_790 Column_791 Column_792 Column_793 Column_794 Column_795 Column_796 Column_797 Column_798 Column_799 Column_800 Column_801 Column_802 Column_803 Column_804 Column_805 Column_806 Column_807 Column_808 Column_809 Column_810 Column_811 Column_812 Column_813 Column_814 Column_815 Column_816 Column_817 Column_818 Column_819 Column_820 Column_821 Column_822 Column_823 Column_824 Column_825 Column_826 Column_827 Column_828 Column_829 Column_830 Column_831 Column_832 Column_833 Column_834 Column_835 Column_836 Column_837 Column_838 Column_839 Column_840 Column_841 Column_842 Column_843 Column_844 Column_845 Column_846 Column_847 Column_848 Column_849 Column_850 Column_851 Column_852 Column_853 Column_854 Column_855 Column_856 Column_857 Column_858 Column_859 Column_860 Column_861 Column_862 Column_863 Column_864 Column_865 Column_866 Column_867 Column_868 Column_869 Column_870 Column_871 Column_872 Column_873 Column_874 Column_875 Column_876 Column_877 Column_878 Column_879 Column_880 Column_881 Column_882 Column_883 Column_884 Column_885 Column_886 Column_887 Column_888 Column_889 Column_890 Column_891 Column_892 Column_893 Column_894 Column_895 Column_896 Column_897 Column_898 Column_899 Column_900 Column_901 Column_902 Column_903 Column_904 Column_905 Column_906 Column_907 Column_908 Column_909 Column_910 Column_911 Column_912 Column_913 Column_914 Column_915 Column_916 Column_917 Column_918 Column_919 Column_920 Column_921 Column_922 Column_923 Column_924 Column_925 Column_926 Column_927 Column_928 Column_929 Column_930 Column_931 Column_932 Column_933 Column_934 Column_935 Column_936 Column_937 Column_938 Column_939 Column_940 Column_941 Column_942 Column_943 Column_944 Column_945 Column_946 Column_947 Column_948 Column_949 Column_950 Column_951 Column_952 Column_953 Column_954 Column_955 Column_956 Column_957 Column_958 Column_959 Column_960 Column_961 Column_962 Column_963 Column_964 Column_965 Column_966 Column_967 Column_968 Column_969 Column_970 Column_971 Column_972 Column_973 Column_974 Column_975 Column_976 Column_977 Column_978 Column_979 Column_980 Column_981 Column_982 Column_983 Column_984 Column_985 Column_986 Column_987 Column_988 Column_989 Column_990 Column_991 Column_992 Column_993 Column_994 Column_995 Column_996 Column_997 Column_998 Column_999 Column_1000 Column_1001 Column_1002 Column_1003 Column_1004 Column_1005 Column_1006 Column_1007 Column_1008 Column_1009 Column_1010 Column_1011 Column_1012 Column_1013 Column_1014 Column_1015 Column_1016 Column_1017 Column_1018 Column_1019 Column_1020 Column_1021 Column_1022 Column_1023 Column_1024 Column_1025 Column_1026 Column_1027 Column_1028 Column_1029 Column_1030 Column_1031 Column_1032 Column_1033 Column_1034 Column_1035 Column_1036 Column_1037 Column_1038 Column_1039 Column_1040 Column_1041 Column_1042 Column_1043 Column_1044 Column_1045 Column_1046 Column_1047 Column_1048 Column_1049 Column_1050 Column_1051 Column_1052 Column_1053 Column_1054 Column_1055 Column_1056 Column_1057 Column_1058 Column_1059 Column_1060 Column_1061 Column_1062 Column_1063 Column_1064 Column_1065 Column_1066 Column_1067 Column_1068 Column_1069 Column_1070 Column_1071 Column_1072 Column_1073 Column_1074 Column_1075 Column_1076 Column_1077 Column_1078 Column_1079 Column_1080 Column_1081 Column_1082 Column_1083 Column_1084 Column_1085 Column_1086 Column_1087 Column_1088 Column_1089 Column_1090 Column_1091 Column_1092 Column_1093 Column_1094 Column_1095 Column_1096 Column_1097 Column_1098 Column_1099 Column_1100 Column_1101 Column_1102 Column_1103 Column_1104 Column_1105 Column_1106 Column_1107 Column_1108 Column_1109 Column_1110 Column_1111 Column_1112 Column_1113 Column_1114 Column_1115 Column_1116 Column_1117 Column_1118 Column_1119 Column_1120 Column_1121 Column_1122 Column_1123 Column_1124 Column_1125 Column_1126 Column_1127 Column_1128 Column_1129 Column_1130 Column_1131 Column_1132 Column_1133 Column_1134 Column_1135 Column_1136 Column_1137 Column_1138 Column_1139 Column_1140 Column_1141 Column_1142 Column_1143 Column_1144 Column_1145 Column_1146 Column_1147 Column_1148 Column_1149 Column_1150 Column_1151 Column_1152 Column_1153 Column_1154 Column_1155 Column_1156 Column_1157 Column_1158 Column_1159 Column_1160 Column_1161 Column_1162 Column_1163 Column_1164 Column_1165 Column_1166 Column_1167 Column_1168 Column_1169 Column_1170 Column_1171 Column_1172 Column_1173 Column_1174 Column_1175 Column_1176 Column_1177 Column_1178 Column_1179 Column_1180 Column_1181 Column_1182 Column_1183 Column_1184 Column_1185 Column_1186 Column_1187 Column_1188 Column_1189 Column_1190 Column_1191 Column_1192 Column_1193 Column_1194 Column_1195 Column_1196 Column_1197 Column_1198 Column_1199 Column_1200 Column_1201 Column_1202 Column_1203 Column_1204 Column_1205 Column_1206 Column_1207 Column_1208 Column_1209 Column_1210 Column_1211 Column_1212 Column_1213 Column_1214 Column_1215 Column_1216 Column_1217 Column_1218 Column_1219 Column_1220 Column_1221 Column_1222 Column_1223 Column_1224 Column_1225 Column_1226 Column_1227 Column_1228 Column_1229 Column_1230 Column_1231 Column_1232 Column_1233 Column_1234 Column_1235 Column_1236 Column_1237 Column_1238 Column_1239 Column_1240 Column_1241 Column_1242 Column_1243 Column_1244 Column_1245 Column_1246 Column_1247 Column_1248 Column_1249 Column_1250 Column_1251 Column_1252 Column_1253 Column_1254 Column_1255 Column_1256 Column_1257 Column_1258 Column_1259 Column_1260 Column_1261 Column_1262 Column_1263 Column_1264 Column_1265 Column_1266 Column_1267 Column_1268 Column_1269 Column_1270 Column_1271 Column_1272 Column_1273 Column_1274 Column_1275 Column_1276 Column_1277 Column_1278 Column_1279 Column_1280 Column_1281 Column_1282 Column_1283 Column_1284 Column_1285 Column_1286 Column_1287 Column_1288 Column_1289 Column_1290 Column_1291 Column_1292 Column_1293 Column_1294 Column_1295 Column_1296 Column_1297 Column_1298 Column_1299 Column_1300 Column_1301 Column_1302 Column_1303 Column_1304 Column_1305 Column_1306 Column_1307 Column_1308 Column_1309 Column_1310 Column_1311 Column_1312 Column_1313 Column_1314 Column_1315 Column_1316 Column_1317 Column_1318 Column_1319 Column_1320 Column_1321 Column_1322 Column_1323 Column_1324 Column_1325 Column_1326 Column_1327 Column_1328 Column_1329 Column_1330 Column_1331 Column_1332 Column_1333 Column_1334 Column_1335 Column_1336 Column_1337 Column_1338 Column_1339 Column_1340 Column_1341 Column_1342 Column_1343 Column_1344 Column_1345 Column_1346 Column_1347 Column_1348 Column_1349 Column_1350 Column_1351 Column_1352 Column_1353 Column_1354 Column_1355 Column_1356 Column_1357 Column_1358 Column_1359 Column_1360 Column_1361 Column_1362 Column_1363 Column_1364 Column_1365 Column_1366 Column_1367 Column_1368 Column_1369 Column_1370 Column_1371 Column_1372 Column_1373 Column_1374 Column_1375 Column_1376 Column_1377 Column_1378 Column_1379 Column_1380 Column_1381 Column_1382 Column_1383 Column_1384 Column_1385 Column_1386 Column_1387 Column_1388 Column_1389 Column_1390 Column_1391 Column_1392 Column_1393 Column_1394 Column_1395 Column_1396 Column_1397 Column_1398 Column_1399 Column_1400 Column_1401 Column_1402 Column_1403 Column_1404 Column_1405 Column_1406 Column_1407 Column_1408 Column_1409 Column_1410 Column_1411 Column_1412 Column_1413 Column_1414 Column_1415 Column_1416 Column_1417 Column_1418 Column_1419 Column_1420 Column_1421 Column_1422 Column_1423 Column_1424 Column_1425 Column_1426 Column_1427 Column_1428 Column_1429 Column_1430 Column_1431 Column_1432 Column_1433 Column_1434 Column_1435 Column_1436 Column_1437 Column_1438 Column_1439 Column_1440 Column_1441 Column_1442 Column_1443 Column_1444 Column_1445 Column_1446 Column_1447 Column_1448 Column_1449 Column_1450 Column_1451 Column_1452 Column_1453 Column_1454 Column_1455 Column_1456 Column_1457 Column_1458 Column_1459 Column_1460 Column_1461 Column_1462 Column_1463 Column_1464 Column_1465 Column_1466 Column_1467 Column_1468 Column_1469 Column_1470 Column_1471 Column_1472 Column_1473 Column_1474 Column_1475 Column_1476 Column_1477 Column_1478 Column_1479 Column_1480 Column_1481 Column_1482 Column_1483 Column_1484 Column_1485 Column_1486 Column_1487 Column_1488 Column_1489 Column_1490 Column_1491 Column_1492 Column_1493 Column_1494 Column_1495 Column_1496 Column_1497 Column_1498 Column_1499 Column_1500 Column_1501 Column_1502 Column_1503 Column_1504 Column_1505 Column_1506 Column_1507 Column_1508 Column_1509 Column_1510 Column_1511 Column_1512 Column_1513 Column_1514 Column_1515 Column_1516 Column_1517 Column_1518 Column_1519 Column_1520 Column_1521 Column_1522 Column_1523 Column_1524 Column_1525 Column_1526 Column_1527 Column_1528 Column_1529 Column_1530 Column_1531 Column_1532 Column_1533 Column_1534 Column_1535 Column_1536 Column_1537 Column_1538 Column_1539 Column_1540 Column_1541 Column_1542 Column_1543 Column_1544 Column_1545 Column_1546 Column_1547 Column_1548 Column_1549 Column_1550 Column_1551 Column_1552 Column_1553 Column_1554 Column_1555 Column_1556 Column_1557 Column_1558 Column_1559 Column_1560 Column_1561 Column_1562 Column_1563 Column_1564 Column_1565 Column_1566 Column_1567 Column_1568 Column_1569 Column_1570 Column_1571 Column_1572 Column_1573 Column_1574 Column_1575 Column_1576 Column_1577 Column_1578 Column_1579 Column_1580 Column_1581 Column_1582 Column_1583 Column_1584 Column_1585 Column_1586 Column_1587 Column_1588 Column_1589 Column_1590 Column_1591 Column_1592 Column_1593 Column_1594 Column_1595 Column_1596 Column_1597 Column_1598 Column_1599 Column_1600 Column_1601 Column_1602 Column_1603 Column_1604 Column_1605 Column_1606 Column_1607 Column_1608 Column_1609 Column_1610 Column_1611 Column_1612 Column_1613 Column_1614 Column_1615 Column_1616 Column_1617 Column_1618 Column_1619 Column_1620 Column_1621 Column_1622 Column_1623 Column_1624 Column_1625 Column_1626 Column_1627 Column_1628 Column_1629 Column_1630 Column_1631 Column_1632 Column_1633 Column_1634 Column_1635 Column_1636 Column_1637 Column_1638 Column_1639 Column_1640 Column_1641 Column_1642 Column_1643 Column_1644 Column_1645 Column_1646 Column_1647 Column_1648 Column_1649 Column_1650 Column_1651 Column_1652 Column_1653 Column_1654 Column_1655 Column_1656 Column_1657 Column_1658 Column_1659 Column_1660 Column_1661 Column_1662 Column_1663 Column_1664 Column_1665 Column_1666 Column_1667 Column_1668 Column_1669 Column_1670 Column_1671 Column_1672 Column_1673 Column_1674 Column_1675 Column_1676 Column_1677 Column_1678 Column_1679 Column_1680 Column_1681 Column_1682 Column_1683 Column_1684 Column_1685 Column_1686 Column_1687 Column_1688 Column_1689 Column_1690 Column_1691 Column_1692 Column_1693 Column_1694 Column_1695 Column_1696 Column_1697 Column_1698 Column_1699 Column_1700 Column_1701 Column_1702 Column_1703 Column_1704 Column_1705 Column_1706 Column_1707 Column_1708 Column_1709 Column_1710 Column_1711 Column_1712 Column_1713 Column_1714 Column_1715 Column_1716 Column_1717 Column_1718 Column_1719 Column_1720 Column_1721 Column_1722 Column_1723 Column_1724 Column_1725 Column_1726 Column_1727 Column_1728 Column_1729 Column_1730 Column_1731 Column_1732 Column_1733 Column_1734 Column_1735 Column_1736 Column_1737 Column_1738 Column_1739 Column_1740 Column_1741 Column_1742 Column_1743 Column_1744 Column_1745 Column_1746 Column_1747 Column_1748 Column_1749 Column_1750 Column_1751 Column_1752 Column_1753 Column_1754 Column_1755 Column_1756 Column_1757 Column_1758 Column_1759 Column_1760 Column_1761 Column_1762 Column_1763 Column_1764 Column_1765 Column_1766 Column_1767 Column_1768 Column_1769 Column_1770 Column_1771 Column_1772 Column_1773 Column_1774 Column_1775 Column_1776 Column_1777 Column_1778 Column_1779 Column_1780 Column_1781 Column_1782 Column_1783 Column_1784 Column_1785 Column_1786 Column_1787 Column_1788 Column_1789 Column_1790 Column_1791 Column_1792 Column_1793 Column_1794 Column_1795 Column_1796 Column_1797 Column_1798 Column_1799 Column_1800 Column_1801 Column_1802 Column_1803 Column_1804 Column_1805 Column_1806 Column_1807 Column_1808 Column_1809 Column_1810 Column_1811 Column_1812 Column_1813 Column_1814 Column_1815 Column_1816 Column_1817 Column_1818 Column_1819 Column_1820 Column_1821 Column_1822 Column_1823 Column_1824 Column_1825 Column_1826 Column_1827 Column_1828 Column_1829 Column_1830 Column_1831 Column_1832 Column_1833 Column_1834 Column_1835 Column_1836 Column_1837 Column_1838 Column_1839 Column_1840 Column_1841 Column_1842 Column_1843 Column_1844 Column_1845 Column_1846 Column_1847
feature_infos=[-0.98727640571192277:2.0044702782636015] [-1.7932683907980889:1.4771298902926513] [-1.6999108897593089:1.7722475233660877] [-1.7542515222509203:1.7630447629639576] [-1.7101612852754451:1.6213217379884088] [-1.743675440098883:1.7320895567759669] [-1.660163296341046:1.6629325428737247] [-1.718146673634992:1.7704760139487481] [-1.7720305811258901:1.7514767881385147] [-1.7237279648620649:1.7644230601539181] [-1.7512858116699053:1.7023591743677056] [-1.7614611552102717:1.806055108506734] [-1.7191622890869369:1.727779643919453] [-1.7902803718273734:1.7229435794283063] [-1.7231609429972359:1.8297482178218074] [-1.6915887958381395:1.694410461886243] [-1.639104934449173:1.7289189034600865] [-1.7921096436074053:1.8131402680923205] [-1.6670934692965518:1.6979396058184391] [-1.7529025121711415:1.6954302986573337] [-1.7357026549870058:1.8216725559171905] [-1.6608372574258408:1.7872677752921675] [-1.821502900909959:1.8033784939357307] [-1.6340080923529003:1.7178033791402287] [-1.8153494576755893:1.7470697560786335] [-1.6802525164147994:1.6635335859032097] [-1.8027928308717589:1.7524272135754237] [-1.8077409512273785:1.6301182270180326] [-1.7491645915673988:1.6721842427942613] [-1.7394703946230321:1.7078697763887576] [-1.7293603740264514:1.7064549386088825] [-1.7177575852674238:1.7408147340629601] [-1.7873999181453726:1.7607885049719922] [-1.7552806753590484:1.6668749874043276] [-1.7227977736480458:1.6802595570147603] [-1.7150551374564904:1.755545477969797] [-1.7467931879569301:1.8090199172989074] [-1.8105454609896463:1.7337523419264644] [-1.6927034605408855:1.755928377572973] [-1.8129401145760755:1.7859484503392107] [-1.7221053705921983:1.7135163163747806] [-1.7765935401396764:1.7530624998729254] [-1.7674926332297107:1.7499056418542909] [-1.7263350272183515:1.7436851279944152] [-1.7694197975226433:1.8447142569916923] [-1.6791567694026297:1.7652673729617385] [-1.7087228719419563:1.6776808379347532] [-1.7180290365361564:1.764462253739836] [-2.8264401718319823:0.35380193430771562] [-1.5050933932648831:0.6644105970265568] [-1.7378436358065588:0.57542576293732117] [-1.785632010071907:0.56002580283013847] [-1.5986105077711183:0.62554324217102097] [-1.7436754400991088:0.57350122448413698] [-1.59368221702139:0.62747766732868893] [-1.7554579610637229:0.5696519211395934] [-1.7917941611106694:0.55809982067352359] [-1.7554579610637222:0.56965192113958962] [-1.7205801462311141:0.58119931360955202] [-1.8361875447389198:0.54460667858515344] [-1.7149013672827205:0.5831239155079051] [-1.7795130420054452:0.56195148694879216] [-1.8168861463553647:0.55039222023113621] [-1.6547863176283721:0.60430763135205301] [-1.6339292428507635:0.6120216064283468] [-1.8761060767718598:0.53301890142605735] [-1.6339292428507606:0.61202160642834924] [-1.7149013672827205:0.5831239155079051] [-1.8232729703270258:0.54846422684604434] [-1.7092596723294295:0.5850486126762261] [-1.89676069904093:0.5272146351963799] [-1.6186134505381888:0.61781273327940101] [-1.8297065576089833:0.54653572499978953] [-1.613568592779443:0.61974433840288889] [-1.8232729703270254:0.54846422684604423] [-1.6925525987447427:0.59082358843168803] [-1.6870547845741715:0.59274897836360974] [-1.7149013672827205:0.5831239155079051] [-1.7036546083026813:0.58697343647374611] [-1.7262964700445531:0.57927477542367289] [-1.8168861463553645:0.5503922202311361] [-1.6870547845741726:0.59274897836360652] [-1.6707690427804527:0.59852677084296235] [-1.7378436358065539:0.57542576293732306] [-1.8232729703270238:0.54846422684604379] [-1.8105454609898659:0.55231974095419667] [-1.7149013672827205:0.5831239155079051] [-1.8693266227368532:0.53495199171539676] [-1.7036546083026809:0.58697343647374589] [-1.7980000647400096:0.55617350611404548] [-1.7856320100719039:0.56002580283014114] [-1.7378436358065539:0.57542576293732306] [-1.8829377433827919:0.531085004543567] [-1.7092596723294291:0.58504861267622588] [-1.6547863176283721:0.60430763135205301] [-1.7495467143190264:0.57157662142731469] none [-2.7405543778353096:0.36488967636900743] [-2.5449234790104587:0.39293912302181694] [-2.7741038505998707:0.3604767715468758] [-2.5869494955077093:0.38655567174253125] [-2.7080128015453346:0.3692744729380002] [-2.4282816402011438:0.41181384541422911] [-2.5727509827124084:0.3886889973882055] [-2.8627613066496744:0.3493130907132142] [-2.7080128015453311:0.3692744729379997] [-2.7080128015453391:0.36927447293800075] [-2.7080128015453351:0.36927447293800025] [-2.6307398349528892:0.38012120648103254] [-2.7912736861885872:0.35825938708485394] [-2.6307398349528905:0.3801212064810327] [-2.4784787961282282:0.40347329239296742] [-2.36887531287188:0.4221412560493335] [-2.7571997638246084:0.36268681476052123] [-2.5727509827124084:0.3886889973882055] [-2.7080128015453298:0.36927447293799948] [-2.630739834952887:0.3801212064810322] [-2.5449234790104596:0.39293912302181716] [-2.9391417483454871:0.34023537672618615] [-2.4405986435975806:0.4097355387061633] [-2.9003042436755515:0.34479141358380666] [-2.5312857221987723:0.39505615317553094] [-2.8444523358476435:0.3515615246553267] [-2.8087165910587766:0.35603449745815491] [-2.5869494955077106:0.38655567174253153] [-2.7080128015453289:0.36927447293799937] [-2.7080128015453244:0.36927447293799881] [-2.5587437955607877:0.39081677569084061] [-2.808716591058781:0.35603449745815552] [-2.6457513110645903:0.3779644730092272] [-2.6307398349528861:0.38012120648103209] [-2.5587437955607881:0.39081677569084067] [-2.6159390770623885:0.38227189951341473] [-2.8444523358476439:0.35156152465532675] [-2.572750982712408:0.38868899738820539] [-2.7741038505998712:0.36047677154687585] [-2.586949495507711:0.38655567174253158] [-2.8087165910587766:0.35603449745815491] [-2.774103850599865:0.36047677154687507] [-2.5587437955607881:0.39081677569084067] [-2.826440171831675:0.35380193430804358] [-2.5312857221987728:0.39505615317553106] [-2.5869494955077057:0.38655567174253075] [-2.6457513110645903:0.3779644730092272] [-0.35380193430804374:2.8264401718316763] [-0.4823542675723943:2.0731650308243972] [-0.36047677154687563:2.774103850599869] [-0.37580156842440454:2.6609787824798743] [-0.42214125604933372:2.3688753128718809] [-0.38227189951341423:2.6159390770623849] [-0.39927470475234472:2.5045413298101633] [-0.35825938708485294:2.7912736861885792] [-0.38441667971640892:2.6013439394401643] [-0.3779644730092272:2.6457513110645903] [-0.39081677569084078:2.558743795560789] [-0.34931309071321381:2.8627613066496713] [-0.38227189951341461:2.6159390770623876] [-0.38012120648103154:2.6307398349528825] [-0.34479141358380688:2.9003042436755533] [-0.38227189951341467:2.615939077062388] [-0.37145670723316815:2.6921037647929618] [-0.34251778896020962:2.9195563916132157] [-0.40556535916314596:2.4656938207529318] [-0.39293912302181605:2.5449234790104529] [-0.34251778896020951:2.9195563916132148] [-0.37145670723316798:2.6921037647929604] [-0.35825938708485372:2.791273686188585] [-0.39081677569084078:2.558743795560789] [-0.3758015684244041:2.6609787824798712] [-0.40765274194771778:2.453068254176618] [-0.37145670723316765:2.6921037647929582] [-0.41388775612546036:2.4161139951597388] [-0.38655567174253047:2.5869494955077039] [-0.39293912302181661:2.5449234790104565] [-0.3971679774547337:2.517826352488266] [-0.36708551190375804:2.724160904127888] [-0.36927447293799948:2.7080128015453298] [-0.39505615317553089:2.5312857221987719] [-0.39927470475234461:2.5045413298101629] [-0.36268681476052111:2.7571997638246075] [-0.34023537672618615:2.9391417483454871] [-0.37580156842440443:2.6609787824798734] [-0.37363235887853796:2.6764277135993217] [-0.34705644969040655:2.8813756404529092] [-0.38012120648103254:2.6307398349528892] [-0.37580156842440471:2.6609787824798752] [-0.37580156842440421:2.6609787824798716] [-0.36268681476052167:2.757199763824612] [-0.34931309071321337:2.8627613066496678] [-0.3692744729379987:2.708012801545324] [-0.39927470475234472:2.5045413298101633] [-0.37145670723316765:2.6921037647929582] [-1.4338174673737403:1.6789477263820081] [-1.8578290724983972:1.8040452927586843] [-1.6739375182777789:1.7830486440254756] [-1.8071193642741115:1.6691547359225563] [-1.8338698653485843:1.7422322486766872] [-1.7378616552032529:1.7652295552851938] [-1.8304149873783411:1.7476717319928818] [-1.7502020128701594:1.8012541958708113] [-1.8132556070926018:1.755267112892839] [-1.8574536782202515:1.8470348043629865] [-1.7744653936188595:1.7667190526426624] [-1.7386951347401345:1.7181699980144045] [-1.8274715496363523:1.7481377189887328] [-1.7959636632341727:1.6692661964880782] [-1.7153679882120114:1.7293622046203929] [-1.8682385582349685:1.8694065723382727] [-1.829663592630651:1.8069348523495252] [-1.8646332747160126:1.6934027891428072] [-1.830299513209745:1.8360281501837976] [-1.8108245373634957:1.738724326074903] [-1.7749495511893172:1.7203357188450308] [-1.7749648107434919:1.8313128999734445] [-1.6987573647244654:1.7603731266012044] [-1.7936755027056277:1.7880790112775289] [-1.7911231116502813:1.6846767411580268] [-1.8460363115442313:1.799330054973227] [-1.7551642030316521:1.8348169089538302] [-1.816630539248018:1.766246333228813] [-1.788919823071857:1.8262007540231497] [-1.7513999962904991:1.8251666840729961] [-1.778587298356807:1.7730378840093597] [-1.7572299057621192:1.8694296869104265] [-1.7446933165469487:1.84913907028938] [-1.7438815648809076:1.8161956329620939] [-1.7665600791955545:1.8158177746864315] [-1.733245288195117:1.7749045677342792] [-1.7798484617019474:1.7687590631866703] [-1.8165287436442106:1.7485690666357498] [-1.729273398451409:1.7998559861433037] [-1.8026713815453304:1.8049261299900403] [-1.7833787657550613:1.8273849485228235] [-1.772766235150119:1.8142410063803147] [-1.8001751756703568:1.804681246197692] [-1.7082915308865385:1.7880518645959835] [-1.784191659515975:1.7675429037506629] [-1.7746287624430135:1.8048304495441556] [-1.8410298625949713:1.7877324166190163] [-1.7905439957591689:1.7171026442343056] [-0.41972247627018616:2.8206809984973336] [-1.9547124960390716:1.6891589341372026] [-1.9672152520193695:2.0429403900489067] [-2.0617946212568947:2.0289461509016422] [-1.9268182972107388:1.845351915468084] [-2.0234292659047122:1.9943672690685386] [-1.86721999787683:1.893823011760295] [-1.9850989240757961:2.0551569213583174] [-2.0912122831661604:2.0128522362114665] [-2.0268944243123244:2.0110122517503783] [-2.0144394898460685:1.9642810604538619] [-2.0661389381520161:2.1134942018408163] [-1.9858469713675115:1.9818396654274748] [-2.0668580757921831:2.0141047247346435] [-2.031432922230834:2.117057934000055] [-1.9100512913703322:1.9554840421827722] [-1.8604910826337322:1.974729469349874] [-2.1016772387547658:2.1480129382617714] [-1.9315585055899382:1.8979611372231799] [-2.0122567169091052:1.9569393101568764] [-2.0354058778871988:2.1245822026481895] [-1.9519357651612557:2.0075537649569579] [-2.1636760256381327:2.1221889357178756] [-1.8789074524895892:1.9250496545530684] [-2.1216698793432562:2.0482514377984944] [-1.911302866771873:1.8834494216774536] [-2.1022878305509609:2.0547451827476331] [-2.0379660068453269:1.9005255082726202] [-1.9627225016944394:1.9570776482681516] [-2.0112519702074665:1.9578412758068084] [-2.0059807241970264:1.9442130079951829] [-1.9678494702836673:2.0208862502741725] [-2.0881419212693593:2.0570529596623706] [-1.9819390970436253:1.9387589029048791] [-1.9684596121771947:1.9243540149561504] [-1.9726792020598234:2.0366547361741554] [-2.0318028877414847:2.1289565192885989] [-2.0971859260606283:2.0382285733546452] [-1.9656030549884171:2.0027603111037848] [-2.1046601560029776:2.132370087915167] [-1.9675852579427704:1.9808122942705499] [-2.0789188741592595:2.0338566367391602] [-2.0628107176829782:2.0279979948883753] [-1.9734813034629735:2.0357444042057447] [-2.1225285345570062:2.1381798388518112] [-1.948962142425388:2.0108944527730341] [-1.9471776539638321:1.9177781981938811] [-2.0050591469244221:2.0226334616704711] [-2.8264401718316878:0.35380193430803858] [-1.5050933932646906:0.66441059702674776] [-1.7378436358063312:0.57542576293752878] [-1.7856320100717078:0.56002580283036385] [-1.5986105077709165:0.62554324217122048] [-1.7436754400988914:0.57350122448434515] [-1.5936822170211977:0.62747766732889576] [-1.7554579610634995:0.56965192113980367] [-1.7917941611104549:0.55809982067374009] [-1.7554579610635008:0.56965192113980334] [-1.7205801462309087:0.58119931360976351] [-1.8361875447386982:0.54460667858537548] [-1.7149013672825051:0.58312391550811382] [-1.7795130420052223:0.56195148694900932] [-1.8168861463551447:0.55039222023135514] [-1.6547863176281679:0.60430763135225873] [-1.633929242850571:0.6120216064285563] [-1.8761060767716369:0.53301890142628428] [-1.633929242850571:0.61202160642855663] [-1.7149013672825064:0.58312391550811404] [-1.8232729703267991:0.54846422684626606] [-1.7092596723292326:0.58504861267644082] [-1.8967606990406782:0.52721463519660194] [-1.6186134505379781:0.61781273327960029] [-1.8297065576087681:0.54653572500001391] [-1.6135685927792573:0.61974433840309817] [-1.8232729703267991:0.54846422684626495] [-1.6925525987445467:0.59082358843189986] [-1.6870547845739452:0.59274897836381057] [-1.7149013672825064:0.58312391550811393] [-1.7036546083024784:0.58697343647395517] [-1.7262964700443499:0.5792747754238895] [-1.8168861463551447:0.55039222023135581] [-1.687054784573947:0.59274897836381135] [-1.6707690427802382:0.59852677084316719] [-1.7378436358063316:0.57542576293752956] [-1.8232729703267969:0.54846422684626406] [-1.810545460989627:0.55231974095441416] [-1.7149013672825077:0.58312391550811482] [-1.8693266227366419:0.53495199171562258] [-1.7036546083024795:0.58697343647395572] [-1.7980000647397758:0.55617350611425953] [-1.7856320100717071:0.56002580283036418] [-1.7378436358063314:0.57542576293752945] [-1.8829377433825483:0.53108500454378837] [-1.7092596723292326:0.58504861267644137] [-1.6547863176281687:0.60430763135225851] [-1.7495467143188199:0.57157662142753318] [-2.886579864025407e-15:-2.886579864025407e-15] [-2.886579864025407e-15:-2.886579864025407e-15] [-2.886579864025407e-15:-2.886579864025407e-15] [-2.886579864025407e-15:-2.886579864025407e-15] [-2.886579864025407e-15:-2.886579864025407e-15] [-2.886579864025407e-15:-2.886579864025407e-15] [-2.886579864025407e-15:-2.886579864025407e-15] [-2.886579864025407e-15:-2.886579864025407e-15] [-2.886579864025407e-15:-2.886579864025407e-15] [-2.886579864025407e-15:-2.886579864025407e-15] [-2.886579864025407e-15:-2.886579864025407e-15] [-2.886579864025407e-15:-2.886579864025407e-15] [-2.886579864025407e-15:-2.886579864025407e-15] [-2.886579864025407e-15:-2.886579864025407e-15] [-2.886579864025407e-15:-2.886579864025407e-15] [-2.886579864025407e-15:-2.886579864025407e-15] [-2.886579864025407e-15:-2.886579864025407e-15] [-2.886579864025407e-15:-2.886579864025407e-15] [-2.886579864025407e-15:-2.886579864025407e-15] [-2.886579864025407e-15:-2.886579864025407e-15] [-2.886579864025407e-15:-2.886579864025407e-15] [-2.886579864025407e-15:-2.886579864025407e-15] [-2.886579864025407e-15:-2.886579864025407e-15] [-2.886579864025407e-15:-2.886579864025407e-15] [-2.886579864025407e-15:-2.886579864025407e-15] [-2.886579864025407e-15:-2.886579864025407e-15] [-2.886579864025407e-15:-2.886579864025407e-15] [-2.886579864025407e-15:-2.886579864025407e-15] [-2.886579864025407e-15:-2.886579864025407e-15] [-2.886579864025407e-15:-2.886579864025407e-15] [-2.886579864025407e-15:-2.886579864025407e-15] [-2.886579864025407e-15:-2.886579864025407e-15] [-2.886579864025407e-15:-2.886579864025407e-15] [-2.886579864025407e-15:-2.886579864025407e-15] [-2.886579864025407e-15:-2.886579864025407e-15] [-2.886579864025407e-15:-2.886579864025407e-15] [-2.886579864025407e-15:-2.886579864025407e-15] [-2.886579864025407e-15:-2.886579864025407e-15] [-2.886579864025407e-15:-2.886579864025407e-15] [-2.886579864025407e-15:-2.886579864025407e-15] [-2.886579864025407e-15:-2.886579864025407e-15] [-2.886579864025407e-15:-2.886579864025407e-15] [-2.886579864025407e-15:-2.886579864025407e-15] [-2.886579864025407e-15:-2.886579864025407e-15] [-2.886579864025407e-15:-2.886579864025407e-15] [-2.886579864025407e-15:-2.886579864025407e-15] [-2.886579864025407e-15:-2.886579864025407e-15] [-2.886579864025407e-15:-2.886579864025407e-15] [-1.7074405792817877:0.77385363220854875] [-2.2157359789026692:2.1448760336979094] [-2.0637868374689496:2.1941872952845247] [-2.2961880483897321:2.1382125278608064] [-2.3485301617538581:2.2034362329235164] [-2.3756023775608219:2.3431608801639641] [-2.3869958915477731:2.3485198263399356] [-2.3665077044344409:2.3517631081451293] [-2.5627265885317314:2.4994493888148988] [-2.5069757431013993:2.4789300231661446] [-2.3101220145469021:2.3362579015750882] [-2.3817701612856825:2.3375267527169084] [-2.3699341850566844:2.3288200851920084] [-2.4338254705286126:2.2920492295269459] [-2.2630099538894872:2.2517231212017594] [-2.4978132895856495:2.4330951167524617] [-2.5382568078356211:2.4786806752242847] [-2.4841971829532605:2.3778401170164236] [-2.4249327927220006:2.3828645658346299] [-2.408134431230005:2.390140898742608] [-2.3870136179834338:2.299148086033123] [-2.3716160998813018:2.4377448124255205] [-2.3511885331235267:2.3190804339747264] [-2.4195200217688333:2.4134787732750289] [-2.5068447566129453:2.3965190705028401] [-2.4099744183888849:2.3800368479741159] [-2.5048979254025392:2.613667439404693] [-2.6315895946385499:2.6151933977872193] [-2.5275063666820654:2.5529084407190705] [-2.4613846640730586:2.5111096067816052] [-2.38027679928138:2.3922080113078525] [-2.3840471928848337:2.4813552415740103] [-2.3578039093231005:2.4849255578360281] [-2.3858991479617746:2.473984539802502] [-2.4193373332589365:2.4314643374356728] [-2.335010869967975:2.3467151851056589] [-2.5425436512755195:2.4397831607769378] [-2.5265470101779424:2.4183768017911191] [-2.3211019205642405:2.4007837411049073] [-2.4978132895856491:2.4330951167524613] [-2.4300101303953721:2.4667357243056296] [-2.4275367072206051:2.4366570705539323] [-2.4940940860593228:2.4723658239530186] [-2.4412897896424059:2.4689096615553936] [-2.4901050441392765:2.4714990288655083] [-2.4877243024386981:2.4598939497700241] [-2.4831653498197386:2.3947530783098894] [-2.3911888388548168:2.3526451873915648] [-1.4281818948603437:4.0472758490131779] [-3.7848174947777622:3.5782427490481998] [-3.8500040826250395:3.8393244596496583] [-3.624151114545588:3.6402943266371048] [-3.7489868633912997:3.8460343567598985] [-3.5798736823908039:3.5858451147217307] [-4.0402337866530376:3.8731729771940429] [-3.7097720795781757:3.5861467876610664] [-3.6613525548640879:3.7981093565737818] [-3.5712992391021525:3.7026341474708317] [-3.7568667423655886:3.8950259153521589] [-3.7150769597302986:3.7336988993780698] [-3.8704792932032253:3.8683296240595415] [-3.8078981792313153:3.8633012864837011] [-3.654347441919779:3.7302446382998138] [-3.6945057189149186:3.7649561925229436] [-3.8964430123057614:3.955331319796529] [-3.6383729023245275:3.6202264040585699] [-3.8939271890124365:3.9418122634441151] [-3.8815805261728298:3.9754281295607585] [-3.9541614688092479:3.9322547570706927] [-3.8172531471927518:3.7708812149794761] [-3.6673794041648122:3.7207380300787936] [-3.8209644363300432:3.755720758265471] [-3.6471457772038209:3.6350088528204467] [-3.9274776372888129:3.92093729151481] [-3.6682397763956298:3.7631970244058714] [-3.7895477704384573:3.6877731249183232] [-3.7638867871262134:3.7368009702246683] [-3.6796971261465252:3.7623869492059976] [-3.8274859431188983:3.7936143861001468] [-3.701815943234271:3.6548152439826072] [-3.8800586788192031:3.7175541815284343] [-3.6312857861850083:3.6212128713828307] [-3.8751439738730418:3.8708406490825107] [-4.0219535789248981:3.9532779738867978] [-3.7716519230169845:3.7299762111604426] [-3.5537668949274601:3.5184060303013158] [-3.924312040014164:3.8615922554121194] [-3.8446973999016576:3.8043275460204025] [-3.9115312714019268:3.9071875387296315] [-3.8751439738730413:3.8708406490825102] [-3.5788211310375226:3.5589938671536587] [-4.2094399298246632:4.2493843779446845] [-3.711887846752512:3.7868754800202402] [-3.7899058272574648:3.7962276051177772] [-3.6009464109638909:3.6411804490752195] [-1.3088885537140555:3.2736534286546286] [-2.9949445222897504:2.6337687537442358] [-2.8911122859854368:2.7257275572674353] [-2.765056204427482:2.7163327470807421] [-2.6283626110171667:2.688920558222395] [-2.7364395095469369:2.79172111580041] [-2.7927896471243687:2.8603128154270663] [-3.000974331796483:2.9220013230649959] [-2.8545394444617811:2.8752302795763636] [-2.8758814248212459:2.7401604137230913] [-2.8500209128243457:2.8770654874925086] [-2.7905491624843179:2.7673910781483486] [-2.9029296040712302:2.8517766595060983] [-2.7670428820515975:2.7747398024467338] [-2.7197553939463757:2.8182080778901355] [-2.9192651158654717:2.8001114376668812] [-2.8099221169722628:2.7650129180787957] [-2.7007959354616511:2.706804380256894] [-2.9019304021583459:2.9262143385780806] [-2.6788750232721599:2.873197563820399] [-2.9232401614859498:2.9922542631061915] [-2.6809323080929279:2.722962601836826] [-2.8361657308259276:2.7877376737311312] [-2.5376957893966057:2.5433413862584451] [-2.9082384329149567:2.919570283196284] [-2.7204566351278054:2.6429847046641441] [-2.7891977673390547:2.8344997753215995] [-2.6100212486382159:2.7090144123284285] [-2.8668021007773885:2.8540890094213913] [-2.8802270481998198:2.8994927809636981] [-2.961593831912988:2.8692717928541747] [-2.7175560371060556:2.7372539621031997] [-2.8854817903681536:2.8647171829644522] [-2.6990839547080396:2.8311962029179951] [-2.9678893452390449:3.0430257843590205] [-2.8797691755017119:2.8701859170141857] [-2.7980241780660751:2.7732629021539856] [-3.0267331212622972:2.9783587699166891] [-2.8925823453751693:2.7899805159348494] [-2.844855946245366:2.8766420462034148] [-2.8045277922012013:2.8931584673497719] [-2.9096128360635478:2.8999302642297256] [-2.97297515736263:2.845296419971139] [-2.706391161173761:2.7184463556556047] [-2.7364655033873579:2.884804574897657] [-2.7904054328820309:2.7351498797556544] [-1.3229576867019093:3.4018911943763381] [-2.9097715961232149:2.6458782294103695] [-3.055869276725518:3.0643696085105683] [-2.8865030910855984:2.8387922961916217] [-3.1847934160329969:3.095818086414984] [-3.171224685422021:3.0232456713437279] [-2.9348981156106482:2.9267569280500085] [-2.9033510793733575:2.8680812153500481] [-2.9904279871832724:2.9639640226949244] [-2.959357092893895:2.8846832441428694] [-3.0511158299383809:3.0342121411298586] [-3.065683093136498:3.0982147763364942] [-2.8793550966794204:2.8793550966794204] [-2.9375645246523705:3.0727976741248582] [-3.1330170160265616:3.2212710164780143] [-2.8532230242116765:2.9205841074139753] [-3.0210983802168965:2.9993578438522022] [-3.2054730538267857:3.1454917198531422] [-2.9785097062702968:2.9114298392243847] [-3.1957435630467899:3.2296553908590706] [-2.9003212921309887:2.9343569150059543] [-3.1839815039515376:3.1383204343967996] [-2.8779710918576873:2.9573969344378206] [-3.1986256868271483:3.0697752236669906] [-3.0196951334989617:3.0415830826126986] [-2.8984177292453905:3.010021582919618] [-3.0347702402385677:3.0686782876155356] [-2.9539818066052943:3.00863916551641] [-3.0059746310867128:3.0210421730971726] [-2.9655219376929991:2.978731389531275] [-2.9607593241083499:2.9905156992250168] [-2.9510946378540845:2.8479996286714089] [-3.1567098175644137:3.2008596052226577] [-3.1403620299335033:3.0105102811440876] [-3.0561611652234961:2.9939791673608238] [-3.0929180780483776:2.9898489697386532] [-3.0849833262684325:3.078135416554185] [-3.05111005824438:2.9675180018541232] [-2.9585854502985018:3.0032995880863882] [-2.9857197564325983:3.0511188412407262] [-3.0438121594090961:2.9918385009449366] [-3.151072292843224:3.0818179567367796] [-3.0915695154836662:3.1557783687381682] [-2.8444891870848874:2.9181225594010973] [-2.994187996249944:2.9925250204119824] [-1.3218246631905219:3.1748148714051583] [-3.1450209969149472:2.8502533419221248] [-2.8828986764515552:2.9378726276570255] [-2.9731813046575537:3.0790961602942097] [-3.1310090740498038:3.201368828522833] [-3.0212135631564694:3.08053612961396] [-3.0469053623300426:2.9799404093118] [-3.2131578249705579:3.0666294551021935] [-3.0325061898583212:2.9890174083159518] [-3.0442339422211595:3.0139430572239339] [-2.9498304087471192:3.1235979421191256] [-3.0389842037955757:3.0255075554417155] [-2.9028820221696545:2.8916149447340085] [-3.1663149440889899:3.0932862633357017] [-3.0813139032859866:3.0270176230518722] [-2.9961388404016405:3.0245699653175362] [-3.0979277586968088:3.0979277586968088] [-3.0929388552799177:3.036750040402826] [-3.2350738599320747:3.2225174324191697] [-2.925012562869719:2.959337940807838] [-3.0155532970388705:3.0424778800481462] [-2.9975691447171871:2.9859345541915312] [-3.2151506376203671:3.1973381687138835] [-3.0296169132883852:3.0313005014591479] [-2.959606023310362:2.9399408670092968] [-2.9685734556810877:2.9227520351964844] [-3.0461001056452326:3.0784239827785806] [-3.01097203080321:2.9171107205730848] [-3.2295281297391343:3.2116360071367014] [-3.0391920668651689:3.0459533395389511] [-3.0408593850914047:3.091966265513109] [-2.9714837090463355:2.9566633414201693] [-3.1921919363104378:3.2206936500274952] [-3.0677875989066314:3.0355754052734589] [-2.9749486294457852:3.0199100696892986] [-3.1410216574189862:3.1410216574189862] [-3.0928871674169769:3.0081505326932239] [-3.1060959705986879:3.2024769457089439] [-3.002298214839056:3.0612493719326701] [-2.9667411520025304:3.0758433725853678] [-3.1130220562898794:3.2982361832087279] [-3.0040724854608181:3.1739686157439495] [-2.7962816482956354:2.9007268032404636] [-2.932659136660241:2.9018658105499648] [-1.244816551157671:3.2075824395702122] [-2.9914762726684589:2.6661620680756708] [-2.8694549070131563:2.9144407622182897] [-2.9328588564378926:2.967276311584691] [-2.8973997386508628:2.8622021714226351] [-3.0459129946028218:2.9280923339562399] [-3.0608007686694387:2.9719847595046534] [-2.7598942624460676:2.7583614136471533] [-2.8866437480802309:2.9335284687155307] [-2.9168324308812745:2.9200751573191637] [-2.8354342140997071:2.8718977237023311] [-2.7956141681626927:2.7677971117630635] [-3.0851555059982907:2.9956327894267551] [-2.7789030619202886:2.8778970641261004] [-2.8164552101425069:2.76682604344396] [-2.9376644145583772:2.9787506301466062] [-2.8725307182723325:2.8187794555198509] [-2.990198636220577:3.0135465341051773] [-2.7534876088588005:2.7596132765092096] [-3.0187082847940858:2.9311136835928338] [-2.8597510630908376:2.7445515101955067] [-2.9312669852964217:2.9590825246489412] [-2.8631653841126785:2.8189709900910938] [-2.8597048620139209:2.7984086324901267] [-2.7692597037521147:2.6740026132053587] [-2.7620814200181272:2.8398865304411731] [-2.8439087935333411:2.9566983774128506] [-2.8557317998800764:2.8860355721211941] [-2.9663323645790358:2.9778905758520962] [-2.776141915881889:2.7045879427278177] [-3.0744998899085187:3.0102717448746961] [-2.9214533642770015:2.8084469960592591] [-2.9838335174971018:3.0610740024745171] [-2.8625215895685816:2.7686684226974805] [-2.9938169797522747:3.0526016048806506] [-2.8342933203179306:2.8295734313582006] [-2.946967504004208:3.0098449689969984] [-3.0110422163206967:2.8737308448923913] [-2.8915960659321276:2.8819734500721199] [-3.0282919580342651:3.0502422203450799] [-2.8749071092004717:2.7961425308662116] [-2.9888681530707952:2.9378326737289093] [-2.916476282311387:2.8021046633972153] [-1.207984492932336:3.1223557356525871] [-3.1409429819410799:2.9810899011059631] [-2.9395876531756246:2.9973074668424675] [-3.0957893822438129:3.1548229430942283] [-2.9809975951513152:2.9926129489871398] [-3.0363637416034694:3.0856802067429263] [-3.056081946430008:3.1091716300048633] [-3.0448163534008899:2.9205381348947315] [-3.100018266252635:3.0150862589580427] [-2.8897442915396128:2.8721385384479841] [-2.9653273627235799:3.0387100421160644] [-3.0873726549501224:3.0549548155226272] [-2.9385434306485871:3.012936935221969] [-3.186323078436371:3.0750104818097723] [-3.0099544229717932:3.048662251726812] [-2.9462766829629432:2.9692816319654427] [-3.0693725274899402:3.0830445654743048] [-2.9014418610413051:2.9111294799429461] [-3.1986991582412609:3.0511336611175119] [-2.9640474332791706:2.9971652816956977] [-3.1006268515724207:3.0989047594582457] [-2.8276713885239015:2.862444317840573] [-3.0230834673119569:2.9847004036916562] [-2.9539140308624052:2.9391812925538647] [-3.0955059581049911:3.1510307286539598] [-3.0973643339547996:3.0461682292613315] [-3.1685904492848413:3.2129063996244898] [-3.1040742256184197:3.161508736100846] [-3.0058175988615417:2.9413895217218879] [-2.9708579332596643:2.9120290632941268] [-3.2226105798314992:3.1640660441120172] [-3.0604469042397024:3.0740791844367608] [-2.8776441008060569:2.9718865388900499] [-3.1415274448609884:3.2103393349758877] [-2.9733000827295899:3.0182366079093819] [-3.145413362119192:3.1003053933298377] [-3.0949425906693713:3.1121846106731001] [-2.9955229992262575:2.9624232975773483] [-2.9949475149497049:3.0402112053519676] [-3.0857195940250719:3.1340959370445018] [-2.8808658676112433:2.9049735317753544] [-3.0923522255243676:3.1548239876561728] [-1.2847586299621618:3.2133022189206795] [-2.8569348136365873:2.7632648197468632] [-2.7661797868678191:2.9128890655554196] [-2.8161221445552278:2.9605386647888294] [-2.9542857325979388:2.9641497918052777] [-2.9854231900380652:2.9230559106419975] [-3.0570824112271038:2.9932181277600178] [-2.9095105163500694:2.9502029711241966] [-2.8165029131021622:2.7977886080317158] [-2.8018968762248542:2.7025117209972329] [-2.9884230716277091:3.0017345329712621] [-2.6989206475682965:2.6989206475682965] [-2.8717175395027459:2.9118814211741131] [-2.9745375719244413:2.9384029354902408] [-2.7785233596121297:2.9226359989536537] [-2.9126438895619522:2.9599509031700713] [-2.856087637260019:2.8735950008765476] [-3.0961023633355929:2.8995773074595306] [-2.9318997339943631:2.8468240778751723] [-2.9407129190453389:2.921173298320785] [-2.9976443953304859:2.8593541518552672] [-2.7905791404383975:2.7751188681922017] [-2.8023624834568244:2.8431355246263137] [-2.9008276718865611:2.977573464500503] [-2.8767234698637805:2.9659871036254213] [-2.8620470541602847:2.9263627182987175] [-2.7904054328820314:2.7351498797556539] [-2.896703269323341:2.9617977248137533] [-2.9233010123523755:2.8958218211939624] [-3.1359604297833106:3.0807012151615778] [-2.8171855322932964:2.8502455469220522] [-2.975325663779846:2.9083175054634633] [-3.0445961566487796:3.1443062509941373] [-2.8299653817486194:2.7677683403915068] [-2.8137835378693405:2.8722230500226749] [-2.8690615189273125:2.8547519851670766] [-2.9869863465633784:2.8460219787027801] [-3.0104427058038095:3.0373216585342004] [-2.8390764570871547:2.8249164747575426] [-2.8243902416167153:2.8814486303362443] [-2.8795244132316484:2.8971754405626871] [-1.4375064878557731:3.3575116787235935] [-3.2719738040118846:2.9275555088527381] [-3.0857303279989101:3.0330409090135255] [-3.1398278503337513:3.1345991611575088] [-3.0381257371742709:3.0196159708442143] [-2.8473356888378789:2.8679743082718865] [-3.2721928283460504:3.2831183469715803] [-2.9085766759968439:2.906961248795513] [-2.8833636842255541:2.8962071750238856] [-3.0863519954961771:3.0101457733851604] [-2.9993111676950677:2.9810378789414562] [-3.0091630209192424:3.0495544708644671] [-3.0751965406678048:3.0734885725807906] [-2.9818139218721824:2.9917698949001368] [-3.1979451761329027:3.2770844268358541] [-2.8657323571407427:2.7934209537241359] [-3.1864310503645581:3.1775921292817162] [-2.8440306138402685:2.8094813739150966] [-3.1044370525721017:3.0210622016123687] [-2.879888687740678:2.934805241517001] [-2.9937405198055176:2.9426218438958673] [-2.9265996226845661:3.098998685387746] [-3.1566198330894206:3.1883446555325308] [-2.9260546657462148:2.9818515578580329] [-3.2428339371021488:3.1243338695887353] [-2.926818174996531:2.9317002737037812] [-2.9191672612265824:2.9831085828709725] [-3.0406707008448137:3.0883407902197604] [-3.0602886054440757:2.9814108623917743] [-3.0977389855186148:3.1323505942953593] [-3.1210962515516352:3.0797572283522761] [-3.1103955176863951:3.2644543904667627] [-3.0984479720296245:3.1557783802589361] [-3.0355556484310147:3.0153858434580512] [-3.0330271210595807:3.0669156922446046] [-2.9851625604938503:2.9785362285060724] [-3.0295596505999773:3.0111020731108606] [-3.0101505112884319:2.990149511213426] [-2.9306929006443276:2.9096029434296158] [-2.976942607146563:3.0506127279083453] [-1.3461580391309116:3.4295689289610141] [-3.001491249964177:2.839248479695843] [-3.2176375886650463:3.2069299760571752] [-2.9378726276570259:2.8828986764515556] [-3.2439675652683579:3.1797305837778951] [-3.1588079219083367:3.0467628933004014] [-3.0239410204491644:3.0441680506862827] [-2.9315717228707103:3.0529239971942497] [-3.1539228581707746:3.1998109355700133] [-3.0425118877306372:3.0391331960174437] [-3.0498578734044903:3.1166618369331487] [-3.1474514608121749:3.2074701650564901] [-3.3685001577399185:3.2816783823553419] [-3.1509623038235319:3.2164046867825391] [-2.9962109526336502:2.9680464040050785] [-3.0411081817558663:2.9941671513869776] [-3.0874405241297462:2.9878728876587681] [-3.1687496634519312:3.0682644362894314] [-2.9715669036187586:3.0131272798931468] [-3.143539672954764:3.1821969523315135] [-2.9559097696841472:2.962485764722377] [-3.1140427845150445:3.1964295060867904] [-3.1693226183253693:3.1221366736356613] [-3.0794606154211763:2.9818068616243321] [-3.1036023625620173:3.018572160847989] [-3.0242650248932761:2.9742771732421471] [-2.9831759717677611:3.1239798419165949] [-3.2099409319977816:3.2063763113070562] [-3.069971053088651:3.01085194064953] [-3.1732688901293491:3.2033808472223986] [-3.0900811866783204:3.0491529590401973] [-3.0338656050093245:3.0103602821149522] [-3.1011599874293316:3.1132435498629558] [-2.950520010052907:3.0386945578582654] [-3.185098331305265:3.1446582200052258] [-3.3218603299659217:3.1809657645840064] [-2.9961335871962858:2.9712694080494289] [-2.8798777399740532:2.9315347397942157] [-3.0248444257799809:3.0467696990083835] [-1.3078979441698031:3.4087888567430844] [-3.2184203095836028:3.0024189465243003] [-3.1751415974612414:3.0387805285841343] [-3.1278554201769624:2.9835581552027204] [-3.1142107009442572:3.035629410629701] [-2.9978570970161464:2.9696770745393568] [-2.9284837900887277:2.8768805514968556] [-3.1095393760465844:3.0974701907777593] [-2.9995806612414007:3.0960955343380752] [-2.863681879138209:2.9410786866824852] [-3.2066215691731252:3.099763379760637] [-2.895015424507267:2.9273619655632146] [-3.2331616368629814:3.3094926029946539] [-2.8950956715397984:2.8314671952422206] [-3.3140956158904382:3.1929914946661895] [-2.9523743867183212:2.8682980076880078] [-3.0261355412667825:3.0110425959238061] [-3.1646494879748461:3.1716898650337448] [-3.0930010027475823:3.0334383974677115] [-2.8778350371230239:2.9506916203413285] [-2.9735438766480646:2.8347892519102817] [-2.9510972705738645:2.9807565396248585] [-3.1146574436849472:3.0614740888216958] [-2.9210523839685996:3.0521305653565687] [-3.0071557621783005:2.9004899370532859] [-2.9320605865810623:2.9549545342732735] [-3.0913762379655485:3.0862282342387117] [-3.1555107430075542:3.1345438942168062] [-2.9529577244651981:2.9992526943896243] [-3.1725805692914895:3.2169523255053565] [-3.1089358407368701:3.0053329528456119] [-2.9758236360488719:3.0224770861101087] [-3.0239817221380147:2.9444032557659616] [-3.0051485124603046:2.9130870700654596] [-3.2181565150662808:3.0696933922545386] [-3.1424565749138589:2.9858444379192348] [-2.8901178146083075:2.901379058528295] [-3.1243777678853042:3.0185823437406358] [-1.2925021709394926:3.3581803032056077] [-2.9219171893769214:2.6613640642095522] [-3.3396066739833765:3.1837704428588132] [-3.0390424486872809:2.9772087557527582] [-3.0443104452332848:2.9609046796104552] [-2.8025992696469899:2.7793411844217042] [-3.2552042079735477:3.2120889204507197] [-2.8238811789888563:2.8459304464210056] [-2.9439015860361049:2.9619472352121412] [-3.0373154355202234:3.0339425144369137] [-2.8778939392338319:2.9019767337044078] [-3.048508337896235:3.033303807532663] [-2.8935989038805201:2.8600360334129746] [-3.0679198342520384:3.1229497864359317] [-2.7601047511242545:2.8362777349626596] [-3.1761543791350539:3.1306055573713962] [-3.0282428796567911:2.9469143506882065] [-2.9621934426299856:3.0660125457634271] [-2.9161166915684129:3.0554533252952312] [-3.0344334778368189:3.0802939334212547] [-2.9819255637947424:3.0370999644705075] [-3.0865527251468139:3.066044069165772] [-2.9389372066343111:2.9259042256736274] [-3.0030284844572113:2.8660825600845699] [-2.9973436131162994:3.0869174566433157] [-3.1227353376533458:3.0136441468182942] [-3.0178897964186469:2.9433739989762113] [-3.1563991299830296:3.0580044073092361] [-3.1419987686134809:3.159502940026369] [-2.8665639332507977:2.9375025232750023] [-3.0792167496196479:3.0912148109874953] [-2.9697253992088761:3.0012388214847587] [-3.0590312635287957:3.0471581175101092] [-3.0472138138195208:3.0846865381929298] [-3.0058510958328784:3.0008455153235816] [-3.0355432933208868:3.0187258789534583] [-2.9862247562872311:2.9647351787440623] [-1.347357730784257:3.4290950814494452] [-3.1012680044994427:2.9044150596199727] [-3.3307592015488505:3.317831386516501] [-3.0206625306100787:2.9411714113834972] [-3.011062769636053:2.9860746968589904] [-3.3077735335141782:3.2422730675039961] [-2.9478690455821854:2.9708864279793694] [-2.9345915300005032:2.9822550160660399] [-3.2053326624036207:3.1175153291870825] [-3.0430491566217102:3.0856092846863494] [-3.4235426038866326:3.395131461945665] [-3.0255926622897764:2.8956541897043495] [-3.2711434188599799:3.1289197919530247] [-2.9361127504938667:2.9442799625953793] [-3.1242598369821533:3.1312103594226035] [-3.0713168931696639:3.0458287861724056] [-3.0442499744637566:3.0408693526153789] [-3.1291945953311977:3.1187813021686983] [-3.082173184218969:3.0702102164953575] [-2.9796398354258868:2.8963959945019098] [-3.1993733235404562:3.1186431135114594] [-3.0581219824847872:3.0276929080322019] [-3.0583199551233156:2.9679262618684392] [-3.0246175883245869:3.0364029059523476] [-3.249979392595149:3.337816673476099] [-3.1606915720452018:3.148423847618079] [-3.0696975031867471:3.0611823922209034] [-2.9162413329273327:3.0084024585728919] [-3.1033619961223065:3.0250544526107173] [-3.2063535231298346:3.2224254706141946] [-3.0973257797817459:3.1059414286823901] [-3.0679274022692971:3.0222510637739726] [-3.21318528038372:3.3110487914613969] [-3.0063376946905165:3.0382396305738562] [-2.9912107759408775:3.0482501289313375] [-2.9921293416709105:3.0508808294456546] [-1.2725325321136673:3.5752104473669699] [-3.0865264036451512:2.9180642762373372] [-2.9120022118920064:3.01406221027375] [-2.78919776733906:2.8344997753216048] [-3.2907460277226876:3.1267435171319584] [-2.8874594634629496:2.9457919778763424] [-3.1054854244874353:3.0694648810385341] [-3.1018631527699689:3.1087638494390903] [-3.0241875610854256:2.9560789700365362] [-3.102623717687337:3.1847083305391828] [-2.8640776952398834:2.8624869828293082] [-3.0890187917961178:3.0958909136911039] [-2.8754989253691492:3.0045329583735021] [-3.0499336098212257:3.1046409391453733] [-2.8619734509078505:2.9606343045418595] [-2.8908217944337604:3.0054719505869407] [-2.8514691946739834:2.8578128413807113] [-3.1332215096955802:3.0934400607731409] [-2.9173465307974764:2.9680261286986931] [-3.1296915645580476:3.0270787263758163] [-2.9649402166523973:2.8997766954072897] [-2.9911705494132601:2.8930993838587269] [-3.0749135891226054:3.0561796929828384] [-3.0034153863190003:3.0674972418384394] [-3.0524317282400886:3.0643254227002505] [-3.0939170252791057:3.1406764765427702] [-3.0973729631924862:3.1740233627315582] [-2.9731496773538972:2.8375663044452506] [-3.191255039093698:3.1577464202803349] [-3.0708931119568157:2.958676128863766] [-3.0804610864226163:3.0244989527303807] [-3.2622042488647134:3.1482407816554656] [-2.942095420622985:2.9079700387764884] [-2.9691901613374236:2.949461323056112] [-2.9333167338934745:2.8672546706747801] [-1.3779583154316939:3.3702110414040063] [-2.9883570857997981:2.7584834638151983] [-2.9813407486495809:2.9598863175770953] [-3.2621409218039941:3.1551854817448466] [-3.0039550025962032:2.9641675191181083] [-3.1294510511906513:3.0862862091052627] [-3.0660559955250211:3.1629516703271658] [-3.0281295317476777:3.1325182864448284] [-3.218694409444554:3.2348282160081858] [-2.9346700000397132:3.0290962997869686] [-3.2494223295434974:3.0635406420466751] [-2.968385622759997:2.9112227634496257] [-3.0617706029816238:3.0178621442516063] [-3.146713484074859:3.0588020145115515] [-3.0156970047662717:2.9135816501537595] [-2.9561083925834373:2.9072470968382564] [-3.0557086297331932:3.0102142084468424] [-2.9212207289155465:3.0320170996131646] [-3.1857384837592653:3.0984579773549012] [-2.9885367267818359:3.0118716482402554] [-2.9781047689583993:2.8676843086044346] [-2.9471817416180905:2.9520978079093632] [-3.0442022181624355:3.0919276728704692] [-3.0047433565448616:3.0400043850374248] [-2.9109604279137615:3.0079650397448328] [-3.2210173278244292:3.2860883849521949] [-3.0231956380238696:3.070591762248208] [-3.0143215871761022:2.9959568475145471] [-2.9582799525173602:3.1186432024398423] [-3.0665233175267086:3.0750532850302599] [-3.1527895094451353:3.2705507474889259] [-3.0775011663731568:3.1694704710349995] [-2.9939805983156891:3.071483753927688] [-3.1056184218642149:3.0458128401501861] [-1.2982147715635786:3.3348193574365523] [-3.0309203236656539:2.851189199351249] [-3.2591769229035088:3.1787034186342868] [-3.0797255274684123:2.9936855373830169] [-2.9495256110834434:2.9824812045033706] [-3.3064003436879279:3.2972286367706247] [-2.9098005505258753:2.998423917546968] [-3.2104315704209814:3.3526312651926098] [-2.9624017580038386:2.9134364396897254] [-3.1470551663311275:3.1313591305888275] [-2.9454022565110365:2.9258314773980061] [-3.012108506274485:3.0917984020216847] [-3.0426259145469787:3.093762484539365] [-3.0734854408675014:3.1164712512292851] [-3.0625105849410095:3.0303538006835469] [-3.0565602486509533:3.0565602486509533] [-3.1158920763440618:3.0986295163643165] [-3.0938467202308955:3.007412218597493] [-3.041723938960236:3.1570907682329992] [-2.912965076231139:2.9178240671839846] [-3.2370750056952202:3.2370750056952202] [-3.2399445192121532:3.296228228988324] [-3.0624905880685538:3.1174231546706808] [-3.017370807384935:3.1092704258839685] [-3.1369560785515214:3.274081039124026] [-3.0909740273576496:3.051728980363873] [-3.2192568213494304:3.2300055920384101] [-3.12570205077607:3.1571161417386437] [-3.0219265681384617:3.0018473218385386] [-3.1825408059099658:3.0492497305468618] [-3.1491392057784444:3.0867800135848111] [-2.9893420880682009:3.0110100262588269] [-3.3594255755573119:3.2384642618711244] [-1.2580994733289621:3.1986366683529699] [-3.052096015306057:2.9129124836634359] [-2.7777759151709676:2.7932509899072961] [-2.9745621794477235:2.9205238904734463] [-3.0389918293892348:3.0187991926491073] [-2.8212461140893259:2.931507219652715] [-2.9772313435759412:3.0696136983836566] [-2.906475416567778:2.8823552886294568] [-2.9904279871832693:2.9639640226949218] [-2.8796103867797309:2.8588880313808178] [-3.0640078005460234:3.0776559421965621] [-2.9172371708963194:2.845206623466781] [-2.7305929495361818:2.7215061177573587] [-3.0502547523205479:2.9306369188962127] [-2.9358771142440494:2.8570292224391944] [-2.866893384302688:3.0256650989914471] [-3.0194235822993014:2.9334378066807019] [-2.8372285107897728:2.8977645486393016] [-2.9028824123532528:2.9158128462612845] [-2.9072816995115507:2.899217117820811] [-3.1251287836826007:3.1043638083757399] [-3.0563032992825114:3.0784565989148911] [-2.830393230137016:2.8477430911186308] [-3.1688095192404293:3.1793898515250385] [-2.838656713480753:2.9056739040182413] [-2.9912800365962164:3.0263830713928193] [-3.0363637416034681:3.0856802067429254] [-2.9261717324526462:3.0102713426837453] [-3.1975494874149311:3.1904517083085713] [-2.8237483484124231:2.8759960049852347] [-2.8245080427798421:2.9202540781283113] [-3.0878666152205958:2.9225793511455271] [-1.2531034160951291:3.4497084660445259] [-2.7792150876047952:2.6013572788255694] [-3.0069716762168461:3.0304505403925495] [-3.0312670713599057:3.012799091418084] [-2.9677799908484932:2.8672871675647102] [-2.9834527143914737:2.9900899840564161] [-2.900432912014443:2.8115793873575452] [-3.0399541657255522:3.0080342269862403] [-2.762962588264811:2.8093989342860688] [-2.8604772669327687:2.9590865425941977] [-2.8470864767732804:2.809376722114032] [-2.8336309391983581:2.8415130836745703] [-2.9053498591717437:3.0390999805658394] [-3.0237317692755892:3.0338277017272612] [-2.7504350258234589:2.8153694109187848] [-2.97772348818763:2.9826904998443231] [-2.7445067541120016:2.7798009421715912] [-2.775223039023675:2.9616721320846975] [-2.8157758871940231:2.8886659776897603] [-2.9907700338252199:3.0562797397051322] [-2.960095968307948:3.0266149788317223] [-2.9947841754273044:2.9387452860687304] [-2.977928855211438:3.0095293289612379] [-2.7905888875915084:2.804576801815025] [-2.8608289357643577:2.9446863792027713] [-3.0136650746036886:2.9836783574434524] [-2.8997255584385035:2.9191217160200318] [-2.9087868711899856:3.0460796265546541] [-2.9377220937785471:2.9149616569700805] [-2.8411646912707877:2.8395867047718872] [-2.854648278213952:2.8293859040704654] [-1.3132206965212667:3.3908534402713291] [-3.211867981720629:3.0029800345084841] [-3.2253638789095715:3.1509732787370281] [-2.897262509064173:2.9345211267373492] [-3.4728921050715069:3.4555709474402274] [-2.9328826502516265:2.9705993407496907] [-3.2129162411144705:3.2632867085003636] [-2.9692179026009153:3.0376292170188068] [-3.1736568290704499:3.1666120858316695] [-3.0584817069687089:3.142889256189473] [-3.1009228396173709:3.0632528769052887] [-2.9531271330726625:3.1045695501533119] [-3.1581292438739492:3.2344854752411574] [-3.0371944196487597:3.2018354866197338] [-3.1826335023420786:3.254153356327294] [-3.0902143585847561:3.0730940574291621] [-3.0445328156511473:2.9975389243401045] [-3.0864382120108811:3.1751439594397652] [-3.2738225251136051:3.2993849988177826] [-3.1274075059727915:3.2896155897821524] [-3.0572298251541659:3.0386036672606758] [-3.2293241648580606:3.2365084232893357] [-3.0112980076482829:3.1481751898141135] [-3.1693004033262748:3.2207760189501689] [-3.2741789481633923:3.2723604649930715] [-3.1588778713204064:3.2244846528185005] [-3.3716786204899436:3.3159483953578786] [-3.1414569701883823:3.0435280408469887] [-3.0992107727836928:3.0445991292104115] [-3.1579160663048782:3.1667002556409138] [-1.2600758946752719:3.1644773565619668] [-3.1023230812388309:2.8006172424714175] [-2.9103794593166201:2.8702362943605286] [-2.9263095115385638:2.8731478193388544] [-2.8669254501641892:2.8399761924076006] [-2.844541303030689:3.0171351084807485] [-2.858992436000737:2.8226927804511832] [-2.9508319679628516:2.8667995132344464] [-2.9463609638845267:2.9219098355535351] [-2.85175629386345:2.9190827493678144] [-2.9277002188455929:2.9277002188455929] [-2.9345643413139348:3.0526454227723026] [-2.8145265851707126:2.7511398287894986] [-2.9072792643869221:3.0091737326695616] [-2.8385326507301949:2.7730640228715084] [-2.8839357750666608:2.8520690814195153] [-2.7413238751354592:2.8326755320871637] [-3.1337360423703879:3.1407076464690986] [-2.9552738342964884:2.9503524790353786] [-2.8616612574538092:2.8505541718967389] [-3.0580761907110254:3.1267970039854305] [-2.8901563668797445:2.9914507109987638] [-2.8764114200019288:2.9004818084538275] [-2.9600047664347358:2.95836077600628] [-2.9915893713994923:2.9536061776141276] [-3.0315711477002067:3.0722633778706796] [-2.7669826090802658:2.8338818231316862] [-2.7838066967180244:2.8558692223505679] [-2.8560876372600204:2.873595000876549] [-1.296165232877927:3.2352208689531357] [-3.0543910428302627:2.6965544353020308] [-3.0301494387441039:3.0776545811208313] [-2.9014663191752046:2.9732686352852769] [-3.1569713200174236:3.1482141180201495] [-2.9601200589841095:2.844036919416105] [-3.0769922773378262:3.0752833118963729] [-2.9151534594783488:2.9248868600108313] [-2.9330073610760707:2.9806451171506749] [-3.0566910977323443:2.9812172434673485] [-2.886751345948122:2.886751345948122] [-2.8610737029014812:2.9547734627932294] [-3.1106139152339116:3.1262059649343326] [-3.0014283252052429:2.9633202095664242] [-3.0719275777749098:2.9465427786820566] [-3.0647012874027983:3.0955023053666459] [-3.0060616065465777:2.981115037197644] [-3.1050694918737549:3.0981769957763654] [-3.0168068541929522:3.0168068541929522] [-3.1306851701115597:3.0263575026016962] [-2.8484949376623403:2.8787219154984669] [-3.1130098108526734:3.2113893534078368] [-2.8818011025621004:2.9629785984089207] [-2.8994617911561233:3.027887696726923] [-3.0467696990083826:3.0248444257799796] [-2.9383533964393931:2.9612964792894494] [-3.0082539269322868:2.9634660272757265] [-3.1887559193550898:3.2604133557450918] [-1.2942324721739722:3.4443761215980082] [-3.1697482957137271:2.9308097714177443] [-3.0667982849581668:2.9977300456374945] [-3.112617274767036:3.0273400891569806] [-3.0236880842080778:3.0625725270019197] [-3.0008031145145995:3.078482880000065] [-3.0876599363995796:3.0790949989893175] [-2.9436415905172688:3.0031090973964059] [-3.1972210155418148:3.058211406170432] [-3.021322082015574:2.9862777496641093] [-3.0161362807168777:3.0312547583144558] [-3.2183181827450289:3.1827566558638685] [-3.1443996738300721:3.1689515954327612] [-3.0260501467264551:2.9398756628109157] [-3.0674821516182442:3.1000329256370915] [-3.0342934412963056:2.9874575998650506] [-3.1866748755699974:3.2097731601434076] [-3.0863486054314913:3.0949337197720515] [-3.3446370591578862:3.2966720489327872] [-3.0287473270927281:3.0052816588142011] [-3.1088718006194935:3.1558572686389321] [-3.2414612571502683:3.3087832142171001] [-3.1702435493487635:3.2110126864105593] [-3.1392651758978802:3.2456809445723849] [-3.1713256401908296:3.1275832175675076] [-3.0950128635671659:3.2428974372529691] [-3.0381209699636695:3.0229682469214567] [-1.2956421282862649:3.5630158527872275] [-2.8901798047720599:2.6857297864280554] [-3.1400918535391575:3.1946409414964076] [-2.823157078332069:2.8075163188953267] [-3.0794911846610633:3.0983679765425189] [-2.9984205453406529:2.8744379765452828] [-3.0251313468708569:2.9178279157403764] [-3.0982297921105988:2.9949836750285197] [-3.0145085067282933:2.889860712108407] [-2.961797724813751:2.8967032693233392] [-3.1240455501581486:3.1712603443670884] [-2.8725638776846814:2.7067347247781477] [-3.024561322150614:3.0329745664403234] [-2.9909551911316945:2.9480622871220841] [-3.0941046355074966:3.113071005521753] [-2.9872400014839866:3.1091681648098639] [-2.9669783624521364:3.0404018989807606] [-3.1036788475749248:3.0710897908720107] [-3.008137687292487:3.0434385486689286] [-3.0162894928362434:3.0635773460274049] [-3.1305531345327138:3.0583492731102129] [-2.9605862527696636:3.1332447992433661] [-3.092852201355818:3.1500790713556732] [-3.0014912499641757:2.8392484796958422] [-2.8556627728375279:2.8891743225606841] [-3.0793388291986483:3.0554811957682215] [-1.3147514702678367:3.4661629670697511] [-3.1793672375484734:2.9924969065197415] [-3.2116832845196597:3.0994847418290172] [-3.2401875121019441:3.2097295703238227] [-3.0692578241791:3.0795057634918854] [-3.0789501776029944:3.0129545431284042] [-3.0952352412346218:3.0969552941611203] [-3.1158920763440587:3.0986295163643134] [-3.1674285050052653:3.1533822588633353] [-3.0389444079475894:3.1020602895608707] [-3.1144963861747366:3.1827161890732567] [-3.1482607784999224:3.0773578991159636] [-3.1249528298326812:3.0562725478583368] [-3.2501814843128387:3.3029707663319221] [-3.2478049403889528:3.335583452291357] [-3.0358090180620549:3.2524029871297739] [-3.334777534276105:3.3552191909364772] [-3.0795727221210347:2.9968656443551094] [-3.2685880443398267:3.1439007619944381] [-3.1712840503946009:3.1889513710096127] [-3.210522028058564:3.1821103286952139] [-3.2102205503652601:3.280537091485308] [-3.0373528817827129:3.0373528817827129] [-3.1199267871396028:3.012607438196226] [-3.1614408397347735:3.1439259320354123] [-1.324001502223795:3.3800748935380227] [-2.8596057548803455:2.5614478088738641] [-2.9427100723095942:2.9345472149661558] [-2.9094794784237377:2.8329142289915339] [-2.901626927222829:2.8584265263212481] [-2.9386541207308507:2.8629114589955345] [-3.0552421273395622:2.9947422832338289] [-2.7973153167056259:2.8004251725329805] [-2.9605968792827433:3.0187292163233583] [-2.7307217897046066:2.8342928963619567] [-2.9175952075223179:3.1101481193530596] [-2.8429018310360621:2.8492264179794127] [-3.0160889772672332:2.9910591932235224] [-2.9703958230408753:2.977004045116606] [-2.9785608736122455:2.9951545275042353] [-2.9540789711005004:3.0900723764197053] [-2.8259243697751848:2.8495722724511272] [-2.9796765605562565:2.8691978222150216] [-3.1625056719691886:3.1102328509449042] [-2.8655394036353043:2.8275852393487444] [-2.9793936644688155:2.9777389054216239] [-2.8650278028785388:2.858668140718986] [-2.8517933103118858:2.7999853393565912] [-2.8050666934102737:2.7617690818251095] [-1.2624519833604686:3.2229436644043341] [-3.2407291240699698:3.0417829096682589] [-2.9622743827647424:3.0780472133570775] [-3.2157549615383956:3.0588888658535964] [-3.0645420990915664:3.0919040821191697] [-2.8844456941845111:2.9772559705426915] [-3.179121347867218:3.1352713982414633] [-3.1781371967063872:3.2279624159156697] [-3.0372722811055595:3.017091069935423] [-3.0546556749421052:3.0444904314314822] [-3.0913293563029702:3.173115159706426] [-3.0500094339252009:3.1498968123372064] [-3.0637239970726946:3.0927964547619133] [-2.9908786021891958:2.9991981532384009] [-3.1738180761910209:3.2704825861257727] [-2.991227753143423:2.9417859720997299] [-3.1027052208151322:3.202538242314688] [-3.0719560772551073:3.1637596702038082] [-3.2164388767561261:3.1127111403644281] [-3.2835009796484185:3.2981268192014181] [-3.0619335377901051:3.0909890053549565] [-3.1100423817100529:3.0654416636049997] [-3.1570417100278951:3.2047551867537578] [-1.2074859178773225:3.4704256283786483] [-3.0510404733234298:2.8007153625659393] [-2.8683674650293187:2.8414046522532623] [-2.8873138845505069:2.8601729743833193] [-2.676600144729131:2.7920494131737477] [-3.0000046347886911:3.0033398261558828] [-2.9631162448649486:2.9845940877326624] [-2.8263034889806331:2.8153336390095411] [-2.8161422777298264:2.8397083218949293] [-2.8841872329901999:2.874589272148302] [-2.8785879550650035:2.9778215607496406] [-3.0445006156746817:2.9578007076708031] [-2.8972025099084209:2.8972025099084209] [-2.9046306753856244:3.0282319807211828] [-2.9965028733819699:3.1484189974098795] [-2.8360264029540199:2.9947531805037024] [-2.9003194228742486:2.9853344228683074] [-2.8105009164384835:2.8577362259584582] [-3.0126432900429192:3.021023382643873] [-2.8225050184201224:2.7666138299365559] [-2.8887178753293208:2.8080141713349107] [-2.9543496027827691:2.9576340381388366] [-1.2483194610415842:3.4365385631957919] [-3.0674574522861784:2.7846076395157517] [-3.171552318457342:3.1927667152363206] [-3.0742048482257993:3.2014614141007542] [-3.1038571654746936:3.0849469307362711] [-3.2040352993265842:3.1651127280481832] [-2.9753084948736395:2.9952102239363394] [-3.0871968776122172:3.0940649463054593] [-3.1620762389097701:3.2205839573757205] [-3.1245083480484399:3.1876297288170958] [-3.2261101845447899:3.2028943348912704] [-3.052075135479853:3.0166740982829037] [-3.0553083302811554:3.1343990355107185] [-3.0978689909084633:3.0230576651126499] [-3.2736591942040176:3.1575403141913236] [-3.1050273154609354:3.120591362154975] [-2.9658062147727411:3.1023394932021766] [-3.2212853010368399:3.1295509989262622] [-3.1684915616066882:3.2631800604875196] [-3.0377594254567515:3.1407343212349468] [-2.977763352060911:2.9761094984913132] [-1.2424837649675031:3.2518056637016861] [-2.9206628099996821:2.7520569720336905] [-3.0811129787540201:3.0436836659254238] [-2.9434728626312547:3.0364945783803239] [-3.1635870016060865:3.1199513188253127] [-2.8867847759890886:2.9141782123227835] [-2.9187910548508111:2.9464882069202853] [-3.1349989249281829:3.1280399927973765] [-3.0367992404167961:2.9915863484999203] [-3.0888418747925481:3.0176000523096889] [-2.9928909852689598:3.1992972601150953] [-3.131568324074518:3.1507643405497587] [-2.8635609741499732:2.8747187402613288] [-3.0250544526107164:3.1033619961223051] [-3.1156857771326263:3.0881133366270279] [-3.1397481747028859:3.0947214496382007] [-2.9636685867436294:3.0760749243104697] [-2.8754067656780911:2.8216016858580275] [-3.1060448701139243:3.1008724390229769] [-2.9403432510579415:2.9964126119866967] [-1.2901241874506229:3.5630075521755433] [-2.9845421079864729:2.7626371317842158] [-2.8316782462965766:2.8238233829226611] [-3.1426174951365971:3.1356416516401784] [-2.9035752565055684:2.8271653813343689] [-2.9892037730930792:2.949611670138204] [-2.6844148962087955:2.9000367803885254] [-3.0365163682542939:3.0704439254414932] [-3.0364689666871256:3.0347825079441728] [-2.8783266282534896:2.8863331000984225] [-3.1544983675475096:3.1544983675475096] [-3.0283043250600441:2.912783179144947] [-2.9980014279829774:3.1746066021792863] [-2.90263478569321:2.8978010891308568] [-3.2055544616703373:3.1789523499552308] [-3.1636886287903772:3.1531605468310078] [-2.9128391163885796:2.9733359153256425] [-2.9061363162783853:2.8517562201014641] [-2.8621069755634383:2.8732590762196835] [-1.3387392988243578:3.4389176783926798] [-3.1444774131808479:2.9960805946580735] [-3.0616237937053383:3.0311598753600117] [-2.9423919300456851:2.9195953129894376] [-3.1074709284224733:3.0156244970405286] [-3.0454063120099968:3.0572726321792536] [-3.1501703376113586:3.2173834048933529] [-2.9699258055021915:3.0114632293553694] [-2.9522397526616251:2.8793449439539307] [-3.1611833793416606:3.1366916431431089] [-3.1592929708198456:3.0219324068711568] [-3.0510911847699416:3.1527655027035344] [-3.0627373557377018:3.0137875716008087] [-2.8564754649826058:2.9681134185843052] [-3.053290134455187:3.1046059350342659] [-3.0506454910819505:3.1946338765012294] [-3.0973166841504503:3.0664976126663657] [-3.0414776807738222:2.9173357346197886] [-1.268162888774452:3.3086655819904878] [-3.1206799882893184:2.9144787320123449] [-3.0196661891978342:2.919038143559447] [-2.9807713030875442:2.8527577488913409] [-3.0410814724138611:3.0546274923355266] [-2.9910591932235202:3.0160889772672319] [-2.978560873612246:2.9951545275042357] [-3.0270275729833984:3.0270275729833984] [-3.039475498497755:2.9677228515389826] [-3.0133375638087738:2.9324093420347923] [-3.14917267226306:3.10056361227223] [-3.0104748466772802:3.1229204266889949] [-3.0427441915331772:3.0529036045266107] [-3.1577703864135835:3.1107564352510981] [-2.9087842984692673:2.9347555868484574] [-2.8950097675955431:2.8934018754724691] [-3.159766091476627:3.0156725237871393] [-1.320534241367944:3.4632879160404566] [-2.9840094821552476:2.7899406042510364] [-3.0862343766463054:3.0133778967144957] [-2.9818139218721798:2.9917698949001341] [-3.1162307783413725:3.1318509827440861] [-3.1435215603643707:3.0984407216608552] [-2.9153000745408666:2.9185410974141752] [-3.0544083525800816:3.0731313906845013] [-2.9603542325818055:2.942318288766574] [-3.0742607896715581:3.0708468409878584] [-3.0638996504159115:3.074129699332159] [-3.1455673221717393:3.1108096722029903] [-3.2238804524272151:3.2508585315270251] [-2.9357359998182471:2.998373825754852] [-2.8914612523583307:2.9091854506174237] [-3.0215539501492823:3.0997708785155553] [-1.3143024525847005:3.5236206857638894] [-3.0251660180460003:2.8521128081631741] [-2.9254138633587448:3.0262616992812559] [-3.1320169267867879:3.1424744123520192] [-3.0769134846014308:3.0717895653931024] [-3.0847469732221575:3.1558200982022693] [-3.0295952331856046:3.0976760249425843] [-2.9905156992250168:2.9607593241083499] [-3.1119934309326105:3.1171844124687782] [-3.0293632632752385:3.0785660270024753] [-2.9962184329614523:3.0280129876815121] [-3.1670041736121419:3.1424673399482956] [-3.1633594533660205:3.1933773772885559] [-2.8935872270528433:2.9553257529529038] [-3.2549247311112528:3.1675082817692681] [-1.2439350130700204:3.2186121190197379] [-3.2852548637402137:2.9641070963468503] [-3.1837222018621145:3.1033869186555005] [-3.0591848019318881:3.0136386262207431] [-2.8982480305992651:2.8902085076295028] [-2.9813758501739427:2.9353568183079726] [-3.095728913311325:3.0820006254474173] [-2.9066841001906143:3.037117524737651] [-3.0549548155226245:3.0873726549501193] [-3.0767861428110179:3.0648440840365923] [-3.0758660036111549:3.0622257996040108] [-2.8420529431749153:2.805968362610177] [-2.9227685030668833:2.8175297026291233] [-2.7954424662330721:2.875784853259213] [-1.273817658919566:3.3407670677324459] [-3.0431216307001892:2.738006533162967] [-2.9561803844505135:2.9218916310268952] [-2.9079657452270271:2.9453620058589651] [-3.1137146107898701:3.0656528637655502] [-2.9591222251933713:2.8684707784697232] [-3.0342679983968082:3.0767053130597009] [-2.9182426113836062:3.0322945741054808] [-2.8605880474216754:2.9624919473298266] [-3.1013597027958655:3.0298291659933247] [-2.919689824718898:2.9051277807053371] [-3.0561879613274203:2.926561718269487] [-3.0568823461463768:2.9288540944992345] [-1.3190499071779251:3.4738642142861478] [-3.0642815144927127:2.8570354217250897] [-2.9243100288298813:2.9406014496033066] [-3.2145228323624511:3.1074013394511653] [-2.9877312233391922:2.9728298207290216] [-2.9781597287534853:2.932190339335019] [-3.2775329651712073:3.2126313222965304] [-2.8651721228247697:2.9426092072254391] [-3.1358856283946475:3.1868185229471226] [-2.8335238133433664:2.8620014396081244] [-2.9051402917373399:2.8778318123568951] [-3.1864644879306208:2.9941778377968764] [-1.3180100159378938:3.3856688513497568] [-3.1294335639355828:3.0828415009489483] [-3.1393660520131244:3.0263283218260728] [-2.9196107445160293:3.0795894154484142] [-2.961178681593025:3.0837565345878026] [-3.050516518879824:3.005099399492035] [-3.1045181736906446:3.1866529072473346] [-3.1969443688904882:3.1792327657387407] [-3.0924355819054576:3.1148507826664122] [-2.9957329927309146:2.9560544100457373] [-3.0748662384373118:3.0425797181110843] [-1.3268885793562382:3.5875135664076065] [-3.270546786962599:3.0612458632473265] [-3.0572607091816835:3.0251590493450147] [-3.2402347395809086:3.2727999128430287] [-3.0971342419219425:3.1213171082838542] [-2.9489675331458569:3.0219453573631898] [-3.1947118344953993:3.1436527861623227] [-3.0656060358190058:3.1379812204757784] [-3.028242879656792:2.946914350688207] [-3.0539677575080635:3.1156640758415599] [-1.2805993544536993:3.282783645826743] [-3.0140106973562264:2.8717709736404733] [-2.8923232598688569:2.9052066596900987] [-2.9590883479091552:2.9821933322207719] [-3.0888418747925455:3.0176000523096862] [-3.1380754214626121:3.1363325303648826] [-3.030653063025698:2.9508990350513371] [-2.9065469789219085:2.8222069899359452] [-2.9262213979208171:2.8302797127430854] [-1.2805030743369499:3.4989796292535318] [-3.1758395286769461:3.0631903775915426] [-3.1418953593453942:3.1401503466492851] [-3.1366889756939647:3.1454141188808737] [-3.388087338488234:3.3320858948768581] [-3.0844420194601092:3.1520035127254529] [-2.9951545275042353:2.9785608736122455] [-3.184091814227493:3.0575256816717586] [-1.3371388563957298:3.4849997692237307] [-3.0737102515417893:2.8866220433951568] [-3.0714659299627618:3.1109647929144777] [-3.0921408266171655:3.0309103151990038] [-2.9892985979233555:3.0076225235723704] [-2.9324353517508319:2.9291788993890875] [-2.9882364732075564:3.0333987372862605] [-1.3088395854524064:3.5764092560495766] [-2.9746500142840584:2.8675431397926525] [-3.2185465467270942:3.206054267366357] [-2.9834572779797957:2.9867740731748817] [-2.9686771970723616:3.0236064639652058] [-3.0088349496533295:3.0390744968860264] [-1.2686201087054925:3.3797589155589072] [-3.2517507872044105:2.9766625322613391] [-3.1135100918641543:3.13085555198596] [-2.9886225330703913:2.8349450550505333] [-3.1550379009515801:3.1167105493110858] [-1.3427631411497916:3.4923929560137488] [-3.0388212107479937:2.8490993267615741] [-3.0379363940099227:2.8849290370411045] [-2.8919608581570775:2.943834595523124] [-1.3536567022767507:3.4204448193458821] [-3.1121880971465101:2.8252136780137636] [-3.1965077750630506:3.1349519169462932] [-1.2987155530684413:3.1572062873379334] [-2.9294888376900827:2.8460641829475395] [-1.2787199419827404:3.3120472394063047] [-0.70976009925624828:1.4089267641952374] [-1.1196075771271707:0.89317008961830513] [-0.94406194451568337:1.0592525266051303] [-1.0408329997330599:0.96076892283051696] [-1.0539534818731369:0.94880847893092368] [-0.96559160609362393:1.0356345205252857] [-1.0253204627247259:0.97530483039669025] [-0.97530483039669025:1.0253204627247259] [-1.0330457214142537:0.96801136607098359] [-0.98757715747951258:1.0125791108334241] [-1.0356345205252857:0.96559160609362382] [-0.97774752367311568:1.0227589186248192] [-1.0125791108334243:0.98757715747951269] [-1.0513149660756933:0.95118973121134154] [-0.97530483039669003:1.0253204627247252] [-1.0025031328271812:0.99750311720210794] [-0.96076892283051707:1.0408329997330601] [-1.0699402403697376:0.93463163854311959] [-0.99252791524017514:1.0075283371329737] [-1.0619131671036393:0.94169658214851015] [-1.0202040612204075:0.98019605881960736] [-0.94880847893092435:1.0539534818731378] [-0.99501243773320769:1.0050125627355513] [-0.96801136607098359:1.0330457214142537] [-1.0408329997330601:0.96076892283051729] [-1.007528337132974:0.99252791524017536] [-0.97043679485865453:1.0304638130973343] [-1.0592525266051303:0.94406194451568337] [-0.99501243773320747:1.0050125627355511] [-0.99004950371280498:1.0100505037878111] [-1.0278887439421072:0.972867935263941] [-0.98019605881960736:1.0202040612204075] [-0.99750311720210794:1.0025031328271812] [-1.0050125627355513:0.99501243773320769] [-0.99999999999999134:0.99999999999999134] [-0.96559160609362416:1.0356345205252859] [-0.9583659154090135:1.0434427851842261] [-1.0253204627247259:0.97530483039669036] [-0.96076892283051707:1.0408329997330601] [-1.0100505037878111:0.99004950371280498] [-1.0075283371329737:0.99252791524017514] [-0.98265047987672638:1.0176558404830223] [-1.0125791108334243:0.98757715747951269] [-0.98019605881960736:1.0202040612204075] [-0.96559160609362316:1.0356345205252848] [-0.95836591540901261:1.0434427851842252] [-1.0486837143812191:0.9535763608096528] [-1.0253204627247257:0.97530483039669003] [-4.5519144009631418e-15:-4.5519144009631418e-15] [-4.5519144009631418e-15:-4.5519144009631418e-15] [-4.5519144009631418e-15:-4.5519144009631418e-15] [-4.5519144009631418e-15:-4.5519144009631418e-15] [-4.5519144009631418e-15:-4.5519144009631418e-15] [-4.5519144009631418e-15:-4.5519144009631418e-15] [-4.5519144009631418e-15:-4.5519144009631418e-15] [-4.5519144009631418e-15:-4.5519144009631418e-15] [-4.5519144009631418e-15:-4.5519144009631418e-15] [-4.5519144009631418e-15:-4.5519144009631418e-15] [-4.5519144009631418e-15:-4.5519144009631418e-15] [-4.5519144009631418e-15:-4.5519144009631418e-15] [-4.5519144009631418e-15:-4.5519144009631418e-15] [-4.5519144009631418e-15:-4.5519144009631418e-15] [-4.5519144009631418e-15:-4.5519144009631418e-15] [-4.5519144009631418e-15:-4.5519144009631418e-15] [-4.5519144009631418e-15:-4.5519144009631418e-15] [-4.5519144009631418e-15:-4.5519144009631418e-15] [-4.5519144009631418e-15:-4.5519144009631418e-15] [-4.5519144009631418e-15:-4.5519144009631418e-15] [-4.5519144009631418e-15:-4.5519144009631418e-15] [-4.5519144009631418e-15:-4.5519144009631418e-15] [-4.5519144009631418e-15:-4.5519144009631418e-15] [-4.5519144009631418e-15:-4.5519144009631418e-15] [-4.5519144009631418e-15:-4.5519144009631418e-15] [-4.5519144009631418e-15:-4.5519144009631418e-15] [-4.5519144009631418e-15:-4.5519144009631418e-15] [-4.5519144009631418e-15:-4.5519144009631418e-15] [-4.5519144009631418e-15:-4.5519144009631418e-15] [-4.5519144009631418e-15:-4.5519144009631418e-15] [-4.5519144009631418e-15:-4.5519144009631418e-15] [-4.5519144009631418e-15:-4.5519144009631418e-15] [-4.5519144009631418e-15:-4.5519144009631418e-15] [-4.5519144009631418e-15:-4.5519144009631418e-15] [-4.5519144009631418e-15:-4.5519144009631418e-15] [-4.5519144009631418e-15:-4.5519144009631418e-15] [-4.5519144009631418e-15:-4.5519144009631418e-15] [-4.5519144009631418e-15:-4.5519144009631418e-15] [-4.5519144009631418e-15:-4.5519144009631418e-15] [-4.5519144009631418e-15:-4.5519144009631418e-15] [-4.5519144009631418e-15:-4.5519144009631418e-15] [-4.5519144009631418e-15:-4.5519144009631418e-15] [-4.5519144009631418e-15:-4.5519144009631418e-15] [-4.5519144009631418e-15:-4.5519144009631418e-15] [-4.5519144009631418e-15:-4.5519144009631418e-15] [-4.5519144009631418e-15:-4.5519144009631418e-15] [-4.5519144009631418e-15:-4.5519144009631418e-15] [-4.5519144009631418e-15:-4.5519144009631418e-15] [-1.5474761029881949:1.4905137924487522] [-1.5762252364273779:1.2847621467646866] [-1.401140109539192:1.4803819666339537] [-1.5468718554983427:1.4974023988649394] [-1.506329344792628:1.4168082557752373] [-1.4762650932467458:1.4725790380825841] [-1.5264578476143127:1.4757948336185089] [-1.4692708500456866:1.5369099173112168] [-1.5680835687585448:1.504707257957526] [-1.5434058574969867:1.553082383249319] [-1.582370497276695:1.5394455269436649] [-1.5802770092702965:1.5783028968289845] [-1.5917898034555211:1.5622209526173383] [-1.624101078636756:1.5237629138754303] [-1.5593273805789587:1.6892713289605388] [-1.5242787745867576:1.5223746162175049] [-1.4548312178146516:1.5275261793710531] [-1.6164627811846815:1.5395353272905967] [-1.5195117700228169:1.5579804224284579] [-1.593171925717769:1.5116698296396369] [-1.5681624187475105:1.6362563168795865] [-1.4803625573579475:1.6280102664907612] [-1.5506261698543606:1.6119001166554887] [-1.5039457316991229:1.5594701444544055] [-1.5801624053850436:1.4440718632944656] [-1.5584982055950787:1.5124342192228104] [-1.5672089387350108:1.5400206795747999] [-1.6548462380147715:1.4878884573248541] [-1.5580471087550853:1.4988203026589384] [-1.4960548854495241:1.535848618944698] [-1.5360078946013016:1.5207242339585025] [-1.5353769713490868:1.6467514666801086] [-1.5766244460457119:1.5944618062146769] [-1.5756553698488471:1.5252654072214546] [-1.54968993672009:1.5691828918989592] [-1.5162235104026232:1.5722012084314914] [-1.5860006754080351:1.6383971399069028] [-1.5961759146807331:1.4678690325168351] [-1.5295394649037828:1.6019552809005069] [-1.5917050971131972:1.5817879313990966] [-1.5285548823383068:1.5439172429648225] [-1.5930283397313738:1.5634364820273856] [-1.4944491431174463:1.486995531431075] [-1.4728518086238613:1.5329682089758558] [-1.6003069180984719:1.6449289107450706] [-1.4833973921112364:1.5850393595086449] [-1.5279961290125852:1.4939986873287452] [-1.5573921142204856:1.5380456283295478] [-1.1425740695127462:0.87521678172376705] [-1.9437883975564993:1.044134667962207] [-1.638483710971697:1.1002523514881579] [-1.5056106692440501:1.0687051234174214] [-1.3632374762144832:1.2125843496701738] [-1.2829789298991257:1.2514211162012259] [-1.2537896665029653:1.2425995612144205] [-1.2397305400655598:1.2520677894097392] [-1.1862987910980529:1.2603201783541509] [-1.218437464953432:1.2200347895466064] [-1.1917109374300028:1.2301942542328124] [-1.1950653971214236:1.209793531787589] [-1.1509433209174234:1.2506698574309638] [-1.2038223930746204:1.2092687534482598] [-1.1671111219239023:1.1977620401555684] [-1.1661048551360114:1.2924428475472052] [-1.1504865512122204:1.3488998450036167] [-1.1509433209174116:1.250669857430958] [-1.136615816739128:1.3039286611774872] [-1.1562267064820806:1.2713492987574877] [-1.166480193956807:1.2146414218125317] [-1.1505809728350009:1.277888271270889] [-1.1789419500119522:1.2223036008761947] [-1.1215928281741294:1.3276256972559486] [-1.1327757419654301:1.3432907318417944] [-1.1407691920497331:1.3036189261193016] [-1.1676350331408614:1.2584251385397978] [-1.1216899349556737:1.289486482613966] [-1.1055045265459131:1.3487775857648814] [-1.1690139926759431:1.2986136134418791] [-1.1596942347162496:1.2928365730568978] [-1.1206847603874361:1.2682223458315685] [-1.1274644176706821:1.2645908758297109] [-1.0604991469565923:1.3735810686555925] [-1.0921805226847063:1.3270681681467182] [-1.1100874635131919:1.3253555067306286] [-1.14829346339488:1.221831949404206] [-1.1108323922773502:1.3416661698354531] [-1.1061539465394103:1.3065481126836465] [-1.1226947554999427:1.2680333801734289] [-1.1054351409788408:1.3388367013157476] [-1.1781576504934901:1.2252430418484823] [-1.1428487911554741:1.3561417069370574] [-1.1106467247532614:1.3755597215989908] [-1.0999103955810545:1.2584606654290174] [-1.1067949258151049:1.3420168645580632] [-1.1437541345818745:1.329281052837852] [-1.1604491067791523:1.2710563419856775] [-1.6612428155499992:1.6020948208895329] [-2.1036520196974666:1.83915535810333] [-1.9060539251964022:2.0054718725559408] [-2.0258291751658013:1.9807551020471554] [-1.9587101866218164:1.8554110692746211] [-1.9330804008806808:1.9298612828109381] [-1.9368058789033142:1.9047925585908629] [-1.936279083422721:2.0052559464454136] [-2.0000138428517946:1.9933582227424707] [-1.9753415346628362:1.9918715893462071] [-2.0110634127580695:1.9794716766337181] [-2.0309613271852101:2.0445463527851113] [-1.9979497701934295:1.9437513793867025] [-2.0639826767530565:1.9227846666733703] [-2.0120306419505254:2.0889235327257043] [-1.983606381749021:1.9770053621758128] [-1.8767368747778472:1.8955985519112932] [-2.044918647282405:1.9828242771966855] [-1.9508071061691254:1.9935375061357614] [-2.004392115244551:1.9193771152504919] [-2.0062732016254663:2.0725541460247827] [-1.8646082866125075:1.9832506023556939] [-2.0340665530910615:2.0425595240851786] [-1.8840538960038842:1.9576872683200939] [-2.0062730917012077:1.9324225484484021] [-1.9487978378626507:1.9118004377216347] [-2.0349233994960438:1.989646982696379] [-2.0407853032423753:1.8619116910059914] [-2.0267932089450098:1.9538153847276771] [-1.9163206301950217:1.9179182297199864] [-1.9703695680569493:1.9720122271382805] [-1.9315732831913641:1.9970503436385287] [-2.0370444303108632:2.0575172386556959] [-1.969050518948551:1.9381187621399338] [-1.9414456969194571:1.9061758328961473] [-1.9477764452886077:2.010448337685701] [-2.0030972991470315:2.0114609621914865] [-2.0406377672818765:1.9655222666457337] [-1.94423070253515:2.0405290635488464] [-2.0259820979966681:2.0192400610648988] [-1.9550784171512587:1.9780215000013155] [-2.0588204847292908:2.0881951790141402] [-1.9136654953558394:1.957212877045353] [-1.9208270506501024:1.9958976065803531] [-2.0161313781941308:2.0517251225758679] [-1.8863616501672562:1.9764949713356577] [-1.9351815434262079:1.9367948669305231] [-2.0092233119321796:2.0075496565286541] [-1.1746291124836585:1.5640666845871083] [-1.0574337111165:1.5929898703715137] [-1.0969698754477897:1.4680354071398007] [-1.157429737935447:1.4501599165061629] [-1.0609812540973125:1.5463709937812287] [-1.082021720299847:1.5057872736764966] [-1.0887299564829658:1.559753967209849] [-1.0685630452438517:1.5479494061052843] [-1.1217871385604112:1.4631654132789893] [-1.1218559276764166:1.499127329729248] [-1.0991513475605252:1.5438787916910985] [-1.0946618274535598:1.5200085050436587] [-1.091973370922561:1.559095213464271] [-1.0833335771789057:1.5969558215672026] [-1.1169269430907074:1.6312578107246523] [-1.0470462166999419:1.569745729803079] [-1.0269386822313424:1.602696216288277] [-1.1067319198517307:1.5093027796083334] [-1.0956413795684288:1.5979774747500286] [-1.0717761249196924:1.6183315116143742] [-1.1470019312548505:1.522217704093253] [-1.0764291770311634:1.6085424224548419] [-1.1363913170375082:1.5306594833993332] [-1.0831206090655536:1.5860560326973718] [-1.0825177526906824:1.5306422665626405] [-1.0344551351571112:1.5799557831269522] [-1.1041841999635489:1.4406067531421687] [-1.1100797923558219:1.5608173217091719] [-1.0950456347148281:1.5118904319239723] [-1.0642916163734748:1.583095664213843] [-1.0877125901841183:1.5424157444701407] [-1.1199131599536427:1.5543722372196465] [-1.1036085091386003:1.498808574571082] [-1.0715068578371656:1.600997539490856] [-1.0446194574782097:1.5970986284722528] [-1.0953462578054967:1.588500682870851] [-1.1006774200592047:1.5812080910796291] [-1.0898969663962721:1.5865684056271749] [-1.0677008692088295:1.6575381845981698] [-1.1098619378288379:1.5664935221723895] [-1.0651990639658546:1.6226629937886656] [-1.1259731003807494:1.5078308782126888] [-1.0647031383654941:1.5988257208098233] [-1.0650869741082376:1.5206962213116255] [-1.156618416499863:1.5183778005904589] [-1.0613373656620109:1.6085455313773616] [-1.0581282980184521:1.6216631869546605] [-1.0526250235048689:1.5541315331380445]
tree_sizes=943 954 946 947 1038 1026 945 863 860 861 940 948 947 951 1032 952 1041 1031 857 944 1035 1037 1037 1033 1033 1036 1037 1039 1036 1037 1036 1039 1042 1037 945 1031 1029 1032 932 1029 1028 1033 949 1025 1043 1036 1036 1038 1124 1033 947 941 948 949 951 947 1033 1044 1045 1044 1036 1045 1044 957 1125 1040 1124 1036 1039 856 1126 952 1037 1132 1122 953 1219 1034 1038 1043 1040 1043 1036 1038 1135 1047 1035 1042 1133 1224 1045 1045 1042 1040 1124 1036 1131 1127 1041 1038 1041 1039 1135 1129 1047 1133 1222 1217 1040 1040 1040 1125 946 1041 947 1040 943 947 1036 1040 1038 1231 1129 1219 946 1129 1042 1043 1130 1130 1132 1131 1041 1128 1133 1141 1142 1134 1222 1046 949 951 1127 1042 1128 1039 1127 1132 1132 1132 1129 1130 1127 1132 1134 1130 1132 1130 1223 1133 1135 1040 1133 1040 1139 1037 1044 1135 1129 1043 1126 1039 1129 1227 1042 1132 1231 1135 1138 1227 1139 1042 1139 1137 1140 1138 1135 1139 1139 1132 1129 1133 1131 1127 1125 1126 1131 1136 955 1137 1136 1131 1136 1136 1148 1323 1144 1041 1138 1139 1230 1052 1231 1136 1141 1148 1144 1219 1314 1315 1232 1044 1315 1228 1129 1056 1131 1042 1147 1038 1062 1138 1144 1145 1149 1140 1142 1146 1144 1147 1055 1052 1145 1052 1053 1143 1146 1146 1145 1146 1149 956 1051 1127 1223 1137 1228 1137 1140 1321 1326 1223 1141 1236 1228 1141 1151 1148 1239 1149 1143 1140 1056 1142 1142 1053 1331 1137 1241 1334 1145 1042 1129 1048 1141 1132 1142 1058 966 1241 1148 1142 1056 1144 1237 1049 1237 1236 1053 1048 1236 1152 1238 1150 1236 1059 1237 1053 961 962 1059 963 957 1231 1049 1049 1236 1047 1241 1235 1142 1143 1152 1326 962 1245 1050 1152 1052 1144 1146 1146 1226 1242 1147 963 1143 1243 1053 1146 961 1238 1146 1153 1244 1153 1062 1154 1061 1061 1144 1145 1054 1149 1151 1053 1060 876 1147 963 965 1049 1156 1147 1242 1149 1148 1146 1231 1147 1331 1148 1247 1157 1156 1153 1146 1339 1253 1154 1150 1068 1241 1156 1243 1056 1241 1242 1149 1249 1336 1243 1229 1141 1052 1063 958 1252 970 1152 1145 1061 1055 1155 1151 1067 963 967 967 1051 1059 970 1049 1156 1147 969 1060 1067 1246 1252

Tree=0
num_leaves=9
num_cat=0
split_feature=431 431 1751 1847 286 231 672 1703
split_gain=55.5916 82.3917 53.5861 43.9509 39.2535 12.9803 1.58036 0.218034
threshold=1.0000000180025095e-35 -0.6122510790124237 -0.6902788556436078 0.82726672466091822 -0.055928415761777289 0.0011273742223555823 1.0000000180025095e-35 -0.39660296076422302
decision_type=2 2 2 2 2 2 2 2
left_child=1 7 6 4 -4 -6 -3 -1
