tree
version=v4
num_class=1
num_tree_per_iteration=1
label_index=0
max_feature_idx=0
objective=regression
feature_names=Column_0
feature_infos=[-1.7577448942541267:1.736908165591674]
tree_sizes=1431 1431 1426 1424 1424 1429 1421 1427 1427 1409 1426 1426 1520 1518 1342 1430 1428 1424 1342 1344 1343 1342 1347 1345 1343 1348 1259 1434 1263 1430 1259 1177 1260 1260 1259 1180 1091 1178 1264 1179 1426 1319 1520 1520 1431 1175 1182 1181 1182 1179 1180 1179 1266 1178 1264 1086 1181 1178 1178 1265 1181 1074 1182 1161 1179 1185 1183 1263 1177 1183 1087 1092 1095 1183 1266 1181 1186 1184 1184 1184 1012 1011 1010 1008 1005 1008 1087 1006 1003 1006 925 924 1011 1012 1010 1010 1006 923 1011 925 1007 1003 1002 921 917 840 923 840 926 925 922 926 925 924 926 843 842 924 923 925 844 944 945 943 941 848 847 849 843 930 925 924 930 925 924 857 859 860 858 862 845 842 845 841 844 842 844 843 839 838 845 840 844 844 842 840 841 835 842 854 845 845 843 845 843 846 844 858 857 845 843 841 843 840 842 858 861 760 861 847 845 844 841 846 841 835 834 839 836 837 774 676 772 676 861 765 765 678 761 653 678 675 592 677 780 582 583 666 578 669 680 848 675 588 766 591 592 594 591 591 594 682 592 591 594 592 593 594 594 594 593 594 593 594 595 596 596 596 595 595 585 586 503 584 584 611 609 612 597 510 596 597 616 614 613 500 501 500 501 500 610 629 510 626 612 501 501 500 516 500 509 595 510 510 508 513 513 513 513 512 499 500 498 499 500 513 528 511 530 529 510 510 511 508 510 513 514 514 513 511 527 526 527 527 426 424 426 426 510 426 508 510 509 427 512 500 500 498 516 515 427 427 427 427 425 422 424 425 422 421 425 421 424 424 423 426 427 427 426 426 422 422 421 422 422 421 524 424 422 424 423 422 423 419 422 327 413 413 325 414 412 413 414 414 413 337 335 336 337 439 335 335 334 335 335 335 336 336 336 335 335 420 333 437 420 325 326 325 326 326 335 335 335 334 334 335 337 337 336 337 337 336 336 337 335 335 335 332 334 332 325 426 325 324 324 436 436 333 337 335 336 332 336 333 332 331 334 323 326 323 332 332 332 331 332 335 336 334 336 350 334 333 334 334 349 331

Tree=0
num_leaves=15
num_cat=0
split_feature=0 0 0 0 0 0 0 0 0 0 0 0 0 0
split_gain=277.627 70.1296 36.3678 7.43173 6.84501 4.85351 2.91077 0.947853 0.536339 0.454068 0.359085 0.348549 0.346864 0.111208
threshold=-0.23757184737729986 0.86499480079244695 -1.0623117462584355 1.3018261332403176 0.43864614235777727 -0.67265753656930027 -1.4065343624264444 0.20799820190951615 0.64483126717202743 -0.43152579258580032 1.0711793951559645 1.4887893743261393 -0.86486378076525805 -0.078564503023062018
decision_type=2 2 2 2 2 2 2 2 2 2 2 2 2 2
left_child=2 4 6 10 7 12 -1 13 -6 -7 -3 -5 -4 -2
right_child=1 3 5 11 8 9 -8 -9 -10 -11 -12 -13 -14 -15
leaf_value=-0.01498789679237234 -0.00072845496747162648 0.0080607251435641045 -0.0080718933988699806 0.012620737189275723 0.0034028634275027263 -0.0038098195673348079 -0.011285158400205546 0.0016522195066358608 0.0055020959410797899 -0.0019319324395194344 0.010225919061319871 0.015249580137518247 -0.0060048617970973927 7.538036936713364e-05
leaf_weight=51 28 30 27 25 27 29 51 42 35 30 31 38 27 42
leaf_count=51 28 30 27 25 27 29 51 42 35 30 31 38 27 42
internal_value=-0.000182415 0.00606263 -0.00884071 0.0118047 0.00195583 -0.00490632 -0.0131717 0.000467184 0.00461832 -0.00288114 0.00920769 0.0142659 -0.00708228 -0.000232671
internal_weight=513 298 215 124 174 113 102 112 62 59 61 63 54 70
internal_count=513 298 215 124 174 113 102 112 62 59 61 63 54 70
is_linear=0
shrinkage=1


Tree=1
num_leaves=15
num_cat=0
split_feature=0 0 0 0 0 0 0 0 0 0 0 0 0 0
split_gain=272.148 68.7435 35.6424 7.28228 6.71059 4.75676 2.8505 0.860358 0.59562 0.444557 0.350134 0.339475 0.338528 0.109028
threshold=-0.23757184737729986 0.86499480079244695 -1.0623117462584355 1.3018261332403176 0.43165681307653392 -0.67265753656930027 -1.4065343624264444 0.20799820190951615 0.6308526209598001 -0.43152579258580032 1.0711793951559645 -0.84913782422529061 1.4887893743261393 -0.078564503023062018
decision_type=2 2 2 2 2 2 2 2 2 2 2 2 2 2
left_child=2 4 6 10 7 11 -1 13 -6 -7 -3 -4 -5 -2
right_child=1 3 5 12 8 9 -8 -9 -10 -11 -12 -13 -14 -15
leaf_value=-0.014700504676438868 -0.00058311963017950667 0.0081187533503336625 -0.0077134201809381823 0.012633635704479521 0.0033699978778467463 -0.0036338801845295795 -0.011034649242646992 0.0017310304468988781 0.0055271731893862443 -0.0017746392494400606 0.010262417266002069 -0.0056429096696705662 0.01523598242804642 0.00021272930469870416
leaf_weight=51 28 30 31 25 27 29 51 40 37 30 31 23 38 42
leaf_count=51 28 30 31 25 27 29 51 40 37 30 31 23 38 42
internal_value=-4.24126e-05 0.00614068 -0.00861486 0.0118257 0.0020746 -0.00471977 -0.0129025 0.000563708 0.00464602 -0.00271458 0.00925447 -0.00687406 0.0142624 -9.21196e-05
internal_weight=513 298 215 124 174 113 102 110 64 59 61 54 63 70
internal_count=513 298 215 124 174 113 102 110 64 59 61 54 63 70
is_linear=0
shrinkage=0.01


Tree=2
num_leaves=15
num_cat=0
split_feature=0 0 0 0 0 0 0 0 0 0 0 0 0 0
split_gain=266.777 67.3848 34.9314 7.13581 6.57842 4.6619 2.7944 0.910309 0.5139 0.435239 0.342383 0.332155 0.328795 0.10689
threshold=-0.23757184737729986 0.86499480079244695 -1.0623117462584355 1.3018261332403176 0.43864614235777727 -0.67265753656930027 -1.3908084830521095 0.20799820190951615 0.64483126717202743 -0.43152579258580032 1.0973892765099902 -0.86486378076525805 1.509757190101541 -0.078564503023062018
decision_type=2 2 2 2 2 2 2 2 2 2 2 2 2 2
left_child=2 4 6 10 7 11 -1 13 -6 -7 -3 -4 -5 -2
right_child=1 3 5 12 8 9 -8 -9 -10 -11 -12 -13 -14 -15
leaf_value=-0.014451432342458917 -0.00057732978928173688 0.0081379724267017402 -0.0077770977861741008 0.01260605293161729 0.0034721494685201089 -0.003597790215113392 -0.010814261144622233 0.0017558697508692177 0.0055305307206105093 -0.0017570103862822454 0.010268655892805005 -0.0057480927863541777 0.015153299616186658 0.00021061209464799923
leaf_weight=54 28 33 27 27 27 29 48 42 35 30 28 27 36 42
leaf_count=54 28 33 27 27 27 29 48 42 35 30 28 27 36 42
internal_value=-4.19029e-05 0.00607986 -0.00852936 0.0117085 0.00205409 -0.00467317 -0.0127741 0.000594517 0.00466426 -0.00268779 0.00916269 -0.006806 0.0141208 -9.10665e-05
internal_weight=513 298 215 124 174 113 102 112 62 59 61 54 63 70
internal_count=513 298 215 124 174 113 102 112 62 59 61 54 63 70
is_linear=0
shrinkage=0.01


Tree=3
num_leaves=15
num_cat=0
split_feature=0 0 0 0 0 0 0 0 0 0 0 0 0 0
split_gain=261.513 66.8883 33.4204 6.99226 6.60241 4.37731 2.73738 0.736865 0.708617 0.3912 0.335415 0.325472 0.320431 0.10176
threshold=-0.27077117800067546 0.86499480079244695 -1.0623117462584355 1.3018261332403176 0.41068882423156994 -0.67265753656930027 -1.4065343624264444 0.16431486689123243 0.61337931151411096 -0.46297777299824999 1.0624427665146265 -0.83166453703133836 1.4887893743261393 -1.2527700906807728
decision_type=2 2 2 2 2 2 2 2 2 2 2 2 2 2
left_child=2 4 6 10 7 11 -1 -2 -6 -7 -3 -4 -5 -8
right_child=1 3 5 12 8 9 13 -9 -10 -11 -12 -13 -14 -15
leaf_value=-0.01441012425813824 -0.00019885105522999432 0.0078060459863138563 -0.0074989932560058951 0.012383241795358204 0.0031256925039095424 -0.0036270183653515932 -0.01176787197134877 0.0014821513519750387 0.0053609367596859827 -0.001834737433503006 0.0099340239268812264 -0.0054371135246078931 0.014935014048171916 -0.0096985611508763024
leaf_weight=51 66 26 33 25 29 27 26 42 39 30 35 21 38 25
leaf_count=51 66 26 33 25 29 27 26 42 39 30 35 21 38 25
internal_value=-4.13964e-05 0.00597126 -0.00851228 0.0115924 0.0019966 -0.00468793 -0.012647 0.000447161 0.0044343 -0.00271091 0.00907183 -0.00673862 0.0139806 -0.0108149
internal_weight=513 300 213 124 176 111 102 108 68 57 61 54 63 51
internal_count=513 300 213 124 176 111 102 108 68 57 61 54 63 51
is_linear=0
shrinkage=0.01


Tree=4
num_leaves=15
num_cat=0
split_feature=0 0 0 0 0 0 0 0 0 0 0 0 0 0
split_gain=256.362 70.4836 27.9168 7.43976 6.8516 3.19143 2.68214 0.897527 0.748553 0.329513 0.328295 0.311286 0.13988 0.118991
threshold=-0.32843316749375157 0.86499480079244695 -1.0623117462584355 0.39496283163139634 1.3018261332403176 -0.71109880330495556 -1.3768299207748673 0.592411338337265 0.097916193092317499 -0.50316640917877919 1.0973892765099902 1.509757190101541 -0.15719451246401153 -0.8910737046549303
decision_type=2 2 2 2 2 2 2 2 2 2 2 2 2 2
left_child=2 3 6 8 10 13 -1 -5 12 -7 -3 -6 -2 -4
right_child=1 4 5 7 11 9 -8 -9 -10 -11 -12 -13 -14 -15
leaf_value=-0.014069606711814453 -0.0010724896081584566 0.0079750061825097328 -0.007769096755775912 0.0028971321997513255 0.012356121496242637 -0.0040597827806540419 -0.010484632591230678 0.0052493808179804417 0.0011007468454941674 -0.002273296679347015 0.010068062146504719 0.014854077713265601 -0.00010789445570242806 -0.0060431683211287189
leaf_weight=57 28 33 23 33 27 28 45 41 48 24 28 36 38 24
leaf_count=57 28 33 23 33 27 28 45 41 48 24 28 36 38 24
internal_value=-4.09803e-05 0.00562986 -0.0088453 0.00175956 0.0114774 -0.00503011 -0.0125214 0.00422452 0.000146149 -0.00326628 0.00898186 0.0138418 -0.000534226 -0.0069383
internal_weight=513 312 201 188 124 99 102 74 114 52 61 63 66 47
internal_count=513 312 201 188 124 99 102 74 114 52 61 63 66 47
is_linear=0
shrinkage=0.01


Tree=5
num_leaves=15
num_cat=0
split_feature=0 0 0 0 0 0 0 0 0 0 0 0 0 0
split_gain=253.775 58.9168 37.1552 6.70134 5.37086 3.86303 3.72618 0.605375 0.487943 0.427131 0.353071 0.346126 0.324408 0.213682
threshold=-0.20262518128828877 0.86499480079244695 -0.994166022904312 1.2494064651630634 0.43165681307653392 -0.60101697368903717 -1.3471254694966326 0.17305153412171664 0.61337931151411096 -0.78273932237492849 -1.5218573938651698 -0.40182114110681028 1.4887893743261393 1.0624427665146265
decision_type=2 2 2 2 2 2 2 2 2 2 2 2 2 2
left_child=2 4 6 13 7 9 10 -2 -6 -4 -1 -7 -5 -3
right_child=1 3 5 12 8 11 -8 -9 -10 -11 -12 -13 -14 -15
leaf_value=-0.014875739209162884 -5.4291529221019803e-05 0.0077539070370869758 -0.006759385920518282 0.012105541970485297 0.0031403341085191761 -0.0031279468068406602 -0.0097432644435060684 0.0015440980470454206 0.0051605811426716462 -0.0046941369311774483 -0.012386571111449274 -0.0014801167676685959 0.014489694563723399 0.0096133414445779258
leaf_weight=31 57 31 30 31 25 24 49 39 37 27 33 37 36 31
leaf_count=31 57 31 30 31 25 24 49 39 37 27 33 37 36 31
internal_value=-8.62317e-05 0.00618945 -0.00788623 0.0112003 0.00208302 -0.00393884 -0.0119852 0.000586519 0.00437476 -0.00581843 -0.0136504 -0.00215289 0.0134408 0.00872762
internal_weight=518 287 231 129 158 118 113 96 62 57 64 61 67 62
internal_count=518 287 231 129 158 118 113 96 62 57 64 61 67 62
is_linear=0
shrinkage=0.01


Tree=6
num_leaves=15
num_cat=0
split_feature=0 0 0 0 0 0 0 0 0 0 0 0 0 0
split_gain=248.771 57.351 36.812 6.56638 5.20098 4.17957 3.4084 0.579565 0.546071 0.477373 0.34701 0.315253 0.300784 0.20774
threshold=-0.19388851445047897 0.86499480079244695 -0.96970344624259608 1.2494064651630634 0.43165681307653392 -1.3086844004897058 -0.58529099304956744 0.17305153412171664 -1.4991422635340343 0.61337931151411096 -0.76351869851009402 1.4887893743261393 -0.40182114110681028 1.0624427665146265
decision_type=2 2 2 2 2 2 2 2 2 2 2 2 2 2
left_child=2 4 5 13 7 8 10 -2 -1 -6 -4 -5 -8 -3
right_child=1 3 6 11 9 -7 12 -9 -10 -11 -12 -13 -14 -15
leaf_value=-0.014610101577134159 -3.998706402484737e-05 0.007676864996170386 -0.0064561232057869017 0.011985262128023 0.0031091800320243081 -0.0092620704310425253 -0.0030273819600676634 0.0015287358317600222 -0.012034375305333847 0.0051092528671987589 -0.0045208377303446049 0.01434559852378803 -0.0014486899671598255 0.0095178241034348798
leaf_weight=34 56 31 28 31 25 47 22 39 36 37 27 36 38 31
leaf_count=34 56 31 28 31 25 47 22 39 36 37 27 36 38 31
internal_value=-8.53667e-05 0.00615241 -0.00777802 0.0110892 0.00208076 -0.0117276 -0.00373765 0.000595369 -0.0133377 0.00433144 -0.00554401 0.0133073 -0.00205229 0.00864107
internal_weight=518 286 232 129 157 117 115 95 70 62 55 67 60 62
internal_count=518 286 232 129 157 117 115 95 70 62 55 67 60 62
is_linear=0
shrinkage=0.01


Tree=7
num_leaves=15
num_cat=0
split_feature=0 0 0 0 0 0 0 0 0 0 0 0 0 0
split_gain=243.866 56.6106 35.7021 6.43411 5.16101 3.7089 3.57733 0.581788 0.467854 0.40745 0.334952 0.331474 0.306306 0.201932
threshold=-0.20262518128828877 0.86499480079244695 -0.994166022904312 1.2494064651630634 0.43165681307653392 -0.60101697368903717 -1.3471254694966326 0.17305153412171664 0.64483126717202743 -0.78273932237492849 -1.5218573938651698 -0.40182114110681028 1.4887893743261393 1.0624427665146265
decision_type=2 2 2 2 2 2 2 2 2 2 2 2 2 2
left_child=2 4 6 13 7 9 10 -2 -6 -4 -1 -7 -5 -3
right_child=1 3 5 12 8 11 -8 -9 -10 -11 -12 -13 -14 -15
leaf_value=-0.014582771108700678 -5.3105763667432019e-05 0.0076005881107770483 -0.0066243894921233313 0.011866178581347833 0.0032865240291143076 -0.003065667963963895 -0.0095506026904757426 0.0015135265168334758 0.0052310344385795102 -0.0046012416679192996 -0.012141504998666692 -0.0014509861471672211 0.014202934707725903 0.0094232560235720415
leaf_weight=31 57 31 30 31 31 24 49 39 31 27 33 37 36 31
leaf_count=31 57 31 30 31 31 24 49 39 31 27 33 37 36 31
internal_value=-8.45058e-05 0.00606739 -0.00773074 0.0109792 0.00204197 -0.00386105 -0.0117489 0.000574767 0.00428855 -0.00570298 -0.0133813 -0.00211055 0.0131752 0.00855537
internal_weight=518 287 231 129 158 118 113 96 62 57 64 61 67 62
internal_count=518 287 231 129 158 118 113 96 62 57 64 61 67 62
is_linear=0
shrinkage=0.01


Tree=8
num_leaves=15
num_cat=0
split_feature=0 0 0 0 0 0 0 0 0 0 0 0 0 0
split_gain=239.061 56.6471 33.8597 6.30449 5.24822 3.50637 3.4122 0.557037 0.517812 0.419797 0.398253 0.297566 0.287627 0.196256
threshold=-0.22009851456933685 0.86499480079244695 -0.994166022904312 1.2494064651630634 0.41068882423156994 -1.3226629728516055 -0.60101697368903717 0.17305153412171664 0.61337931151411096 -1.5218573938651698 -0.78273932237492849 1.4887893743261393 -0.40182114110681028 1.0624427665146265
decision_type=2 2 2 2 2 2 2 2 2 2 2 2 2 2
left_child=2 4 5 13 7 9 10 -2 -6 -1 -4 -5 -8 -3
right_child=1 3 6 11 8 -7 12 -9 -10 -11 -12 -13 -14 -15
leaf_value=-0.014437878368756709 -9.2750709839695085e-05 0.0075250698664249514 -0.00655858418799394 0.011748277117044497 0.0029973874942344782 -0.0093353008217625794 -0.0030352647060697732 0.0014506299613464262 0.0050095422597982546 -0.011961608967069761 -0.0045555675928207005 0.014061690997023608 -0.0014872399582500345 0.0093296275192346328
leaf_weight=31 60 31 30 31 27 46 24 37 37 36 27 36 34 31
leaf_count=31 60 31 30 31 27 46 24 37 37 36 27 36 34 31
internal_value=-8.36566e-05 0.00593628 -0.00774347 0.0108703 0.00196814 -0.0116322 -0.00390015 0.000487447 0.00418822 -0.0131618 -0.00564652 0.0130443 -0.00215321 0.00847052
internal_weight=518 290 228 129 161 113 115 97 64 67 57 67 58 62
internal_count=518 290 228 129 161 113 115 97 64 67 57 67 58 62
is_linear=0
shrinkage=0.01


Tree=9
num_leaves=15
num_cat=0
split_feature=0 0 0 0 0 0 0 0 0 0 0 0 0 0
split_gain=234.351 54.022 34.6704 5.72063 5.35119 3.94467 3.20727 0.675557 0.607183 0.409999 0.393492 0.289025 0.217543 0.109352
threshold=-0.19388851445047897 0.89644670903928947 -0.96970344624259608 1.2494064651630634 0.46310879333849525 -1.2964531479466472 -0.55733369092983698 0.21848220186511888 -1.4991422635340343 0.67977787870701289 -0.76351869851009402 1.4887893743261393 -0.36512715632299314 1.0711793951559645
decision_type=2 2 2 2 2 2 2 2 2 2 2 2 2 2
left_child=2 4 5 13 7 8 10 -2 -1 -6 -4 -5 -8 -3
right_child=1 3 6 11 9 -7 12 -9 -10 -11 -12 -13 -14 -15
leaf_value=-0.014180659487930654 0 0.0076394001910319699 -0.0062639805737962108 0.011631547075051527 0.0035162348376634794 -0.008854492020822757 -0.0026195782832516973 0.0016952574808074502 -0.011624205939623773 0.0054055849860792293 -0.0043138876340247153 0.013921850992171143 -0.0012616960336573613 0.0093270492553710945
leaf_weight=34 61 31 28 31 31 44 26 39 39 29 30 36 31 28
leaf_count=34 61 31 28 31 31 44 26 39 39 29 30 36 31 28
internal_value=-8.28175e-05 0.00597142 -0.00754926 0.0108657 0.00210221 -0.0113824 -0.00362779 0.000670903 -0.012864 0.00446096 -0.00529078 0.0129148 -0.00190556 0.00848601
internal_weight=518 286 232 126 160 117 115 100 73 60 58 67 57 59
internal_count=518 286 232 126 160 117 115 100 73 60 58 67 57 59
is_linear=0
shrinkage=0.01


Tree=10
num_leaves=15
num_cat=0
split_feature=0 0 0 0 0 0 0 0 0 0 0 0 0 0
split_gain=218.845 56.4634 27.0258 5.8668 5.09446 3.95311 2.57522 0.666854 0.619545 0.401792 0.345411 0.274117 0.253154 0.118829
threshold=0.27789153096573505 -0.84913782422529061 1.0624427665146265 -1.2527700906807728 -0.40182114110681028 0.70074584266732931 1.4171493006541382 -0.1344791770234601 -1.4991422635340343 0.8422795298595025 -0.60101697368903717 0.50504476159379097 -1.0221232475401711 1.2162073275462069
decision_type=2 2 2 2 2 2 2 2 2 2 2 2 2 2
left_child=1 3 5 8 10 11 13 -6 -1 -7 -3 -2 -5 -4
right_child=2 4 6 12 7 9 -8 -9 -10 -11 -12 -13 -14 -15
leaf_value=-0.014016656891399661 0.0021601056138784189 -0.0047513330087327115 0.0087079934900005651 -0.0088905228452479581 -0.001216935590052285 0.0052468766703093351 0.013607157797126448 0.00031300066644202208 -0.011348134317705707 0.0073194868591698724 -0.0029532487025438264 0.0037228361388732651 -0.0068773928473866179 0.010779017648064946
leaf_weight=30 36 34 19 28 52 24 47 61 37 35 24 23 25 33
leaf_count=30 36 34 19 28 52 24 47 61 37 35 24 23 25 33
internal_value=0.000331939 -0.00533245 0.00793048 -0.0105863 -0.00163162 0.00467162 0.0117874 -0.000383113 -0.012596 0.00651386 -0.00403719 0.00279672 -0.00798915 0.0100777
internal_weight=508 291 217 120 171 118 99 113 67 59 58 59 53 52
internal_count=508 291 217 120 171 118 99 113 67 59 58 59 53 52
is_linear=0
shrinkage=0.01


Tree=11
num_leaves=15
num_cat=0
split_feature=0 0 0 0 0 0 0 0 0 0 0 0 0 0
split_gain=214.532 55.3484 26.4887 5.74823 4.99417 3.87399 2.52096 0.653708 0.60495 0.394077 0.337746 0.268191 0.246549 0.114296
threshold=0.27789153096573505 -0.84913782422529061 1.0624427665146265 -1.2527700906807728 -0.40182114110681028 0.70074584266732931 1.4171493006541382 -0.1344791770234601 -1.4991422635340343 0.89644670903928947 -0.60101697368903717 0.50504476159379097 -1.0221232475401711 1.2162073275462069
decision_type=2 2 2 2 2 2 2 2 2 2 2 2 2 2
left_child=1 3 5 8 10 11 13 -6 -1 -7 -3 -2 -5 -4
right_child=2 4 6 12 7 9 -8 -9 -10 -11 -12 -13 -14 -15
leaf_value=-0.013877418862273361 0.0021386239228986244 -0.0047040976174393583 0.0086218206956982617 -0.0088022477533800381 -0.0012048128474204021 0.0053488973057861881 0.013471662927482086 0.00030988088476375917 -0.011235262924625027 0.0073705247273811924 -0.0029239602793346754 0.0036859286345284565 -0.00680916494793362 0.010671876647386206
leaf_weight=30 36 34 19 28 52 28 47 61 37 31 24 23 25 33
leaf_count=30 36 34 19 28 52 28 47 61 37 31 24 23 25 33
internal_value=0.000328627 -0.00527964 0.00785193 -0.0104814 -0.00161546 0.00462547 0.0116704 -0.00037921 -0.012471 0.00644931 -0.00399725 0.00276912 -0.00791004 0.00997788
internal_weight=508 291 217 120 171 118 99 113 67 59 58 59 53 52
internal_count=508 291 217 120 171 118 99 113 67 59 58 59 53 52
is_linear=0
shrinkage=0.01


Tree=12
num_leaves=16
num_cat=0
split_feature=0 0 0 0 0 0 0 0 0 0 0 0 0 0 0
split_gain=210.303 54.2569 25.9622 5.35245 5.15737 3.79752 2.46781 0.641688 0.550785 0.473746 0.414326 0.191279 0.181934 0.126891 0.109876
threshold=0.27789153096573505 -0.86486378076525805 1.0624427665146265 -0.40182114110681028 -1.2632540262982879 0.67977787870701289 1.4171493006541382 -0.15719451246401153 -1.4991422635340343 0.8422795298595025 -0.62547960789775059 0.48407677838531876 -1.0221232475401711 0.097916193092317499 1.2162073275462069
decision_type=2 2 2 2 2 2 2 2 2 2 2 2 2 2 2
left_child=1 4 5 10 8 11 14 -5 -1 -7 -3 -2 -6 -9 -4
right_child=2 3 6 7 12 9 -8 13 -10 -11 -12 -13 -14 -15 -16
leaf_value=-0.013739562792493807 0.0020335084190650017 -0.0049421984492204127 0.0085365005582571027 -0.0013022432931229077 -0.0087631433875593433 0.0050734622272498473 0.013337516537157154 -0.00015952581713086727 -0.011151096708866772 0.0071757189827886484 -0.0030874088584192543 0.0033995182652118779 -0.0068374394940900378 0.00068780081450754065 0.010565800882247556
leaf_weight=30 32 31 19 45 29 27 47 36 36 35 30 24 22 32 33
leaf_count=30 32 31 19 45 29 27 47 36 36 35 30 24 22 32 33
internal_value=0.000325349 -0.00522735 0.00777416 -0.00167581 -0.0104887 0.00457979 0.0115546 -0.000375345 -0.0123807 0.00629555 -0.00405942 0.00264675 -0.00798193 0.000225401 0.00987903
internal_weight=508 291 217 174 117 118 99 113 66 62 61 56 51 68 52
internal_count=508 291 217 174 117 118 99 113 66 62 61 56 51 68 52
is_linear=0
shrinkage=0.01


Tree=13
num_leaves=16
num_cat=0
split_feature=0 0 0 0 0 0 0 0 0 0 0 0 0 0 0
split_gain=206.159 53.1925 25.4462 5.82713 4.5013 3.72168 2.41576 0.628934 0.576353 0.377255 0.287607 0.278672 0.257133 0.124426 0.105567
threshold=0.27789153096573505 -0.83166453703133836 1.0624427665146265 -1.2527700906807728 -0.40182114110681028 0.70074584266732931 1.4171493006541382 -0.15719451246401153 -1.4991422635340343 0.89644670903928947 -1.0221232475401711 -0.58529099304956744 0.50504476159379097 0.097916193092317499 1.2162073275462069
decision_type=2 2 2 2 2 2 2 2 2 2 2 2 2 2 2
left_child=1 3 5 8 11 12 14 -6 -1 -7 -5 -3 -2 -9 -4
right_child=2 4 6 10 7 9 -8 13 -10 -11 -12 -13 -14 -15 -16
leaf_value=-0.013603078024276833 0.0020956236152853097 -0.0044811872344965127 0.0084520247268180058 -0.0086278397648047039 -0.0012892784817820102 0.0052424309080374154 0.013204706755735105 -0.00015793936853863053 -0.011013244755806459 0.0072259950217528216 -0.006619591537643881 -0.0027907867259807416 0.003613520449605482 0.00068096553096952633 0.010460778862596994
leaf_weight=30 36 34 19 28 45 28 47 36 37 31 27 22 23 32 33
leaf_count=30 36 34 19 28 45 28 47 36 37 31 27 22 23 32 33
internal_value=0.000322079 -0.00517562 0.00769715 -0.0102035 -0.00153237 0.00453454 0.0114399 -0.000371605 -0.0122248 0.00632243 -0.00768764 -0.00384719 0.00271445 0.000223016 0.00978116
internal_weight=508 291 217 122 169 118 99 113 67 59 55 56 59 68 52
internal_count=508 291 217 122 169 118 99 113 67 59 55 56 59 68 52
is_linear=0
shrinkage=0.01


Tree=14
num_leaves=14
num_cat=0
split_feature=0 0 0 0 0 0 0 0 0 0 0 0 0
split_gain=202.097 52.1412 24.9419 5.7095 4.41251 3.47502 2.55502 0.616901 0.562677 0.408303 0.280592 0.27236 0.183168
threshold=0.27789153096573505 -0.83166453703133836 1.0432221817484488 -1.2527700906807728 -0.40182114110681028 0.67977787870701289 1.3682243382424164 -0.1344791770234601 -1.4991422635340343 0.8422795298595025 -1.0186285948066214 -0.58529099304956744 0.46310879333849525
decision_type=2 2 2 2 2 2 2 2 2 2 2 2 2
left_child=1 3 5 8 11 12 -4 -6 -1 -7 -5 -3 -2
right_child=2 4 6 10 7 9 -8 -9 -10 -11 -12 -13 -14
leaf_value=-0.013467947978847076 0.0019273009513543079 -0.0044366373635872066 0.0092189217938317188 -0.0084741096307110308 -0.001170044458289256 0.004972858505652232 0.012716166080068477 0.00030113958089607285 -0.010903704284980732 0.006983750347631522 -0.0064776497085889178 -0.0027631303386108298 0.0032546466413666225
leaf_weight=30 29 34 43 30 52 27 58 61 37 33 25 22 27
leaf_count=30 29 34 43 30 52 27 58 61 37 33 25 22 27
internal_value=0.000318848 -0.0051244 0.00762092 -0.0101023 -0.00151726 0.00443138 0.0112583 -0.000367903 -0.0121034 0.00611499 -0.0076115 -0.00380915 0.00259437
internal_weight=508 291 217 122 169 116 101 113 67 60 55 56 56
internal_count=508 291 217 122 169 116 101 113 67 60 55 56 56
is_linear=0
shrinkage=0.01


Tree=15
num_leaves=15
num_cat=0
split_feature=0 0 0 0 0 0 0 0 0 0 0 0 0 0
split_gain=213.665 49.5533 29.7641 5.32305 4.90934 3.52042 2.76109 0.585742 0.52111 0.483442 0.258777 0.217584 0.189983 0.165046
threshold=0.20799820190951615 -0.8910737046549303 0.98730773574821951 -0.46297777299824999 -1.2964531479466472 1.3018261332403176 0.56095937443388799 -0.67265753656930027 -0.22009851456933685 -1.4991422635340343 0.76539704828580635 1.5202410957116421 0.36875284228192018 -1.0850269793367946
decision_type=2 2 2 2 2 2 2 2 2 2 2 2 2 2
left_child=1 4 6 7 9 -4 12 -3 -5 -1 -8 -7 -2 -6
right_child=2 3 5 8 13 11 10 -9 -10 -11 -12 -13 -14 -15
leaf_value=-0.013239004387281325 0.0011704558725575455 -0.0052587039840508642 0.0085306122462923926 -0.0015996281018382625 -0.0088451265972971128 0.011167194662038344 0.0042629492187347172 -0.0032533776359532467 -5.3006310762643145e-05 -0.010860387247208265 0.0059793479953493388 0.013294057465461362 0.0024540986560094053 -0.0070447968936148487
leaf_weight=38 26 33 49 34 30 34 31 37 64 34 25 33 31 26
leaf_count=38 26 33 49 34 30 34 31 37 64 34 25 33 31 26
internal_value=-9.26739e-05 -0.00570417 0.00715491 -0.00212084 -0.0103889 0.0107142 0.00347984 -0.00422528 -0.000601938 -0.0121628 0.00506554 0.0122661 0.0018922 -0.0080551
internal_weight=525 296 229 168 128 116 113 70 98 72 56 67 57 56
internal_count=525 296 229 168 128 116 113 70 98 72 56 67 57 56
is_linear=0
shrinkage=0.01


Tree=16
num_leaves=15
num_cat=0
split_feature=0 0 0 0 0 0 0 0 0 0 0 0 0 0
split_gain=209.454 48.5727 29.1723 5.21742 4.8097 3.44931 2.70587 0.573339 0.510682 0.471418 0.252705 0.21088 0.186072 0.160162
threshold=0.20799820190951615 -0.8910737046549303 0.98730773574821951 -0.46297777299824999 -1.2964531479466472 1.3018261332403176 0.56095937443388799 -0.67265753656930027 -0.22009851456933685 -1.4991422635340343 0.76539704828580635 1.5202410957116421 0.3460375165093898 -1.0850269793367946
decision_type=2 2 2 2 2 2 2 2 2 2 2 2 2 2
left_child=1 4 6 7 9 -4 12 -3 -5 -1 -8 -7 -2 -6
right_child=2 3 5 8 13 11 10 -9 -10 -11 -12 -13 -14 -15
leaf_value=-0.013107308455162645 0.0010806777906315081 -0.0052064336818384831 0.0084456528759584183 -0.0015837252950459196 -0.0087572609628273155 0.011056176026662191 0.0042205929832580761 -0.0032210187429702409 -5.247790363872558e-05 -0.010752418626818739 0.0059200289561634981 0.013161917307290685 0.0023712575331068875 -0.0069748867422569794
leaf_weight=38 23 33 49 34 30 34 31 37 64 34 25 33 34 26
leaf_count=38 23 33 49 34 30 34 31 37 64 34 25 33 34 26
internal_value=-9.17598e-05 -0.00564771 0.00708403 -0.00209993 -0.0102858 0.0106078 0.00344555 -0.00418341 -0.000596054 -0.012042 0.00501543 0.0121443 0.00187358 -0.00797529
internal_weight=525 296 229 168 128 116 113 70 98 72 56 67 57 56
internal_count=525 296 229 168 128 116 113 70 98 72 56 67 57 56
is_linear=0
shrinkage=0.01


Tree=17
num_leaves=15
num_cat=0
split_feature=0 0 0 0 0 0 0 0 0 0 0 0 0 0
split_gain=205.326 47.6115 28.5922 5.11389 4.71206 3.37962 2.65176 0.56186 0.500463 0.459657 0.246762 0.204333 0.18226 0.15539
threshold=0.20799820190951615 -0.8910737046549303 0.98730773574821951 -0.46297777299824999 -1.2964531479466472 1.3018261332403176 0.56095937443388799 -0.68663618008806349 -0.22009851456933685 -1.4991422635340343 0.76539704828580635 1.5202410957116421 0.36875284228192018 -1.0850269793367946
decision_type=2 2 2 2 2 2 2 2 2 2 2 2 2 2
left_child=1 4 6 7 9 -4 12 -3 -5 -1 -8 -7 -2 -6
right_child=2 3 5 8 13 11 10 -9 -10 -11 -12 -13 -14 -15
leaf_value=-0.012976921609558982 0.0011466386072508251 -0.0052164271263740007 0.0083615397825473683 -0.0015679806584154654 -0.0086702684771935677 0.01094626073948821 0.004178657629168951 -0.0032401293957111787 -5.195475705482959e-05 -0.010645523099174275 0.0058612985838027232 0.01303109121609883 0.0024061543561327155 -0.0069056703252646755
leaf_weight=38 26 31 49 34 30 34 31 39 64 34 25 33 31 26
leaf_count=38 26 31 49 34 30 34 31 39 64 34 25 33 31 26
internal_value=-9.08551e-05 -0.0055918 0.00701385 -0.00207923 -0.0101838 0.0105024 0.0034116 -0.00414196 -0.000590228 -0.0119224 0.00496582 0.0120237 0.00185514 -0.00789628
internal_weight=525 296 229 168 128 116 113 70 98 72 56 67 57 56
internal_count=525 296 229 168 128 116 113 70 98 72 56 67 57 56
is_linear=0
shrinkage=0.01


Tree=18
num_leaves=14
num_cat=0
split_feature=0 0 0 0 0 0 0 0 0 0 0 0 0
split_gain=201.28 46.6711 28.0236 5.38131 4.22381 3.31133 2.59871 0.574555 0.567174 0.448152 0.240946 0.197938 0.178483
threshold=0.20799820190951615 -0.9207782791093827 0.98730773574821951 -0.47520909772100423 -1.2964531479466472 1.3018261332403176 0.56095937443388799 -0.71109880330495556 -0.23757184737729986 -1.4991422635340343 0.76539704828580635 1.5202410957116421 0.3460375165093898
decision_type=2 2 2 2 2 2 2 2 2 2 2 2 2
left_child=1 4 6 7 9 -4 12 -3 -5 -1 -8 -7 -2
right_child=2 3 5 8 -6 11 10 -9 -10 -11 -12 -13 -14
leaf_value=-0.012847831086962634 0.0010585966237403196 -0.0054133647394506903 0.0082782641101658821 -0.0016651896192607554 -0.0079144400806355295 0.010837438134422077 0.0041371389153676162 -0.003395913507319191 -7.5653605583388342e-05 -0.010539690503600048 0.0058031506339708975 0.012901564972946443 0.0023248676214998928
leaf_weight=38 23 29 49 35 53 34 31 41 66 34 25 33 34
leaf_count=38 23 29 49 35 53 34 31 41 66 34 25 33 34
internal_value=-8.99593e-05 -0.00553645 0.00694438 -0.0021297 -0.0101781 0.0103981 0.00337799 -0.004259 -0.000638567 -0.0118039 0.00491669 0.0119044 0.00183689
internal_weight=525 296 229 171 125 116 113 70 101 72 56 67 57
internal_count=525 296 229 171 125 116 113 70 101 72 56 67 57
is_linear=0
shrinkage=0.01


Tree=19
num_leaves=14
num_cat=0
split_feature=0 0 0 0 0 0 0 0 0 0 0 0 0
split_gain=197.311 45.7467 27.4663 4.91371 4.52905 3.24439 2.54676 0.539818 0.536232 0.481701 0.202132 0.201875 0.192534
threshold=0.20799820190951615 -0.8910737046549303 0.98730773574821951 -0.46297777299824999 -1.2632540262982879 1.3018261332403176 0.592411338337265 -0.67265753656930027 -1.4991422635340343 -0.20262518128828877 0.36875284228192018 0.78636500151463995 1.5324723172894208
decision_type=2 2 2 2 2 2 2 2 2 2 2 2 2
left_child=1 4 6 7 8 -4 10 -3 -1 -5 -2 -8 -7
right_child=2 3 5 9 -6 12 11 -9 -10 -11 -12 -13 -14
leaf_value=-0.012720025933849872 0.0011233046514387349 -0.0050544695304818891 0.0081958180932494677 -0.0014758209992320308 -0.0076304352081807926 0.010787263403939935 0.0042226502132711938 -0.0031243738171554381 -0.010375049476341533 -1.4881343849755067e-05 0.0024200475880180499 0.0058502394175744274 0.01283753744302652
leaf_weight=38 26 33 49 37 53 36 32 37 37 61 33 22 31
leaf_count=38 26 33 49 37 53 36 32 37 37 61 33 22 31
internal_value=-8.90274e-05 -0.00548157 0.00687559 -0.00203833 -0.00998281 0.0102949 0.00334471 -0.00406033 -0.0116071 -0.000578526 0.00187122 0.00492333 0.0117862
internal_weight=525 296 229 168 128 116 113 70 75 98 59 54 67
internal_count=525 296 229 168 128 116 113 70 75 98 59 54 67
is_linear=0
shrinkage=0.01


Tree=20
num_leaves=14
num_cat=0
split_feature=0 0 0 0 0 0 0 0 0 0 0 0 0
split_gain=171.778 46.6347 22.3132 4.97865 4.21811 3.29123 1.5772 0.640032 0.43605 0.326885 0.308226 0.208875 0.181611
threshold=0.3180801905473119 -0.87884240749724107 1.0973892765099902 -0.43152579258580032 -1.2964531479466472 0.71472448374016306 1.4381171332944984 -0.1344791770234601 -0.64819490843660177 0.89644670903928947 -1.5410778833431888 0.4945607702069908 -1.0623117462584355
decision_type=2 2 2 2 2 2 2 2 2 2 2 2 2
left_child=1 4 5 8 10 11 -4 -5 -3 -7 -1 -2 -6
right_child=2 3 6 7 12 9 -8 -9 -10 -11 -12 -13 -14
leaf_value=-0.012890634097106069 0.0019167971658783085 -0.0047710994459827499 0.0094016015587501146 -0.0011643428810318743 -0.0083664800900302514 0.0049815337030032214 0.01247893129302337 0.00032372773697126239 -0.0029341494148562414 0.0069219465002621685 -0.010596645582489102 0.0032759671600152418 -0.0064555606583379353
leaf_weight=28 31 32 41 55 29 26 45 59 32 29 34 28 21
leaf_count=28 31 32 41 55 29 26 45 59 32 29 34 28 21
internal_value=7.12377e-05 -0.00484251 0.00719889 -0.00165104 -0.00989376 0.00427166 0.0110487 -0.000386226 -0.0038802 0.00604415 -0.0116868 0.00258761 -0.00761273
internal_weight=490 290 200 178 112 114 86 114 64 55 62 59 50
internal_count=490 290 200 178 112 114 86 114 64 55 62 59 50
is_linear=0
shrinkage=0.01


Tree=21
num_leaves=14
num_cat=0
split_feature=0 0 0 0 0 0 0 0 0 0 0 0 0
split_gain=168.394 43.7931 23.7541 4.88494 3.73402 3.05385 2.39321 0.58983 0.441361 0.299935 0.172632 0.156533 0.107576
threshold=0.25168153373730001 -0.8910737046549303 1.0187596148510187 -0.46297777299824999 -1.2964531479466472 1.3420145260639809 0.64483126717202743 -0.17466784697532856 -0.69712016187607018 -1.5410778833431888 0.46310879333849525 0.80209096469379293 1.5604293876860045
decision_type=2 2 2 2 2 2 2 2 2 2 2 2 2
left_child=1 4 6 8 9 -4 10 -5 -3 -1 -2 -8 -7
right_child=2 3 5 7 -6 12 11 -9 -10 -11 -12 -13 -14
leaf_value=-0.01276264136564647 0.0016370596862341985 -0.0050317544970952038 0.0080327008816660668 -0.0013557147670583605 -0.0076490342414985259 0.01084455861025546 0.004410000566778512 0.00010549504191792866 -0.0031636258457576373 -0.010491298381348102 0.0028800162513747474 0.0060468989807712153 0.012846453924701637
leaf_weight=28 33 28 39 48 47 33 23 62 36 34 26 24 29
leaf_count=28 33 28 39 48 47 33 23 62 36 34 26 24 29
internal_value=7.04728e-05 -0.00493978 0.00692322 -0.00181517 -0.00990607 0.0103956 0.00359184 -0.000524353 -0.00400964 -0.0115709 0.00220957 0.00528913 0.0118353
internal_weight=490 283 207 174 109 101 106 110 64 62 59 47 62
internal_count=490 283 207 174 109 101 106 110 64 62 59 47 62
is_linear=0
shrinkage=0.01


Tree=22
num_leaves=14
num_cat=0
split_feature=0 0 0 0 0 0 0 0 0 0 0 0 0
split_gain=165.083 44.8115 21.4473 4.78744 4.05425 3.15736 1.51225 0.55694 0.486596 0.391029 0.335523 0.181172 0.104901
threshold=0.3180801905473119 -0.87884240749724107 1.0973892765099902 -0.40182114110681028 -1.2632540262982879 0.70074584266732931 1.4381171332944984 -0.11525850815158785 -0.64819490843660177 -1.4659432164667103 0.89644670903928947 0.4945607702069908 -1.0623117462584355
decision_type=2 2 2 2 2 2 2 2 2 2 2 2 2
left_child=1 4 5 8 9 11 -4 -5 -3 -1 -7 -2 -6
right_child=2 3 6 7 12 10 -8 -9 -10 -11 -12 -13 -14
leaf_value=-0.012384071885184807 0.0018794944872840857 -0.0046777410148093421 0.0092165024737709926 -0.0010632254481590542 -0.0080675771536717882 0.0048576448200380101 0.012233884018079368 0.00034313127615853776 -0.0028071146526119921 -0.010064078885198429 0.0067829453863509715 0.0031740535905255998 -0.0063195493536175431
leaf_weight=35 31 32 41 54 26 27 45 57 35 30 29 27 21
leaf_count=35 31 32 41 54 26 27 45 57 35 30 29 27 21
internal_value=6.98144e-05 -0.00474718 0.00705722 -0.00161859 -0.00969875 0.00418708 0.0108317 -0.000332731 -0.00372669 -0.0113628 0.00589306 0.00250815 -0.00733782
internal_weight=490 290 200 178 112 114 86 111 67 65 56 58 47
internal_count=490 290 200 178 112 114 86 111 67 65 56 58 47
is_linear=0
shrinkage=0.01


Tree=23
num_leaves=14
num_cat=0
split_feature=0 0 0 0 0 0 0 0 0 0 0 0 0
split_gain=161.833 42.0874 22.8216 5.07759 3.21097 2.94163 2.29809 0.706889 0.355123 0.199259 0.164544 0.148585 0.101317
threshold=0.25168153373730001 -0.9207782791093827 1.0187596148510187 -0.48219842588928208 -1.3226629728516055 1.3420145260639809 0.64483126717202743 -0.22009851456933685 -0.69712016187607018 -1.5410778833431888 0.46310879333849525 0.80209096469379293 1.5604293876860045
decision_type=2 2 2 2 2 2 2 2 2 2 2 2 2
left_child=1 4 6 8 9 -4 10 -5 -3 -1 -2 -8 -7
right_child=2 3 5 7 -6 12 11 -9 -10 -11 -12 -13 -14
leaf_value=-0.012512957593227955 0.0016053453137178019 -0.0050144047194566489 0.0078704011288224431 -0.0015498523887688832 -0.0077342666736093611 0.010630615116601965 0.0043224771834653002 2.4417861354015122e-05 -0.0032585048497907375 -0.010358150196381104 0.0028224082257001458 0.0059276166385855561 0.01259736852286613
leaf_weight=28 33 31 39 47 47 33 23 69 30 31 26 24 29
leaf_count=28 33 31 39 47 47 33 23 69 30 31 26 24 29
internal_value=6.90677e-05 -0.00484257 0.00678704 -0.00184718 -0.00982201 0.0101907 0.00352142 -0.000606397 -0.00418066 -0.0114365 0.00216629 0.00518495 0.0116042
internal_weight=490 283 207 177 106 101 106 116 61 59 59 47 62
internal_count=490 283 207 177 106 101 106 116 61 59 59 47 62
is_linear=0
shrinkage=0.01


Tree=24
num_leaves=14
num_cat=0
split_feature=0 0 0 0 0 0 0 0 0 0 0 0 0
split_gain=158.65 43.0627 20.6149 4.60316 3.89779 3.02907 1.45073 0.536764 0.465798 0.37141 0.296048 0.190228 0.10175
threshold=0.3180801905473119 -0.87884240749724107 1.0973892765099902 -0.40182114110681028 -1.2632540262982879 0.71472448374016306 1.4171493006541382 -0.10477450679706535 -0.62547960789775059 -1.4659432164667103 0.89644670903928947 0.4945607702069908 -1.0623117462584355
decision_type=2 2 2 2 2 2 2 2 2 2 2 2 2
left_child=1 4 5 8 9 11 -4 -5 -3 -1 -7 -2 -6
right_child=2 3 6 7 12 10 -8 -9 -10 -11 -12 -13 -14
leaf_value=-0.012140801623463629 0.0018429190474442947 -0.0045039408992637291 0.0089225652236588956 -0.001030231529333885 -0.0079107649317224516 0.0047848606928614264 0.011898656460259465 0.00034983726999899731 -0.0026707602148840887 -0.0098664221463613949 0.0066467301567939866 0.0031471861888330882 -0.0061880346570374837
leaf_weight=35 31 35 38 55 26 26 48 56 32 30 29 28 21
leaf_count=35 31 35 38 55 26 26 48 56 32 30 29 28 21
internal_value=6.84193e-05 -0.00465374 0.00691836 -0.00158667 -0.00950776 0.00410418 0.010619 -0.000325611 -0.00365383 -0.0111399 0.00580522 0.00248733 -0.0071917
internal_weight=490 290 200 178 112 114 86 111 67 65 55 59 47
internal_count=490 290 200 178 112 114 86 111 67 65 55 59 47
is_linear=0
shrinkage=0.01


Tree=25
num_leaves=14
num_cat=0
split_feature=0 0 0 0 0 0 0 0 0 0 0 0 0
split_gain=164.518 37.0415 24.8698 3.82468 3.69169 3.60706 2.06816 0.469786 0.294581 0.243143 0.186658 0.172837 0.116296
threshold=0.13985219814687114 -0.9207782791093827 0.94711921171555169 -0.50316640917877919 -1.3086844004897058 1.2494064651630634 0.56095937443388799 -0.25679251274303555 1.5202410957116421 -0.71109880330495556 -1.5410778833431888 0.3460375165093898 -1.1112368573590918
decision_type=2 2 2 2 2 2 2 2 2 2 2 2 2
left_child=1 4 6 9 10 -4 11 -5 -7 -3 -1 -2 -6
right_child=2 3 5 7 12 8 -8 -9 -10 -11 -12 -13 -14
leaf_value=-0.012207310893011431 0.00096499438490101834 -0.004929123177887902 0.0073502738859461637 -0.001601047092705097 -0.0082399463016568242 0.0099551573552583393 0.0043600923915308306 -0.00017569769884563877 0.012092429258808586 -0.0033281815338593265 -0.010175419024999629 0.0021237779089382717 -0.0065951592995695876
leaf_weight=28 30 25 52 41 26 34 50 57 32 31 36 32 29
leaf_count=28 30 25 52 41 26 34 50 57 32 31 36 32 29
internal_value=3.58549e-06 -0.00524205 0.00623341 -0.00199135 -0.00943005 0.00943762 0.00283784 -0.000784247 0.0110399 -0.00407568 -0.0111152 0.00158406 -0.00741785
internal_weight=503 273 230 154 119 118 112 98 66 56 64 62 55
internal_count=503 273 230 154 119 118 112 98 66 56 64 62 55
is_linear=0
shrinkage=0.01


Tree=26
num_leaves=13
num_cat=0
split_feature=0 0 0 0 0 0 0 0 0 0 0 0
split_gain=161.276 36.3087 24.3763 3.74895 3.61687 3.53452 2.0263 0.460329 0.286965 0.237566 0.231937 0.169105
threshold=0.13985219814687114 -0.9207782791093827 0.94711921171555169 -0.50316640917877919 -1.2964531479466472 1.2494064651630634 0.56095937443388799 -0.25679251274303555 1.509757190101541 -0.71109880330495556 -1.5218573938651698 0.3460375165093898
decision_type=2 2 2 2 2 2 2 2 2 2 2 2
left_child=1 4 6 9 10 -4 11 -5 -7 -3 -1 -2
right_child=2 3 5 7 -6 8 -8 -9 -10 -11 -12 -13
leaf_value=-0.011982776805376396 0.00095540833468271398 -0.0048802231133930271 0.007277052571490349 -0.0015851143154415113 -0.0072766785155561628 0.009824545311640542 0.0043166651775637466 -0.00017394686190731385 0.011940161226743674 -0.0032951130106663095 -0.009941575801507993 0.0021026720060324817
leaf_weight=31 30 25 52 41 53 33 50 57 33 31 35 32
leaf_count=31 30 25 52 41 53 33 50 57 33 31 35 32
internal_value=3.44862e-06 -0.00519023 0.00617162 -0.00197176 -0.00933662 0.00934391 0.00280977 -0.000776542 0.0109303 -0.00403539 -0.0109487 0.00156848
internal_weight=503 273 230 154 119 118 112 98 66 56 66 62
internal_count=503 273 230 154 119 118 112 98 66 56 66 62
is_linear=0
shrinkage=0.01


Tree=27
num_leaves=15
num_cat=0
split_feature=0 0 0 0 0 0 0 0 0 0 0 0 0 0
split_gain=158.096 35.5884 23.8926 3.67471 3.54515 3.46342 1.98534 0.451062 0.279249 0.232433 0.176161 0.131445 0.131117 0.115281
threshold=0.13985219814687114 -0.9207782791093827 0.94711921171555169 -0.50316640917877919 -1.3086844004897058 1.2494064651630634 0.53999139629068738 -0.25679251274303555 1.5202410957116421 -0.73556142304570737 -1.5550564187185671 0.72870312376419266 0.3460375165093898 -1.1112368573590918
decision_type=2 2 2 2 2 2 2 2 2 2 2 2 2 2
left_child=1 4 6 9 10 -4 12 -5 -7 -3 -1 -8 -2 -6
right_child=2 3 5 7 13 8 11 -9 -10 -11 -12 -13 -14 -15
leaf_value=-0.012080123320458427 0.00094591754334454503 -0.0048974520019416162 0.0072045610599590897 -0.0015693401415081856 -0.0080839301429632051 0.0097578983976129886 0.0034634520852838769 -0.00017221348172125335 0.01185359603869989 -0.0033110458789819691 -0.010053588288779161 0.0048318838897873379 0.0020000601549671126 -0.0064573909403526624
leaf_weight=25 30 23 52 41 26 34 26 57 32 33 39 27 29 29
leaf_count=25 30 23 52 41 26 34 26 57 32 33 39 27 29 29
internal_value=3.36361e-06 -0.00513883 0.00611044 -0.00195237 -0.00924391 0.00925113 0.00278198 -0.000768915 0.0108218 -0.00399551 -0.0108959 0.00419492 0.00148595 -0.00727092
internal_weight=503 273 230 154 119 118 112 98 66 56 64 53 59 55
internal_count=503 273 230 154 119 118 112 98 66 56 64 53 59 55
is_linear=0
shrinkage=0.01


Tree=28
num_leaves=13
num_cat=0
split_feature=0 0 0 0 0 0 0 0 0 0 0 0
split_gain=154.984 34.8844 23.4172 3.60195 3.47333 3.39374 1.94657 0.441979 0.272094 0.227234 0.220542 0.161686
threshold=0.13985219814687114 -0.9207782791093827 0.94711921171555169 -0.50316640917877919 -1.2964531479466472 1.2494064651630634 0.56095937443388799 -0.25679251274303555 1.5324723172894208 -0.71109880330495556 -1.5410778833431888 0.3460375165093898
decision_type=2 2 2 2 2 2 2 2 2 2 2 2
left_child=1 4 6 9 10 -4 11 -5 -7 -3 -1 -2
right_child=2 3 5 7 -6 8 -8 -9 -10 -11 -12 -13
leaf_value=-0.011849337740147368 0.00093652098211428978 -0.0047844814142537504 0.0071327913812293852 -0.0015537229071832398 -0.0071325165145379255 0.0097196273448058902 0.0042318138990744174 -0.00017049736256419739 0.011802799346431201 -0.0032294749812437941 -0.0098261248753332957 0.0020605361406107127
leaf_weight=28 30 25 52 41 53 36 50 57 30 31 38 32
leaf_count=28 30 25 52 41 53 36 50 57 30 31 38 32
internal_value=3.26403e-06 -0.00508804 0.00604994 -0.00193317 -0.00915234 0.00915928 0.00275463 -0.000761363 0.0107144 -0.00395602 -0.0107328 0.0015375
internal_weight=503 273 230 154 119 118 112 98 66 56 66 62
internal_count=503 273 230 154 119 118 112 98 66 56 66 62
is_linear=0
shrinkage=0.01


Tree=29
num_leaves=15
num_cat=0
split_feature=0 0 0 0 0 0 0 0 0 0 0 0 0 0
split_gain=151.928 34.1924 22.9549 3.53062 3.40449 3.06342 2.12153 0.433078 0.26565 0.222346 0.182519 0.166248 0.116956 0.114203
threshold=0.13985219814687114 -0.9207782791093827 0.96284515786964919 -0.50316640917877919 -1.3086844004897058 1.2494064651630634 0.592411338337265 -0.25679251274303555 1.509757190101541 -0.73556142304570737 0.36875284228192018 -1.5550564187185671 0.76539704828580635 -1.1112368573590918
decision_type=2 2 2 2 2 2 2 2 2 2 2 2 2 2
left_child=1 4 6 9 11 -4 10 -5 -7 -3 -2 -1 -8 -6
right_child=2 3 5 7 13 8 12 -9 -10 -11 -12 -13 -14 -15
leaf_value=-0.01184272771789914 0.00099843633649816278 -0.0048014673796193362 0.0071305591934095547 -0.0015382611078834073 -0.0079308708751474628 0.0095332896745348537 0.0037312981979736432 -0.0001687983534574815 0.011588853389383797 -0.0032450979176055954 0.0021656025748773918 -0.0098542570672473118 0.0051216624930219834 -0.0063224225705617093
leaf_weight=25 34 23 49 41 26 33 30 57 33 33 30 39 21 29
leaf_count=25 34 23 49 41 26 33 30 57 33 33 30 39 21 29
internal_value=3.18113e-06 -0.00503767 0.00598997 -0.00191416 -0.00906147 0.00914999 0.00281087 -0.000753886 0.0106081 -0.00391693 0.00156616 -0.0106811 0.0043411 -0.00712688
internal_weight=503 273 230 154 119 115 115 98 66 56 64 64 51 55
internal_count=503 273 230 154 119 115 115 98 66 56 64 64 51 55
is_linear=0
shrinkage=0.01


Tree=30
num_leaves=13
num_cat=0
split_feature=0 0 0 0 0 0 0 0 0 0 0 0
split_gain=149.876 38.0851 19.0886 4.01408 3.57786 2.37397 1.60028 0.395856 0.355767 0.302234 0.186992 0.104262
threshold=-0.28300250977192126 0.8422795298595025 -1.0623117462584355 1.3018261332403176 0.39496283163139634 -0.71109880330495556 -1.4065343624264444 0.592411338337265 0.097916193092317499 -0.52238705913507755 1.0973892765099902 1.4887893743261393
decision_type=2 2 2 2 2 2 2 2 2 2 2 2
left_child=2 4 6 10 8 -4 -1 -6 -2 -7 -3 -5
right_child=1 3 5 11 7 9 -8 -9 -10 -11 -12 -13
leaf_value=-0.011042861520531641 -0.00032965614317738862 0.006132619575242311 -0.005406405572251324 0.0093821441921694525 0.0022445773560067881 -0.0032276893211594716 -0.0082620219640804887 0.0039202098754229468 0.00085879358627340369 -0.0017356270645301382 0.0077422483816538771 0.011338285984913946
leaf_weight=50 57 36 46 23 32 28 52 36 44 38 29 36
leaf_count=50 57 36 46 23 32 28 52 36 44 38 29 36
internal_value=-0.000160196 0.0044832 -0.00652067 0.0086891 0.00138469 -0.00364615 -0.00965391 0.00315523 0.000178877 -0.00239157 0.00688765 0.0106269
internal_weight=507 293 214 124 169 112 102 68 101 66 65 59
internal_count=507 293 214 124 169 112 102 68 101 66 65 59
is_linear=0
shrinkage=0.01


Tree=31
num_leaves=12
num_cat=0
split_feature=0 0 0 0 0 0 0 0 0 0 0
split_gain=146.919 37.3332 18.7082 3.93311 3.50738 2.32589 1.56667 0.387391 0.348752 0.295808 0.182089
threshold=-0.28300250977192126 0.8422795298595025 -1.0623117462584355 1.3018261332403176 0.39496283163139634 -0.71109880330495556 -1.4065343624264444 0.592411338337265 0.097916193092317499 -0.52238705913507755 1.1166098523053833
decision_type=2 2 2 2 2 2 2 2 2 2 2
left_child=2 4 6 10 8 -4 -1 -6 -2 -7 -3
right_child=1 3 5 -5 7 9 -8 -9 -10 -11 -12
leaf_value=-0.010932872998287003 -0.00032637111045533324 0.0061353993567885177 -0.0053525756499467978 0.010521487190916732 0.0022222709748315516 -0.0031956413620752651 -0.0081797181692159944 0.0038812243296296556 0.00085024450901406907 -0.0017183616663773021 0.0077524363630600557
leaf_weight=50 57 39 46 59 32 28 52 36 44 38 26
leaf_count=50 57 39 46 59 32 28 52 36 44 38 26
internal_value=-0.000158509 0.00443882 -0.00645592 0.00860301 0.00137098 -0.00361005 -0.00955784 0.00312401 0.000177 -0.00236795 0.00681935
internal_weight=507 293 214 124 169 112 102 68 101 66 65
internal_count=507 293 214 124 169 112 102 68 101 66 65
is_linear=0
shrinkage=0.01


Tree=32
num_leaves=13
num_cat=0
split_feature=0 0 0 0 0 0 0 0 0 0 0 0
split_gain=144.017 36.596 18.3353 4.04245 3.25337 2.28016 1.53525 0.367657 0.344323 0.312041 0.197638 0.149537
threshold=-0.28300250977192126 0.83004822859126226 -1.0623117462584355 1.2494064651630634 0.36875284228192018 -0.73556142304570737 -1.3908084830521095 0.592411338337265 -0.53636571261523935 0.097916193092317499 1.4887893743261393 1.0624427665146265
decision_type=2 2 2 2 2 2 2 2 2 2 2 2
left_child=2 4 6 11 9 -4 -1 -6 -7 -2 -5 -3
right_child=1 3 5 10 7 8 -8 -9 -10 -11 -12 -13
leaf_value=-0.010745392497768975 -0.00032311880918829439 0.0057960911515431528 -0.0053995580088209219 0.0091080083510347905 0.0021660968295314858 -0.0032837440889992124 -0.008017007308762248 0.0037795677937959367 -0.0017385902303961379 0.00080502811872281159 0.011120896056212113 0.0073094864458922871
leaf_weight=53 57 31 43 26 34 29 49 34 40 42 36 33
leaf_count=53 57 31 43 26 34 29 49 34 40 42 36 33
internal_value=-0.000156898 0.00439478 -0.00639183 0.00846053 0.00131478 -0.00357431 -0.00946274 0.00299621 -0.00241007 0.000146066 0.0103249 0.00661235
internal_weight=507 293 214 126 167 112 102 68 69 99 62 64
internal_count=507 293 214 126 167 112 102 68 69 99 62 64
is_linear=0
shrinkage=0.01


Tree=33
num_leaves=13
num_cat=0
split_feature=0 0 0 0 0 0 0 0 0 0 0 0
split_gain=141.174 35.8735 17.9698 3.77556 3.3706 2.23479 1.50368 0.370526 0.33499 0.251215 0.173897 0.101483
threshold=-0.28300250977192126 0.8422795298595025 -1.0623117462584355 1.3018261332403176 0.39496283163139634 -0.69712016187607018 -1.3768299207748673 0.592411338337265 0.097916193092317499 -0.50316640917877919 1.0973892765099902 1.4887893743261393
decision_type=2 2 2 2 2 2 2 2 2 2 2 2
left_child=2 4 6 10 8 -4 -1 -6 -2 -7 -3 -5
right_child=1 3 5 11 7 9 -8 -9 -10 -11 -12 -13
leaf_value=-0.010564374471898603 -0.00031989892379814675 0.0059500499967053448 -0.005185511305124433 0.0090945286586366844 0.0021786598759408323 -0.0030112959934424049 -0.0078517402069909221 0.0038039255767896032 0.00083315079534485319 -0.0016249016418375753 0.0075155821238478571 0.011010301481952983
leaf_weight=56 57 36 48 23 32 29 46 36 44 35 29 36
leaf_count=56 57 36 48 23 32 29 46 36 44 35 29 36
internal_value=-0.000155247 0.00435128 -0.00632837 0.00843328 0.00134387 -0.00353893 -0.00936857 0.00306239 0.000173192 -0.00227611 0.00668477 0.0103136
internal_weight=507 293 214 124 169 112 102 68 101 64 65 59
internal_count=507 293 214 124 169 112 102 68 101 64 65 59
is_linear=0
shrinkage=0.01


Tree=34
num_leaves=13
num_cat=0
split_feature=0 0 0 0 0 0 0 0 0 0 0 0
split_gain=138.39 35.6236 17.1791 3.8821 3.20443 2.1032 1.47609 0.351519 0.316175 0.301812 0.184996 0.142166
threshold=-0.30222317327900688 0.83004822859126226 -1.0623117462584355 1.2494064651630634 0.36875284228192018 -0.73556142304570737 -1.4065343624264444 0.592411338337265 0.097916193092317499 -0.53636571261523935 1.4887893743261393 1.0432221817484488
decision_type=2 2 2 2 2 2 2 2 2 2 2 2
left_child=2 4 6 11 8 -4 -1 -6 -2 -7 -5 -3
right_child=1 3 5 10 7 9 -8 -9 -10 -11 -12 -13
leaf_value=-0.010611731103691922 -0.00033967253292290915 0.0056309599153799555 -0.0052941973410822723 0.0089291807212902394 0.0021236902597354867 -0.0032175018852704197 -0.0079354687714485363 0.0037041763534322813 0.00078872396818128229 -0.0017404155253739882 0.010900806728647558 0.0071223834258588867
leaf_weight=50 59 29 43 26 34 29 52 34 42 38 36 35
leaf_count=50 59 29 43 26 34 29 52 34 42 38 36 35
internal_value=-0.000153609 0.00427227 -0.0063152 0.00829386 0.00126175 -0.0035494 -0.00927535 0.00293714 0.000120312 -0.00240231 0.0101214 0.00648181
internal_weight=507 295 212 126 169 110 102 68 101 67 62 64
internal_count=507 295 212 126 169 110 102 68 101 67 62 64
is_linear=0
shrinkage=0.01


Tree=35
num_leaves=12
num_cat=0
split_feature=0 0 0 0 0 0 0 0 0 0 0
split_gain=133.837 29.3554 19.9803 3.2417 2.95337 2.91521 1.79094 0.296849 0.262609 0.203228 0.193207
threshold=0.13985219814687114 -0.93650422762151997 0.94711921171555169 -0.48219842588928208 -1.2964531479466472 1.3018261332403176 0.56095937443388799 -0.22009851456933685 -0.73556142304570737 0.3460375165093898 -1.5550564187185671
decision_type=2 2 2 2 2 2 2 2 2 2 2
left_child=1 4 6 8 10 -4 9 -5 -3 -2 -1
right_child=2 3 5 7 -6 -7 -8 -9 -10 -11 -12
leaf_value=-0.011192524522951204 0.00080120072484213788 -0.0046271264774740244 0.0067095781685589072 -0.001312630751051044 -0.0066163523522792039 0.0099757325927787854 0.0040738083535836909 -0.00012982592960563154 -0.0030609901179193826 0.0020079557851634244 -0.0092624462342393975
leaf_weight=29 30 24 57 42 43 64 47 47 38 35 36
leaf_count=29 30 24 57 42 43 64 47 47 38 35 36
internal_value=0.000142247 -0.00480083 0.00564061 -0.00194066 -0.00877956 0.00845899 0.00257718 -0.000700906 -0.00369624 0.0014705 -0.0101706
internal_weight=492 259 233 151 108 121 112 89 62 65 65
internal_count=492 259 233 151 108 121 112 89 62 65 65
is_linear=0
shrinkage=0.01


Tree=36
num_leaves=11
num_cat=0
split_feature=0 0 0 0 0 0 0 0 0 0
split_gain=131.196 28.7733 19.582 3.17744 2.89453 2.85566 1.75469 0.31963 0.227187 0.198914
threshold=0.13985219814687114 -0.93650422762151997 0.94711921171555169 -0.50316640917877919 -1.3471254694966326 1.3018261332403176 0.56095937443388799 -0.22009851456933685 -0.73556142304570737 0.3460375165093898
decision_type=2 2 2 2 2 2 2 2 2 2
left_child=1 4 6 8 -1 -4 9 -5 -3 -2
right_child=2 3 5 7 -6 -7 -8 -9 -10 -11
leaf_value=-0.010180499773789075 0.0007932417938448736 -0.0045812376619370522 0.006642716960473494 -0.0013401551251362891 -0.0067050159154301986 0.0098762862351824549 0.0040332429224656796 -0.00012853317106758261 -0.0030766161008434403 0.001987990341572599
leaf_weight=61 30 24 57 44 47 64 47 47 36 35
leaf_count=61 30 24 57 44 47 64 47 47 36 35
internal_value=0.000140713 -0.00475333 0.00558458 -0.00192157 -0.00869245 0.00837476 0.00255171 -0.000726991 -0.0037083 0.00145603
internal_weight=492 259 233 151 108 121 112 91 60 65
internal_count=492 259 233 151 108 121 112 91 60 65
is_linear=0
shrinkage=0.01


Tree=37
num_leaves=12
num_cat=0
split_feature=0 0 0 0 0 0 0 0 0 0 0
split_gain=128.606 28.8244 18.5506 3.23987 2.83903 2.45906 1.93054 0.313096 0.250788 0.2213 0.191555
threshold=0.16431486689123243 -0.93650422762151997 0.9768237743318805 -0.48219842588928208 -1.2964531479466472 1.3420145260639809 0.61337931151411096 -0.20262518128828877 -0.73556142304570737 0.39496283163139634 -1.5742769006332396
decision_type=2 2 2 2 2 2 2 2 2 2 2
left_child=1 4 6 8 10 -4 9 -5 -3 -2 -1
right_child=2 3 5 7 -6 -7 -8 -9 -10 -11 -12
leaf_value=-0.01108474304657856 0.00094181567654911288 -0.0045358038736768988 0.0067932829780510727 -0.0012728409241471025 -0.0064837554455907257 0.0098793905082335109 0.004274447627239308 -8.0885409599461603e-05 -0.0030008445063810698 0.0021790560992837648 -0.0091490657414708808
leaf_weight=26 33 24 56 43 43 60 47 49 38 34 39
leaf_count=26 33 24 56 43 43 60 47 49 38 34 39
internal_value=0.000139254 -0.00464732 0.00559543 -0.0018571 -0.00860593 0.00841241 0.00271056 -0.000650394 -0.00362377 0.00158917 -0.0099703
internal_weight=492 262 230 154 108 116 114 92 62 67 65
internal_count=492 262 230 154 108 116 114 92 62 67 65
is_linear=0
shrinkage=0.01


Tree=38
num_leaves=13
num_cat=0
split_feature=0 0 0 0 0 0 0 0 0 0 0 0
split_gain=126.07 27.6405 18.8148 3.05324 2.78347 2.74176 1.68389 0.306616 0.233426 0.216746 0.190765 0.105314
threshold=0.13985219814687114 -0.93650422762151997 0.94711921171555169 -0.50316640917877919 -1.2632540262982879 1.3018261332403176 0.56095937443388799 -0.25679251274303555 -1.5410778833431888 -0.73556142304570737 0.3460375165093898 1.4695688730992009
decision_type=2 2 2 2 2 2 2 2 2 2 2 2
left_child=1 4 6 9 8 -4 10 -5 -1 -3 -2 -7
right_child=2 3 5 7 -6 11 -8 -9 -10 -11 -12 -13
leaf_value=-0.010779300117344588 0.00077702204147908865 -0.0044908207654953012 0.0065110285319648423 -0.0013698790522653664 -0.0063364176987444308 0.0086523828861561226 0.0039527377195782577 -0.00017456756979299825 -0.008857097195630723 -0.0030161773079995951 0.0019486655802889302 0.010401662268691299
leaf_weight=32 30 24 57 40 41 28 47 51 35 36 35 36
leaf_count=32 30 24 57 40 41 28 47 51 35 36 35 36
internal_value=0.000137754 -0.0046597 0.00547426 -0.00188406 -0.00852055 0.00820931 0.00250114 -0.000712796 -0.00981939 -0.00363561 0.00142729 0.00968127
internal_weight=492 259 233 151 108 121 112 91 67 60 65 64
internal_count=492 259 233 151 108 121 112 91 67 60 65 64
is_linear=0
shrinkage=0.01


Tree=39
num_leaves=12
num_cat=0
split_feature=0 0 0 0 0 0 0 0 0 0 0
split_gain=123.587 27.6942 17.8254 2.94765 2.91973 2.35942 1.85438 0.306684 0.273653 0.229908 0.211916
threshold=0.16431486689123243 -0.9207782791093827 0.9768237743318805 -0.47520909772100423 -1.2527700906807728 1.3420145260639809 0.61337931151411096 -1.4991422635340343 -0.19388851445047897 -0.68663618008806349 0.39496283163139634
decision_type=2 2 2 2 2 2 2 2 2 2 2
left_child=1 4 6 9 7 -4 10 -1 -5 -3 -2
right_child=2 3 5 8 -6 -7 -8 -9 -10 -11 -12
leaf_value=-0.010508821559826116 0.00092261341860495406 -0.0041704538819805678 0.0066591892420609228 -0.0011815877617509277 -0.0060921642970089883 0.0096842276238127793 0.0041898143986019033 -0.0085296187045411295 -5.4836035646908617e-05 -0.0027320489870465321 0.0021350903016084818
leaf_weight=38 33 30 56 43 40 60 47 32 47 32 34
leaf_count=38 33 30 56 43 40 60 47 32 47 32 34
internal_value=0.000136324 -0.00455587 0.005485 -0.00177761 -0.00837564 0.00824645 0.00265683 -0.00964517 -0.000605686 -0.0034553 0.0015573
internal_weight=492 262 230 152 110 116 114 70 90 62 67
internal_count=492 262 230 152 110 116 114 70 90 62 67
is_linear=0
shrinkage=0.01


Tree=40
num_leaves=15
num_cat=0
split_feature=0 0 0 0 0 0 0 0 0 0 0 0 0 0
split_gain=129.832 28.2526 21.2683 3.28946 2.36433 2.29739 2.02216 0.28566 0.245793 0.193994 0.177511 0.164655 0.153788 0.13367
threshold=-0.1344791770234601 0.89644670903928947 -0.98368206205381825 1.2494064651630634 0.46310879333849525 -1.3611040361200641 -0.55733369092983698 0.23945020119076491 1.541208902912373 -1.1671512436379381 0.67977787870701289 -0.78273932237492849 -0.34066449750272854 1.1166098523053833
decision_type=2 2 2 2 2 2 2 2 2 2 2 2 2 2
left_child=2 4 5 13 7 -1 11 -2 -5 -7 -6 -4 -8 -3
right_child=1 3 6 8 10 9 12 -9 -10 -11 -12 -13 -14 -15
leaf_value=-0.0099085665588936039 0.00015549449809573986 0.005608236842754623 -0.0046535458261596748 0.0086545971554903237 0.0025863948612479689 -0.007759043709606144 -0.001794743325847846 0.0013204025777663975 0.010543758454701757 -0.006047964064490716 0.003933501389190441 -0.0032539586992988805 -0.0007532182601357691 0.0070777545994474694
leaf_weight=58 56 38 23 40 32 28 31 36 30 30 26 34 36 26
leaf_count=58 56 38 23 40 32 28 31 36 30 30 26 34 36 26
internal_value=5.38781e-05 0.00463014 -0.00535655 0.00796578 0.001637 -0.00843487 -0.00245982 0.00062405 0.00950622 -0.00691501 0.00321889 -0.00385048 -0.00125391 0.00624099
internal_weight=524 284 240 134 150 116 124 92 70 58 58 57 67 64
internal_count=524 284 240 134 150 116 124 92 70 58 58 57 67 64
is_linear=0
shrinkage=0.01


Tree=41
num_leaves=14
num_cat=0
split_feature=0 0 0 0 0 0 0 0 0 0 0 0 0
split_gain=127.28 29.5574 19.0318 3.45609 2.3567 2.0625 1.82735 0.23916 0.238807 0.219652 0.215466 0.184622 0.173456
threshold=-0.17466784697532856 0.86499480079244695 -0.994166022904312 1.2494064651630634 0.41068882423156994 -1.3768299207748673 -0.55733369092983698 1.541208902912373 0.6308526209598001 -0.78273932237492849 0.17305153412171664 -1.1671512436379381 1.0973892765099902
decision_type=2 2 2 2 2 2 2 2 2 2 2 2 2
left_child=2 4 5 12 10 -1 9 -5 -6 -4 -2 -7 -3
right_child=1 3 6 7 8 11 -8 -9 -10 -11 -12 -13 -14
leaf_value=-0.0098887460430463151 0 0.0054333790731055567 -0.0047071523771031213 0.0085684817881133413 0.0021906001183641965 -0.0077469655794975079 -0.0013651086877762659 0.010439018626876224 0.0035746475535890325 -0.0032216093937555944 0.0010022450232116335 -0.0060440690727794864 0.0069281274815128271
leaf_weight=55 56 38 26 40 33 31 58 30 32 34 35 27 29
leaf_count=55 56 38 26 40 33 31 58 30 32 34 35 27 29
internal_value=5.3361e-05 0.00443005 -0.00549273 0.00781755 0.00144253 -0.00842723 -0.0026646 0.00941184 0.00289619 -0.00389546 0.000389157 -0.00699491 0.00611393
internal_weight=524 293 231 137 156 113 118 70 65 60 91 58 67
internal_count=524 293 231 137 156 113 118 70 65 60 91 58 67
is_linear=0
shrinkage=0.01


Tree=42
num_leaves=16
num_cat=0
split_feature=0 0 0 0 0 0 0 0 0 0 0 0 0 0 0
split_gain=124.781 25.9351 21.6271 3.15674 2.40532 2.09833 1.94762 0.234814 0.18734 0.185239 0.174078 0.169812 0.15212 0.131236 0.103654
threshold=-0.090795838182649843 0.89644670903928947 -0.96970344624259608 1.3018261332403176 -1.3471254694966326 0.46310879333849525 -0.55733369092983698 0.25168153373730001 -0.32843316749375157 1.1166098523053833 1.5604293876860045 0.67977787870701289 -1.5812661656127462 -1.1479306766747206 -0.76351869851009402
decision_type=2 2 2 2 2 2 2 2 2 2 2 2 2 2 2
left_child=2 5 4 9 12 7 14 -2 -8 -3 -5 -7 -1 -6 -4
right_child=1 3 6 10 13 11 8 -9 -10 -11 -12 -13 -14 -15 -16
leaf_value=-0.010685443888025836 0.00023824824470062948 0.0054972248926212644 -0.0043954985474680998 0.0085885938241773707 -0.007313246201066409 0.0025350531556221269 -0.0017137614829324142 0.0013420959220952298 -0.00063417995082480551 0.0070224248873044359 0.010397879143133231 0.0038568646602958217 -0.008820877300566108 -0.0057300596457001167 -0.0031491522537255142
leaf_weight=24 53 38 22 39 27 32 34 33 39 29 28 26 40 28 32
leaf_count=24 53 38 22 39 27 32 34 33 39 29 28 26 40 28 32
internal_value=5.28511e-05 0.00464361 -0.00513058 0.00780881 -0.00819375 0.00168454 -0.00224413 0.00067555 -0.00115397 0.0061912 0.00938829 0.00315599 -0.00956678 -0.00654906 -0.00368972
internal_weight=524 278 246 134 119 144 127 86 73 67 67 58 64 55 54
internal_count=524 278 246 134 119 144 127 86 73 67 67 58 64 55 54
is_linear=0
shrinkage=0.01


Tree=43
num_leaves=16
num_cat=0
split_feature=0 0 0 0 0 0 0 0 0 0 0 0 0 0 0
split_gain=122.328 25.816 20.808 3.09384 2.35598 2.11295 1.84645 0.242493 0.226607 0.171022 0.165852 0.147411 0.127363 0.122494 0.100916
threshold=-0.10477450679706535 0.89644670903928947 -0.96970344624259608 1.2494064651630634 -1.3471254694966326 0.46310879333849525 -0.55733369092983698 0.23945020119076491 1.541208902912373 -0.34066449750272854 0.67977787870701289 -1.5812661656127462 -1.1479306766747206 1.1166098523053833 -0.76351869851009402
decision_type=2 2 2 2 2 2 2 2 2 2 2 2 2 2 2
left_child=2 5 4 13 11 7 14 -2 -5 -8 -7 -1 -6 -3 -4
right_child=1 3 6 8 12 10 9 -9 -10 -11 -12 -13 -14 -15 -16
leaf_value=-0.010579472469889429 0.00018692198372936641 0.0054425403928257399 -0.004351939486490714 0.0083989333809904795 -0.0072406514251933379 0.0025098600354253875 -0.0017463195715577177 0.0012815896405205544 0.010233228261897105 -0.00068763581035074888 0.0038185904931476102 -0.0087331073556966444 -0.0056731654058956938 0.0068690766678511641 -0.003117856335195695
leaf_weight=24 52 38 22 40 27 32 31 36 30 40 26 40 28 26 32
leaf_count=24 52 38 22 40 27 32 31 36 30 40 26 40 28 26 32
internal_value=5.22923e-05 0.00456307 -0.00511941 0.00773141 -0.00811261 0.00164169 -0.00225348 0.000647969 0.00922622 -0.00116753 0.00312482 -0.00947187 -0.00648422 0.00605724 -0.00365328
internal_weight=524 280 244 134 119 146 125 88 70 71 58 64 55 64 54
internal_count=524 280 244 134 119 146 125 88 70 71 58 64 55 64 54
is_linear=0
shrinkage=0.01


Tree=44
num_leaves=15
num_cat=0
split_feature=0 0 0 0 0 0 0 0 0 0 0 0 0 0
split_gain=119.928 28.0325 17.7358 3.2501 2.24899 1.82518 1.78828 0.223693 0.221055 0.216097 0.208692 0.160182 0.13441 0.10387
threshold=-0.19388851445047897 0.86499480079244695 -1.0098919625010903 1.2494064651630634 0.41068882423156994 -1.3768299207748673 -0.58529099304956744 0.6308526209598001 1.509757190101541 -0.78273932237492849 0.16431486689123243 1.0973892765099902 -1.1671512436379381 -0.36512715632299314
decision_type=2 2 2 2 2 2 2 2 2 2 2 2 2 2
left_child=2 4 5 11 10 -1 9 -6 -5 -4 -2 -3 -7 -8
right_child=1 3 6 8 7 12 13 -9 -10 -11 -12 -13 -14 -15
leaf_value=-0.0095991784290990964 -1.3924218375462183e-05 0.0052730684177413655 -0.004626928743318463 0.0081691381596682364 0.0021259737194302569 -0.0075167323610721495 -0.0018451206773927771 0.0034701976698377859 0.0099686888271932426 -0.0031609309830280563 0.00093438660482149469 0.0067243896812608792 -0.005901620511024718 -0.0008913535037577547
leaf_weight=55 54 38 28 34 33 31 29 32 36 32 38 29 25 30
leaf_count=55 54 38 28 34 33 31 29 32 36 32 38 29 25 30
internal_value=5.17373e-05 0.00428381 -0.00535263 0.00758771 0.00138843 -0.00822947 -0.00265149 0.0028117 0.00913463 -0.00387477 0.000368101 0.00593428 -0.00683706 -0.0013817
internal_weight=524 294 230 137 157 111 119 65 70 60 92 67 56 59
internal_count=524 294 230 137 157 111 119 65 70 60 92 67 56 59
is_linear=0
shrinkage=0.01


Tree=45
num_leaves=12
num_cat=0
split_feature=0 0 0 0 0 0 0 0 0 0 0
split_gain=112.03 29.3998 13.5468 3.50156 2.6452 2.02972 0.87279 0.391129 0.297751 0.255827 0.199067
threshold=-0.30921250524116234 0.80209096469379293 -1.1112368573590918 1.1742715599366103 0.3460375165093898 -0.73556142304570737 -1.4519646661916881 1.4625795986145458 0.56095937443388799 0.050738185790550415 -0.55733369092983698
decision_type=2 2 2 2 2 2 2 2 2 2 2
left_child=2 4 6 -3 9 -4 -1 -5 -6 -2 -7
right_child=1 3 5 7 8 10 -8 -9 -10 -11 -12
leaf_value=-0.0098084891753064257 -0.00036179927682282779 0.0052702145681793522 -0.0049351582107068862 0.007831509499638168 0.0017818415362432778 -0.0029729952630313007 -0.007530862400686838 0.0097693472647527486 0.0032179242965354716 0.00062808526622180904 -0.0017084316495825484
leaf_weight=43 61 53 54 43 33 27 49 34 37 45 38
leaf_count=43 61 53 54 43 33 27 49 34 37 45 38
internal_value=-0.000133292 0.00372933 -0.00573797 0.0073334 0.00105625 -0.00348669 -0.00862522 0.00872322 0.00256216 4.941e-05 -0.00225656
internal_weight=517 306 211 130 176 119 92 77 70 106 65
internal_count=517 306 211 130 176 119 92 77 70 106 65
is_linear=0
shrinkage=0.01


Tree=46
num_leaves=12
num_cat=0
split_feature=0 0 0 0 0 0 0 0 0 0 0
split_gain=109.818 28.8176 13.2768 3.43124 2.59314 1.98845 0.853846 0.381746 0.291347 0.250766 0.194706
threshold=-0.30921250524116234 0.80209096469379293 -1.1112368573590918 1.1742715599366103 0.3460375165093898 -0.73556142304570737 -1.4519646661916881 1.4625795986145458 0.56095937443388799 0.050738185790550415 -0.55733369092983698
decision_type=2 2 2 2 2 2 2 2 2 2 2
left_child=2 4 6 -3 9 -4 -1 -5 -6 -2 -7
right_child=1 3 5 7 8 10 -8 -9 -10 -11 -12
leaf_value=-0.0097108580779146254 -0.00035819310450213473 0.0052177105675962629 -0.0048859887666367957 0.0077535569860979359 0.0017641304424369192 -0.0029434839022510198 -0.0074558598530001753 0.0096722248423169229 0.0031859181084299597 0.00062183221192222782 -0.0016914367933235867
leaf_weight=43 61 53 54 43 33 27 49 34 37 45 38
leaf_count=43 61 53 54 43 33 27 49 34 37 45 38
internal_value=-0.000131935 0.00369235 -0.00568103 0.00726057 0.0010458 -0.00345215 -0.00853945 0.00863658 0.00253683 4.88267e-05 -0.00223429
internal_weight=517 306 211 130 176 119 92 77 70 106 65
internal_count=517 306 211 130 176 119 92 77 70 106 65
is_linear=0
shrinkage=0.01


Tree=47
num_leaves=12
num_cat=0
split_feature=0 0 0 0 0 0 0 0 0 0 0
split_gain=107.652 27.8993 13.3273 3.1116 2.6875 1.82431 1.01372 0.372565 0.299878 0.257315 0.211598
threshold=-0.30222317327900688 0.83004822859126226 -1.1025002321588107 1.1742715599366103 0.39496283163139634 -0.73556142304570737 -1.4397334330516531 1.4625795986145458 0.097916193092317499 0.61337931151411096 -0.53636571261523935
decision_type=2 2 2 2 2 2 2 2 2 2 2
left_child=2 4 6 -3 8 -4 -1 -5 -2 -6 -7
right_child=1 3 5 7 9 10 -8 -9 -10 -11 -12
leaf_value=-0.0095140316905611647 -0.00030944406922881927 0.0052264394560658121 -0.0047544984691646466 0.0076763803815400157 0.0019382774950184437 -0.0028284142586665279 -0.0071738290156775361 0.0095760684334046647 0.00073645528266786037 0.0033287889307195492 -0.0015726327468018506
leaf_weight=47 62 50 50 43 32 31 49 34 48 35 36
leaf_count=47 62 50 50 43 32 31 49 34 48 35 36
internal_value=-0.000130592 0.00368614 -0.00558099 0.00726013 0.00111081 -0.00329225 -0.00834735 0.00855079 0.000138382 0.00268729 -0.00217524
internal_weight=517 304 213 127 177 117 96 77 110 67 67
internal_count=517 304 213 127 177 117 96 77 110 67 67
is_linear=0
shrinkage=0.01


Tree=48
num_leaves=12
num_cat=0
split_feature=0 0 0 0 0 0 0 0 0 0 0
split_gain=105.528 27.6899 12.7603 3.29378 2.49297 1.95623 0.775656 0.364236 0.278983 0.241032 0.186697
threshold=-0.30921250524116234 0.80209096469379293 -1.1217208071100175 1.1742715599366103 0.3460375165093898 -0.73556142304570737 -1.4519646661916881 1.4695688730992009 0.53999139629068738 0.040254184014871505 -0.55733369092983698
decision_type=2 2 2 2 2 2 2 2 2 2 2
left_child=2 4 6 -3 9 -4 -1 -5 -6 -2 -7
right_child=1 3 5 7 8 10 -8 -9 -10 -11 -12
leaf_value=-0.0095194992699004985 -0.00037545883407395434 0.0051147318020799103 -0.0048076137079708812 0.0076422999179468747 0.0016859763497725515 -0.0028861893209464412 -0.0073382536702136271 0.0095382768248919361 0.0030865361746780723 0.00057862596230820993 -0.0016576520224828371
leaf_weight=43 58 53 55 45 31 27 48 32 39 48 38
leaf_count=43 58 53 55 45 31 27 48 32 39 48 38
internal_value=-0.000129258 0.00361953 -0.00556891 0.00711727 0.00102516 -0.00340438 -0.00839853 0.00846586 0.0024871 4.74394e-05 -0.00219059
internal_weight=517 306 211 130 176 120 91 77 70 106 65
internal_count=517 306 211 130 176 120 91 77 70 106 65
is_linear=0
shrinkage=0.01


Tree=49
num_leaves=12
num_cat=0
split_feature=0 0 0 0 0 0 0 0 0 0 0
split_gain=103.446 26.8085 12.8075 2.98638 2.5826 1.59751 1.11218 0.355472 0.288355 0.246723 0.202895
threshold=-0.30222317327900688 0.83004822859126226 -1.0850269793367946 1.1742715599366103 0.39496283163139634 -0.73556142304570737 -1.4065343624264444 1.4625795986145458 0.097916193092317499 0.6308526209598001 -0.53636571261523935
decision_type=2 2 2 2 2 2 2 2 2 2 2
left_child=2 4 6 -3 8 -4 -1 -5 -2 -6 -7
right_child=1 3 5 7 9 10 -8 -9 -10 -11 -12
leaf_value=-0.0092110308011372887 -0.00030353740413173122 0.0051234397505858977 -0.0045946447008242035 0.0075239027181157351 0.0019598852953111585 -0.0027732096259028487 -0.0068301591504428341 0.009387151320078219 0.00072198058760636081 0.0033240350395996377 -0.0015412167933105765
leaf_weight=52 62 50 47 43 35 31 47 34 48 32 36
leaf_count=52 62 50 47 43 35 31 47 34 48 32 36
internal_value=-0.000127942 0.00361345 -0.00547084 0.0071169 0.00108883 -0.00316273 -0.00810685 0.00838178 0.000135385 0.00263425 -0.00213268
internal_weight=517 304 213 127 177 114 99 77 110 67 67
internal_count=517 304 213 127 177 114 99 77 110 67 67
is_linear=0
shrinkage=0.01


Tree=50
num_leaves=12
num_cat=0
split_feature=0 0 0 0 0 0 0 0 0 0 0
split_gain=99.0817 24.049 12.3689 3.01611 2.49231 1.60391 1.24832 0.253285 0.236367 0.222771 0.137232
threshold=0.23945020119076491 -0.86486378076525805 1.004781002939853 -1.2527700906807728 -0.40182114110681028 1.3420145260639809 0.65531525150163961 -1.5218573938651698 -0.11525850815158785 -0.62547960789775059 0.46310879333849525
decision_type=2 2 2 2 2 2 2 2 2 2 2
left_child=1 3 6 7 9 -4 10 -1 -6 -3 -2
right_child=2 4 5 -5 8 -7 -8 -9 -10 -11 -12
leaf_value=-0.0095565587163760953 0.0011802579022674674 -0.0033932475610212844 0.0060708574715413544 -0.0053433443150159819 -0.0007735612695978489 0.0086599623972607627 0.0038932914704811277 -0.0077060585765428439 0.00018026703665314974 -0.0020826509630823709 0.0022565112923476718
leaf_weight=30 33 35 53 58 51 58 49 37 50 33 28
leaf_count=30 33 35 53 58 51 58 49 37 50 33 28
internal_value=2.90144e-05 -0.0037709 0.00508747 -0.0070947 -0.00130108 0.00744586 0.00268937 -0.0085755 -0.000292065 -0.00277986 0.00169638
internal_weight=515 294 221 125 169 111 110 67 101 68 61
internal_count=515 294 221 125 169 111 110 67 101 68 61
is_linear=0
shrinkage=0.01


Tree=51
num_leaves=12
num_cat=0
split_feature=0 0 0 0 0 0 0 0 0 0 0
split_gain=97.128 23.1081 12.5761 2.95562 2.35697 1.57061 1.31196 0.246653 0.217812 0.213835 0.15772
threshold=0.21848220186511888 -0.86486378076525805 1.004781002939853 -1.2527700906807728 -0.40182114110681028 1.3420145260639809 0.65531525150163961 -1.5218573938651698 -0.62547960789775059 -0.15719451246401153 0.46310879333849525
decision_type=2 2 2 2 2 2 2 2 2 2 2
left_child=1 3 6 7 8 -4 10 -1 -3 -6 -2
right_child=2 4 5 -5 9 -7 -8 -9 -10 -11 -12
leaf_value=-0.0094616262802225074 0.0011239061609569175 -0.0033595079369843008 0.0060103770418274659 -0.0052900945187843952 -0.00085672412756212515 0.0085736604019538629 0.0038545168621268696 -0.0076294121787112232 -0.0020619499378175623 7.1368005463946283e-05 0.0022341062234225851
leaf_weight=30 36 35 53 58 42 58 49 37 33 56 28
leaf_count=30 36 35 53 58 42 58 49 37 33 56 28
internal_value=2.86791e-05 -0.00377848 0.004978 -0.00702427 -0.00132283 0.00737175 0.00260892 -0.00849041 -0.00275237 -0.000317137 0.00163064
internal_weight=515 291 224 125 166 111 113 67 68 98 64
internal_count=515 291 224 125 166 111 113 67 68 98 64
is_linear=0
shrinkage=0.01


Tree=52
num_leaves=13
num_cat=0
split_feature=0 0 0 0 0 0 0 0 0 0 0 0
split_gain=95.211 23.1059 11.8792 3.36823 1.98143 1.53842 1.19784 0.240284 0.216511 0.159907 0.15754 0.108337
threshold=0.23945020119076491 -0.83166453703133836 1.004781002939853 -1.2527700906807728 -0.36512715632299314 1.3542457727000448 0.67977787870701289 -1.5550564187185671 -0.55733369092983698 -0.090795838182649843 0.46310879333849525 -1.0098919625010903
decision_type=2 2 2 2 2 2 2 2 2 2 2 2
left_child=1 3 6 7 8 -4 10 -1 -3 -6 -2 -5
right_child=2 4 5 11 9 -7 -8 -9 -10 -11 -12 -13
leaf_value=-0.0094632435896817371 0.0011573550643691098 -0.002955395200507558 0.0059739578518040503 -0.0056472447432207133 -0.00062283618795990414 0.0085103560098401306 0.003884254936532024 -0.0076242202016251594 -0.0016760093790211092 0.00019514435474013065 0.0022652944100972935 -0.0043737650509566477
leaf_weight=27 33 40 54 36 45 57 46 40 29 48 31 29
leaf_count=27 33 40 54 36 45 57 46 40 29 48 31 29
internal_value=2.83466e-05 -0.00369657 0.00498705 -0.00680059 -0.00115593 0.00729839 0.00263661 -0.00840616 -0.00243853 -0.00019041 0.00171497 -0.00510957
internal_weight=515 294 221 132 162 111 110 67 69 93 64 65
internal_count=515 294 221 132 162 111 110 67 69 93 64 65
is_linear=0
shrinkage=0.01


Tree=53
num_leaves=12
num_cat=0
split_feature=0 0 0 0 0 0 0 0 0 0 0
split_gain=93.3349 22.2054 12.0785 2.83679 2.2652 1.50663 1.25961 0.234771 0.209012 0.205835 0.131869
threshold=0.21848220186511888 -0.86486378076525805 1.004781002939853 -1.2527700906807728 -0.40182114110681028 1.3420145260639809 0.64483126717202743 -1.5218573938651698 -0.62547960789775059 -0.15719451246401153 0.46310879333849525
decision_type=2 2 2 2 2 2 2 2 2 2 2
left_child=1 3 6 7 8 -4 10 -1 -3 -6 -2
right_child=2 4 5 -5 9 -7 -8 -9 -10 -11 -12
leaf_value=-0.0092754573893073372 0.0011020170158361862 -0.0032938970574601131 0.0058909842327125083 -0.0051859107767183756 -0.00084000209478829132 0.008403843225482403 0.0037351908907294271 -0.0074776961021525883 -0.0020201712469738653 7.0313396370634966e-05 0.002152633209719913
leaf_weight=30 36 35 53 58 42 58 51 37 33 56 26
leaf_count=30 36 35 53 58 42 58 51 37 33 56 26
internal_value=2.7984e-05 -0.00370405 0.00487974 -0.00688586 -0.0012967 0.00722576 0.00255772 -0.00832275 -0.00269817 -0.000310555 0.00156418
internal_weight=515 291 224 125 166 111 113 67 68 98 62
internal_count=515 291 224 125 166 111 113 67 68 98 62
is_linear=0
shrinkage=0.01


Tree=54
num_leaves=13
num_cat=0
split_feature=0 0 0 0 0 0 0 0 0 0 0 0
split_gain=91.4932 22.2056 11.4098 3.23262 1.90463 1.31512 1.3058 0.22877 0.207373 0.153915 0.15 0.105466
threshold=0.23945020119076491 -0.83166453703133836 1.0187596148510187 -1.2527700906807728 -0.36512715632299314 0.67977787870701289 1.3682243382424164 -1.5550564187185671 -0.58529099304956744 -0.090795838182649843 0.46310879333849525 -0.994166022904312
decision_type=2 2 2 2 2 2 2 2 2 2 2 2
left_child=1 3 5 7 8 10 -4 -1 -3 -6 -2 -5
right_child=2 4 6 11 9 -7 -8 -9 -10 -11 -12 -13
leaf_value=-0.0092772344324518648 0.0011348974368119813 -0.0029455080291917249 0.0059775785399579454 -0.0054893767255909578 -0.00061048790804250571 0.0038960296544895703 0.0083848719082880701 -0.0074726107761041438 -0.0017033886122777594 0.00019185865287527952 0.0022188621673446436 -0.0042145355603167125
leaf_weight=27 33 37 52 39 45 50 55 40 32 48 31 26
leaf_count=27 33 37 52 39 45 50 55 40 32 48 31 26
internal_value=2.76586e-05 -0.00362377 0.00488862 -0.00666675 -0.00113297 0.00266627 0.00723764 -0.00824017 -0.00239049 -0.000186121 0.0016808 -0.00500927
internal_weight=515 294 221 132 162 114 107 67 69 93 64 65
internal_count=515 294 221 132 162 114 107 67 69 93 64 65
is_linear=0
shrinkage=0.01


Tree=55
num_leaves=11
num_cat=0
split_feature=0 0 0 0 0 0 0 0 0 0
split_gain=91.7257 24.2972 11.0436 2.62773 2.4502 1.26769 0.961806 0.297891 0.26143 0.14604
threshold=-0.30222317327900688 0.86499480079244695 -1.0850269793367946 0.40369949429194213 1.2494064651630634 -0.67265753656930027 -1.4292495174836148 0.65531525150163961 0.12412619644271994 1.5779025523292562
decision_type=2 2 2 2 2 2 2 2 2 2
left_child=2 3 6 8 -3 -4 -1 -5 -2 -6
right_child=1 4 5 7 9 -7 -8 -9 -10 -11
leaf_value=-0.0087574107691460127 -0.00020836081713717985 0.005350681672391203 -0.0040352819266175864 0.001937195162992088 0.0076706111624285029 -0.0017773397797825694 -0.0064970152679815329 0.0033375962874428789 0.00079689581272671518 0.0094204684742936143
leaf_weight=48 67 58 53 39 43 52 48 35 41 22
leaf_count=48 67 58 53 39 43 52 48 35 41 22
internal_value=4.2372e-05 0.00349989 -0.0051974 0.00117043 0.00693112 -0.00293207 -0.00765347 0.00262024 0.00016479 0.00830529
internal_weight=506 305 201 182 123 105 96 74 108 65
internal_count=506 305 201 182 123 105 96 74 108 65
is_linear=0
shrinkage=0.01


Tree=56
num_leaves=12
num_cat=0
split_feature=0 0 0 0 0 0 0 0 0 0 0
split_gain=89.9192 23.0921 11.5338 2.55886 2.27186 1.41678 0.941236 0.335629 0.198934 0.141712 0.133402
threshold=-0.27077117800067546 0.89644670903928947 -1.0850269793367946 0.43864614235777727 1.2494064651630634 -0.62547960789775059 -1.4292495174836148 0.20799820190951615 0.67977787870701289 1.5779025523292562 -0.80894926095866582
decision_type=2 2 2 2 2 2 2 2 2 2 2
left_child=2 3 6 7 -3 10 -1 -2 -5 -6 -4
right_child=1 4 5 8 9 -7 -8 -9 -10 -11 -12
leaf_value=-0.0086702000847495939 -0.00010197600256920808 0.0053420390034909773 -0.0043298538193028632 0.0021276450518125331 0.0075942600959980925 -0.0015674085241396307 -0.0064323146486678067 0.0010030426459209951 0.0034048152579898724 0.0093271125651694636 -0.0029792119636394012
leaf_weight=48 69 56 38 32 43 52 48 44 34 22 20
leaf_count=48 69 56 38 32 43 52 48 44 34 22 20
internal_value=4.19769e-05 0.00353627 -0.00504045 0.00124572 0.00690888 -0.00280762 -0.00757735 0.000320475 0.00280899 0.00822291 -0.00389314
internal_weight=506 300 206 179 121 110 96 113 66 65 58
internal_count=506 300 206 179 121 110 96 113 66 65 58
is_linear=0
shrinkage=0.01


Tree=57
num_leaves=12
num_cat=0
split_feature=0 0 0 0 0 0 0 0 0 0 0
split_gain=88.1473 23.3447 10.6089 2.52636 2.35226 1.29466 0.84392 0.320816 0.219967 0.139227 0.137483
threshold=-0.30222317327900688 0.86499480079244695 -1.1025002321588107 0.39496283163139634 1.2494064651630634 -0.71109880330495556 -1.4397334330516531 0.64483126717202743 0.097916193092317499 -0.50316640917877919 1.5779025523292562
decision_type=2 2 2 2 2 2 2 2 2 2 2
left_child=2 3 6 8 -3 -4 -1 -5 -2 -7 -6
right_child=1 4 5 7 10 9 -8 -9 -10 -11 -12
leaf_value=-0.0086548390035080698 -0.00024915292196347089 0.0052447876252259586 -0.0041087265912280136 0.001824815588359216 0.0075186691543570267 -0.0023953222245612043 -0.0064858162960385879 0.0032339907365460546 0.00067113200109873412 -0.0012670657156060819 0.0092346817630905281
leaf_weight=45 61 58 50 40 43 28 49 37 44 29 22
leaf_count=45 61 58 50 40 43 28 49 37 44 29 22
internal_value=4.1556e-05 0.003431 -0.00509496 0.00114752 0.00679434 -0.00291795 -0.00755096 0.00252153 0.000127527 -0.00184522 0.00814136
internal_weight=506 305 201 182 123 107 94 77 105 57 65
internal_count=506 305 201 182 123 107 94 77 105 57 65
is_linear=0
shrinkage=0.01


Tree=58
num_leaves=12
num_cat=0
split_feature=0 0 0 0 0 0 0 0 0 0 0
split_gain=86.4109 22.1907 11.079 2.64806 2.00607 1.32259 0.942092 0.34653 0.199492 0.119139 0.118372
threshold=-0.27077117800067546 0.92440395455064006 -1.0623117462584355 0.46310879333849525 1.3682243382424164 -0.62547960789775059 -1.4292495174836148 0.20799820190951615 0.71472448374016306 -0.80894926095866582 1.1393250741350731
decision_type=2 2 2 2 2 2 2 2 2 2 2
left_child=2 3 6 7 10 9 -1 -2 -5 -4 -3
right_child=1 4 5 8 -6 -7 -8 -9 -10 -11 -12
leaf_value=-0.0084990188096074146 -0.00010020371744506105 0.0048534096286378114 -0.0042235111180813079 0.0022152809324589642 0.0082201789171015682 -0.001536256848795204 -0.0062797469869861761 0.0010075743518995516 0.0034876788699108618 -0.0029175164941513893 0.0062512022729903942
leaf_weight=48 69 35 37 35 58 52 49 46 32 20 25
leaf_count=48 69 35 37 35 58 52 49 46 32 20 25
internal_value=4.11387e-05 0.00346663 -0.00494111 0.00126727 0.00684251 -0.00273115 -0.00740346 0.000335207 0.00284645 -0.00379455 0.00547127
internal_weight=506 300 206 182 118 109 97 115 67 57 60
internal_count=506 300 206 182 118 109 97 115 67 57 60
is_linear=0
shrinkage=0.01


Tree=59
num_leaves=13
num_cat=0
split_feature=0 0 0 0 0 0 0 0 0 0 0 0
split_gain=84.7152 22.8522 9.80487 2.62855 2.17491 1.33555 0.641126 0.278799 0.183369 0.180177 0.15366 0.105252
threshold=-0.30921250524116234 0.83004822859126226 -1.1217208071100175 1.2354278823229865 0.3460375165093898 -0.76351869851009402 -1.4991422635340343 0.53999139629068738 1.5604293876860045 0.097916193092317499 -0.53636571261523935 1.0362328774979106
decision_type=2 2 2 2 2 2 2 2 2 2 2 2
left_child=2 4 6 11 9 -4 -1 -6 -5 -2 -7 -3
right_child=1 3 5 8 7 10 -8 -9 -10 -11 -12 -13
leaf_value=-0.0086894960076578185 -0.00027190402969050678 0.0041950362438664722 -0.0042427243749458953 0.0072073874311539719 0.0015283367268697559 -0.0025484745680017678 -0.0066491558108749968 0.0028592039856583018 0.0088939493280999794 0.00058617959293175712 -0.0013857488501339387 0.0054859393939637293
leaf_weight=37 64 27 50 41 34 28 52 42 27 39 31 34
leaf_count=37 64 27 50 41 34 28 52 42 27 39 31 34
internal_value=4.07174e-05 0.00332263 -0.00505763 0.00652929 0.00100139 -0.00302278 -0.00752618 0.00228251 0.00791583 4.38178e-05 -0.00196119 0.00494647
internal_weight=506 308 198 129 179 109 89 76 68 103 59 61
internal_count=506 308 198 129 179 109 89 76 68 103 59 61
is_linear=0
shrinkage=0.01


Tree=60
num_leaves=12
num_cat=0
split_feature=0 0 0 0 0 0 0 0 0 0 0
split_gain=82.7748 21.7611 11.3178 2.0501 1.93855 1.77403 0.859468 0.251989 0.223134 0.166161 0.102771
threshold=0.21848220186511888 -0.8910737046549303 0.9768237743318805 -0.40182114110681028 -1.2632540262982879 1.3682243382424164 0.592411338337265 -1.5742769006332396 -0.64819490843660177 -0.14496317808040995 1.1393250741350731
decision_type=2 2 2 2 2 2 2 2 2 2 2
left_child=1 4 6 8 7 10 -2 -1 -3 -5 -4
right_child=2 3 5 9 -6 -7 -8 -9 -10 -11 -12
leaf_value=-0.0088855592790224869 0.0013451208690231718 -0.0031893495138151096 0.0048198810341762511 -0.0007631482408124936 -0.005096408268910343 0.0080646143162596048 0.0031783553043684639 -0.0071368951633968185 -0.0019198701550199098 3.8477481266327359e-05 0.0061428876717885333
leaf_weight=28 59 33 34 44 47 55 50 45 38 57 28
leaf_count=28 59 33 34 44 47 55 50 45 38 57 28
internal_value=-2.01837e-06 -0.00351974 0.00453767 -0.00122971 -0.00678628 0.00669997 0.00219949 -0.00784372 -0.00253126 -0.000301682 0.00545128
internal_weight=518 292 226 172 120 117 109 73 71 101 62
internal_count=518 292 226 172 120 117 109 73 71 101 62
is_linear=0
shrinkage=0.01


Tree=61
num_leaves=11
num_cat=0
split_feature=0 0 0 0 0 0 0 0 0 0
split_gain=81.1421 20.9418 11.4858 1.94227 1.89917 1.73714 0.905409 0.246086 0.188819 0.175086
threshold=0.17305153412171664 -0.8910737046549303 0.9768237743318805 -0.43152579258580032 -1.2632540262982879 1.3542457727000448 0.592411338337265 -1.5812661656127462 -0.64819490843660177 -0.16593117977641086
decision_type=2 2 2 2 2 2 2 2 2 2
left_child=1 4 6 8 7 -4 -2 -1 -3 -5
right_child=2 3 5 9 -6 -7 -8 -9 -10 -11
leaf_value=-0.0088964050109424288 0.0012906700764390433 -0.0031576481192226867 0.0053550084158035605 -0.00083691029223027043 -0.00504566005983595 0.0079382912616629692 0.0031466983573370244 -0.0071218147366868016 -0.0019417030423540961 0
leaf_weight=25 62 33 60 43 47 57 50 48 35 58
leaf_count=25 62 33 60 43 47 57 50 48 35 58
internal_value=-1.99202e-06 -0.003526 0.00444016 -0.00124765 -0.00671894 0.00663346 0.0021323 -0.00776586 -0.00255399 -0.000354941
internal_weight=518 289 229 169 120 117 112 73 68 101
internal_count=518 289 229 169 120 117 112 73 68 101
is_linear=0
shrinkage=0.01


Tree=62
num_leaves=12
num_cat=0
split_feature=0 0 0 0 0 0 0 0 0 0 0
split_gain=79.5443 21.1605 10.6342 2.01594 1.86058 1.26138 1.21198 0.240196 0.213496 0.168119 0.131938
threshold=0.23945020119076491 -0.8910737046549303 1.0292435727404858 -0.40182114110681028 -1.2632540262982879 0.67977787870701289 1.3996761028594158 -1.5742769006332396 -0.62547960789775059 -0.1344791770234601 0.46310879333849525
decision_type=2 2 2 2 2 2 2 2 2 2 2
left_child=1 4 5 8 7 10 -4 -1 -3 -5 -2
right_child=2 3 6 9 -6 -7 -8 -9 -10 -11 -12
leaf_value=-0.0087108885650093674 0.001033764300013774 -0.003090252386914058 0.0057371401849326551 -0.00070530784051350457 -0.0049954172463740325 0.0036413627956062549 0.0080978569514670602 -0.0069949390666674714 -0.0018486131357224606 8.8701540032037389e-05 0.002015083353203463
leaf_weight=28 36 35 57 49 47 51 47 45 36 54 33
leaf_count=28 36 35 57 49 47 51 47 45 36 54 33
internal_value=-2.02262e-06 -0.00342349 0.00448325 -0.00118594 -0.00665226 0.00243561 0.00682709 -0.00768877 -0.00248169 -0.000279976 0.00152201
internal_weight=518 294 224 174 120 120 104 73 71 103 69
internal_count=518 294 224 174 120 120 104 73 71 103 69
is_linear=0
shrinkage=0.01


Tree=63
num_leaves=12
num_cat=0
split_feature=0 0 0 0 0 0 0 0 0 0 0
split_gain=77.9758 20.4927 10.6633 1.93152 1.82334 1.66999 0.806757 0.27483 0.181537 0.180567 0.103426
threshold=0.21848220186511888 -0.8910737046549303 0.9768237743318805 -0.43152579258580032 -1.2527700906807728 1.3018261332403176 0.592411338337265 -1.5742769006332396 -0.17466784697532856 -0.64819490843660177 1.5779025523292562
decision_type=2 2 2 2 2 2 2 2 2 2 2
left_child=1 4 6 9 7 -4 -2 -1 -5 -3 -7
right_child=2 3 5 8 -6 10 -8 -9 -10 -11 -12
leaf_value=-0.0086243977445237176 0.0013053875293179945 -0.0030955455461180352 0.0051837766493533863 -0.00084069506889118727 -0.0048573275483571564 0.007053223386887581 0.0030829757588555612 -0.0068831015226751939 0 -0.0019033097772097047 0.0086751059828133418
leaf_weight=28 59 33 57 41 44 37 50 48 63 35 23
leaf_count=28 59 33 57 41 44 37 50 48 63 35 23
internal_value=-2.00527e-06 -0.00341628 0.00440406 -0.00119379 -0.00658625 0.00650302 0.00213411 -0.00755871 -0.000324394 -0.00250394 0.00771831
internal_weight=518 292 226 172 120 117 109 76 104 68 60
internal_count=518 292 226 172 120 117 109 76 104 68 60
is_linear=0
shrinkage=0.01


Tree=64
num_leaves=12
num_cat=0
split_feature=0 0 0 0 0 0 0 0 0 0 0
split_gain=76.4398 20.3304 10.2235 1.93775 1.78817 1.21189 1.16302 0.204773 0.16222 0.129964 0.127295
threshold=0.23945020119076491 -0.8910737046549303 1.0292435727404858 -0.40182114110681028 -1.3226629728516055 0.67977787870701289 1.3996761028594158 -0.62023761512383857 -0.11525850815158785 -1.6092232193238623 0.46310879333849525
decision_type=2 2 2 2 2 2 2 2 2 2 2
left_child=1 4 5 7 9 10 -4 -3 -5 -1 -2
right_child=2 3 6 8 -6 -7 -8 -9 -10 -11 -12
leaf_value=-0.0087420861033705981 0.0010105020087726865 -0.0029801926165039 0.0056240640570233745 -0.00066166396623939497 -0.0050999056968999944 0.0035690479318145657 0.0079390847758721503 -0.0017588350724384008 0.00011749120864208297 -0.0070884799019054123 0.0019756536553782152
leaf_weight=22 36 38 57 53 55 51 47 33 50 43 33
leaf_count=22 36 38 57 53 55 51 47 33 50 43 33
internal_value=-1.97258e-06 -0.00335605 0.00439486 -0.00116268 -0.00652089 0.00238691 0.0066931 -0.0024331 -0.000274249 -0.0076886 0.00149092
internal_weight=518 294 224 174 120 120 104 71 103 65 69
internal_count=518 294 224 174 120 120 104 71 103 65 69
is_linear=0
shrinkage=0.01


Tree=65
num_leaves=12
num_cat=0
split_feature=0 0 0 0 0 0 0 0 0 0 0
split_gain=75.9882 16.9684 14.478 1.65972 1.61135 1.39378 1.28642 0.209317 0.155906 0.152308 0.147008
threshold=-0.078564503023062018 0.89644670903928947 -0.96970344624259608 -1.2632540262982879 1.2494064651630634 0.48407677838531876 -0.55733369092983698 -1.5812661656127462 -0.34066449750272854 0.27789153096573505 1.5604293876860045
decision_type=2 2 2 2 2 2 2 2 2 2 2
left_child=2 5 3 7 -3 9 -4 -1 -8 -2 -6
right_child=1 4 6 -5 10 -7 8 -9 -10 -11 -12
leaf_value=-0.0085280005804455015 0.00025332888507655532 0.0049429410940501836 -0.0029823619578464096 -0.0048997761388268083 0.0068077512072250903 0.0025562466187654316 -0.0014747328544596591 -0.0068637090773008671 -0.00053645459875701913 0.0011641467913781128 0.0083692929762920337
leaf_weight=26 61 51 50 45 45 59 33 48 50 29 26
leaf_count=26 61 51 50 45 45 59 33 48 50 29 26
internal_value=-3.71731e-05 0.00363529 -0.00399025 -0.00652462 0.00639987 0.00135943 -0.00170875 -0.00748335 -0.000924172 0.000559832 0.00741553
internal_weight=523 271 252 119 122 149 133 74 83 90 71
internal_count=523 271 252 119 122 149 133 74 83 90 71
is_linear=0
shrinkage=0.01


Tree=66
num_leaves=12
num_cat=0
split_feature=0 0 0 0 0 0 0 0 0 0 0
split_gain=74.4911 16.632 14.1907 1.62693 1.57855 1.36569 1.26042 0.152645 0.149191 0.142766 0.105087
threshold=-0.078564503023062018 0.89644670903928947 -0.96970344624259608 -1.3471254694966326 1.2494064651630634 0.48407677838531876 -0.55733369092983698 -0.34066449750272854 0.27789153096573505 1.5604293876860045 -1.6092232193238623
decision_type=2 2 2 2 2 2 2 2 2 2 2
left_child=2 5 3 10 -3 8 -4 -8 -2 -6 -1
right_child=1 4 6 -5 9 -7 7 -9 -10 -11 -12
leaf_value=-0.0085833966302442128 0.00025080387250769854 0.004893704677233472 -0.0029526571579188464 -0.0050794573111727663 0.0067399749238934124 0.0025307705313772767 -0.0014600744138819623 -0.00053111141636611456 0.0011525850799189855 0.0082862391817660735 -0.0069944331132703354
leaf_weight=22 61 51 50 54 45 59 33 50 29 26 43
leaf_count=22 61 51 50 54 45 59 33 50 29 26 43
internal_value=-3.67868e-05 0.0035993 -0.00395074 -0.00645988 0.00633637 0.00134602 -0.00169189 -0.000915099 0.000554376 0.00734194 -0.00757225
internal_weight=523 271 252 119 122 149 133 83 90 71 65
internal_count=523 271 252 119 122 149 133 83 90 71 65
is_linear=0
shrinkage=0.01


Tree=67
num_leaves=13
num_cat=0
split_feature=0 0 0 0 0 0 0 0 0 0 0 0
split_gain=73.0254 16.7691 13.439 1.5979 1.5464 1.40851 1.16611 0.198262 0.152404 0.138621 0.133097 0.105496
threshold=-0.10477450679706535 0.89644670903928947 -0.96970344624259608 -1.2632540262982879 1.2494064651630634 0.46310879333849525 -0.55733369092983698 -1.5742769006332396 0.25168153373730001 1.5604293876860045 -0.34066449750272854 0.71472448374016306
decision_type=2 2 2 2 2 2 2 2 2 2 2 2
left_child=2 5 3 7 -3 8 -4 -1 -2 -6 -8 -7
right_child=1 4 6 -5 9 11 10 -9 -10 -11 -12 -13
leaf_value=-0.0082733391164100337 0.00016990975555211714 0.0048449588927906 -0.0029232481727562106 -0.0048004253300945312 0.0066728734126133196 0.002048644634184017 -0.0014455616231783329 -0.0066773876600560878 0.0010317461632869461 0.0082040093418296062 -0.00055407327894137529 0.0031306920226277981
leaf_weight=29 58 51 50 45 45 37 33 45 35 26 46 23
leaf_count=29 58 51 50 45 45 37 33 45 35 26 46 23
internal_value=-3.64065e-05 0.00350897 -0.00397146 -0.00639579 0.00627349 0.00129274 -0.00172088 -0.00733692 0.000506504 0.00726909 -0.000941803 0.00248906
internal_weight=523 275 248 119 122 153 129 74 93 71 79 60
internal_count=523 275 248 119 122 153 129 74 93 71 79 60
is_linear=0
shrinkage=0.01


Tree=68
num_leaves=12
num_cat=0
split_feature=0 0 0 0 0 0 0 0 0 0 0
split_gain=71.5882 15.9795 13.6339 1.71366 1.46521 1.35454 1.08508 0.217376 0.143471 0.134569 0.10817
threshold=-0.078564503023062018 0.92440395455064006 -0.93650422762151997 -1.2527700906807728 1.2494064651630634 0.48407677838531876 -0.52238705913507755 -1.5550564187185671 0.27789153096573505 1.5604293876860045 0.71472448374016306
decision_type=2 2 2 2 2 2 2 2 2 2 2
left_child=2 5 3 7 -3 8 -4 -1 -2 -6 -7
right_child=1 4 6 -5 9 10 -8 -9 -10 -11 -12
leaf_value=-0.0081133222246762386 0.00024562472643808525 0.0048173962230701368 -0.0026953009210829364 -0.0046485512339191513 0.006606439987642574 0.0020430633442177957 -0.00081295451740893174 -0.0065321058628246258 0.0011305431266353555 0.0081225951755319846 0.003126845808068583
leaf_weight=32 61 50 54 46 45 36 76 44 29 26 24
leaf_count=32 61 50 54 46 45 36 76 44 29 26 24
internal_value=-3.59987e-05 0.0035285 -0.00387297 -0.0062744 0.00623149 0.00133604 -0.00160547 -0.00723055 0.000543726 0.00719695 0.00250214
internal_weight=523 271 252 122 121 150 130 76 90 71 60
internal_count=523 271 252 122 121 150 130 76 90 71 60
is_linear=0
shrinkage=0.01


Tree=69
num_leaves=12
num_cat=0
split_feature=0 0 0 0 0 0 0 0 0 0 0
split_gain=70.187 17.4482 11.5665 1.56008 1.48941 1.26051 1.15942 0.242747 0.193175 0.129683 0.101289
threshold=-0.17466784697532856 0.89644670903928947 -1.0098919625010903 0.46310879333849525 1.2162073275462069 -0.62023761512383857 -1.3768299207748673 1.4695688730992009 0.23945020119076491 -0.36512715632299314 0.67977787870701289
decision_type=2 2 2 2 2 2 2 2 2 2 2
left_child=2 3 6 8 -3 -4 -1 -6 -2 -7 -5
right_child=1 4 5 10 7 9 -8 -9 -10 -11 -12
leaf_value=-0.0075005125165819291 6.5202728872550535e-05 0.0044829928672429423 -0.0031923400276693799 0.0018982165232794177 0.0061811065992105349 -0.0015655149078817778 -0.0052702887994902472 0.0077146371264955882 0.00097477277048439238 -0.00065399106551883041 0.0029328296595061854
leaf_weight=57 67 41 52 30 41 37 53 40 38 37 30
leaf_count=57 67 41 52 30 41 37 53 40 38 37 30
internal_value=-3.55688e-05 0.00328344 -0.00407542 0.00115324 0.00614967 -0.00199054 -0.00644654 0.00696786 0.000405114 -0.00112622 0.00244016
internal_weight=523 287 236 165 122 126 110 81 105 74 60
internal_count=523 287 236 165 122 126 110 81 105 74 60
is_linear=0
shrinkage=0.01


Tree=70
num_leaves=11
num_cat=0
split_feature=0 0 0 0 0 0 0 0 0 0
split_gain=71.3638 17.1203 10.292 1.80632 1.61016 1.1117 1.0106 0.238201 0.173288 0.122392
threshold=-0.19388851445047897 0.92440395455064006 -1.0098919625010903 0.48407677838531876 1.3682243382424164 -1.3768299207748673 -0.60101697368903717 0.21848220186511888 1.1620402912361898 0.72870312376419266
decision_type=2 2 2 2 2 2 2 2 2 2
left_child=2 3 5 7 8 -1 -4 -2 -3 -5
right_child=1 4 6 9 -6 -7 -8 -9 -10 -11
leaf_value=-0.0074684895563842659 2.831749614705603e-05 0.004334862113592043 -0.0030486063250249485 0.0020601809530230294 0.0073101420081731084 -0.0052713129910710015 -0.0011118649919068695 0.0010032908994428537 0.0057112538324643478 0.0031600875930583227
leaf_weight=53 65 40 53 34 60 56 60 43 29 28
leaf_count=53 65 40 53 34 60 56 60 43 29 28
internal_value=0.000125039 0.00331505 -0.00416603 0.00122069 0.00606115 -0.00636054 -0.00203286 0.00042688 0.00494263 0.00258155
internal_weight=521 299 222 170 129 109 113 108 69 62
internal_count=521 299 222 170 129 109 113 108 69 62
is_linear=0
shrinkage=0.01


Tree=71
num_leaves=11
num_cat=0
split_feature=0 0 0 0 0 0 0 0 0 0
split_gain=69.9558 16.7802 10.0871 1.7705 1.57661 1.08842 0.990168 0.233399 0.168931 0.119727
threshold=-0.19388851445047897 0.92440395455064006 -1.0098919625010903 0.48407677838531876 1.3682243382424164 -1.3768299207748673 -0.60101697368903717 0.21848220186511888 1.1620402912361898 0.71472448374016306
decision_type=2 2 2 2 2 2 2 2 2 2
left_child=2 3 5 7 8 -1 -4 -2 -3 -5
right_child=1 4 6 9 -6 -7 -8 -9 -10 -11
leaf_value=-0.007394085268777115 2.8035188842089157e-05 0.0042917291827462793 -0.0030182348427019619 0.0019894926909070753 0.0072372834191369853 -0.0052187875432900257 -0.0011007832805084627 0.00099330443785422377 0.0056545324399046703 0.0030742051777167202
leaf_weight=53 65 40 53 31 60 56 60 43 29 31
leaf_count=53 65 40 53 31 60 56 60 43 29 31
internal_value=0.000123852 0.00328225 -0.00412466 0.00120873 0.00600096 -0.00629726 -0.0020127 0.000422723 0.00489364 0.00255607
internal_weight=521 299 222 170 129 109 113 108 69 62
internal_count=521 299 222 170 129 109 113 108 69 62
is_linear=0
shrinkage=0.01


Tree=72
num_leaves=11
num_cat=0
split_feature=0 0 0 0 0 0 0 0 0 0
split_gain=68.5757 16.4468 9.88825 1.73537 1.54526 1.23649 0.815263 0.228734 0.211396 0.116952
threshold=-0.19388851445047897 0.92440395455064006 -0.98368206205381825 0.48407677838531876 1.3891921825388642 -1.3611040361200641 -0.58529099304956744 0.25168153373730001 1.1620402912361898 0.72870312376419266
decision_type=2 2 2 2 2 2 2 2 2 2
left_child=2 3 5 7 8 -1 -4 -2 -3 -5
right_child=1 4 6 9 -6 -7 -8 -9 -10 -11
leaf_value=-0.0072799414115539487 5.6426901816685874e-05 0.0042490254275834374 -0.0028255577565869318 0.0020189695434960704 0.0072457109312145732 -0.0050391867092332322 -0.0010411844545832047 0.0010303204274755352 0.0056507730591728025 0.0030981868590023503
leaf_weight=55 69 40 51 34 56 59 57 39 33 28
leaf_count=55 69 40 51 34 56 59 57 39 33 28
internal_value=0.000122677 0.00324979 -0.00408369 0.00119689 0.00594137 -0.00613987 -0.00189671 0.000418607 0.00491006 0.00253083
internal_weight=521 299 222 170 129 114 108 108 73 62
internal_count=521 299 222 170 129 114 108 108 73 62
is_linear=0
shrinkage=0.01


Tree=73
num_leaves=12
num_cat=0
split_feature=0 0 0 0 0 0 0 0 0 0 0
split_gain=67.2286 15.2201 10.6819 1.45506 1.44297 1.34439 0.967554 0.152887 0.132494 0.123915 0.122845
threshold=0.12412619644271994 -0.9207782791093827 0.9768237743318805 -0.46297777299824999 -1.3471254694966326 1.3891921825388642 0.53999139629068738 1.1620402912361898 -1.6092232193238623 -0.19388851445047897 -0.67265753656930027
decision_type=2 2 2 2 2 2 2 2 2 2 2
left_child=1 4 6 10 8 7 -2 -4 -1 -5 -3
right_child=2 3 5 9 -6 -7 -8 -9 -10 -11 -12
leaf_value=-0.0080745261102109327 0.00095711491658307974 -0.0029244565243357855 0.0042695360749282615 -0.00079774826765060408 -0.0047422291579115429 0.007173511888632994 0.0027649530778814861 0.0055946057711739128 -0.0064594499121850991 -3.7766960490941411e-05 -0.0018358144078117152
leaf_weight=22 67 30 35 41 58 56 57 33 40 51 31
leaf_count=22 67 30 35 41 58 56 57 33 40 51 31
internal_value=0.000121516 -0.00329912 0.00389063 -0.00119711 -0.00596441 0.00596763 0.0017993 0.00494177 -0.00707274 -0.000388296 -0.00239536
internal_weight=521 273 248 153 120 124 124 68 62 92 61
internal_count=521 273 248 153 120 124 124 68 62 92 61
is_linear=0
shrinkage=0.01


Tree=74
num_leaves=13
num_cat=0
split_feature=0 0 0 0 0 0 0 0 0 0 0 0
split_gain=65.9043 14.9179 10.4701 1.42614 1.4137 1.2849 0.979407 0.168847 0.12862 0.121463 0.119946 0.101082
threshold=0.12412619644271994 -0.9207782791093827 0.98730773574821951 -0.46297777299824999 -1.3471254694966326 1.3926868227818945 0.56095937443388799 1.1620402912361898 -1.6092232193238623 -0.20262518128828877 -0.67265753656930027 0.32681685514430364
decision_type=2 2 2 2 2 2 2 2 2 2 2 2
left_child=1 4 6 10 8 7 11 -4 -1 -5 -3 -2
right_child=2 3 5 9 -6 -7 -8 -9 -10 -11 -12 -13
leaf_value=-0.0079945083244426837 0.00048834480493273953 -0.002895405644809963 0.0042380365520192868 -0.00080871344677039549 -0.0046949698947549275 0.0071625045860620367 0.0028050586273488795 0.0055796587565985828 -0.0063951768299833458 -5.1747969269868046e-05 -0.001817573934602432 0.0013313776895922808
leaf_weight=22 30 30 34 39 58 53 55 36 40 53 31 40
leaf_count=22 30 30 34 39 58 53 55 36 40 53 31 40
internal_value=0.000120228 -0.00326653 0.00385205 -0.00118541 -0.00590525 0.00592508 0.00179799 0.00495619 -0.00700264 -0.00038454 -0.00237172 0.000986744
internal_weight=521 273 248 153 120 123 125 70 62 92 61 70
internal_count=521 273 248 153 120 123 125 70 62 92 61 70
is_linear=0
shrinkage=0.01


Tree=75
num_leaves=12
num_cat=0
split_feature=0 0 0 0 0 0 0 0 0 0 0
split_gain=63.2061 16.1357 8.01499 2.14137 1.519 1.34515 0.526089 0.196625 0.151703 0.121278 0.112064
threshold=0.27789153096573505 -0.84913782422529061 1.1166098523053833 -1.2003503969884481 -0.37561115246867588 0.74093443289677507 1.4381171332944984 -1.5550564187185671 -0.048859831575208186 -0.60101697368903717 0.52776007463273544
decision_type=2 2 2 2 2 2 2 2 2 2 2
left_child=1 3 5 7 9 10 -4 -1 -6 -3 -2
right_child=2 4 6 -5 8 -7 -8 -9 -10 -11 -12
leaf_value=-0.0076010714624172608 0.0011586592791240607 -0.0025072167492703181 0.0054919991814173178 -0.0040092367247531284 -0.00051957732495793601 0.0036695626529084664 0.007289519140780981 -0.0060671663453793637 0.00023649268400191445 -0.0015067183064377827 0.0020859498042144525
leaf_weight=31 40 36 44 53 51 59 47 42 53 32 30
leaf_count=31 40 36 44 53 51 59 47 42 53 32 30
internal_value=0.00010198 -0.00289664 0.00416723 -0.00561394 -0.000896043 0.00254498 0.0064453 -0.0067512 -0.000124961 -0.00205686 0.00157513
internal_weight=518 298 220 126 172 129 91 73 104 68 70
internal_count=518 298 220 126 172 129 91 73 104 68 70
is_linear=0
shrinkage=0.01


Tree=76
num_leaves=12
num_cat=0
split_feature=0 0 0 0 0 0 0 0 0 0 0
