tree
version=v4
num_class=1
num_tree_per_iteration=1
label_index=0
max_feature_idx=0
objective=regression
feature_names=Column_0
feature_infos=[-1.6345672136782907:1.7263775363703402]
tree_sizes=1314 1415 1338 1401 1438 1437 1424 1353 1440 1231 1442 1444 1448 1446 1258 1345 1345 1343 1348 1346 1259 1261 1233 1259 1235 1345 1347 1346 1346 1348 1239 1325 1321 1264 1430 1265 1265 1264 1177 1180 1177 1153 1285 1266 1177 1270 1177 1178 1263 1264 1265 1269 1271 1172 1268 1264 1261 1268 1331 1271 1182 1179 1180 1180 1096 1178 1180 1097 1092 1181 1072 1073 1098 1175 1094 1091 1098 1095 1013 1091 1094 1094 1097 1096 1012 1012 1010 1010 1010 1009 918 1007 920 928 917 842 842 840 843 842 924 922 924 925 920 928 926 844 926 925 845 1011 927 1009 932 841 845 926 901 846 918 917 831 911 910 900 922 934 924 849 818 928 818 923 922 917 836 914 835 841 846 848 763 764 763 844 842 839 843 758 845 846 928 843 925 840 841 841 839 840 760 760 839 761 754 763 850 762 850 847 815 843 846 840 844 676 675 759 675 678 739 741 761 679 758 746 750 747 666 665 762 777 765 763 679 677 677 680 675 681 765 851 684 677 681 648 645 669 582 671 668 664 667 666 667 681 683 684 599 599 677 681 682 593 573 592 591 588 512 593 594 597 678 680 596 591 593 593 593 595 507 512 511 509 615 512 510 511 510 512 613 614 511 511 611 614 598 596 509 613 511 510 509 596 512 596 512 512 513 509 510 510 509 510 508 614 514 614 511 614 506 508 507 510 489 501 500 499 501 416 512 511 510 509 514 512 512 512 512 513 509 513 513 424 513 412 414 502 411 501 512 512 510 528 509 424 424 426 510 426 425 424 508 427 510 530 424 426 426 425 424 424 424 400 424 525 525 527 422 524 424 423 423 423 337 423 423 421 423 423 334 333 423 421 334 336 337 337 425 336 414 325 325 413 325 421 422 424 437 422 337 336 439 337 440 413 412 426 414 427 326 326 327 326 325 335 335 334 335 334 335 335 334 336 335 336 336 335 334 335 336 336 336 337 337 337 337 337 337 336 322 322 321 324 410 337 336 337 335 337 336 336 336 336 337 322 322 320 322 321 332 332 436 332 436 331 331 332 330 336 322 323 323 326

Tree=0
num_leaves=14
num_cat=0
split_feature=0 0 0 0 0 0 0 0 0 0 0 0 0
split_gain=298.508 56.2826 34.0818 6.82452 6.23303 3.78766 2.59078 0.798386 0.644972 0.444138 0.237666 0.200026 0.160396
threshold=0.31212887099048214 -0.8389803117051754 1.0209804549984491 -0.40504992657056799 -1.2344052098315019 1.390464597343988 0.68385310003590494 -0.61625128997705092 -1.0326894407193745 -0.14799548443242838 1.2244028258445334 0.47779871306935862 -1.4707684488455863
decision_type=2 2 2 2 2 2 2 2 2 2 2 2 2
left_child=1 4 6 7 12 10 11 -3 -6 -5 -4 -2 -1
right_child=2 3 5 9 8 -7 -8 -9 -10 -11 -12 -13 -14
leaf_value=-0.0018793579814757114 0.015072313635807468 0.007218312884112359 0.022549780460528669 0.011479502841806223 0.0026803651729792426 0.027534007683221187 0.019447524915032079 0.0093965931968685926 0.0050024318496716871 0.01286584520681925 0.024699504555688152 0.016523884829140956 0.00036554925437471027
leaf_weight=27 23 43 30 42 37 57 37 36 36 48 29 31 37
leaf_count=27 23 43 30 42 37 57 37 36 36 48 29 31 37
internal_value=0.0127305 0.00645607 0.0219981 0.0103301 0.00169511 0.0255941 0.0173852 0.0081871 0.00378727 0.0122284 0.0236598 0.0159346 -0.000640023
internal_weight=513 306 207 169 137 116 91 79 73 90 59 54 64
internal_count=513 306 207 169 137 116 91 79 73 90 59 54 64
is_linear=0
shrinkage=1


Tree=1
num_leaves=15
num_cat=0
split_feature=0 0 0 0 0 0 0 0 0 0 0 0 0 0
split_gain=292.615 55.1703 33.4042 6.68968 6.10785 3.70885 2.53824 0.781626 0.6313 0.435605 0.230857 0.195444 0.15476 0.102829
threshold=0.31212887099048214 -0.8389803117051754 1.0209804549984491 -0.40504992657056799 -1.2344052098315019 1.390464597343988 0.68385310003590494 -0.61625128997705092 -1.0545639605791659 -0.15307042016166375 1.2244028258445334 0.47779871306935862 -1.4707684488455863 0.8255636971228516
decision_type=2 2 2 2 2 2 2 2 2 2 2 2 2 2
left_child=1 4 6 7 12 10 11 -3 -6 -5 -4 -2 -1 -8
right_child=2 3 5 9 8 -7 13 -9 -10 -11 -12 -13 -14 -15
leaf_value=-0.014580177831299165 0.0022032525300465784 -0.0055726605281233776 0.0096063951664413054 -0.0013874341121212167 -0.010129594995894213 0.014540650757042679 0.005359668104272141 -0.0034160930461646444 -0.0078278729959308166 0 0.011734791496028638 0.003640351767341296 -0.012357307127726973 0.0072356032197539869
leaf_weight=27 23 43 30 40 35 57 14.999999999999998 36 38 50 29 31 37 22
leaf_count=27 23 43 30 40 35 57 15 36 38 50 29 31 37 22
internal_value=-0.000115373 -0.00632755 0.00906026 -0.00249194 -0.0110412 0.0126204 0.00449333 -0.00461366 -0.00896976 -0.000612358 0.0107056 0.00305709 -0.0133532 0.00653487
internal_weight=513 306 207 169 137 116 91 79 73 90 59 54 64 37
internal_count=513 306 207 169 137 116 91 79 73 90 59 54 64 37
is_linear=0
shrinkage=0.01


Tree=2
num_leaves=14
num_cat=0
split_feature=0 0 0 0 0 0 0 0 0 0 0 0 0
split_gain=286.843 54.0797 32.7381 6.55733 5.98516 3.63308 2.48764 0.766036 0.617168 0.427272 0.308639 0.191112 0.149256
threshold=0.31212887099048214 -0.8389803117051754 1.0209804549984491 -0.40504992657056799 -1.2344052098315019 1.4139177700092207 0.68385310003590494 -0.63989050116340185 -1.0326894407193745 -0.14799548443242838 1.2244028258445334 0.49469721847184928 -1.4707684488455863
decision_type=2 2 2 2 2 2 2 2 2 2 2 2 2
left_child=1 4 6 7 12 10 11 -3 -6 -5 -4 -2 -1
right_child=2 3 5 9 8 -7 -8 -9 -10 -11 -12 -13 -14
leaf_value=-0.014435447410625571 0.0022935601093751544 -0.005594325219813864 0.009510967222270586 -0.0013407357729159262 -0.0099660011773468338 0.014498450531730794 0.0064704717871963326 -0.0034664180722771862 -0.0076887094250041466 1.865767849671086e-05 0.011704156161835472 0.0037012625135043093 -0.012234399145649324
leaf_weight=27 27 40 30 42 37 54 37 39 36 48 32 27 37
leaf_count=27 27 40 30 42 37 54 37 39 36 48 32 27 37
internal_value=-0.000114193 -0.00626481 0.00897047 -0.00246723 -0.0109317 0.012495 0.00444913 -0.00456787 -0.00888069 -0.000606206 0.010693 0.00302692 -0.0132206
internal_weight=513 306 207 169 137 116 91 79 73 90 62 54 64
internal_count=513 306 207 169 137 116 91 79 73 90 62 54 64
is_linear=0
shrinkage=0.01


Tree=3
num_leaves=15
num_cat=0
split_feature=0 0 0 0 0 0 0 0 0 0 0 0 0 0
split_gain=281.18 53.0109 32.0909 6.4278 5.86492 3.22689 2.80904 0.750414 0.604142 0.419067 0.243116 0.186777 0.143885 0.106198
threshold=0.31212887099048214 -0.8389803117051754 1.0512710043471125 -0.40504992657056799 -1.2344052098315019 1.4139177700092207 0.69229242176402872 -0.61625128997705092 -1.0545639605791659 -0.15307042016166375 0.49469721847184928 1.2244028258445334 -1.4707684488455863 0.85590964569884098
decision_type=2 2 2 2 2 2 2 2 2 2 2 2 2 2
left_child=1 4 6 7 12 11 10 -3 -6 -5 -2 -4 -1 -8
right_child=2 3 5 9 8 -7 13 -9 -10 -11 -12 -13 -14 -15
leaf_value=-0.014292154732872459 0.0022707931839806195 -0.0054629853878308222 0.0095243470283115604 -0.0013602881737757677 -0.0099297802624377339 0.01435400080856802 0.0057267014371852089 -0.003347648402768604 -0.0076723272794204222 0 0.0037744376418606335 0.011587841177579036 -0.012112712417879409 0.0076020600507547579
leaf_weight=27 27 43 27 40 35 54 19 36 38 50 30 32 37 18
leaf_count=27 27 43 27 40 35 54 19 36 38 50 30 32 37 18
internal_value=-0.000113057 -0.00620268 0.00888147 -0.00244274 -0.0108233 0.0124751 0.00453359 -0.00452255 -0.0087925 -0.000600062 0.0030901 0.0106958 -0.0130894 0.00670189
internal_weight=513 306 207 169 137 113 94 79 73 90 57 59 64 37
internal_count=513 306 207 169 137 113 94 79 73 90 57 59 64 37
is_linear=0
shrinkage=0.01


Tree=4
num_leaves=15
num_cat=0
split_feature=0 0 0 0 0 0 0 0 0 0 0 0 0 0
split_gain=275.635 51.9629 31.451 6.30107 5.74707 3.48473 2.38965 0.644144 0.590485 0.48821 0.20982 0.183378 0.1394 0.104266
threshold=0.31212887099048214 -0.8389803117051754 1.0209804549984491 -0.43716649596880275 -1.2344052098315019 1.390464597343988 0.68385310003590494 -0.63989050116340185 -1.0545639605791659 -0.17167820261518188 1.2244028258445334 0.47779871306935862 -1.435614965793766 0.095622424321877911
decision_type=2 2 2 2 2 2 2 2 2 2 2 2 2 2
left_child=1 4 6 7 12 10 11 -3 -6 -5 -4 -2 -1 -11
right_child=2 3 5 9 8 -7 -8 -9 -10 13 -12 -13 -14 -15
leaf_value=-0.014074652701208038 0.0021361599361588218 -0.0054843026221688112 0.0093237844405584785 -0.0015268388671400659 -0.0098310467262159688 0.014111153004052758 0.006343168451260494 -0.003465655806644187 -0.0075960058722820568 -0.00033116916129223009 0.011386922704030389 0.0035336365283299715 -0.011932359845800834 0.00061849941488033462
leaf_weight=29 23 40 30 38 35 57 37 36 38 39 29 31 35 15.999999999999998
leaf_count=29 23 40 30 38 35 57 37 36 38 39 29 31 35 16
internal_value=-0.000111893 -0.00614119 0.00879348 -0.00241852 -0.0107159 0.0122481 0.00436156 -0.00455283 -0.00870519 -0.00065759 0.0103898 0.00296694 -0.0129595 -3.5546e-05
internal_weight=513 306 207 169 137 116 91 76 73 93 59 54 64 55
internal_count=513 306 207 169 137 116 91 76 73 93 59 54 64 55
is_linear=0
shrinkage=0.01


Tree=5
num_leaves=15
num_cat=0
split_feature=0 0 0 0 0 0 0 0 0 0 0 0 0 0
split_gain=265.458 48.4917 34.3659 5.80808 5.52494 3.69755 2.91904 0.658257 0.520857 0.393235 0.301178 0.24275 0.211682 0.16403
threshold=0.2563206416381883 -0.82717856997693473 1.0209804549984491 -1.1823402270077208 -0.40504992657056799 1.4239665615566508 0.663596948698287 -1.3853643094985026 -0.61625128997705092 -0.16660340352077993 1.2244028258445334 -0.98219094577002763 0.46765895441496036 0.80532881990602101
decision_type=2 2 2 2 2 2 2 2 2 2 2 2 2 2
left_child=1 3 6 7 8 10 12 -1 -3 -6 -4 -5 -2 -8
right_child=2 4 5 11 9 -7 13 -9 -10 -11 -12 -13 -14 -15
leaf_value=-0.013385936185646961 0.0020409650263720999 -0.0052016359415589545 0.0091961592943110362 -0.008920088071529178 -0.001449380326508121 0.014284613721672145 0.0049195708569727452 -0.010859980645932648 -0.003322040161542725 -6.9423428248198245e-05 0.011337682792494967 -0.007046655152852719 0.0034086027091894395 0.0068303486949776952
leaf_weight=42 29 39 28 29 35 52 14.999999999999998 34 34 54 36 31 31 29
leaf_count=42 29 39 28 29 35 52 15 34 34 54 36 31 31 29
internal_value=0.000124782 -0.00602253 0.00845405 -0.0104231 -0.0023138 0.012198 0.00425305 -0.0123005 -0.00435134 -0.000625347 0.0104479 -0.00799539 0.00277317 0.00622678
internal_weight=518 298 220 136 162 116 104 76 73 89 64 60 60 44
internal_count=518 298 220 136 162 116 104 76 73 89 64 60 60 44
is_linear=0
shrinkage=0.01


Tree=6
num_leaves=15
num_cat=0
split_feature=0 0 0 0 0 0 0 0 0 0 0 0 0 0
split_gain=260.223 47.5314 33.6824 5.6906 5.41519 3.41142 3.09203 0.642678 0.50967 0.385332 0.285142 0.237072 0.206947 0.202243
threshold=0.2563206416381883 -0.82717856997693473 1.0512710043471125 -1.1823402270077208 -0.40504992657056799 1.4356885974030169 0.663596948698287 -1.3853643094985026 -0.61625128997705092 -0.16660340352077993 1.2244028258445334 -0.99734342244319085 0.46765895441496036 0.8255636971228516
decision_type=2 2 2 2 2 2 2 2 2 2 2 2 2 2
left_child=1 3 6 7 8 10 12 -1 -3 -6 -4 -5 -2 -8
right_child=2 4 5 11 9 -7 13 -9 -10 -11 -12 -13 -14 -15
leaf_value=-0.013252711188736683 0.0020206951809256047 -0.0051498850450223798 0.0091756499086627519 -0.0090077715323976255 -0.0014349689055234195 0.014253772182193231 0.0050418172531075537 -0.01075201540662531 -0.0032890140818573575 -6.8731756139429786e-05 0.011308311540253307 -0.0071149955204178605 0.0033747353691321153 0.0069538507351638579
leaf_weight=42 29 39 26 24 35 49 18 34 34 54 39 36 31 28
leaf_count=42 29 39 26 24 35 49 18 34 34 54 39 36 31 28
internal_value=0.000123502 -0.00596288 0.00837025 -0.0103196 -0.00229097 0.0121451 0.00428584 -0.0121783 -0.00430819 -0.00061924 0.0105013 -0.00791613 0.00274578 0.00625237
internal_weight=518 298 220 136 162 114 106 76 73 89 65 60 60 46
internal_count=518 298 220 136 162 114 106 76 73 89 65 60 60 46
is_linear=0
shrinkage=0.01


Tree=7
num_leaves=14
num_cat=0
split_feature=0 0 0 0 0 0 0 0 0 0 0 0 0
split_gain=255.092 46.592 33.0148 5.66463 5.19763 3.5511 2.8028 0.762114 0.576903 0.377586 0.212729 0.202338 0.155637
threshold=0.2563206416381883 -0.8389803117051754 1.0209804549984491 -0.40504992657056799 -1.2579073323587697 1.4139177700092207 0.663596948698287 -1.0326894407193745 -0.63989050116340185 -0.16660340352077993 1.1941724058893743 0.47779871306935862 0.80532881990602101
decision_type=2 2 2 2 2 2 2 2 2 2 2 2 2
left_child=1 4 6 8 -1 10 11 -6 -3 -5 -4 -2 -8
right_child=2 3 5 9 7 -7 12 -9 -10 -11 -12 -13 -14
leaf_value=-0.012579962252765088 0.0020449844408684816 -0.0052534997980205377 0.0088117619372647376 -0.0014207007706334646 -0.0096478318377752979 0.013898082362568898 0.0048212677985429771 -0.0072451658180246797 -0.0033369470972527738 -6.8046975581446227e-05 0.01088486457994471 0.0033856285128691429 0.0066954151081712278
leaf_weight=59 31 39 23 35 36 55 14.999999999999998 38 37 54 38 29 29
leaf_count=59 31 39 23 35 36 55 15 38 37 54 38 29 29
internal_value=0.000122237 -0.00590382 0.00828729 -0.00234121 -0.0103059 0.011957 0.00416942 -0.00845036 -0.00434477 -0.000613193 0.0101509 0.00271867 0.00610383
internal_weight=518 298 220 165 133 116 104 74 76 89 61 60 44
internal_count=518 298 220 165 133 116 104 74 76 89 61 60 44
is_linear=0
shrinkage=0.01


Tree=8
num_leaves=15
num_cat=0
split_feature=0 0 0 0 0 0 0 0 0 0 0 0 0 0
split_gain=250.058 45.6699 32.3572 5.46823 5.20098 3.47789 2.74687 0.621777 0.488482 0.369995 0.27725 0.226122 0.198181 0.151243
threshold=0.2563206416381883 -0.82717856997693473 1.0209804549984491 -1.1823402270077208 -0.40504992657056799 1.4239665615566508 0.663596948698287 -1.3853643094985026 -0.61625128997705092 -0.16660340352077993 1.2244028258445334 -0.98219094577002763 0.46089884863526315 0.80532881990602101
decision_type=2 2 2 2 2 2 2 2 2 2 2 2 2 2
left_child=1 3 6 7 8 10 12 -1 -3 -6 -4 -5 -2 -8
right_child=2 4 5 11 9 -7 13 -9 -10 -11 -12 -13 -14 -15
leaf_value=-0.012995608954633016 0.0019330227944780801 -0.0050478486595105145 0.0089241518703758304 -0.0086576892578438536 -0.0014065744296054949 0.013863567675667248 0.0047736893711905742 -0.0105346351408819 -0.0032231420435403519 -6.7369015565197024e-05 0.011001729840073136 -0.006835874177706547 0.0032671649664281362 0.0066289196561460616
leaf_weight=42 27 39 28 29 35 52 14.999999999999998 34 34 54 36 31 33 29
leaf_count=42 27 39 28 29 35 52 15 34 34 54 36 31 33 29
internal_value=0.000121037 -0.00584525 0.00820515 -0.0101159 -0.00224581 0.0118382 0.00412834 -0.0119383 -0.00422277 -0.000607207 0.010139 -0.00775887 0.00269183 0.00604354
internal_weight=518 298 220 136 162 116 104 76 73 89 64 60 60 44
internal_count=518 298 220 136 162 116 104 76 73 89 64 60 60 44
is_linear=0
shrinkage=0.01


Tree=9
num_leaves=13
num_cat=0
split_feature=0 0 0 0 0 0 0 0 0 0 0 0
split_gain=245.128 44.7658 31.7155 5.44102 4.99415 3.21692 2.91259 0.730882 0.553188 0.362779 0.334282 0.289919
threshold=0.2563206416381883 -0.8389803117051754 1.0512710043471125 -0.40504992657056799 -1.2579073323587697 1.452430742037216 0.69229242176402872 -1.0831613819356221 -0.63989050116340185 -0.12092851629059467 1.249587165370561 0.51328392544116019
decision_type=2 2 2 2 2 2 2 2 2 2 2 2
left_child=1 4 6 8 -1 10 11 -6 -3 -5 -4 -2
right_child=2 3 5 9 7 -7 -8 -9 -10 -11 -12 -13
leaf_value=-0.012332137496890249 0.0021303707457357838 -0.005149643463747842 0.0090141475894679763 -0.0012594732424865166 -0.0095594743181423962 0.013951370783182451 0.0062657213095322385 -0.007189326283422488 -0.0032702273723258768 0 0.011130257899663884 0.0036311183816997721
leaf_weight=59 37 39 29 43 33 46 41 41 37 46 39 28
leaf_count=59 37 39 29 43 33 46 41 41 37 46 39 28
internal_value=0.000119795 -0.00578736 0.00812383 -0.00229511 -0.0101024 0.011787 0.00416003 -0.00828268 -0.00425877 -0.00060128 0.0102715 0.00280134
internal_weight=518 298 220 165 133 114 106 74 76 89 68 65
internal_count=518 298 220 165 133 114 106 74 76 89 68 65
is_linear=0
shrinkage=0.01


Tree=10
num_leaves=15
num_cat=0
split_feature=0 0 0 0 0 0 0 0 0 0 0 0 0 0
split_gain=231.014 46.8364 29.9584 5.37068 4.61747 2.95284 2.16921 0.592766 0.46752 0.325382 0.236728 0.15201 0.128594 0.121393
threshold=0.2563206416381883 -0.81368924873664461 1.0209804549984491 -1.202498431605459 -0.43716649596880275 1.390464597343988 0.65009120663583209 -1.3853643094985026 -0.19197691728288566 -0.63989050116340185 -1.0175427505077759 0.77159664629001945 1.2025710670352463 0.47779871306935862
decision_type=2 2 2 2 2 2 2 2 2 2 2 2 2 2
left_child=1 3 6 7 9 12 13 -1 -6 -3 -5 -8 -4 -2
right_child=2 4 5 10 8 -7 11 -9 -10 -11 -12 -13 -14 -15
leaf_value=-0.012825083495265217 0.0021139308177445036 -0.0050163471915864004 0.008685419493251377 -0.008802527223736787 -0.0014810172341304935 0.013330843033997911 0.0045035304952608917 -0.010362483950761647 -7.2240973721010858e-05 -0.0033299034870929601 -0.0069392711148467106 0.0063364618509373759 0.010621153428065067 0.0032543804323020048
leaf_weight=44 29 30 25 24 42 55 14.999999999999998 31 57 32 37 28 30 29
leaf_count=44 29 30 25 24 42 55 15 31 57 32 37 28 30 29
internal_value=-1.43593e-05 -0.00569882 0.00798007 -0.0100172 -0.0020369 0.0115925 0.00402072 -0.0118508 -0.000681765 -0.00417551 -0.00771507 0.00574403 0.00979405 0.00271056
internal_weight=508 297 211 136 161 110 101 75 99 62 61 43 55 58
internal_count=508 297 211 136 161 110 101 75 99 62 61 43 55 58
is_linear=0
shrinkage=0.01


Tree=11
num_leaves=15
num_cat=0
split_feature=0 0 0 0 0 0 0 0 0 0 0 0 0 0
split_gain=226.461 45.9168 29.3618 5.26799 4.5734 2.89097 2.12579 0.552951 0.44293 0.364814 0.147775 0.124062 0.119572 0.118461
threshold=0.2563206416381883 -0.867637394306079 1.0209804549984491 -0.45575821770035058 -1.2344052098315019 1.390464597343988 0.65009120663583209 -0.21058333759672396 -1.0545639605791659 -0.67196650442331407 0.77159664629001945 1.2025710670352463 -1.4255677667172679 0.47779871306935862
decision_type=2 2 2 2 2 2 2 2 2 2 2 2 2 2
left_child=1 4 6 9 12 11 13 -5 -6 -3 -8 -4 -1 -2
right_child=2 3 5 7 8 -7 10 -9 -10 -11 -12 -13 -14 -15
leaf_value=-0.01300129083265741 0.0020929362323798546 -0.0053428623957993242 0.0085992547112797944 -0.0016467609961779374 -0.0092674538951653691 0.013198017862395963 0.0044590877820002411 -0.00013172783766097579 -0.0071671006330469023 -0.0035880570113658904 0.0062735462738267066 0.010515645983203356 -0.010971225026427516 0.003222059497278031
leaf_weight=33 29 29 25 41 31 55 14.999999999999998 62 36 35 28 30 30 29
leaf_count=33 29 29 25 41 31 55 15 62 36 35 28 30 30 29
internal_value=-1.42155e-05 -0.00564239 0.00790101 -0.00216119 -0.0100965 0.0114774 0.00398113 -0.000746512 -0.00817848 -0.00441295 0.00568732 0.00969699 -0.0120882 0.00268381
internal_weight=508 297 211 167 130 110 101 103 67 64 43 55 63 58
internal_count=508 297 211 167 130 110 101 103 67 64 43 55 63 58
is_linear=0
shrinkage=0.01


Tree=12
num_leaves=15
num_cat=0
split_feature=0 0 0 0 0 0 0 0 0 0 0 0 0 0
split_gain=221.998 45.0082 28.7771 5.16359 4.48105 2.83036 2.08323 0.541855 0.432609 0.35676 0.143637 0.120526 0.115591 0.114784
threshold=0.2563206416381883 -0.867637394306079 1.0209804549984491 -0.45575821770035058 -1.2344052098315019 1.390464597343988 0.65009120663583209 -0.21058333759672396 -1.0545639605791659 -0.67196650442331407 0.77159664629001945 1.2244028258445334 0.47779871306935862 -1.4255677667172679
decision_type=2 2 2 2 2 2 2 2 2 2 2 2 2 2
left_child=1 4 6 9 13 11 12 -5 -6 -3 -8 -4 -2 -1
right_child=2 3 5 7 8 -7 10 -9 -10 -11 -12 -13 -14 -15
leaf_value=-0.012872061822787825 0.0020721503040970193 -0.0052897994730570557 0.0086195032731861097 -0.0016303733446933692 -0.0091753732393949471 0.013066515870716262 0.0044150836138348842 -0.00013041479358826899 -0.0070958255964089492 -0.0035523803549056703 0.0062112559959398095 0.010511000287883421 0.0031900594679460138 -0.010862239630806526
leaf_weight=33 29 29 28 41 31 55 14.999999999999998 62 36 35 28 27 29 30
leaf_count=33 29 29 28 41 31 55 15 62 36 35 28 27 29 30
internal_value=-1.40843e-05 -0.00558655 0.00782275 -0.00213989 -0.00999641 0.0113633 0.00394193 -0.000739178 -0.00809733 -0.00436925 0.00563117 0.00960089 0.00265733 -0.0119682
internal_weight=508 297 211 167 130 110 101 103 67 64 43 55 58 63
internal_count=508 297 211 167 130 110 101 103 67 64 43 55 58 63
is_linear=0
shrinkage=0.01


Tree=13
num_leaves=15
num_cat=0
split_feature=0 0 0 0 0 0 0 0 0 0 0 0 0 0
split_gain=217.624 44.1217 28.2041 5.05873 4.35491 2.77273 2.04152 0.555215 0.441433 0.328389 0.21915 0.161359 0.139594 0.112784
threshold=0.2563206416381883 -0.81368924873664461 1.0209804549984491 -1.202498431605459 -0.3915259536548587 1.4139177700092207 0.65009120663583209 -1.3853643094985026 -0.59429753775047189 -0.12092851629059467 -0.98219094577002763 1.2244028258445334 0.77159664629001945 0.47779871306935862
decision_type=2 2 2 2 2 2 2 2 2 2 2 2 2 2
left_child=1 3 6 7 8 11 13 -1 -3 -6 -5 -4 -8 -2
right_child=2 4 5 10 9 -7 12 -9 -10 -11 -12 -13 -14 -15
leaf_value=-0.012449904162419867 0.0020515706803496572 -0.0047431176426735782 0.008533919711484976 -0.0082883012664984462 -0.0011545506877687587 0.013000118109516632 0.0043715136576639984 -0.010055629190726159 -0.0029499906624656127 1.2171210965804629e-05 -0.0065178714876305563 0.010463699645375553 0.0061495838309010712 0.0031583774967552871
leaf_weight=44 29 35 28 32 46 53 14.999999999999998 31 33 47 29 29 28 29
leaf_count=44 29 35 28 32 46 53 15 31 33 47 29 29 28 29
internal_value=-1.39534e-05 -0.00553126 0.00774526 -0.00972266 -0.00197682 0.0112505 0.00390312 -0.0115029 -0.00389879 -0.000555427 -0.00748701 0.00956637 0.00557558 0.00263111
internal_weight=508 297 211 136 161 110 101 75 68 93 61 57 43 58
internal_count=508 297 211 136 161 110 101 75 68 93 61 57 43 58
is_linear=0
shrinkage=0.01


Tree=14
num_leaves=13
num_cat=0
split_feature=0 0 0 0 0 0 0 0 0 0 0 0
split_gain=213.332 43.2511 27.6425 4.96399 4.30543 2.71463 2.001 0.521521 0.471799 0.342082 0.156277 0.154515
threshold=0.2563206416381883 -0.867637394306079 1.0209804549984491 -0.45575821770035058 -1.2579073323587697 1.4139177700092207 0.663596948698287 -0.21058333759672396 -1.0545639605791659 -0.67196650442331407 1.2244028258445334 0.51328392544116019
decision_type=2 2 2 2 2 2 2 2 2 2 2 2
left_child=1 4 6 9 -1 10 11 -5 -6 -3 -4 -2
right_child=2 3 5 7 8 -7 -8 -9 -10 -11 -12 -13
leaf_value=-0.011793919593290568 0.0021348414714024823 -0.0051865109719642219 0.0084491855582446915 -0.0015983014488683165 -0.0090468389513980903 0.012870605529699111 0.0056261638414800454 -0.00012642252050831291 -0.0069540832483966043 -0.0034816132248802617 0.010359779232985353 0.003350727246462844
leaf_weight=61 35 29 28 41 33 53 40 62 36 35 29 26
leaf_count=61 35 29 28 41 33 53 40 62 36 35 29 26
internal_value=-1.37684e-05 -0.00547642 0.00766854 -0.00209756 -0.00979939 0.0111387 0.0038647 -0.000723968 -0.00799267 -0.00428347 0.00947155 0.00267868
internal_weight=508 297 211 167 130 110 101 103 69 64 57 61
internal_count=508 297 211 167 130 110 101 103 69 64 57 61
is_linear=0
shrinkage=0.01


Tree=15
num_leaves=14
num_cat=0
split_feature=0 0 0 0 0 0 0 0 0 0 0 0 0
split_gain=225.642 39.2211 31.6112 5.19646 4.54833 2.98582 2.09672 0.500861 0.493536 0.488715 0.323538 0.26107 0.178699
threshold=0.2174191940952683 -0.88112054074745461 0.98899756713256881 -0.47096852047314053 -1.2847583009343924 1.4356885974030169 0.62138781023862977 -0.67196650442331407 -1.0831613819356221 -0.2224234866402317 1.2025710670352463 0.42371460008654255 0.77159664629001945
decision_type=2 2 2 2 2 2 2 2 2 2 2 2 2
left_child=1 4 6 7 -1 10 11 -3 -6 -5 -4 -2 -8
right_child=2 3 5 9 8 -7 12 -9 -10 -11 -12 -13 -14
leaf_value=-0.011880092044939868 0.0014008457940225757 -0.0053012025356292715 0.0081287701309673364 -0.0016876202707692067 -0.009013332143351805 0.012905335496712435 0.0041845776353563588 -0.0034756798962111111 -0.0070257303726916397 -0.00017663004377482138 0.010271819775463431 0.0028521526868070537 0.0059893984784764702
leaf_weight=59 24 38 25 39 40 54 18 37 39 51 37 40 24
leaf_count=59 24 38 25 39 40 54 18 37 39 51 37 40 24
internal_value=-0.000173191 -0.00578511 0.00748013 -0.00248184 -0.00971813 0.011088 0.00350904 -0.00442555 -0.00806496 -0.000844769 0.00945268 0.00232955 0.0052631
internal_weight=525 303 222 165 138 116 106 75 79 90 62 64 42
internal_count=525 303 222 165 138 116 106 75 79 90 62 64 42
is_linear=0
shrinkage=0.01


Tree=16
num_leaves=14
num_cat=0
split_feature=0 0 0 0 0 0 0 0 0 0 0 0 0
split_gain=221.19 38.442 30.982 5.09478 4.45553 2.92745 2.05492 0.54959 0.482167 0.415897 0.255421 0.174094 0.139014
threshold=0.2174191940952683 -0.88112054074745461 0.98899756713256881 -0.48279800228793096 -1.2847583009343924 1.3670036706277777 0.62138781023862977 -0.24610271888690499 -1.0831613819356221 -0.67196650442331407 0.42371460008654255 0.77159664629001945 1.1723319767162603
decision_type=2 2 2 2 2 2 2 2 2 2 2 2 2
left_child=1 4 6 9 -1 12 10 -5 -6 -3 -2 -8 -4
right_child=2 3 5 7 8 -7 11 -9 -10 -11 -12 -13 -14
leaf_value=-0.011761692432132929 0.0013869531120150541 -0.0052484679502966518 0.0076891213458972979 -0.0018410093645735454 -0.0089236470656608464 0.012488567257224586 0.0041431917397530531 -0.00024673813098902381 -0.0069558315344002775 -0.0035119000390956274 0.0028237731287728495 0.0059299996913957211 0.0097051537594600029
leaf_weight=59 24 38 18 37 40 64 18 56 39 34 40 24 34
leaf_count=59 24 38 18 37 40 64 18 56 39 34 40 24 34
internal_value=-0.000171412 -0.00572771 0.00740601 -0.00245733 -0.0096215 0.0109778 0.0034745 -0.000894337 -0.00798484 -0.00445427 0.00230654 0.00521119 0.00905859
internal_weight=525 303 222 165 138 116 106 93 79 72 64 42 52
internal_count=525 303 222 165 138 116 106 93 79 72 64 42 52
is_linear=0
shrinkage=0.01


Tree=17
num_leaves=14
num_cat=0
split_feature=0 0 0 0 0 0 0 0 0 0 0 0 0
split_gain=216.826 37.6783 30.365 4.9936 4.36498 2.8733 2.01395 0.479057 0.46993 0.41886 0.306544 0.249941 0.169592
threshold=0.2174191940952683 -0.88112054074745461 0.98899756713256881 -0.47096852047314053 -1.271333974524701 1.4356885974030169 0.62138781023862977 -0.67196650442331407 -0.2224234866402317 -1.0831613819356221 1.2025710670352463 0.43723684682024971 0.77159664629001945
decision_type=2 2 2 2 2 2 2 2 2 2 2 2 2
left_child=1 4 6 7 -1 10 11 -3 -5 -6 -4 -2 -8
right_child=2 3 5 8 9 -7 12 -9 -10 -11 -12 -13 -14
leaf_value=-0.011582561824835984 0.0014553841510239771 -0.0051962580106645348 0.0079662461697109152 -0.0016545474704126922 -0.0087869408617469013 0.012652334036422392 0.0041022150529609934 -0.0034075272563965087 -0.00017241290290257894 -0.0068866283066418704 0.010065641829403497 0.0028502988983546535 0.0058711897587973225
leaf_weight=61 27 38 25 39 38 54 18 37 51 39 37 37 24
leaf_count=61 27 38 25 39 38 54 18 37 51 39 37 37 24
internal_value=-0.000169658 -0.00567089 0.00733262 -0.00243307 -0.00952583 0.0108687 0.00344031 -0.00433852 -0.000828002 -0.00785773 0.00926353 0.00228376 0.00515979
internal_weight=525 303 222 165 138 116 106 75 90 77 62 64 42
internal_count=525 303 222 165 138 116 106 75 90 77 62 64 42
is_linear=0
shrinkage=0.01


Tree=18
num_leaves=14
num_cat=0
split_feature=0 0 0 0 0 0 0 0 0 0 0 0 0
split_gain=212.548 36.9298 29.7605 4.89601 4.27822 2.81339 1.97379 0.528316 0.459471 0.397402 0.300761 0.245689 0.165188
threshold=0.2174191940952683 -0.88112054074745461 0.98899756713256881 -0.48279800228793096 -1.2847583009343924 1.4356885974030169 0.62138781023862977 -0.24610271888690499 -1.0831613819356221 -0.67196650442331407 1.1723319767162603 0.4051202392124939 0.77159664629001945
decision_type=2 2 2 2 2 2 2 2 2 2 2 2 2
left_child=1 4 6 9 -1 10 11 -5 -6 -3 -4 -2 -8
right_child=2 3 5 7 8 -7 12 -9 -10 -11 -12 -13 -14
leaf_value=-0.011529038488059432 0.0012276911027360672 -0.0051445676456571242 0.0075342882269031413 -0.0018048279972807052 -0.0087460316146784154 0.012526277008971605 0.0040616437432530166 -0.00024124291350939093 -0.0068181131476042212 -0.0034431103534168666 0.0097817059070276456 0.0027006933072843166 0.005812962806421863
leaf_weight=59 20 38 18 37 40 54 18 56 39 34 44 44 24
leaf_count=59 20 38 18 37 40 54 18 56 39 34 44 44 24
internal_value=-0.000167914 -0.00561462 0.00725997 -0.00240905 -0.00943111 0.0107608 0.00340646 -0.000876582 -0.00782652 -0.00436672 0.00917163 0.00226122 0.0051089
internal_weight=525 303 222 165 138 116 106 93 79 72 62 64 42
internal_count=525 303 222 165 138 116 106 93 79 72 62 64 42
is_linear=0
shrinkage=0.01


Tree=19
num_leaves=14
num_cat=0
split_feature=0 0 0 0 0 0 0 0 0 0 0 0 0
split_gain=208.355 36.1961 29.168 4.79872 4.19087 2.75798 1.93443 0.517925 0.448824 0.388661 0.240476 0.160883 0.125594
threshold=0.2174191940952683 -0.88112054074745461 0.98899756713256881 -0.48279800228793096 -1.2847583009343924 1.3670036706277777 0.62138781023862977 -0.23933737839647654 -1.0831613819356221 -0.67196650442331407 0.42371460008654255 0.77159664629001945 1.1723319767162603
decision_type=2 2 2 2 2 2 2 2 2 2 2 2 2
left_child=1 4 6 9 -1 12 10 -5 -6 -3 -2 -8 -4
right_child=2 3 5 7 8 -7 11 -9 -10 -11 -12 -13 -14
leaf_value=-0.011414137486670469 0.0013441544648044364 -0.005093391175669525 0.00745977351298699 -0.0017665887674736102 -0.0086590064165010961 0.01212137230460146 0.0040214736514039093 -0.00022483477665894273 -0.0067502798535385902 -0.0034088806781852454 0.0027414831934283626 0.0057553136003904107 0.0094156540869272231
leaf_weight=59 24 38 18 38 40 64 18 55 39 34 40 24 34
leaf_count=59 24 38 18 38 40 64 18 55 39 34 40 24 34
internal_value=-0.000166194 -0.00555892 0.00718803 -0.00238527 -0.00933734 0.0106538 0.00337293 -0.000867967 -0.00774878 -0.00432342 0.00223888 0.00505852 0.00878895
internal_weight=525 303 222 165 138 116 106 93 79 72 64 42 52
internal_count=525 303 222 165 138 116 106 93 79 72 64 42 52
is_linear=0
shrinkage=0.01


Tree=20
num_leaves=13
num_cat=0
split_feature=0 0 0 0 0 0 0 0 0 0 0 0
split_gain=191.487 36.7995 22.7543 4.56198 4.24698 2.06984 1.93181 0.506958 0.336485 0.315208 0.171745 0.166439
threshold=0.34425646119727665 -0.81368924873664461 1.0798694768560921 -1.2159343671737497 -0.37292925165080365 0.72941896141031026 1.479208884683505 -0.58585298469504132 -1.0175427505077759 -0.092168896230303957 0.53693719774365578 -1.435614965793766
decision_type=2 2 2 2 2 2 2 2 2 2 2 2
left_child=1 3 5 11 7 10 -4 -3 -5 -6 -2 -1
right_child=2 4 6 8 9 -7 -8 -9 -10 -11 -12 -13
leaf_value=-0.012021665470489603 0.0021505372492682858 -0.0043860730105101777 0.0094451849527292311 -0.0080809516860888553 -0.0009773844433948397 0.0059122972174357339 0.012447509440949292 -0.0025816798775670042 -0.006208923296494917 0.0002036721959907924 0.0034657007273826896 -0.010012455042104542
leaf_weight=30 30 42 57 31 43 37 49 33 35 45 26 32
leaf_count=30 30 42 57 31 43 37 49 33 35 45 26 32
internal_value=0.000135477 -0.00503076 0.00769261 -0.00904162 -0.00186778 0.00405241 0.0108633 -0.00361442 -0.00712507 -0.000363005 0.0027891 -0.0110363
internal_weight=490 291 199 128 163 93 106 75 66 88 56 62
internal_count=490 291 199 128 163 93 106 75 66 88 56 62
is_linear=0
shrinkage=0.01


Tree=21
num_leaves=13
num_cat=0
split_feature=0 0 0 0 0 0 0 0 0 0 0 0
split_gain=187.707 36.0749 22.3002 4.88894 3.79255 2.02776 1.89147 0.449687 0.428892 0.2826 0.209167 0.167813
threshold=0.34425646119727665 -0.80357128371036934 1.0798694768560921 -1.1823402270077208 -0.36109429867988851 0.72941896141031026 1.479208884683505 -0.56220610828023709 -1.3853643094985026 -0.038031278212457283 -0.95693258595993591 0.53693719774365578
decision_type=2 2 2 2 2 2 2 2 2 2 2 2
left_child=1 3 5 8 7 11 -4 -3 -1 -6 -5 -2
right_child=2 4 6 10 9 -7 -8 -9 -10 -11 -12 -13
leaf_value=-0.011529070227234451 0.0021291743031400722 -0.0041933040698962426 0.0093510634978334391 -0.0074069229615005569 -0.00077019416689322882 0.0058534920439925241 0.012323540672054134 -0.0024674146362097865 -0.009246071414912448 0.0003992254958887185 -0.0057277074280907125 0.0034313082103510852
leaf_weight=43 30 40 57 35 54 37 49 33 27 32 27 26
leaf_count=43 30 40 57 35 54 37 49 33 27 32 27 26
internal_value=0.000134038 -0.00498092 0.00761622 -0.00884316 -0.00176117 0.00401235 0.0107552 -0.00343564 -0.0106916 -0.000323544 -0.0067125 0.00276159
internal_weight=490 291 199 132 159 93 106 73 70 86 62 56
internal_count=490 291 199 132 159 93 106 73 70 86 62 56
is_linear=0
shrinkage=0.01


Tree=22
num_leaves=13
num_cat=0
split_feature=0 0 0 0 0 0 0 0 0 0 0 0
split_gain=184.001 34.7998 22.4988 4.6937 3.63701 2.0748 1.81195 0.436601 0.422719 0.33044 0.191987 0.112188
threshold=0.31212887099048214 -0.867637394306079 1.0680947242483196 -0.43716649596880275 -1.271333974524701 1.452430742037216 0.72941896141031026 -0.65339702736996685 -0.17167820261518188 -1.0545639605791659 0.53693719774365578 1.249587165370561
decision_type=2 2 2 2 2 2 2 2 2 2 2 2
left_child=1 4 6 7 -1 11 10 -3 -5 -6 -2 -4
right_child=2 3 5 8 9 -7 -8 -9 -10 -11 -12 -13
leaf_value=-0.011077449488903764 0.0020565087084444414 -0.0046913882452457104 0.0079070955085324812 -0.0013495839318754721 -0.0082971440490923424 0.012111355842758411 0.0056672663873399204 -0.0029732434922143031 0 -0.0064140770265034251 0.0033972569754105492 0.0097398770871487527
leaf_weight=54 32 40 22 39 34 52 34 34 56 32 26 35
leaf_count=54 32 40 22 39 34 52 34 34 56 32 26 35
internal_value=0.000132625 -0.00497451 0.00747834 -0.00203863 -0.00909063 0.0105549 0.00380746 -0.00392559 -0.000553124 -0.00742138 0.00268432 0.00908009
internal_weight=490 289 201 169 120 109 92 74 95 66 58 57
internal_count=490 289 201 169 120 109 92 74 95 66 58 57
is_linear=0
shrinkage=0.01


Tree=23
num_leaves=13
num_cat=0
split_feature=0 0 0 0 0 0 0 0 0 0 0 0
split_gain=180.374 34.6712 21.4222 4.69656 3.64572 1.945 1.81451 0.412024 0.390883 0.298978 0.197917 0.160608
threshold=0.34425646119727665 -0.80357128371036934 1.0798694768560921 -1.1823402270077208 -0.37292925165080365 0.72941896141031026 1.479208884683505 -1.3853643094985026 -0.58585298469504132 -0.092168896230303957 -0.95693258595993591 0.54369473147877601
decision_type=2 2 2 2 2 2 2 2 2 2 2 2
left_child=1 3 5 7 8 11 -4 -1 -3 -6 -5 -2
right_child=2 4 6 10 9 -7 -8 -9 -10 -11 -12 -13
leaf_value=-0.011304051903662857 0.002127914656393276 -0.0041525095529581233 0.0091656658449373041 -0.0072598690234801982 -0.0009498317074030638 0.0057370976639050299 0.012080184720396027 -0.009060685257701314 -0.0025053015701382991 0.00020012330756300189 -0.0056147825498791305 0.0034153451333361231
leaf_weight=43 32 38 57 35 43 37 49 27 33 45 27 24
leaf_count=43 32 38 57 35 43 37 49 27 33 45 27 24
internal_value=0.000131308 -0.00488271 0.00746592 -0.0086691 -0.00172606 0.00393337 0.0105426 -0.0104813 -0.00341014 -0.000351328 -0.0065799 0.00270765
internal_weight=490 291 199 132 159 93 106 70 71 88 62 56
internal_count=490 291 199 132 159 93 106 70 71 88 62 56
is_linear=0
shrinkage=0.01


Tree=24
num_leaves=13
num_cat=0
split_feature=0 0 0 0 0 0 0 0 0 0 0 0
split_gain=176.814 33.4398 21.6154 4.51079 3.49291 1.98974 1.73693 0.418539 0.406771 0.246912 0.183521 0.110586
threshold=0.31212887099048214 -0.867637394306079 1.0680947242483196 -0.43716649596880275 -1.2579073323587697 1.452430742037216 0.72941896141031026 -0.65339702736996685 -0.17167820261518188 -1.0326894407193745 0.53693719774365578 1.249587165370561
decision_type=2 2 2 2 2 2 2 2 2 2 2 2
left_child=1 4 6 7 -1 11 10 -3 -5 -6 -2 -4
right_child=2 3 5 8 9 -7 -8 -9 -10 -11 -12 -13
leaf_value=-0.010762867669125535 0.0020161217534393995 -0.0045990242353126176 0.0077425389783876428 -0.0013231358779784369 -0.0079944243883512105 0.011872042691570588 0.0055538896039912565 -0.0029139619455700034 0 -0.0062283699757215991 0.0033306337699635343 0.0095518958907235742
leaf_weight=57 32 40 22 39 33 52 34 34 56 30 26 35
leaf_count=57 32 40 22 39 33 52 34 34 56 30 26 35
internal_value=0.000129921 -0.00487645 0.0073308 -0.00199835 -0.00891138 0.0103464 0.00373237 -0.00384822 -0.00054184 -0.00719164 0.00263199 0.00890054
internal_weight=490 289 201 169 120 109 92 74 95 63 58 57
internal_count=490 289 201 169 120 109 92 74 95 63 58 57
is_linear=0
shrinkage=0.01


Tree=25
num_leaves=14
num_cat=0
split_feature=0 0 0 0 0 0 0 0 0 0 0 0 0
split_gain=171.124 32.8772 20.8003 4.45914 3.34751 2.31988 1.65216 0.495709 0.358141 0.30564 0.251709 0.176811 0.137583
threshold=0.31212887099048214 -0.80357128371036934 1.0512710043471125 -1.1638580505715448 -0.37292925165080365 1.4356885974030169 0.72941896141031026 -1.3853643094985026 -0.58585298469504132 -0.075251105640459878 0.54369473147877601 1.249587165370561 -0.94514314766512597
decision_type=2 2 2 2 2 2 2 2 2 2 2 2 2
left_child=1 3 6 7 8 11 10 -1 -3 -6 -2 -4 -5
right_child=2 4 5 12 9 -7 -8 -9 -10 -11 -12 -13 -14
leaf_value=-0.011033370865201486 0.0020032764310863884 -0.0040912848381706359 0.0076928142439096408 -0.0068966756682646889 -0.00092906708043301485 0.011781545703004047 0.0054236825559679305 -0.0088397752018699854 -0.0025092188590629533 0.00022861802675499941 0.0034441688021316255 0.0094919404920363274 -0.0053627698289023511
leaf_weight=41 35 36 31 34 51 49 36 34 35 39 27 30 25
leaf_count=41 35 36 31 34 51 49 36 34 35 39 27 30 25
internal_value=0.000125039 -0.00476944 0.00706945 -0.008427 -0.00171238 0.0100574 0.00369179 -0.0100784 -0.00333468 -0.000416922 0.0026559 0.0086221 -0.00628392
internal_weight=503 295 208 134 161 110 98 75 71 90 62 61 59
internal_count=503 295 208 134 161 110 98 75 71 90 62 61 59
is_linear=0
shrinkage=0.01


Tree=26
num_leaves=14
num_cat=0
split_feature=0 0 0 0 0 0 0 0 0 0 0 0 0
split_gain=167.749 32.2273 20.3897 4.3689 3.28298 2.06449 1.8543 0.483832 0.400494 0.266869 0.24623 0.133602 0.118164
threshold=0.31212887099048214 -0.80357128371036934 1.0680947242483196 -1.1638580505715448 -0.36109429867988851 1.452430742037216 0.72941896141031026 -1.3853643094985026 -0.58585298469504132 -0.019421129057762724 0.54369473147877601 -0.93503683004132354 1.249587165370561
decision_type=2 2 2 2 2 2 2 2 2 2 2 2 2
left_child=1 3 6 7 8 12 10 -1 -3 -6 -2 -5 -4
right_child=2 4 5 11 9 -7 -8 -9 -10 -11 -12 -13 -14
leaf_value=-0.010923573177995033 0.0019833574816584586 -0.0040505980078686665 0.0076985199062536789 -0.006806194975294849 -0.00075048012338024936 0.011696057156408476 0.0054825905163069155 -0.0087518944273218078 -0.0024335554234332438 0.00041568144289809704 0.0034099803667734653 -0.0052786976690134737 0.0094210941134355002
leaf_weight=41 35 36 28 35 59 48 39 34 38 28 27 24 31
leaf_count=41 35 36 28 35 59 48 39 34 38 28 27 24 31
internal_value=0.000123771 -0.00472218 0.00699937 -0.00834343 -0.00169541 0.0100446 0.00374983 -0.00997827 -0.0032425 -0.000363603 0.00262967 -0.00622166 0.00864926
internal_weight=503 295 208 134 161 107 101 75 74 87 62 59 59
internal_count=503 295 208 134 161 107 101 75 74 87 62 59 59
is_linear=0
shrinkage=0.01


Tree=27
num_leaves=14
num_cat=0
split_feature=0 0 0 0 0 0 0 0 0 0 0 0 0
split_gain=164.441 31.5904 19.9866 4.28047 3.21827 2.22294 1.58505 0.472212 0.392363 0.261767 0.196634 0.165699 0.129881
threshold=0.31212887099048214 -0.80357128371036934 1.0512710043471125 -1.1638580505715448 -0.36109429867988851 1.4356885974030169 0.69229242176402872 -1.3853643094985026 -0.56220610828023709 0.038101208170679392 0.53693719774365578 1.249587165370561 -0.94514314766512597
decision_type=2 2 2 2 2 2 2 2 2 2 2 2 2
left_child=1 3 6 7 8 11 10 -1 -3 -6 -2 -4 -5
right_child=2 4 5 12 9 -7 -8 -9 -10 -11 -12 -13 -14
leaf_value=-0.010814867311889685 0.0019437927713519649 -0.0039676298006042759 0.0075420181032938832 -0.0067604483115045631 -0.00068549774624293027 0.011548186928276123 0.0052085589982417161 -0.0086648873488108305 -0.0023659403589219676 0.00055471347960609906 0.0032820874121454032 0.0093040625859570035 -0.0052565935206791712
leaf_weight=41 34 38 31 34 65 49 39 34 36 22 25 30 25
leaf_count=41 34 38 31 34 65 49 39 34 36 22 25 30 25
internal_value=0.000122517 -0.00467539 0.00693 -0.00826069 -0.0016786 0.00985902 0.00361876 -0.00987914 -0.00321038 -0.00035986 0.00253693 0.00845251 -0.00616003
internal_weight=503 295 208 134 161 110 98 75 74 87 59 61 59
internal_count=503 295 208 134 161 110 98 75 74 87 59 61 59
is_linear=0
shrinkage=0.01


Tree=28
num_leaves=14
num_cat=0
split_feature=0 0 0 0 0 0 0 0 0 0 0 0 0
split_gain=161.198 30.968 19.5902 4.37892 3.00307 1.97923 1.78099 0.490629 0.342818 0.257629 0.235195 0.143076 0.134016
threshold=0.31212887099048214 -0.7850195165115158 1.0680947242483196 -1.1420094487592707 -0.36109429867988851 1.479208884683505 0.72941896141031026 -1.3853643094985026 -0.56220610828023709 -0.048182205783674381 0.54369473147877601 1.249587165370561 -0.91819084333700618
decision_type=2 2 2 2 2 2 2 2 2 2 2 2 2
left_child=1 3 6 7 8 11 10 -1 -3 -6 -2 -4 -5
right_child=2 4 5 12 9 -7 -8 -9 -10 -11 -12 -13 -14
leaf_value=-0.010707244138115817 0.0019439289138906382 -0.0038741590140274214 0.0075471953381883337 -0.0066145367310805753 -0.00075590505251673973 0.011528210495457504 0.005374438808280594 -0.0085602401908148416 -0.0023424116517957402 0.00037024806469481509 0.003341426917296999 0.0092801289457872683 -0.0051235286465712961
leaf_weight=41 35 36 28 35 57 46 39 35 36 30 27 33 25
leaf_count=41 35 36 28 35 57 46 39 35 36 30 27 33 25
internal_value=0.000121276 -0.00462906 0.00686131 -0.00813072 -0.00162121 0.0098464 0.0036758 -0.00975668 -0.00313075 -0.00035615 0.00257738 0.00852829 -0.00602898
internal_weight=503 295 208 136 159 107 101 76 72 87 62 61 60
internal_count=503 295 208 136 159 107 101 76 72 87 62 61 60
is_linear=0
shrinkage=0.01


Tree=29
num_leaves=14
num_cat=0
split_feature=0 0 0 0 0 0 0 0 0 0 0 0 0
split_gain=158.019 30.3558 19.2047 4.29034 2.94389 2.13077 1.52088 0.478931 0.335417 0.252611 0.230057 0.154892 0.130125
threshold=0.31212887099048214 -0.7850195165115158 1.0512710043471125 -1.1420094487592707 -0.36109429867988851 1.4356885974030169 0.72941896141031026 -1.3853643094985026 -0.56220610828023709 0.038101208170679392 0.54369473147877601 1.249587165370561 -0.91819084333700618
decision_type=2 2 2 2 2 2 2 2 2 2 2 2 2
left_child=1 3 6 7 8 11 10 -1 -3 -6 -2 -4 -5
right_child=2 4 5 12 9 -7 -8 -9 -10 -11 -12 -13 -14
leaf_value=-0.010600691431934393 0.0019246000800789756 -0.0038356314525419834 0.0073941824222222355 -0.0065487673743204631 -0.0006725097104529937 0.011319731616876959 0.0052099768858588193 -0.0084751241654157632 -0.0023191169793434561 0.00054554719823467126 0.0033082584445090859 0.0091194514091441168 -0.0050727000761599771
leaf_weight=41 35 36 31 35 65 49 36 35 36 22 27 30 25
leaf_count=41 35 36 31 35 65 49 36 35 36 22 27 30 25
internal_value=0.000120049 -0.0045832 0.00679332 -0.00805008 -0.00160514 0.00966458 0.00354717 -0.00965975 -0.00309975 -0.000352483 0.00255194 0.00828604 -0.00596925
internal_weight=503 295 208 136 159 110 98 76 72 87 62 61 60
internal_count=503 295 208 136 159 110 98 76 72 87 62 61 60
is_linear=0
shrinkage=0.01


Tree=30
num_leaves=13
num_cat=0
split_feature=0 0 0 0 0 0 0 0 0 0 0 0
split_gain=159.256 30.8376 20.0262 3.57966 3.0945 1.93775 1.71646 0.396963 0.386799 0.225548 0.196511 0.182218
threshold=0.31212887099048214 -0.867637394306079 1.0680947242483196 -0.43716649596880275 -1.2344052098315019 0.72941896141031026 1.479208884683505 -0.67196650442331407 -0.19197691728288566 -1.0326894407193745 0.51328392544116019 -1.4707684488455863
decision_type=2 2 2 2 2 2 2 2 2 2 2 2
left_child=1 4 5 7 11 10 -4 -3 -5 -6 -2 -1
right_child=2 3 6 8 9 -7 -8 -9 -10 -11 -12 -13
leaf_value=-0.011042104568190247 0.00176104442812271 -0.0045512501018888816 0.0084836546833219079 -0.0013041250221431256 -0.0074944854412019616 0.0052825660239997786 0.01130754532752099 -0.0028499755566626524 0 -0.0058257883639069065 0.0030223303126252214 -0.0091249756575847146
leaf_weight=26 32 27 61 39 32 40 46 45 56 32 32 39
leaf_count=26 32 27 61 39 32 40 46 45 56 32 32 39
internal_value=4.8984e-05 -0.00467977 0.00668557 -0.00183153 -0.00835074 0.00353535 0.00972582 -0.00351264 -0.000542222 -0.00669646 0.00241471 -0.00993868
internal_weight=507 296 211 167 129 104 107 72 95 64 64 65
internal_count=507 296 211 167 129 104 107 72 95 64 64 65
is_linear=0
shrinkage=0.01


Tree=31
num_leaves=14
num_cat=0
split_feature=0 0 0 0 0 0 0 0 0 0 0 0 0
split_gain=156.114 30.2277 19.6314 3.5087 3.03165 1.86077 1.67865 0.388481 0.379087 0.219769 0.176812 0.174023 0.152207
threshold=0.31212887099048214 -0.867637394306079 1.0512710043471125 -0.43716649596880275 -1.2344052098315019 1.479208884683505 0.69229242176402872 -0.67196650442331407 -0.19197691728288566 -1.0326894407193745 -1.4707684488455863 1.2865091380607236 0.51328392544116019
decision_type=2 2 2 2 2 2 2 2 2 2 2 2 2
left_child=1 4 6 7 10 11 12 -3 -5 -6 -1 -4 -2
right_child=2 3 5 8 9 -7 -8 -9 -10 -11 -12 -13 -14
leaf_value=-0.010932526297241675 0.0017435433729464963 -0.0045060723669388724 0.0073253203622282367 -0.0012911503226021115 -0.0074200060685969274 0.011194958913893927 0.005023972258638979 -0.0028216019160715879 0 -0.0057678922066777384 -0.0090341917318957198 0.009054709334265101 0.0029121178756021477
leaf_weight=26 32 27 29 39 32 46 40 45 56 32 39 35 29
leaf_count=26 32 27 29 39 32 46 40 45 56 32 39 35 29
internal_value=4.83765e-05 -0.00463348 0.00661918 -0.00181347 -0.00826798 0.00954476 0.00341047 -0.00347786 -0.000536879 -0.00663007 -0.00984007 0.00831192 0.00232314
internal_weight=507 296 211 167 129 110 101 72 95 64 65 64 61
internal_count=507 296 211 167 129 110 101 72 95 64 65 64 61
is_linear=0
shrinkage=0.01


Tree=32
num_leaves=14
num_cat=0
split_feature=0 0 0 0 0 0 0 0 0 0 0 0 0
split_gain=153.037 29.6298 19.2435 3.43913 2.97005 1.93966 1.50525 0.380171 0.371529 0.22261 0.214118 0.171529 0.120955
threshold=0.31212887099048214 -0.867637394306079 1.0209804549984491 -0.43716649596880275 -1.2344052098315019 1.479208884683505 0.65009120663583209 -0.67196650442331407 -0.19197691728288566 1.249587165370561 -1.0326894407193745 -1.4707684488455863 0.8255636971228516
decision_type=2 2 2 2 2 2 2 2 2 2 2 2 2
left_child=1 4 6 7 11 9 -2 -3 -5 -4 -6 -1 -8
right_child=2 3 5 8 10 -7 12 -9 -10 -11 -12 -13 -14
leaf_value=-0.010824035196813917 0.002166285216268422 -0.0044613429816330189 0.0071367586802129866 -0.0012783046891646727 -0.0073462668487003857 0.011083494125506577 0.0037955767288804063 -0.0027935107381997911 0 0.0089173660066819947 -0.0057105716415073553 -0.0089443105428802724 0.0053367397946024698
leaf_weight=26 55 27 29 39 32 46 19 45 56 37 32 39 25
leaf_count=26 55 27 29 39 32 46 19 45 56 37 32 39 25
internal_value=4.78257e-05 -0.00458764 0.00655358 -0.00179559 -0.00818604 0.00939552 0.00331593 -0.00344342 -0.00053159 0.00817401 -0.00656433 -0.00974243 0.00471405
internal_weight=507 296 211 167 129 112 99 72 95 66 64 65 44
internal_count=507 296 211 167 129 112 99 72 95 66 64 65 44
is_linear=0
shrinkage=0.01


Tree=33
num_leaves=13
num_cat=0
split_feature=0 0 0 0 0 0 0 0 0 0 0 0
split_gain=150.029 27.9002 20.1143 3.10665 2.9098 2.02049 1.53532 0.344027 0.329809 0.245298 0.135593 0.128964
threshold=0.23433336879664601 -0.867637394306079 0.98899756713256881 -0.45575821770035058 -1.2579073323587697 1.3670036706277777 0.62138781023862977 -0.21058333759672396 -0.67196650442331407 -1.0326894407193745 0.43723684682024971 -1.4707684488455863
decision_type=2 2 2 2 2 2 2 2 2 2 2 2
left_child=1 4 6 8 11 -4 10 -5 -3 -6 -2 -1
right_child=2 3 5 7 9 -7 -8 -9 -10 -11 -12 -13
leaf_value=-0.010716621757463645 0.0012504703038424816 -0.0044170575413633797 0.0076779040671828992 -0.0013524407367059841 -0.0073213750925677562 0.010567172226173427 0.004565094458284201 -0.00010241097383419073 -0.0028181171410174167 -0.0056538206338882435 0.0024117116747102187 -0.0088961466730281859
leaf_weight=26 21 27 53 40 34 61 43 53 42 32 38 37
leaf_count=26 21 27 53 40 34 61 43 53 42 32 38 37
internal_value=4.72866e-05 -0.00463613 0.00635997 -0.00186119 -0.00810492 0.00924847 0.00311007 -0.000652536 -0.0034692 -0.00654749 0.0020209 -0.00969481
internal_weight=507 291 216 162 129 114 102 93 69 66 59 63
internal_count=507 291 216 162 129 114 102 93 69 66 59 63
is_linear=0
shrinkage=0.01


Tree=34
num_leaves=15
num_cat=0
split_feature=0 0 0 0 0 0 0 0 0 0 0 0 0 0
split_gain=147.07 27.348 19.7131 3.04502 2.85233 1.98616 1.50404 0.365512 0.293828 0.267791 0.233488 0.132494 0.131459 0.100697
threshold=0.23433336879664601 -0.867637394306079 0.98899756713256881 -0.43716649596880275 -1.2159343671737497 1.479208884683505 0.62138781023862977 -0.65339702736996685 -0.21058333759672396 1.249587165370561 -1.4707684488455863 0.43723684682024971 -1.0175427505077759 0.8255636971228516
decision_type=2 2 2 2 2 2 2 2 2 2 2 2 2 2
left_child=1 4 6 7 10 9 11 -3 -5 -4 -1 -2 -6 -8
right_child=2 3 5 8 12 -7 13 -9 -10 -11 -12 -13 -14 -15
leaf_value=-0.010610273102767596 0.0012380835730231034 -0.0042145398348928933 0.0069362074977312328 -0.0012844799130514103 -0.0070440687564824588 0.01086792470314802 0.0036937392849733337 -0.0026228076478048245 -0.00010139070665763597 0.0087406551229056492 -0.0086916815406746332 0.0023877208910063302 -0.0055489776229226831 0.0051567048964829285
leaf_weight=26 21 33 31 37 30 46 20 39 53 37 43 38 30 23
leaf_count=26 21 33 31 37 30 46 20 39 53 37 43 38 30 23
internal_value=4.66765e-05 -0.00459029 0.0062968 -0.00184287 -0.00802461 0.00915639 0.00307933 -0.00337586 -0.000600628 0.00795546 -0.00945766 0.00200098 -0.00633405 0.00451965
internal_weight=507 291 216 162 129 114 102 72 90 68 69 59 60 43
internal_count=507 291 216 162 129 114 102 72 90 68 69 59 60 43
is_linear=0
shrinkage=0.01


Tree=35
num_leaves=13
num_cat=0
split_feature=0 0 0 0 0 0 0 0 0 0 0 0
split_gain=143.618 26.7534 16.6772 3.50147 2.4536 1.483 1.46238 0.394952 0.279899 0.189844 0.184671 0.178135
threshold=0.34425646119727665 -0.7850195165115158 1.0798694768560921 -1.1823402270077208 -0.33235014202649099 0.74966577264009027 1.4976138199028231 -1.3484914757391797 -0.54700290347453173 -0.98219094577002763 0.038101208170679392 0.57241141137493612
decision_type=2 2 2 2 2 2 2 2 2 2 2 2
left_child=1 3 5 7 8 11 -4 -1 -3 -5 -6 -2
right_child=2 4 6 9 10 -7 -8 -9 -10 -11 -12 -13
leaf_value=-0.0099767898529478632 0.0019001189005967661 -0.0034163203129271191 0.0081705695409866764 -0.0066101410077965776 -0.00059563251038969949 0.0052095710065884464 0.010808081521397141 -0.0079305721857608896 -0.0020395342960774178 -0.0051269277996121186 0.00047175108177674148 0.0032153283126719369
leaf_weight=41 36 42 62 32 60 31 45 31 33 36 21 22
leaf_count=41 36 42 62 32 60 31 45 31 33 36 21 22
internal_value=5.65174e-06 -0.00438777 0.00664341 -0.00756005 -0.00152841 0.00341596 0.00930723 -0.00913404 -0.00283087 -0.00585691 -0.000306108 0.00242551
internal_weight=492 296 196 140 156 89 107 72 75 68 81 58
internal_count=492 296 196 140 156 89 107 72 75 68 81 58
is_linear=0
shrinkage=0.01


Tree=36
num_leaves=13
num_cat=0
split_feature=0 0 0 0 0 0 0 0 0 0 0 0
split_gain=140.784 26.2246 16.3439 3.43059 2.40524 1.45278 1.43195 0.385238 0.274062 0.185277 0.182305 0.174419
threshold=0.34425646119727665 -0.7850195165115158 1.0798694768560921 -1.1823402270077208 -0.33235014202649099 0.74966577264009027 1.479208884683505 -1.3484914757391797 -0.55544927594708915 -0.96703679175313406 -0.092168896230303957 0.54369473147877601
decision_type=2 2 2 2 2 2 2 2 2 2 2 2
left_child=1 3 5 7 8 11 -4 -1 -3 -5 -6 -2
right_child=2 4 6 9 10 -7 -8 -9 -10 -11 -12 -13
leaf_value=-0.0098775058029924763 0.0018442245455164658 -0.0034501500919227202 0.0080464980867613976 -0.0065005749882313234 -0.00079736378347995327 0.0051578092632385397 0.010644197570065319 -0.0078517748453678232 -0.0020961725567617724 -0.0050339392472428879 0.00013409996671178399 0.003128128077619332
leaf_weight=41 34 38 60 34 39 31 47 31 37 34 42 24
leaf_count=41 34 38 60 34 39 31 47 31 37 34 42 24
internal_value=5.53056e-06 -0.00434429 0.00657748 -0.00748509 -0.00151326 0.00338225 0.0092146 -0.00904333 -0.00280284 -0.00579883 -0.000302927 0.0024016
internal_weight=492 296 196 140 156 89 107 72 75 68 81 58
internal_count=492 296 196 140 156 89 107 72 75 68 81 58
is_linear=0
shrinkage=0.01


Tree=37
num_leaves=13
num_cat=0
split_feature=0 0 0 0 0 0 0 0 0 0 0 0
split_gain=138.005 25.7061 16.0259 3.36114 2.35782 1.92308 0.847671 0.37727 0.268484 0.180586 0.179028 0.122929
threshold=0.34425646119727665 -0.7850195165115158 0.98899756713256881 -1.1823402270077208 -0.33235014202649099 1.3602991428060218 0.65009120663583209 -1.398768123023564 -0.54700290347453173 -0.98219094577002763 0.038101208170679392 1.5511237617406366
decision_type=2 2 2 2 2 2 2 2 2 2 2 2
left_child=1 3 6 7 8 -4 -2 -1 -3 -5 -6 -7
right_child=2 4 5 9 10 11 -8 -9 -10 -11 -12 -13
leaf_value=-0.0098820681277141768 0.0020954588616823224 -0.0033492643601521492 0.0072938103158958247 -0.0064798482715713304 -0.0005849981051792338 0.0090841006443200516 0.0042668655758712724 -0.0078929506987333291 -0.0019984264222972364 -0.0050250701548644836 0.0004657497413605803 0.010885648605498399
leaf_weight=37 46 42 51 32 60 30 34 35 33 36 21 35
leaf_count=37 46 42 51 32 60 30 34 35 33 36 21 35
internal_value=5.40756e-06 -0.00430126 0.00651221 -0.00741087 -0.00149827 0.00888948 0.00303911 -0.00895353 -0.00277509 -0.00574133 -0.000299791 0.0100999
internal_weight=492 296 196 140 156 116 80 72 75 68 81 65
internal_count=492 296 196 140 156 116 80 72 75 68 81 65
is_linear=0
shrinkage=0.01


Tree=38
num_leaves=12
num_cat=0
split_feature=0 0 0 0 0 0 0 0 0 0 0
split_gain=135.283 25.198 15.7171 3.29542 2.31136 1.53277 1.27042 0.530723 0.262998 0.176743 0.167421
threshold=0.34425646119727665 -0.7850195165115158 1.1084590364220157 -1.1420094487592707 -0.33235014202649099 0.74966577264009027 1.4976138199028231 -1.3484914757391797 -0.58585298469504132 -0.092168896230303957 0.54369473147877601
decision_type=2 2 2 2 2 2 2 2 2 2 2
left_child=1 3 5 7 8 10 -4 -1 -3 -6 -2
right_child=2 4 6 -5 9 -7 -8 -9 -10 -11 -12
leaf_value=-0.0096828006193475803 0.001805058128652517 -0.0034760042109403268 0.0079877435903612567 -0.0055110519656948014 -0.00078361070258732958 0.0051231951401176212 0.010490118170206524 -0.0076045603714688286 -0.0021378484403635086 0.00013335873656916878 0.0030655565069726675
leaf_weight=41 34 33 60 61 39 33 45 38 42 42 24
leaf_count=41 34 33 60 61 39 33 45 38 42 42 24
internal_value=5.30825e-06 -0.00425865 0.00644763 -0.00733739 -0.00148342 0.0033773 0.0090876 -0.00871749 -0.00274761 -0.000296672 0.00235257
internal_weight=492 296 196 140 156 91 105 79 75 81 58
internal_count=492 296 196 140 156 91 105 79 75 81 58
is_linear=0
shrinkage=0.01


Tree=39
num_leaves=12
num_cat=0
split_feature=0 0 0 0 0 0 0 0 0 0 0
split_gain=132.612 24.6984 15.4077 3.22921 2.26581 2.04928 0.657687 0.51847 0.258251 0.173744 0.150476
threshold=0.34425646119727665 -0.7850195165115158 0.97721174933209665 -1.1420094487592707 -0.33235014202649099 1.3502411909343597 0.60787852577526102 -1.3484914757391797 -0.54700290347453173 -0.048182205783674381 1.5511237617406366
decision_type=2 2 2 2 2 2 2 2 2 2 2
left_child=1 3 6 7 8 -4 -2 -1 -3 -6 -7
right_child=2 4 5 -5 9 10 -8 -9 -10 -11 -12
leaf_value=-0.0095864427089691149 0.0019367598669910893 -0.0032841890612484719 0.0070197011593201141 -0.0054561215911815364 -0.00064487790653189477 0.0088797695962538614 0.0038847225048265406 -0.0075289128868991787 -0.0019573127855378463 0.00030213779940374346 0.010673105384815822
leaf_weight=41 41 42 52 61 52 32 36 38 33 29 35
leaf_count=41 41 42 52 61 52 32 36 38 33 29 35
internal_value=5.23249e-06 -0.0042164 0.00638365 -0.00726448 -0.00146873 0.00864136 0.00286815 -0.00863088 -0.00272042 -0.000293599 0.00986044
internal_weight=492 296 196 140 156 119 77 79 75 81 67
internal_count=492 296 196 140 156 119 77 79 75 81 67
is_linear=0
shrinkage=0.01


Tree=40
num_leaves=12
num_cat=0
split_feature=0 0 0 0 0 0 0 0 0 0 0
split_gain=139.174 24.5154 18.292 3.76431 2.29449 2.17184 0.905029 0.331778 0.312423 0.261145 0.230639
threshold=0.2174191940952683 -0.89460208209288561 0.9485831050706317 -0.49969600399337366 -1.3015352669964446 1.3401818560547862 0.58930148279936934 -0.25625058847380217 -1.1033422892568157 -0.70909862492391074 1.5511237617406366
decision_type=2 2 2 2 2 2 2 2 2 2 2
left_child=1 4 6 9 -1 -4 -2 -5 -6 -3 -7
right_child=2 3 5 7 8 10 -8 -9 -10 -11 -12
leaf_value=-0.0093195864789160417 0.001689850658000228 -0.0042634436199251481 0.0067461723283054375 -0.0015189270907087831 -0.0072239917082693962 0.0087763813491116196 0.0037357796521650419 -0.00023751146634307156 -0.0055727647631866484 -0.0028814337102089139 0.010555111759088256
leaf_weight=54 50 39 49 30 41 42 43 69 36 36 35
leaf_count=54 50 39 49 30 41 42 43 69 36 36 35
internal_value=-3.66183e-05 -0.00440441 0.00604029 -0.00193308 -0.00767137 0.00852468 0.00265253 -0.000638179 -0.00648138 -0.0036228 0.0096231
internal_weight=524 305 219 174 131 126 93 99 77 75 77
internal_count=524 305 219 174 131 126 93 99 77 75 77
is_linear=0
shrinkage=0.01


Tree=41
num_leaves=12
num_cat=0
split_feature=0 0 0 0 0 0 0 0 0 0 0
split_gain=136.427 24.0321 17.929 2.98614 2.85652 2.12752 0.886589 0.376787 0.279918 0.224239 0.171519
threshold=0.2174191940952683 -0.8389803117051754 0.9485831050706317 -0.40504992657056799 -1.1823402270077208 1.3401818560547862 0.58930148279936934 -1.3853643094985026 -0.63989050116340185 1.5511237617406366 -0.12092851629059467
decision_type=2 2 2 2 2 2 2 2 2 2 2
left_child=1 4 6 8 7 -4 -2 -1 -3 -7 -5
right_child=2 3 5 10 -6 9 -8 -9 -10 -11 -12
leaf_value=-0.0093962345340035166 0.001673019478817385 -0.0038062283700530971 0.0066789848339266888 -0.0009046803269855576 -0.0056228266394019524 0.00868903362355526 0.0036985948116139127 -0.0075435828339329072 -0.0024108156282999361 0.010450161018154838 0
leaf_weight=46 50 41 49 44 60 42 43 36 34 35 44
leaf_count=46 50 41 49 44 60 42 43 36 34 35 44
internal_value=-3.62693e-05 -0.00436077 0.00598035 -0.00172934 -0.00736764 0.00844001 0.00262623 -0.00861537 -0.00319503 0.0095275 -0.000464419
internal_weight=524 305 219 163 142 126 93 82 75 77 88
internal_count=524 305 219 163 142 126 93 82 75 77 88
is_linear=0
shrinkage=0.01


Tree=42
num_leaves=13
num_cat=0
split_feature=0 0 0 0 0 0 0 0 0 0 0 0
split_gain=133.737 24.3631 16.6813 3.67313 2.31621 1.55806 1.15732 0.478149 0.227057 0.132147 0.106934 0.104217
threshold=0.2563206416381883 -0.7850195165115158 1.0209804549984491 -1.1420094487592707 -0.33235014202649099 1.3670036706277777 0.65009120663583209 -1.3484914757391797 -0.56220610828023709 -0.048182205783674381 -0.93503683004132354 0.85590964569884098
decision_type=2 2 2 2 2 2 2 2 2 2 2 2
left_child=1 3 6 7 8 -4 -2 -1 -3 -6 -5 -8
right_child=2 4 5 10 9 -7 11 -9 -10 -11 -12 -13
leaf_value=-0.0092428624678433415 0.0018982714711520065 -0.0033396606576380308 0.0070790345594286905 -0.0057473105496289771 -0.00058088408087960612 0.0096186852738970804 0.0035959995892030977 -0.0073280838990086652 -0.0020352038518982644 0.00023280519690609393 -0.0044865535424180236 0.0050930485090142806
leaf_weight=49 54 38 51 39 55 67 28 38 32 29 29 14.999999999999998
leaf_count=49 54 38 51 39 55 67 28 38 32 29 29 15
internal_value=-3.59195e-05 -0.00425084 0.00601547 -0.00704886 -0.00142267 0.00854334 0.0029188 -0.00843672 -0.00276508 -0.000288205 -0.00523903 0.00416254
internal_weight=524 309 215 155 154 118 97 87 70 84 68 43
internal_count=524 309 215 155 154 118 97 87 70 84 68 43
is_linear=0
shrinkage=0.01


Tree=43
num_leaves=13
num_cat=0
split_feature=0 0 0 0 0 0 0 0 0 0 0 0
split_gain=131.101 24.9137 15.2779 3.73619 2.34544 1.37221 1.15242 0.467677 0.197394 0.185828 0.161399 0.123193
threshold=0.34425646119727665 -0.77152564527463063 1.1084590364220157 -1.1420094487592707 -0.33235014202649099 0.74966577264009027 1.479208884683505 -1.3853643094985026 -0.55544927594708915 0.038101208170679392 0.57241141137493612 -0.93503683004132354
decision_type=2 2 2 2 2 2 2 2 2 2 2 2
left_child=1 3 5 7 8 10 -4 -1 -3 -6 -2 -5
right_child=2 4 6 11 9 -7 -8 -9 -10 -11 -12 -13
leaf_value=-0.0092106505312444832 0.0017655546305587098 -0.003211678737888531 0.0075414094358583622 -0.0056901307191167547 -0.00051066195035231446 0.0047424656633407829 0.0098488312610425042 -0.0073261143136950369 -0.001952055997840346 0.00049071886371599425 0.0029827726914964875 -0.0044229708019739543
leaf_weight=46 39 39 60 39 64 37 51 41 29 25 23 31
leaf_count=46 39 39 60 39 64 37 51 41 29 25 23 31
internal_value=-3.55803e-05 -0.0041271 0.00607556 -0.00694286 -0.00129972 0.00319385 0.00862638 -0.00835284 -0.00269645 -0.000217695 0.00224132 -0.0051574
internal_weight=524 314 210 157 157 99 111 87 68 89 62 70
internal_count=524 314 210 157 157 99 111 87 68 89 62 70
is_linear=0
shrinkage=0.01


Tree=44
num_leaves=12
num_cat=0
split_feature=0 0 0 0 0 0 0 0 0 0 0
split_gain=128.518 22.6399 16.8934 3.47644 2.11544 2.01002 0.832887 0.307453 0.287101 0.239938 0.216956
threshold=0.2174191940952683 -0.89460208209288561 0.9485831050706317 -0.49969600399337366 -1.3015352669964446 1.3401818560547862 0.58930148279936934 -0.24610271888690499 -1.1033422892568157 -0.70909862492391074 1.5795325685030439
decision_type=2 2 2 2 2 2 2 2 2 2 2
left_child=1 4 6 9 -1 -4 -2 -5 -6 -3 -7
right_child=2 3 5 7 8 10 -8 -9 -10 -11 -12
leaf_value=-0.0089565472343311088 0.0016229913309513337 -0.0040978260171048485 0.0064786189988376638 -0.0014212670769565593 -0.006943509060780978 0.0084873256219171831 0.0035880538103757083 -0.0002082233422663107 -0.00535117651876165 -0.0027668051446340359 0.010231450670254154
leaf_weight=54 50 39 49 32 41 45 43 67 36 36 32
leaf_count=54 50 39 49 32 41 45 43 67 36 36 32
internal_value=-3.52434e-05 -0.00423257 0.00580432 -0.00185735 -0.00737218 0.00819198 0.00254805 -0.000612474 -0.00622779 -0.00348129 0.00924974
internal_weight=524 305 219 174 131 126 93 99 77 75 77
internal_count=524 305 219 174 131 126 93 99 77 75 77
is_linear=0
shrinkage=0.01


Tree=45
num_leaves=13
num_cat=0
split_feature=0 0 0 0 0 0 0 0 0 0 0 0
split_gain=115.945 21.1586 16.1264 3.08413 2.10045 1.58652 1.23092 0.287952 0.233068 0.201276 0.138618 0.115152
threshold=0.18866389658749075 -0.89460208209288561 0.97721174933209665 -0.49969600399337366 -1.3015352669964446 1.3401818560547862 0.62138781023862977 -0.25625058847380217 -1.1033422892568157 -0.70909862492391074 1.5511237617406366 0.43723684682024971
decision_type=2 2 2 2 2 2 2 2 2 2 2 2
left_child=1 4 6 9 -1 -4 11 -5 -6 -3 -7 -2
right_child=2 3 5 7 8 10 -8 -9 -10 -11 -12 -13
leaf_value=-0.0088638912751665844 0.0011102881231380784 -0.0040228315242516093 0.0064921947707345471 -0.0014069388238764598 -0.0068779092286684485 0.0082809274598379806 0.0039002767600953819 -0.00025696211388945528 -0.0052940029366898922 -0.0027595801355101124 0.0099833547572294873 0.0021151019304349859
leaf_weight=54 26 37 46 36 32 36 48 62 36 36 31 37
leaf_count=54 26 37 46 36 32 36 48 62 36 36 31 37
internal_value=-5.87883e-06 -0.00414732 0.00540568 -0.00186601 -0.00732843 0.00806705 0.00267774 -0.000691591 -0.00607202 -0.00342276 0.00911087 0.00172107
internal_weight=517 293 224 171 122 113 111 98 68 73 67 63
internal_count=517 293 224 171 122 113 111 98 68 73 67 63
is_linear=0
shrinkage=0.01


Tree=46
num_leaves=12
num_cat=0
split_feature=0 0 0 0 0 0 0 0 0 0 0
split_gain=113.66 20.7385 15.8115 3.02281 2.05688 1.79599 1.017 0.282131 0.227284 0.196616 0.177706
threshold=0.18866389658749075 -0.89460208209288561 0.9485831050706317 -0.49969600399337366 -1.3015352669964446 1.3167046043439934 0.60281228318493008 -0.26808939270341453 -1.1033422892568157 -0.70909862492391074 1.5511237617406366
decision_type=2 2 2 2 2 2 2 2 2 2 2
left_child=1 4 6 9 -1 -4 -2 -5 -6 -3 -7
right_child=2 3 5 7 8 10 -8 -9 -10 -11 -12
leaf_value=-0.0087755793069121575 0.0016165975611848928 -0.003982819454964771 0.0062502715597718443 -0.0014426834324756299 -0.0068095573246108806 0.008159796930089289 0.0036300788189822094 -0.00028146202210069092 -0.0052413554135607087 -0.0027321367698479753 0.009884161490660447
leaf_weight=54 58 37 47 33 32 39 49 65 36 36 31
leaf_count=54 58 37 47 33 32 39 49 65 36 36 31
internal_value=-5.81073e-06 -0.00410625 0.00535213 -0.00184762 -0.00725566 0.00789473 0.00255304 -0.000684811 -0.0060118 -0.00338886 0.00896367
internal_weight=517 293 224 171 122 117 107 98 68 73 70
internal_count=517 293 224 171 122 117 107 98 68 73 70
is_linear=0
shrinkage=0.01


Tree=47
num_leaves=12
num_cat=0
split_feature=0 0 0 0 0 0 0 0 0 0 0
split_gain=111.418 20.3267 15.4981 2.96269 2.0142 1.75925 0.996351 0.276786 0.221626 0.192055 0.172495
threshold=0.18866389658749075 -0.89460208209288561 0.9485831050706317 -0.49969600399337366 -1.3015352669964446 1.3167046043439934 0.60281228318493008 -0.25625058847380217 -1.1033422892568157 -0.70909862492391074 1.5511237617406366
decision_type=2 2 2 2 2 2 2 2 2 2 2
left_child=1 4 6 9 -1 -4 -2 -5 -6 -3 -7
right_child=2 3 5 7 8 10 -8 -9 -10 -11 -12
leaf_value=-0.0086881472659726851 0.001600487140036121 -0.0039432054469662322 0.0061880337030200631 -0.0013795623734840373 -0.0067418847283961603 0.0080786151910314744 0.0035939256338084614 -0.00025159518061493226 -0.0051892314069178873 -0.0027049663794633432 0.0097859535156152189
leaf_weight=54 58 37 47 36 32 39 49 62 36 36 31
leaf_count=54 58 37 47 36 32 39 49 62 36 36 31
internal_value=-5.77089e-06 -0.0040656 0.00529906 -0.00182942 -0.0071836 0.00781637 0.0025277 -0.0006781 -0.00595218 -0.00335529 0.00887469
internal_weight=517 293 224 171 122 117 107 98 68 73 70
internal_count=517 293 224 171 122 117 107 98 68 73 70
is_linear=0
shrinkage=0.01


Tree=48
num_leaves=13
num_cat=0
split_feature=0 0 0 0 0 0 0 0 0 0 0 0
split_gain=109.221 19.9231 15.1942 2.90377 1.97239 1.48973 1.15944 0.271388 0.216091 0.187591 0.125015 0.111922
threshold=0.18866389658749075 -0.89460208209288561 0.97721174933209665 -0.49969600399337366 -1.3015352669964446 1.3401818560547862 0.62138781023862977 -0.23257190080016429 -1.1033422892568157 -0.70909862492391074 1.5511237617406366 0.42371460008654255
decision_type=2 2 2 2 2 2 2 2 2 2 2 2
left_child=1 4 6 9 -1 -4 11 -5 -6 -3 -7 -2
right_child=2 3 5 7 8 10 -8 -9 -10 -11 -12 -13
leaf_value=-0.0086015866405409636 0.0010063028194267176 -0.0039039853984309783 0.0063012416925265161 -0.0012816317135830061 -0.006674884609554124 0.0080370885957011858 0.0037851683381187468 -0.0001930940987957493 -0.0051376258207289551 -0.0026780661364286646 0.00968872110813092 0.0020180781889910719
leaf_weight=54 23 37 46 42 32 36 48 56 36 36 31 40
leaf_count=54 23 37 46 42 32 36 48 56 36 36 31 40
internal_value=-5.7312e-06 -0.00402534 0.0052465 -0.0018114 -0.00711227 0.00782993 0.00259818 -0.000671454 -0.00589316 -0.00332205 0.00884272 0.00166888
internal_weight=517 293 224 171 122 113 111 98 68 73 67 63
internal_count=517 293 224 171 122 113 111 98 68 73 67 63
is_linear=0
shrinkage=0.01


Tree=49
num_leaves=13
num_cat=0
split_feature=0 0 0 0 0 0 0 0 0 0 0 0
split_gain=107.07 19.0678 15.4201 2.72197 1.93143 1.68816 1.03578 0.241577 0.210677 0.183222 0.161852 0.126443
threshold=0.15652355609308588 -0.89460208209288561 0.9485831050706317 -0.49969600399337366 -1.3015352669964446 1.3167046043439934 0.57241141137493612 -0.26808939270341453 -1.1033422892568157 -0.70909862492391074 1.5511237617406366 0.77159664629001945
decision_type=2 2 2 2 2 2 2 2 2 2 2 2
left_child=1 4 6 9 -1 -4 -2 -5 -6 -3 -7 -8
right_child=2 3 5 7 8 10 11 -9 -10 -11 -12 -13
leaf_value=-0.0085158879950477627 0.0014338618021100442 -0.0038651554158297919 0.0060658024390370163 -0.0014018918762365019 -0.0066085503412329633 0.007919608792480156 0.0028292218857253627 -0.00031329857885940116 -0.0050865333943077209 -0.0026514334350989013 0.0095924548308054611 0.0041028987499307995
leaf_weight=54 56 37 47 33 32 39 30 62 36 36 31 24
leaf_count=54 56 37 47 33 32 39 30 62 36 36 31 24
internal_value=-5.66473e-06 -0.00403268 0.0051336 -0.00183588 -0.00704164 0.00766245 0.00242573 -0.000704096 -0.00583472 -0.00328915 0.0086999 0.0034268
internal_weight=517 290 227 168 122 117 110 95 68 73 70 54
internal_count=517 290 227 168 122 117 110 95 68 73 70 54
is_linear=0
shrinkage=0.01


Tree=50
num_leaves=13
num_cat=0
split_feature=0 0 0 0 0 0 0 0 0 0 0 0
split_gain=107.863 22.219 11.9557 3.03371 1.94065 1.41809 1.02136 0.311914 0.19442 0.187589 0.187074 0.116054
threshold=0.34425646119727665 -0.77152564527463063 1.1084590364220157 -1.1823402270077208 -0.33235014202649099 0.74966577264009027 1.4976138199028231 -1.4255677667172679 0.038101208170679392 -0.96703679175313406 -0.56220610828023709 0.49469721847184928
decision_type=2 2 2 2 2 2 2 2 2 2 2 2
left_child=1 3 5 7 10 11 -4 -1 -6 -5 -3 -2
right_child=2 4 6 9 8 -7 -8 -9 -10 -11 -12 -13
leaf_value=-0.0088891597110104838 0.00140744652229411 -0.0030625330198960133 0.0070720549507539759 -0.0056312527932146543 -0.00053084824526480391 0.0045221501892631485 0.0093705868894614058 -0.0071272277119940356 0.00045674400850925041 -0.0042862559262142391 -0.0018573123733089728 0.0024887227883796819
leaf_weight=33 26 33 62 37 68 41 41 45 27 37 35 30
leaf_count=33 26 33 62 37 68 41 41 45 27 37 35 30
internal_value=-0.000102366 -0.00375011 0.00563585 -0.00649936 -0.00117545 0.00308999 0.00801308 -0.00790628 -0.00023929 -0.0049856 -0.00246413 0.00201129
internal_weight=515 315 200 152 163 97 103 78 95 74 68 56
internal_count=515 315 200 152 163 97 103 78 95 74 68 56
is_linear=0
shrinkage=0.01


Tree=51
num_leaves=13
num_cat=0
split_feature=0 0 0 0 0 0 0 0 0 0 0 0
split_gain=105.735 21.7795 11.7169 2.97233 1.90291 1.38913 1.00047 0.304268 0.203254 0.182894 0.163427 0.11336
threshold=0.34425646119727665 -0.77152564527463063 1.1084590364220157 -1.1823402270077208 -0.36109429867988851 0.74966577264009027 1.5176850723992001 -1.4255677667172679 -0.048182205783674381 -0.96703679175313406 -0.56220610828023709 0.49469721847184928
decision_type=2 2 2 2 2 2 2 2 2 2 2 2
left_child=1 3 5 7 10 11 -4 -1 -6 -5 -3 -2
right_child=2 4 6 9 8 -7 -8 -9 -10 -11 -12 -13
leaf_value=-0.0088008037245417212 0.0013934795103455319 -0.0030320923129119066 0.0070552651264184823 -0.005575242981474886 -0.00061623296980423473 0.0044771482629104723 0.0093644002251600088 -0.0070562707164646245 0.00031701299680901167 -0.0042436238001751642 -0.0018684489028640539 0.0024640004198677496
leaf_weight=33 26 33 65 37 61 41 38 45 36 37 33 30
leaf_count=33 26 33 65 37 61 41 38 45 36 37 33 30
internal_value=-0.000101366 -0.00371297 0.00557994 -0.0064349 -0.00116382 0.00305947 0.00793337 -0.00782775 -0.000259646 -0.00493614 -0.00247278 0.00199149
internal_weight=515 315 200 152 163 97 103 78 97 74 66 56
internal_count=515 315 200 152 163 97 103 78 97 74 66 56
is_linear=0
shrinkage=0.01


Tree=52
num_leaves=13
num_cat=0
split_feature=0 0 0 0 0 0 0 0 0 0 0 0
split_gain=103.649 21.3489 11.4828 2.80116 1.96736 1.36076 0.979969 0.297572 0.199491 0.183077 0.156791 0.110723
threshold=0.34425646119727665 -0.7850195165115158 1.1084590364220157 -1.1823402270077208 -0.36109429867988851 0.74966577264009027 1.4976138199028231 -1.4155191070260373 -0.080326470994356566 -0.58585298469504132 -0.96703679175313406 0.49469721847184928
decision_type=2 2 2 2 2 2 2 2 2 2 2 2
left_child=1 3 5 7 9 11 -4 -1 -6 -3 -5 -2
right_child=2 4 6 10 8 -7 -8 -9 -10 -11 -12 -13
leaf_value=-0.0086396109399215944 0.0013796510678211241 -0.0030815227724701522 0.0069312360164053566 -0.0055197903049248511 -0.00069106308466871269 0.0044325941598531106 0.0091858277390304121 -0.006926460308486251 0.00020360647772604628 -0.0018843544968827203 -0.0042255004512315444 0.0024395235899268399
leaf_weight=36 26 33 62 37 51 41 41 42 46 35 35 30
leaf_count=36 26 33 62 37 51 41 41 42 46 35 35 30
internal_value=-0.000100376 -0.00367619 0.00552459 -0.00640562 -0.00118409 0.00302925 0.00785445 -0.00775001 -0.000256953 -0.00248733 -0.00491792 0.00197189
internal_weight=515 315 200 150 165 97 103 78 97 68 72 56
internal_count=515 315 200 150 165 97 103 78 97 68 72 56
is_linear=0
shrinkage=0.01


Tree=53
num_leaves=12
num_cat=0
split_feature=0 0 0 0 0 0 0 0 0 0 0
split_gain=101.604 20.9279 11.254 2.8565 1.82923 1.42874 0.892443 0.407698 0.185053 0.177157 0.12797
threshold=0.34425646119727665 -0.77152564527463063 1.1269532587761939 -1.1420094487592707 -0.33235014202649099 0.77159664629001945 1.5176850723992001 -1.4037937784688888 0.038101208170679392 -0.53686671470350211 0.53693719774365578
decision_type=2 2 2 2 2 2 2 2 2 2 2
left_child=1 3 5 7 9 10 -4 -1 -6 -3 -2
right_child=2 4 6 -5 8 -7 -8 -9 -10 -11 -12
leaf_value=-0.0084856584576927883 0.0014769277383822092 -0.0028333390232228558 0.0069624701576142369 -0.0046971351342896617 -0.0005162447327174399 0.0044956478519925782 0.0091798691287714763 -0.0067054512877484929 0.00044704224593100232 -0.0016247241244516303 0.0025791590768872333
leaf_weight=39 32 42 63 67 68 41 38 46 27 26 26
leaf_count=39 32 42 63 67 68 41 38 46 27 26 26
internal_value=-9.9397e-05 -0.00363978 0.00546978 -0.006308 -0.00114083 0.0030479 0.00782311 -0.00755199 -0.0002316 -0.002392 0.00199538
internal_weight=515 315 200 152 163 99 101 85 95 68 58
internal_count=515 315 200 152 163 99 101 85 95 68 58
is_linear=0
shrinkage=0.01


Tree=54
num_leaves=13
num_cat=0
split_feature=0 0 0 0 0 0 0 0 0 0 0 0
split_gain=99.598 20.5137 11.0301 2.69071 1.89047 1.30581 0.939798 0.286591 0.192936 0.175925 0.152872 0.106107
threshold=0.34425646119727665 -0.7850195165115158 1.1084590364220157 -1.1823402270077208 -0.36109429867988851 0.74966577264009027 1.4976138199028231 -1.435614965793766 -0.080326470994356566 -0.58585298469504132 -0.96703679175313406 0.49469721847184928
decision_type=2 2 2 2 2 2 2 2 2 2 2 2
left_child=1 3 5 7 9 11 -4 -1 -6 -3 -5 -2
right_child=2 4 6 10 8 -7 -8 -9 -10 -11 -12 -13
leaf_value=-0.0086263149858310517 0.0013513033746080543 -0.0030216078514076141 0.006793538841787258 -0.0054143910991248257 -0.00067860415867471602 0.0043446754425474736 0.0090046772013590154 -0.0069002470584331203 0.00020108972736069874 -0.0018456861444494941 -0.0041367810541255903 0.0023918589841056344
leaf_weight=30 26 33 62 37 51 41 41 48 46 35 35 30
leaf_count=30 26 33 62 37 51 41 41 48 46 35 35 30
internal_value=-9.83825e-05 -0.00360367 0.00541553 -0.00627921 -0.00116065 0.00296954 0.00769914 -0.00759727 -0.000251586 -0.0024382 -0.00482036 0.00193307
internal_weight=515 315 200 150 165 97 103 78 97 68 72 56
internal_count=515 315 200 150 165 97 103 78 97 68 72 56
is_linear=0
shrinkage=0.01


Tree=55
num_leaves=13
num_cat=0
split_feature=0 0 0 0 0 0 0 0 0 0 0 0
split_gain=94.9056 18.09 12.4749 2.16468 2.01087 1.50743 0.71603 0.192143 0.184691 0.153985 0.141048 0.130479
threshold=0.2563206416381883 -0.81368924873664461 1.1269532587761939 -1.202498431605459 -0.3915259536548587 0.77159664629001945 1.5310627458126442 0.53693719774365578 -0.59429753775047189 -0.12092851629059467 -1.435614965793766 -0.98219094577002763
decision_type=2 2 2 2 2 2 2 2 2 2 2 2
left_child=1 3 5 10 8 7 -4 -2 -3 -6 -1 -5
right_child=2 4 6 11 9 -7 -8 -9 -10 -11 -12 -13
leaf_value=-0.0085165500276871316 0.0014016196974284986 -0.0031211898573406077 0.0070082879511911243 -0.0054973193316559515 -0.00077259934485241128 0.0043759980339270364 0.009102362665830482 0.0025904670979408242 -0.0019453437948784634 3.7043056778292867e-05 -0.0069384290719473798 -0.0042248476755160557
leaf_weight=26 38 38 56 38 42 44 38 30 34 48 43 31
leaf_count=26 38 38 56 38 42 44 38 30 34 48 43 31
internal_value=-2.86367e-05 -0.00361847 0.00519287 -0.00627848 -0.00134142 0.00291616 0.00788297 0.00194683 -0.00258671 -0.000330579 -0.00757043 -0.00495394
internal_weight=506 300 206 138 162 112 94 68 72 90 69 69
internal_count=506 300 206 138 162 112 94 68 72 90 69 69
is_linear=0
shrinkage=0.01


Tree=56
num_leaves=13
num_cat=0
split_feature=0 0 0 0 0 0 0 0 0 0 0 0
split_gain=93.0342 17.7326 12.2262 2.12066 1.97125 1.47676 0.701343 0.18797 0.18052 0.151 0.1505 0.112195
threshold=0.2563206416381883 -0.81368924873664461 1.1269532587761939 -1.2108962012713602 -0.3915259536548587 0.77159664629001945 1.5176850723992001 0.53693719774365578 -0.59429753775047189 -0.12092851629059467 -0.99734342244319085 -1.435614965793766
decision_type=2 2 2 2 2 2 2 2 2 2 2 2
left_child=1 3 5 11 8 7 -4 -2 -3 -6 -5 -1
right_child=2 4 6 10 9 -7 -8 -9 -10 -11 -12 -13
leaf_value=-0.0084320346453717644 0.0013876768915441024 -0.0030901414702075936 0.0068814769320021882 -0.0055329303171045034 -0.00076490998638890917 0.0043324359927781556 0.0089344158247836574 0.0025647339816914491 -0.0019260041398263118 3.6674158481486847e-05 -0.0042405290544381613 -0.0069009629759973689
leaf_weight=26 38 38 53 37 42 44 41 30 34 48 34 41
leaf_count=26 38 38 53 37 42 44 41 30 34 48 34 41
internal_value=-2.8376e-05 -0.00358266 0.00514137 -0.00621628 -0.00132814 0.00288733 0.00780459 0.00192763 -0.00256112 -0.000327179 -0.00494173 -0.00753332
internal_weight=506 300 206 138 162 112 94 68 72 90 71 67
internal_count=506 300 206 138 162 112 94 68 72 90 71 67
is_linear=0
shrinkage=0.01


Tree=57
num_leaves=13
num_cat=0
split_feature=0 0 0 0 0 0 0 0 0 0 0 0
split_gain=91.1998 17.6841 11.6998 2.64563 1.53506 1.47437 0.58358 0.266164 0.197408 0.136092 0.124335 0.106625
threshold=0.31212887099048214 -0.7580302390754815 1.1454435652455548 -1.1420094487592707 0.80532881990602101 -0.33235014202649099 1.5310627458126442 -1.333401630462308 0.54369473147877601 -0.94514314766512597 0.038101208170679392 -0.53686671470350211
decision_type=2 2 2 2 2 2 2 2 2 2 2 2
left_child=1 3 4 7 8 11 -4 -1 -2 -5 -7 -3
right_child=2 5 6 9 -6 10 -8 -9 -10 -11 -12 -13
leaf_value=-0.0078866965614132964 0.0014370829748545642 -0.0026158724269088433 0.0069553009370215847 -0.0050906254425233232 0.0044385553943625394 -0.00045704920755879156 0.0089229391725899661 -0.0062293728842185096 0.0026314045498386407 -0.0038772556893733323 0.00039511995057592189 -0.0016152102861772565
leaf_weight=47 38 39 53 36 44 64 38 31 31 36 22 27
leaf_count=47 38 39 53 36 44 64 38 31 31 36 22 27
internal_value=-2.81189e-05 -0.00351851 0.00513251 -0.0059537 0.00296096 -0.00110412 0.00780568 -0.00725842 0.00199417 -0.00451021 -0.000227041 -0.00222773
internal_weight=506 302 204 150 113 152 91 78 69 72 86 66
internal_count=506 302 204 150 113 152 91 78 69 72 86 66
is_linear=0
shrinkage=0.01


Tree=58
num_leaves=14
num_cat=0
split_feature=0 0 0 0 0 0 0 0 0 0 0 0 0
split_gain=89.4025 16.6209 12.1651 2.03611 1.8018 1.51382 0.671556 0.173003 0.137709 0.132146 0.131273 0.127136 0.120434
threshold=0.23433336879664601 -0.81368924873664461 1.1269532587761939 -1.202498431605459 -0.3915259536548587 0.72941896141031026 1.5176850723992001 -0.59429753775047189 0.51328392544116019 -1.435614965793766 0.89804360990892773 -0.14799548443242838 -0.98219094577002763
decision_type=2 2 2 2 2 2 2 2 2 2 2 2 2
left_child=1 3 5 9 7 8 -4 -3 -2 -1 -7 -6 -5
right_child=2 4 6 12 11 10 -8 -9 -10 -11 -12 -13 -14
leaf_value=-0.0082700929659923518 0.0012869244312145272 -0.0030294175024744101 0.0067450485440125139 -0.0053352867339918125 -0.00076965787925233889 0.0032740504328195043 0.008758141800616551 -0.0018869953833476841 0.0023519603157316459 -0.0067312473831353361 0.0046817821369948961 0 -0.0040994902719289836
leaf_weight=26 39 38 53 38 40 22 41 34 26 43 28 47 31
leaf_count=26 39 38 53 38 40 22 41 34 26 43 28 47 31
internal_value=-2.78495e-05 -0.00355501 0.00497826 -0.00609391 -0.00134026 0.00277586 0.00765045 -0.00251051 0.00173418 -0.00734778 0.00409781 -0.000356778 -0.00480798
internal_weight=506 297 209 138 159 115 94 72 65 69 50 87 69
internal_count=506 297 209 138 159 115 94 72 65 69 50 87 69
is_linear=0
shrinkage=0.01


Tree=59
num_leaves=13
num_cat=0
split_feature=0 0 0 0 0 0 0 0 0 0 0 0
split_gain=87.6455 16.9961 11.2403 2.54047 1.47301 1.41614 0.558249 0.255386 0.188765 0.128355 0.120015 0.101511
threshold=0.31212887099048214 -0.7580302390754815 1.1454435652455548 -1.1420094487592707 0.80532881990602101 -0.33235014202649099 1.5310627458126442 -1.3484914757391797 0.54369473147877601 -0.94514314766512597 -0.031263965247371031 -0.53686671470350211
decision_type=2 2 2 2 2 2 2 2 2 2 2 2
left_child=1 3 4 7 8 11 -4 -1 -2 -5 -7 -3
right_child=2 5 6 9 -6 10 -8 -9 -10 -11 -12 -13
leaf_value=-0.0077679726455063937 0.0014088703021017043 -0.0025634961035482734 0.0068176772182149091 -0.0049893320001949916 0.0043505046621167276 -0.00050151787204435918 0.0087470541824220989 -0.0061546223601662963 0.0025792304837168795 -0.0038014761716621353 0.00026547453320733216 -0.0015829104716506075
leaf_weight=45 38 39 53 36 44 56 38 33 31 36 30 27
leaf_count=45 38 39 53 36 44 56 38 33 31 36 30 27
internal_value=-2.75864e-05 -0.00344932 0.00503144 -0.0058367 0.00290268 -0.00108221 0.00765173 -0.00711568 0.00195507 -0.00442143 -0.000222366 -0.00218345
internal_weight=506 302 204 150 113 152 91 78 69 72 86 66
internal_count=506 302 204 150 113 152 91 78 69 72 86 66
is_linear=0
shrinkage=0.01


Tree=60
num_leaves=12
num_cat=0
split_feature=0 0 0 0 0 0 0 0 0 0 0
split_gain=88.5404 18.2061 9.46985 2.66574 1.53058 1.48439 0.404199 0.281985 0.265019 0.14638 0.129917
threshold=0.34425646119727665 -0.89460208209288561 0.9485831050706317 -0.45575821770035058 1.3167046043439934 -1.333401630462308 0.65009120663583209 -0.69728488919517295 -0.12092851629059467 -1.0831613819356221 1.5795325685030439
decision_type=2 2 2 2 2 2 2 2 2 2 2
left_child=1 5 6 7 -4 -1 -2 -3 -5 -7 -6
right_child=2 3 4 8 10 9 -8 -9 -10 -11 -12
leaf_value=-0.0077324148564410378 0.0016988378642051199 -0.0034537133426215515 0.0054463414471344583 -0.00085668777880543699 0.0071882458433720729 -0.0058779516622976015 0.0032682575413722869 -0.002165524063516507 0.00013109784810977728 -0.0045278439052561497 0.0087777763013621325
leaf_weight=53 49 40 56 58 42 43 30 45 48 28 26
leaf_count=53 49 40 56 58 42 43 30 45 48 28 26
internal_value=-9.75456e-05 -0.00341763 0.00504769 -0.00147103 0.00677461 -0.00640078 0.00231419 -0.00279015 -0.000400568 -0.00537377 0.00783463
internal_weight=518 315 203 191 124 124 79 85 106 71 68
internal_count=518 315 203 191 124 124 79 85 106 71 68
is_linear=0
shrinkage=0.01


Tree=61
num_leaves=12
num_cat=0
split_feature=0 0 0 0 0 0 0 0 0 0 0
split_gain=86.8043 16.4833 10.9523 2.30908 1.49937 1.37643 0.5607 0.231213 0.215828 0.125924 0.11265
threshold=0.18866389658749075 -0.91819084333700618 0.9485831050706317 -0.48279800228793096 1.3167046043439934 -1.333401630462308 0.58930148279936934 -0.69728488919517295 -0.23257190080016429 1.5795325685030439 -1.1033422892568157
decision_type=2 2 2 2 2 2 2 2 2 2 2
left_child=1 5 6 7 -4 -1 -2 -3 -5 -6 -7
right_child=2 3 4 8 9 10 -8 -9 -10 -11 -12
leaf_value=-0.0076553811300966073 0.0013805533223339426 -0.0034448047370707253 0.0053920718635104307 -0.0011100637276483848 0.0071167040407940094 -0.0058842453482199691 0.0030452712847612289 -0.0022198974576835731 -0.00015554541712825673 0.0086906683899974097 -0.0046106625451946895
leaf_weight=53 52 42 56 45 42 39 38 39 56 26 30
leaf_count=53 52 42 56 45 42 39 38 39 56 26 30
internal_value=-9.65436e-05 -0.00353214 0.00477801 -0.0016153 0.00670737 -0.00637619 0.00209971 -0.00287427 -0.000592061 0.0077569 -0.00535989
internal_weight=518 304 214 182 124 122 90 81 101 68 69
internal_count=518 304 214 182 124 122 90 81 101 68 69
is_linear=0
shrinkage=0.01


Tree=62
num_leaves=12
num_cat=0
split_feature=0 0 0 0 0 0 0 0 0 0 0
split_gain=85.095 17.4896 9.09299 2.56085 1.46879 1.42276 0.388424 0.269329 0.254789 0.138884 0.122023
threshold=0.34425646119727665 -0.89460208209288561 0.9485831050706317 -0.45575821770035058 1.3167046043439934 -1.333401630462308 0.65009120663583209 -0.69728488919517295 -0.14799548443242838 -1.0831613819356221 1.5795325685030439
decision_type=2 2 2 2 2 2 2 2 2 2 2
left_child=1 5 6 7 -4 -1 -2 -3 -5 -7 -6
right_child=2 3 4 8 10 9 -8 -9 -10 -11 -12
leaf_value=-0.0075791151048545547 0.0016654622630496337 -0.003385071440122614 0.0053383430382535129 -0.00085718692224008759 0.0070458743724777792 -0.0057620534659535792 0.0032055403598096987 -0.0021233371058396533 0.00010828115604446822 -0.004437933796686484 0.0086044252464789472
leaf_weight=53 49 40 56 56 42 43 30 45 50 28 26
leaf_count=53 49 40 56 56 42 43 30 45 50 28 26
internal_value=-9.55953e-05 -0.00335048 0.0049485 -0.00144243 0.00664079 -0.00627439 0.00226955 -0.00273538 -0.000393015 -0.00526784 0.00767994
internal_weight=518 315 203 191 124 124 79 85 106 71 68
internal_count=518 315 203 191 124 124 79 85 106 71 68
is_linear=0
shrinkage=0.01


Tree=63
num_leaves=12
num_cat=0
split_feature=0 0 0 0 0 0 0 0 0 0 0
split_gain=83.4253 15.8346 10.5181 2.21845 1.43882 1.31905 0.53865 0.235072 0.19149 0.118212 0.106566
threshold=0.18866389658749075 -0.91819084333700618 0.9485831050706317 -0.49969600399337366 1.3167046043439934 -1.333401630462308 0.58930148279936934 -0.24610271888690499 -0.72597362795408193 1.5795325685030439 -1.1033422892568157
decision_type=2 2 2 2 2 2 2 2 2 2 2
left_child=1 5 6 8 -4 -1 -2 -5 -3 -6 -7
right_child=2 3 4 7 9 10 -8 -9 -10 -11 -12
leaf_value=-0.0075036090836489103 0.0013534912863796243 -0.0034674603043340184 0.0052851495624012795 -0.0011713763255609107 0.0069757495361481795 -0.0057683766101087833 0.0029863156596715533 -0.00018500372219020094 -0.0023018448859876933 0.0085190374068631475 -0.0045190221505449308
leaf_weight=53 52 36 56 44 42 39 38 60 42 26 30
leaf_count=53 52 36 56 44 42 39 38 60 42 26 30
internal_value=-9.46131e-05 -0.00346272 0.00468408 -0.00158382 0.00657489 -0.0062503 0.00205909 -0.000613359 -0.0028601 0.00760375 -0.00525426
internal_weight=518 304 214 182 124 122 90 104 78 68 69
internal_count=518 304 214 182 124 122 90 104 78 68 69
is_linear=0
shrinkage=0.01


Tree=64
num_leaves=11
num_cat=0
split_feature=0 0 0 0 0 0 0 0 0 0
split_gain=81.7841 16.8032 8.74857 1.98856 1.79981 1.09823 0.713329 0.21542 0.191141 0.185658
threshold=0.34425646119727665 -0.8389803117051754 1.1084590364220157 -0.40504992657056799 -1.2579073323587697 0.77159664629001945 1.452430742037216 -0.10739467670635011 -0.63989050116340185 -1.0175427505077759
decision_type=2 2 2 2 2 2 2 2 2 2
left_child=1 4 5 8 -1 -2 -4 -5 -3 -6
right_child=2 3 6 7 9 -7 -8 -9 -10 -11
leaf_value=-0.00723041063433961 0.0018272530837775836 -0.0030254714631912662 0.0060752302686117848 -0.00073774645186809682 -0.0053587942577681489 0.0040543234457520293 0.0080140901459336833 0.00017640898372822751 -0.0018900881031033946 -0.0040011801284093127
leaf_weight=63 61 39 62 59 41 38 42 43 39 31
leaf_count=63 61 39 62 59 41 38 42 43 39 31
internal_value=-9.36854e-05 -0.00328466 0.00485126 -0.00127494 -0.00595104 0.00269862 0.00688171 -0.000342991 -0.00247685 -0.00480082
internal_weight=518 315 203 180 135 99 104 102 78 72
internal_count=518 315 203 180 135 99 104 102 78 72
is_linear=0
shrinkage=0.01


Tree=65
num_leaves=12
num_cat=0
split_feature=0 0 0 0 0 0 0 0 0 0 0
split_gain=81.426 16.7572 8.85387 2.05051 1.5471 1.04931 0.602654 0.221146 0.195122 0.105524 0.103563
threshold=0.37299950667781806 -0.867637394306079 1.1269532587761939 -0.3915259536548587 -1.2579073323587697 0.80532881990602101 1.5176850723992001 -0.61625128997705092 -0.10739467670635011 -1.0326894407193745 0.54369473147877601
decision_type=2 2 2 2 2 2 2 2 2 2 2
left_child=1 4 5 7 -1 10 -4 -3 -5 -6 -2
right_child=2 3 6 8 9 -7 -8 -9 -10 -11 -12
leaf_value=-0.0070685331360944709 0.0014357307440007639 -0.0029440271684908754 0.0062776476942915521 -0.0006919613182259245 -0.0053323458016596046 0.0040752992798520635 0.0081669314747506924 -0.0017989940168680969 0.00017398101264398877 -0.0041319425368165396 0.0024159387261309525
leaf_weight=64 34 42 70 52 35 38 35 43 49 33 28
leaf_count=64 34 42 70 52 35 38 35 43 49 33 28
internal_value=-1.16956e-05 -0.003181 0.00489803 -0.001238 -0.00590529 0.00274359 0.00693124 -0.00238209 -0.000262456 -0.00477829 0.00190083
internal_weight=523 318 205 186 132 100 105 85 101 68 62
internal_count=523 318 205 186 132 100 105 85 101 68 62
is_linear=0
shrinkage=0.01


Tree=66
num_leaves=12
num_cat=0
split_feature=0 0 0 0 0 0 0 0 0 0 0
split_gain=79.8191 16.4272 8.67674 1.81802 1.71172 1.0278 0.589526 0.205564 0.163874 0.150567 0.101148
threshold=0.37299950667781806 -0.81368924873664461 1.1269532587761939 -0.36109429867988851 -1.2159343671737497 0.80532881990602101 1.5176850723992001 -0.59429753775047189 0.038101208170679392 -1.4707684488455863 0.54369473147877601
decision_type=2 2 2 2 2 2 2 2 2 2 2
left_child=1 4 5 7 9 10 -4 -3 -5 -1 -2
right_child=2 3 6 8 -6 -7 -8 -9 -10 -11 -12
leaf_value=-0.007789370031917796 0.0014214573770064359 -0.0027953181530705729 0.0062150500302980425 -0.00047240580596309695 -0.004545895120217686 0.0040347595863941448 0.0080857259373773218 -0.0016903296297630377 0.00043203489771044318 -0.0062751554007883419 0.0023919507047386037
leaf_weight=27 34 40 70 69 67 38 35 45 27 43 28
leaf_count=27 34 40 70 69 67 38 35 45 27 43 28
internal_value=-1.15574e-05 -0.00314945 0.00484946 -0.00116288 -0.00576124 0.00271651 0.0068623 -0.0022274 -0.000207267 -0.00689398 0.0018821
internal_weight=523 318 205 181 137 100 105 85 96 70 62
internal_count=523 318 205 181 137 100 105 85 96 70 62
is_linear=0
shrinkage=0.01


Tree=67
num_leaves=11
num_cat=0
split_feature=0 0 0 0 0 0 0 0 0 0
split_gain=78.2442 16.1048 8.50442 1.97015 1.48437 0.896615 0.656114 0.211071 0.188645 0.103101
threshold=0.37299950667781806 -0.867637394306079 1.1084590364220157 -0.3915259536548587 -1.2579073323587697 0.80532881990602101 1.452430742037216 -0.61625128997705092 -0.080326470994356566 -1.0326894407193745
decision_type=2 2 2 2 2 2 2 2 2 2
left_child=1 4 5 7 -1 -2 -4 -3 -5 -6
right_child=2 3 6 8 9 -7 -8 -9 -10 -11
leaf_value=-0.0069291437934863595 0.0018635660591999434 -0.0028848315570591749 0.0059230448461435967 -0.00065542918697431463 -0.0052311770770360113 0.0039330571364950048 0.0077414022082999594 -0.0017634950012520507 0.00019886520843412646 -0.0040456868959478582
leaf_weight=64 62 42 61 55 35 35 47 43 46 33
leaf_count=64 62 42 61 55 35 35 47 43 46 33
internal_value=-1.14264e-05 -0.00311823 0.00480137 -0.00121329 -0.005789 0.00262713 0.00673646 -0.00233478 -0.000256839 -0.00468408
internal_weight=523 318 205 186 132 97 108 85 101 68
internal_count=523 318 205 186 132 97 108 85 101 68
is_linear=0
shrinkage=0.01


Tree=68
num_leaves=11
num_cat=0
split_feature=0 0 0 0 0 0 0 0 0 0
split_gain=76.6988 15.7857 8.33649 1.93174 1.45471 0.985371 0.568017 0.231529 0.19869 0.167527
threshold=0.37299950667781806 -0.867637394306079 1.1269532587761939 -0.37292925165080365 -1.3015352669964446 0.80532881990602101 1.5310627458126442 -0.61625128997705092 -1.0831613819356221 0.038101208170679392
decision_type=2 2 2 2 2 2 2 2 2 2
left_child=1 4 5 7 -1 -2 -4 -3 -6 -5
right_child=2 3 6 9 8 -7 -8 -9 -10 -11
leaf_value=-0.0070499748475437232 0.0018449903399327177 -0.0028561199431735755 0.0061294290407107824 -0.00048447759578716047 -0.005390916148435722 0.003953935828508507 0.0080119719120286259 -0.0017150215259491106 -0.0040723183366560166 0.000425772287622642
leaf_weight=54 62 42 73 71 41 38 32 46 37 27
leaf_count=54 62 42 73 71 41 38 32 46 37 27
internal_value=-1.13192e-05 -0.00308731 0.0047537 -0.00120127 -0.0057315 0.00266266 0.0067268 -0.00227622 -0.00479023 -0.000223155
internal_weight=523 318 205 186 132 100 105 88 78 98
internal_count=523 318 205 186 132 100 105 88 78 98
is_linear=0
shrinkage=0.01


Tree=69
num_leaves=12
num_cat=0
split_feature=0 0 0 0 0 0 0 0 0 0 0
split_gain=75.1841 15.475 8.17072 1.71445 1.61083 1.03732 0.514997 0.206936 0.149181 0.146356 0.124239
threshold=0.37299950667781806 -0.81368924873664461 1.1454435652455548 -0.33235014202649099 -1.2159343671737497 0.8255636971228516 1.5310627458126442 -0.58585298469504132 -1.4841554435725461 0.038101208170679392 0.54369473147877601
decision_type=2 2 2 2 2 2 2 2 2 2 2
left_child=1 4 5 7 8 10 -4 -3 -1 -5 -2
right_child=2 3 6 9 -6 -7 -8 -9 -10 -11 -12
leaf_value=-0.0076314674814542127 0.0013704572138730545 -0.0026732982225992057 0.0061077258509866306 -0.0004370317917173019 -0.0044113802271229874 0.0040361721973906275 0.007932350102418698 -0.0015852346800571114 -0.0061155992324373352 0.00042154586788349066 0.0023867552412243993
leaf_weight=25 34 43 71 67 67 37 32 44 45 27 31
leaf_count=25 34 43 71 67 67 37 32 44 45 27 31
internal_value=-1.12106e-05 -0.00305669 0.0047065 -0.00112835 -0.00559171 0.00267595 0.00669856 -0.00213938 -0.00669143 -0.000179432 0.00187633
internal_weight=523 318 205 181 137 102 103 87 70 94 65
internal_count=523 318 205 181 137 102 103 87 70 94 65
is_linear=0
shrinkage=0.01


Tree=70
num_leaves=11
num_cat=0
split_feature=0 0 0 0 0 0 0 0 0 0
split_gain=73.8124 14.193 8.61687 1.6899 1.65383 1.03821 0.610853 0.205624 0.168358 0.128767
threshold=0.2563206416381883 -0.8389803117051754 0.98899756713256881 -1.2847583009343924 -0.45575821770035058 1.3452116383158743 0.663596948698287 -0.17167820261518188 -1.0326894407193745 -0.66183803158823606
decision_type=2 2 2 2 2 2 2 2 2 2
left_child=1 3 6 -1 9 -4 -2 -6 -5 -3
right_child=2 4 5 8 7 -7 -8 -9 -10 -11
leaf_value=-0.0069258982630876391 0.0015042673359277944 -0.0029348145695457678 0.0050827846612970708 -0.0051184346126737414 -0.0008970254973442724 0.0071958170905490771 0.0032023625535454914 0 -0.003899784439209244 -0.001912855511404457
leaf_weight=57 54 34 47 43 48 68 40 54 38 38
leaf_count=57 54 34 47 43 48 68 40 54 38 38
internal_value=-8.23427e-05 -0.00316414 0.00451209 -0.00555897 -0.00125486 0.00635123 0.00224274 -0.000422252 -0.00457005 -0.00241609
internal_weight=521 312 209 138 174 115 94 102 81 72
internal_count=521 312 209 138 174 115 94 102 81 72
is_linear=0
shrinkage=0.01


Tree=71
num_leaves=11
num_cat=0
split_feature=0 0 0 0 0 0 0 0 0 0
split_gain=72.355 13.9112 8.44489 1.65571 1.6211 1.01628 0.598358 0.201556 0.183695 0.125748
threshold=0.2563206416381883 -0.8389803117051754 0.98899756713256881 -1.3015352669964446 -0.45575821770035058 1.3452116383158743 0.68385310003590494 -0.17167820261518188 -1.0545639605791659 -0.66183803158823606
decision_type=2 2 2 2 2 2 2 2 2 2
left_child=1 3 6 -1 9 -4 -2 -6 -5 -3
right_child=2 4 5 8 7 -7 -8 -9 -10 -11
leaf_value=-0.0068987727424372793 0.0015198330255059586 -0.0029056380044298565 0.0050321721790705688 -0.0051380486270827695 -0.00088809245834088439 0.0071240699133914929 0.0032135706983935771 0 -0.0039073061002689652 -0.00189382714594846
leaf_weight=55 56 34 47 42 48 68 38 54 41 38
leaf_count=55 56 34 47 42 48 68 38 54 41 38
internal_value=-8.15549e-05 -0.0031328 0.00446727 -0.00550375 -0.00124248 0.00628802 0.00222052 -0.000418039 -0.00455296 -0.0023922
internal_weight=521 312 209 138 174 115 94 102 83 72
internal_count=521 312 209 138 174 115 94 102 83 72
is_linear=0
shrinkage=0.01


Tree=72
num_leaves=11
num_cat=0
split_feature=0 0 0 0 0 0 0 0 0 0
split_gain=70.9306 13.0243 8.99564 1.74553 1.34163 1.24677 0.501748 0.182646 0.159185 0.104283
threshold=0.18866389658749075 -0.89460208209288561 0.9485831050706317 -0.48279800228793096 -1.3015352669964446 1.3167046043439934 0.58930148279936934 -0.23257190080016429 -0.69728488919517295 1.5795325685030439
decision_type=2 2 2 2 2 2 2 2 2 2
left_child=1 4 6 8 -1 -4 -2 -5 -3 -7
right_child=2 3 5 7 -6 9 -8 -9 -10 -11
leaf_value=-0.0068300350247949794 0.0011954197949146333 -0.0030461799794313862 0.0047848415077919974 -0.00099145354307462693 -0.0046417976638698831 0.0064109625374030197 0.0027284591190055406 -0.00010925629523758224 -0.0019738039522582949 0.0078185936745176921
leaf_weight=55 48 39 50 45 74 44 45 55 38 28
leaf_count=55 48 39 50 45 74 44 45 55 38 28
internal_value=-8.07752e-05 -0.0031747 0.00431688 -0.00140324 -0.00559164 0.00610514 0.00195221 -0.000517412 -0.00253639 0.00699237
internal_weight=521 306 215 177 129 122 93 100 77 72
internal_count=521 306 215 177 129 122 93 100 77 72
is_linear=0
shrinkage=0.01


Tree=73
num_leaves=12
num_cat=0
split_feature=0 0 0 0 0 0 0 0 0 0 0
split_gain=69.5329 13.3648 8.1224 1.65299 1.49068 1.10351 0.450052 0.161464 0.15475 0.147663 0.10278
threshold=0.2563206416381883 -0.82717856997693473 1.1454435652455548 -1.271333974524701 -0.40504992657056799 0.74966577264009027 1.479208884683505 -1.0175427505077759 -0.63989050116340185 -0.14799548443242838 0.47779871306935862
decision_type=2 2 2 2 2 2 2 2 2 2 2
left_child=1 3 5 -1 8 10 -4 -5 -3 -6 -2
right_child=2 4 6 7 9 -7 -8 -9 -10 -11 -12
leaf_value=-0.0066828771056355657 0.0010057045223603722 -0.0027501661835178256 0.00570219555631616 -0.0049005020446906793 -0.00073222492106598928 0.0036420556818082079 0.0073495805843741477 -0.0037086057951373438 -0.0017101348895783447 3.6613138854282635e-05 0.0019625023279071512
leaf_weight=59 26 37 53 44 48 49 45 37 40 47 36
leaf_count=59 26 37 53 44 48 49 45 37 40 47 36
internal_value=-7.99469e-05 -0.00307113 0.00437925 -0.00536511 -0.00119407 0.00250523 0.00648226 -0.00437885 -0.00222867 -0.00034207 0.00158187
internal_weight=521 312 209 140 172 111 98 81 77 95 62
internal_count=521 312 209 140 172 111 98 81 77 95 62
is_linear=0
shrinkage=0.01


Tree=74
num_leaves=11
num_cat=0
split_feature=0 0 0 0 0 0 0 0 0 0
split_gain=68.1649 12.5136 8.65077 1.67701 1.28771 1.19852 0.480214 0.175548 0.154062 0.151949
threshold=0.18866389658749075 -0.89460208209288561 0.9485831050706317 -0.48279800228793096 -1.3015352669964446 1.2999307446391888 0.57241141137493612 -0.23257190080016429 1.5795325685030439 -0.69728488919517295
decision_type=2 2 2 2 2 2 2 2 2 2
left_child=1 4 6 9 -1 -4 -2 -5 -7 -3
right_child=2 3 5 7 -6 8 -8 -9 -10 -11
leaf_value=-0.0066953955288382543 0.0011396727330369868 -0.002985822784201223 0.0045504654141572797 -0.00097191314600342141 -0.0045498474982549556 0.0062166153719700658 0.0026400509230413679 -0.00010658254438633289 0.0076679875326494795 -0.0019347070968900053
leaf_weight=55 46 39 44 45 74 50 47 55 28 38
leaf_count=55 46 39 44 45 74 50 47 55 28 38
internal_value=-7.91313e-05 -0.00311218 0.0042319 -0.00137564 -0.0054813 0.00598561 0.0019127 -0.000507124 0.00676869 -0.0024864
internal_weight=521 306 215 177 129 122 93 100 78 77
internal_count=521 306 215 177 129 122 93 100 78 77
is_linear=0
shrinkage=0.01


Tree=75
num_leaves=11
num_cat=0
split_feature=0 0 0 0 0 0 0 0 0 0
split_gain=66.172 12.6832 7.74307 1.67614 1.20996 1.19189 0.357966 0.227717 0.149761 0.149504
threshold=0.31212887099048214 -0.80357128371036934 0.9485831050706317 -1.2344052098315019 -0.33235014202649099 1.3167046043439934 0.62138781023862977 -1.0175427505077759 -0.58585298469504132 -1.500885382540573
decision_type=2 2 2 2 2 2 2 2 2 2
left_child=1 3 6 9 8 -4 -2 -5 -3 -1
right_child=2 4 5 7 -6 -7 -8 -9 -10 -11
leaf_value=-0.007376314259710766 0.0014451390247147784 -0.0024807163019206642 0.0046817040857963987 -0.0048116936488739118 -0.00022419371873909875 0.0068105158042371938 0.0028296913342042403 -0.0035225083946603016 -0.0014878364864787366 -0.0057832770211150844
leaf_weight=25 53 36 53 42 85 71 35 41 44 33
leaf_count=25 53 36 53 42 85 71 35 41 44 33
internal_value=1.10528e-05 -0.00296125 0.00430472 -0.00516338 -0.0010694 0.00591768 0.00201232 -0.00419688 -0.00195217 -0.0065101
internal_weight=518 306 212 141 165 124 88 83 80 58
internal_count=518 306 212 141 165 124 88 83 80 58
is_linear=0
shrinkage=0.01


Tree=76
num_leaves=11
num_cat=0
split_feature=0 0 0 0 0 0 0 0 0 0
split_gain=64.867 12.4344 7.59564 1.64055 1.24352 0.849906 0.613524 0.206774 0.170436 0.133725
threshold=0.31212887099048214 -0.88112054074745461 1.1084590364220157 -0.47096852047314053 -1.333401630462308 0.80532881990602101 1.390464597343988 -0.21058333759672396 -1.1033422892568157 -0.69728488919517295
decision_type=2 2 2 2 2 2 2 2 2 2
left_child=1 4 5 9 -1 -2 -4 -5 -6 -3
right_child=2 3 6 7 8 -7 -8 -9 -10 -11
leaf_value=-0.0067391379797353147 0.0016561316651415965 -0.0029005859007960873 0.0051217898185801714 -0.00092723660072130442 -0.0050594160435474024 0.0035930383253482078 0.0068891926567538888 -1.3961617431086656e-05 -0.0038338386946620202 -0.0018870668597881076
leaf_weight=45 69 34 45 45 45 37 61 60 36 41
leaf_count=45 69 34 45 45 45 37 61 60 36 41
internal_value=1.08268e-05 -0.002932 0.00426196 -0.00123584 -0.00534136 0.00234713 0.00615935 -0.00041589 -0.00453781 -0.00236632
internal_weight=518 306 212 180 126 106 106 105 81 75
internal_count=518 306 212 180 126 106 106 105 81 75
is_linear=0
shrinkage=0.01


Tree=77
num_leaves=11
num_cat=0
split_feature=0 0 0 0 0 0 0 0 0 0
split_gain=63.591 12.6864 6.96196 1.88281 1.04925 0.917588 0.434301 0.357944 0.11167 0.104497
threshold=0.37299950667781806 -0.7580302390754815 1.1454435652455548 -1.1638580505715448 -0.31036768389485031 0.8255636971228516 1.479208884683505 -1.4841554435725461 0.095622424321877911 -0.51659269693832999
decision_type=2 2 2 2 2 2 2 2 2 2
left_child=1 3 5 7 9 -2 -4 -1 -6 -3
right_child=2 4 6 -5 8 -7 -8 -9 -10 -11
