tree
version=v4
num_class=1
num_tree_per_iteration=1
label_index=0
max_feature_idx=0
objective=regression
feature_names=Column_0
feature_infos=[-2.140941175951347:1.1827673309026432]
tree_sizes=1547 1561 1564 1547 1445 1424 1402 1550 1323 1462 1433 1264 1433 1237 1363 1436 1265 1434 1351 1435 1363 1364 1363 1107 1362 1182 1264 1176 1263 1177 1089 1089 1173 1089 1087 1154 1152 1152 1174 1153 1180 1087 1091 1005 1164 1272 1258 1281 1278 1196 1089 1088 1009 1174 1007 922 1006 922 1099 922 1091 1180 1180 1096 1093 1178 1176 1156 1006 1177 1098 1096 1096 1089 1096 1013 927 1007 924 921 1094 1093 1096 1095 1094 1095 1096 1016 1099 1014 925 926 928 928 927 927 1011 1013 1010 994 928 924 920 1014 925 929 928 925 927 842 931 844 763 846 827 929 923 994 1012 924 839 840 841 929 844 846 848 845 840 846 844 846 843 758 759 840 839 844 840 841 762 760 844 845 763 840 845 842 843 845 764 845 763 762 846 845 762 760 763 759 844 761 844 761 763 847 842 762 844 763 759 762 761 847 760 762 764 765 765 849 676 675 673 759 677 763 762 761 768 672 679 763 671 763 678 761 590 671 594 589 676 680 680 591 590 589 592 593 681 593 695 691 694 575 610 682 681 591 679 592 506 506 507 509 508 592 593 508 589 605 592 591 593 570 594 591 508 510 593 509 610 610 610 610 610 596 595 511 510 512 510 510 610 609 510 510 511 513 512 513 512 513 614 511 612 511 509 509 510 510 509 595 508 510 514 527 528 510 529 528 513 514 514 512 530 512 511 512 513 526 511 510 511 512 513 405 405 405 511 426 496 500 501 501 501 426 404 426 426 426 512 404 425 512 425 424 423 423 426 424 424 422 424 423 423 424 424 425 418 424 424 426 425 511 405 414 412 414 414 412 425 424 424 425 423 425 441 423 421 439 336 336 336 426 336 421 423 337 337 337 424 442 424 337 424 418 419 423 420 423 336 335 337 336 337 335 336 336 336 333 336 337 336 337 335 335 336 336 337 336 325 324 324 325 325 324 324 326 325 325 322 321 322 323 322 334 334 336 334 337 334 335 334 334 335 408 323 322 323 323 338 338 339 339 338 336 336 336 336 336 334 333 334 334 332 325 323 323 323 322 326 324 325

Tree=0
num_leaves=16
num_cat=0
split_feature=0 0 0 0 0 0 0 0 0 0 0 0 0 0 0
split_gain=314.147 49.3697 33.9434 4.7916 4.65445 4.28041 2.40627 0.855105 0.541306 0.444303 0.319307 0.309123 0.142631 0.141509 0.107541
threshold=-0.5436370086393626 0.62948992803413528 -1.3651338038127221 0.23752255415312887 -0.9090793911972529 0.95364724823692881 -1.6946035172472076 -0.21962610235395133 -1.1424556600521634 0.44727651709986399 1.0864097674006448 0.78265434959151003 0.032027893484526872 -0.68761360946500927 -0.35357099203650411
decision_type=2 2 2 2 2 2 2 2 2 2 2 2 2 2 2
left_child=2 3 6 7 8 11 -1 14 -4 -5 -7 -3 -9 -6 -2
right_child=1 5 4 9 13 10 -8 12 -10 -11 -12 -13 -14 -15 -16
leaf_value=-0.054643214535823569 -0.038694788929168437 -0.030836809933263581 -0.047249604452865149 -0.034167745144928159 -0.041828006890799428 -0.027411285226188329 -0.049974843859478112 -0.036382017498459311 -0.044682800507959392 -0.03238061270899989 -0.025828715633814489 -0.02904138159158455 -0.035482387160036058 -0.040068169569092218 -0.037306962086859914
leaf_weight=48 14.000000000000002 27 24 29 23 48 22 36 32 38 69 41 31 14.999999999999998 15.999999999999998
leaf_count=48 14 27 24 29 23 48 22 36 32 38 69 41 31 15 16
internal_value=-0.0365419 -0.0311798 -0.0479512 -0.035184 -0.0439795 -0.0276406 -0.0532333 -0.0365959 -0.0458356 -0.0331305 -0.0264531 -0.0297214 -0.0359793 -0.0411827 -0.0379991
internal_weight=513 349 164 164 94 185 70 97 56 67 117 68 67 38 30
internal_count=513 349 164 164 94 185 70 97 56 67 117 68 67 38 30
is_linear=0
shrinkage=1


Tree=1
num_leaves=16
num_cat=0
split_feature=0 0 0 0 0 0 0 0 0 0 0 0 0 0 0
split_gain=307.945 48.3931 33.2665 4.6978 4.56052 4.19319 2.3543 0.838501 0.528883 0.434855 0.310917 0.301615 0.13988 0.137709 0.10511
threshold=-0.5436370086393626 0.62948992803413528 -1.3651338038127221 0.23752255415312887 -0.9090793911972529 0.95364724823692881 -1.6946035172472076 -0.21962610235395133 -1.1424556600521634 0.44727651709986399 1.0864097674006448 0.78265434959151003 0.032027893484526872 -0.68761360946500927 -0.35357099203650411
decision_type=2 2 2 2 2 2 2 2 2 2 2 2 2 2 2
left_child=2 3 6 7 8 11 -1 14 -4 -5 -7 -3 -9 -6 -2
right_child=1 5 4 9 13 10 -8 12 -10 -11 -12 -13 -14 -15 -16
leaf_value=-0.01812481450342044 -0.0023354463027396668 0.0054446897611898542 -0.010805283533640145 0.0021468078161347402 -0.0054374729225347782 0.0088359251482358122 -0.013503597351881835 -4.5472867581067156e-05 -0.0082637637002127493 0.0039161274242775603 0.010402602391435922 0.0072221138436817421 0.00084521841926452448 -0.0036952519063886847 -0.0009612853153620238
leaf_weight=48 14.000000000000002 27 24 29 23 48 22 36 32 38 69 41 31 14.999999999999998 15.999999999999998
leaf_count=48 14 27 24 29 23 48 22 36 32 38 69 41 31 15 16
internal_value=-0.000203867 0.00510501 -0.0115 0.00114051 -0.00756792 0.00860906 -0.0167293 -0.00025732 -0.00940536 0.00317385 0.00978457 0.00654907 0.000353046 -0.00479888 -0.00164689
internal_weight=513 349 164 164 94 185 70 97 56 67 117 68 67 38 30
internal_count=513 349 164 164 94 185 70 97 56 67 117 68 67 38 30
is_linear=0
shrinkage=0.01


Tree=2
num_leaves=16
num_cat=0
split_feature=0 0 0 0 0 0 0 0 0 0 0 0 0 0 0
split_gain=301.866 47.4364 32.6031 4.71405 4.46847 3.99847 2.30341 0.822221 0.516721 0.444862 0.302715 0.269837 0.137184 0.133994 0.10273
threshold=-0.5436370086393626 0.64045221458249524 -1.3651338038127221 0.23752255415312887 -0.9090793911972529 0.95364724823692881 -1.6946035172472076 -0.21962610235395133 -1.1424556600521634 0.44727651709986399 1.0864097674006448 0.78265434959151003 0.032027893484526872 -0.68761360946500927 -0.35357099203650411
decision_type=2 2 2 2 2 2 2 2 2 2 2 2 2 2 2
left_child=2 3 6 7 8 11 -1 14 -4 -5 -7 -3 -9 -6 -2
right_child=1 5 4 9 13 10 -8 12 -10 -11 -12 -13 -14 -15 -16
leaf_value=-0.017944319446057205 -0.0023124208605625257 0.005411919232543189 -0.010698123002840468 0.0021254867550036679 -0.0053835672397038034 0.0087479326660702336 -0.013369777191866626 -4.5020648211405422e-05 -0.0081816393099956621 0.0039015600252516416 0.010298877363604617 0.0071502432719017682 0.00083682043883854 -0.0036587856278607724 -0.00095179116008458318
leaf_weight=48 14.000000000000002 26 24 29 23 48 22 36 32 39 69 41 31 14.999999999999998 15.999999999999998
leaf_count=48 14 26 24 29 23 48 22 36 32 39 69 41 31 15 16
internal_value=-0.000201943 0.00505425 -0.011386 0.00115151 -0.00749316 0.00854351 -0.016563 -0.000254901 -0.00931216 0.00316723 0.00968714 0.00650867 0.000349391 -0.00475163 -0.00163097
internal_weight=513 349 164 165 94 184 70 97 56 68 117 67 67 38 30
internal_count=513 349 164 165 94 184 70 97 56 68 117 67 67 38 30
is_linear=0
shrinkage=0.01


Tree=3
num_leaves=16
num_cat=0
split_feature=0 0 0 0 0 0 0 0 0 0 0 0 0 0 0
split_gain=295.906 46.4988 31.9528 4.51533 4.37826 4.02961 2.25359 0.806259 0.506565 0.504816 0.416402 0.13454 0.130363 0.124597 0.100483
threshold=-0.5436370086393626 0.62948992803413528 -1.3651338038127221 0.23752255415312887 -0.9090793911972529 0.9313148462420201 -1.6946035172472076 -0.21962610235395133 1.0864097674006448 -1.1424556600521634 0.44727651709986399 0.032027893484526872 -0.68761360946500927 0.76940100954370461 -0.37777668644217338
decision_type=2 2 2 2 2 2 2 2 2 2 2 2 2 2 2
left_child=2 3 6 7 9 13 -1 14 -7 -4 -5 -9 -6 -3 -2
right_child=1 5 4 10 12 8 -8 11 -10 -11 -12 -13 -14 -15 -16
leaf_value=-0.017765620664936872 -0.0024520164302417203 0.0052705353545764149 -0.010592026267169921 0.0021043774740744947 -0.0053301957249641419 0.0085333920057696563 -0.013237283691629633 -4.4572931606301941e-05 0.010196185597794593 -0.0081003311702183296 0.0038383598711478144 0.00082850584043906285 -0.003622679330016438 0.006771934326872767 -0.001058165830715249
leaf_weight=48 11.000000000000002 25 24 29 23 58 22 36 69 32 38 31 14.999999999999998 33 19
leaf_count=48 11 25 24 29 23 58 22 36 69 32 38 31 15 33 19
internal_value=-0.000200037 0.00500399 -0.0112732 0.00111772 -0.00741914 0.0084388 -0.0163984 -0.000252505 0.00945927 -0.00921989 0.00311121 0.000345771 -0.00470485 0.0061623 -0.00161521
internal_weight=513 349 164 164 94 185 70 97 127 56 67 67 38 58 30
internal_count=513 349 164 164 94 185 70 97 127 56 67 67 38 58 30
is_linear=0
shrinkage=0.01


Tree=4
num_leaves=15
num_cat=0
split_feature=0 0 0 0 0 0 0 0 0 0 0 0 0 0
split_gain=290.065 45.579 31.3155 4.42698 4.28985 3.94717 2.2048 0.790624 0.494597 0.493161 0.407526 0.13207 0.127338 0.120875
threshold=-0.5436370086393626 0.62948992803413528 -1.3651338038127221 0.23752255415312887 -0.9090793911972529 0.9313148462420201 -1.6946035172472076 -0.21962610235395133 1.0864097674006448 -1.1424556600521634 0.44727651709986399 0.047613492016482649 -0.64002032432461686 0.76940100954370461
decision_type=2 2 2 2 2 2 2 2 2 2 2 2 2 2
left_child=2 3 6 7 9 13 -1 -2 -7 -4 -5 -9 -6 -3
right_child=1 5 4 10 12 8 -8 11 -10 -11 -12 -13 -14 -15
leaf_value=-0.017588701366883591 -0.0015996223110828971 0.0052182482443158601 -0.010486981676629752 0.0020834778045138269 -0.0052071215709050501 0.0084483511710084988 -0.013106103856284339 -2.1006062246507999e-05 0.010094519083555034 -0.0080198309880606129 0.0038001772293245607 0.00084922888482066058 -0.0034648828614841816 0.0067046230528728058
leaf_weight=48 30 25 24 29 25 58 22 38 69 32 38 29 12.999999999999998 33
leaf_count=48 30 25 24 29 25 58 22 38 69 32 38 29 13 33
internal_value=-0.000198152 0.00495424 -0.0111615 0.00110652 -0.00734585 0.0083549 -0.0162355 -0.000250139 0.00936505 -0.00912853 0.00308042 0.000342188 -0.00465853 0.00610126
internal_weight=513 349 164 164 94 185 70 97 127 56 67 67 38 58
internal_count=513 349 164 164 94 185 70 97 127 56 67 67 38 58
is_linear=0
shrinkage=0.01


Tree=5
num_leaves=15
num_cat=0
split_feature=0 0 0 0 0 0 0 0 0 0 0 0 0 0
split_gain=284.819 46.1348 29.0834 5.79882 3.59764 2.64833 2.50954 1.01558 0.501027 0.379663 0.206052 0.18261 0.138691 0.111973
threshold=-0.5436370086393626 0.6884400948049666 -1.3651338038127221 0.28537795061833887 -0.94721379937212624 -1.7418288973245029 0.9870325671646224 -0.20506323560560574 0.50615025073327813 -1.1424556600521634 -0.71802094845377495 0.088429647815833137 0.86708472389807079 1.1023736234821933
decision_type=2 2 2 2 2 2 2 2 2 2 2 2 2 2
left_child=2 3 5 7 9 -1 12 -2 -5 -4 -6 -9 -3 -8
right_child=1 6 4 8 10 -7 13 11 -10 -11 -12 -13 -14 -15
leaf_value=-0.017745640950180344 -0.0015973398627232244 0.0059539821305695699 -0.010344913201085453 0.0025985694146571465 -0.0057577505117317419 -0.01310555212370312 0.0086853938419107005 5.7771084079098311e-05 0.0042889512440672621 -0.0079774585978625561 -0.003860937825271062 0.0010880305049992397 0.0075829231865862578 0.010022923361285152
leaf_weight=42 30 27 23 40 21 26 42 37 43 29 18 36 28 76
leaf_count=42 30 27 23 40 21 26 42 37 43 29 18 36 28 76
internal_value=6.09606e-05 0.00499749 -0.011071 0.00153083 -0.0073276 -0.0160298 0.0087128 -4.55802e-05 0.00349453 -0.00907938 -0.00493197 0.00058109 0.00682585 0.00957082
internal_weight=518 359 159 186 91 68 173 103 83 52 39 73 55 118
internal_count=518 359 159 186 91 68 173 103 83 52 39 73 55 118
is_linear=0
shrinkage=0.01


Tree=6
num_leaves=15
num_cat=0
split_feature=0 0 0 0 0 0 0 0 0 0 0 0 0 0
split_gain=279.201 45.2204 28.5032 5.68406 3.52483 2.59214 2.4573 0.9958 0.490597 0.37048 0.200999 0.196702 0.134602 0.107724
threshold=-0.5436370086393626 0.6884400948049666 -1.3651338038127221 0.28537795061833887 -0.94721379937212624 -1.7418288973245029 0.9870325671646224 -0.21962610235395133 0.49579825390946058 -1.1424556600521634 -0.71802094845377495 0.066934523333906745 0.86708472389807079 1.1023736234821933
decision_type=2 2 2 2 2 2 2 2 2 2 2 2 2 2
left_child=2 3 5 7 9 -1 12 -2 -5 -4 -6 -9 -3 -8
right_child=1 6 4 8 10 -7 13 11 -10 -11 -12 -13 -14 -15
leaf_value=-0.017569025834024803 -0.0016562719960161981 0.0058948800274554415 -0.010242356216085369 0.0025298094546607653 -0.0057007161907429976 -0.01297549742778749 0.008598951923338722 0 0.0042084687895479452 -0.0078982307363862862 -0.003822752682717292 0.0010497989712273264 0.0075076319520355119 0.0099229566490869198
leaf_weight=42 28 27 23 38 21 26 42 37 45 29 18 38 28 76
leaf_count=42 28 27 23 38 21 26 42 37 45 29 18 38 28 76
internal_value=6.02732e-05 0.0049479 -0.0109614 0.0015157 -0.00725527 -0.0158705 0.00862622 -4.49394e-05 0.00345987 -0.00898948 -0.0048834 0.000546132 0.00675826 0.00947551
internal_weight=518 359 159 186 91 68 173 103 83 52 39 75 55 118
internal_count=518 359 159 186 91 68 173 103 83 52 39 75 55 118
is_linear=0
shrinkage=0.01


Tree=7
num_leaves=16
num_cat=0
split_feature=0 0 0 0 0 0 0 0 0 0 0 0 0 0 0
split_gain=273.699 43.0689 29.2671 5.23447 3.65423 2.86826 2.40612 0.860269 0.412482 0.380733 0.185932 0.130606 0.123892 0.110803 0.103581
threshold=-0.50892095241676139 0.6884400948049666 -1.3394633459596543 0.30060473260339055 -0.9090793911972529 -1.6946035172472076 0.9870325671646224 -0.13343539365971827 0.50615025073327813 -1.1134864952231076 -0.68761360946500927 0.86708472389807079 -0.35357099203650411 0.11650376694709143 1.1023736234821933
decision_type=2 2 2 2 2 2 2 2 2 2 2 2 2 2 2
left_child=2 3 5 7 9 -1 11 12 -5 -4 -6 -3 -2 -9 -8
right_child=1 6 4 8 10 -7 14 13 -10 -11 -12 -13 -14 -15 -16
leaf_value=-0.017286545232410345 -0.0019878793642169141 0.0058363647013902663 -0.009765755656887502 0.0026128984330802837 -0.0052398425083735904 -0.012567209524052743 0.008513369667586557 0.00026964091185531389 0.0042043704594726915 -0.0074686990302937628 -0.0034169351576287072 0.0074330881850939272 -0.00065377066466417019 0.0011574172557882183 0.0098239876419853357
leaf_weight=44 11.999999999999998 27 27 37 23 26 42 29 43 26 15.999999999999998 28 26 36 76
leaf_count=44 12 27 27 37 23 26 42 29 43 26 16 28 26 36 76
internal_value=5.95921e-05 0.00496472 -0.0107062 0.00157325 -0.00695474 -0.0155887 0.0085405 7.16192e-05 0.00348913 -0.00869001 -0.00453874 0.00669134 -0.00110945 0.000778712 0.00938115
internal_weight=518 356 162 183 92 70 173 103 80 53 39 55 38 65 118
internal_count=518 356 162 183 92 70 173 103 80 53 39 55 38 65 118
is_linear=0
shrinkage=0.01


Tree=8
num_leaves=14
num_cat=0
split_feature=0 0 0 0 0 0 0 0 0 0 0 0 0
split_gain=268.299 43.4473 27.3802 5.17403 3.38367 2.65581 2.48595 0.909372 0.493083 0.354216 0.230987 0.192028 0.16308
threshold=-0.5436370086393626 0.67163743164840373 -1.3651338038127221 0.26721911142223126 -0.94721379937212624 0.96910719115163857 -1.7418288973245029 -0.21962610235395133 0.46801832666349524 -1.1424556600521634 1.0864097674006448 -0.71802094845377495 0.066934523333906745
decision_type=2 2 2 2 2 2 2 2 2 2 2 2 2
left_child=2 3 6 7 9 -3 -1 -2 -5 -4 -7 -6 -9
right_child=1 5 4 8 11 10 -8 12 -10 -11 -12 -13 -14
leaf_value=-0.017222121716675601 -0.001624718766051827 0.0063253167544703084 -0.010041585061056861 0.0022270852883896197 -0.005589188744999328 0.0082956724171921355 -0.012718417316902684 0 0.00393014215259438 -0.0077408940702268511 0.0097003343385277368 -0.0037461433567843598 0.00097826266576620641
leaf_weight=42 28 50 23 33 21 47 26 37 50 29 79 18 35
leaf_count=42 28 50 23 33 21 47 26 37 50 29 79 18 35
internal_value=5.89054e-05 0.0048502 -0.0107454 0.00142924 -0.0071126 0.00839587 -0.0155571 -9.37639e-05 0.00327202 -0.00881224 0.00919827 -0.00478752 0.000490608
internal_weight=518 359 159 183 91 176 68 100 83 52 126 39 72
internal_count=518 359 159 183 91 176 68 100 83 52 126 39 72
is_linear=0
shrinkage=0.01


Tree=9
num_leaves=15
num_cat=0
split_feature=0 0 0 0 0 0 0 0 0 0 0 0 0 0
split_gain=263.017 41.3808 28.1121 5.02928 3.5081 2.75099 2.308 0.82761 0.395956 0.363847 0.176697 0.168527 0.119785 0.106181
threshold=-0.50892095241676139 0.6884400948049666 -1.3394633459596543 0.30060473260339055 -0.9090793911972529 -1.6946035172472076 0.99359037809764372 -0.13343539365971827 0.50615025073327813 -1.1134864952231076 -0.68761360946500927 0.86708472389807079 -0.35357099203650411 0.13528820096965505
decision_type=2 2 2 2 2 2 2 2 2 2 2 2 2 2
left_child=2 3 5 7 9 -1 11 12 -5 -4 -6 -3 -2 -9
right_child=1 6 4 8 10 -7 -8 13 -10 -11 -12 -13 -14 -15
leaf_value=-0.016945058733090018 -0.0019523456033136025 0.0057156420016989994 -0.0095742137204198278 0.0025601807044398402 -0.005136457763869188 -0.012318327099312352 0.0092291840631514785 0.00033295432840915095 0.0041217385880925033 -0.0073202277276352154 -0.003350117265442272 0.0073497672761097931 -0.000639221275381687 0.0011991697965333095
leaf_weight=44 11.999999999999998 27 27 37 23 26 115 34 43 26 15.999999999999998 31 26 31
leaf_count=44 12 27 27 37 23 26 115 34 43 26 16 31 26 31
internal_value=5.81916e-05 0.00486668 -0.0104954 0.00154221 -0.00681829 -0.0152808 0.00837171 7.01058e-05 0.00342017 -0.00851896 -0.00444994 0.00662849 -0.00108812 0.000763821
internal_weight=518 356 162 183 92 70 173 103 80 53 39 58 38 65
internal_count=518 356 162 183 92 70 173 103 80 53 39 58 38 65
is_linear=0
shrinkage=0.01


Tree=10
num_leaves=15
num_cat=0
split_feature=0 0 0 0 0 0 0 0 0 0 0 0 0 0
split_gain=244.665 41.4791 25.7015 4.06605 3.2135 3.18883 2.37953 0.708501 0.505543 0.336573 0.295892 0.135035 0.109736 0.105785
threshold=-0.5436370086393626 0.64045221458249524 -1.3394633459596543 0.21243078844853855 0.95364724823692881 -0.9090793911972529 -1.6946035172472076 -0.24369896680085218 0.44727651709986399 -1.1134864952231076 1.0864097674006448 0.78265434959151003 -0.053045075037449478 -0.71802094845377495
decision_type=2 2 2 2 2 2 2 2 2 2 2 2 2 2
left_child=2 3 6 7 11 9 -1 -2 -5 -4 -6 -3 -9 -7
right_child=1 4 5 8 10 13 -8 12 -10 -11 -12 -13 -14 -15
leaf_value=-0.01655955099412219 -0.0015688786619942484 0.0050534847327347466 -0.0095327359437942499 0.0019154120552602239 0.0080378772394131808 -0.0052556770624116412 -0.012144599982670375 -0.00014536280893044523 0.0036427262623091134 -0.0072421291495157669 0.0095336608957038837 0.0065527629396136926 0.00064726602130067289 -0.0036704895047858211
leaf_weight=44 29 23 25 38 47 17 25 29 39 24 71 39 38 20
leaf_count=44 29 23 25 38 47 17 25 29 39 24 71 39 38 20
internal_value=5.75533e-06 0.00460625 -0.0104575 0.00110065 0.007965 -0.00676364 -0.0150141 -0.000263309 0.00281041 -0.00846513 0.00896095 0.00603069 0.000289895 -0.00445004
internal_weight=508 353 155 173 180 86 69 96 77 49 118 62 67 37
internal_count=508 353 155 173 180 86 69 96 77 49 118 62 67 37
is_linear=0
shrinkage=0.01


Tree=11
num_leaves=13
num_cat=0
split_feature=0 0 0 0 0 0 0 0 0 0 0 0
split_gain=239.846 39.8643 26.0178 3.81272 3.24646 3.14831 2.68807 0.674554 0.380358 0.343603 0.199758 0.117193
threshold=-0.50892095241676139 0.64045221458249524 -1.3006205335223815 0.25736963634678894 -1.5859968934503199 0.94463583100653392 -0.85701422727817878 -0.20506323560560574 0.44727651709986399 1.0687403628994898 -1.0571025914092582 0.066934523333906745
decision_type=2 2 2 2 2 2 2 2 2 2 2 2
left_child=2 3 4 7 -1 -3 10 -2 -5 -7 -4 -9
right_child=1 5 6 8 -6 9 -8 11 -10 -11 -12 -13
leaf_value=-0.016242725445052324 -0.0013417482380874649 0.0058985847718006842 -0.0088732592675311514 0.0020022087937556438 -0.011508359646966271 0.0078930035468453685 -0.0041752356669520806 2.5702562787769975e-05 0.0036064847376273603 0.0094178969856819825 -0.0068291877143017892 0.0008819626720669942
leaf_weight=47 31 59 24 32 28 48 36 38 39 73 22 31
leaf_count=47 31 59 24 32 28 48 36 38 39 73 22 31
internal_value=5.57683e-06 0.00460282 -0.0102588 0.00113599 -0.0145238 0.00788584 -0.00631976 -0.000113408 0.00290513 0.00883525 -0.0079511 0.000426287
internal_weight=508 351 157 171 75 180 82 100 71 121 46 69
internal_count=508 351 157 171 75 180 82 100 71 121 46 69
is_linear=0
shrinkage=0.01


Tree=12
num_leaves=15
num_cat=0
split_feature=0 0 0 0 0 0 0 0 0 0 0 0 0 0
split_gain=235.111 39.8485 24.6934 3.90813 3.08467 3.06026 2.28195 0.681043 0.484155 0.320245 0.28075 0.133535 0.105639 0.103157
threshold=-0.5436370086393626 0.64045221458249524 -1.3394633459596543 0.21243078844853855 0.95364724823692881 -0.9090793911972529 -1.6946035172472076 -0.24369896680085218 0.44727651709986399 -1.1134864952231076 1.0864097674006448 0.79295366818087853 -0.053045075037449478 -0.71802094845377495
decision_type=2 2 2 2 2 2 2 2 2 2 2 2 2 2
left_child=2 3 6 7 11 9 -1 -2 -5 -4 -6 -3 -9 -7
right_child=1 4 5 8 10 13 -8 12 -10 -11 -12 -13 -14 -15
leaf_value=-0.016233013016066399 -0.0015380310614223354 0.0050332801806107731 -0.0093438626849462122 0.0018782005010475041 0.0078785976035110027 -0.0051578357261280686 -0.011904310811133611 -0.00014230118005549255 0.0035706038666622982 -0.0070983554804620666 0.0093446778648355027 0.0064862535375257869 0.00063496776968630824 -0.0035928091760909211
leaf_weight=44 29 26 25 38 47 17 25 29 39 24 71 36 38 20
leaf_count=44 29 26 25 38 47 17 25 29 39 24 71 36 38 20
internal_value=5.44533e-06 0.00451526 -0.0102514 0.00107913 0.00780735 -0.00663034 -0.014718 -0.0002579 0.00275537 -0.00829767 0.00878351 0.00591116 0.000284235 -0.00436262
internal_weight=508 353 155 173 180 86 69 96 77 49 118 62 67 37
internal_count=508 353 155 173 180 86 69 96 77 49 118 62 67 37
is_linear=0
shrinkage=0.01


Tree=13
num_leaves=13
num_cat=0
split_feature=0 0 0 0 0 0 0 0 0 0 0 0
split_gain=230.48 38.2972 24.9977 3.66531 3.11367 3.0227 2.5797 0.647771 0.381027 0.363703 0.188781 0.112746
threshold=-0.50892095241676139 0.64045221458249524 -1.3006205335223815 0.25736963634678894 -1.5859968934503199 0.93803584186960676 -0.85701422727817878 -0.20506323560560574 1.0687403628994898 0.44727651709986399 -1.0571025914092582 0.047613492016482649
decision_type=2 2 2 2 2 2 2 2 2 2 2 2
left_child=2 3 4 7 -1 -3 10 -2 -7 -5 -4 -9
right_child=1 5 6 9 -6 8 -8 11 -10 -11 -12 -13
leaf_value=-0.015922094634023765 -0.001314924445289832 0.0057061131197786831 -0.008697233377409375 0.001963645694603831 -0.011281341787771132 0.0077050302806310348 -0.0040930671734704495 0 0.0092311843366570806 0.0035350800685736597 -0.006693789561589559 0.00082614514039970968
leaf_weight=47 31 56 24 32 28 51 36 35 73 39 22 34
leaf_count=47 31 56 24 32 28 51 36 35 73 39 22 34
internal_value=5.27208e-06 0.0045119 -0.0100566 0.00111376 -0.0142375 0.00772977 -0.00619519 -0.000111059 0.00862496 0.00284838 -0.00779383 0.000417594
internal_weight=508 351 157 171 75 180 82 100 124 71 46 69
internal_count=508 351 157 171 75 180 82 100 124 71 46 69
is_linear=0
shrinkage=0.01


Tree=14
num_leaves=14
num_cat=0
split_feature=0 0 0 0 0 0 0 0 0 0 0 0 0
split_gain=225.931 38.2823 23.7247 3.75659 2.96261 2.93682 2.18827 0.654594 0.463607 0.40757 0.304616 0.101563 0.101338
threshold=-0.5436370086393626 0.64045221458249524 -1.3394633459596543 0.21243078844853855 0.9313148462420201 -0.9090793911972529 -1.6946035172472076 -0.24369896680085218 0.44727651709986399 1.0687403628994898 -1.1134864952231076 -0.053045075037449478 -0.68761360946500927
decision_type=2 2 2 2 2 2 2 2 2 2 2 2 2
left_child=2 3 6 7 -3 10 -1 -2 -5 -6 -4 -9 -7
right_child=1 4 5 8 9 12 -8 11 -10 -11 -12 -13 -14
leaf_value=-0.015912916439151333 -0.0015077940384819086 0.0055962328365368151 -0.0091587305636633004 0.0018417698242433409 0.0076079005182237546 -0.0048308051197693269 -0.011668770095658681 -0.00013908664555582282 0.0034999095952632474 0.009139124474238829 -0.0069574348542315902 0.00062259582266289526 -0.0032413369081389742
leaf_weight=44 29 54 25 38 53 23 25 29 39 73 24 38 13.999999999999998
leaf_count=44 29 54 25 38 53 23 25 29 39 73 24 38 14
internal_value=5.13742e-06 0.00442607 -0.0100495 0.001058 0.00765283 -0.00649967 -0.0144278 -0.000252659 0.00270145 0.00851604 -0.00813354 0.000278599 -0.00427693
internal_weight=508 353 155 173 180 86 69 96 77 126 49 67 37
internal_count=508 353 155 173 180 86 69 96 77 126 49 67 37
is_linear=0
shrinkage=0.01


Tree=15
num_leaves=15
num_cat=0
split_feature=0 0 0 0 0 0 0 0 0 0 0 0 0 0
split_gain=229.319 39.1073 26.2041 4.11375 3.69351 2.77523 1.86121 0.79879 0.404744 0.31805 0.25722 0.132934 0.122935 0.119862
threshold=-0.5436370086393626 0.65669038909781574 -1.3651338038127221 0.23752255415312887 -0.94721379937212624 0.96910719115163857 -1.7715149948736499 -0.24369896680085218 0.44727651709986399 -1.1780684067672309 -0.74961871150495563 0.8126702307095176 1.1023736234821933 -0.036928715260094704
decision_type=2 2 2 2 2 2 2 2 2 2 2 2 2 2
left_child=2 3 6 7 9 11 -1 -2 -5 -4 -6 -3 -7 -9
right_child=1 5 4 8 10 12 -8 13 -10 -11 -12 -13 -14 -15
leaf_value=-0.016190441069911368 -0.0015711095258130788 0.0050723489450338567 -0.0096036087904336313 0.0018336772344867637 -0.0053528536856174468 0.0078041324852886843 -0.01228663256723587 -0.00015206684422207207 0.0034239743056550488 -0.0073982141291873051 -0.0035000860668320693 0.0065192370667849497 0.0090539246237176085 0.00065542104973078318
leaf_weight=40 32 31 21 32 19 47 29 29 45 32 26 29 70 43
leaf_count=40 32 31 21 32 19 47 29 29 45 32 26 29 70 43
internal_value=-0.000202341 0.00430947 -0.00987393 0.00103252 -0.00651014 0.00764988 -0.0146044 -0.00025639 0.00278249 -0.00832367 -0.00432471 0.00580762 0.00857458 0.000316812
internal_weight=525 358 167 181 98 177 69 104 77 53 45 60 117 72
internal_count=525 358 167 181 98 177 69 104 77 53 45 60 117 72
is_linear=0
shrinkage=0.01


Tree=16
num_leaves=13
num_cat=0
split_feature=0 0 0 0 0 0 0 0 0 0 0 0
split_gain=224.798 39.3929 24.6057 3.85916 3.27803 3.18517 1.82117 0.814593 0.47074 0.332465 0.310288 0.195644
threshold=-0.56063800412657649 0.62948992803413528 -1.3651338038127221 0.18848435207802372 -0.94721379937212624 0.92303983661488609 -1.7715149948736499 -0.27146365054992883 0.39133020858764384 1.0656888193044334 -1.1780684067672309 -0.74961871150495563
decision_type=2 2 2 2 2 2 2 2 2 2 2 2
left_child=2 3 6 7 10 -3 -1 -2 -5 -7 -4 -6
right_child=1 5 4 8 11 9 -8 -9 -10 -11 -12 -13
leaf_value=-0.016029342466325903 -0.0017527023948127438 0.0052974941789875538 -0.0095084791588333425 0.0015117583486689143 -0.0052998827273647003 0.0074485197127796702 -0.012164607488945739 0.00017154622482069368 0.0031654342017688993 0.0088806137848984109 -0.0073246917628353413 -0.0035517018648057153
leaf_weight=40 32 52 21 33 19 51 29 67 47 79 32 23
leaf_count=40 32 52 21 33 19 51 29 67 47 79 32 23
internal_value=-0.000200401 0.00420799 -0.00990364 0.000868804 -0.00656084 0.0074821 -0.0144593 -0.000442632 0.00250123 0.00833878 -0.00824126 -0.00438761
internal_weight=525 361 164 179 95 182 69 99 80 130 53 42
internal_count=525 361 164 179 95 182 69 99 80 130 53 42
is_linear=0
shrinkage=0.01


Tree=17
num_leaves=15
num_cat=0
split_feature=0 0 0 0 0 0 0 0 0 0 0 0 0 0
split_gain=220.369 37.5778 25.1673 3.95247 3.54482 2.66424 1.78797 0.767287 0.388147 0.302693 0.245091 0.127515 0.1168 0.115136
threshold=-0.5436370086393626 0.65669038909781574 -1.3651338038127221 0.23752255415312887 -0.94721379937212624 0.96910719115163857 -1.813287119634853 -0.24369896680085218 0.41085943720894835 -1.1780684067672309 -0.74961871150495563 0.8126702307095176 -0.036928715260094704 1.1023736234821933
decision_type=2 2 2 2 2 2 2 2 2 2 2 2 2 2
left_child=2 3 6 7 9 11 -1 -2 -5 -4 -6 -3 -9 -7
right_child=1 5 4 8 10 13 -8 12 -10 -11 -12 -13 -14 -15
leaf_value=-0.016234768054571497 -0.0015398705995971372 0.0049693151716238412 -0.0094142913368513003 0.0017198477736482885 -0.005247435964023074 0.0076495216357505922 -0.012448959429619719 -0.00015226030543650669 0.0033056090345521191 -0.007251899757000229 -0.0034321663807366644 0.0063923025457826377 0.00064470779435295191 0.008875090566455808
leaf_weight=33 32 31 21 29 19 47 36 29 48 32 26 29 43 70
leaf_count=33 32 31 21 29 19 47 36 29 48 32 26 29 43 70
internal_value=-0.000198508 0.00422434 -0.00967951 0.00101198 -0.00638256 0.0074988 -0.0143157 -0.000251233 0.00272733 -0.00815966 -0.00424056 0.00569266 0.000310324 0.00840519
internal_weight=525 358 167 181 98 177 69 104 77 53 45 60 72 117
internal_count=525 358 167 181 98 177 69 104 77 53 45 60 72 117
is_linear=0
shrinkage=0.01


Tree=18
num_leaves=14
num_cat=0
split_feature=0 0 0 0 0 0 0 0 0 0 0 0 0
split_gain=216.022 37.8521 23.6323 3.55255 3.24431 3.14748 1.75251 0.786009 0.416442 0.31655 0.243114 0.237296 0.137863
threshold=-0.56063800412657649 0.61730631249755252 -1.3651338038127221 0.18848435207802372 0.92303983661488609 -0.96588176528489356 -1.7715149948736499 -0.29157110613710574 0.39133020858764384 1.0623369883984786 -1.1780684067672309 -0.74961871150495563 -0.08967640591836408
decision_type=2 2 2 2 2 2 2 2 2 2 2 2 2
left_child=2 3 6 7 -3 10 -1 -2 -5 -6 -4 -7 -9
right_child=1 4 5 8 9 11 -8 12 -10 -11 -12 -13 -14
leaf_value=-0.015714898577970059 -0.0019215626832638081 0.0051513249022934263 -0.0093210364119061893 0.0014822276919541589 0.0072728894517673703 -0.0052922005754596794 -0.011920158348671377 -0.00038754781494090639 0.003059174442185765 0.0086875537302106478 -0.0072433662217184407 -0.0034824651608179359 0.00047997650048397117
leaf_weight=40 26 54 21 33 49 21 29 32 45 81 30 23 41
leaf_count=40 26 54 21 33 49 21 29 32 45 81 30 23 41
internal_value=-0.000196607 0.00412484 -0.00970859 0.0008151 0.0072989 -0.00643218 -0.0141735 -0.000433961 0.00241029 0.00817401 -0.00815148 -0.00438887 8.60108e-05
internal_weight=525 361 164 177 184 95 69 99 78 130 51 44 73
internal_count=525 361 164 177 184 95 69 99 78 130 51 44 73
is_linear=0
shrinkage=0.01


Tree=19
num_leaves=15
num_cat=0
split_feature=0 0 0 0 0 0 0 0 0 0 0 0 0 0
split_gain=211.766 36.1116 24.1718 3.79728 3.40374 2.55674 1.72139 0.737436 0.372337 0.287655 0.233216 0.122692 0.112111 0.108047
threshold=-0.5436370086393626 0.65669038909781574 -1.3651338038127221 0.23752255415312887 -0.94721379937212624 0.96910719115163857 -1.813287119634853 -0.24369896680085218 0.44727651709986399 -1.1780684067672309 -0.74961871150495563 0.80584962630513113 -0.036928715260094704 1.1023736234821933
decision_type=2 2 2 2 2 2 2 2 2 2 2 2 2 2
left_child=2 3 6 7 9 11 -1 -2 -5 -4 -6 -3 -9 -7
right_child=1 5 4 8 10 13 -8 12 -10 -11 -12 -13 -14 -15
leaf_value=-0.015917195153523637 -0.0015097589277147504 0.0047974693627222216 -0.0092287053308396962 0.0017601082996922248 -0.0051431375058988739 0.007497633152594 -0.01219927659350864 -0.00014868177945585284 0.0032894070156380142 -0.0071090594470871148 -0.0033653353097784612 0.0062002603570867022 0.0006316570038217361 0.008699964053950078
leaf_weight=33 32 28 21 32 19 47 36 29 45 32 26 32 43 70
leaf_count=33 32 28 21 32 19 47 36 29 45 32 26 32 43 70
internal_value=-0.000194771 0.00414085 -0.00948891 0.000991659 -0.00625744 0.00735081 -0.0140327 -0.000246336 0.00267301 -0.00799925 -0.00415752 0.00558035 0.000303962 0.00823913
internal_weight=525 358 167 181 98 177 69 104 77 53 45 60 72 117
internal_count=525 358 167 181 98 177 69 104 77 53 45 60 72 117
is_linear=0
shrinkage=0.01


Tree=20
num_leaves=14
num_cat=0
split_feature=0 0 0 0 0 0 0 0 0 0 0 0 0
split_gain=194.838 32.0892 21.226 3.07347 2.47735 2.30467 2.16636 0.518454 0.339339 0.133864 0.131043 0.118717 0.117135
threshold=-0.50892095241676139 0.65669038909781574 -1.317233219775362 0.23752255415312887 -1.6946035172472076 0.96910719115163857 -0.85701422727817878 -0.21962610235395133 0.41085943720894835 -1.0571025914092582 0.79295366818087853 -0.64002032432461686 1.0864097674006448
decision_type=2 2 2 2 2 2 2 2 2 2 2 2 2
left_child=2 3 4 7 -1 10 9 -2 -5 -4 -3 -8 -7
right_child=1 5 6 8 -6 12 11 -9 -10 -11 -12 -13 -14
leaf_value=-0.015057790777058275 -0.0013428342835429838 0.0046062380328493304 -0.0080652348200480149 0.0016846121365252215 -0.010881999410115755 0.00735565958475625 -0.0044259656708816007 0.00030249153196080765 0.0031845400387076968 -0.0062382211775149944 0.0060785595754876513 -0.0027884637045137812 0.0086072194735918716
leaf_weight=41 27 21 25 31 31 43 23 63 42 21 42 12.999999999999998 67
leaf_count=41 27 21 25 31 31 43 23 63 42 21 42 13 67
internal_value=-2.85735e-05 0.00423818 -0.00933777 0.00104497 -0.0133089 0.00723636 -0.00581489 -0.000181903 0.00256759 -0.00728342 0.00561974 -0.00388094 0.00814129
internal_weight=490 336 154 163 72 173 82 90 73 46 63 36 110
internal_count=490 336 154 163 72 173 82 90 73 46 63 36 110
is_linear=0
shrinkage=0.01


Tree=21
num_leaves=14
num_cat=0
split_feature=0 0 0 0 0 0 0 0 0 0 0 0 0
split_gain=190.997 31.4536 20.8028 3.01318 2.54534 2.25733 2.03545 0.486678 0.364206 0.13702 0.115561 0.100848 0.10028
threshold=-0.50892095241676139 0.65669038909781574 -1.3006205335223815 0.21243078844853855 -1.6946035172472076 0.97529103478761725 -0.85701422727817878 -0.21962610235395133 0.41085943720894835 0.80584962630513113 -0.64002032432461686 -1.0571025914092582 1.1023736234821933
decision_type=2 2 2 2 2 2 2 2 2 2 2 2 2
left_child=2 3 4 7 -1 9 11 -2 -5 -3 -8 -4 -7
right_child=1 5 6 8 -6 12 10 -9 -10 -11 -12 -13 -14
leaf_value=-0.014907943716326961 -0.0013295046908452231 0.0046559477246497288 -0.0079246348930784496 0.0016376858424529972 -0.010732807494838785 0.0073212971029238466 -0.0043820876859385393 0.00027113389522080716 0.0031528456537361959 0.0060892763778344905 -0.0027610016094915795 -0.0061764274678140323 0.0085402279214624975
leaf_weight=41 27 24 24 33 32 44 23 61 42 40 12.999999999999998 21 65
leaf_count=41 27 24 24 33 32 44 23 61 42 40 13 21 65
internal_value=-2.83366e-05 0.00419613 -0.00924533 0.00103463 -0.0131257 0.00716447 -0.00571214 -0.000210534 0.0025056 0.00558353 -0.00384281 -0.00716187 0.00807165
internal_weight=490 336 154 163 73 173 81 88 75 64 36 45 109
internal_count=490 336 154 163 73 173 81 88 75 64 36 45 109
is_linear=0
shrinkage=0.01


Tree=22
num_leaves=14
num_cat=0
split_feature=0 0 0 0 0 0 0 0 0 0 0 0 0
split_gain=187.231 30.8306 20.3884 2.95406 2.71075 2.21089 1.57008 0.498417 0.324841 0.259705 0.157833 0.124057 0.109395
threshold=-0.50892095241676139 0.65669038909781574 -1.4235713562533567 0.23752255415312887 -0.9090793911972529 0.96910719115163857 -1.7418288973245029 -0.18805150227483755 0.41085943720894835 -1.1134864952231076 -0.64002032432461686 0.79295366818087853 1.1023736234821933
decision_type=2 2 2 2 2 2 2 2 2 2 2 2 2
left_child=2 3 6 7 9 11 -1 -2 -5 -4 -6 -3 -7
right_child=1 5 4 8 10 12 -8 -9 -10 -11 -12 -13 -14
leaf_value=-0.014912363627818241 -0.0012079887837171555 0.0045144899386279991 -0.008539917743395244 0.0016516021768061015 -0.0044772911367525585 0.0072374947487780471 -0.011193895743173712 0.00034821685003997703 0.0031214666048779874 -0.0064997530267352143 -0.0027338098802349785 0.0059584767530314721 0.0084550877601091111
leaf_weight=38 31 21 25 31 26 45 27 59 42 25 12.999999999999998 42 65
leaf_count=38 31 21 25 31 26 45 27 59 42 25 13 42 65
internal_value=-2.81004e-05 0.0041545 -0.00915381 0.00102439 -0.00600214 0.00709331 -0.0134222 -0.000178213 0.00251716 -0.00756972 -0.00393855 0.00550878 0.0079801
internal_weight=490 336 154 163 89 173 65 90 73 50 39 63 110
internal_count=490 336 154 163 89 173 65 90 73 50 39 63 110
is_linear=0
shrinkage=0.01


Tree=23
num_leaves=11
num_cat=0
split_feature=0 0 0 0 0 0 0 0 0 0
split_gain=183.542 29.5995 20.6605 2.89594 2.44677 2.11436 2.02815 0.48262 0.251674 0.14101
threshold=-0.47176869933912452 0.66739127887029126 -1.3006205335223815 0.26721911142223126 -1.5859968934503199 -0.85701422727817878 0.97529103478761725 -0.16861058113160191 0.46364569923779436 -0.64002032432461686
decision_type=2 2 2 2 2 2 2 2 2 2
left_child=2 3 4 7 -1 -4 -3 -2 -5 -7
right_child=1 6 5 8 -6 9 -8 -9 -10 -11
leaf_value=-0.014470954966221458 -0.0010189917683601378 0.0055191913208777503 -0.0070200536947334757 0.001829978739970351 -0.01031741486428535 -0.0042942575699296496 0.0079118257499003163 0.00047707457311475777 0.0032017408155683258 -0.0026725379808952938
leaf_weight=44 33 62 45 29 29 23 109 61 40 14.999999999999998
leaf_count=44 33 62 45 29 29 23 109 61 40 15
internal_value=-2.78736e-05 0.00415253 -0.00897849 0.00109382 -0.0128673 -0.00552351 0.00705762 -3.85729e-05 0.00264661 -0.00369763
internal_weight=490 334 156 163 73 83 171 94 69 38
internal_count=490 334 156 163 73 83 171 94 69 38
is_linear=0
shrinkage=0.01


Tree=24
num_leaves=14
num_cat=0
split_feature=0 0 0 0 0 0 0 0 0 0 0 0 0
split_gain=179.916 29.6205 19.5941 2.84185 2.60218 2.12075 1.52602 0.460581 0.340775 0.251507 0.149943 0.134871 0.104059
threshold=-0.50892095241676139 0.65669038909781574 -1.4235713562533567 0.21243078844853855 -0.9090793911972529 0.95364724823692881 -1.813287119634853 -0.24369896680085218 0.41085943720894835 -1.1134864952231076 -0.68761360946500927 1.0864097674006448 0.78265434959151003
decision_type=2 2 2 2 2 2 2 2 2 2 2 2 2
left_child=2 3 6 7 9 12 -1 -2 -5 -4 -6 -7 -3
right_child=1 5 4 8 10 11 -8 -9 -10 -11 -12 -13 -14
leaf_value=-0.015242908509338604 -0.0013228319192888172 0.0043834423045120618 -0.0083750851192171613 0.0015908467688833376 -0.0044544110835091147 0.007039095585325123 -0.011578434337496134 0.00025073148295211447 0.0030598343816978669 -0.0063656278640504861 -0.0027979847396674912 0.0082737988694792704 0.005789717328779905
leaf_weight=27 26 20 25 33 24 45 38 62 42 25 14.999999999999998 67 41
leaf_count=27 26 20 25 33 24 45 38 62 42 25 15 67 41
internal_value=-2.76799e-05 0.00407236 -0.00897338 0.00100416 -0.00588332 0.00695293 -0.013158 -0.000204792 0.00243273 -0.00741964 -0.00386036 0.00780006 0.00536082
internal_weight=490 336 154 163 89 173 65 88 75 50 39 112 61
internal_count=490 336 154 163 89 173 65 88 75 50 39 112 61
is_linear=0
shrinkage=0.01


Tree=25
num_leaves=12
num_cat=0
split_feature=0 0 0 0 0 0 0 0 0 0 0
split_gain=182.964 26.7355 23.1051 2.93413 2.71343 2.19635 1.99508 0.484821 0.185785 0.169953 0.140389
threshold=-0.47176869933912452 0.67163743164840373 -1.3006205335223815 0.30060473260339055 -1.6946035172472076 -0.85701422727817878 0.96910719115163857 -0.08967640591836408 0.52304032395574473 -0.64002032432461686 -1.0571025914092582
decision_type=2 2 2 2 2 2 2 2 2 2 2
left_child=2 3 4 7 -1 10 -3 -2 -5 -7 -4
right_child=1 6 5 8 -6 9 -8 -9 -10 -11 -12
leaf_value=-0.014268316611395045 -0.00069228535784788203 0.0053446384368379127 -0.0077353847307978932 0.0022745702610435813 -0.010126473266885887 -0.0042074794866514545 0.0077355458965497241 0.00071167176354218562 0.0035496839186916615 -0.0026756089460104708 -0.0059096466724214893
leaf_weight=47 41 61 21 35 32 28 107 60 29 19 23
leaf_count=47 41 61 21 35 32 28 107 60 29 19 23
internal_value=-0.000233058 0.00407377 -0.00867011 0.00120482 -0.012633 -0.00519865 0.00688075 0.000131625 0.00287719 -0.00362336 -0.0068347
internal_weight=503 333 170 165 79 91 168 101 64 47 44
internal_count=503 333 170 165 79 91 168 101 64 47 44
is_linear=0
shrinkage=0.01


Tree=26
num_leaves=13
num_cat=0
split_feature=0 0 0 0 0 0 0 0 0 0 0 0
split_gain=179.352 26.2042 22.6433 3.07441 2.65685 2.15208 1.77377 0.487614 0.200048 0.16585 0.136301 0.11377
threshold=-0.47176869933912452 0.6884400948049666 -1.3006205335223815 0.31434737854709111 -1.5859968934503199 -0.85701422727817878 0.99359037809764372 -0.08967640591836408 0.52304032395574473 -0.64002032432461686 -1.0571025914092582 0.84583036217321694
decision_type=2 2 2 2 2 2 2 2 2 2 2 2
left_child=2 3 4 7 -1 10 11 -2 -5 -7 -4 -3
right_child=1 6 5 8 -6 9 -8 -9 -10 -11 -12 -13
leaf_value=-0.014040696843852842 -0.00068539609531284237 0.0048537386903031296 -0.0076587606544764536 0.0022738885225956898 -0.0098936456797138733 -0.0041657029715835622 0.0077478147225995223 0.00071760494274154211 0.0035620407639823343 -0.0026491316392396893 -0.0058510598026472946 0.0061632675314560919
leaf_weight=49 41 35 21 34 30 28 99 61 32 19 23 31
leaf_count=49 41 35 21 34 30 28 99 61 32 19 23 31
internal_value=-0.000230851 0.00403323 -0.00858424 0.00124342 -0.0125075 -0.00514744 0.00686276 0.000143631 0.00292243 -0.00358763 -0.0067672 0.00550069
internal_weight=503 333 170 168 79 91 165 102 66 47 44 66
internal_count=503 333 170 168 79 91 165 102 66 47 44 66
is_linear=0
shrinkage=0.01


Tree=27
num_leaves=12
num_cat=0
split_feature=0 0 0 0 0 0 0 0 0 0 0
split_gain=175.814 25.6846 22.1948 2.96298 2.81984 1.91654 1.83605 0.466341 0.177146 0.161836 0.157559
threshold=-0.47176869933912452 0.67163743164840373 -1.265326082355348 -1.5859968934503199 0.30060473260339055 0.94463583100653392 -0.85701422727817878 -0.12512425134040198 0.52304032395574473 -0.64002032432461686 1.0864097674006448
decision_type=2 2 2 2 2 2 2 2 2 2 2
left_child=2 4 3 -1 7 -3 -4 -2 -6 -8 -7
right_child=1 5 6 -5 8 10 9 -9 -10 -11 -12
leaf_value=-0.013900860518943974 -0.00071349190015877989 0.0051154103767180785 -0.00655585125812049 -0.009695035064794931 0.0022297862180593341 0.006836731194079607 -0.0041243413851616232 0.0006751872929429989 0.0034790537720673712 -0.0026229161350056537 0.0080583416402729511
leaf_weight=49 39 55 41 33 35 52 28 62 29 19 61
leaf_count=49 39 55 41 33 35 52 28 62 29 19 61
internal_value=-0.000228621 0.00399317 -0.00849921 -0.0122481 0.00118102 0.00674446 -0.00497469 0.000128733 0.00282051 -0.00355225 0.00751809
internal_weight=503 333 170 82 165 168 88 101 64 47 113
internal_count=503 333 170 82 165 168 88 101 64 47 113
is_linear=0
shrinkage=0.01


Tree=28
num_leaves=13
num_cat=0
split_feature=0 0 0 0 0 0 0 0 0 0 0 0
split_gain=172.341 25.1779 21.753 2.95391 2.55213 2.06446 1.7026 0.468818 0.190571 0.157909 0.1337 0.109437
threshold=-0.47176869933912452 0.6884400948049666 -1.3006205335223815 0.31434737854709111 -1.6946035172472076 -0.85701422727817878 0.99359037809764372 -0.08967640591836408 0.52304032395574473 -0.64002032432461686 -1.0571025914092582 0.84583036217321694
decision_type=2 2 2 2 2 2 2 2 2 2 2 2
left_child=2 3 4 7 -1 10 11 -2 -5 -7 -4 -3
right_child=1 6 5 8 -6 9 -8 -9 -10 -11 -12 -13
leaf_value=-0.013848006528312877 -0.00067214926252666027 0.0047546137022701166 -0.0075135133570095282 0.0022291151560537995 -0.0098259792823969204 -0.0040833904895376657 0.0075947515089665697 0.00070346851288371429 0.0034905426046863103 -0.0025969602757443988 -0.0057280600173719998 0.0060434798476023547
leaf_weight=47 41 35 21 34 32 28 99 61 32 19 23 31
leaf_count=47 41 35 21 34 32 28 99 61 32 19 23 31
internal_value=-0.000226359 0.00395351 -0.00841488 0.00121873 -0.0122604 -0.00504595 0.00672711 0.000140506 0.00286452 -0.00351723 -0.00663297 0.00539153
internal_weight=503 333 170 168 79 91 165 102 66 47 44 66
internal_count=503 333 170 168 79 91 165 102 66 47 44 66
is_linear=0
shrinkage=0.01


Tree=29
num_leaves=12
num_cat=0
split_feature=0 0 0 0 0 0 0 0 0 0 0
split_gain=168.941 24.6805 21.3219 2.84284 2.61321 2.00722 1.76099 0.27416 0.262328 0.224034 0.154067
threshold=-0.47176869933912452 0.61730631249755252 -1.265326082355348 -1.5859968934503199 0.92303983661488609 0.20302873025558588 -0.85701422727817878 0.39133020858764384 -0.16861058113160191 1.0864097674006448 -0.64002032432461686
decision_type=2 2 2 2 2 2 2 2 2 2 2
left_child=2 5 3 -1 -3 8 -4 -7 -2 -6 -8
right_child=1 4 6 -5 9 7 10 -9 -10 -11 -12
leaf_value=-0.013626135151560715 -0.00084587004537192679 0.0046643381599896869 -0.0064258078116815054 -0.0095030904785696271 0.0066385391999765767 0.0013731895305980476 -0.0040428461419775141 0.002729357578656048 0.00031633413560035455 0.007902321846656549 -0.0025712611200287942
leaf_weight=49 31 61 41 33 58 31 28 41 50 61 19
leaf_count=49 31 61 41 33 58 31 28 41 50 61 19
internal_value=-0.000224173 0.00391424 -0.00833154 -0.0120062 0.0064231 0.000951579 -0.00487664 0.00216472 -0.000117133 0.00730692 -0.00348255
internal_weight=503 333 170 82 180 153 88 72 81 119 47
internal_count=503 333 170 82 180 153 88 72 81 119 47
is_linear=0
shrinkage=0.01


Tree=30
num_leaves=11
num_cat=0
split_feature=0 0 0 0 0 0 0 0 0 0
split_gain=158.262 25.5411 18.5355 3.27813 2.16183 2.11515 1.43461 0.427368 0.263907 0.12795
threshold=-0.47176869933912452 0.69883597931888775 -1.3006205335223815 0.30060473260339055 -1.5859968934503199 -0.85701422727817878 1.0079414235404223 -0.08967640591836408 0.52304032395574473 0.84583036217321694
decision_type=2 2 2 2 2 2 2 2 2 2
left_child=2 3 4 7 -1 -4 9 -2 -5 -3
right_child=1 6 5 8 -6 -7 -8 -9 -10 -11
leaf_value=-0.013489566693703332 -0.00068297606591573529 0.0046512363734820209 -0.0066169647798279283 0.0021276050890791476 -0.009563907580832913 -0.0033959638072108777 0.0074969815406682782 0.00061972828933975533 0.0034183631533103464 0.0059886802992417431
leaf_weight=43 44 28 44 42 29 43 98 58 38 40
leaf_count=43 44 28 44 42 29 43 98 58 38 40
internal_value=6.53975e-05 0.00384365 -0.00819215 0.00124724 -0.0119531 -0.00504788 0.00667938 4.77558e-05 0.00276018 0.00546789
internal_weight=507 348 159 182 72 87 166 102 80 68
internal_count=507 348 159 182 72 87 166 102 80 68
is_linear=0
shrinkage=0.01


Tree=31
num_leaves=11
num_cat=0
split_feature=0 0 0 0 0 0 0 0 0 0
split_gain=155.134 25.0349 18.1744 3.09971 2.42939 1.82554 1.50599 0.385683 0.272791 0.141971
threshold=-0.47176869933912452 0.6884400948049666 -1.265326082355348 0.28537795061833887 -1.5859968934503199 -0.85701422727817878 0.99939557922006095 -0.14344295534305415 0.50615025073327813 0.84583036217321694
decision_type=2 2 2 2 2 2 2 2 2 2
left_child=2 3 4 7 -1 -4 9 -2 -5 -3
right_child=1 6 5 8 -6 -7 -8 -9 -10 -11
leaf_value=-0.013355295531175752 -0.00077093618019869175 0.0045591676353618797 -0.0064187535151694576 0.0020120263226789318 -0.0093664071463650054 -0.0033621614267704664 0.007401786375188543 0.00050922179758987004 0.0033048234788738951 0.0059043727370456864
leaf_weight=43 38 30 41 42 32 43 100 61 39 38
leaf_count=43 38 30 41 42 32 43 100 61 39 38
internal_value=6.47062e-05 0.00380547 -0.00811084 0.00120517 -0.0116961 -0.00487765 0.00658081 7.20375e-06 0.00265341 0.00534067
internal_weight=507 348 159 180 75 84 168 99 81 68
internal_count=507 348 159 180 75 84 168 99 81 68
is_linear=0
shrinkage=0.01


Tree=32
num_leaves=12
num_cat=0
split_feature=0 0 0 0 0 0 0 0 0 0 0
split_gain=152.069 24.5387 17.8131 3.15287 2.37874 1.78844 1.37497 0.446296 0.214056 0.120312 0.100603
threshold=-0.47176869933912452 0.69883597931888775 -1.265326082355348 0.31434737854709111 -1.5859968934503199 -0.85701422727817878 1.0079414235404223 -0.08967640591836408 0.52304032395574473 0.84583036217321694 -0.64002032432461686
decision_type=2 2 2 2 2 2 2 2 2 2 2
left_child=2 3 4 7 -1 -4 9 -2 -5 -3 -7
right_child=1 6 5 8 -6 10 -8 -9 -10 -11 -12
leaf_value=-0.013222360920023032 -0.0006702405239594468 0.00455978551654951 -0.006354877633377185 0.0021390426660678826 -0.0092733245717812746 -0.0038245734572410583 0.0073482975903936421 0.00064583897624116119 0.0033508266984480211 0.0058695964908125385 -0.0024765010628589367
leaf_weight=43 44 28 41 39 32 26 98 61 38 40 17
leaf_count=43 44 28 41 39 32 26 98 61 38 40 17
internal_value=6.40214e-05 0.00376766 -0.00803032 0.00122257 -0.0115799 -0.00482922 0.00654721 8.46075e-05 0.00275715 0.00535988 -0.0033287
internal_weight=507 348 159 182 75 84 166 105 77 68 43
internal_count=507 348 159 182 75 84 166 105 77 68 43
is_linear=0
shrinkage=0.01


Tree=33
num_leaves=11
num_cat=0
split_feature=0 0 0 0 0 0 0 0 0 0
split_gain=149.067 24.052 17.4598 2.98071 2.03998 1.98666 1.44318 0.371338 0.260795 0.134015
threshold=-0.47176869933912452 0.6884400948049666 -1.3006205335223815 0.28537795061833887 -1.7418288973245029 -0.85701422727817878 0.99939557922006095 -0.15683840641849248 0.50615025073327813 0.84583036217321694
decision_type=2 2 2 2 2 2 2 2 2 2
left_child=2 3 4 7 -1 -4 9 -2 -5 -3
right_child=1 6 5 8 -6 -7 -8 -9 -10 -11
leaf_value=-0.013327497468568889 -0.00080872472227466372 0.0044693826721204036 -0.0064199546667245708 0.0019728353965621425 -0.0095759365363427759 -0.0032959317740190912 0.0072548752737616349 0.00046890571140437571 0.003239533889050386 0.0057872493916157021
leaf_weight=38 35 30 44 42 34 43 100 64 39 38
leaf_count=38 35 30 44 42 34 43 100 64 39 38
internal_value=6.33145e-05 0.00373023 -0.00795071 0.00118135 -0.0116012 -0.00489847 0.00645058 6.41771e-06 0.00260152 0.00523531
internal_weight=507 348 159 180 72 87 168 99 81 68
internal_count=507 348 159 180 72 87 168 99 81 68
is_linear=0
shrinkage=0.01


Tree=34
num_leaves=11
num_cat=0
split_feature=0 0 0 0 0 0 0 0 0 0
split_gain=146.122 23.5756 17.1181 3.0314 2.28471 1.71441 1.31774 0.429718 0.204432 0.113034
threshold=-0.47176869933912452 0.69883597931888775 -1.265326082355348 0.31434737854709111 -1.5859968934503199 -0.85701422727817878 1.0079414235404223 -0.08967640591836408 0.52304032395574473 0.84583036217321694
decision_type=2 2 2 2 2 2 2 2 2 2
left_child=2 3 4 7 -1 -4 9 -2 -5 -3
right_child=1 6 5 8 -6 -7 -8 -9 -10 -11
leaf_value=-0.012962433177011984 -0.00065811928679821038 0.0044701343288658362 -0.0062277493531842833 0.0020971642183710117 -0.0090889431008641004 -0.0032631250601951722 0.007202563208135229 0.00063325351606324017 0.0032846242095787488 0.0057528777264837004
leaf_weight=43 44 28 41 39 32 43 98 61 38 40
leaf_count=43 44 28 41 39 32 43 98 61 38 40
internal_value=6.26411e-05 0.00369317 -0.00787181 0.0011984 -0.0113516 -0.00473338 0.00641766 8.23787e-05 0.00270313 0.00525401
internal_weight=507 348 159 182 75 84 166 105 77 68
internal_count=507 348 159 182 75 84 166 105 77 68
is_linear=0
shrinkage=0.01


Tree=35
num_leaves=12
num_cat=0
split_feature=0 0 0 0 0 0 0 0 0 0 0
split_gain=149.462 24.101 15.348 2.3178 2.27855 1.77126 1.32619 0.536961 0.237642 0.188685 0.150128
threshold=-0.58248375277952491 0.60836622574912491 -1.3651338038127221 0.8977495818747282 0.15390886540140195 -0.98879117368715697 -1.813287119634853 -0.35357099203650411 1.0687403628994898 0.38016947612746727 -0.76451575645933834
decision_type=2 2 2 2 2 2 2 2 2 2 2
left_child=2 4 6 -3 7 -4 -1 -2 -5 -6 -7
right_child=1 3 5 8 9 10 -8 -9 -10 -11 -12
leaf_value=-0.013599979921897746 -0.0019774596063896668 0.0042755936367814889 -0.0070004830520544467 0.0061624882014748314 0.0012790964432853333 -0.0046706462215702496 -0.010350623202573565 0 0.0073960033643479441 0.0024622646998172688 -0.0031077710496929464
leaf_weight=32 17 58 40 61 28 21 38 73 61 42 21
leaf_count=32 17 58 40 61 28 21 38 73 61 42 21
internal_value=-0.000195069 0.00348801 -0.00843387 0.00599678 0.000655447 -0.00545404 -0.0118848 -0.000387754 0.00679852 0.00200823 -0.00393134
internal_weight=492 340 152 180 160 82 70 90 122 70 42
internal_count=492 340 152 180 160 82 70 90 122 70 42
is_linear=0
shrinkage=0.01


Tree=36
num_leaves=12
num_cat=0
split_feature=0 0 0 0 0 0 0 0 0 0 0
split_gain=146.512 23.6241 15.0419 2.39298 2.1283 1.73459 1.29996 0.526326 0.231984 0.165116 0.146398
threshold=-0.58248375277952491 0.58628012746317981 -1.3651338038127221 0.8977495818747282 0.15390886540140195 -0.98879117368715697 -1.867338217584394 -0.35357099203650411 1.0623369883984786 0.38016947612746727 -0.76451575645933834
decision_type=2 2 2 2 2 2 2 2 2 2 2
left_child=2 4 6 -3 7 -4 -1 -2 -5 -6 -7
right_child=1 3 5 8 9 10 -8 -9 -10 -11 -12
leaf_value=-0.013680963068143696 -0.0019579149574734445 0.0042012757280736265 -0.0069308264842673911 0.006048674031933007 0.0012663961756736676 -0.0046243803090644338 -0.010408169799506381 0 0.0072745245965225814 0.0023959284753941774 -0.003076986572090185
leaf_weight=28 17 60 40 56 28 21 42 73 66 40 21
leaf_count=28 17 60 40 56 28 21 42 73 66 40 21
internal_value=-0.000193216 0.00345331 -0.0083503 0.00590794 0.000615609 -0.0054001 -0.0117668 -0.000384027 0.00673084 0.00195057 -0.00389263
internal_weight=492 340 152 182 158 82 70 90 122 68 42
internal_count=492 340 152 182 158 82 70 90 122 68 42
is_linear=0
shrinkage=0.01


Tree=37
num_leaves=12
num_cat=0
split_feature=0 0 0 0 0 0 0 0 0 0 0
split_gain=143.619 23.158 14.742 2.22409 2.19001 1.6989 1.27379 0.515901 0.226372 0.180355 0.175828
threshold=-0.58248375277952491 0.60836622574912491 -1.3651338038127221 0.8977495818747282 0.15390886540140195 -0.99924050699223466 -1.813287119634853 -0.35357099203650411 1.0687403628994898 0.39133020858764384 -0.76451575645933834
decision_type=2 2 2 2 2 2 2 2 2 2 2
left_child=2 4 6 -3 7 -4 -1 -2 -5 -6 -7
right_child=1 3 5 8 9 10 -8 -9 -10 -11 -12
leaf_value=-0.013332929640823268 -0.0019385635168399924 0.0041911162246543515 -0.0069387788922374771 0.0060397739932427997 0.0012932739169984465 -0.0046487622836540489 -0.010144122161790337 0 0.0072497773345778964 0.0024410928200133404 -0.0030465069497531316
leaf_weight=32 17 58 38 61 30 23 38 73 61 40 21
leaf_count=32 17 58 38 61 30 23 38 73 61 40 21
internal_value=-0.000191383 0.00341895 -0.00826757 0.00587815 0.000642212 -0.0053467 -0.0116499 -0.000380337 0.00666383 0.0019685 -0.00392392
internal_weight=492 340 152 180 160 82 70 90 122 70 44
internal_count=492 340 152 180 160 82 70 90 122 70 44
is_linear=0
shrinkage=0.01


Tree=38
num_leaves=12
num_cat=0
split_feature=0 0 0 0 0 0 0 0 0 0 0
split_gain=140.784 22.6995 14.448 2.17896 2.14728 1.66436 1.24892 0.506155 0.220897 0.1766 0.138967
threshold=-0.58248375277952491 0.60836622574912491 -1.3651338038127221 0.8977495818747282 0.15390886540140195 -0.98879117368715697 -1.867338217584394 -0.31357418926019814 1.0623369883984786 0.38016947612746727 -0.76451575645933834
decision_type=2 2 2 2 2 2 2 2 2 2 2
left_child=2 4 6 -3 7 -4 -1 -2 -5 -6 -7
right_child=1 3 5 8 9 10 -8 -9 -10 -11 -12
leaf_value=-0.013412739968468956 -0.0017716789717721467 0.0041493490788944805 -0.0067939597783397074 0.0059282199068001577 0.0012409810272725763 -0.0045325237456357711 -0.010200598502611095 1.1553241953550919e-05 0.0071306339419500344 0.0023893061816974838 -0.0030163292586803435
leaf_weight=28 20 58 40 56 28 21 42 70 66 42 21
leaf_count=28 20 58 40 56 28 21 42 70 66 42 21
internal_value=-0.000189565 0.00338493 -0.00818566 0.00581968 0.000635752 -0.00529383 -0.0115343 -0.000376684 0.0065975 0.00194907 -0.00381601
internal_weight=492 340 152 180 160 82 70 90 122 70 42
internal_count=492 340 152 180 160 82 70 90 122 70 42
is_linear=0
shrinkage=0.01


Tree=39
num_leaves=12
num_cat=0
split_feature=0 0 0 0 0 0 0 0 0 0 0
split_gain=138.006 22.2506 14.1598 2.24938 2.005 1.63439 1.22337 0.496767 0.249618 0.21557 0.154398
threshold=-0.58248375277952491 0.58628012746317981 -1.3651338038127221 0.8977495818747282 0.15390886540140195 -1.0202093263167387 -1.813287119634853 -0.35357099203650411 -0.79646662317053718 1.0687403628994898 0.36826735579915632
decision_type=2 2 2 2 2 2 2 2 2 2 2
left_child=2 4 6 -3 7 -4 -1 -2 -7 -5 -6
right_child=1 3 5 9 10 8 -8 -9 -10 -11 -12
leaf_value=-0.013071125308919396 -0.0019018925345221233 0.0040774411477915865 -0.0070126813291067095 0.0059195029716086539 0.0011662849009273545 -0.0047727629747099558 -0.0099417401140272921 0 -0.0030595953454231398 0.007106443279319339 0.0022848741275568801
leaf_weight=32 17 60 33 61 25 26 38 73 23 61 43
leaf_count=32 17 60 33 61 25 26 38 73 23 61 43
internal_value=-0.000187726 0.00335131 -0.00810456 0.00573353 0.000597132 -0.00524148 -0.0114197 -0.000372845 -0.00400465 0.00653182 0.00189292
internal_weight=492 340 152 182 158 82 70 90 49 122 68
internal_count=492 340 152 182 158 82 70 90 49 122 68
is_linear=0
shrinkage=0.01


Tree=40
num_leaves=12
num_cat=0
split_feature=0 0 0 0 0 0 0 0 0 0 0
split_gain=132.621 21.6128 17.0064 2.39539 2.25638 1.58443 1.15001 0.374803 0.140561 0.105282 0.104529
threshold=-0.43495885152815311 0.69883597931888775 -1.2346217486266278 0.33814108927342551 -1.6946035172472076 -0.8165519423608002 1.0171966756421149 -0.063578410467303684 0.53678043168754208 0.86708472389807079 -0.64002032432461686
decision_type=2 2 2 2 2 2 2 2 2 2 2
left_child=2 3 4 7 -1 -4 9 -2 -5 -3 -7
right_child=1 6 5 8 -6 10 -8 -9 -10 -11 -12
leaf_value=-0.012274325908119998 -0.00046550961967036761 0.0043051496944198873 -0.0054611003609119114 0.0020604653888812632 -0.0085958572887644465 -0.0034107958202092155 0.0068376368879105491 0.00071868038702248738 0.0031513530441692893 0.0055145119029472315 -0.0021782757128987994
leaf_weight=40 47 29 48 37 39 21 102 60 32 44 25
leaf_count=40 47 29 48 37 39 21 102 60 32 44 25
internal_value=8.7489e-05 0.00362094 -0.00707166 0.00113743 -0.0104973 -0.00416589 0.00610878 0.000189296 0.00258848 0.00506082 -0.00277492
internal_weight=524 351 173 176 79 94 175 107 69 73 46
internal_count=524 351 173 176 79 94 175 107 69 73 46
is_linear=0
shrinkage=0.01


Tree=41
num_leaves=11
num_cat=0
split_feature=0 0 0 0 0 0 0 0 0 0
split_gain=130.005 21.7845 15.9985 2.48289 2.20962 1.40803 1.1255 0.41135 0.157207 0.102155
threshold=-0.44871289503242523 0.69883597931888775 -1.2346217486266278 0.31434737854709111 -1.6946035172472076 -0.8165519423608002 1.0171966756421149 -0.08967640591836408 0.52304032395574473 0.86708472389807079
decision_type=2 2 2 2 2 2 2 2 2 2
left_child=2 3 4 7 -1 -4 9 -2 -5 -3
right_child=1 6 5 8 -6 -7 -8 -9 -10 -11
leaf_value=-0.012152192847645698 -0.00059118332319139011 0.0042623932210549918 -0.0054067159886182093 0.0019749927088137595 -0.0085103374567567086 -0.0028176968248078116 0.0067693940487393205 0.00065098200736034338 0.0030867819183054025 0.0054596163959524744
leaf_weight=40 46 29 48 37 39 43 102 62 34 44
leaf_count=40 46 29 48 37 39 43 102 62 34 44
internal_value=8.65576e-05 0.00353988 -0.00709431 0.00107821 -0.010393 -0.00420316 0.006048 0.000112555 0.00252862 0.00501061
internal_weight=524 354 170 179 79 91 175 108 71 73
internal_count=524 354 170 179 79 91 175 108 71 73
is_linear=0
shrinkage=0.01


Tree=42
num_leaves=11
num_cat=0
split_feature=0 0 0 0 0 0 0 0 0 0
split_gain=127.441 20.7631 16.3346 2.39967 2.1638 1.51926 1.02499 0.360337 0.150524 0.102021
threshold=-0.43495885152815311 0.7192629516854453 -1.2346217486266278 0.33814108927342551 -1.6946035172472076 -0.8165519423608002 1.0247180346212599 1.0000000180025095e-35 0.54860143047981869 -0.64002032432461686
decision_type=2 2 2 2 2 2 2 2 2 2
left_child=2 3 4 7 -1 -4 -3 -2 -5 -7
right_child=1 6 5 8 -6 9 -8 -9 -10 -11
leaf_value=-0.012031275484692397 -0.00039803663571989626 0.0050456900379442149 -0.0053528731158660157 0.0020481454915538123 -0.0084256682225636054 -0.0033490984900942391 0.006736436980319364 0.00075486774542841365 0.0031501842007873961 -0.0021313631144307911
leaf_weight=40 52 75 48 39 39 21 98 55 32 25
leaf_count=40 52 75 48 39 39 21 98 55 32 25
internal_value=8.56643e-05 0.00354945 -0.00693224 0.00114262 -0.0102897 -0.00408407 0.0060159 0.000185552 0.00256634 -0.00272102
internal_weight=524 351 173 178 79 94 173 107 71 46
internal_count=524 351 173 178 79 94 173 107 71 46
is_linear=0
shrinkage=0.01


Tree=43
num_leaves=10
num_cat=0
split_feature=0 0 0 0 0 0 0 0 0
split_gain=124.923 20.3498 16.0113 2.35244 2.19746 1.42975 1.0034 0.353641 0.147052
threshold=-0.43495885152815311 0.7192629516854453 -1.2182418897934204 0.33814108927342551 -1.6946035172472076 -0.79646662317053718 1.0247180346212599 -0.063578410467303684 0.54860143047981869
decision_type=2 2 2 2 2 2 2 2 2
left_child=2 3 4 7 -1 -4 -3 -2 -5
right_child=1 6 5 8 -6 -7 -8 -9 -10
leaf_value=-0.011911561601790622 -0.00045207664846063793 0.0049953673740333691 -0.0051578626839909689 0.0020277685185476225 -0.0083113206470783671 -0.0025762255143780277 0.0066692096055646546 0.00069802334909621275 0.0031188779347431582
leaf_weight=40 47 75 51 39 40 42 98 60 32
leaf_count=40 47 75 51 39 40 42 98 60 32
internal_value=8.47162e-05 0.00351414 -0.00686351 0.00113131 -0.0101491 -0.00401072 0.00595594 0.00018361 0.00254096
internal_weight=524 351 173 178 80 93 173 107 71
internal_count=524 351 173 178 80 93 173 107 71
is_linear=0
shrinkage=0.01


Tree=44
num_leaves=12
num_cat=0
split_feature=0 0 0 0 0 0 0 0 0 0 0
split_gain=122.457 20.5102 15.062 2.3397 2.0745 1.32619 1.05759 0.291228 0.259181 0.106197 0.101847
threshold=-0.44871289503242523 0.69883597931888775 -1.2346217486266278 0.26721911142223126 -1.6946035172472076 -0.82460944444425455 1.0171966756421149 -0.15683840641849248 0.48659329877260116 -0.68761360946500927 0.86708472389807079
decision_type=2 2 2 2 2 2 2 2 2 2 2
left_child=2 3 4 7 -1 -4 10 -2 -5 -7 -3
right_child=1 6 5 8 -6 9 -8 -9 -10 -11 -12
leaf_value=-0.011793038388389852 -0.00070077150759677732 0.0041229218326202816 -0.005329058370759001 0.0016210027118878706 -0.0082591523078023171 -0.0034307303836753778 0.0065693553436525654 0.00042462716038428562 0.0028593372608776446 -0.0021911485419293083 0.0053053108801669113
leaf_weight=40 37 29 45 39 39 22 102 60 43 24 44
leaf_count=40 37 29 45 39 39 22 102 60 43 24 44
internal_value=8.38084e-05 0.00343544 -0.00688543 0.00104665 -0.0100863 -0.00407962 0.00586913 0 0.00228792 -0.00281792 0.0048618
internal_weight=524 354 170 179 79 91 175 97 82 46 73
internal_count=524 354 170 179 79 91 175 97 82 46 73
is_linear=0
shrinkage=0.01


Tree=45
num_leaves=13
num_cat=0
split_feature=0 0 0 0 0 0 0 0 0 0 0 0
split_gain=130.512 21.1947 12.5446 2.26416 1.93616 1.89045 0.6077 0.442273 0.239211 0.190791 0.17557 0.109573
threshold=-0.58248375277952491 0.58628012746317981 -1.4689060140854207 0.92303983661488609 -1.0202093263167387 0.15390886540140195 -1.901167481879275 -0.29157110613710574 1.1023736234821933 0.38016947612746727 -0.76451575645933834 0.75397484386020375
decision_type=2 2 2 2 2 2 2 2 2 2 2 2
left_child=2 5 6 11 -4 7 -1 -2 -5 -7 -6 -3
right_child=1 3 4 8 10 9 -8 -9 -10 -11 -12 -13
leaf_value=-0.012731068404853767 -0.0015487370280356245 0.0032644665636211989 -0.00694445432850678 0.0056239448861413119 -0.004427460189291973 0.0011217310005112698 -0.01005758647459099 3.7045650985747406e-05 0.0067775609125903724 0.0022183701753346629 -0.0027889248360822233 0.0044140068344447917
leaf_weight=28 23 33 44 66 30 34 33 68 66 44 15.999999999999998 32
leaf_count=28 23 33 44 66 30 34 33 68 66 44 16 32
internal_value=-4.37121e-06 0.00322092 -0.00782251 0.00544874 -0.00540837 0.000614722 -0.0113387 -0.000355309 0.0062177 0.00175723 -0.00389372 0.00385754
internal_weight=517 366 151 197 90 169 61 91 132 78 46 65
internal_count=517 366 151 197 90 169 61 91 132 78 46 65
is_linear=0
shrinkage=0.01


Tree=46
num_leaves=13
num_cat=0
split_feature=0 0 0 0 0 0 0 0 0 0 0 0
split_gain=127.939 20.7747 12.2978 2.21776 1.85329 1.69797 0.774503 0.446797 0.233238 0.171637 0.168596 0.10665
threshold=-0.58248375277952491 0.58628012746317981 -1.4461973835409241 0.92303983661488609 0.18848435207802372 -1.0202093263167387 -1.867338217584394 -0.29157110613710574 1.1023736234821933 -0.79646662317053718 0.39133020858764384 0.75397484386020375
decision_type=2 2 2 2 2 2 2 2 2 2 2 2
left_child=2 4 6 11 7 -4 -1 -2 -5 -7 -6 -3
right_child=1 3 5 8 10 9 -8 -9 -10 -11 -12 -13
leaf_value=-0.012513578301233961 -0.0015333831862642847 0.0032320185939231551 -0.0067760395685445909 0.005567875391046806 0.0011670049654635768 -0.0044387457408803579 -0.0097324772780401653 5.5730645657593969e-05 0.006709989827925345 -0.00285399901342916 0.002221212121547681 0.0043701410275068346
leaf_weight=30 23 33 41 66 34 28 34 70 66 18 42 32
leaf_count=30 23 33 41 66 34 28 34 70 66 18 42 32
internal_value=-4.34701e-06 0.00318897 -0.00774503 0.00539461 0.000608656 -0.0052556 -0.0110866 -0.000328994 0.00615578 -0.00385531 0.00176702 0.00381935
internal_weight=517 366 151 197 169 87 64 93 132 46 76 65
internal_count=517 366 151 197 169 87 64 93 132 46 76 65
is_linear=0
shrinkage=0.01


Tree=47
num_leaves=13
num_cat=0
split_feature=0 0 0 0 0 0 0 0 0 0 0 0
split_gain=125.418 20.7864 11.6533 2.17229 1.90921 1.71821 0.579934 0.397649 0.296665 0.227395 0.124556 0.103791
threshold=-0.59391354204973767 0.58628012746317981 -1.4689060140854207 0.92303983661488609 0.11650376694709143 -1.0202093263167387 -1.901167481879275 -0.31357418926019814 0.36826735579915632 1.1023736234821933 -0.79646662317053718 0.75397484386020375
decision_type=2 2 2 2 2 2 2 2 2 2 2 2
left_child=2 4 6 11 7 -4 -1 -2 -6 -5 -7 -3
right_child=1 3 5 9 8 10 -8 -9 -10 -11 -12 -13
leaf_value=-0.012480412865361423 -0.0016438159038280619 0.0031998930817627043 -0.0068058635638310353 0.0055123648110473253 0.00092391217058455488 -0.0043946731471000838 -0.009859202755502906 -7.4006778026428516e-05 0.0021387342982372996 0.0066430926178877451 -0.002893710224716752 0.0043267109545861706
leaf_weight=28 23 33 44 66 43 28 33 58 47 66 15.999999999999998 32
leaf_count=28 23 33 44 66 43 28 33 58 47 66 16 32
internal_value=-4.32109e-06 0.00312783 -0.00774062 0.00534101 0.000569028 -0.00536992 -0.0111156 -0.000535021 0.00157274 0.00609449 -0.00388706 0.00378154
internal_weight=517 368 149 197 171 88 61 81 90 132 44 65
internal_count=517 368 149 197 171 88 61 81 90 132 44 65
is_linear=0
shrinkage=0.01


Tree=48
num_leaves=13
num_cat=0
split_feature=0 0 0 0 0 0 0 0 0 0 0 0
split_gain=122.945 19.9599 11.8166 2.12774 1.78317 1.62694 0.740309 0.416428 0.221681 0.178554 0.163595 0.100997
threshold=-0.58248375277952491 0.58628012746317981 -1.4461973835409241 0.92303983661488609 0.15390886540140195 -1.0202093263167387 -1.867338217584394 -0.29157110613710574 1.1023736234821933 0.38016947612746727 -0.76451575645933834 0.75397484386020375
decision_type=2 2 2 2 2 2 2 2 2 2 2 2
left_child=2 4 6 11 7 -4 -1 -2 -5 -6 -7 -3
right_child=1 3 5 8 9 10 -8 -9 -10 -11 -12 -13
leaf_value=-0.012267029332798838 -0.0015032383491253032 0.0031680869481649741 -0.0066408799892490348 0.0054574076448682561 0.0010893766298802972 -0.0042977731038403039 -0.0095403844396970416 3.5102637785096326e-05 0.0065768627457748361 0.0021533616480514475 -0.0027061554715957178 0.004283712663635704
leaf_weight=30 23 33 41 66 34 30 34 68 66 44 15.999999999999998 32
leaf_count=30 23 33 41 66 34 30 34 68 66 44 16 32
internal_value=-4.33737e-06 0.00312599 -0.00759247 0.00528796 0.000596656 -0.0051518 -0.0108683 -0.000345188 0.0060338 0.00170633 -0.00377992 0.00374411
internal_weight=517 366 151 197 169 87 64 91 132 78 46 65
internal_count=517 366 151 197 169 87 64 91 132 78 46 65
is_linear=0
shrinkage=0.01


Tree=49
num_leaves=12
num_cat=0
split_feature=0 0 0 0 0 0 0 0 0 0 0
split_gain=120.522 19.9713 11.1983 2.08409 1.83751 1.64626 0.553324 0.381718 0.283922 0.216091 0.118354
threshold=-0.59391354204973767 0.58628012746317981 -1.4689060140854207 0.92303983661488609 0.11650376694709143 -1.0202093263167387 -1.901167481879275 -0.31357418926019814 0.36826735579915632 1.1023736234821933 -0.79646662317053718
decision_type=2 2 2 2 2 2 2 2 2 2 2
left_child=2 4 6 -3 7 -4 -1 -2 -6 -5 -7
right_child=1 3 5 9 8 10 -8 -9 -10 -11 -12
leaf_value=-0.012234693097730055 -0.0016115796469665809 0.0037070517653336548 -0.0066700365262873026 0.0054029984632647642 0.00090680101627690912 -0.0043083651247599452 -0.0096647326738001343 -7.3090435343368864e-05 0.0020966714708986929 0.0065112924863924794 -0.0028364379520033618
leaf_weight=28 23 65 44 66 43 28 33 58 47 66 15.999999999999998
leaf_count=28 23 65 44 66 43 28 33 58 47 66 16
internal_value=-4.31024e-06 0.00306605 -0.00758813 0.00523543 0.000557793 -0.00526374 -0.0108969 -0.000525154 0.00154254 0.00597372 -0.003811
internal_weight=517 368 149 197 171 88 61 81 90 132 44
internal_count=517 368 149 197 171 88 61 81 90 132 44
is_linear=0
shrinkage=0.01


Tree=50
num_leaves=11
num_cat=0
split_feature=0 0 0 0 0 0 0 0 0 0
split_gain=114.696 17.0701 13.2867 1.70571 1.57141 1.5308 1.33436 0.253354 0.181914 0.143198
threshold=-0.47176869933912452 0.64045221458249524 -1.3006205335223815 -1.5859968934503199 0.25736963634678894 0.9313148462420201 -0.9090793911972529 -0.15683840641849248 1.1147033384039584 0.46364569923779436
decision_type=2 2 2 2 2 2 2 2 2 2
left_child=2 4 3 -1 7 -3 -4 -2 -7 -6
right_child=1 5 6 -5 9 8 -8 -9 -10 -11
leaf_value=-0.011097791078674346 -0.00069494786058467884 0.0038997701024697496 -0.0053807028350049413 -0.0078349574574504977 0.0013722942287150103 0.0053771184801672048 -0.0028173643047059022 0.0003723628092417957 0.0064779688492169812 0.002430536392074759
leaf_weight=48 35 61 45 33 31 62 43 60 60 37
leaf_count=48 35 61 45 33 31 62 43 60 60 37
internal_value=-0.000123583 0.00317239 -0.00687324 -0.00980338 0.000809961 0.00526799 -0.00414873 -1.09866e-05 0.00593642 0.0019682
internal_weight=515 346 169 81 163 183 88 95 122 68
internal_count=515 346 169 81 163 183 88 95 122 68
is_linear=0
shrinkage=0.01


Tree=51
num_leaves=11
num_cat=0
split_feature=0 0 0 0 0 0 0 0 0 0
split_gain=112.43 16.7311 13.0223 1.66978 1.5407 1.49953 1.3071 0.220804 0.180682 0.177138
threshold=-0.47176869933912452 0.64045221458249524 -1.3006205335223815 -1.5859968934503199 0.21243078844853855 0.9313148462420201 -0.9090793911972529 -0.18805150227483755 0.44727651709986399 1.1147033384039584
decision_type=2 2 2 2 2 2 2 2 2 2
left_child=2 4 3 -1 7 -3 -4 -2 -6 -7
right_child=1 5 6 -5 8 9 -8 -9 -10 -11
leaf_value=-0.010987273642630992 -0.00080607278814129801 0.0038608999121812434 -0.0053271338462302113 -0.0077570797700479803 0.0012682071058025138 0.0053235202011954743 -0.0027893211023399121 0.00025737954573136815 0.0023783233343642584 0.0064134039494682382
leaf_weight=48 28 61 45 33 34 62 43 62 39 60
leaf_count=48 28 61 45 33 34 62 43 62 39 60
internal_value=-0.000122339 0.00314089 -0.006805 -0.00970593 0.000801965 0.00521559 -0.00410754 -6.34395e-05 0.00187982 0.00587733
internal_weight=515 346 169 81 163 183 88 90 73 122
internal_count=515 346 169 81 163 183 88 90 73 122
is_linear=0
shrinkage=0.01


Tree=52
num_leaves=10
num_cat=0
split_feature=0 0 0 0 0 0 0 0 0
split_gain=110.208 16.4041 12.7658 1.84198 1.81106 1.17165 1.12341 0.269561 0.163685
threshold=-0.47176869933912452 0.67163743164840373 -1.265326082355348 -1.5859968934503199 0.26721911142223126 0.98036416936188242 -0.9090793911972529 -0.14344295534305415 0.48659329877260116
decision_type=2 2 2 2 2 2 2 2 2
left_child=2 4 3 -1 7 -3 -4 -2 -6
right_child=1 5 6 -5 8 -7 -8 -9 -10
leaf_value=-0.010877856716080818 -0.00063913021719385493 0.0041702547591890215 -0.0051658322941070482 -0.0076068046573775899 0.0015237127688967371 0.0059532575878944328 -0.0027615570139001917 0.00043085812915153067 0.0026122380712980866
leaf_weight=48 38 69 42 36 35 106 43 61 37
leaf_count=48 38 69 42 36 35 106 43 61 37
internal_value=-0.000121109 0.00310971 -0.00673745 -0.00950925 0.000898152 0.00526152 -0.00397063 9.61435e-06 0.00210263
internal_weight=515 346 169 84 171 175 85 99 72
internal_count=515 346 169 84 171 175 85 99 72
is_linear=0
shrinkage=0.01


Tree=53
num_leaves=12
num_cat=0
split_feature=0 0 0 0 0 0 0 0 0 0 0
split_gain=108.031 17.3267 11.2493 1.76456 1.45261 1.42508 1.02051 0.322202 0.205846 0.160207 0.148129
threshold=-0.56063800412657649 0.60836622574912491 -1.3651338038127221 0.8977495818747282 0.15390886540140195 -0.96588176528489356 -1.867338217584394 -0.2801915163591398 1.1023736234821933 0.36826735579915632 -1.1424556600521634
decision_type=2 2 2 2 2 2 2 2 2 2 2
left_child=2 4 6 -3 7 10 -1 -2 -5 -6 -4
right_child=1 3 5 8 9 -7 -8 -9 -10 -11 -12
leaf_value=-0.011623073553337771 -0.0012687625261870298 0.0036179862633073253 -0.006537725485122956 0.0051592896765545945 0.00097408043331657815 -0.0030528261736758704 -0.008727629252148969 7.0653725044081918e-05 0.0062640693217893189 0.00202796488724373 -0.0049198588242767554
leaf_weight=27 24 65 22 63 30 41 44 65 63 43 28
leaf_count=27 24 65 22 63 30 41 44 65 63 43 28
internal_value=-0.000119926 0.00298068 -0.0068777 0.00502013 0.000566756 -0.00451375 -0.00987231 -0.000281361 0.00572866 0.00161237 -0.00567485
internal_weight=515 353 162 191 162 91 71 89 126 73 50
internal_count=515 353 162 191 162 91 71 89 126 73 50
is_linear=0
shrinkage=0.01


Tree=54
num_leaves=10
num_cat=0
split_feature=0 0 0 0 0 0 0 0 0
split_gain=105.907 15.7662 12.2643 1.81323 1.7765 1.07879 1.05817 0.303437 0.121403
threshold=-0.47176869933912452 0.6884400948049666 -1.265326082355348 0.30060473260339055 -1.5859968934503199 -0.9090793911972529 0.99939557922006095 -0.12512425134040198 0.52304032395574473
decision_type=2 2 2 2 2 2 2 2 2
left_child=2 3 4 7 -1 -4 -3 -2 -5
right_child=1 6 5 8 -6 -7 -8 -9 -10
leaf_value=-0.010666396365620784 -0.00056260865716332628 0.0042027303704996952 -0.0050642150965347103 0.0016782392787834557 -0.0074522270747969807 -0.0027065732261096986 0.0058947599847470559 0.00052569513981772583 0.0026888853441114006
leaf_weight=48 43 74 42 36 36 43 99 62 32
leaf_count=48 43 74 42 36 36 43 99 62 32
internal_value=-0.000118777 0.00304833 -0.00660476 0.000904896 -0.00932174 -0.00389242 0.00518246 7.02808e-05 0.00217499
internal_weight=515 346 169 173 84 85 173 105 68
internal_count=515 346 169 173 84 85 173 105 68
is_linear=0
shrinkage=0.01


Tree=55
num_leaves=9
num_cat=0
split_feature=0 0 0 0 0 0 0 0
split_gain=100.169 14.9905 13.1386 1.98879 1.73976 1.2194 0.80129 0.307173
threshold=-0.44871289503242523 0.69883597931888775 -1.265326082355348 -1.6946035172472076 0.33814108927342551 -0.82460944444425455 1.0171966756421149 -0.08967640591836408
decision_type=2 2 2 2 2 2 2 2
left_child=2 4 3 -1 7 -4 -3 -2
right_child=1 6 5 -5 -6 -7 -8 -9
leaf_value=-0.010751695457626791 -0.0005271620629355311 0.0043398560732201422 -0.0048885317191933141 -0.0073460668870197823 0.0022379346795474426 -0.0025226268704006782 0.0058671784853469777 0.00058126766762179487
leaf_weight=44 42 74 46 37 63 48 92 60
leaf_count=44 42 74 46 37 63 48 92 60
internal_value=-0.000155639 0.00307716 -0.00627249 -0.00923028 0.000933314 -0.00369895 0.00519838 0.000114932
internal_weight=506 331 175 81 165 94 166 102
internal_count=506 331 175 81 165 94 166 102
is_linear=0
shrinkage=0.01


Tree=56
num_leaves=10
num_cat=0
split_feature=0 0 0 0 0 0 0 0 0
split_gain=98.1906 14.2437 13.3874 1.94749 1.67526 1.2985 0.728392 0.252493 0.10783
threshold=-0.43495885152815311 0.7192629516854453 -1.265326082355348 -1.6946035172472076 0.33814108927342551 -0.82460944444425455 1.0247180346212599 -0.021718973952544563 -0.64002032432461686
decision_type=2 2 2 2 2 2 2 2 2
left_child=2 4 3 -1 7 -4 -3 -2 -7
right_child=1 6 5 -5 -6 8 -8 -9 -10
leaf_value=-0.010644664893862349 -0.0003526347889801708 0.0043606732904593994 -0.0048398580308600418 -0.0072730011100410122 0.0022410795517677179 -0.0029965816130713813 0.0058335026310163763 0.00064998070891389903 -0.0018523590687577053
leaf_weight=44 47 75 46 37 65 25 89 52 26
leaf_count=44 47 75 46 37 65 25 89 52 26
internal_value=-0.000154134 0.00308859 -0.00613186 -0.00913854 0.000995146 -0.00359719 0.00517217 0.00016416 -0.0024423
internal_weight=506 328 178 81 164 97 164 99 51
internal_count=506 328 178 81 164 97 164 99 51
is_linear=0
shrinkage=0.01


Tree=57
num_leaves=9
num_cat=0
split_feature=0 0 0 0 0 0 0 0
split_gain=96.2508 13.9607 13.127 2.23778 1.64199 1.02829 0.713515 0.247574
threshold=-0.43495885152815311 0.7192629516854453 -1.2182418897934204 -1.6946035172472076 0.33814108927342551 -0.79646662317053718 1.0320673122561468 -0.053045075037449478
decision_type=2 2 2 2 2 2 2 2
left_child=2 4 3 -1 7 -4 -3 -2
right_child=1 6 5 -5 -6 -7 -8 -9
leaf_value=-0.010538699823806728 -0.00037069952821120025 0.0043453876617009684 -0.0044523327231901803 -0.0070867493310810825 0.0022187374877326326 -0.0022486738745982828 0.0058004573672110959 0.0006248708086851228
leaf_weight=44 45 78 48 42 65 44 86 54
leaf_count=44 45 78 48 42 65 44 86 54
internal_value=-0.000152672 0.00305784 -0.00607107 -0.00888482 0.000985226 -0.00341642 0.00512064 0.000162423
internal_weight=506 328 178 86 164 92 164 99
internal_count=506 328 178 86 164 92 164 99
is_linear=0
shrinkage=0.01


Tree=58
num_leaves=11
num_cat=0
split_feature=0 0 0 0 0 0 0 0 0 0
split_gain=94.3513 14.116 12.3797 2.03146 1.63691 0.937745 0.754693 0.290645 0.200546 0.123459
threshold=-0.44871289503242523 0.69883597931888775 -1.4235713562533567 -0.96588176528489356 0.33814108927342551 -1.813287119634853 1.0079414235404223 -0.12512425134040198 -0.70033243894808506 -1.1424556600521634
decision_type=2 2 2 2 2 2 2 2 2 2
left_child=2 4 5 9 7 -1 -3 -2 -5 -4
right_child=1 6 3 8 -6 -7 -8 -9 -10 -11
leaf_value=-0.010948926958238115 -0.00053898556049060615 0.0041687451825182659 -0.0062266398138470123 -0.0033850171654782398 0.0021711690990325015 -0.0081177733282008797 0.0056630629939249787 0.0005476865854707226 -0.0020378243254545411 -0.0047163304117799724
leaf_weight=32 40 70 25 28 63 33 96 62 31 26
leaf_count=32 40 70 25 28 63 33 96 62 31 26
internal_value=-0.000151191 0.00298626 -0.0060878 -0.00401558 0.000905671 -0.00955622 0.00504472 0.000111535 -0.00270334 -0.00549764
internal_weight=506 331 175 110 165 65 166 102 59 51
internal_count=506 331 175 110 165 65 166 102 59 51
is_linear=0
shrinkage=0.01


Tree=59
num_leaves=9
num_cat=0
split_feature=0 0 0 0 0 0 0 0
split_gain=92.4921 13.4121 12.6117 2.2157 1.5764 0.943286 0.685049 0.238676
threshold=-0.43495885152815311 0.7192629516854453 -1.1780684067672309 -1.6946035172472076 0.33814108927342551 -0.79646662317053718 1.0320673122561468 -0.021718973952544563
decision_type=2 2 2 2 2 2 2 2
left_child=2 4 3 -1 7 -4 -3 -2
right_child=1 6 5 -5 -6 -7 -8 -9
leaf_value=-0.010332482384340796 -0.00034278919946962682 0.004258553172316392 -0.0043297106608495865 -0.0069233894265360299 0.0021743603292966912 -0.0022039722250058102 0.0056860881200246072 0.00063182515588185791
leaf_weight=44 47 78 47 43 65 44 86 52
leaf_count=44 47 78 47 43 65 44 86 52
internal_value=-0.000149811 0.00299735 -0.00595154 -0.00867874 0.000965712 -0.00331993 0.00501924 0.000159291
internal_weight=506 328 178 87 164 91 164 99
internal_count=506 328 178 87 164 91 164 99
is_linear=0
shrinkage=0.01


Tree=60
num_leaves=11
num_cat=0
split_feature=0 0 0 0 0 0 0 0 0 0
split_gain=104.483 14.2524 11.0183 2.02181 1.4447 0.886686 0.720104 0.323643 0.220692 0.165988
threshold=-0.56063800412657649 0.73179332831394039 -1.4235713562533567 0.26721911142223126 -1.0097117761957619 -1.867338217584394 1.0392360405707695 -0.21962610235395133 0.50615025073327813 -0.71802094845377495
decision_type=2 2 2 2 2 2 2 2 2 2
left_child=2 3 5 7 -4 -1 -3 -2 -5 -6
right_child=1 6 4 8 9 -7 -8 -9 -10 -11
leaf_value=-0.010854608290684147 -0.0010257366239910816 0.0043034588839285645 -0.0056665714609402196 0.0014616993016682532 -0.0036230509252433312 -0.0082642770110212295 0.0057343819368323055 0.00029558120004928568 0.0025738800541225786 -0.002240841369021614
leaf_weight=32 26 83 43 42 33 44 87 62 45 21
leaf_count=32 26 83 43 42 33 44 87 62 45 21
internal_value=-0.000192525 0.00298557 -0.00653225 0.000973367 -0.0042653 -0.00939369 0.00504751 -8.4911e-05 0.00205302 -0.00311423
internal_weight=518 345 173 175 97 76 170 88 87 54
internal_count=518 345 173 175 97 76 170 88 87 54
is_linear=0
shrinkage=0.01


Tree=61
num_leaves=12
num_cat=0
split_feature=0 0 0 0 0 0 0 0 0 0 0
split_gain=102.426 13.2319 11.5979 1.7671 1.64619 0.867439 0.704804 0.266833 0.13859 0.134321 0.128757
threshold=-0.47176869933912452 0.73179332831394039 -1.4235713562533567 0.31434737854709111 -0.96588176528489356 -1.867338217584394 1.0392360405707695 -0.14344295534305415 0.53678043168754208 -0.71802094845377495 -1.1424556600521634
decision_type=2 2 2 2 2 2 2 2 2 2 2
left_child=2 3 5 7 10 -1 -3 -2 -5 -6 -4
right_child=1 6 4 8 9 -7 -8 -9 -10 -11 -12
leaf_value=-0.010746736526489256 -0.00064799534771830234 0.0042605277215345544 -0.0060952612780432666 0.0016241900958315863 -0.0033839773658722169 -0.0081820082529637603 0.0056771700836102893 0.00048424723267470013 0.0026104336154105057 -0.0021218327142810095 -0.0045824153295585092
leaf_weight=32 31 83 26 38 25 44 87 61 40 26 25
leaf_count=32 31 83 26 38 25 44 87 61 40 26 25
internal_value=-0.000190667 0.00302448 -0.00633407 0.00104231 -0.00410021 -0.00930039 0.00499721 9.13067e-05 0.00214813 -0.00277086 -0.005394
internal_weight=518 340 178 170 102 76 170 92 78 51 51
internal_count=518 340 178 170 102 76 170 92 78 51 51
is_linear=0
shrinkage=0.01


Tree=62
num_leaves=12
num_cat=0
split_feature=0 0 0 0 0 0 0 0 0 0 0
split_gain=100.406 12.9685 11.3659 1.73232 1.61287 0.848589 0.689817 0.262034 0.135421 0.131127 0.125149
threshold=-0.47176869933912452 0.73179332831394039 -1.4235713562533567 0.31434737854709111 -0.96588176528489356 -1.867338217584394 1.0392360405707695 -0.12512425134040198 0.53678043168754208 -0.71802094845377495 -1.1424556600521634
decision_type=2 2 2 2 2 2 2 2 2 2 2
left_child=2 3 5 7 10 -1 -3 -2 -5 -6 -4
right_child=1 6 4 8 9 -7 -8 -9 -10 -11 -12
leaf_value=-0.010639936683340841 -0.00056021318732354356 0.0042180248529005504 -0.0060347740522777764 0.0016080332192450917 -0.0033504062205080005 -0.0081005582631443404 0.0056205281929685436 0.00052675588126045736 0.0025844591789281192 -0.0021007763440827379 -0.0045369549379462295
leaf_weight=32 36 83 26 38 25 44 87 56 40 26 25
leaf_count=32 36 83 26 38 25 44 87 56 40 26 25
internal_value=-0.000188861 0.0029944 -0.0062714 0.001032 -0.00405981 -0.00920801 0.00494741 9.02816e-05 0.00212688 -0.00274357 -0.00534067
internal_weight=518 340 178 170 102 76 170 92 78 51 51
internal_count=518 340 178 170 102 76 170 92 78 51 51
is_linear=0
shrinkage=0.01


Tree=63
num_leaves=11
num_cat=0
split_feature=0 0 0 0 0 0 0 0 0 0
split_gain=98.4283 13.4166 10.3725 1.90766 1.51415 0.701144 0.675139 0.306062 0.20648 0.184612
threshold=-0.56063800412657649 0.73179332831394039 -1.4348740282044126 0.26721911142223126 -1.0202093263167387 -1.867338217584394 1.0392360405707695 -0.21962610235395133 0.50615025073327813 -0.79646662317053718
decision_type=2 2 2 2 2 2 2 2 2 2
left_child=2 3 5 7 -4 -1 -3 -2 -5 -6
right_child=1 6 4 8 9 -7 -8 -9 -10 -11
leaf_value=-0.010534198487767521 -0.00099781504995722801 0.0041759460118527591 -0.0056656146753165451 0.0014197197185732177 -0.0037059061258833932 -0.0081189917476431825 0.0055644521773408305 0.00028699900012409428 0.0024987072167934571 -0.0023450462016112667
leaf_weight=32 26 83 43 42 30 41 87 62 45 27
leaf_count=32 26 83 43 42 30 41 87 62 45 27
internal_value=-0.000187072 0.00289751 -0.00634043 0.00094499 -0.00421615 -0.00921726 0.00489811 -8.26691e-05 0.00199374 -0.00308922
internal_weight=518 345 173 175 100 73 170 88 87 57
internal_count=518 345 173 175 100 73 170 88 87 57
is_linear=0
shrinkage=0.01


Tree=64
num_leaves=11
num_cat=0
split_feature=0 0 0 0 0 0 0 0 0 0
split_gain=96.4889 12.4559 10.918 1.66566 1.54895 0.811394 0.660761 0.246053 0.147973 0.136947
threshold=-0.47176869933912452 0.73179332831394039 -1.4235713562533567 0.30060473260339055 -0.98879117368715697 -1.867338217584394 1.0392360405707695 -0.14344295534305415 -0.71802094845377495 0.53678043168754208
decision_type=2 2 2 2 2 2 2 2 2 2
left_child=2 3 5 7 -4 -1 -3 -2 -6 -5
right_child=1 6 4 9 8 -7 -8 -9 -10 -11
leaf_value=-0.010429510944378299 -0.00063019452861343053 0.0041342869429634166 -0.0052864833200365544 0.0015638666497353388 -0.003335220441222191 -0.0079407618110535899 0.0055089352901922448 0.00046038793952999464 -0.0020592285795066195 0.0025338804343743109
leaf_weight=32 31 83 49 39 27 44 87 60 26 40
leaf_count=32 31 83 49 39 27 44 87 60 26 40
internal_value=-0.000185268 0.00293525 -0.00614802 0.00101186 -0.00398009 -0.0090264 0.00484931 7.73386e-05 -0.00273815 0.0020728
internal_weight=518 340 178 170 102 76 170 91 53 79
internal_count=518 340 178 170 102 76 170 91 53 79
is_linear=0
shrinkage=0.01


Tree=65
num_leaves=12
num_cat=0
split_feature=0 0 0 0 0 0 0 0 0 0 0
split_gain=85.4138 14.426 7.95572 1.55532 1.45061 1.36601 0.405655 0.308538 0.199402 0.16352 0.114606
threshold=-0.58248375277952491 0.58628012746317981 -1.4689060140854207 0.89093968290922587 0.14647977144390126 -1.0761931476782385 -1.901167481879275 -0.29157110613710574 1.1195247583230883 -0.79646662317053718 0.40112727138256427
decision_type=2 2 2 2 2 2 2 2 2 2 2
left_child=2 4 6 -3 7 -4 -1 -2 -5 -7 -6
right_child=1 3 5 8 10 9 -8 -9 -10 -11 -12
leaf_value=-0.010483598836830683 -0.0012561057507991791 0.0031048117361113991 -0.0058091574024271078 0.004607851752345426 0.00098868767303821113 -0.0037471712113085372 -0.0081488255201241904 5.8077067028958689e-06 0.0056188118170311975 -0.0022800505126631537 0.0018521183574091795
leaf_weight=25 27 63 43 77 36 36 31 62 62 17 44
leaf_count=25 27 63 43 77 36 36 31 62 62 17 44
internal_value=7.65281e-05 0.00266511 -0.00623029 0.00446805 0.000501473 -0.00444719 -0.00924253 -0.000367767 0.00507339 -0.00330572 0.00147948
internal_weight=523 371 152 202 169 96 56 89 139 53 80
internal_count=523 371 152 202 169 96 56 89 139 53 80
is_linear=0
shrinkage=0.01


Tree=66
num_leaves=12
num_cat=0
split_feature=0 0 0 0 0 0 0 0 0 0 0
split_gain=83.7304 13.9969 7.92154 1.52368 1.39079 1.38453 0.395915 0.296649 0.194548 0.179802 0.100111
threshold=-0.56063800412657649 0.58628012746317981 -1.4689060140854207 0.89093968290922587 0.15390886540140195 -1.0761931476782385 -1.901167481879275 -0.2801915163591398 1.1147033384039584 -0.79646662317053718 0.41085943720894835
decision_type=2 2 2 2 2 2 2 2 2 2 2
left_child=2 4 6 -3 7 -4 -1 -2 -5 -7 -6
right_child=1 3 5 8 10 9 -8 -9 -10 -11 -12
leaf_value=-0.010379594763120016 -0.0011382413712262317 0.0030738619064228441 -0.0057513347985567861 0.0045553181733046302 0.0010470771239534098 -0.0037099065273506204 -0.0080678599270490488 6.3019246265193162e-05 0.0055548938995675194 -0.0022299489444428749 0.001874442048630311
leaf_weight=25 30 63 43 76 38 36 31 60 63 18 40
leaf_count=25 30 63 43 76 38 36 31 60 63 18 40
internal_value=7.56843e-05 0.00265052 -0.00613985 0.0044236 0.000509927 -0.00437594 -0.00915094 -0.00032795 0.00502288 -0.00324509 0.00148786
internal_weight=523 370 153 202 168 97 56 90 139 54 78
internal_count=523 370 153 202 168 97 56 90 139 54 78
is_linear=0
shrinkage=0.01


Tree=67
num_leaves=12
num_cat=0
split_feature=0 0 0 0 0 0 0 0 0 0 0
split_gain=82.0808 13.8585 7.64214 1.4929 1.39427 1.30998 0.386383 0.297012 0.210198 0.155639 0.109686
threshold=-0.58248375277952491 0.58628012746317981 -1.4689060140854207 0.88283015420235211 0.14647977144390126 -1.0761931476782385 -1.901167481879275 -0.31357418926019814 1.1147033384039584 -0.79646662317053718 0.40112727138256427
decision_type=2 2 2 2 2 2 2 2 2 2 2
left_child=2 4 6 -3 7 -4 -1 -2 -5 -7 -6
right_child=1 3 5 8 10 9 -8 -9 -10 -11 -12
leaf_value=-0.01027662201533242 -0.0013061081180887773 0.0029958872244603609 -0.0056940876830507206 0.0044903071984799224 0.00096898618509262289 -0.0036730124295087149 -0.0079876983280365282 0 0.0054995205432553833 -0.0022354749018369717 0.0018157701099889851
leaf_weight=25 24 60 43 79 36 36 31 65 63 17 44
leaf_count=25 24 60 43 79 36 36 31 65 63 17 44
internal_value=7.48506e-05 0.00261246 -0.00610765 0.0043796 0.00049168 -0.00435964 -0.00906027 -0.000360337 0.00495219 -0.00324085 0.00145055
internal_weight=523 371 152 202 169 96 56 89 142 53 80
internal_count=523 371 152 202 169 96 56 89 142 53 80
is_linear=0
shrinkage=0.01


Tree=68
num_leaves=10
num_cat=0
split_feature=0 0 0 0 0 0 0 0 0
split_gain=80.4623 13.4469 7.61314 1.46287 1.33701 0.854217 0.82811 0.285898 0.184971
threshold=-0.56063800412657649 0.58628012746317981 -1.3651338038127221 0.89093968290922587 0.15390886540140195 -1.867338217584394 -0.96588176528489356 -0.2801915163591398 1.1195247583230883
decision_type=2 2 2 2 2 2 2 2 2
left_child=2 4 5 -3 7 -1 -4 -2 -5
right_child=1 3 6 8 -6 -7 -8 -9 -10
leaf_value=-0.010047250783189814 -0.0011169871875387153 0.0030126471110159835 -0.0048649401187412138 0.0044714104279952958 0.001458757751052032 -0.0073913830637338728 -0.0027427649325099442 6.2069229227011143e-05 0.0054526158601908049
leaf_weight=28 30 63 49 77 78 40 36 60 62
leaf_count=28 30 63 49 77 78 40 36 60 62
internal_value=7.39948e-05 0.00259812 -0.00601899 0.00433603 0.000499872 -0.0085259 -0.00398642 -0.000321468 0.00492346
internal_weight=523 370 153 202 168 68 85 90 139
internal_count=523 370 153 202 168 68 85 90 139
is_linear=0
shrinkage=0.01


Tree=69
num_leaves=12
num_cat=0
split_feature=0 0 0 0 0 0 0 0 0 0 0
split_gain=78.8754 13.3142 7.3517 1.43378 1.34017 1.26036 0.369301 0.275882 0.20002 0.149457 0.119662
threshold=-0.58248375277952491 0.58628012746317981 -1.4689060140854207 0.88283015420235211 0.13528820096965505 -1.0761931476782385 -1.9157116607452418 -0.31357418926019814 1.1023736234821933 -0.79646662317053718 0.40112727138256427
decision_type=2 2 2 2 2 2 2 2 2 2 2
left_child=2 4 6 -3 7 -4 -1 -2 -5 -7 -6
right_child=1 3 5 8 10 9 -8 -9 -10 -11 -12
leaf_value=-0.01022053141851683 -0.0012814056288358595 0.0029360015022002186 -0.0055819683521985998 0.0043758261425698051 0.00092363054586174593 -0.0035986568700542764 -0.0079345936733379689 -8.5997528542434378e-06 0.0053603257132428033 -0.0021862713801999428 0.0017831730309924387
leaf_weight=22 24 60 43 75 38 36 34 63 67 17 44
leaf_count=22 24 60 43 75 38 36 34 63 67 17 44
internal_value=7.3191e-05 0.0025608 -0.00598735 0.00429289 0.000481947 -0.00427252 -0.00888361 -0.00037332 0.00485426 -0.00317435 0.00140023
internal_weight=523 371 152 202 169 96 56 87 142 53 82
internal_count=523 371 152 202 169 96 56 87 142 53 82
is_linear=0
shrinkage=0.01


Tree=70
num_leaves=11
num_cat=0
split_feature=0 0 0 0 0 0 0 0 0 0
split_gain=75.4476 11.3321 9.87611 1.38585 1.37899 0.936746 0.511031 0.195802 0.11948 0.112989
threshold=-0.43495885152815311 0.73179332831394039 -1.2346217486266278 -1.5859968934503199 0.31434737854709111 -0.9090793911972529 1.0171966756421149 -0.053045075037449478 0.52304032395574473 -0.64002032432461686
decision_type=2 2 2 2 2 2 2 2 2 2
left_child=2 4 3 -1 7 -4 -3 -2 -6 -7
right_child=1 6 5 -5 8 9 -8 -9 -10 -11
leaf_value=-0.0090777260807045259 -0.00033263070994657483 0.0037964146295723883 -0.0043136008676825733 -0.0062144003029574041 0.0014134752938664088 -0.0026899776486217553 0.0050576605172559554 0.00053984517559700791 0.0023317261322320084 -0.0015731469246130143
leaf_weight=48 46 69 39 35 37 28 97 56 41 25
leaf_count=48 46 69 39 35 37 28 97 56 41 25
internal_value=-4.40339e-05 0.00266013 -0.00539319 -0.00790016 0.000913541 -0.00310839 0.00454462 0.00013671 0.00191366 -0.00218986
internal_weight=521 346 175 83 180 92 166 102 78 53
internal_count=521 346 175 83 180 92 166 102 78 53
is_linear=0
shrinkage=0.01


Tree=71
num_leaves=11
num_cat=0
split_feature=0 0 0 0 0 0 0 0 0 0
split_gain=73.9584 11.1064 9.67884 1.3573 1.35199 0.917358 0.499951 0.20925 0.115742 0.110322
threshold=-0.43495885152815311 0.73179332831394039 -1.2346217486266278 -1.5513386208576811 0.33814108927342551 -0.9090793911972529 1.0171966756421149 0.047613492016482649 -1.9741734255437848 -0.64002032432461686
decision_type=2 2 2 2 2 2 2 2 2 2
left_child=2 4 3 8 7 -4 -3 -2 -1 -7
right_child=1 6 5 -5 -6 9 -8 -9 -10 -11
leaf_value=-0.01005425483873575 -0.00025976789950279733 0.0037585602020252648 -0.0042706849988625971 -0.0061113780423214551 0.0019292950850138637 -0.0026632686487749113 0.0050071878068976925 0.00062477128187310872 -0.0081046530318586805 -0.0015575403057866628
leaf_weight=20 54 69 39 34 75 28 97 51 29 25
leaf_count=20 54 69 39 34 75 28 97 51 29 25
internal_value=-4.3636e-05 0.00263369 -0.00533976 -0.00782165 0.000904505 -0.00307771 0.00449934 0.000160731 -0.00895837 -0.00216831
internal_weight=521 346 175 83 180 92 166 105 49 53
internal_count=521 346 175 83 180 92 166 105 49 53
is_linear=0
shrinkage=0.01


Tree=72
num_leaves=11
num_cat=0
split_feature=0 0 0 0 0 0 0 0 0 0
split_gain=72.501 10.8858 9.48734 1.4811 1.32542 0.781079 0.489335 0.188705 0.117047 0.111827
threshold=-0.43495885152815311 0.73179332831394039 -1.2182418897934204 -1.5513386208576811 0.31434737854709111 -0.79646662317053718 1.0247180346212599 -0.063578410467303684 0.50615025073327813 -1.9741734255437848
decision_type=2 2 2 2 2 2 2 2 2 2
left_child=2 4 3 9 7 -4 -3 -2 -6 -1
right_child=1 6 5 -5 8 -7 -8 -9 -10 -11
leaf_value=-0.0099547077051483756 -0.0003458284001957574 0.0037555566731372167 -0.0038780455796395314 -0.005994698539856941 0.0013427092322306326 -0.0019158554359634905 0.0049831962246495764 0.00051457829210151921 0.0022575347051361568 -0.0080241616948010172
leaf_weight=20 44 73 47 37 34 42 93 58 44 29
leaf_count=20 44 73 47 37 34 42 93 58 44 29
internal_value=-4.33213e-05 0.00260747 -0.00528702 -0.00766118 0.000895486 -0.00296965 0.00445452 0.000133687 0.00187601 -0.00886973
internal_weight=521 346 175 86 180 89 166 102 78 49
internal_count=521 346 175 86 180 89 166 102 78 49
is_linear=0
shrinkage=0.01


Tree=73
num_leaves=11
num_cat=0
split_feature=0 0 0 0 0 0 0 0 0 0
split_gain=71.0828 12.6582 7.1824 1.2 1.19375 1.082 0.511614 0.225649 0.173931 0.16611
threshold=-0.58248375277952491 0.58628012746317981 -1.4348740282044126 0.86708472389807079 0.088429647815833137 -1.0202093263167387 -1.867338217584394 -0.35357099203650411 0.38016947612746727 1.1147033384039584
decision_type=2 2 2 2 2 2 2 2 2 2
left_child=2 4 6 -3 7 -4 -1 -2 -6 -5
right_child=1 3 5 9 8 -7 -8 -9 -10 -11
leaf_value=-0.0095151177830729919 -0.0013255070837150361 0.0027616089925868439 -0.0050833416950923421 0.0042168596394341487 0.00073984124457638246 -0.0028302953159436584 -0.0072352411123839276 -0.00012718763451002459 0.0016696187260591589 0.0051487890080688823
leaf_weight=28 23 51 43 80 51 51 35 56 42 61
leaf_count=28 23 51 43 80 51 51 35 56 42 61
internal_value=-4.29543e-05 0.00238092 -0.00566487 0.00414512 0.000403241 -0.00388016 -0.00829125 -0.000491158 0.00117315 0.00463384
internal_weight=521 364 157 192 172 94 63 79 93 141
internal_count=521 364 157 192 172 94 63 79 93 141
is_linear=0
shrinkage=0.01


Tree=74
num_leaves=11
num_cat=0
split_feature=0 0 0 0 0 0 0 0 0 0
split_gain=69.6793 12.4077 7.04089 1.17565 1.17053 0.947595 0.604109 0.221103 0.170498 0.150066
threshold=-0.58248375277952491 0.58628012746317981 -1.4235713562533567 0.88283015420235211 0.088429647815833137 -1.0097117761957619 -1.813287119634853 -0.35357099203650411 0.36826735579915632 1.1147033384039584
decision_type=2 2 2 2 2 2 2 2 2 2
left_child=2 4 6 -3 7 -4 -1 -2 -6 -5
right_child=1 3 5 9 8 -7 -8 -9 -10 -11
leaf_value=-0.009303198972573647 -0.0013123662410111263 0.0027692908115853044 -0.0048846275566352734 0.0041877026288100819 0.00070447666500984872 -0.0027366277853730311 -0.0069747516275806857 -0.00012592028221612616 0.0016217577002481021 0.0050974695063104817
leaf_weight=31 23 53 43 78 48 48 35 56 45 61
leaf_count=31 23 53 43 78 48 48 35 56 45 61
internal_value=-4.25692e-05 0.00235724 -0.00560873 0.0041039 0.000399161 -0.00377107 -0.00810832 -0.000486409 0.00116158 0.00460089
internal_weight=521 364 157 192 172 91 66 79 93 139
internal_count=521 364 157 192 172 91 66 79 93 139
is_linear=0
shrinkage=0.01


Tree=75
num_leaves=10
num_cat=0
split_feature=0 0 0 0 0 0 0 0 0
split_gain=68.2041 10.6777 9.37995 1.16286 1.15569 0.960846 0.664011 0.159622 0.105349
threshold=-0.43495885152815311 0.69883597931888775 -1.265326082355348 0.30060473260339055 -1.7715149948736499 -0.85701422727817878 1.0079414235404223 -0.075771660296878637 -0.64002032432461686
decision_type=2 2 2 2 2 2 2 2 2
left_child=2 3 4 7 -1 -4 -3 -2 -7
right_child=1 6 5 -5 -6 8 -8 -9 -10
leaf_value=-0.0090610021446387787 -0.00034406939496639771 0.003513704442915328 -0.0041438259748579221 0.0018268923340308155 -0.0063259402557193289 -0.002530280706637046 0.0048479707431430602 0.00044990884797723108 -0.0014566928978639703
leaf_weight=38 43 76 41 65 38 27 105 59 26
leaf_count=38 43 76 41 65 38 27 105 59 26
internal_value=7.74588e-05 0.00261526 -0.00510867 0.0007828 -0.00772679 -0.00296937 0.00429774 0.000105389 -0.00202987
internal_weight=518 348 170 167 76 94 181 102 53
internal_count=518 348 170 167 76 94 181 102 53
is_linear=0
shrinkage=0.01


Tree=76
num_leaves=9
num_cat=0
split_feature=0 0 0 0 0 0 0 0
split_gain=66.8584 10.1519 9.55371 1.41025 1.25122 0.784078 0.517438 0.154432
threshold=-0.37777668644217338 0.75397484386020375 -1.2182418897934204 -1.5859968934503199 0.33814108927342551 -0.76451575645933834 1.0476222436308522 0.066934523333906745
decision_type=2 2 2 2 2 2 2 2
left_child=2 4 3 -1 7 -4 -3 -2
right_child=1 6 5 -5 -6 -7 -8 -9
leaf_value=-0.0087017317019499728 -0.00015784163295024341 0.0036847312199814581 -0.0036730060252276333 -0.0058327863130780214 0.0019350118292741413 -0.0017402724737087183 0.0048980298459926361 0.00061050750734486104
leaf_weight=46 57 84 46 36 68 45 90 46
leaf_count=46 57 84 46 36 68 45 90 46
internal_value=7.65753e-05 0.00262225 -0.00499146 -0.00747162 0.000882855 -0.00273414 0.00432294 0.000176133
internal_weight=518 345 173 82 171 91 174 103
internal_count=518 345 173 82 171 91 174 103
is_linear=0
shrinkage=0.01


Tree=77
num_leaves=10
num_cat=0
split_feature=0 0 0 0 0 0 0 0 0
split_gain=65.539 10.2604 9.01289 1.11188 1.09216 0.924159 0.6589 0.14067 0.101252
threshold=-0.43495885152815311 0.6884400948049666 -1.265326082355348 -1.7715149948736499 0.28537795061833887 -0.85701422727817878 0.9870325671646224 -0.12512425134040198 -0.64002032432461686
decision_type=2 2 2 2 2 2 2 2 2
left_child=2 4 3 -1 7 -4 -3 -2 -7
right_child=1 6 5 -5 -6 8 -8 -9 -10
leaf_value=-0.0088843048461444713 -0.00037546912139300634 0.0033480390067324255 -0.0040628917862489383 -0.006198981394942518 0.0017414015664585999 -0.0024800729915937961 0.0046979628772117624 0.00038976645995197548 -0.0014249672450637088
leaf_weight=38 39 68 41 38 67 27 114 60 26
leaf_count=38 39 68 41 38 67 27 114 60 26
internal_value=7.57363e-05 0.0025635 -0.00500802 -0.00757456 0.000756725 -0.00291065 0.00420331 7.80802e-05 -0.00198857
internal_weight=518 348 170 76 166 94 182 99 53
internal_count=518 348 170 76 166 94 182 99 53
is_linear=0
shrinkage=0.01


Tree=78
num_leaves=9
num_cat=0
split_feature=0 0 0 0 0 0 0 0
split_gain=64.2471 9.75592 9.1816 1.35484 1.2032 0.751907 0.497836 0.170828
threshold=-0.37777668644217338 0.75397484386020375 -1.2182418897934204 -1.5859968934503199 0.38016947612746727 -0.76451575645933834 1.0476222436308522 0.066934523333906745
decision_type=2 2 2 2 2 2 2 2
left_child=2 4 3 -1 7 -4 -3 -2
right_child=1 6 5 -5 -6 -7 -8 -9
leaf_value=-0.0085312824409245411 -0.00015533660365906838 0.0036107227977834233 -0.0035997505298940649 -0.0057166739458537228 0.0019493043181309448 -0.0017057217825698643 0.0048022827023677444 0.00063435623963990523
leaf_weight=46 57 84 46 36 64 45 90 50
leaf_count=46 57 84 46 36 64 45 90 50
internal_value=7.48699e-05 0.00257038 -0.00489316 -0.00732468 0.000865098 -0.0026799 0.00423759 0.000204845
internal_weight=518 345 173 82 171 91 174 107
internal_count=518 345 173 82 171 91 174 107
is_linear=0
shrinkage=0.01


Tree=79
num_leaves=9
num_cat=0
split_feature=0 0 0 0 0 0 0 0
split_gain=62.9781 9.85895 8.66014 1.19946 1.04938 0.780197 0.633689 0.135619
threshold=-0.43495885152815311 0.6884400948049666 -1.2346217486266278 -1.7715149948736499 0.28537795061833887 -0.8165519423608002 0.99939557922006095 -0.12512425134040198
decision_type=2 2 2 2 2 2 2 2
left_child=2 4 3 -1 7 -4 -3 -2
right_child=1 6 5 -5 -6 -7 -8 -9
leaf_value=-0.0087110609034593174 -0.00036900162524591211 0.0033446606537921629 -0.0037377271886947934 -0.0060034943639653395 0.0017067567946478016 -0.0018078098471933628 0.00464721807125789 0.00038231399872547559
leaf_weight=38 39 75 45 41 67 46 107 60
leaf_count=38 39 75 45 41 67 46 107 60
internal_value=7.4049e-05 0.00251276 -0.00490936 -0.0073372 0.000741543 -0.00277923 0.0041202 7.61133e-05
internal_weight=518 348 170 79 166 91 182 99
internal_count=518 348 170 79 166 91 182 99
is_linear=0
shrinkage=0.01


Tree=80
num_leaves=11
num_cat=0
split_feature=0 0 0 0 0 0 0 0 0 0
split_gain=61.4141 10.1155 6.22991 1.16187 0.959312 0.894291 0.20938 0.166097 0.11512 0.114367
threshold=-0.58248375277952491 0.58628012746317981 -1.4689060140854207 0.89093968290922587 -1.0202093263167387 0.13154591490281969 -1.9157116607452418 -0.29157110613710574 1.1195247583230883 0.44727651709986399
decision_type=2 2 2 2 2 2 2 2 2 2
left_child=2 5 6 -3 -4 7 -1 -2 -5 -7
right_child=1 3 4 8 -6 9 -8 -9 -10 -11
leaf_value=-0.0090752303959994469 -0.0010977402828493208 0.002667070488427199 -0.0047794168833958893 0.003971201029657586 -0.0026584219806275121 0.00079045535584466647 -0.0071691928929593172 -3.7559850018776392e-05 0.0048363688337468656 0.0016465401416083417
leaf_weight=23 21 61 47 65 47 45 33 56 64 33
leaf_count=23 21 61 47 65 47 45 33 56 64 33
internal_value=-3.99008e-06 0.00231649 -0.00534373 0.00386247 -0.00373743 0.00041244 -0.00799933 -0.000341748 0.00441499 0.00116872
internal_weight=495 345 150 190 94 155 56 77 129 78
internal_count=495 345 150 190 94 155 56 77 129 78
is_linear=0
shrinkage=0.01


Tree=81
num_leaves=11
num_cat=0
split_feature=0 0 0 0 0 0 0 0 0 0
split_gain=60.2023 9.91529 6.10686 1.13819 0.87699 0.841492 0.290954 0.155524 0.120759 0.100671
threshold=-0.58248375277952491 0.58628012746317981 -1.4461973835409241 0.8977495818747282 0.11650376694709143 -1.0202093263167387 -1.901167481879275 -0.29157110613710574 0.40112727138256427 1.1195247583230883
decision_type=2 2 2 2 2 2 2 2 2 2
left_child=2 4 6 -3 7 -4 -1 -2 -6 -5
right_child=1 3 5 9 8 -7 -8 -9 -10 -11
leaf_value=-0.008868763633356749 -0.0010868664381076705 0.0026681818742352193 -0.0046615060557067657 0.0039447742587403398 0.00071772410883016492 -0.00263195038346921 -0.0068991382330296979 -5.3312765955031471e-05 0.0015708485378332787 0.0047881556949882862
leaf_weight=26 21 63 44 63 42 47 33 54 38 64
