tree
version=v4
num_class=1
num_tree_per_iteration=1
label_index=0
max_feature_idx=12
objective=regression
feature_names=Column_0 Column_1 Column_2 Column_3 Column_4 Column_5 Column_6 Column_7 Column_8 Column_9 Column_10 Column_11 Column_12
feature_infos=[-1.6974020468230884:1.7574861176697609] [-1.1140338483021255:2.3269593281836021] [-2.5024436346207422:2.717007607087393] [-3.2695394835320526:1.1083960488566826] [-1.8316829849539105:1.8994729152079257] [-1.7574861176699978:1.6974020468228441] [-1.6875307728945337:1.7674462305946013] [-1.6942603050229301:1.753818215723782] [-2.3248458264896983:1.1147846002710762] [-1.6160368637192821:1.6629784599350068] [-2.2732196525890318:1.133139489018395] [-1.3435362996323645:1.3643337215454028] [-2.0998364941866163:1.1948351346808268]
tree_sizes=2649 2745 2746 2853 2876 2880 2771 2878 2902 3004 4027 4053 3828 3799 3945 3951 3926 3967 3856

Tree=0
num_leaves=28
num_cat=0
split_feature=11 0 11 1 1 11 0 0 0 1 1 3 0 2 1 5 1 1 5 11 1 5 0 8 1 2 0
split_gain=17565.3 10015.2 10884.8 9245.97 7972.79 6357.56 6902.65 8565.33 8183 9755.81 9615.81 5623.5 4941.37 4940.45 7459.66 12038.6 3661.78 6625.3 5979.88 3457.95 3298.56 1839.55 1646 1550.63 3539.86 888.936 680.412
threshold=1.3572781837733903 -1.0829304544408429 1.3526356096877157 -1.0532099263418337 1.8392086013527507 1.3420326613999818 0.79510244058658242 1.1828253608503092 0.34333600224357957 -0.2010723966151414 -0.92656412245703523 0.56857766640835761 1.5238138219751043 -0.029652357430586387 -1.10869827967612 -0.10620189476108517 0.83235080449835508 0.43678768576716281 1.3962244212608823 1.347571302926172 0.66949876630744976 1.0000000180025095e-35 -1.2837155381488441 -1.2505170844809832 1.5178870959384423 -0.025609207888557559 -0.1897830131190445
decision_type=2 2 2 2 2 2 2 2 2 2 2 2 2 2 2 2 2 2 2 2 2 2 2 2 2 2 2
left_child=1 4 3 13 16 6 8 11 9 -5 -10 -8 -2 26 21 25 17 -1 -18 -7 -9 -15 -19 24 -20 -16 -3
right_child=12 2 -4 5 -6 19 7 20 10 -11 -12 -13 -14 14 15 -17 18 22 23 -21 -22 -23 -24 -25 -26 -27 -28
leaf_value=420.11535482968719 418.93662940846377 419.96137340366249 420.2025444203843 419.6838558094737 419.39328435809898 418.9701373902642 419.73124601811782 419.2270574925783 418.90679960857892 419.29040139033549 419.47717136223145 420.11160522665722 419.42324233584378 419.79663253256115 419.86323489370727 418.95032457795475 420.3504428446056 419.79164747986914 420.20363382230278 419.49691357374195 419.63545854772502 420.13542515971136 419.49638245519714 419.66676474894626 419.7704902147193 419.62711759782053 420.20177848825364
leaf_weight=14.999999999999998 14.999999999999998 10.000000000000002 12.999999999999998 155 13.999999999999998 10.000000000000002 44 12.999999999999998 13.999999999999998 30 74 24 19 12.000000000000002 14.999999999999998 9.9999999999999982 14.999999999999998 11.999999999999995 12.999999999999998 9.9999999999999982 20 13.999999999999998 20.000000000000004 10.000000000000002 18 11.000000000000002 9.9999999999999982
leaf_count=15 15 10 13 155 14 10 44 13 14 30 74 24 19 12 15 10 15 12 13 10 20 14 20 10 18 11 10
internal_value=419.649 419.674 419.634 419.618 419.84 419.578 419.597 419.738 419.544 419.62 419.386 419.866 419.207 419.811 419.723 419.536 419.901 419.77 420.01 419.231 419.474 419.98 419.607 419.884 419.953 419.764 420.084
internal_weight=640 606 489 476 117 394 374 101 273 185 88 68 34 82 62 36 103 47 56 20 33 26 32 41 31 26 20
internal_count=640 606 489 476 117 394 374 101 273 185 88 68 34 82 62 36 103 47 56 20 33 26 32 41 31 26 20
is_linear=0
shrinkage=1


Tree=1
num_leaves=28
num_cat=0
split_feature=11 0 11 1 1 11 0 0 0 1 1 5 0 2 1 5 1 1 5 11 1 5 0 8 1 2 0
split_gain=16874.1 9621.4 10457 8882.53 7659.33 6108.45 6630.09 8228 7860.15 9370.66 9238.32 5401.79 4747.06 4747.02 7166.82 11566.3 3517.69 6364.53 5744.5 3322.32 3168.92 1767.15 1581.25 1489.63 3400.8 853.984 653.689
threshold=1.3572781837733903 -1.0829304544408429 1.3526356096877157 -1.0532099263418337 1.8392086013527507 1.3420326613999818 0.79510244058658242 1.1828253608503092 0.34333600224357957 -0.2010723966151414 -0.92656412245703523 -1.0599310423740742 1.5238138219751043 -0.029652357430586387 -1.10869827967612 -0.10620189476108517 0.83235080449835508 0.43678768576716281 1.3962244212608823 1.347571302926172 0.66949876630744976 1.0000000180025095e-35 -1.2837155381488441 -1.2505170844809832 1.5178870959384423 -0.025609207888557559 -0.1897830131190445
decision_type=2 2 2 2 2 2 2 2 2 2 2 2 2 2 2 2 2 2 2 2 2 2 2 2 2 2 2
left_child=1 4 3 13 16 6 8 11 9 -5 -10 -8 -2 26 21 25 17 -1 -18 -7 -9 -15 -19 24 -20 -16 -3
right_child=12 2 -4 5 -6 19 7 20 10 -11 -12 -13 -14 14 15 -17 18 22 23 -21 -22 -23 -24 -25 -26 -27 -28
leaf_value=0.45734540004603907 -0.69796162703179376 0.30644373412179465 0.54281395916720387 0.034415024393685476 -0.25038168778656222 -0.66516388049220065 0.45364742250363366 -0.41331217131541886 -0.72720573305238234 -0.35119454465435196 -0.16814083252197659 0.080860717583135136 -0.22101022705357731 0.14496021932806849 0.21023447002006682 -0.68458433849976796 0.68776283920995451 0.1400740232546468 0.54388174057006833 -0.14881889857868158 -0.013016074284985288 0.47702156121003714 -0.14932448681314189 0.017668904786062704 0.11932973349291975 -0.02119277352685326 0.54208830125261065
leaf_weight=14.999999999999998 14.999999999999998 10.000000000000002 12.999999999999998 155 13.999999999999998 10.000000000000002 24 12.999999999999998 13.999999999999998 30 74 44 19 12.000000000000002 14.999999999999998 9.9999999999999982 14.999999999999998 11.999999999999995 12.999999999999998 9.9999999999999982 20 13.999999999999998 20.000000000000004 10.000000000000002 18 11.000000000000002 9.9999999999999982
leaf_count=15 15 10 13 155 14 10 24 13 14 30 74 44 19 12 15 10 15 12 13 10 20 14 20 10 18 11 10
internal_value=0 0.0243558 -0.0146337 -0.029971 0.187194 -0.069392 -0.0511205 0.0872586 -0.102333 -0.0282668 -0.257819 0.21292 -0.432889 0.159284 0.0725446 -0.110111 0.246865 0.118883 0.353857 -0.409066 -0.171511 0.324943 -0.0406706 0.230296 0.298576 0.112579 0.426427
internal_weight=640 606 489 476 117 394 374 101 273 185 88 68 34 82 62 36 103 47 56 20 33 26 32 41 31 26 20
internal_count=640 606 489 476 117 394 374 101 273 185 88 68 34 82 62 36 103 47 56 20 33 26 32 41 31 26 20
is_linear=0
shrinkage=0.02


Tree=2
num_leaves=28
num_cat=0
split_feature=11 2 11 1 1 11 2 1 2 1 1 3 2 1 5 1 1 1 5 11 1 5 1 1 1 2 4
split_gain=16210.1 9243.09 10046 8533.39 7358.2 5869.09 6368.29 7903.96 7550.04 9000.72 8875.66 5188.83 4561.16 6885.47 11112.5 4560.38 3379.27 6114.02 5518.39 3192 3044.37 1697.59 1519.04 1431.04 3267.19 820.406 628.016
threshold=1.3572781837733903 -0.67114872019846283 1.3526356096877157 -1.0532099263418337 1.8392086013527507 1.3420326613999818 0.22549710072418766 0.43678768576716281 -0.0082928283024013092 -0.2010723966151414 -0.92656412245703523 0.56857766640835761 -0.029652357430586387 -1.10869827967612 -0.10620189476108517 1.4727737421545621 0.83235080449835508 0.43678768576716281 1.3962244212608823 1.347571302926172 0.66949876630744976 1.0000000180025095e-35 0.72358052814104645 1.2502993968165381 1.5178870959384423 -0.025609207888557559 -0.093560852947632611
decision_type=2 2 2 2 2 2 2 2 2 2 2 2 2 2 2 2 2 2 2 2 2 2 2 2 2 2 2
left_child=1 4 3 12 16 6 8 11 9 -5 -10 -8 26 21 25 -2 17 -1 -18 -7 -9 -14 -19 -20 -25 -15 -3
right_child=15 2 -4 5 -6 19 7 20 10 -11 -12 -13 13 14 -16 -17 18 22 23 -21 -22 -23 -24 24 -26 -27 -28
leaf_value=0.4482590785247601 -0.68409483450138031 0.30037553843885351 0.53204056144670675 0.033727177416102337 -0.24540957214139031 -0.65199230510409489 0.079247200007881977 -0.40510900786814802 -0.71276477111992265 -0.34419401108624537 -0.16478251746791578 0.44461210858277761 0.14208496850384164 0.20605762424847934 -0.6710281980155719 -0.21661318903818177 0.67409865170914596 -0.14635283948177127 0.017319029888304152 -0.14587198852312447 -0.012757053612476556 0.46754880215259309 0.13729570317859494 0.53308717305423636 0.11695632040171333 -0.020772757315420883 0.53135391688582922
leaf_weight=14.999999999999998 14.999999999999998 10.000000000000002 12.999999999999998 155 13.999999999999998 10.000000000000002 44 12.999999999999998 13.999999999999998 30 74 24 12.000000000000002 14.999999999999998 9.9999999999999982 19 14.999999999999998 20 9.9999999999999982 9.9999999999999982 20 13.999999999999998 11.999999999999998 13.000000000000002 18 11.000000000000002 9.9999999999999982
leaf_count=15 15 10 13 155 14 10 44 13 14 30 74 24 12 15 10 19 15 20 10 10 20 14 12 13 18 11 10
internal_value=1.125e-07 0.0238727 -0.0143426 -0.0293756 0.183477 -0.0680141 -0.050104 0.0855154 -0.100295 -0.0277048 -0.252683 0.208678 0.156122 0.0710978 -0.107936 -0.424286 0.241964 0.116524 0.34683 -0.400967 -0.168107 0.318493 -0.0398571 0.225724 0.292648 0.110341 0.417983
internal_weight=640 606 489 476 117 394 374 101 273 185 88 68 82 62 36 34 103 47 56 20 33 26 32 41 31 26 20
internal_count=640 606 489 476 117 394 374 101 273 185 88 68 82 62 36 34 103 47 56 20 33 26 32 41 31 26 20
is_linear=0
shrinkage=0.02


Tree=3
num_leaves=29
num_cat=0
split_feature=11 0 11 1 1 11 0 0 0 1 3 1 2 1 5 5 1 1 5 11 1 5 1 1 8 1 2 0
split_gain=15572.3 8879.66 9651.18 8197.96 7068.91 5639.11 6116.83 7592.67 7395.21 6563.78 4984.26 4425.86 4382.58 6615.17 10676.6 3567.76 3246.3 5873.38 5301.17 3066.8 2924.72 1630.77 1614.92 1459.28 1374.74 3138.84 788.149 603.349
threshold=1.3572781837733903 -1.0829304544408429 1.3526356096877157 -1.0532099263418337 1.8392086013527507 1.3420326613999818 0.79510244058658242 1.1828253608503092 0.65489906316978841 -0.2010723966151414 0.56857766640835761 1.4355573937468 -0.029652357430586387 -1.10869827967612 -0.10620189476108517 -0.74490616965979917 0.83235080449835508 0.43678768576716281 1.3962244212608823 1.347571302926172 0.66949876630744976 1.0000000180025095e-35 1.639939093975036 0.72358052814104645 -1.2505170844809832 1.5178870959384423 -0.025609207888557559 -0.1897830131190445
decision_type=2 2 2 2 2 2 2 2 2 2 2 2 2 2 2 2 2 2 2 2 2 2 2 2 2 2 2 2
left_child=1 4 3 12 16 6 8 10 9 -5 -8 -2 27 21 26 -10 17 -1 -18 -7 -9 -14 -13 -19 25 -20 -15 -3
right_child=11 2 -4 5 -6 19 7 20 15 -11 -12 22 13 14 -16 -17 18 23 24 -21 -22 -23 -24 -25 -26 -27 -28 -29
leaf_value=0.43935328628843195 -0.76784753154114926 0.29442751232940362 0.52148099939331749 -0.021700769278981787 -0.24053616922797885 -0.63908155757601881 0.077665816175153723 -0.39706869882481699 -0.076528054794462591 -0.3373330096449963 0.43575676502528532 -0.11415269494966694 0.13926674267477238 0.20196377956314593 -0.65774051213028406 -0.53614806333424359 0.66070597339150128 -0.14344036357912848 0.52250680661383475 -0.14298341406453957 -0.012503159651115758 0.4582641448704064 -0.44395872141863846 0.13457248380361511 0.016976067949049538 0.11463012472700677 -0.020361018309722069 0.520832033818311
leaf_weight=14.999999999999998 9.9999999999999982 10.000000000000002 12.999999999999998 212 13.999999999999998 10.000000000000002 44 12.999999999999998 10.000000000000002 30 24 13.000000000000002 12.000000000000002 14.999999999999998 9.9999999999999982 21 14.999999999999998 20 12.999999999999998 9.9999999999999982 20 13.999999999999998 10.999999999999998 11.999999999999998 10.000000000000002 18 11.000000000000002 9.9999999999999982
leaf_count=15 10 10 13 212 14 10 44 13 10 30 24 13 12 15 10 21 15 20 13 10 20 14 11 12 10 18 11 10
internal_value=8.88695e-07 0.0233991 -0.0140573 -0.0287919 0.179834 -0.0666635 -0.0491078 0.083807 -0.0982977 -0.060956 0.20452 -0.415853 0.153024 0.0696798 -0.105804 -0.388639 0.23716 0.114213 0.339942 -0.393028 -0.164771 0.312171 -0.26657 -0.0390599 0.221243 0.286837 0.108147 0.409708
internal_weight=640 606 489 476 117 394 374 101 273 242 68 34 82 62 36 31 103 47 56 20 33 26 24 32 41 31 26 20
internal_count=640 606 489 476 117 394 374 101 273 242 68 34 82 62 36 31 103 47 56 20 33 26 24 32 41 31 26 20
is_linear=0
shrinkage=0.02


Tree=4
num_leaves=29
num_cat=0
split_feature=11 0 11 3 3 11 8 3 5 0 3 0 3 3 2 3 5 0 0 0 11 8 5 0 3 2 0 3
split_gain=14961.4 8530.46 9271.83 7875.66 6478.4 5418.17 5990.61 9062.03 8167.98 5553.63 4316.77 4289.46 4270.15 5642.2 4210.99 6355.48 10257.7 3910.68 3707.2 3691.89 2946.51 2914.47 1566.59 1401.88 1117.57 757.16 579.651 383.797
threshold=1.3572781837733903 -1.0829304544408429 1.3526356096877157 -1.2918711849690856 1.0165334732133358 1.3420326613999818 0.88870673214934437 -0.88086802386121987 0.86137450000418869 0.50604115628282198 -1.140946852517726 1.5238138219751043 0.83538804906743758 0.7034862324695097 -0.029652357430586387 -2.2641636773559273 -0.10620189476108517 -1.3962244212610864 -0.35768088484039035 -0.93580345344791105 1.347571302926172 -1.4122685131484709 1.0000000180025095e-35 -1.2837155381488441 1.0595097267602138 -0.025609207888557559 -0.1897830131190445 0.93943635527535629
decision_type=2 2 2 2 2 2 2 2 2 2 2 2 2 2 2 2 2 2 2 2 2 2 2 2 2 2 2 2
left_child=1 4 3 14 12 6 8 10 9 -5 -8 -2 13 -1 26 22 25 21 -9 -10 -7 -14 -16 -15 -6 -17 -3 -23
right_child=11 2 -4 5 24 20 7 18 19 -11 -12 -13 17 23 15 16 -18 -19 -20 -21 -22 27 -24 -25 -26 -27 -28 -29
leaf_value=0.43062441137452789 -0.65957739378442826 0.28859726310956585 0.51113095767625416 0.15415589330861795 0.010191282839388457 -0.62642650028266511 -0.25080393148652202 -0.17205095154145802 -0.13556827383687295 -0.038248045020312892 0.18977692093591966 -0.20623369336752365 0.48931569609023245 0.13190326209895872 0.1365044226528199 0.19795124556055133 -0.6447159515985168 0.64757937147127875 -0.54657176889222248 -0.55093468120079914 -0.14015206643850497 0.016639917109272255 0.44916384703724099 -0.14058583024129342 -0.27408443433744412 -0.019957485198974605 0.51051855030626359 0.19173207745693699
leaf_weight=14.999999999999998 14.999999999999998 10.000000000000002 12.999999999999998 97 11.000000000000002 10.000000000000002 13.999999999999998 18 25 157 24 19 12.999999999999995 11.999999999999995 12.000000000000002 14.999999999999998 9.9999999999999982 14.999999999999998 26 12.999999999999998 9.9999999999999982 10.000000000000005 13.999999999999998 20.000000000000004 10.999999999999998 11.000000000000002 9.9999999999999982 9.9999999999999982
leaf_count=15 15 10 13 97 11 10 14 18 25 157 24 19 13 12 12 15 10 15 26 13 10 10 14 20 11 11 10 10
internal_value=7.69322e-07 0.0229354 -0.013777 -0.0282192 0.176264 -0.0653388 -0.0481304 -0.199066 -0.00568723 0.0352569 0.0271992 -0.407615 0.247841 0.111947 0.149986 0.0682902 -0.103715 0.380375 -0.394119 -0.278767 -0.385246 0.257299 0.305974 -0.0382787 -0.132498 0.105998 0.401596 0.104754
internal_weight=640 606 489 476 117 394 374 82 292 254 38 34 95 47 82 62 36 48 44 38 20 33 26 32 22 26 20 20
internal_count=640 606 489 476 117 394 374 82 292 254 38 34 95 47 82 62 36 48 44 38 20 33 26 32 22 26 20 20
is_linear=0
shrinkage=0.02


Tree=5
num_leaves=29
num_cat=0
split_feature=11 0 11 1 1 11 0 0 0 1 3 1 2 1 5 1 1 5 11 1 1 0 5 0 8 1 2 0
split_gain=14372.6 8195.22 8907.47 7566.22 6538.55 5205.81 5859.76 8216.43 7042.05 6164.8 5048.64 4131.27 4046.12 6105.98 9855.27 2999.01 5420.12 4888.4 2830.93 2809.87 1586.19 1524.04 1504.92 1346.73 1270.73 3021.29 727.39 556.883
threshold=1.3572781837733903 -1.0829304544408429 1.3526356096877157 -1.0532099263418337 1.8392086013527507 1.3420326613999818 0.776062475752203 0.65489906316978841 1.1828253608503092 -0.2010723966151414 0.56857766640835761 1.4355573937468 -0.029652357430586387 -1.10869827967612 -0.10620189476108517 0.83235080449835508 0.43678768576716281 1.3962244212608823 1.347571302926172 0.66949876630744976 1.639939093975036 0.72759711071923716 1.0000000180025095e-35 -1.2837155381488441 -1.2505170844809832 1.5178870959384423 -0.025609207888557559 -0.1897830131190445
decision_type=2 2 2 2 2 2 2 2 2 2 2 2 2 2 2 2 2 2 2 2 2 2 2 2 2 2 2 2
left_child=1 4 3 12 15 6 7 9 10 -5 -8 -2 27 22 26 16 -1 -17 -7 -10 -13 -9 -14 -18 25 -19 -15 -3
right_child=11 2 -4 5 -6 18 8 21 19 -11 -12 20 13 14 -16 17 23 24 -20 -21 -22 -23 -24 -25 -26 -27 -28 -29
leaf_value=0.42206893592480788 -0.73958169177027033 0.28288246796862904 0.50098639801258349 -0.020637532811241296 -0.23152646639668348 -0.61402201170968518 0.071571469742274837 -0.52999193939714784 -0.38842882083572505 -0.32652642541549526 0.42783958245115167 -0.10433325287039952 0.13379690343683412 0.19401843809923588 -0.63194931181350555 0.63471354452979489 0.12928700931801287 0.50696806900373848 -0.13737677951850516 -0.011493193403405336 -0.431072027962487 -0.21873680190284656 0.44024429821798988 -0.13778809716452409 0.016310416849532924 0.10685329142196402 -0.019561921712514509 0.50040924374419871
leaf_weight=14.999999999999998 9.9999999999999982 10.000000000000002 12.999999999999998 212 13.999999999999998 10.000000000000002 47 18.000000000000004 12.999999999999998 30 24 13.000000000000002 12.000000000000002 14.999999999999998 9.9999999999999982 14.999999999999998 11.999999999999995 12.999999999999998 9.9999999999999982 20 10.999999999999998 9.9999999999999982 13.999999999999998 20.000000000000004 10.000000000000002 18 11.000000000000002 9.9999999999999982
leaf_count=15 10 10 13 212 14 10 47 18 13 30 24 13 12 15 10 15 12 13 10 20 11 10 14 20 10 18 11 10
internal_value=5.99289e-07 0.0224795 -0.0135043 -0.0276599 0.172765 -0.0640431 -0.0471752 -0.0963005 0.080322 -0.058681 0.192447 -0.399514 0.14701 0.0669282 -0.101666 0.227898 0.109726 0.326689 -0.377618 -0.160738 -0.255297 -0.420039 0.2999 -0.037513 0.212702 0.275766 0.10389 0.393644
internal_weight=640 606 489 476 117 394 374 270 104 242 71 34 82 62 36 103 47 56 20 33 24 28 26 32 41 31 26 20
internal_count=640 606 489 476 117 394 374 270 104 242 71 34 82 62 36 103 47 56 20 33 24 28 26 32 41 31 26 20
is_linear=0
shrinkage=0.02


Tree=6
num_leaves=28
num_cat=0
split_feature=11 0 11 1 1 11 8 1 0 1 1 0 2 1 11 0 0 1 1 0 11 0 1 8 1 2 0
split_gain=13808.8 7872.99 8557.38 7268.81 6281.48 5001.82 5795.29 8704.46 7589.52 4689.83 4146.84 4035.76 3887.71 5866.28 9468.63 3560.86 3255.31 2881 5206.79 4695.98 2719.89 1445.69 1293.75 1220.74 2902.59 698.791 535.008
threshold=1.3572781837733903 -1.0829304544408429 1.3526356096877157 -1.0532099263418337 1.8392086013527507 1.3420326613999818 0.88870673214934437 -0.98450664711021108 -0.89772352377915221 -0.84483282869792486 -1.0328122635174446 1.5238138219751043 -0.029652357430586387 -1.10869827967612 0.15391752757232507 -0.35768088484039035 -0.94618888881211805 0.83235080449835508 0.43678768576716281 -1.3962244212610864 1.347571302926172 1.0000000180025095e-35 0.72358052814104645 -1.2505170844809832 1.5178870959384423 -0.025609207888557559 -0.1897830131190445
decision_type=2 2 2 2 2 2 2 2 2 2 2 2 2 2 2 2 2 2 2 2 2 2 2 2 2 2 2
left_child=1 4 3 12 17 6 8 10 16 -10 -8 -2 26 21 -15 -9 -5 18 -1 23 -7 -14 -20 24 -19 -16 -3
right_child=11 2 -4 5 -6 20 7 15 9 -11 -12 -13 13 14 25 -17 -18 19 22 -21 -22 -23 -24 -25 -26 -27 -28
leaf_value=0.41368346965865582 -0.63598646542883874 0.27728083336707376 0.49104315226314632 -0.15698022724892852 -0.226928753819026 -0.60186316886750757 -0.24541359515900307 -0.16821844796449437 0.36134176574138382 0.0089476474724415143 0.18640817048638686 -0.19629138047782538 0.43150184198474195 -0.61943545426472579 0.19016378345868443 -0.53527104686503213 -0.59519753824366195 0.49690613156966579 -0.13504605406033457 0.62210332125227974 -0.13465646790986016 0.13114308317830742 0.12672262912939405 0.015987436511729018 0.10472803756018369 -0.019174210144592831 0.49050014835773126
leaf_weight=14.999999999999998 14.999999999999998 10.000000000000002 12.999999999999998 21.000000000000004 13.999999999999998 10.000000000000002 13.999999999999998 18 15.999999999999998 245 24 19 14.000000000000002 9.9999999999999982 14.999999999999998 26 9.9999999999999982 12.999999999999998 20 14.999999999999998 9.9999999999999982 11.999999999999998 11.999999999999998 10.000000000000002 18 11.000000000000002 9.9999999999999982
leaf_count=15 15 10 13 21 14 10 14 18 16 245 24 19 14 10 15 26 10 13 20 15 10 12 12 10 18 11 10
internal_value=0 0.0220336 -0.0132357 -0.0271104 0.169335 -0.0627713 -0.0462372 -0.194692 -0.00449198 0.0306843 0.0270631 -0.3916 0.144092 0.0655934 -0.0996581 -0.385858 -0.299832 0.223374 0.107549 0.320201 -0.370142 0.293947 -0.0367627 0.20848 0.270291 0.101825 0.38585
internal_weight=640 606 489 476 117 394 374 82 292 261 38 34 82 62 36 44 31 103 47 56 20 26 32 41 31 26 20
internal_count=640 606 489 476 117 394 374 82 292 261 38 34 82 62 36 44 31 103 47 56 20 26 32 41 31 26 20
is_linear=0
shrinkage=0.02


Tree=7
num_leaves=29
num_cat=0
split_feature=11 0 11 1 1 11 8 1 5 0 1 0 2 1 5 0 0 1 1 5 11 5 0 1 0 2 0 1
split_gain=13265.4 7563.49 8221.08 6983.15 6034.53 4805.81 5566.76 8360.97 7334.5 5263.76 3983.57 3877.05 3735.49 5635.99 9097.16 3599.81 3420.24 2767.63 5001.85 4511.13 2613.2 1388.78 1242.85 1207.32 2174.86 671.316 513.992 290.589
threshold=1.3572781837733903 -1.0829304544408429 1.3526356096877157 -1.0532099263418337 1.8392086013527507 1.3420326613999818 0.88870673214934437 -0.98450664711021108 0.86137450000418869 0.50604115628282198 -1.0328122635174446 1.5238138219751043 -0.029652357430586387 -1.10869827967612 -0.10620189476108517 -0.93580345344791105 -0.35768088484039035 0.83235080449835508 0.43678768576716281 1.3962244212608823 1.347571302926172 1.0000000180025095e-35 -1.2837155381488441 1.3948750910669772 -1.567584104770501 -0.025609207888557559 -0.1897830131190445 1.2502993968165381
decision_type=2 2 2 2 2 2 2 2 2 2 2 2 2 2 2 2 2 2 2 2 2 2 2 2 2 2 2 2
left_child=1 4 3 12 17 6 8 10 9 -5 -8 -2 26 21 25 -10 -9 18 -1 -19 -7 -14 -20 27 -25 -15 -3 -21
right_child=11 2 -4 5 -6 20 7 16 15 -11 -12 -13 13 14 -16 -17 -18 19 22 23 -22 -23 -24 24 -26 -27 -28 -29
leaf_value=0.40546459197998047 -0.62335097483451796 0.27179012241930056 0.48129725867555345 0.15014816621059493 -0.2224223680699125 -0.58994507780169481 -0.24054014828188197 -0.16487267762916522 -0.12183938535561124 -0.03716711000395307 0.18269546730389732 -0.19238610512299062 0.12854188682619203 0.18638568739227901 -0.60716940096109218 -0.53189888757603765 -0.52460663543350394 0.60974368821706204 0.12420913091375813 0.015670846381990032 -0.13198997752501235 0.42293302955356893 -0.13235855044417116 0.094878107391961744 0.50283857435793478 -0.018794158901180226 0.48078729648401242 0.16805669897853739
leaf_weight=14.999999999999998 14.999999999999998 10.000000000000002 12.999999999999998 97 13.999999999999998 10.000000000000002 13.999999999999998 18 25 157 24 19 12.000000000000002 14.999999999999998 9.9999999999999982 12.999999999999998 26 14.999999999999998 11.999999999999995 10.000000000000002 9.9999999999999982 13.999999999999998 20.000000000000004 9.9999999999999982 11.000000000000002 11.000000000000002 9.9999999999999982 9.9999999999999982
leaf_count=15 15 10 13 97 14 10 14 18 25 157 24 19 12 15 10 13 26 15 12 10 10 14 20 10 11 11 10 10
internal_value=2.53796e-07 0.021596 -0.012973 -0.0265724 0.165973 -0.0615256 -0.0453186 -0.190817 -0.00440469 0.0343937 0.0265182 -0.383817 0.141232 0.0642852 -0.0976898 -0.263177 -0.378173 0.218939 0.105415 0.313842 -0.362813 0.288112 -0.0360273 0.204341 0.309989 0.0998011 0.378211 0.0923706
internal_weight=640 606 489 476 117 394 374 82 292 254 38 34 82 62 36 38 44 103 47 56 20 26 32 41 21 26 20 20
internal_count=640 606 489 476 117 394 374 82 292 254 38 34 82 62 36 38 44 103 47 56 20 26 32 41 21 26 20 20
is_linear=0
shrinkage=0.02


Tree=8
num_leaves=29
num_cat=0
split_feature=11 0 11 1 1 11 0 0 0 1 0 1 2 1 11 8 1 1 0 11 1 0 0 8 0 2 0 1
split_gain=12743.4 7266.48 7898.01 6708.78 5797.38 4617.44 5520.65 7055 6928.43 5608.21 5542.68 3746.17 3589.24 5414.74 8740.25 3320.83 2658.9 4804.98 4333.35 2510.7 1590.1 1334.11 1193.96 1159.9 2089.46 644.922 493.801 279.185
threshold=1.3572781837733903 -1.0829304544408429 1.3526356096877157 -1.0532099263418337 1.8392086013527507 1.3420326613999818 0.79510244058658242 0.90588041780479001 0.65489906316978841 -0.2010723966151414 0.98896390071844575 1.4355573937468 -0.029652357430586387 -1.10869827967612 0.15391752757232507 0.49556137538443451 0.83235080449835508 0.43678768576716281 -1.3962244212610864 1.347571302926172 1.639939093975036 1.0000000180025095e-35 -1.2837155381488441 -1.4122685131484709 -1.567584104770501 -0.025609207888557559 -0.1897830131190445 1.2502993968165381
decision_type=2 2 2 2 2 2 2 2 2 2 2 2 2 2 2 2 2 2 2 2 2 2 2 2 2 2 2 2
left_child=1 4 3 12 16 6 8 -8 9 -5 -9 -2 26 21 -15 -10 17 -1 23 -7 -13 -14 -19 24 -18 -16 -3 -25
right_child=11 2 -4 5 -6 19 7 10 15 -11 -12 20 13 14 25 -17 18 22 -20 -21 -22 -23 -24 27 -26 -27 -28 -29
leaf_value=0.39740900987031447 -0.69999911752077615 0.26640814379890354 0.47174478643723111 -0.018723797386179325 -0.21800549682995951 -0.57826297533394067 0.48056961615354021 -0.27901327996704706 -0.071089629749260308 -0.3104768310353605 0.10025252161877239 -0.087902035531196868 0.41453433909314735 -0.59514624000775929 0.18268265338922965 -0.51448833339022237 0.092999335940521552 0.12174547223020195 0.59762954610862484 -0.12937633108384539 -0.41482476019644521 0.12599231026389382 -0.12972455322445917 0.015360533742621384 0.49287241205438842 -0.018421696671494486 0.47126675256408085 0.1647288510350898
leaf_weight=14.999999999999998 9.9999999999999982 10.000000000000002 12.999999999999998 212 13.999999999999998 10.000000000000002 14.999999999999998 20 10.000000000000002 30 66 13.000000000000002 14.000000000000002 9.9999999999999982 14.999999999999998 21 9.9999999999999982 11.999999999999995 14.999999999999998 9.9999999999999982 10.999999999999998 11.999999999999998 20.000000000000004 10.000000000000005 10.999999999999998 11.000000000000002 9.9999999999999982 9.9999999999999982
leaf_count=15 10 10 13 212 14 10 15 20 10 30 66 13 14 10 15 21 10 12 15 10 11 12 20 10 11 11 10 10
internal_value=5.20188e-07 0.0211671 -0.0127163 -0.0260458 0.162681 -0.0603055 -0.0444193 0.0818509 -0.0911512 -0.055009 0.0118179 -0.37619 0.138429 0.0630031 -0.0957604 -0.372177 0.214596 0.103323 0.307617 -0.35563 -0.238883 0.282392 -0.0353066 0.200294 0.303847 0.0978171 0.370722 0.0905424
internal_weight=640 606 489 476 117 394 374 101 273 242 86 34 82 62 36 31 103 47 56 20 24 26 32 41 21 26 20 20
internal_count=640 606 489 476 117 394 374 101 273 242 86 34 82 62 36 31 103 47 56 20 24 26 32 41 21 26 20 20
is_linear=0
shrinkage=0.02


Tree=9
num_leaves=30
num_cat=0
split_feature=11 0 11 1 1 0 0 1 0 0 2 1 5 10 1 1 5 0 5 1 8 0 11 1 11 1 2 0 1
split_gain=12243.6 6980.91 7587.55 6444.97 5569.55 4536.68 13762.2 7978.66 10180.5 3649.12 3448.72 5202.18 8397.35 3124.77 2554.45 4615.85 4162.58 1304.64 1281.6 1146.99 1114.35 2007.41 1109.48 2699.26 2412.21 1318.54 619.565 474.402 268.229
threshold=1.3572781837733903 -1.0829304544408429 1.3526356096877157 -1.0532099263418337 1.8392086013527507 1.1828253608503092 0.98896390071844575 -0.10805253226420045 0.79510244058658242 1.5238138219751043 -0.029652357430586387 -1.10869827967612 -0.10620189476108517 1.0000000180025095e-35 0.83235080449835508 0.43678768576716281 1.3962244212608823 1.0962800661485845 1.0000000180025095e-35 0.72358052814104645 -1.4122685131484709 -1.567584104770501 1.3420326613999818 0.66949876630744976 1.347571302926172 0.92184722264249175 -0.025609207888557559 -0.1897830131190445 1.2502993968165381
decision_type=2 2 2 2 2 2 2 2 2 2 2 2 2 2 2 2 2 2 2 2 2 2 2 2 2 2 2 2 2
left_child=1 4 3 10 14 6 7 8 -5 -2 27 18 26 -9 15 -1 -16 -8 -12 -17 21 -18 23 -7 -24 -25 -13 -3 -22
right_child=9 2 -4 5 -6 22 17 13 -10 -11 11 12 -14 -15 16 19 20 -19 -20 -21 28 -23 24 25 -26 -27 -28 -29 -30
leaf_value=0.38951345052150699 -0.60111288639093863 0.26113271326121706 0.46238192904086511 -0.076450279344674535 -0.21367629429972762 -0.38214920888420284 0.22327542565624164 -0.15691385880681391 0.37088251519526827 -0.1830441072473975 0.12349329735621931 0.17905318683346377 -0.58336116715232922 -0.57553423437272533 0.585756126555386 -0.12714298241174044 0.091157760620117184 0.47731036046792186 0.40630247400162073 0.1193306941828452 0.015056354834301627 0.48310378255070868 -0.56681223047841878 0.14889913799739116 -0.12681443256906946 -0.17426833860944996 -0.018056541649070938 0.46193473589302286 0.16146688687919392
leaf_weight=14.999999999999998 14.999999999999998 10.000000000000002 12.999999999999998 257 13.999999999999998 12.999999999999998 15.999999999999998 13.000000000000002 22 19 12.000000000000002 14.999999999999998 9.9999999999999982 15.999999999999998 14.999999999999998 20 9.9999999999999982 17 13.999999999999998 11.999999999999998 10.000000000000005 10.999999999999998 10.000000000000002 10.000000000000002 9.9999999999999982 9.9999999999999982 11.000000000000002 9.9999999999999982 9.9999999999999982
leaf_count=15 15 10 13 257 14 13 16 13 22 19 12 15 10 16 15 20 10 17 14 12 10 11 10 10 10 10 11 10 10
internal_value=1.53742e-06 0.0207489 -0.012462 -0.0255269 0.159454 -0.0591063 -0.0323154 -0.073942 -0.0410529 -0.368737 0.135681 0.0617466 -0.093869 -0.389095 0.210339 0.101273 0.301514 0.355219 0.276787 -0.0346004 0.196327 0.297827 -0.231074 -0.158984 -0.348589 -0.012698 0.0958726 0.363382 0.0887505
internal_weight=640 606 489 476 117 394 341 308 279 34 82 62 36 29 103 47 56 33 26 32 41 21 53 33 20 20 26 20 20
internal_count=640 606 489 476 117 394 341 308 279 34 82 62 36 29 103 47 56 33 26 32 41 21 53 33 20 20 26 20 20
is_linear=0
shrinkage=0.02


Tree=10
num_leaves=41
num_cat=0
split_feature=11 0 1 0 11 0 0 0 0 0 8 1 1 0 1 1 0 8 1 8 1 0 1 8 0 1 1 8 8 0 1 1 8 5 11 1 11 2 8 1
split_gain=11762 6713.5 9523.66 8759.67 7547.34 7755.14 11889.9 3505.61 3346.44 5836.94 7431.48 6671.75 3781.86 3145.72 7944.66 5347.3 5434.11 4716.09 4426.56 4940.81 3877.59 7412.83 6644.27 3226.61 2894.2 2040.56 1753.66 1677.88 1519.35 1314.6 2970.15 1297.18 1253.22 1231.15 1066.04 2593.16 2317.59 1016.1 818.78 172.869
threshold=1.3572781837733903 0.1875544717804751 -0.37157186343787163 0.90588041780479001 1.3526356096877157 1.1828253608503092 0.98896390071844575 1.5238138219751043 0.65489906316978841 0.45238307356775265 0.82572487575311027 -0.98450664711021108 -1.0412791399651626 -1.318333656029534 1.5178870959384423 -1.0275143692144246 -0.44249527364808056 1.0786110164873755 -1.10869827967612 1.0988650575784662 -0.30069131707523605 -0.93580345344791105 -0.37157186343787163 1.068494281003195 0.74490616965958212 -0.94052669383376764 1.9364083546545148 -0.19326021872693619 0.69725096412932752 -1.3962244212610864 1.2502993968165381 -0.85048260034320078 -0.23263280948989401 1.0000000180025095e-35 1.3420326613999818 0.66949876630744976 1.347571302926172 0.0037242880984233941 0.98630085549045088 1.639939093975036
decision_type=2 2 2 2 2 2 2 2 2 2 2 2 2 2 2 2 2 2 2 2 2 2 2 2 2 2 2 2 2 2 2 2 2 2 2 2 2 2 2 2
left_child=1 13 8 -4 5 6 -5 -2 9 11 28 12 -3 14 29 17 20 23 33 -20 22 27 31 -15 -10 38 39 -22 -11 30 -1 -17 -8 -19 35 -7 -36 -13 -18 -16
right_child=7 2 3 4 -6 34 32 -9 24 10 -12 37 -14 15 26 16 25 18 19 -21 21 -23 -24 -25 -26 -27 -28 -29 -30 -31 -32 -33 -34 -35 36 -37 -38 -39 -40 -41
leaf_value=0.014758213345367126 -0.58917024508217308 -0.26249667661409848 0.52750186811947652 -0.26859933483066839 0.45320488038863843 -0.37456457007022304 0.46781998232791305 -0.17940238715466403 -0.50272556069902896 0.073669090270996079 0.53214661853148204 -0.61318682805866198 0.2194984998781819 0.20709010262861313 0.1237218907800051 0.26452744836205833 -0.010646508849493341 0.12104383295232596 0.12477922934853566 -0.39732883579474837 0.095158750540545192 -0.482341212177953 0.60836584865456755 0.6660555290961051 -0.10136111525801926 -0.48911383638287531 -0.24660140578811232 -0.10967809029309397 -0.24797761158343959 0.50541627072497619 0.47272482493451534 0.031481796842925631 0.21883763876020532 0.39823404298606491 -0.55558824388107431 -0.012445515257802173 -0.12430323884038642 -0.34206976409005646 -0.26616587629412658 0.0089311852326264263
leaf_weight=10.000000000000002 14.999999999999998 14.000000000000002 13.999999999999998 20 12.999999999999998 12.999999999999998 16.999999999999996 19 21 10.000000000000002 9.9999999999999982 14.000000000000002 11.999999999999998 14.000000000000002 10.000000000000002 10.999999999999998 10.000000000000005 12.000000000000002 18.000000000000004 11.999999999999998 44 13.999999999999998 9.9999999999999982 10.999999999999998 10.999999999999998 9.9999999999999982 10.999999999999998 25 13.999999999999998 18 12.999999999999998 69 16.000000000000004 13.999999999999998 10.000000000000002 20 9.9999999999999982 9.9999999999999982 9.9999999999999982 10.999999999999998
leaf_count=10 15 14 14 20 13 13 17 19 21 10 10 14 12 14 10 11 10 12 18 12 44 14 10 11 11 10 11 25 14 18 13 69 16 14 10 20 10 10 10 11
internal_value=5.27298e-06 0.0203406 -0.0593513 0.0561463 0.000287912 -0.0556239 0.115333 -0.361409 -0.191718 -0.125135 0.076899 -0.262417 -0.0400104 0.0759279 0.192944 0.0457888 -0.00904551 0.183067 0.0807764 -0.084657 0.0340827 -0.0644697 0.124952 0.410924 -0.365533 -0.257072 -0.0431947 0.0208767 -0.114167 0.376929 0.274578 0.0638283 0.348157 0.271292 -0.226494 -0.155829 -0.341687 -0.502151 -0.139145 0.0639681
internal_weight=640 606 249 133 119 106 53 34 116 84 34 50 26 357 73 284 203 81 56 30 173 83 90 25 32 30 32 69 24 41 23 80 33 26 53 33 20 24 20 21
internal_count=640 606 249 133 119 106 53 34 116 84 34 50 26 357 73 284 203 81 56 30 173 83 90 25 32 30 32 69 24 41 23 80 33 26 53 33 20 24 20 21
is_linear=0
shrinkage=0.02


Tree=11
num_leaves=41
num_cat=0
split_feature=11 0 1 0 11 0 0 1 3 0 8 1 8 1 5 0 1 1 0 8 1 8 1 0 1 8 1 1 8 1 0 1 1 8 5 0 5 2 8 1
split_gain=11299.1 6449.31 9148.52 8415.34 7250.84 7450.58 11421.7 3397.22 3250.39 5227.06 7512.66 6409.72 3633.23 3084.54 3076.3 3021.95 7632.11 5137.29 5221 4531.03 4252.7 4746.63 3725.35 7121.24 6383.85 3100.05 1960.51 1684.86 1611.65 1590.5 1262.64 2853.39 1246.32 1203.83 1182.69 1041.95 2030.52 975.946 786.66 166.085
threshold=1.3572781837733903 0.1875544717804751 -0.37157186343787163 0.90588041780479001 1.3526356096877157 1.1828253608503092 0.98896390071844575 1.4355573937468 -0.047750674359438444 0.45238307356775265 0.82572487575311027 -0.98450664711021108 1.0434915210670537 -0.6726695586345236 -0.74490616965979917 -1.318333656029534 1.5178870959384423 -1.0275143692144246 -0.44249527364808056 1.0786110164873755 -1.10869827967612 1.0988650575784662 -0.30069131707523605 -0.93580345344791105 -0.37157186343787163 1.068494281003195 -0.94052669383376764 1.9364083546545148 -0.19326021872693619 1.639939093975036 -1.3962244212610864 1.2502993968165381 -0.85048260034320078 -0.23263280948989401 1.0000000180025095e-35 1.7055589408487262 -1.388803162240634 0.0037242880984233941 0.98630085549045088 1.639939093975036
decision_type=2 2 2 2 2 2 2 2 2 2 2 2 2 2 2 2 2 2 2 2 2 2 2 2 2 2 2 2 2 2 2 2 2 2 2 2 2 2 2 2
left_child=1 15 8 -4 5 6 -5 -2 9 11 13 12 -3 -11 -10 16 30 19 22 25 34 -22 24 28 32 -17 38 39 -24 -9 31 -1 -19 -8 -21 36 -7 -13 -20 -18
right_child=7 2 3 4 -6 35 33 29 14 10 -12 37 -14 -15 -16 17 27 18 26 20 21 -23 23 -25 -26 -27 -28 -29 -30 -31 -32 -33 -34 -35 -36 -37 -38 -39 -40 -41
leaf_value=0.014465967168902402 -0.66256779458263138 0.21514479692317232 0.51702665836253059 -0.2632540643037255 0.44420995962073784 -0.49996330836871739 0.45851829060337002 -0.072644461857453546 -0.09935214274638407 -0.29234766802432371 0.52160904940992292 -0.60101006954274261 -0.2572839753171231 0.15373530850552092 -0.52041993385834218 0.20297767618869209 0.12127194961698927 0.25928457913098035 -0.010435681673559806 0.11864297283582449 0.12229741575968196 -0.38944791793823241 0.093259887933190427 -0.47276281246902252 0.59631900447429997 0.65285444052369745 -0.47942839745247717 -0.24171382233903213 -0.10749327049787299 -0.39941937678569067 0.49536380578141187 0.46334249875017708 0.030853062190126238 0.21448807443891243 0.39032584143023114 -0.048088603320422474 -0.18338054794973879 -0.33529610813254174 -0.26089525071701203 0.0087541695328446131
leaf_weight=10.000000000000002 9.9999999999999982 12.000000000000002 13.999999999999998 20 12.999999999999998 10.999999999999995 16.999999999999996 13.000000000000002 11.000000000000002 15.999999999999998 9.9999999999999982 14.000000000000002 13.999999999999998 10.000000000000002 19 14.000000000000002 10.000000000000002 10.999999999999998 10.000000000000005 12.000000000000002 18.000000000000004 11.999999999999998 44 13.999999999999998 9.9999999999999982 10.999999999999998 9.9999999999999982 10.999999999999998 25 10.999999999999998 18 12.999999999999998 69 16.000000000000004 13.999999999999998 10.999999999999998 31.000000000000004 9.9999999999999982 9.9999999999999982 10.999999999999998
leaf_count=10 10 12 14 20 13 11 17 13 11 16 10 14 14 10 19 14 10 11 10 12 18 12 44 14 10 11 10 11 25 11 18 13 69 16 14 11 31 10 10 11
internal_value=5.03894e-06 0.0199362 -0.0581718 0.055028 0.000278365 -0.054524 0.113042 -0.354227 -0.187906 -0.125099 0.0585646 -0.257209 -0.0392127 -0.120807 -0.366905 0.0744188 0.18911 0.0448785 -0.00886813 0.179434 0.07917 -0.0829813 0.0334058 -0.0631922 0.122473 0.402776 -0.251982 -0.0423366 0.0204585 -0.223494 0.36944 0.26913 0.0625594 0.341236 0.265907 -0.222006 -0.267309 -0.492188 -0.13639 0.0627023
internal_weight=640 606 249 133 119 106 53 34 116 86 36 50 26 26 30 357 73 284 203 81 56 30 173 83 90 25 30 32 69 24 41 23 80 33 26 53 42 24 20 21
internal_count=640 606 249 133 119 106 53 34 116 86 36 50 26 26 30 357 73 284 203 81 56 30 173 83 90 25 30 32 69 24 41 23 80 33 26 53 42 24 20 21
is_linear=0
shrinkage=0.02


Tree=12
num_leaves=39
num_cat=0
split_feature=11 0 1 0 11 0 0 0 3 0 8 1 1 1 5 0 1 1 0 8 1 1 1 0 1 8 1 1 8 5 1 8 5 0 5 2 8 1
split_gain=10855.9 6195.27 8788.52 8084.37 6965.82 7157.45 10971.9 3300.81 3122.39 5022.05 7217.76 6157.98 3490.45 2963.31 2954.96 2903.06 7331.86 4935.53 5016.26 4353.23 4085.65 4560.09 3579.08 6841.13 6133.63 2978.45 1883.6 1618.76 1548.03 1232.17 1197.45 1156.39 1136.13 1000.89 1951.08 937.376 755.801 159.567
threshold=1.3572781837733903 0.1875544717804751 -0.37157186343787163 0.90588041780479001 1.3526356096877157 1.1828253608503092 0.98896390071844575 1.5238138219751043 -0.047750674359438444 0.45238307356775265 0.82572487575311027 -0.98450664711021108 -1.0412791399651626 -0.6726695586345236 -0.74490616965979917 -1.318333656029534 1.5178870959384423 -1.0275143692144246 -0.44249527364808056 1.0786110164873755 -1.10869827967612 -1.0981487599783752 -0.30069131707523605 -0.93580345344791105 -0.37157186343787163 1.068494281003195 -0.94052669383376764 1.9364083546545148 -0.19326021872693619 1.4291116332475156 -0.85048260034320078 -0.23263280948989401 1.0000000180025095e-35 1.7055589408487262 -1.388803162240634 0.0037242880984233941 0.98630085549045088 1.639939093975036
decision_type=2 2 2 2 2 2 2 2 2 2 2 2 2 2 2 2 2 2 2 2 2 2 2 2 2 2 2 2 2 2 2 2 2 2 2 2 2 2
left_child=1 15 8 -4 5 6 -5 -2 9 11 13 12 -3 -11 -10 16 29 19 22 25 32 -22 24 28 30 -17 36 37 -24 -1 -19 -8 -21 34 -7 -13 -20 -18
right_child=7 2 3 4 -6 33 31 -9 14 10 -12 35 -14 -15 -16 17 27 18 26 20 21 -23 23 -25 -26 -27 -28 -29 -30 -31 -32 -33 -34 -35 -36 -37 -38 -39
leaf_value=0.46429032913699952 -0.56820804918443923 -0.25217480517448254 0.50675946932312443 -0.25801519061795508 0.43539358870673722 -0.49005411758079198 0.44940156568560691 -0.1706239300373337 -0.097383002891196835 -0.28653703559259447 0.51128017916537749 -0.58907512123703099 0.21087747558089331 0.15069106866817658 -0.51006603860106137 0.19894690337755996 0.11887052026125462 0.25414559854043495 -0.010229036501138511 0.11628970816115701 -0.38172333291739463 0.11986499407014795 0.091398914410413798 -0.46337461185793499 0.58451068651558147 0.63991498310286721 -0.46993475847905225 -0.23692308580553209 -0.10535196475298754 0.24190932544738208 0.030236908947852179 0.21022497061616879 0.38257471104885665 -0.04713549777194187 -0.17972473466511321 -0.32865657655319369 -0.25572901659672803 0.0085806575122180304
leaf_weight=22 14.999999999999998 14.000000000000002 13.999999999999998 20 12.999999999999998 10.999999999999995 16.999999999999996 19 11.000000000000002 15.999999999999998 9.9999999999999982 14.000000000000002 11.999999999999998 10.000000000000002 19 14.000000000000002 10.000000000000002 10.999999999999998 10.000000000000005 12.000000000000002 12.000000000000002 18 44 13.999999999999998 9.9999999999999982 10.999999999999998 9.9999999999999982 10.999999999999998 25 19 69 16.000000000000004 13.999999999999998 10.999999999999998 31.000000000000004 9.9999999999999982 9.9999999999999982 10.999999999999998
leaf_count=22 15 14 14 20 13 11 17 19 11 16 10 14 12 10 19 14 10 11 10 12 12 18 44 14 10 11 10 11 25 19 69 16 14 11 31 10 10 11
internal_value=4.62008e-06 0.019541 -0.0570132 0.0539369 0.000274521 -0.0534398 0.110796 -0.34721 -0.184169 -0.122611 0.0574145 -0.252105 -0.0384309 -0.118401 -0.359608 0.0729398 0.185353 0.0439864 -0.00869423 0.175873 0.0775956 -0.0813387 0.0327425 -0.0619401 0.120044 0.394789 -0.246994 -0.0414956 0.0200486 0.362099 0.0613157 0.334453 0.260629 -0.217594 -0.261996 -0.482423 -0.13369 0.0614615
internal_weight=640 606 249 133 119 106 53 34 116 86 36 50 26 26 30 357 73 284 203 81 56 30 173 83 90 25 30 32 69 41 80 33 26 53 42 24 20 21
internal_count=640 606 249 133 119 106 53 34 116 86 36 50 26 26 30 357 73 284 203 81 56 30 173 83 90 25 30 32 69 41 80 33 26 53 42 24 20 21
is_linear=0
shrinkage=0.02


Tree=13
num_leaves=39
num_cat=0
split_feature=11 0 1 0 11 0 0 0 0 0 8 1 8 0 1 1 0 8 1 8 1 0 1 8 0 1 1 8 8 5 1 8 5 11 1 11 2 8
split_gain=10428.7 5951.1 8442.68 7766.42 6692 6875.85 10539.8 3171 3000.57 5205.3 6563.27 5916.13 3353.27 2788.55 7042.98 4741.7 4819.54 4182.41 3925.18 4380.88 3438.55 6572.03 5893.22 2861.62 2584.49 1809.7 1558.41 1486.92 1332.73 1183.52 1150.5 1110.81 1091.41 971.646 2484.57 2247.61 900.329 726.151
threshold=1.3572781837733903 0.1875544717804751 -0.37157186343787163 0.90588041780479001 1.3526356096877157 1.1828253608503092 0.98896390071844575 1.5238138219751043 0.65489906316978841 0.45238307356775265 0.82572487575311027 -0.98450664711021108 1.0434915210670537 -1.318333656029534 1.5178870959384423 -1.0275143692144246 -0.44249527364808056 1.0786110164873755 -1.10869827967612 1.0988650575784662 -0.30069131707523605 -0.93580345344791105 -0.37157186343787163 1.068494281003195 0.74490616965958212 -0.94052669383376764 1.8392086013527507 -0.19326021872693619 0.69725096412932752 1.4291116332475156 -0.85048260034320078 -0.23263280948989401 1.0000000180025095e-35 1.3420326613999818 0.66949876630744976 1.347571302926172 0.0037242880984233941 0.98630085549045088
decision_type=2 2 2 2 2 2 2 2 2 2 2 2 2 2 2 2 2 2 2 2 2 2 2 2 2 2 2 2 2 2 2 2 2 2 2 2 2 2
left_child=1 13 8 -4 5 6 -5 -2 9 11 28 12 -3 14 29 17 20 23 32 -20 22 27 30 -15 -10 37 -16 -22 -11 -1 -17 -8 -19 34 -7 -35 -13 -18
right_child=7 2 3 4 -6 33 31 -9 24 10 -12 36 -14 15 26 16 25 18 19 -21 21 -23 -24 -25 -26 -27 -28 -29 -30 -31 -32 -33 -34 35 -36 -37 -38 -39
leaf_value=0.4550465480612414 -0.55691915894186261 0.20669478928747251 0.49669615860526445 -0.2528805397754878 0.42675218411074339 -0.35992378890059379 0.44046609242757162 -0.16722932037882779 -0.47473731126830471 0.069680327613755019 0.50115579132986543 -0.57737716742441147 -0.24716708568816489 0.19499619051074299 0.082236607114254442 0.24910847981770834 -0.010026488351349776 0.11398314357789092 0.11748093157183397 -0.37415195725180889 0.089575092107936086 -0.45417283362953376 0.57293621516463777 0.62723197992857516 -0.095452893231366145 -0.4606291510327028 -0.19822907441051293 -0.10325332615005067 -0.23155765036319165 0.23709646689330094 0.029633037281450423 0.20604657113922301 0.3749774644729939 -0.53384150363431093 -0.0055049821037558176 -0.10932496788478135 -0.32214853305627805 -0.25066506546322664
leaf_weight=22 14.999999999999998 12.000000000000002 13.999999999999998 20 12.999999999999998 12.999999999999998 16.999999999999996 19 21 10.000000000000002 9.9999999999999982 14.000000000000002 13.999999999999998 14.000000000000002 18 10.999999999999998 10.000000000000005 12.000000000000002 18.000000000000004 11.999999999999998 44 13.999999999999998 9.9999999999999982 10.999999999999998 10.999999999999998 9.9999999999999982 13.999999999999998 25 13.999999999999998 19 69 16.000000000000004 13.999999999999998 10.000000000000002 20 9.9999999999999982 9.9999999999999982 9.9999999999999982
leaf_count=22 15 12 14 20 13 13 17 19 21 10 10 14 14 14 18 11 10 12 18 12 44 14 10 11 11 10 14 25 14 19 69 16 14 10 20 10 10 10
internal_value=4.60528e-06 0.0191528 -0.0558776 0.0528674 0.00027071 -0.0523771 0.108596 -0.34031 -0.180506 -0.117459 0.0733279 -0.247101 -0.0376647 0.0714887 0.181662 0.0431119 -0.00852373 0.172383 0.0760525 -0.0797287 0.0320923 -0.0607128 0.117663 0.386961 -0.345093 -0.242104 -0.0406713 0.0196469 -0.106232 0.354892 0.0600967 0.327804 0.255455 -0.21327 -0.14582 -0.323233 -0.472851 -0.131044
internal_weight=640 606 249 133 119 106 53 34 116 84 34 50 26 357 73 284 203 81 56 30 173 83 90 25 32 30 32 69 24 41 80 33 26 53 33 20 24 20
internal_count=640 606 249 133 119 106 53 34 116 84 34 50 26 357 73 284 203 81 56 30 173 83 90 25 32 30 32 69 24 41 80 33 26 53 33 20 24 20
is_linear=0
shrinkage=0.02


Tree=14
num_leaves=40
num_cat=0
split_feature=11 0 1 0 11 0 0 1 3 0 8 1 8 1 5 0 1 1 0 8 1 8 1 0 1 8 1 1 1 8 5 1 8 5 0 5 2 8 1
split_gain=10018.3 5716.78 8110.11 7461.14 6429.11 6605.83 10124.8 3080.98 2892.23 4644.11 6654.16 5683.78 3221.49 2806.2 2733.38 2678.55 6765.52 4555.47 4630.55 4018.29 3771 4208.71 3303.55 6313.51 5662.23 2749.37 1738.71 1587.65 1504.96 1428.23 1136.79 1105.38 1067.03 1048.45 978.333 1839.11 864.745 697.665 149.035
threshold=1.3572781837733903 0.1875544717804751 -0.37157186343787163 0.90588041780479001 1.3526356096877157 1.1828253608503092 0.98896390071844575 1.4355573937468 -0.047750674359438444 0.45238307356775265 0.82572487575311027 -0.98450664711021108 1.0434915210670537 -0.6726695586345236 -0.74490616965979917 -1.318333656029534 1.5178870959384423 -1.0275143692144246 -0.44249527364808056 1.0786110164873755 -1.10869827967612 1.0988650575784662 -0.30069131707523605 -0.93580345344791105 -0.37157186343787163 1.068494281003195 -0.94052669383376764 1.639939093975036 1.9364083546545148 -0.19326021872693619 1.4291116332475156 -0.85048260034320078 -0.23263280948989401 1.0000000180025095e-35 1.7055589408487262 -1.388803162240634 0.0037242880984233941 0.98630085549045088 1.639939093975036
decision_type=2 2 2 2 2 2 2 2 2 2 2 2 2 2 2 2 2 2 2 2 2 2 2 2 2 2 2 2 2 2 2 2 2 2 2 2 2 2 2
left_child=1 15 8 -4 5 6 -5 -2 9 11 13 12 -3 -11 -10 16 30 19 22 25 33 -22 24 29 31 -17 37 -9 38 -24 -1 -19 -8 -21 35 -7 -13 -20 -18
right_child=7 2 3 4 -6 34 32 27 14 10 -12 36 -14 -15 -16 17 28 18 26 20 21 -23 23 -25 -26 -27 -28 -29 -30 -31 -32 -33 -34 -35 -36 -37 -38 -39 -40
leaf_value=0.44598679922554824 -0.6271679041645315 0.20259505453188553 0.48683268391494211 -0.24784812376866885 0.41828228928660616 -0.4743500803182793 0.43170829482943002 -0.05848745273269769 -0.093561037080781922 -0.27698789332964402 0.4912319206011177 -0.56591151852979715 -0.24225877017839581 0.14848338438732786 -0.49047307838320103 0.19112391727190484 0.11488820293162126 0.24417119619008656 -0.0098279286375140135 0.1117223206827463 0.11514429276819385 -0.36673076834560425 0.087787649929523467 -0.44515381123157255 0.56159096368468631 0.61480037405684185 -0.45150773681036316 -0.38480676071063891 -0.22829847456098681 -0.10119648013931822 0.23237937315596335 0.029041241102039216 0.20195124854212215 0.36753110845038228 -0.040584141842953787 -0.17306905701996045 -0.31576934512298882 -0.24570142103893924 0.0082967104353346283
leaf_weight=22 9.9999999999999982 12.000000000000002 13.999999999999998 20 12.999999999999998 10.999999999999995 16.999999999999996 13.000000000000002 11.000000000000002 15.999999999999998 9.9999999999999982 14.000000000000002 13.999999999999998 10.000000000000002 19 14.000000000000002 10.000000000000002 10.999999999999998 10.000000000000005 12.000000000000002 18.000000000000004 11.999999999999998 44 13.999999999999998 9.9999999999999982 10.999999999999998 9.9999999999999982 10.999999999999998 10.999999999999998 25 19 69 16.000000000000004 13.999999999999998 10.999999999999998 31.000000000000004 9.9999999999999982 9.9999999999999982 10.999999999999998
leaf_count=22 10 12 14 20 13 11 17 13 11 16 10 14 14 10 19 14 10 11 10 12 18 12 44 14 10 11 10 11 11 25 19 69 16 14 11 31 10 10 11
internal_value=3.53626e-06 0.0187712 -0.0547672 0.0518144 0.00026163 -0.0513415 0.106438 -0.333547 -0.176917 -0.117671 0.0554465 -0.242197 -0.0369137 -0.113365 -0.345766 0.0700664 0.178045 0.0422549 -0.00835658 0.168962 0.0745401 -0.0781505 0.031455 -0.0595098 0.115329 0.379288 -0.237311 -0.209068 -0.0398644 0.0192533 0.347829 0.058902 0.321288 0.250384 -0.209044 -0.252939 -0.46347 -0.12845 0.0594059
internal_weight=640 606 249 133 119 106 53 34 116 86 36 50 26 26 30 357 73 284 203 81 56 30 173 83 90 25 30 24 32 69 41 80 33 26 53 42 24 20 21
internal_count=640 606 249 133 119 106 53 34 116 86 36 50 26 26 30 357 73 284 203 81 56 30 173 83 90 25 30 24 32 69 41 80 33 26 53 42 24 20 21
is_linear=0
shrinkage=0.02


Tree=15
num_leaves=40
num_cat=0
split_feature=11 0 1 0 11 0 0 0 0 0 8 1 1 0 1 1 0 8 1 8 1 0 1 8 0 1 1 8 8 0 1 1 8 5 0 5 2 8 1
split_gain=9625.23 5491.46 7790.97 7167.7 6176.39 6345.94 9726.07 2986.97 2785.08 4818.51 6045.39 5460.55 3094.89 2572.9 6498.95 4376.57 4448.96 3860.61 3622.88 4043.31 3173.84 6065.17 5440.29 2641.53 2393.83 1670.5 1445.92 1371.85 1222.47 1098.82 2808.29 1062.04 1024.98 1007.17 939.786 1767.15 830.567 670.296 143.185
threshold=1.3572781837733903 0.1875544717804751 -0.37157186343787163 0.90588041780479001 1.3526356096877157 1.1828253608503092 0.98896390071844575 1.5238138219751043 0.65489906316978841 0.45238307356775265 0.82572487575311027 -0.98450664711021108 -1.0412791399651626 -1.318333656029534 1.5178870959384423 -1.0275143692144246 -0.44249527364808056 1.0786110164873755 -1.10869827967612 1.0988650575784662 -0.30069131707523605 -0.93580345344791105 -0.37157186343787163 1.068494281003195 0.74490616965958212 -0.94052669383376764 1.9364083546545148 -0.19326021872693619 0.69725096412932752 -1.3962244212610864 1.2502993968165381 -0.85048260034320078 -0.23263280948989401 1.0000000180025095e-35 1.7055589408487262 -1.388803162240634 0.0037242880984233941 0.98630085549045088 1.639939093975036
decision_type=2 2 2 2 2 2 2 2 2 2 2 2 2 2 2 2 2 2 2 2 2 2 2 2 2 2 2 2 2 2 2 2 2 2 2 2 2 2 2
left_child=1 13 8 -4 5 6 -5 -2 9 11 28 12 -3 14 29 17 20 23 33 -20 22 27 31 -15 -10 37 38 -22 -11 30 -1 -17 -8 -19 35 -7 -13 -18 -16
right_child=7 2 3 4 -6 34 32 -9 24 10 -12 36 -14 15 26 16 25 18 19 -21 21 -23 -24 -25 -26 -27 -28 -29 -30 -31 -32 -33 -34 -35 -36 -37 -38 -39 -40
leaf_value=-0.0048890077477634535 -0.53716033351342407 -0.2374479918784283 0.47716509781830702 -0.24291581794397155 0.40998051141054576 -0.46494854927063001 0.4231246191995186 -0.15897997085336613 -0.45673588560655781 0.067045293373636669 0.48150456343546949 -0.55467356512732524 0.1985766248466555 0.18732854789030462 0.11261319113249822 0.23933176813898857 -0.00963331770188737 0.10950633151472106 0.11285414084545155 -0.35945676232172441 0.086035871725706828 -0.43631387037588348 0.55047034121976046 0.60261512008873186 -0.091706669781659117 -0.44256699193822274 -0.22377359751108533 -0.099180608118672769 -0.22145882897343197 0.45835565725084165 0.44002730875524854 0.028461247246103247 0.19793730827592168 0.36023262368871811 -0.03977977039577725 -0.16961882149674881 -0.3095164973192876 -0.24083605228084151 0.0081322664827913858
leaf_weight=10.000000000000002 14.999999999999998 14.000000000000002 13.999999999999998 20 12.999999999999998 10.999999999999995 16.999999999999996 19 21 10.000000000000002 9.9999999999999982 14.000000000000002 11.999999999999998 14.000000000000002 10.000000000000002 10.999999999999998 10.000000000000005 12.000000000000002 18.000000000000004 11.999999999999998 44 13.999999999999998 9.9999999999999982 10.999999999999998 10.999999999999998 9.9999999999999982 10.999999999999998 25 13.999999999999998 18 12.999999999999998 69 16.000000000000004 13.999999999999998 10.999999999999998 31.000000000000004 9.9999999999999982 9.9999999999999982 10.999999999999998
leaf_count=10 15 14 14 20 13 11 17 19 21 10 10 14 12 14 10 11 10 12 18 12 44 14 10 11 11 10 11 25 14 18 13 69 16 14 11 31 10 10 11
internal_value=2.38925e-06 0.0183982 -0.0536764 0.0507871 0.000258008 -0.0503206 0.104324 -0.32694 -0.173398 -0.112657 0.0709028 -0.23739 -0.0361778 0.0686725 0.174501 0.0414149 -0.00819271 0.165609 0.0730577 -0.0766036 0.0308303 -0.0583306 0.113041 0.371767 -0.331965 -0.232614 -0.0390724 0.0188676 -0.101428 0.340906 0.247358 0.057731 0.314901 0.245414 -0.204889 -0.247912 -0.454274 -0.125907 0.0582304
internal_weight=640 606 249 133 119 106 53 34 116 84 34 50 26 357 73 284 203 81 56 30 173 83 90 25 32 30 32 69 24 41 23 80 33 26 53 42 24 20 21
internal_count=640 606 249 133 119 106 53 34 116 84 34 50 26 357 73 284 203 81 56 30 173 83 90 25 32 30 32 69 24 41 23 80 33 26 53 42 24 20 21
is_linear=0
shrinkage=0.02


Tree=16
num_leaves=40
num_cat=0
split_feature=11 0 1 0 11 0 0 1 3 0 8 1 1 1 5 1 1 1 0 8 1 8 1 0 1 8 0 1 1 1 1 0 1 0 5 1 1 2 8
split_gain=9246.51 5275.14 7484.39 6885.8 5933.6 6096.27 9343.06 2875.83 2678.92 4294.54 6134.62 5246.09 2973.26 2658.15 2528.34 2478.69 6638.91 4142.39 4326.63 3709.12 3480.58 3884.41 2902.89 6507.3 4652.01 2537.91 1700.63 2697.95 1604.96 1553.75 1393.93 1366.7 1020.39 984.58 967.524 909.483 3294.42 797.739 644
threshold=1.3572781837733903 0.1875544717804751 -0.37157186343787163 0.90588041780479001 1.3526356096877157 1.1828253608503092 0.98896390071844575 1.4355573937468 -0.047750674359438444 0.45238307356775265 0.82572487575311027 -0.98450664711021108 -1.0412791399651626 -0.6726695586345236 -0.74490616965979917 0.83235080449835508 1.5178870959384423 -1.0275143692144246 -0.44249527364808056 1.0786110164873755 -1.10869827967612 1.0988650575784662 -0.28625295613114726 -0.93580345344791105 -0.37157186343787163 1.068494281003195 -1.3962244212610864 1.2502993968165381 -0.94052669383376764 1.639939093975036 1.8392086013527507 -1.0829304544408429 -0.85048260034320078 1.0962800661485845 1.0000000180025095e-35 0.66949876630744976 0.92184722264249175 0.0037242880984233941 0.98630085549045088
decision_type=2 2 2 2 2 2 2 2 2 2 2 2 2 2 2 2 2 2 2 2 2 2 2 2 2 2 2 2 2 2 2 2 2 2 2 2 2 2 2
left_child=1 15 8 -4 5 6 -5 -2 9 11 13 12 -3 -11 -10 17 26 19 22 25 34 -22 24 31 32 -1 27 -17 38 -9 -18 -24 -19 -8 -21 -7 -37 -13 -20
right_child=7 2 3 4 -6 35 33 29 14 10 -12 37 -14 -15 -16 16 30 18 28 20 21 -23 23 -25 -26 -27 -28 -29 -30 -31 -32 -33 -34 -35 -36 36 -38 -39 -40
leaf_value=0.18360854676429256 -0.60411189560842982 -0.23273269328665219 0.46768947114335729 -0.23808164307134067 0.40184349278457293 -0.34597881724816243 0.19400315130719484 -0.051284427788421391 -0.089889066197850656 -0.26779764803299994 0.47196980669946953 -0.54365878707128201 0.19463792469875874 0.14628987302874571 -0.47162810178327308 -0.0047921984738642613 0.07794189684957431 0.23458826168163402 -0.0094425743405181523 0.10733431855509101 0.11060953161334462 -0.35232704239443313 0.085516917460663311 -0.46256413561697224 0.49363863373661904 0.59067142108539206 0.51800348168177324 0.43129393501136137 -0.43380330472889511 -0.37402901114644233 -0.18730893297398343 -0.097204898230108125 0.027892851263672851 0.41471160888671871 0.35307905954672086 0.16028219487407419 -0.25747351809593527 -0.3033874553264958 -0.2360670093498608
leaf_weight=14.000000000000002 9.9999999999999982 14.000000000000002 13.999999999999998 20 12.999999999999998 12.999999999999998 15.999999999999998 13.000000000000002 11.000000000000002 15.999999999999998 9.9999999999999982 14.000000000000002 11.999999999999998 10.000000000000002 19 10.000000000000002 18 10.999999999999998 10.000000000000005 12.000000000000002 18.000000000000004 11.999999999999998 47 12.999999999999998 10.999999999999998 10.999999999999998 14.999999999999998 12.999999999999998 9.9999999999999982 10.999999999999998 13.999999999999998 25 69 17 13.999999999999998 9.9999999999999982 30 9.9999999999999982 9.9999999999999982
leaf_count=14 10 14 14 20 13 13 16 13 11 16 10 14 12 10 19 10 18 11 10 12 18 12 47 13 11 11 15 13 10 11 14 25 69 17 14 10 30 10 10
internal_value=3.09021e-06 0.0180334 -0.0526073 0.04978 0.000254431 -0.04932 0.102252 -0.320442 -0.16995 -0.112931 0.0535424 -0.232679 -0.0354564 -0.108545 -0.332454 0.0673076 0.173939 0.041245 -0.00641403 0.162323 0.0716049 -0.0750872 0.0314601 -0.0525451 0.109909 0.364396 0.35232 0.242448 -0.228009 -0.200189 -0.0382962 0.0220111 0.0565833 0.308641 0.240543 -0.200818 -0.15287 -0.445262 -0.123415
internal_weight=640 606 249 133 119 106 53 34 116 86 36 50 26 26 30 357 70 287 206 81 56 30 176 85 91 25 38 23 30 24 32 72 80 33 26 53 40 24 20
internal_count=640 606 249 133 119 106 53 34 116 86 36 50 26 26 30 357 70 287 206 81 56 30 176 85 91 25 38 23 30 24 32 72 80 33 26 53 40 24 20
is_linear=0
shrinkage=0.02


Tree=17
num_leaves=40
num_cat=0
split_feature=11 0 3 0 11 0 0 0 0 0 8 3 3 3 3 3 0 8 3 8 3 0 3 8 0 0 3 3 3 8 8 3 8 5 0 5 2 8 3
split_gain=8883.85 5067.16 7190.11 6614.87 5700.24 5856.07 8975.13 2814.49 2585.3 4460.67 5568.15 5040.06 2856.41 2381.24 6377.89 3979.75 4156.92 3563.58 3343.87 3731.75 2795.85 5743.86 5041.5 2438.36 2217.37 1633.64 2591.94 1542 1344.24 1312.75 1120.49 980.383 945.774 929.436 915.795 1675.85 766.207 618.735 133.74
threshold=1.3572781837733903 0.1875544717804751 0.23156967138033321 0.90588041780479001 1.3526356096877157 1.1828253608503092 0.98896390071844575 1.5238138219751043 0.65489906316978841 0.45238307356775265 0.82572487575311027 -0.88086802386121987 -1.1993593221192707 0.83538804906743758 0.99248140288467734 -1.1069956748773397 -0.44249527364808056 1.0786110164873755 -2.2641636773559273 1.0988650575784662 0.29199227584691517 -0.93580345344791105 0.23156967138033321 1.068494281003195 0.74490616965958212 -1.3962244212610864 0.93943635527535629 -0.70808184479987835 1.0595097267602138 -0.19326021872693619 0.69725096412932752 -0.44902136988585922 -0.23263280948989401 1.0000000180025095e-35 1.7055589408487262 -1.388803162240634 0.0037242880984233941 0.98630085549045088 1.0165334732133358
decision_type=2 2 2 2 2 2 2 2 2 2 2 2 2 2 2 2 2 2 2 2 2 2 2 2 2 2 2 2 2 2 2 2 2 2 2 2 2 2 2
left_child=1 13 8 -4 5 6 -5 -2 9 11 30 12 -3 15 25 17 20 23 33 -20 22 29 31 -1 -10 26 -15 37 38 -22 -11 -17 -8 -19 35 -7 -13 -18 -16
right_child=7 2 3 4 -6 34 32 -9 24 10 -12 36 -14 14 28 16 27 18 19 -21 21 -23 -24 -25 -26 -27 -28 -29 -30 -31 -32 -33 -34 -35 -36 -37 -38 -39 -40
leaf_value=0.17996243068935175 -0.51814716724370491 -0.22811104145455863 0.45840201988287854 -0.23334372240512521 0.3938679793590808 -0.45063025534689977 0.40646588866473643 -0.15107923257413333 -0.4394280231507468 0.064460775545327961 0.46262387303727687 -0.53286271426694598 0.19077734072346336 -0.0046972974928298789 0.10883982290135751 0.2299387600185635 -0.0092555805244068055 0.10520536438492702 0.10840955196823203 -0.34533873094014889 0.083810221508556604 -0.41982012633736254 0.52979492140288398 0.57896440471614807 -0.088107473699896188 0.50771202592660258 0.42273391086636608 -0.42521315886242556 -0.2156260528220787 -0.095268551248953171 -0.21174312764025746 0.027335798950857783 0.19014717297524392 0.34606757799784343 -0.03388826172631066 -0.1630510428020808 -0.29737976980681469 -0.23139239150698823 0.007860074515815255
leaf_weight=14.000000000000002 14.999999999999998 14.000000000000002 13.999999999999998 20 12.999999999999998 10.999999999999995 16.999999999999996 19 21 10.000000000000002 9.9999999999999982 14.000000000000002 11.999999999999998 10.000000000000002 10.000000000000002 10.999999999999998 10.000000000000005 12.000000000000002 18.000000000000004 11.999999999999998 47 13.999999999999998 9.9999999999999982 10.999999999999998 10.999999999999998 14.999999999999998 12.999999999999998 9.9999999999999982 10.999999999999998 25 13.999999999999998 69 16.000000000000004 13.999999999999998 10.999999999999998 31.000000000000004 9.9999999999999982 9.9999999999999982 10.999999999999998
leaf_count=14 15 14 14 20 13 11 17 19 21 10 10 14 12 10 10 11 10 12 18 12 47 14 10 11 11 15 13 10 11 25 14 69 16 14 11 31 10 10 11
internal_value=3.31669e-06 0.0176766 -0.0515575 0.0487966 0.000254869 -0.0483347 0.100221 -0.314095 -0.16657 -0.108049 0.0685624 -0.228061 -0.0347494 0.0659696 0.170484 0.0404244 -0.00628961 0.159101 0.070181 -0.0736009 0.0308342 -0.0506765 0.108703 0.35717 -0.319343 0.345323 0.237635 -0.223495 -0.0375365 0.0215703 -0.0968267 0.0554585 0.302506 0.235768 -0.196818 -0.239285 -0.436427 -0.120972 0.056281
internal_weight=640 606 249 133 119 106 53 34 116 84 34 50 26 357 70 287 206 81 56 30 176 86 90 25 32 38 23 30 32 72 24 80 33 26 53 42 24 20 21
internal_count=640 606 249 133 119 106 53 34 116 84 34 50 26 357 70 287 206 81 56 30 176 86 90 25 32 38 23 30 32 72 24 80 33 26 53 42 24 20 21
is_linear=0
shrinkage=0.02


Tree=18
num_leaves=39
num_cat=0
split_feature=11 0 1 0 11 0 0 0 0 0 8 1 1 1 1 1 0 8 1 8 1 0 1 8 0 0 1 1 1 8 0 1 8 5 1 8 8 1
split_gain=8534.31 4867.59 6907.17 6354.72 5476.17 5625.67 8621.69 2703.8 2483.39 4285.61 5349.67 4842.11 2744.15 2287.63 6127.09 3823.47 3993.9 3423.74 3212.53 3585.09 2686.31 6022.88 4310.53 2342.71 2129.85 1569.3 2490.1 1481.5 1292.1 1260.93 1076.47 941.94 908.496 892.846 882.597 3146.79 594.462 325.402
threshold=1.3572781837733903 0.1875544717804751 -0.37157186343787163 0.90588041780479001 1.3526356096877157 1.1828253608503092 0.98896390071844575 1.5238138219751043 0.65489906316978841 0.45238307356775265 0.82572487575311027 -0.98450664711021108 -1.0412791399651626 0.83235080449835508 1.5178870959384423 -1.0275143692144246 -0.44249527364808056 1.0786110164873755 -1.10869827967612 1.0988650575784662 -0.28625295613114726 -0.93580345344791105 -0.37157186343787163 1.068494281003195 0.74490616965958212 -1.3962244212610864 1.2502993968165381 -0.94052669383376764 1.8392086013527507 -0.19326021872693619 0.61162641581892607 -0.85048260034320078 -0.23263280948989401 1.0000000180025095e-35 0.66949876630744976 -0.85014585590154212 0.98630085549045088 -0.94805892998966501
decision_type=2 2 2 2 2 2 2 2 2 2 2 2 2 2 2 2 2 2 2 2 2 2 2 2 2 2 2 2 2 2 2 2 2 2 2 2 2 2
left_child=1 13 8 -4 5 6 -5 -2 9 11 30 12 -3 15 25 17 20 23 33 -20 22 29 31 -1 -10 26 -15 36 -16 -22 -11 -17 -8 -19 -7 -36 -18 -13
right_child=7 2 3 4 -6 34 32 -9 24 10 -12 37 -14 14 28 16 27 18 19 -21 21 -23 -24 -25 -26 -27 -28 -29 -30 -31 -32 -33 -34 -35 35 -37 -38 -39
leaf_value=0.17638869949372096 -0.5078528539392333 -0.22358119937545012 0.44929900764996278 -0.22870008240884809 0.38605075612322981 -0.33587593078613281 0.39838411342330854 -0.14807347076101451 -0.43068111561203454 -0.20753831417002569 0.45346300822673458 -0.51127022872099981 0.18699331236279701 -0.004604289696948362 0.075119537227061578 0.22538141937943196 -0.009072308870825432 0.10311865562249803 0.1062533378074182 -0.33848905139841323 0.082137566246804156 -0.44505116495467328 0.47506539297533468 0.56748942332224805 -0.086361198081626553 0.4976250366817247 0.41434375995898065 -0.41679307862083514 -0.18025838020000051 -0.093370772509935848 0.063184324963258057 0.026789870986717656 0.18636785014075513 0.33919529958819666 -0.24793311168189067 0.16033701202656961 -0.22681037071907878 -0.35367349988631619
leaf_weight=14.000000000000002 14.999999999999998 14.000000000000002 13.999999999999998 20 12.999999999999998 12.999999999999998 16.999999999999996 19 21 14.000000000000002 9.9999999999999982 11.000000000000002 11.999999999999998 10.000000000000002 18 10.999999999999998 10.000000000000005 12.000000000000002 18.000000000000004 11.999999999999998 47 12.999999999999998 10.999999999999998 10.999999999999998 10.999999999999998 14.999999999999998 12.999999999999998 9.9999999999999982 13.999999999999998 25 9.9999999999999982 69 16.000000000000004 13.999999999999998 29.999999999999996 10.000000000000002 9.9999999999999982 12.999999999999998
leaf_count=14 15 14 14 20 13 13 17 19 21 14 10 11 12 10 18 11 10 12 18 12 47 13 11 11 11 15 13 10 14 25 10 69 16 14 30 10 10 13
internal_value=4.18085e-06 0.0173263 -0.0505307 0.047829 0.000251272 -0.0473736 0.0982301 -0.307853 -0.163258 -0.105901 0.0672096 -0.223535 -0.0340565 0.0646588 0.167098 0.0396206 -0.00616683 0.155944 0.0687853 -0.0721439 0.0302217 -0.0505887 0.105688 0.350088 -0.31299 0.338466 0.232918 -0.219071 -0.0367906 0.0211383 -0.0949016 0.054356 0.296492 0.231088 -0.192907 -0.145695 -0.118578 -0.427769
internal_weight=640 606 249 133 119 106 53 34 116 84 34 50 26 357 70 287 206 81 56 30 176 85 91 25 32 38 23 30 32 72 24 80 33 26 53 40 20 24
internal_count=640 606 249 133 119 106 53 34 116 84 34 50 26 357 70 287 206 81 56 30 176 85 91 25 32 38 23 30 32 72 24 80 33 26 53 40 20 24
is_linear=0
shrinkage=0.02


end of trees

feature_importances:
Column_1=204
Column_0=167
Column_8=80
Column_11=64
Column_5=48
Column_2=31
Column_3=31
Column_4=1
Column_10=1

parameters:
[boosting: gbdt]
[objective: regression]
[metric: l2]
[tree_learner: serial]
[device_type: cpu]
[data_sample_strategy: goss]
[data: ]
[valid: ]
[num_iterations: 3000]
[learning_rate: 0.02]
[num_leaves: 63]
[num_threads: -1]
[seed: 42]
[deterministic: 0]
[force_col_wise: 0]
[force_row_wise: 0]
[histogram_pool_size: -1]
[max_depth: 8]
[min_data_in_leaf: 10]
[min_sum_hessian_in_leaf: 0.001]
[bagging_fraction: 1]
[pos_bagging_fraction: 1]
[neg_bagging_fraction: 1]
[bagging_freq: 0]
[bagging_seed: 400]
[bagging_by_query: 0]
[feature_fraction: 0.9]
[feature_fraction_bynode: 1]
[feature_fraction_seed: 30056]
[extra_trees: 0]
[extra_seed: 12879]
[early_stopping_round: 100]
[early_stopping_min_delta: 0]
[first_metric_only: 0]
[max_delta_step: 0]
[lambda_l1: 0.05]
[lambda_l2: 0.1]
[linear_lambda: 0]
[min_gain_to_split: 0]
[drop_rate: 0.1]
[max_drop: 50]
[skip_drop: 0.5]
[xgboost_dart_mode: 0]
[uniform_drop: 0]
[drop_seed: 17869]
[top_rate: 0.3]
[other_rate: 0.1]
[min_data_per_group: 100]
[max_cat_threshold: 32]
[cat_l2: 10]
[cat_smooth: 10]
[max_cat_to_onehot: 4]
[top_k: 20]
[monotone_constraints: ]
[monotone_constraints_method: basic]
[monotone_penalty: 0]
[feature_contri: ]
[forcedsplits_filename: ]
[refit_decay_rate: 0.9]
[cegb_tradeoff: 1]
[cegb_penalty_split: 0]
[cegb_penalty_feature_lazy: ]
[cegb_penalty_feature_coupled: ]
[path_smooth: 0]
[interaction_constraints: ]
[verbosity: -1]
[saved_feature_importance_type: 0]
[use_quantized_grad: 0]
[num_grad_quant_bins: 4]
[quant_train_renew_leaf: 0]
[stochastic_rounding: 1]
[linear_tree: 0]
[max_bin: 255]
[max_bin_by_feature: ]
[min_data_in_bin: 3]
[bin_construct_sample_cnt: 200000]
[data_random_seed: 175]
[is_enable_sparse: 1]
[enable_bundle: 1]
[use_missing: 1]
[zero_as_missing: 0]
[feature_pre_filter: 1]
[pre_partition: 0]
[two_round: 0]
[header: 0]
[label_column: ]
[weight_column: ]
[group_column: ]
[ignore_column: ]
[categorical_feature: ]
[forcedbins_filename: ]
[precise_float_parser: 0]
[parser_config_file: ]
[objective_seed: 16083]
[num_class: 1]
[is_unbalance: 0]
[scale_pos_weight: 1]
[sigmoid: 1]
[boost_from_average: 1]
[reg_sqrt: 0]
[alpha: 0.9]
[fair_c: 1]
[poisson_max_delta_step: 0.7]
[tweedie_variance_power: 1.5]
[lambdarank_truncation_level: 30]
[lambdarank_norm: 1]
[label_gain: ]
[lambdarank_position_bias_regularization: 0]
[eval_at: ]
[multi_error_top_k: 1]
[auc_mu_weights: ]
[num_machines: 1]
[local_listen_port: 12400]
[time_out: 120]
[machine_list_filename: ]
[machines: ]
[gpu_platform_id: -1]
[gpu_device_id: -1]
[gpu_use_dp: 0]
[num_gpu: 1]

end of parameters

pandas_categorical:null
