tree
version=v4
num_class=1
num_tree_per_iteration=1
label_index=0
max_feature_idx=12
objective=regression
feature_names=Column_0 Column_1 Column_2 Column_3 Column_4 Column_5 Column_6 Column_7 Column_8 Column_9 Column_10 Column_11 Column_12
feature_infos=[-1.637318040943839:1.7297392077848837] [-1.1524972833117169:2.2957846592324889] [-2.3722575058428457:2.6498248763732919] [-3.4076293292954718:1.1052783193322013] [-1.7697767311441279:1.8586884687251835] [-1.7297392077849152:1.6373180409437949] [-1.6278789467533219:1.7385979874124464] [-1.6345672136782907:1.7263775363703402] [-2.2936742927021694:1.1532265634111829] [-1.5660231179370165:1.6433123387475514] [-2.2422071720381722:1.1710429313208495] [-1.3196697703418452:1.3679260777286497] [-2.0704913260970139:1.2307630066822319]
tree_sizes=2790 2862 3055 2765 2743 2956 2983 2984 2833

Tree=0
num_leaves=30
num_cat=0
split_feature=0 1 0 0 0 8 1 0 0 1 8 0 0 0 8 5 0 0 5 1 1 0 0 5 0 1 0 1 0
split_gain=30746.9 26313.8 33417 26722 10171.1 6200.54 6388.94 6189.63 5733.73 6662.39 4634.13 4868.83 15274.2 12543.8 4775.79 3704.34 3261.54 2394.75 2199.73 5269.4 1607.57 1568.11 1469.56 1498 1411.29 2445.46 862.96 107.385 80.9105
threshold=1.3063266980499593 0.67265314271065391 -1.591771675354823 -0.77025019232331615 1.6099691353100642 1.1475405195699431 -1.1375105712266642 1.6706976227620853 -1.1413687267523336 0.1016843496067829 1.081248358070154 0.60626218992249437 0.8441154324429101 0.38527797169430661 1.1127328972701889 0.11404514735559693 -0.19501646395833908 -1.3016244575285003 0.81748346034149155 -0.25335092651016594 -0.13134987525287181 1.3501861612097523 1.4244098680955555 -1.5289978187074367 -1.426455237290988 1.418468413294844 -1.3994647984234232 1.418468413294844 -1.2105317263504689
decision_type=2 2 2 2 2 2 2 2 2 2 2 2 2 2 2 2 2 2 2 2 2 2 2 2 2 2 2 2 2
left_child=1 3 -3 8 21 6 -5 -6 28 18 11 13 -13 -8 16 -16 -12 24 -10 -20 -21 -2 -23 -24 25 -4 -26 -25 -1
right_child=4 2 17 5 7 -7 10 -9 9 -11 14 12 -14 -15 15 -17 -18 -19 19 20 -22 22 23 27 26 -27 -28 -29 -30
leaf_value=419.66602986461862 419.3849349985037 418.9508463378944 420.43931045351803 420.12619157082855 419.89958011671411 419.3790199404487 419.71514435755097 419.32692437904564 419.13198820328927 418.95956821995878 419.5836638128265 419.30631328481383 419.82746578226744 420.08848102177194 419.45479041005126 419.9567130913295 419.11760284652394 420.37294546292094 419.75828430093679 419.11163290994665 419.40334700895971 418.96365453658746 419.03694746957603 419.36449156277251 419.8577007376611 420.0635903063224 420.10163709327463 419.26012653700195 419.59552971596412
leaf_weight=12.000000000000002 10.999999999999998 9.9999999999999982 10.999999999999998 17 15.000000000000002 19 122 14.999999999999998 10.999999999999998 19 12.000000000000002 34 66 51 10.000000000000002 13.999999999999998 11.999999999999998 19 14.999999999999998 10.999999999999995 25.000000000000004 17 13.999999999999995 10.000000000000005 11.000000000000002 20 13.000000000000002 9.9999999999999982 13.999999999999998
leaf_count=12 11 10 11 17 15 19 122 15 11 19 12 34 66 51 10 14 12 19 15 11 25 17 14 10 11 20 13 10 14
internal_value=419.649 419.706 420.031 419.647 419.311 419.73 419.749 419.613 419.369 419.287 419.729 419.761 419.65 419.825 419.548 419.748 419.349 420.178 419.388 419.444 419.313 419.165 419.118 419.196 420.109 420.199 419.991 419.311 419.628
internal_weight=640 548 84 464 92 357 338 30 107 81 321 273 100 173 48 24 24 74 62 51 36 62 51 34 55 31 24 20 26
internal_count=640 548 84 464 92 357 338 30 107 81 321 273 100 173 48 24 24 74 62 51 36 62 51 34 55 31 24 20 26
is_linear=0
shrinkage=1


Tree=1
num_leaves=29
num_cat=0
split_feature=0 1 0 0 0 5 8 1 0 1 8 8 1 8 5 0 0 5 1 1 11 0 0 0 11 0 1 0
split_gain=29537.1 25279 32104.9 25669.1 9784.5 6007 5956 6137.72 5508.12 6399.54 4451.61 4789.89 5321.64 4588.06 3558.85 3133.41 2299.98 2113.52 5062.11 1544.72 1361.67 2083.69 1200.62 1944.31 1874.52 646.664 330.023 77.7319
threshold=1.3063266980499593 0.67265314271065391 -1.591771675354823 -0.77025019232331615 1.6302119644607382 -1.6774452324790428 1.1475405195699431 -1.1375105712266642 -1.1413687267523336 0.1016843496067829 1.081248358070154 1.0615817786817172 -1.0132923394434341 1.1127328972701889 0.11404514735559693 -0.19501646395833908 -1.3016244575285003 0.81748346034149155 -0.25335092651016594 -0.13134987525287181 -1.3069799306192156 -1.5023658466060144 1.3501861612097523 1.4244098680955555 1.3668588910838519 -1.3994647984234232 1.4628187880097536 -1.2105317263504689
decision_type=2 2 2 2 2 2 2 2 2 2 2 2 2 2 2 2 2 2 2 2 2 2 2 2 2 2 2 2
left_child=1 3 -3 8 22 -6 7 -5 27 17 11 12 -9 15 -15 -12 20 -10 -19 -20 21 -4 -2 -24 26 -22 -25 -1
right_child=4 2 16 6 5 -7 -8 10 9 -11 13 -13 -14 14 -16 -17 -18 18 19 -21 25 -23 23 24 -26 -27 -28 -29
leaf_value=0.016947998803509164 -0.25857535216185423 -0.68407290468121518 0.41932384126473465 0.46795947671633714 -0.2509794102661998 0.38801316591772705 -0.26435283729543235 -0.28727722524751165 -0.50650879834149332 -0.67545943654644547 -0.063784341102789244 0.46930433665606991 0.11234942749369113 -0.19010790683255333 0.30185839920179219 -0.52060112866488373 0.70979826882247521 0.10736899211706705 -0.52646064277167814 -0.24050357955385485 0.24046321299239873 0.78102397673200852 -0.67146277756718864 -0.38252144341705396 -0.59964239438374844 0.44390936873341325 -0.23517624396404238 -0.052152567822882474
leaf_weight=12.000000000000002 10.999999999999998 9.9999999999999982 19 17 14.000000000000002 9.9999999999999982 19 13.999999999999998 10.999999999999998 19 12.000000000000002 13.999999999999998 245 10.000000000000002 13.999999999999998 11.999999999999998 19 14.999999999999998 10.999999999999995 25.000000000000004 13.000000000000002 9.9999999999999982 17 13.000000000000002 13.999999999999998 13.000000000000002 12.999999999999998 13.999999999999998
leaf_count=12 11 10 19 17 14 10 19 14 11 19 12 14 245 10 14 12 19 15 11 25 13 10 17 13 14 13 13 14
internal_value=-5.61702e-06 0.0556801 0.374717 -0.00214273 -0.33141 0.0157313 0.079304 0.0986974 -0.273715 -0.354927 0.0789987 0.110229 0.0906416 -0.0984605 0.0968927 -0.293447 0.518541 -0.255754 -0.200765 -0.329123 0.451283 0.546338 -0.453789 -0.490925 -0.412688 0.343536 -0.31007 -0.0202789
internal_weight=640 548 84 464 92 24 357 338 107 81 321 273 259 48 24 24 74 62 51 36 55 29 68 57 40 26 26 26
internal_count=640 548 84 464 92 24 357 338 107 81 321 273 259 48 24 24 74 62 51 36 55 29 68 57 40 26 26 26
is_linear=0
shrinkage=0.02


Tree=2
num_leaves=31
num_cat=0
split_feature=2 1 1 2 1 5 8 1 1 1 8 2 1 2 8 5 2 1 5 1 1 2 1 1 1 11 8 2 1 2
split_gain=28374.1 24285.1 30844.4 24657.7 9400.12 5771.2 5768.44 10569.3 5291.39 6147.06 4276.26 4680.36 14670.6 12042 4407.71 3419.07 3010.31 2208.91 2030.69 4862.97 1484.33 1310.1 2289.56 1153.23 1867.51 1800.72 877.282 801.354 317.022 74.6781
threshold=1.1029186468298453 0.67265314271065391 1.7886888179184404 -0.3075322128146738 1.9079066279164563 -1.6774452324790428 1.1457813641464354 -1.1375105712266642 0.33025522985876682 0.1016843496067829 1.081248358070154 0.049436996000836127 -0.33586895465088656 -0.037545589897444061 1.1127328972701889 0.11404514735559693 -0.071471005520538408 0.81223335598457247 0.81748346034149155 -0.25335092651016594 -0.13134987525287181 -1.5915867415386367 1.418468413294844 0.94644812684974688 1.1925847227162312 1.3668588910838519 1.1515402711757667 -1.5067045523107998 1.4628187880097536 -0.99899007498549774
decision_type=2 2 2 2 2 2 2 2 2 2 2 2 2 2 2 2 2 2 2 2 2 2 2 2 2 2 2 2 2 2
left_child=1 3 17 8 23 -6 7 -5 9 18 11 13 -13 -9 16 -16 -12 -3 -1 -20 -21 22 -19 -2 -25 28 -8 -23 -26 -10
right_child=4 2 -4 6 5 -7 26 10 29 -11 14 12 -14 -15 15 -17 -18 21 19 20 -22 27 -24 24 25 -27 -28 -29 -30 -31
leaf_value=-0.49646989324071383 -0.25345043354206254 0.69567663901763444 -0.6705269146909808 0.67963441533490654 -0.24599543794672532 0.38032974809703263 -0.11749167993559058 0.062931139889942825 0.016611835700421289 -0.66202096459753224 -0.062519198330965906 -0.33783759082167725 0.17291416751184194 0.42872192218578958 -0.18634338227829125 0.29586405020233586 -0.51027513448857076 0.76137078379725553 0.10523582666914985 -0.51602628072102885 -0.23571267618126121 0.20005430951848754 0.39789099676692069 -0.65811205183553412 -0.37492940480017467 -0.58773457183482802 -0.36352754243529667 0.4350989614006216 -0.23050862661754809 -0.05111689932802891
leaf_weight=10.999999999999998 10.999999999999998 19 9.9999999999999982 11.999999999999998 14.000000000000002 9.9999999999999982 14.000000000000002 122 12.000000000000002 19 12.000000000000002 34 66 51 10.000000000000002 13.999999999999998 11.999999999999998 10.999999999999998 14.999999999999998 10.999999999999995 25.000000000000004 11.000000000000002 20 17 13.000000000000002 13.999999999999998 9.9999999999999982 13.000000000000002 12.999999999999998 13.999999999999998
leaf_count=11 11 19 10 12 14 10 14 122 12 19 12 34 66 51 10 14 12 11 15 11 25 11 20 17 13 14 10 13 13 14
internal_value=-1.17247e-05 0.0545667 0.367269 -0.00210798 -0.324826 0.0154272 0.0777179 0.0993195 -0.268276 -0.347875 0.0774175 0.108026 -0.000895458 0.170957 -0.0965114 0.0949633 -0.287627 0.508241 -0.250677 -0.196775 -0.322584 0.442327 0.528933 -0.444777 -0.481174 -0.404496 -0.221131 0.328689 -0.303917 -0.0198753
internal_weight=640 548 84 464 92 24 357 333 107 81 321 273 100 173 48 24 24 74 62 51 36 55 31 68 57 40 24 24 26 26
internal_count=640 548 84 464 92 24 357 333 107 81 321 273 100 173 48 24 24 74 62 51 36 55 31 68 57 40 24 24 26 26
is_linear=0
shrinkage=0.02


Tree=3
num_leaves=28
num_cat=0
split_feature=0 1 0 0 0 5 8 1 0 1 0 5 1 0 0 5 1 1 11 0 0 0 11 8 0 1 0
split_gain=27256.9 23330.1 29633.3 23686.1 9030.84 5544.65 5541.57 10154.6 5083.19 5904.55 4234.9 5128.44 13991.2 4766.76 2121.49 1951.11 4671.67 1426.29 1269.47 1930.38 1107.72 1793.74 1729.82 842.908 603.315 304.534 71.7444
threshold=1.3063266980499593 0.67265314271065391 -1.591771675354823 -0.77025019232331615 1.6302119644607382 -1.6774452324790428 1.1457813641464354 -1.1375105712266642 -1.1413687267523336 0.1016843496067829 -0.72470382673430034 -0.32961019153000815 -0.76440648727913907 0.095130753867983711 -1.3016244575285003 0.81748346034149155 -0.25335092651016594 -0.13134987525287181 -1.3069799306192156 -1.5023658466060144 1.3501861612097523 1.4244098680955555 1.3668588910838519 1.1515402711757667 -1.3994647984234232 1.4628187880097536 -1.2105317263504689
decision_type=2 2 2 2 2 2 2 2 2 2 2 2 2 2 2 2 2 2 2 2 2 2 2 2 2 2 2
left_child=1 3 -3 8 20 -6 7 -5 26 15 -9 12 -12 -13 18 -10 -17 -18 19 -4 -2 -22 25 -8 -20 -23 -1
right_child=4 2 14 6 5 -7 23 10 9 -11 11 13 -14 -15 -16 16 17 -19 24 -21 21 22 -24 -25 -26 -27 -28
leaf_value=0.016282359351796546 -0.24842711302611203 -0.65724912058008789 0.40306511519467014 0.66615406926998422 -0.24111039344300608 0.37279846493560492 -0.11515851512868353 0.4597664209314295 -0.48662994006732563 -0.64884987246927794 0.41011691212882923 0.027537656219150022 0.010444860289188104 -0.27924894807744322 0.68183596266501867 0.10314504636044534 -0.50579871822047895 -0.23101723218819054 0.23000616656004919 0.75120128348322202 -0.64502678246525991 -0.36748804210706509 -0.5760632690132087 -0.35632898868900709 0.42646342372166279 -0.22593363434303806 -0.050101811767469917
leaf_weight=12.000000000000002 10.999999999999998 9.9999999999999982 19 11.999999999999998 14.000000000000002 9.9999999999999982 14.000000000000002 10.999999999999998 10.999999999999998 19 52 127 107 24 19 14.999999999999998 10.999999999999995 25.000000000000004 13.000000000000002 9.9999999999999982 17 13.000000000000002 13.999999999999998 9.9999999999999982 13.000000000000002 12.999999999999998 13.999999999999998
leaf_count=12 11 10 19 12 14 10 14 11 11 19 52 127 107 24 19 15 11 25 13 10 17 13 14 10 13 13 14
internal_value=-1.76444e-05 0.0534755 0.359968 -0.00207362 -0.318374 0.015129 0.0761638 0.0973364 -0.262945 -0.340962 0.0758682 0.0620989 0.141337 -0.0213691 0.498144 -0.2457 -0.192865 -0.316174 0.433547 0.525315 -0.435944 -0.471616 -0.396467 -0.216749 0.329531 -0.297886 -0.0194797
internal_weight=640 548 84 464 92 24 357 333 107 81 321 310 159 151 74 62 51 36 55 29 68 57 40 24 26 26 26
internal_count=640 548 84 464 92 24 357 333 107 81 321 310 159 151 74 62 51 36 55 29 68 57 40 24 26 26 26
is_linear=0
shrinkage=0.02


Tree=4
num_leaves=28
num_cat=0
split_feature=0 3 0 0 0 5 8 3 0 3 0 5 3 0 0 5 5 3 11 0 0 0 11 8 0 3 0
split_gain=26184.2 22412.4 28469.8 22753.4 8676.07 5327 5323.79 9756.06 4883.18 5671.59 4068.9 4925.89 13438.2 4578.71 2037.49 1874.64 4487.89 1370.53 1219.52 1855.07 1064 1722.88 1661.71 809.881 579.572 292.536 68.9259
threshold=1.3063266980499593 0.77809696717752341 -1.591771675354823 -0.77025019232331615 1.6302119644607382 -1.6774452324790428 1.1457813641464354 -2.0187381883302371 -1.1413687267523336 0.54205815978815208 -0.72470382673430034 -0.32961019153000815 -0.25642868013962122 0.095130753867983711 -1.3016244575285003 0.81748346034149155 0.88327265508118491 0.40306628549463996 -1.3069799306192156 -1.5023658466060144 1.3501861612097523 1.4244098680955555 1.3668588910838519 1.1515402711757667 -1.3994647984234232 0.97805025678328039 -1.2105317263504689
decision_type=2 2 2 2 2 2 2 2 2 2 2 2 2 2 2 2 2 2 2 2 2 2 2 2 2 2 2
left_child=1 3 -3 8 20 -6 7 -5 26 15 -9 12 -12 -13 18 -10 -17 -18 19 -4 -2 -22 25 -8 -20 -23 -1
right_child=4 2 14 6 5 -7 23 10 9 -11 11 13 -14 -15 -16 16 17 -19 24 -21 21 22 -24 -25 -26 -27 -28
leaf_value=0.015959383751735209 -0.24350330971382758 -0.64423432529562774 0.3950460311130703 0.65294108934638917 -0.23632240660647122 0.36541631755262316 -0.1128716691335042 0.45065394770991696 -0.47698502274246907 -0.63594079661743808 0.4019303113897108 0.026987352479076309 0.010236160981109721 -0.27368713074205325 0.66827062606811527 0.10109581498910261 -0.49577388454127957 -0.22641528247362111 0.22544116056602412 0.73632599896723672 -0.6322016902276647 -0.36019441064077468 -0.56462369245840305 -0.34927295448756451 0.41799924384546638 -0.22144946262126661 -0.049106874465942391
leaf_weight=12.000000000000002 10.999999999999998 9.9999999999999982 19 11.999999999999998 14.000000000000002 9.9999999999999982 14.000000000000002 10.999999999999998 10.999999999999998 19 52 127 107 24 19 14.999999999999998 10.999999999999998 25 13.000000000000002 9.9999999999999982 17 13.000000000000002 13.999999999999998 9.9999999999999982 13.000000000000002 12.999999999999998 13.999999999999998
leaf_count=12 11 10 19 12 14 10 14 11 11 19 52 127 107 24 19 15 11 25 13 10 17 13 14 10 13 13 14
internal_value=-2.06798e-05 0.0524092 0.352813 -0.00203636 -0.312049 0.0148365 0.0746452 0.0953976 -0.257721 -0.334187 0.0743549 0.0608581 0.138516 -0.0209449 0.48825 -0.240823 -0.189033 -0.309892 0.424943 0.514889 -0.427287 -0.462248 -0.388597 -0.212454 0.322991 -0.291975 -0.0190919
internal_weight=640 548 84 464 92 24 357 333 107 81 321 310 159 151 74 62 51 36 55 29 68 57 40 24 26 26 26
internal_count=640 548 84 464 92 24 357 333 107 81 321 310 159 151 74 62 51 36 55 29 68 57 40 24 26 26 26
is_linear=0
shrinkage=0.02


Tree=5
num_leaves=30
num_cat=0
split_feature=0 1 0 0 0 5 8 1 0 1 0 0 8 1 0 0 0 5 1 1 0 1 0 0 11 8 0 1 0
split_gain=25153.6 21530.7 27352 21857.5 8335.24 5117.89 5114.56 9373.15 4691.04 5447.83 3968.5 8836.47 4562.43 3576.23 2726.71 4700.81 1956.82 1801.17 4311.34 1316.94 1175.23 2089.59 1022 1654.82 1596.28 778.147 719.314 281.011 66.2183
threshold=1.3063266980499593 0.67265314271065391 -1.591771675354823 -0.77025019232331615 1.6302119644607382 -1.6774452324790428 1.1457813641464354 -1.1375105712266642 -1.1413687267523336 0.1016843496067829 -0.59312543725492139 -0.48178987692621617 1.081248358070154 -0.82501368514807727 -0.66060153442383374 -0.72470382673430034 -1.3016244575285003 0.81748346034149155 -0.25335092651016594 -0.13134987525287181 -1.426455237290988 1.418468413294844 1.3501861612097523 1.4244098680955555 1.3668588910838519 1.1515402711757667 -1.3994647984234232 1.4628187880097536 -1.2105317263504689
decision_type=2 2 2 2 2 2 2 2 2 2 2 2 2 2 2 2 2 2 2 2 2 2 2 2 2 2 2 2 2
left_child=1 3 -3 8 22 -6 7 -5 28 17 14 13 -13 -12 15 -9 20 -10 -19 -20 21 -4 -2 -24 27 -8 -22 -25 -1
right_child=4 2 16 6 5 -7 25 10 9 -11 11 12 -14 -15 -16 -17 -18 18 19 -21 26 -23 23 24 -26 -27 -28 -29 -30
leaf_value=0.015642852152674646 -0.238677126566569 -0.63147717693064476 0.72051724992356858 0.6399902126217677 -0.23162946322285533 0.35818035097405465 -0.11063025988585558 0.44172206732603886 -0.4675312578355944 -0.62328857546701477 -0.58998689373530944 0.12507640881447041 -0.090889994647051817 -0.1187813429015776 0.51689650984835034 -0.1284610386919384 0.65497518679234379 0.099087288300722651 -0.48594774675798863 -0.22190500973705274 0.18706237573881404 0.37340397047166207 -0.61963159014607039 -0.35304549151704501 -0.55341133760222305 -0.3423566583595653 0.40970307517597682 -0.21705427380918546 -0.048131702064622389
leaf_weight=12.000000000000002 10.999999999999998 9.9999999999999982 10.999999999999998 11.999999999999998 14.000000000000002 9.9999999999999982 14.000000000000002 10.999999999999998 10.999999999999998 19 10.000000000000002 210 48 18 11.999999999999998 12.000000000000002 19 14.999999999999998 10.999999999999995 25.000000000000004 11.000000000000002 20 17 13.000000000000002 13.999999999999998 9.9999999999999982 13.000000000000002 12.999999999999998 13.999999999999998
leaf_count=12 11 10 11 12 14 10 14 11 11 19 10 210 48 18 12 12 19 15 11 25 11 20 17 13 14 10 13 13 14
internal_value=-2.35897e-05 0.0513641 0.3458 -0.00199977 -0.30585 0.0145496 0.0731569 0.0934974 -0.252599 -0.327547 0.0728718 0.0482172 0.0848731 -0.288605 0.273595 0.144924 0.478552 -0.236042 -0.185276 -0.303735 0.416509 0.498526 -0.418802 -0.453067 -0.380883 -0.208244 0.308901 -0.28618 -0.0187118
internal_weight=640 548 84 464 92 24 357 333 107 81 321 286 258 28 35 23 74 62 51 36 55 31 68 57 40 24 24 26 26
internal_count=640 548 84 464 92 24 357 333 107 81 321 286 258 28 35 23 74 62 51 36 55 31 68 57 40 24 24 26 26
is_linear=0
shrinkage=0.02


Tree=6
num_leaves=30
num_cat=0
split_feature=0 1 0 0 0 8 8 1 0 1 0 0 8 1 0 0 0 0 1 1 0 0 0 11 8 0 11 1 0
split_gain=24163.4 20683.9 26278.1 20996.5 8007.8 4916.99 4913.47 9005.36 4506.47 5232.9 3813.15 8488.94 4381.97 3436.13 2619.56 4516.3 1879.37 1437.99 3508.73 1265.45 1144.03 981.665 1589.45 1533.43 747.656 635.682 1186.25 269.939 63.617
threshold=1.3063266980499593 0.67265314271065391 -1.591771675354823 -0.77025019232331615 1.6302119644607382 -2.0888937715023403 1.1457813641464354 -1.1375105712266642 -1.1413687267523336 0.1016843496067829 -0.59312543725492139 -0.48178987692621617 1.081248358070154 -0.82501368514807727 -0.66060153442383374 -0.72470382673430034 -1.3016244575285003 -0.81242275305388623 -0.25335092651016594 -0.13134987525287181 -1.3859695789896407 1.3501861612097523 1.4244098680955555 1.3668588910838519 1.1515402711757667 -1.5242955781859109 -1.3069799306192156 1.4628187880097536 -1.2105317263504689
decision_type=2 2 2 2 2 2 2 2 2 2 2 2 2 2 2 2 2 2 2 2 2 2 2 2 2 2 2 2 2
left_child=1 3 -3 8 21 -6 7 -5 28 17 14 13 -13 -12 15 -9 20 18 -10 -20 25 -2 -23 27 -8 -4 -27 -24 -1
right_child=4 2 16 6 5 -7 24 10 9 -11 11 12 -14 -15 -16 -17 -18 -19 19 -21 -22 22 23 -25 -26 26 -28 -29 -30
leaf_value=0.015332565938145658 -0.23394661499573302 -0.61897267483248575 0.32123798567401474 0.62729617891232825 -0.22702974590003908 0.35108767632210608 -0.10843335510145685 0.43296720221235946 0.057737128423607863 -0.61088809263019661 -0.57830397902148767 0.12257606802299897 -0.089075965524463285 -0.11641885820673314 0.50664402386373719 -0.12591306721868592 0.64194428179276553 -0.45047683470319999 -0.47631636301676444 -0.2174846141556819 0.21144921652161253 -0.6073114575837788 -0.34603848668455156 -0.54242158199878443 -0.33557733712810101 0.61513769830179521 0.36954290698033659 -0.21274633928109668 -0.047175909881050714
leaf_weight=12.000000000000002 10.999999999999998 9.9999999999999982 11.999999999999998 11.999999999999998 14.000000000000002 9.9999999999999982 14.000000000000002 10.999999999999998 15.999999999999998 19 10.000000000000002 210 48 18 11.999999999999998 12.000000000000002 19 9.9999999999999982 10.999999999999995 25.000000000000004 9.9999999999999982 17 13.000000000000002 13.999999999999998 9.9999999999999982 16.999999999999993 16.000000000000007 12.999999999999998 13.999999999999998
leaf_count=12 11 10 12 12 14 10 14 11 16 19 10 210 48 18 12 12 19 10 11 25 10 17 13 14 10 17 16 13 14
internal_value=-2.80614e-05 0.050338 0.338925 -0.00196594 -0.299774 0.0142683 0.0716955 0.0916322 -0.24758 -0.321038 0.0714152 0.0472479 0.0831758 -0.282884 0.26817 0.142051 0.469045 -0.231356 -0.188415 -0.2977 0.408242 -0.410485 -0.444067 -0.373322 -0.204118 0.451385 0.497568 -0.280501 -0.0183393
internal_weight=640 548 84 464 92 24 357 333 107 81 321 286 258 28 35 23 74 62 52 36 55 68 57 40 24 45 33 26 26
internal_count=640 548 84 464 92 24 357 333 107 81 321 286 258 28 35 23 74 62 52 36 55 68 57 40 24 45 33 26 26
is_linear=0
shrinkage=0.02


Tree=7
num_leaves=30
num_cat=0
split_feature=0 1 0 0 0 5 8 1 0 1 0 0 8 1 0 0 0 5 1 1 0 0 0 11 8 0 11 1 0
split_gain=23212 19870 25246.1 20169.4 7693.22 4723.97 4720.28 8652.01 4329.17 5026.42 3663.87 8155.07 4208.65 3301.52 2516.61 4339.04 1805.07 1678.88 3994.96 1215.97 1098.84 942.918 1526.66 1473.05 718.359 610.505 1139.47 259.303 61.118
threshold=1.3063266980499593 0.67265314271065391 -1.591771675354823 -0.77025019232331615 1.6302119644607382 -1.6774452324790428 1.1457813641464354 -1.1375105712266642 -1.1413687267523336 0.1016843496067829 -0.59312543725492139 -0.48178987692621617 1.081248358070154 -0.82501368514807727 -0.66060153442383374 -0.72470382673430034 -1.3016244575285003 0.81748346034149155 -0.25335092651016594 -0.13134987525287181 -1.3859695789896407 1.3501861612097523 1.4244098680955555 1.3668588910838519 1.1515402711757667 -1.5242955781859109 -1.3069799306192156 1.4628187880097536 -1.2105317263504689
decision_type=2 2 2 2 2 2 2 2 2 2 2 2 2 2 2 2 2 2 2 2 2 2 2 2 2 2 2 2 2
left_child=1 3 -3 8 21 -6 7 -5 28 17 14 13 -13 -12 15 -9 20 -10 -19 -20 25 -2 -23 27 -8 -4 -27 -24 -1
right_child=4 2 16 6 5 -7 24 10 9 -11 11 12 -14 -15 -16 -17 -18 18 19 -21 -22 22 23 -25 -26 26 -28 -29 -30
leaf_value=0.01502846520794324 -0.22930982813104855 -0.60671578813307359 0.31486632756950445 0.61485393886723794 -0.22252133782028299 0.34413544154403236 -0.10628004895879865 0.42438587661262034 -0.45025220853788356 -0.59873427590774619 -0.56685243977178423 0.1201257083085195 -0.087298147871687604 -0.11410334118163387 0.49659487424803178 -0.12341560560809678 0.62917261692865978 0.095971568309708155 -0.46687582926707238 -0.21315224043401584 0.20726210943543089 -0.59523624197084302 -0.33917055413923181 -0.53165011500635895 -0.32893222729168314 0.60290691247460471 0.36219794077902828 -0.20852388918854808 -0.046239089052727882
leaf_weight=12.000000000000002 10.999999999999998 9.9999999999999982 11.999999999999998 11.999999999999998 14.000000000000002 9.9999999999999982 14.000000000000002 10.999999999999998 10.999999999999998 19 10.000000000000002 210 48 18 11.999999999999998 12.000000000000002 19 14.999999999999998 10.999999999999995 25.000000000000004 9.9999999999999982 17 13.000000000000002 13.999999999999998 9.9999999999999982 16.999999999999993 16.000000000000007 12.999999999999998 13.999999999999998
leaf_count=12 11 10 12 12 14 10 14 11 11 19 10 210 48 18 12 12 19 15 11 25 10 17 13 14 10 17 16 13 14
internal_value=-3.28779e-05 0.0493317 0.332184 -0.0019328 -0.293819 0.0139924 0.0702633 0.0898042 -0.242661 -0.31466 0.0699877 0.0462981 0.0815125 -0.277277 0.262853 0.139236 0.459724 -0.226764 -0.177755 -0.291785 0.400133 -0.402334 -0.435247 -0.365912 -0.200073 0.442416 0.487677 -0.274935 -0.0179742
internal_weight=640 548 84 464 92 24 357 333 107 81 321 286 258 28 35 23 74 62 51 36 55 68 57 40 24 45 33 26 26
internal_count=640 548 84 464 92 24 357 333 107 81 321 286 258 28 35 23 74 62 51 36 55 68 57 40 24 45 33 26 26
is_linear=0
shrinkage=0.02


Tree=8
num_leaves=29
num_cat=0
split_feature=0 1 0 0 0 8 8 1 0 1 0 0 8 1 0 0 0 0 1 1 0 0 0 11 1 1 1 0
split_gain=22298.2 19088.1 24254.7 19374.9 7391 4538.53 4535.69 4676.55 4158.83 4828.11 3520.44 7834.33 4042.19 3172.17 2417.72 4168.73 1733.7 1325.48 3236.11 1168.43 1055.43 905.7 1466.34 1415.05 588.858 1736.69 249.086 58.7171
threshold=1.3063266980499593 0.67265314271065391 -1.591771675354823 -0.77025019232331615 1.6302119644607382 -2.0888937715023403 1.1475405195699431 -1.1375105712266642 -1.1413687267523336 0.1016843496067829 -0.59312543725492139 -0.48178987692621617 1.081248358070154 -0.82501368514807727 -0.66060153442383374 -0.72470382673430034 -1.3016244575285003 -0.81242275305388623 -0.25335092651016594 -0.13134987525287181 -1.3859695789896407 1.3501861612097523 1.4244098680955555 1.3668588910838519 1.418468413294844 1.205878417987436 1.4628187880097536 -1.2105317263504689
decision_type=2 2 2 2 2 2 2 2 2 2 2 2 2 2 2 2 2 2 2 2 2 2 2 2 2 2 2 2
left_child=1 3 -3 8 21 -6 7 -5 27 17 14 13 -13 -12 15 -9 20 18 -10 -20 24 -2 -23 26 25 -4 -24 -1
right_child=4 2 16 6 5 -7 -8 10 9 -11 11 12 -14 -15 -16 -17 -18 -19 19 -21 -22 22 23 -25 -26 -27 -28 -29
leaf_value=0.01473037026145241 -0.22476494969548408 -0.5947016559260907 0.35956220083678786 0.40810983963180003 -0.21810248787521463 0.33732087390257581 -0.2310329799533514 0.41597461691847792 0.055360594240034589 -0.58682230999332452 -0.55562764432170586 0.11772433316917548 -0.085555821079722066 -0.1118338871529089 0.48674506817967439 -0.12096770629409914 0.61665503536843502 -0.43264061049659652 -0.45762243391157287 -0.20890616739888587 0.20315788797812889 -0.58340115820455274 -0.33243892385759416 -0.52109250034846311 0.34868190319383913 0.70461607229591594 -0.20438523949557588 -0.045320829026242515
leaf_weight=12.000000000000002 10.999999999999998 9.9999999999999982 15.000000000000002 17 14.000000000000002 9.9999999999999982 19 10.999999999999998 15.999999999999998 19 10.000000000000002 210 48 18 11.999999999999998 12.000000000000002 19 9.9999999999999982 10.999999999999995 25.000000000000004 9.9999999999999982 17 13.000000000000002 13.999999999999998 20 9.9999999999999982 12.999999999999998 13.999999999999998
leaf_count=12 11 10 15 17 14 10 19 11 16 19 10 210 48 18 12 12 19 10 11 25 10 17 13 14 20 10 13 14
internal_value=-3.74037e-05 0.0483456 0.325577 -0.00190007 -0.287982 0.0137218 0.0688597 0.0857838 -0.23784 -0.308407 0.0685887 0.0453674 0.0798824 -0.271781 0.257642 0.136477 0.450587 -0.222263 -0.181034 -0.285988 0.392185 -0.394344 -0.426602 -0.358648 0.433626 0.499881 -0.269479 -0.0176163
internal_weight=640 548 84 464 92 24 357 338 107 81 321 286 258 28 35 23 74 62 52 36 55 68 57 40 45 25 26 26
internal_count=640 548 84 464 92 24 357 338 107 81 321 286 258 28 35 23 74 62 52 36 55 68 57 40 45 25 26 26
is_linear=0
shrinkage=0.02


end of trees

feature_importances:
Column_0=115
Column_1=66
Column_8=28
Column_5=20
Column_11=13
Column_2=8
Column_3=6

parameters:
[boosting: gbdt]
[objective: regression]
[metric: l2]
[tree_learner: serial]
[device_type: cpu]
[data_sample_strategy: goss]
[data: ]
[valid: ]
[num_iterations: 3000]
[learning_rate: 0.02]
[num_leaves: 63]
[num_threads: -1]
[seed: 42]
[deterministic: 0]
[force_col_wise: 0]
[force_row_wise: 0]
[histogram_pool_size: -1]
[max_depth: 8]
[min_data_in_leaf: 10]
[min_sum_hessian_in_leaf: 0.001]
[bagging_fraction: 1]
[pos_bagging_fraction: 1]
[neg_bagging_fraction: 1]
[bagging_freq: 0]
[bagging_seed: 400]
[bagging_by_query: 0]
[feature_fraction: 0.9]
[feature_fraction_bynode: 1]
[feature_fraction_seed: 30056]
[extra_trees: 0]
[extra_seed: 12879]
[early_stopping_round: 100]
[early_stopping_min_delta: 0]
[first_metric_only: 0]
[max_delta_step: 0]
[lambda_l1: 0.05]
[lambda_l2: 0.1]
[linear_lambda: 0]
[min_gain_to_split: 0]
[drop_rate: 0.1]
[max_drop: 50]
[skip_drop: 0.5]
[xgboost_dart_mode: 0]
[uniform_drop: 0]
[drop_seed: 17869]
[top_rate: 0.3]
[other_rate: 0.1]
[min_data_per_group: 100]
[max_cat_threshold: 32]
[cat_l2: 10]
[cat_smooth: 10]
[max_cat_to_onehot: 4]
[top_k: 20]
[monotone_constraints: ]
[monotone_constraints_method: basic]
[monotone_penalty: 0]
[feature_contri: ]
[forcedsplits_filename: ]
[refit_decay_rate: 0.9]
[cegb_tradeoff: 1]
[cegb_penalty_split: 0]
[cegb_penalty_feature_lazy: ]
[cegb_penalty_feature_coupled: ]
[path_smooth: 0]
[interaction_constraints: ]
[verbosity: -1]
[saved_feature_importance_type: 0]
[use_quantized_grad: 0]
[num_grad_quant_bins: 4]
[quant_train_renew_leaf: 0]
[stochastic_rounding: 1]
[linear_tree: 0]
[max_bin: 255]
[max_bin_by_feature: ]
[min_data_in_bin: 3]
[bin_construct_sample_cnt: 200000]
[data_random_seed: 175]
[is_enable_sparse: 1]
[enable_bundle: 1]
[use_missing: 1]
[zero_as_missing: 0]
[feature_pre_filter: 1]
[pre_partition: 0]
[two_round: 0]
[header: 0]
[label_column: ]
[weight_column: ]
[group_column: ]
[ignore_column: ]
[categorical_feature: ]
[forcedbins_filename: ]
[precise_float_parser: 0]
[parser_config_file: ]
[objective_seed: 16083]
[num_class: 1]
[is_unbalance: 0]
[scale_pos_weight: 1]
[sigmoid: 1]
[boost_from_average: 1]
[reg_sqrt: 0]
[alpha: 0.9]
[fair_c: 1]
[poisson_max_delta_step: 0.7]
[tweedie_variance_power: 1.5]
[lambdarank_truncation_level: 30]
[lambdarank_norm: 1]
[label_gain: ]
[lambdarank_position_bias_regularization: 0]
[eval_at: ]
[multi_error_top_k: 1]
[auc_mu_weights: ]
[num_machines: 1]
[local_listen_port: 12400]
[time_out: 120]
[machine_list_filename: ]
[machines: ]
[gpu_platform_id: -1]
[gpu_device_id: -1]
[gpu_use_dp: 0]
[num_gpu: 1]

end of parameters

pandas_categorical:null
