tree
version=v4
num_class=1
num_tree_per_iteration=1
label_index=0
max_feature_idx=12
objective=regression
feature_names=Column_0 Column_1 Column_2 Column_3 Column_4 Column_5 Column_6 Column_7 Column_8 Column_9 Column_10 Column_11 Column_12
feature_infos=[-1.7861647911109237:1.6640141249087506] [-1.1010483592590303:2.4117204150198308] [-2.80125189971363:2.344421918538075] [-3.4505616073533636:1.1377723493837408] [-1.9325376946973805:1.7903257044097263] [-1.6640141249084788:1.7861647911112213] [-1.7760154527150409:1.6736058593400451] [-1.7822416729484392:1.6612445735588626] [-2.4094004440960308:1.1018154181603272] [-1.6851631124965036:1.5919165439263543] [-2.3527479178654032:1.1205740816062015] [-1.3735738413445557:1.3414709577010648] [-2.1627235764089607:1.1836923002932791]
tree_sizes=2962 3176 2993 3182 2754 2749 2871 3163 3001 3382 2849 2774 3440 2853 3416 2808 3654 2693 2688 3575 2644

Tree=0
num_leaves=31
num_cat=0
split_feature=11 8 0 11 5 0 0 0 8 1 0 1 11 1 1 0 1 1 5 0 8 8 3 1 1 5 1 11 5 1
split_gain=30493.6 17953.1 33200.4 9720.27 16307 9514.47 9898.99 8810.44 11619.1 7449.91 7222.25 5961.96 5940.96 5158.94 7056.3 3858.52 12437.7 8734.59 6100.55 2644.28 2158.37 3971.45 1819.38 1413.95 1271.42 837.096 542.485 395.352 146.024 122.711
threshold=-1.367736147676645 -0.43587528876907239 0.76434284600672353 -1.3462982001002015 1.4563428827229381 -0.97283432592310237 -0.8346890239803727 1.5517710670802829 -0.96418094365764306 0.48940002444364855 0.55885170936691309 0.17735533071672818 1.335787578186669 -0.48443061684064131 -0.97748141811235556 0.89040043402946434 0.069118565054586065 0.18816230804937867 -0.82650823188066735 0.68490929738965389 -0.79920270646820146 -0.91248738269579965 0.52450376765420204 2.09977376619088 0.60097667785869258 -0.95083900362911444 -0.20299398894255496 -1.3724672902852075 -0.61583664641798996 1.7447334503340737
decision_type=2 2 2 2 2 2 2 2 2 2 2 2 2 2 2 2 2 2 2 2 2 2 2 2 2 2 2 2 2 2
left_child=27 3 5 4 -2 11 26 8 12 -10 13 22 -5 14 -8 18 25 -18 -4 28 21 -11 -3 -6 -22 -17 -7 -1 -12 -9
right_child=1 2 15 7 23 6 10 29 9 20 19 -13 -14 -15 -16 16 17 -19 -20 -21 24 -23 -24 -25 -26 -27 -28 -29 -30 -31
leaf_value=420.2256052243157 420.37057941015775 419.25962107828349 419.57924652224006 418.74366525834768 419.63617590131838 419.92471375496922 419.55446172233701 419.6366961565688 418.92802346493937 419.65070434252425 419.23104909321495 419.58971912117192 419.27019799859261 419.2244573997807 419.7731222165832 420.33251974939225 419.44831840428441 420.12889066230008 420.12215800349475 419.64717104894623 419.45070270987583 419.13536903082871 418.87088314469497 419.35276967036447 419.70378586818646 420.59204920987139 420.12044446558991 420.39918627376397 419.32542471741249 419.72222601903195
leaf_weight=15.000000000000002 10.999999999999998 10.000000000000002 15.999999999999998 19 12.000000000000002 12.000000000000002 116 12.000000000000002 9.9999999999999982 11.000000000000002 11.999999999999995 14.999999999999998 15.999999999999998 10.999999999999998 120 11.000000000000002 11.999999999999998 20 17 10.999999999999998 11.999999999999998 12.999999999999998 9.9999999999999982 17 23 12.999999999999998 11.999999999999998 11.999999999999998 24.000000000000004 14.999999999999998
leaf_count=15 11 10 16 19 12 12 116 12 10 11 12 15 16 11 120 11 12 20 17 11 12 13 10 17 23 13 12 12 24 15
internal_value=419.649 419.62 419.687 419.446 419.718 419.6 419.634 419.362 419.279 419.43 419.603 419.287 418.983 419.646 419.666 420.032 420.133 419.874 419.859 419.376 419.516 419.371 419.062 419.47 419.617 420.476 420.024 420.305 419.293 419.684
internal_weight=640 613 442 171 40 353 318 131 104 69 294 35 35 247 236 89 56 32 33 47 59 24 20 29 35 24 24 27 36 27
internal_count=640 613 442 171 40 353 318 131 104 69 294 35 35 247 236 89 56 32 33 47 59 24 20 29 35 24 24 27 36 27
is_linear=0
shrinkage=1


Tree=1
num_leaves=32
num_cat=0
split_feature=11 8 0 11 5 0 0 0 8 1 5 0 1 11 1 0 1 1 5 0 8 8 8 1 1 0 5 1 11 0 1
split_gain=29295.1 17246.4 31895 9338.56 15666.7 9141.37 9510.25 8463.93 11160.7 7157.88 6957.74 5985.04 5728.26 5706.68 4199.24 3706.92 11949.9 8390.76 5860.4 2182.93 2073.47 3815.39 1747.99 1358.26 1221.44 966.603 803.969 521.142 379.872 358.003 117.888
threshold=-1.367736147676645 -0.43587528876907239 0.76434284600672353 -1.3462982001002015 1.4563428827229381 -0.97283432592310237 -0.8346890239803727 1.5517710670802829 -0.96418094365764306 0.48940002444364855 -0.52258856760667594 0.35681420527567081 0.17735533071672818 1.335787578186669 -0.48443061684064131 0.89040043402946434 0.069118565054586065 0.18816230804937867 -0.82650823188066735 0.68490929738965389 -0.79920270646820146 -0.91248738269579965 -0.038744854800420496 2.09977376619088 0.60097667785869258 0.45696954918414995 -0.95083900362911444 -0.20299398894255496 -1.3724672902852075 0.6089293813211526 1.7447334503340737
decision_type=2 2 2 2 2 2 2 2 2 2 2 2 2 2 2 2 2 2 2 2 2 2 2 2 2 2 2 2 2 2 2
left_child=28 3 5 4 -2 12 27 8 13 -10 19 14 22 -5 -12 18 26 -18 -4 29 21 -11 -3 -6 -22 -13 -17 -7 -1 -8 -9
right_child=1 2 15 7 23 6 10 30 9 20 11 25 -14 -15 -16 16 17 -19 -20 -21 24 -23 -24 -25 -26 -27 -28 -29 -30 -31 -32
leaf_value=0.56540539810989066 0.70753375938346796 -0.76245264743814378 -0.068111162837247663 -0.8870669307009712 -0.012313822596526341 0.27050097946293089 -0.26984705957873112 -0.011803876880771856 -0.70644383798731436 0.0019265015060837198 -0.016199128114241828 0.18234156798367473 -0.057847200024206916 -0.37101709762715401 -0.4158723087138958 0.67022845843890755 -0.19644521161544423 0.47059650024964439 0.46400610858236835 -0.0015367717571086713 -0.19410820827011235 -0.50318083828642168 -0.38141250459274434 -0.29008445385603876 0.053950796251173147 0.42447936879526266 0.92458814111374721 0.46234941750518543 0.73556248207722819 -0.39417867395448386 0.072027111937668156
leaf_weight=15.000000000000002 10.999999999999998 9.9999999999999982 15.999999999999998 19 12.000000000000002 12.000000000000002 26 12.000000000000002 9.9999999999999982 11.000000000000002 200 20.000000000000004 14.999999999999998 15.999999999999998 10.999999999999998 11.000000000000002 11.999999999999998 20 17 10.999999999999998 11.999999999999998 12.999999999999998 10.000000000000002 17 23 9.9999999999999982 12.999999999999998 11.999999999999998 11.999999999999998 15.999999999999998 14.999999999999998
leaf_count=15 11 10 16 19 12 12 26 12 10 11 200 20 15 16 11 11 12 20 17 11 12 13 10 17 23 10 13 12 12 16 15
internal_value=0 -0.0284445 0.0375432 -0.198937 0.0683836 -0.0477873 -0.013971 -0.28056 -0.362403 -0.214295 -0.0452692 0.000388548 -0.354089 -0.652916 -0.037227 0.375674 0.474771 0.220592 0.206553 -0.252511 -0.129809 -0.272584 -0.574828 -0.175617 -0.0313802 0.264229 0.811313 0.367987 0.643503 -0.318059 0.0348259
internal_weight=640 613 442 171 40 353 318 131 104 69 294 241 35 35 211 89 56 32 33 53 59 24 20 29 35 30 24 24 27 42 27
internal_count=640 613 442 171 40 353 318 131 104 69 294 241 35 35 211 89 56 32 33 53 59 24 20 29 35 30 24 24 27 42 27
is_linear=0
shrinkage=0.02


Tree=2
num_leaves=30
num_cat=0
split_feature=11 8 2 1 1 1 2 11 5 2 8 11 2 2 5 1 8 1 2 1 1 2 8 1 5 1 11 1 1
split_gain=28143.6 16615.2 31319.4 8813.4 12104.8 8211.38 8107 8039.17 15051.4 6781.82 12936.6 5481.64 4530.91 6685.92 5629.71 4763.49 3181.26 2446.59 2340.71 3996.14 4242.41 3256.93 1429.84 1304.76 772.152 500.638 364.997 118.376 113.255
threshold=-1.367736147676645 -0.29552007708484657 0.39654034497436513 0.069118565054586065 0.18816230804937867 -0.067751948350732658 -0.24641111367273175 -1.3462982001002015 1.4563428827229381 1.9095998557031248 -0.96418094365764306 1.335787578186669 0.26689808585699726 0.13112622609216529 -0.82650823188066735 -0.48443061684064131 -0.13349879094223485 -0.58096626360794434 0.82285722619448665 0.58508162586697854 0.82037468862392782 1.0140914143390776 -0.43587528876907239 2.09977376619088 -0.95083900362911444 -0.20299398894255496 -1.3724672902852075 0.77046503386073184 1.7447334503340737
decision_type=2 2 2 2 2 2 2 2 2 2 2 2 2 2 2 2 2 2 2 2 2 2 2 2 2 2 2 2 2
left_child=26 7 5 24 -5 6 25 8 -2 10 11 -9 13 15 -14 -8 -7 -15 19 22 -21 -20 -12 -10 -4 -3 -1 -23 -11
right_child=1 2 3 4 -6 16 12 9 23 28 18 -13 14 17 -16 -17 -18 -19 21 20 -22 27 -24 -25 -26 -27 -28 -29 -30
leaf_value=0.55417217444110378 0.69351059372360635 0.26513568657488856 0.65694465585657047 -0.19254877894377903 0.72250699429898646 -0.070407401830843167 0.016312604547809213 -0.86941846647811816 -0.012069581086970555 -0.011569765993386258 -0.60020601918874672 -0.36364284209212899 -0.066757406151813012 -0.3423104231113212 0.4547802439349436 -0.40762980727462078 -0.52039742366612307 -0.0015063203347695838 0.20614938846304398 0.20301356478854338 -0.35000566310710729 -0.13729487541878574 -0.30337786526080002 -0.28431671280609933 0.906237520989571 0.45317885296403865 0.72097278460983405 -0.22950603624053348 0.070596102784011544
leaf_weight=15.000000000000002 10.999999999999998 12.000000000000002 11.000000000000002 12.000000000000002 10.999999999999998 10.000000000000002 236 19 12.000000000000002 12.000000000000002 12.000000000000002 15.999999999999998 15.999999999999998 36 17 10.999999999999998 17 10.999999999999998 11.999999999999998 11.000000000000002 10.999999999999998 10.000000000000002 14.999999999999998 17 12.999999999999998 11.999999999999998 11.999999999999998 14.999999999999998 14.999999999999998
leaf_count=15 11 12 11 12 11 10 236 19 12 12 12 16 16 36 17 11 17 11 12 11 11 10 15 17 13 12 12 15 15
internal_value=0 -0.0278785 0.0413762 0.527702 0.246277 -0.0192139 0.00667941 -0.184383 0.0670352 -0.252339 -0.316247 -0.63993 -0.0194022 -0.0443673 0.202446 -0.0027207 -0.354646 -0.262742 -0.183913 -0.274463 -0.0737834 -0.0635529 -0.437066 -0.172126 0.79522 0.360689 0.63073 -0.193355 0.0341331
internal_weight=640 613 425 47 23 378 351 188 40 148 121 35 327 294 33 247 27 47 86 49 22 37 27 29 24 24 27 25 27
internal_count=640 613 425 47 23 378 351 188 40 148 121 35 327 294 33 247 27 47 86 49 22 37 27 29 24 24 27 25 27
is_linear=0
shrinkage=0.02


Tree=3
num_leaves=32
num_cat=0
split_feature=11 8 0 11 5 0 0 0 8 1 5 0 1 11 5 0 1 1 5 0 8 8 3 1 1 0 5 0 1 11 5
split_gain=27037.1 15980.4 29533 8641.55 14460.4 8441.32 8777.67 7833.36 10257.4 6771.03 6440.55 5732.64 5393.07 5265.48 3914.92 3449.86 10958.2 7815.1 5408.09 2019.48 1918.35 3669.64 1707.24 1253.37 1148.9 928.877 741.593 480.94 355.238 350.703 111.486
threshold=-1.367736147676645 -0.43587528876907239 0.76434284600672353 -1.3462982001002015 1.4563428827229381 -0.97283432592310237 -0.8346890239803727 1.5517710670802829 -0.96418094365764306 0.48940002444364855 -0.52258856760667594 0.35681420527567081 0.17735533071672818 1.335787578186669 -0.0079973178700072454 0.89040043402946434 0.069118565054586065 0.18816230804937867 -0.82650823188066735 0.68490929738965389 -0.79920270646820146 -0.91248738269579965 0.52450376765420204 2.09977376619088 0.60097667785869258 0.45696954918414995 -0.95083900362911444 -0.90376167495173754 -0.72373272685714751 -1.3724672902852075 -1.6139364529542226
decision_type=2 2 2 2 2 2 2 2 2 2 2 2 2 2 2 2 2 2 2 2 2 2 2 2 2 2 2 2 2 2 2
left_child=29 3 5 4 -2 12 27 8 13 -10 19 14 22 -5 -12 18 26 -18 -4 28 21 -11 -3 -6 -22 -13 -17 -7 -8 -1 -9
right_child=1 2 15 7 23 6 10 30 9 20 11 25 -14 -15 -16 16 17 -19 -20 -21 24 -23 -24 -25 -26 -27 -28 -29 -30 -31 -32
leaf_value=0.5431621212990867 0.67976533219620994 -0.36355488692179749 -0.065430553744298334 -0.85212115362676655 -0.011830182036092457 0.44419018958225709 -0.38558566769227298 -0.0056802508847933275 -0.68535980224609372 0.0073055305137290595 -0.17449989244619199 0.1783882510424846 -0.052830520465673991 -0.35641516091290465 0.0173177593339046 0.64392413783717783 -0.18872964591034191 0.45502619726740895 0.44573782502559189 -0.0014764497086808487 -0.18767776363152119 -0.48801151188275288 -0.73972290072110625 -0.2786636322004753 0.052900854602004541 0.41575082778930667 0.88825114330262633 0.25987677960356403 -0.26036818886704988 0.7066725253270677 0.075396681851103112
leaf_weight=15.000000000000002 10.999999999999998 10.000000000000002 15.999999999999998 19 12.000000000000002 12.000000000000002 14.999999999999995 14.000000000000002 9.9999999999999982 11.000000000000002 59 20.000000000000004 14.999999999999998 15.999999999999998 152 11.000000000000002 11.999999999999998 20 17 10.999999999999998 11.999999999999998 12.999999999999998 9.9999999999999982 17 23 9.9999999999999982 12.999999999999998 11.999999999999998 27.000000000000004 11.999999999999998 12.999999999999998
leaf_count=15 11 10 16 19 12 12 15 14 10 11 59 20 15 16 152 11 12 20 17 11 12 13 10 17 23 10 13 12 27 12 13
internal_value=2.60716e-06 -0.0273215 0.0361981 -0.191438 0.0657133 -0.0459121 -0.0134163 -0.269955 -0.348691 -0.206699 -0.043485 0.000442865 -0.340252 -0.627202 -0.036371 0.361568 0.457167 0.213751 0.198419 -0.242876 -0.12453 -0.261861 -0.554433 -0.168704 -0.0298545 0.258661 0.779446 0.353536 -0.305922 0.61821 0.0334541
internal_weight=640 613 442 171 40 353 318 131 104 69 294 241 35 35 211 89 56 32 33 53 59 24 20 29 35 30 24 24 42 27 27
internal_count=640 613 442 171 40 353 318 131 104 69 294 241 35 35 211 89 56 32 33 53 59 24 20 29 35 30 24 24 42 27 27
is_linear=0
shrinkage=0.02


Tree=4
num_leaves=28
num_cat=0
split_feature=11 8 0 8 3 0 8 11 5 0 3 5 3 3 5 8 0 0 5 3 3 2 0 8 5 11 3
split_gain=25974.2 15440.4 29025.6 8059.15 11301 7512.38 7604.27 7452.15 13892.5 6288.91 11936.4 4061.06 5723.86 10550 3802.13 2985.25 2603.49 2244.81 5071.13 2302.41 1930.67 1204 975.977 2502.3 712.242 336.968 112.909
threshold=-1.367736147676645 -0.29552007708484657 0.89040043402946434 -0.069910572619487812 0.60431900353119283 -0.97283432592310237 0.33144490583225988 -1.3462982001002015 1.4563428827229381 1.5517710670802829 0.87968991162709032 0.74834821026644371 -0.015950544339253872 -0.31192595168310339 -1.505147027674328 -0.13349879094223485 0.81269370168667898 -1.2525785623571299 1.1489695859003766 0.82768942544773993 0.92833334221280761 -2.4308337262653756 -0.90376167495173754 0.26649523206986941 -0.95083900362911444 -1.3724672902852075 1.0496989099127458
decision_type=2 2 2 2 2 2 2 2 2 2 2 2 2 2 2 2 2 2 2 2 2 2 2 2 2 2 2
left_child=25 7 5 4 -4 15 22 8 -2 10 17 12 13 -8 -12 -3 -14 -9 19 -19 -16 -10 -7 -24 -5 -1 -11
right_child=1 2 3 24 -6 6 11 9 21 26 14 -13 16 -15 20 -17 -18 18 -20 -21 -22 -23 23 -25 -26 -27 -28
leaf_value=0.53237084483468755 0.66629251566019154 -0.063886496595817022 -0.18498622358337902 0.63116164027033606 0.69916851490467524 0.43537979630399343 0.02222998500725723 0.025408281156529929 -0.27312295166372552 -0.012835749437001123 -0.26683735065632036 -0.39989390536471531 0.25320936685641027 -0.2808363430551602 -0.50485729848057759 -0.49974201709903471 -0.10569530940291907 -0.012615462944055293 -0.50473594107021935 -0.3289409283645281 -0.84575813295548419 -0.011595546627832836 0.013932568889018913 0.44135499557646191 0.87062171280839074 0.69265588051031446 0.069198996436516974
leaf_weight=15.000000000000002 10.999999999999998 10.000000000000002 12.000000000000002 11.000000000000002 10.999999999999998 11.999999999999998 195 19 17 12.000000000000002 10.999999999999998 10.999999999999998 41 60 12.000000000000002 17 9.9999999999999982 31 18 12.999999999999998 17 12.000000000000002 12.000000000000002 9.9999999999999982 12.999999999999998 11.999999999999998 14.999999999999998
leaf_count=15 11 10 12 11 11 12 195 19 17 12 11 11 41 60 12 17 10 31 18 13 17 12 12 10 13 12 15
internal_value=4.70209e-06 -0.0267769 0.0399844 0.508163 0.239023 -0.0183446 0.00642191 -0.177646 0.0644174 -0.243075 -0.304616 -0.0240953 -0.0104568 -0.049158 -0.586911 -0.339182 0.182747 -0.164647 -0.222853 -0.106632 -0.70695 -0.165351 0.290216 0.209379 0.763985 0.605939 0.0327894
internal_weight=640 613 425 47 23 378 351 188 40 148 121 317 306 255 40 27 51 81 62 44 29 29 34 22 24 27 27
internal_count=640 613 425 47 23 378 351 188 40 148 121 317 306 255 40 27 51 81 62 44 29 29 34 22 24 27 27
is_linear=0
shrinkage=0.02


Tree=5
num_leaves=28
num_cat=0
split_feature=11 8 0 1 1 0 8 11 5 0 1 5 1 1 5 8 0 0 5 1 1 1 0 8 5 11 5
split_gain=24953 14833.2 27885.6 7742.42 10857.4 7216.79 7305.83 7159.47 13347 6041.51 11467.1 3901.7 5497.55 10132.9 3652.28 2867.62 2500.88 2156.47 4871.28 2211.93 1854.3 1156.58 937.551 2404.16 684.05 323.769 111.21
threshold=-1.367736147676645 -0.29552007708484657 0.89040043402946434 0.069118565054586065 0.18816230804937867 -0.97283432592310237 0.33144490583225988 -1.3462982001002015 1.4563428827229381 1.5517710670802829 0.93764200909522744 0.74834821026644371 -0.59137576717046592 -0.77320000993544757 -1.505147027674328 -0.13349879094223485 0.81269370168667898 -1.2525785623571299 1.1489695859003766 0.75874199953034827 1.1281733282743072 2.09977376619088 -0.90376167495173754 0.26649523206986941 -0.95083900362911444 -1.3724672902852075 -1.6139364529542226
decision_type=2 2 2 2 2 2 2 2 2 2 2 2 2 2 2 2 2 2 2 2 2 2 2 2 2 2 2
left_child=25 7 5 24 -5 15 22 8 -2 10 17 12 13 -8 -12 -3 -14 -9 19 -19 -16 -10 -7 -24 -4 -1 -11
right_child=1 2 3 4 -6 6 11 9 21 26 14 -13 16 -15 20 -17 -18 18 -20 -21 -22 -23 23 -25 -26 -27 -28
leaf_value=0.52179393856730671 0.65308668669279624 -0.062621417163622239 0.61865216882379193 -0.18131707041716769 0.685311111587662 0.42674417290805788 0.021785605194811816 0.024902779344488812 -0.011365555061781701 -0.0069416062375332434 -0.26154867112099589 -0.39196806761595582 0.24815750212564955 -0.27522895953421189 -0.4948436314606468 -0.48980564256857706 -0.10360233420192608 -0.012363967987502118 -0.49469698774221849 -0.32241233388886192 -0.8289418841802586 -0.26769242852751968 0.013656186190518461 0.43261529752523592 0.85334221308467961 0.67891723175679364 0.074029768259470705
leaf_weight=15.000000000000002 10.999999999999998 10.000000000000002 11.000000000000002 12.000000000000002 10.999999999999998 11.999999999999998 195 19 12.000000000000002 14.000000000000002 10.999999999999998 10.999999999999998 41 60 12.000000000000002 17 9.9999999999999982 31 18 12.999999999999998 17 17 12.000000000000002 9.9999999999999982 12.999999999999998 11.999999999999998 12.999999999999998
leaf_count=15 11 10 11 12 11 12 195 19 12 14 11 11 41 60 12 17 10 31 18 13 17 17 12 10 13 12 13
internal_value=7.81317e-06 -0.026242 0.0391934 0.498086 0.234286 -0.0179787 0.00629568 -0.174115 0.0631471 -0.238246 -0.298565 -0.0236167 -0.0102483 -0.0481767 -0.575254 -0.332441 0.179098 -0.161375 -0.218424 -0.104515 -0.692904 -0.162064 0.284465 0.205233 0.748831 0.593911 0.032137
internal_weight=640 613 425 47 23 378 351 188 40 148 121 317 306 255 40 27 51 81 62 44 29 29 34 22 24 27 27
internal_count=640 613 425 47 23 378 351 188 40 148 121 317 306 255 40 27 51 81 62 44 29 29 34 22 24 27 27
is_linear=0
shrinkage=0.02


Tree=6
num_leaves=29
num_cat=0
split_feature=11 8 0 1 1 0 8 11 0 0 1 11 0 8 1 0 8 0 0 1 1 1 0 8 8 10 11 1
split_gain=23971.9 14249.8 26790.3 7438.13 10431.3 6932.83 7019.1 6878.28 12715.5 5803.88 11016.2 3508.32 3411.74 6110.78 6515.42 4563.01 2754.62 2071.61 4485.17 3500.58 1780.94 1380.32 900.636 2309.88 863.351 656.973 311.086 112.564
threshold=-1.367736147676645 -0.29552007708484657 0.89040043402946434 0.069118565054586065 0.18816230804937867 -0.97283432592310237 0.33144490583225988 -1.3462982001002015 -1.4511624338998039 1.5517710670802829 0.93764200909522744 1.3387016557177607 -0.74489457771759848 0.50109525809105726 -0.77320000993544757 0.81269370168667898 -0.13349879094223485 -1.2525785623571299 1.1597837728177873 0.75874199953034827 1.1281733282743072 2.09977376619088 -0.90376167495173754 0.26649523206986941 -0.43587528876907239 0.087855728673117708 -1.3724672902852075 1.7447334503340737
decision_type=2 2 2 2 2 2 2 2 2 2 2 2 2 2 2 2 2 2 2 2 2 2 2 2 2 2 2 2
left_child=26 7 5 25 -5 16 22 8 21 10 17 20 -8 15 -15 -14 -3 -9 24 -20 -12 -2 -7 -24 -19 -4 -1 -11
right_child=1 2 3 4 -6 6 12 9 -10 27 11 -13 13 14 -16 -17 -18 18 19 -21 -22 -23 23 -25 -26 -27 -28 -29
leaf_value=0.51142716717246339 0.010899388262333758 -0.061381390212786061 0.60639059083955771 -0.17772070388163413 0.67172836647377354 0.41827982941934883 -0.3272610863218916 0.024407336549609117 0.67584218166842325 -0.014049505123422162 -0.48502853677292485 -0.25636483304135432 0.41239651550534617 0.021350117199302389 -0.19683833083404664 -0.10155079945479291 -0.48006679908573974 -0.52128462674963549 0.10025374161688637 -0.31601330444102976 -0.81246000376361149 -0.26236989116110992 0.013385364753155665 0.42404865453738977 -0.2940598551958602 0.83640565318915694 0.66545110607935376 0.067854856276354264
leaf_weight=15.000000000000002 13.000000000000002 10.000000000000002 11.000000000000002 12.000000000000002 10.999999999999998 11.999999999999998 13.999999999999998 19 9.9999999999999982 12.000000000000002 12.000000000000002 10.999999999999998 22 195 76 9.9999999999999982 17 13.000000000000002 21 12.999999999999998 17 17 12.000000000000002 9.9999999999999982 14.999999999999998 12.999999999999998 11.999999999999998 14.999999999999998
leaf_count=15 13 10 11 12 11 12 14 19 10 12 12 11 22 195 76 10 17 13 21 13 17 17 12 10 15 13 12 15
internal_value=1.08367e-05 -0.0257178 0.038418 0.488208 0.229643 -0.01762 0.00617194 -0.170654 0.0619018 -0.233513 -0.292634 -0.563829 -0.0231475 -0.00898941 -0.0398856 0.251941 -0.325834 -0.158167 -0.214083 -0.0593378 -0.679138 -0.144277 0.278828 0.20117 -0.401072 0.733977 0.582122 0.0314985
internal_weight=640 613 425 47 23 378 351 188 40 148 121 40 317 303 271 32 27 81 62 34 29 30 34 22 28 24 27 27
internal_count=640 613 425 47 23 378 351 188 40 148 121 40 317 303 271 32 27 81 62 34 29 30 34 22 28 24 27 27
is_linear=0
shrinkage=0.02


Tree=7
num_leaves=32
num_cat=0
split_feature=11 8 0 11 5 0 0 0 8 1 5 0 1 11 5 0 1 1 5 8 8 3 0 0 1 0 5 0 0 11 5
split_gain=23029.4 13730.8 25354.7 7403.35 12340.5 7185.94 7653.91 6713.19 8727.18 6233.09 5836.61 5412.69 4895.59 4735.21 3917.94 2976.45 9210.26 6782.71 5127.51 1740.45 3728.22 1718.7 1618.52 1201.43 1063.44 892.789 630.966 376.54 369.652 298.9 110.933
threshold=-1.367736147676645 -0.43587528876907239 0.76434284600672353 -1.3462982001002015 1.4563428827229381 -0.97283432592310237 -0.8346890239803727 1.5517710670802829 -0.96418094365764306 0.48940002444364855 -0.52258856760667594 0.35681420527567081 0.17735533071672818 1.335787578186669 0.24411785817548587 0.89040043402946434 0.069118565054586065 0.18816230804937867 -0.82650823188066735 -0.79920270646820146 -0.91248738269579965 0.52450376765420204 0.68490929738965389 1.2374905051605729 2.09977376619088 0.45696954918414995 -0.95083900362911444 0.58820758602974321 -0.90376167495173754 -1.3724672902852075 -1.6139364529542226
decision_type=2 2 2 2 2 2 2 2 2 2 2 2 2 2 2 2 2 2 2 2 2 2 2 2 2 2 2 2 2 2 2
left_child=29 3 5 4 -2 12 28 8 13 -10 22 14 21 -5 -12 18 26 -18 -4 20 -11 -3 27 -21 -6 -13 -17 -8 -7 -1 -9
right_child=1 2 15 7 24 6 10 30 9 19 11 25 -14 -15 -16 16 17 -19 -20 23 -22 -23 -24 -25 -26 -27 -28 -29 -30 -31 -32
leaf_value=0.50126635564084077 0.62794566661387952 -0.32725452611942091 -0.073253002759092342 -0.79303284110823224 -0.011356298903788413 0.40998336413675091 -0.36838567708501752 -0.0081512332131676631 -0.65115624833815178 0.027239444148433094 -0.12433913340318571 0.17353742157938462 -0.040205015780909958 -0.32315963360093392 0.048103016665802557 0.59437203656445736 -0.1741956816428949 0.42553755366387058 0.42443599611695043 0.084383957997666598 -0.47185390516091852 -0.70358785582060868 -0.01406921773343473 -0.15016013785178617 -0.25715316605149652 0.40622377433399159 0.81980522818237778 -0.24017754052837834 0.24767621599938261 0.65225207699231857 0.07271428028135811
leaf_weight=15.000000000000002 10.999999999999998 10.000000000000002 15.999999999999998 19 12.000000000000002 12.000000000000002 14.999999999999998 14.000000000000002 9.9999999999999982 11.000000000000002 101 20.000000000000004 14.999999999999998 15.999999999999998 110 11.000000000000002 11.999999999999998 20 17 19 12.999999999999998 9.9999999999999982 10.999999999999998 15.999999999999998 17 9.9999999999999982 12.999999999999998 27 11.999999999999998 11.999999999999998 12.999999999999998
leaf_count=15 11 10 16 19 12 12 15 14 10 11 101 20 15 16 110 11 12 20 17 19 13 10 11 16 17 10 13 27 12 12 13
internal_value=1.42229e-05 -0.0252035 0.0336754 -0.17733 0.060685 -0.0424047 -0.0124222 -0.250005 -0.322894 -0.191917 -0.0405005 0.00131654 -0.313977 -0.579795 -0.0344554 0.335151 0.423949 0.200764 0.18361 -0.113093 -0.243897 -0.518035 -0.230313 -0.02293 -0.155867 0.252225 0.719418 -0.286756 0.330236 0.570567 0.0308718
internal_weight=640 613 442 171 40 353 318 131 104 69 294 241 35 35 211 89 56 32 33 59 24 20 53 35 29 30 24 42 24 27 27
internal_count=640 613 442 171 40 353 318 131 104 69 294 241 35 35 211 89 56 32 33 59 24 20 53 35 29 30 24 42 24 27 27
is_linear=0
shrinkage=0.02


Tree=8
num_leaves=30
num_cat=0
split_feature=11 8 0 1 1 11 0 8 0 0 1 11 0 8 1 0 8 0 0 1 0 0 8 8 10 0 1 11 1
split_gain=22124.1 13244.4 24826.9 6801.48 9737.56 6379.63 6339.41 6539.05 5885.69 5238.74 11174.7 4631.1 3305.81 5658.48 6150.04 4339.32 2584.51 1846.11 4138.76 3495.04 2283.42 815.702 2251.35 755.467 605.988 575.518 474.656 287.189 112.221
threshold=-1.367736147676645 -0.29552007708484657 0.89040043402946434 0.069118565054586065 0.18816230804937867 -1.3474821412268969 -0.97283432592310237 0.33144490583225988 -1.4667037803683611 1.5517710670802829 0.97925515301958355 1.335787578186669 -0.74489457771759848 0.50109525809105726 -0.77320000993544757 0.81269370168667898 -0.13349879094223485 -1.2525785623571299 1.1597837728177873 0.75874199953034827 -1.3199243970542105 -0.90376167495173754 0.26649523206986941 -0.43587528876907239 0.087855728673117708 1.4170793976861213 2.09977376619088 -1.3724672902852075 1.7447334503340737
decision_type=2 2 2 2 2 2 2 2 2 2 2 2 2 2 2 2 2 2 2 2 2 2 2 2 2 2 2 2 2
left_child=27 5 6 24 -5 8 16 21 26 10 17 25 -9 15 -15 -14 -3 20 23 -20 -7 -8 -23 -19 -4 -12 -2 -1 -11
right_child=1 2 3 4 -6 9 7 12 -10 28 11 -13 13 14 -16 -17 -18 18 19 -21 -22 22 -24 -25 -26 -27 -28 -29 -30
leaf_value=0.49130742022533275 0.0026626137459632182 -0.055428888797759993 0.58259165643571709 -0.17074053614592746 0.64998074643246773 -0.18187850321619958 0.4018514675739383 -0.32171751414630428 0.4329501367994576 -0.01521311153065074 -0.89237556684135189 -0.31673659324645992 0.39913835014153387 0.021336364771756437 -0.19064562781861988 -0.10203143431408572 -0.46093371787266424 -0.50475255216350978 0.10069113564152288 -0.28408328742311711 0.22544944158875119 0.0097986539730355732 0.41519569019279856 -0.29173698087401734 0.80353430347588228 -0.65204297625192331 -0.17486479449745834 0.63931484332754596 0.066561577904303351
leaf_weight=15.000000000000002 10.000000000000002 10.000000000000002 11.000000000000002 12.000000000000002 10.999999999999998 12.000000000000002 11.999999999999998 13.999999999999998 11.999999999999998 12.000000000000002 10.000000000000002 15.999999999999998 22 195 76 9.9999999999999982 17 13.000000000000002 21 17 9.9999999999999982 12.000000000000002 9.9999999999999982 14.999999999999998 12.999999999999998 9.9999999999999982 14.999999999999998 11.999999999999998 14.999999999999998
leaf_count=15 10 10 11 12 11 12 12 14 12 12 10 16 22 195 76 10 17 13 21 17 10 12 10 15 13 10 15 12 15
internal_value=1.62961e-05 -0.0247007 0.0371309 0.470125 0.22285 -0.16443 -0.0168144 0.00593637 0.0707582 -0.222075 -0.277006 -0.57341 -0.0223626 -0.00842615 -0.0381572 0.242662 -0.311542 -0.155226 -0.208044 -0.0717124 0.00340767 0.269104 0.19516 -0.392117 0.705148 -0.776101 -0.104086 0.559242 0.0302583
internal_weight=640 613 425 47 23 188 378 351 37 151 124 36 317 303 271 32 27 88 66 38 22 34 22 28 24 20 25 27 27
internal_count=640 613 425 47 23 188 378 351 37 151 124 36 317 303 271 32 27 88 66 38 22 34 22 28 24 20 25 27 27
is_linear=0
shrinkage=0.02


Tree=9
num_leaves=35
num_cat=0
split_feature=11 8 0 11 5 0 5 1 0 8 1 1 11 2 0 0 1 1 5 1 5 5 3 8 8 0 0 1 5 1 1 0 11 5
split_gain=21254.3 12733.7 23443.6 6906.05 11552.6 6636.56 7148.37 7588.65 6228.93 8022.93 5887.87 4617.05 4386.02 3273.6 5771.55 2790.38 8437.18 6324.87 4871.46 2518.22 1772.15 3288.9 1675.81 1610.77 3598.78 1486.5 1161.32 965.927 581.997 548.202 370.933 1408.92 275.936 110.654
threshold=-1.367736147676645 -0.43587528876907239 0.76434284600672353 -1.3462982001002015 1.4563428827229381 -0.97283432592310237 -0.52258856760667594 -0.97748141811235556 1.5517710670802829 -0.96418094365764306 0.48940002444364855 0.17735533071672818 1.335787578186669 1.0000000180025095e-35 -0.8346890239803727 0.89040043402946434 0.069118565054586065 0.18816230804937867 -0.82650823188066735 -0.91192709726054832 -0.0079973178700072454 0.14396251426700271 0.52450376765420204 -0.79920270646820146 -0.91248738269579965 0.68490929738965389 1.2374905051605729 2.09977376619088 -0.95083900362911444 -1.0797000574294591 -0.72373272685714751 0.6089293813211526 -1.3724672902852075 -1.6139364529542226
decision_type=2 2 2 2 2 2 2 2 2 2 2 2 2 2 2 2 2 2 2 2 2 2 2 2 2 2 2 2 2 2 2 2 2 2
left_child=32 3 5 4 -2 11 25 20 9 12 -11 22 -5 14 -9 18 28 -18 -4 -15 29 -22 -3 24 -12 30 -25 -6 -17 -8 -7 -32 -1 -10
right_child=1 2 15 8 27 6 7 13 33 10 23 -13 -14 19 -16 16 17 -19 -20 -21 21 -23 -24 26 -26 -27 -28 -29 -30 -31 31 -33 -34 -35
leaf_value=0.48154635644116933 0.60802670246845969 -0.31164682067266775 -0.074683470400223814 -0.76265467937080023 -0.012606302686959257 -0.35868295416926715 -0.25232719556980221 0.31857769178651674 -0.0093111554950687046 -0.63186363031368442 0.03159342447916666 -0.035801083694230643 -0.31044120131072045 0.12012968701777663 -0.040883918664217339 0.57104482470331941 -0.16735397480736094 0.41178655833154176 0.41040548938059668 0.38943256895432526 0.16586150743160008 -0.13584886208795774 -0.68293694260096782 0.083329954646644805 -0.45872075277430413 -0.016387849691751843 -0.14726497810079445 -0.24688496639854027 0.78758627978900009 -0.12237144981014762 -0.0564573729575217 -0.3508378792586534 0.62663424342131813 0.07144818462488306
leaf_weight=15.000000000000002 10.999999999999998 10.000000000000002 15.999999999999998 19 12.000000000000002 14.999999999999995 21 24 14.000000000000002 9.9999999999999982 11.000000000000002 14.999999999999998 15.999999999999998 30 69 11.000000000000002 11.999999999999998 20 17 26 24 36 9.9999999999999982 19 12.999999999999998 10.999999999999998 15.999999999999998 17 12.999999999999998 35 11.000000000000005 15.999999999999998 11.999999999999998 12.999999999999998
leaf_count=15 11 10 16 19 12 15 21 24 14 10 11 15 16 30 69 11 12 20 17 26 24 36 10 19 13 11 16 17 13 35 11 16 12 13
internal_value=1.79001e-05 -0.0242084 0.0324924 -0.170707 0.0591727 -0.0406643 -0.0118506 0.0305753 -0.240899 -0.31111 -0.185524 -0.301649 -0.55743 0.124975 0.0521122 0.322384 0.408358 0.194733 0.175666 0.245652 -0.0906738 -0.0150729 -0.499816 -0.108916 -0.234753 -0.223657 -0.0221756 -0.150353 0.691161 -0.171486 -0.27775 -0.231593 0.548141 0.0296562
internal_weight=640 613 442 171 40 353 318 265 131 104 69 35 35 149 93 89 56 32 33 56 116 60 20 59 24 53 35 29 24 56 42 27 27 27
internal_count=640 613 442 171 40 353 318 265 131 104 69 35 35 149 93 89 56 32 33 56 116 60 20 59 24 53 35 29 24 56 42 27 27 27
is_linear=0
shrinkage=0.02


Tree=10
num_leaves=29
num_cat=0
split_feature=11 8 0 1 1 11 5 0 8 0 1 5 1 1 5 8 0 0 0 1 1 1 8 0 5 5 11 1
split_gain=20419 12311.2 23008 6218.63 9090.15 5958.74 11099 5794.59 6092.39 5001.89 9440.52 3519.99 4766.52 8764.79 3133.59 2425.1 2277.77 1941.5 4244.54 3177.82 1621.35 927.878 758.083 2200.21 684.672 558.954 265.123 111.878
threshold=-1.367736147676645 -0.29552007708484657 0.89040043402946434 0.069118565054586065 0.18816230804937867 -1.3462982001002015 1.4563428827229381 -0.97283432592310237 0.33144490583225988 1.5517710670802829 0.93764200909522744 0.74834821026644371 -0.59137576717046592 -0.77320000993544757 -1.505147027674328 -0.13349879094223485 0.81269370168667898 -1.2525785623571299 1.1597837728177873 0.75874199953034827 1.1281733282743072 2.09977376619088 0.26649523206986941 -0.90376167495173754 1.1489695859003766 -0.95083900362911444 -1.3724672902852075 1.7447334503340737
decision_type=2 2 2 2 2 2 2 2 2 2 2 2 2 2 2 2 2 2 2 2 2 2 2 2 2 2 2 2
left_child=26 5 7 25 -5 6 -2 15 22 10 17 12 13 -10 -12 -3 -14 -7 24 -20 -16 -8 23 -9 -19 -4 -1 -11
right_child=1 2 3 4 -6 9 21 8 11 27 14 -13 16 -15 20 -17 -18 18 19 -21 -22 -23 -24 -25 -26 -27 -28 -29
leaf_value=0.47197919422427542 0.59597572498493367 -0.049777983108369409 0.55972681767231691 -0.16403455056434815 0.62893670778016786 0.029366677419053317 -0.012356258739124642 0.38756195998388876 0.020837272723963903 -0.016328523888075642 -0.23244822596644493 -0.37147977880529454 0.23330485099133494 -0.25539979907319871 -0.44696241363020955 -0.44253267622830572 -0.10237441903293724 -0.24640725003610736 0.10106209483756837 -0.29554230886561267 -0.75891934969271835 -0.24197613141690077 0.40611668048518718 0.005235454780011136 -0.45765070014237036 0.77195478024373532 0.61420512427968432 0.065317190814491929
leaf_weight=15.000000000000002 10.999999999999998 10.000000000000002 11.000000000000002 12.000000000000002 10.999999999999998 19 12.000000000000002 11.999999999999998 195 12.000000000000002 10.999999999999998 10.999999999999998 41 60 12.000000000000002 17 9.9999999999999982 10.000000000000002 21 12.999999999999998 17 17 9.9999999999999982 12.000000000000002 18 12.999999999999998 11.999999999999998 14.999999999999998
leaf_count=15 11 10 11 12 11 19 12 12 195 12 11 11 41 60 12 17 10 10 21 13 17 17 10 12 18 13 12 15
internal_value=1.69491e-05 -0.0237285 0.0358851 0.452717 0.21625 -0.158446 0.0580057 -0.0160465 0.00570457 -0.216953 -0.271837 -0.0216107 -0.00891319 -0.0442304 -0.522891 -0.297825 0.167394 -0.147355 -0.201488 -0.0509734 -0.631848 -0.147364 0.259725 0.197255 -0.383388 0.677451 0.537261 0.029067
internal_weight=640 613 425 47 23 188 40 378 351 148 121 317 306 255 40 27 51 81 62 34 29 29 34 24 28 24 27 27
internal_count=640 613 425 47 23 188 40 378 351 148 121 317 306 255 40 27 51 81 62 34 29 29 34 24 28 24 27 27
is_linear=0
shrinkage=0.02


Tree=11
num_leaves=28
num_cat=0
split_feature=11 8 0 1 1 11 5 0 0 0 1 5 1 1 11 5 1 8 0 0 1 1 5 5 8 11 5
split_gain=19616.2 11827.2 22104.3 5974.23 8733.35 5724.79 10663.2 5566.58 5889.35 4805.19 9069.18 3468.27 4999.16 8418.25 3030.41 2980.35 2657.49 2329.54 1865.17 4077.44 3052.84 891.328 657.524 536.822 371.267 254.733 110.374
threshold=-1.367736147676645 -0.29552007708484657 0.89040043402946434 0.069118565054586065 0.18816230804937867 -1.3462982001002015 1.4563428827229381 -0.97283432592310237 -0.8346890239803727 1.5517710670802829 0.93764200909522744 0.74834821026644371 -0.59137576717046592 -0.77320000993544757 1.335787578186669 -0.82650823188066735 1.1281733282743072 -0.13349879094223485 -1.2525785623571299 1.1597837728177873 0.75874199953034827 2.09977376619088 1.1489695859003766 -0.95083900362911444 0.2092405422052486 -1.3724672902852075 -1.6139364529542226
decision_type=2 2 2 2 2 2 2 2 2 2 2 2 2 2 2 2 2 2 2 2 2 2 2 2 2 2 2
left_child=25 5 7 23 -5 6 -2 17 24 10 18 12 13 -10 16 -14 -12 -3 -7 22 -21 -8 -20 -4 -9 -1 -11
right_child=1 2 3 4 -6 9 21 8 11 26 14 -13 15 -15 -16 -17 -18 -19 19 20 -22 -23 -24 -25 -26 -27 -28
leaf_value=0.46260213514037468 0.58416359394520245 -0.048792295609370297 0.54863310753762162 -0.16078095822294877 0.61647129436870951 0.028782421331755154 -0.012111181779341262 0.23751139363498547 0.020420741617587942 -0.01042333995196836 -0.43809704457432758 -0.36411711409285263 -0.075986997474054366 -0.25030029960956035 -0.29638084589324382 0.24128725331004075 -0.86585068556888067 -0.4337337635553371 -0.2415279033396503 0.09905043073175078 -0.28967658792743245 -0.2371649214538217 -0.44854826500402623 0.75663357292422817 0.4016405940291905 0.60202252600803852 0.070229553193536423
leaf_weight=15.000000000000002 10.999999999999998 10.000000000000002 11.000000000000002 12.000000000000002 10.999999999999998 19 12.000000000000002 14.000000000000002 195 14.000000000000002 12.000000000000002 10.999999999999998 15.999999999999998 60 15.999999999999998 45 11.999999999999998 17 10.000000000000002 21 12.999999999999998 17 18 12.999999999999998 9.9999999999999982 11.999999999999998 12.999999999999998
leaf_count=15 11 10 11 12 11 19 12 14 195 14 12 11 16 60 16 45 12 17 10 21 13 17 18 13 10 12 13
internal_value=1.90394e-05 -0.0232549 0.0351751 0.443739 0.211965 -0.155298 0.0568616 -0.0157264 0.00559238 -0.212645 -0.266439 -0.0166371 -0.00442675 -0.0433476 -0.512506 0.158063 -0.654721 -0.291906 -0.144429 -0.197487 -0.0499648 -0.144435 -0.375771 0.664014 0.307323 0.526596 0.0284885
internal_weight=640 613 425 47 23 188 40 378 351 148 121 327 316 255 40 61 24 27 81 62 34 29 28 24 24 27 27
internal_count=640 613 425 47 23 188 40 378 351 148 121 327 316 255 40 61 24 27 81 62 34 29 28 24 24 27 27
is_linear=0
shrinkage=0.02


Tree=12
num_leaves=35
num_cat=0
split_feature=11 8 0 11 0 0 2 0 8 1 1 11 1 0 1 5 0 1 1 5 0 0 1 3 0 0 1 1 1 5 5 11 1 1
split_gain=18845.1 11418.1 21038.5 6168.46 10261.3 5839.34 6716.78 5567.09 7065 5505.71 4315.95 3968.48 3299.01 6503.61 3081.04 4649.39 2469.21 7376.81 5715.77 4551.1 2127.75 2093.76 1930 1656.47 1554.47 2362.8 1379.82 1049.58 714.211 515.565 514.579 244.748 227.443 111.537
threshold=-1.367736147676645 -0.43587528876907239 0.76434284600672353 -1.3462982001002015 -1.4511624338998039 -0.97283432592310237 0.035024699025820394 1.5517710670802829 -0.96418094365764306 0.48940002444364855 0.17735533071672818 1.335787578186669 -0.76902860787623883 0.35681420527567081 -0.27366597439542528 0.51004756441523202 0.89040043402946434 0.069118565054586065 0.18816230804937867 -0.82650823188066735 0.2670197590128966 0.58820758602974321 -0.48443061684064131 0.52450376765420204 -1.3199243970542105 -1.2525785623571299 -0.85992517504511279 2.09977376619088 -0.58096626360794434 -0.95083900362911444 -0.4707840793781492 -1.3724672902852075 -0.20299398894255496 1.7447334503340737
decision_type=2 2 2 2 2 2 2 2 2 2 2 2 2 2 2 2 2 2 2 2 2 2 2 2 2 2 2 2 2 2 2 2 2 2
left_child=31 3 5 4 27 10 14 8 11 -10 23 -5 13 20 15 26 19 29 -19 -4 -8 -14 -17 -3 -11 -26 -7 -2 -23 -18 -15 -1 -16 -9
right_child=1 2 16 7 -6 6 12 33 9 24 -12 -13 21 30 32 22 17 18 -20 -21 -22 28 -24 -25 25 -27 -28 -29 -30 -31 -32 -33 -34 -35
leaf_value=0.45341137680786325 0.0058579775395284162 -0.28812380346921401 -0.074476709069672575 -0.72057815092396371 0.60725959211292835 0.14414034167823889 -0.084268647061144258 -0.017397627869913394 -0.60797909122882499 -0.31566323065542962 -0.026235771550248001 -0.29049005058241184 -0.48673307815400685 0.31079871237814966 0.23939551967205383 -0.0035437206524174389 0.53775932071445209 -0.15759190992875532 0.39296077206360158 0.39437947434988629 -0.36628243816785577 -0.2169151304040888 -0.2794138161462682 -0.65668161165596228 0.21925689999419867 -0.12484255741900345 0.40739283835533818 -0.23244934885125407 -0.025469375698416074 0.74161639771616183 0.14452189210539534 0.59008158092656415 0.37516381397720211 0.06411975229023309
leaf_weight=15.000000000000002 13.000000000000002 10.000000000000002 15.999999999999998 19 9.9999999999999982 39 94 12.000000000000002 9.9999999999999982 10.999999999999998 14.999999999999998 15.999999999999998 9.9999999999999982 10.999999999999998 10.000000000000002 45 11.000000000000002 11.999999999999998 20 17 11.999999999999998 26.999999999999996 12.999999999999998 9.9999999999999982 9.9999999999999982 38 9.9999999999999982 17 11.000000000000002 12.999999999999998 24 11.999999999999998 11.999999999999998 14.999999999999998
leaf_count=15 13 10 16 19 10 39 94 12 10 11 15 16 10 11 10 45 11 12 20 17 12 27 13 10 10 38 10 17 11 13 24 12 12 15
internal_value=2.01162e-05 -0.0227918 0.0309 -0.161517 0.0557401 -0.0384024 -0.0113743 -0.227854 -0.29423 -0.176374 -0.283211 -0.525383 -0.0872976 -0.0384681 0.0998357 0.0553633 0.305519 0.386398 0.186625 0.167487 -0.116519 -0.230335 -0.0657684 -0.474803 -0.102299 -0.0528276 0.198606 -0.129473 -0.161735 0.650842 0.197545 0.516144 0.314859 0.0279224
internal_weight=640 613 442 171 40 353 318 131 104 69 35 35 189 141 129 107 89 56 32 33 106 48 58 20 59 48 49 30 38 24 35 27 22 27
internal_count=640 613 442 171 40 353 318 131 104 69 35 35 189 141 129 107 89 56 32 33 106 48 58 20 59 48 49 30 38 24 35 27 22 27
is_linear=0
shrinkage=0.02


Tree=13
num_leaves=29
num_cat=0
split_feature=11 8 0 1 1 11 0 0 8 0 1 5 1 1 5 8 0 0 0 0 1 1 8 0 5 5 11 0
split_gain=18104.3 10994.1 20484 5462.24 8151.81 5307.95 9858.6 5086.15 5532.34 4456.98 8343.27 3144.98 4241.6 7841.57 2840.92 2185.43 2136.84 1765.9 3941.25 2961.32 1489.21 1008.27 808.332 2070.72 561.615 495.149 235.155 110.091
threshold=-1.367736147676645 -0.29552007708484657 0.89040043402946434 0.069118565054586065 0.18816230804937867 -1.3462982001002015 -1.4511624338998039 -0.97283432592310237 0.33144490583225988 1.5517710670802829 0.93764200909522744 0.74834821026644371 -0.59137576717046592 -0.77320000993544757 -1.505147027674328 -0.13349879094223485 0.81269370168667898 -1.2525785623571299 1.1597837728177873 1.2478514028062777 1.1281733282743072 2.09977376619088 0.26649523206986941 -0.90376167495173754 1.1489695859003766 -0.95083900362911444 -1.3724672902852075 1.6139364529545113
decision_type=2 2 2 2 2 2 2 2 2 2 2 2 2 2 2 2 2 2 2 2 2 2 2 2 2 2 2 2
left_child=26 5 7 25 -5 6 21 15 22 10 17 12 13 -10 -12 -3 -14 -7 24 -20 -16 -2 23 -9 -19 -4 -1 -11
right_child=1 2 3 4 -6 9 -8 8 11 27 14 -13 16 -15 20 -17 -18 18 19 -21 -22 -23 -24 -25 -26 -27 -28 -29
leaf_value=0.44440317858133876 0.0057417122644322508 -0.043561344506716948 0.52710104194847296 -0.15446614226033861 0.5964645475095457 0.028888745532610029 0.59523465411497822 0.36772253998054943 0.019577027077188495 0.069056530326377333 -0.21620945707097786 -0.35136245383872644 0.22150688831823584 -0.24170676234161201 -0.41940768092131797 -0.41636362934670246 -0.10359448763403563 -0.24203628988549256 0.20538940618846047 -0.18385190678937402 -0.71813204770896866 -0.22782755450198522 0.39840695447260793 -0.0029504905259313654 -0.43395160530153554 0.72689727560254458 0.57837749386621906 -0.011489656056072694
leaf_weight=15.000000000000002 13.000000000000002 10.000000000000002 11.000000000000002 12.000000000000002 10.999999999999998 19 9.9999999999999982 11.999999999999998 195 13.000000000000002 10.999999999999998 10.999999999999998 41 60 12.000000000000002 17 9.9999999999999982 10.000000000000002 11.999999999999998 22 17 17 9.9999999999999982 12.000000000000002 18 12.999999999999998 11.999999999999998 13.999999999999998
leaf_count=15 13 10 11 12 11 19 10 12 195 13 11 11 41 60 12 17 10 10 12 22 17 17 10 12 18 13 12 14
internal_value=2.1628e-05 -0.0223373 0.0339971 0.427301 0.205659 -0.149645 0.0546443 -0.0150032 0.00537471 -0.204864 -0.256673 -0.0206547 -0.0086523 -0.0419682 -0.492689 -0.278996 0.157664 -0.139645 -0.191272 -0.0462439 -0.596422 -0.126898 0.247438 0.183101 -0.366551 0.637933 0.505899 0.0273667
internal_weight=640 613 425 47 23 188 40 378 351 148 121 317 306 255 40 27 51 81 62 34 29 30 34 24 28 24 27 27
internal_count=640 613 425 47 23 188 40 378 351 148 121 317 306 255 40 27 51 81 62 34 29 30 34 24 28 24 27 27
is_linear=0
shrinkage=0.02


Tree=14
num_leaves=35
num_cat=0
split_feature=11 8 0 11 5 0 2 0 8 1 1 11 1 0 1 5 0 0 5 5 8 0 0 3 0 0 1 0 1 1 5 11 0 1
split_gain=17392.5 10594.6 19500.7 5713.44 9485.29 5370.67 6413.82 5157.5 6498.73 5236.84 4092.15 3728.83 3065.84 6247.52 2843.96 4396.66 2287.49 6807.34 5861.51 4368.31 2070.04 1978.77 1808.1 1613.42 1511.53 2216.86 1325.98 1298.03 784.849 619.83 494.503 225.936 195.707 111.197
threshold=-1.367736147676645 -0.43587528876907239 0.76434284600672353 -1.3462982001002015 1.4563428827229381 -0.97283432592310237 0.035024699025820394 1.5517710670802829 -0.96418094365764306 0.48940002444364855 0.17735533071672818 1.335787578186669 -0.76902860787623883 0.35681420527567081 -0.27366597439542528 0.51004756441523202 0.89040043402946434 1.0458138987150354 -1.0889843055718429 -0.82650823188066735 1.0814681496686531 0.58820758602974321 -0.62401743851770985 0.52450376765420204 -1.3199243970542105 -1.2525785623571299 -0.85992517504511279 0.96638035009796575 2.09977376619088 -0.58096626360794434 -0.4707840793781492 -1.3724672902852075 -0.90376167495173754 1.7447334503340737
decision_type=2 2 2 2 2 2 2 2 2 2 2 2 2 2 2 2 2 2 2 2 2 2 2 2 2 2 2 2 2 2 2 2 2 2
left_child=31 3 5 4 -2 10 14 8 11 -10 23 -5 13 20 15 26 19 27 -19 -4 -8 -14 -17 -3 -11 -26 -7 -18 -6 -23 -15 -1 -16 -9
right_child=1 2 16 7 28 6 12 33 9 24 -12 -13 21 30 32 22 17 18 -20 -21 -22 29 -24 -25 25 -27 -28 -29 -30 -31 -32 -33 -34 -35
leaf_value=0.43557399607652059 0.55089809864490957 -0.27417352355352714 -0.075677691868373323 -0.6941441882468018 -0.012101023965630647 0.1408743422110672 -0.18751549462319933 -0.01842226245186545 -0.5911449077341816 -0.30836392858006934 -0.021475060191375527 -0.2773014710704732 -0.4723085048411152 0.30425072609841286 0.36042886836469656 0.021351862699195059 0.711611338002341 0.36566936977660447 -0.23597636496666635 0.38365471957022679 -0.0075322441933049957 -0.2077765353579363 -0.21057730806947317 -0.63764786710833565 0.21434312423857133 -0.11895649023882048 0.39893799290798676 0.4280851527876105 -0.22329764918277137 -0.029354799916078367 0.14125354350355154 0.56690555320298375 0.2339186454999565 0.062967438350450128
leaf_weight=15.000000000000002 10.999999999999998 10.000000000000002 15.999999999999998 19 12.000000000000002 39 63 12.000000000000002 9.9999999999999982 10.999999999999998 14.999999999999998 15.999999999999998 9.9999999999999982 10.999999999999998 12.000000000000002 37 16.000000000000004 18.000000000000004 9.9999999999999982 17 43 26.999999999999996 21 9.9999999999999982 9.9999999999999982 38 9.9999999999999982 11.999999999999998 17 11.000000000000002 24 11.999999999999998 9.9999999999999982 14.999999999999998
leaf_count=15 11 10 16 19 12 39 63 12 10 11 15 16 10 11 12 37 16 18 10 17 43 27 21 10 10 38 10 12 17 11 24 12 10 15
internal_value=2.43149e-05 -0.0218907 0.0298287 -0.15552 0.05357 -0.0368928 -0.0109719 -0.219364 -0.283252 -0.170214 -0.271671 -0.504949 -0.0851633 -0.0380898 0.097701 0.0549714 0.294221 0.372068 0.150685 0.161362 -0.114589 -0.223054 -0.0628232 -0.458229 -0.0979732 -0.049197 0.194266 0.592092 -0.136282 -0.156367 0.193231 0.495857 0.304288 0.0268228
internal_weight=640 613 442 171 40 353 318 131 104 69 35 35 189 141 129 107 89 56 28 33 106 48 58 20 59 48 49 28 29 38 35 27 22 27
internal_count=640 613 442 171 40 353 318 131 104 69 35 35 189 141 129 107 89 56 28 33 106 48 58 20 59 48 49 28 29 38 35 27 22 27
is_linear=0
shrinkage=0.02


Tree=15
num_leaves=28
num_cat=0
split_feature=11 8 0 1 1 11 5 0 8 0 1 11 5 1 1 8 0 1 8 1 8 0 0 5 1 11 5
split_gain=16708.7 10218.1 18977 5002.16 7718.08 4929.51 5438.13 4645.69 5164.43 4023.95 8507.14 3716.89 3034.39 3941.06 7250.63 2050.21 2048.85 1917.82 2705.41 2832.45 820.097 1945.63 708.656 455.485 288.266 217.078 109.808
threshold=-1.367736147676645 -0.29552007708484657 0.89040043402946434 0.069118565054586065 0.18816230804937867 -1.3474821412268969 1.4563428827229381 -0.97283432592310237 0.33144490583225988 1.5517710670802829 0.97925515301958355 1.335787578186669 0.74834821026644371 -0.59137576717046592 -0.77320000993544757 -0.13349879094223485 0.81269370168667898 0.91185808877566954 -0.79920270646820146 0.60097667785869258 0.26649523206986941 -0.90376167495173754 1.4170793976861213 -0.95083900362911444 2.09977376619088 -1.3724672902852075 -1.6139364529542226
decision_type=2 2 2 2 2 2 2 2 2 2 2 2 2 2 2 2 2 2 2 2 2 2 2 2 2 2 2
left_child=25 5 7 23 -5 6 -2 15 20 10 17 22 13 14 -10 -3 -15 18 -7 -20 21 -9 -12 -4 -8 -1 -11
right_child=1 2 3 4 -6 9 24 8 12 26 11 -13 -14 16 -16 -17 -18 -19 19 -21 -22 -23 -24 -25 -26 -27 -28
leaf_value=0.42692020507443018 0.45853375198817492 -0.038613069582693636 0.50663684157637845 -0.15111228722186126 0.57956331820101359 -0.43694059240909022 -0.011861016454775469 0.35327986559592001 0.018875077436790292 -0.012511889410357101 -0.80779535123617308 -0.27178987799223903 -0.3448216862721486 0.21464102258647444 -0.23237057467466979 -0.39965779957018399 -0.10368284319887067 0.08693160894262883 -0.22377315132209408 0.055701131387190385 0.39101895096278427 -0.0059964916134668768 -0.55167705838042913 0.69834674325608126 -0.1433853442463654 0.55566112928154054 0.067927321878098357
leaf_weight=15.000000000000002 9.9999999999999982 10.000000000000002 11.000000000000002 12.000000000000002 10.999999999999998 12.999999999999998 12.000000000000002 11.999999999999998 195 14.000000000000002 10.000000000000002 15.999999999999998 10.999999999999998 41 60 17 9.9999999999999982 12.999999999999998 39 23 9.9999999999999982 12.000000000000002 9.9999999999999982 12.999999999999998 14.999999999999998 11.999999999999998 12.999999999999998
leaf_count=15 10 10 11 12 11 13 12 12 195 14 10 16 11 41 60 17 10 13 39 23 10 12 10 13 15 12 13
internal_value=2.59471e-05 -0.0214539 0.032856 0.411416 0.199294 -0.144186 0.0625486 -0.0143074 0.00516806 -0.194858 -0.243001 -0.50162 -0.0199808 -0.00819142 -0.0403055 -0.26661 0.152124 -0.136742 -0.175589 -0.120158 0.239045 0.174321 -0.683168 0.612988 -0.0852265 0.486015 0.0262889
internal_weight=640 613 425 47 23 188 37 378 351 151 124 36 317 306 255 27 51 88 75 62 34 24 20 24 27 27 27
internal_count=640 613 425 47 23 188 37 378 351 151 124 36 317 306 255 27 51 88 75 62 34 24 20 24 27 27 27
is_linear=0
shrinkage=0.02


Tree=16
num_leaves=37
num_cat=0
split_feature=11 8 0 11 0 0 2 0 1 1 1 1 0 1 5 5 0 0 5 5 0 0 1 3 1 1 0 5 1 1 1 0 5 11 0 1
split_gain=16051.8 9826.86 18100.5 5324.95 8845.53 4962.62 6125.81 4784.81 6057.96 5366.36 3856.25 2849.75 6001.33 2625.36 4157.9 2605.65 2125.08 6307.52 5561.92 4193.31 2020.46 1870.31 1777.42 1571.02 1382.24 1274.25 1207.17 1178.94 886.226 726.989 668.874 587.98 475.21 208.566 167.511 110.859
threshold=-1.367736147676645 -0.43587528876907239 0.76434284600672353 -1.3462982001002015 -1.4511624338998039 -0.97283432592310237 0.035024699025820394 1.5517710670802829 0.93764200909522744 0.48940002444364855 0.17735533071672818 -0.76902860787623883 0.35681420527567081 -0.27366597439542528 0.51004756441523202 -1.505147027674328 0.89040043402946434 1.0458138987150354 -1.0889843055718429 -0.82650823188066735 0.2670197590128966 0.58820758602974321 -0.48443061684064131 0.52450376765420204 1.1281733282743072 -0.85992517504511279 1.2374905051605729 -0.9663803500976953 2.09977376619088 0.80532859299864457 0.75874199953034827 0.6089293813211526 -0.4707840793781492 -1.3724672902852075 -0.90376167495173754 1.7447334503340737
decision_type=2 2 2 2 2 2 2 2 2 2 2 2 2 2 2 2 2 2 2 2 2 2 2 2 2 2 2 2 2 2 2 2 2 2 2 2
left_child=33 3 5 4 28 10 13 8 9 -5 23 12 20 14 25 -10 19 27 -19 -4 -8 -13 -16 -3 -17 -7 29 -18 -2 -11 -28 -23 -14 -1 -15 -9
right_child=1 2 16 7 -6 6 11 35 15 26 -12 21 32 34 22 24 17 18 -20 -21 -22 31 -24 -25 -26 -27 30 -29 -30 -31 -32 -33 -34 -35 -36 -37
leaf_value=0.41843833648605844 0.0045256537517518484 -0.26083035837305646 -0.076778576773886359 -0.57500791304182297 0.56419491003055389 0.13768754829226246 -0.081251863772000055 -0.01940418404981124 -0.2010413235587043 0.087858000238528411 -0.018319302023641321 -0.45835449520904242 0.29784644049567144 0.34627265488805842 -0.00027712928350114501 -0.39472245492225827 0.41389395399527107 0.35485813941744804 -0.23120501905384633 0.37324801015575026 -0.35606072354907831 -0.027502061998521961 -0.26501080199962351 -0.61925197488010519 -0.68225847846583321 0.39066446644244807 -0.065442028439734581 0.68430176589799974 -0.21445270722372489 -0.12194053857633383 -0.27297516844654812 -0.20126911751238619 0.13806426338140398 0.54463977214718651 0.22861919629691851 0.061858465434699667
leaf_weight=15.000000000000002 13.000000000000002 10.000000000000002 15.999999999999998 9.9999999999999982 9.9999999999999982 39 94 12.000000000000002 10.999999999999998 19.000000000000004 14.999999999999998 9.9999999999999982 10.999999999999998 12.000000000000002 45 12.000000000000002 12.000000000000002 18.000000000000004 9.9999999999999982 17 11.999999999999998 10.999999999999998 12.999999999999998 9.9999999999999982 17 9.9999999999999982 12.000000000000002 15.999999999999998 17 9.9999999999999982 12.999999999999998 27 24 11.999999999999998 9.9999999999999982 14.999999999999998
leaf_count=15 13 10 16 10 10 39 94 12 11 19 15 10 11 12 45 12 12 18 10 17 12 11 13 10 17 10 12 16 17 10 13 27 24 12 10 15
internal_value=2.74492e-05 -0.0210259 0.0287841 -0.149722 0.0521325 -0.0354973 -0.0105804 -0.211357 -0.272894 -0.151808 -0.261181 -0.0830869 -0.0377016 0.0956244 0.0545673 -0.465744 0.283508 0.358541 0.145436 0.15545 -0.112678 -0.21603 -0.0599852 -0.44228 -0.565078 0.190026 -0.0725016 0.570334 -0.119829 0.0153089 -0.174057 -0.151199 0.189016 0.476368 0.294116 0.0257665
internal_weight=640 613 442 171 40 353 318 131 104 64 35 189 141 129 107 40 89 56 28 33 106 48 58 20 29 49 54 28 30 29 25 38 35 27 22 27
internal_count=640 613 442 171 40 353 318 131 104 64 35 189 141 129 107 40 89 56 28 33 106 48 58 20 29 49 54 28 30 29 25 38 35 27 22 27
is_linear=0
shrinkage=0.02


Tree=17
num_leaves=28
num_cat=0
split_feature=11 8 0 0 11 0 0 5 0 3 3 5 5 3 3 3 11 3 3 0 0 0 5 2 5 11 5
split_gain=15421 9498.7 17581.1 4613.35 4593.88 8498.42 4282.84 6125.11 3840.37 7123.81 3074.53 4508.77 5091.93 4386.56 7510.55 2916.66 2523.13 2256.3 1783.73 1644.99 3801.39 2865.51 1132.33 851.348 429.45 200.387 109.524
threshold=-1.367736147676645 -0.29552007708484657 0.89040043402946434 1.0458138987150354 -1.3462982001002015 -1.4511624338998039 -0.94002481671170401 0.86404490064350759 1.5517710670802829 0.87968991162709032 -1.43535149195093 0.14396251426700271 -0.0079973178700072454 -0.31192595168310339 -0.022847899887828645 -0.84891746507236887 1.335787578186669 0.92833334221280761 0.51785130182879913 -1.2525785623571299 1.1597837728177873 1.2478514028062777 -0.9663803500976953 -2.4308337262653756 1.1489695859003766 -1.3724672902852075 -1.6139364529542226
decision_type=2 2 2 2 2 2 2 2 2 2 2 2 2 2 2 2 2 2 2 2 2 2 2 2 2 2 2
left_child=25 4 6 22 5 23 18 10 9 19 11 12 -8 15 -15 -12 17 -11 -3 -6 24 -22 -4 -2 -21 -1 -10
right_child=1 2 3 -5 8 -7 7 -9 26 16 13 -13 -14 14 -16 -17 -18 -19 -20 20 21 -23 -24 -25 -26 -27 -28
leaf_value=0.41012499910316713 -0.21018872785289383 -0.44420205056130335 0.40568448858812811 0.15436801730650257 0.032377737554580129 0.5530227400524782 -0.20883747198511005 0.35434354507486227 -0.013491828323256034 -0.38689325222299104 -0.0055815430577713541 -0.50028685354971669 0.16456651743022235 -0.23203164363584503 0.069949310919301746 0.19057579012407064 -0.25940306965608773 -0.78062746142552908 -0.12398682319837091 -0.24256345366487403 0.20981274313177944 -0.17307154194801641 0.67070073066661084 0.0044358161751550567 -0.41142380100587456 0.5338370018951164 0.066840208686945096
leaf_weight=15.000000000000002 17 11.000000000000002 12.000000000000002 19 19 9.9999999999999982 37 19 14.000000000000002 12.000000000000002 54 10.999999999999998 24 58 76 69 15.999999999999998 11.999999999999998 19 10.000000000000002 11.999999999999998 22 15.999999999999998 13.000000000000002 18 11.999999999999998 12.999999999999998
leaf_count=15 17 11 12 19 19 10 37 19 14 12 54 11 24 58 76 69 16 12 19 10 12 22 16 13 18 12 13
internal_value=2.64135e-05 -0.020609 0.0317539 0.396125 -0.138942 0.0511075 -0.0136416 0.00615022 -0.190313 -0.238404 -0.0140567 -0.129473 -0.0618792 0.0183117 -0.060827 0.104515 -0.456494 -0.586224 -0.242518 -0.130264 -0.180094 -0.0376876 0.559006 -0.117446 -0.35223 0.466912 0.0252536
internal_weight=640 613 425 47 188 40 378 348 148 121 329 72 61 257 134 123 40 24 30 81 62 34 28 30 28 27 27
internal_count=640 613 425 47 188 40 378 348 148 121 329 72 61 257 134 123 40 24 30 81 62 34 28 30 28 27 27
is_linear=0
shrinkage=0.02


Tree=18
num_leaves=28
num_cat=0
split_feature=11 8 0 0 11 0 0 5 0 1 1 5 5 1 3 1 5 8 0 0 0 1 5 1 5 11 1
split_gain=14814.9 9124.7 16889.7 4431.99 4413.62 8164.93 4114.5 5883.87 3689.36 6844.16 2953.4 4332.01 4890.96 4213.12 7213.61 2801.33 2428.52 1713.8 1580.22 3652.02 2752.78 1283 1087.56 817.842 412.387 192.528 110.522
threshold=-1.367736147676645 -0.29552007708484657 0.89040043402946434 1.0458138987150354 -1.3462982001002015 -1.4511624338998039 -0.94002481671170401 0.86404490064350759 1.5517710670802829 0.93764200909522744 -1.0529780005160576 0.14396251426700271 -0.0079973178700072454 -0.77320000993544757 -0.022847899887828645 -0.9608639775505009 -1.505147027674328 -0.019486461409437317 -1.2525785623571299 1.1597837728177873 1.2478514028062777 1.1281733282743072 -0.9663803500976953 2.09977376619088 1.1489695859003766 -1.3724672902852075 1.7447334503340737
decision_type=2 2 2 2 2 2 2 2 2 2 2 2 2 2 2 2 2 2 2 2 2 2 2 2 2 2 2
left_child=25 4 6 22 5 23 17 10 9 18 11 12 -8 15 -15 -12 -11 -3 -6 24 -21 -18 -4 -2 -20 -1 -10
right_child=1 2 3 -5 8 -7 7 -9 26 16 13 -13 -14 14 -16 -17 21 -19 19 20 -22 -23 -24 -25 -26 -27 -28
leaf_value=0.40197682184888822 0.0043477854837898075 -0.12152007706736391 0.39763784972104149 0.15129681302614859 0.031733571496933538 0.5420717828580649 -0.2046719927415051 0.34729378805110583 -0.020345065337567286 -0.1919154112618249 -0.0054701291963926302 -0.49037125596055042 0.16128884723077669 -0.22739900218127315 0.068552176001507412 0.18676978416449774 -0.37921933292357379 -0.43539805403700821 -0.23776020805434417 0.20565116535533559 -0.16962578189858485 -0.65621996003981919 0.65737003244968673 -0.20600953096534771 -0.40324078417614673 0.52324850728689154 0.060791138402673583
leaf_weight=15.000000000000002 13.000000000000002 19.000000000000004 12.000000000000002 19 19 9.9999999999999982 37 19 12.000000000000002 10.999999999999998 54 10.999999999999998 24 58 76 69 12.000000000000002 10.999999999999998 10.000000000000002 11.999999999999998 22 17 15.999999999999998 17 18 11.999999999999998 14.999999999999998
leaf_count=15 13 19 12 19 19 10 37 19 12 11 54 11 24 58 76 69 12 11 10 12 22 17 16 17 18 12 15
internal_value=2.53147e-05 -0.0202005 0.0311212 0.388256 -0.136181 0.0501027 -0.0133727 0.00602619 -0.186534 -0.23367 -0.0137788 -0.126899 -0.0606427 0.0179455 -0.0596127 0.102428 -0.447436 -0.237706 -0.127673 -0.176512 -0.0369311 -0.54333 0.547903 -0.11511 -0.345233 0.457644 0.0247517
internal_weight=640 613 425 47 188 40 378 348 148 121 329 72 61 257 134 123 40 30 81 62 34 29 28 30 28 27 27
internal_count=640 613 425 47 188 40 378 348 148 121 329 72 61 257 134 123 40 30 81 62 34 29 28 30 28 27 27
is_linear=0
shrinkage=0.02


Tree=19
num_leaves=36
num_cat=0
split_feature=11 8 0 11 5 0 2 0 1 1 1 1 0 11 1 0 5 1 0 0 0 5 5 0 8 0 5 1 1 1 0 5 1 11 5
split_gain=14232.6 8813.07 16311.2 4757.44 7853.13 4401.81 5562 4277.28 5302.71 5036.3 3700 2571.23 5341.79 2370.63 2344.97 3957.27 2223.42 2106.92 1995.83 1852.15 5500.5 5452.14 4028.42 1753.64 1601.93 1114.77 1044.56 726.16 635.244 619.153 600.886 457.559 187.947 184.976 109.238
threshold=-1.367736147676645 -0.43587528876907239 0.76434284600672353 -1.3462982001002015 1.4563428827229381 -0.97283432592310237 0.035024699025820394 1.5517710670802829 0.93764200909522744 0.48940002444364855 0.17735533071672818 -0.76902860787623883 0.35681420527567081 1.335787578186669 -0.27366597439542528 -0.74489457771759848 0.67064147792365358 1.1281733282743072 0.2670197590128966 0.89040043402946434 1.0458138987150354 -1.0889843055718429 -0.82650823188066735 0.58820758602974321 -0.038744854800420496 1.2374905051605729 -0.9663803500976953 0.80532859299864457 2.09977376619088 0.75874199953034827 0.6089293813211526 -0.4707840793781492 -0.20299398894255496 -1.3724672902852075 -1.6139364529542226
decision_type=2 2 2 2 2 2 2 2 2 2 2 2 2 2 2 2 2 2 2 2 2 2 2 2 2 2 2 2 2 2 2 2 2 2 2
left_child=33 3 5 4 -2 10 14 8 9 -5 24 12 18 17 15 -7 -17 -10 -8 22 26 -22 -4 -13 -3 27 -21 -11 -6 -27 -25 -14 -16 -1 -9
right_child=1 2 19 7 28 6 11 34 13 25 -12 23 31 -15 32 16 -18 -19 -20 20 21 -23 -24 30 -26 29 -28 -29 -30 -31 -32 -33 -34 -35 -36
leaf_value=0.39399051912572997 0.50163982700657206 -0.60212804624349769 -0.078005357943706624 -0.55479729945116707 -0.011889724416181073 -0.23689556263988798 -0.075671128476717517 -0.014431120419333164 -0.37169761846873373 0.088883998955731611 -0.0083754086691812182 -0.44018052629905169 0.28446426168218386 -0.24754888279837847 0.21019827814385436 0.059114897182791372 0.32498381810472504 -0.7521280220914478 -0.3487791568976788 0.38975081810281281 0.34755748050647534 -0.23267945053553821 0.363072878519694 -0.017851139102970159 -0.24075883015547642 -0.061106169243489411 0.64430431262306542 -0.12079540328224107 -0.20191343550096477 -0.26075571540657799 -0.19339921482484715 0.12779882306379894 0.3333285200891416 0.51287001176313918 0.065793520184873625
leaf_weight=15.000000000000002 10.999999999999998 9.9999999999999982 15.999999999999998 9.9999999999999982 12.000000000000002 15.999999999999998 94 14.000000000000002 12.000000000000002 19.000000000000004 14.999999999999998 9.9999999999999982 10.999999999999998 15.999999999999998 10.000000000000002 76 14.999999999999998 11.999999999999998 11.999999999999998 12.000000000000002 18.000000000000004 9.9999999999999982 17 10.999999999999998 10.000000000000002 12.000000000000002 15.999999999999998 9.9999999999999982 17 12.999999999999998 27 24 11.999999999999998 11.999999999999998 12.999999999999998
leaf_count=15 11 10 16 10 12 16 94 14 12 19 15 10 11 16 10 76 15 12 12 12 18 10 17 11 10 12 16 10 17 13 27 24 12 12 13
internal_value=2.47495e-05 -0.0197996 0.027371 -0.141677 0.0491176 -0.0336503 -0.0101833 -0.199935 -0.258116 -0.144822 -0.2462 -0.0792727 -0.0361614 -0.438549 0.0910159 0.0522118 0.103259 -0.564286 -0.106898 0.269177 0.339234 0.140204 0.149597 -0.205553 -0.42359 -0.0679969 0.537021 0.0163798 -0.123628 -0.165589 -0.142789 0.177735 0.27861 0.44856 0.0242589
internal_weight=640 613 442 171 40 353 318 131 104 64 35 189 141 40 129 107 91 24 106 89 56 28 33 48 20 54 28 29 29 25 38 35 22 27 27
internal_count=640 613 442 171 40 353 318 131 104 64 35 189 141 40 129 107 91 24 106 89 56 28 33 48 20 54 28 29 29 25 38 35 22 27 27
is_linear=0
shrinkage=0.02


Tree=20
num_leaves=27
num_cat=0
split_feature=11 8 0 11 5 0 0 5 0 1 11 1 5 5 1 3 1 1 8 1 8 5 0 1 11 1
split_gain=13673.3 8483.88 15648.4 4099.03 4312.99 4044.61 3788.59 5474.32 3331.7 7007.55 3205.78 2773.8 4162.49 4697.9 4017.55 6309.82 2789.81 1970.4 2580 2623.75 1703.87 1003.26 818.343 210.195 177.719 110.186
threshold=-1.367736147676645 -0.29552007708484657 0.89040043402946434 -1.3474821412268969 1.4563428827229381 1.0458138987150354 -0.94002481671170401 0.86404490064350759 1.5517710670802829 0.97925515301958355 1.335787578186669 -1.0529780005160576 0.14396251426700271 -0.0079973178700072454 -0.77863425818780396 -0.022847899887828645 -0.9608639775505009 0.91185808877566954 -0.79920270646820146 0.60097667785869258 -0.019486461409437317 -0.9663803500976953 1.4170793976861213 2.09977376619088 -1.3724672902852075 1.7447334503340737
decision_type=2 2 2 2 2 2 2 2 2 2 2 2 2 2 2 2 2 2 2 2 2 2 2 2 2 2
left_child=24 3 6 4 -2 21 20 11 9 17 22 12 13 -8 16 -16 -13 18 -5 -20 -3 -4 -11 -6 -1 -10
right_child=1 2 5 8 23 -7 7 -9 25 10 -12 14 -14 -15 15 -17 -18 -19 19 -21 -22 -23 -24 -25 -26 -27
leaf_value=0.38616289549315996 0.40992256995474941 -0.11223179897400719 0.3820202176432963 -0.41939652887009482 -0.011653902038069793 0.14744775252816564 -0.19908024446019584 0.33504190752019425 -0.021246519679865555 -0.75627169741262279 -0.24262865094664673 -0.0036353022950854626 -0.47915238938890065 0.15958359148492457 -0.20547504942054334 0.066213727000508454 0.19078034628119706 0.10184322415417388 -0.20980906606215954 0.059156715518984437 -0.42509991104538375 0.63149824551173606 -0.48654753467824202 -0.12399562740957501 0.50269737748075127 0.059763822745013719
leaf_weight=15.000000000000002 9.9999999999999982 19.000000000000004 12.000000000000002 12.999999999999998 12.000000000000002 19 37 19 12.000000000000002 10.000000000000002 15.999999999999998 54 10.999999999999998 24 62 76 65 12.999999999999998 39 23 10.999999999999998 15.999999999999998 9.9999999999999982 14.999999999999998 11.999999999999998 14.999999999999998
leaf_count=15 10 19 12 13 12 19 37 19 12 10 16 54 11 24 62 76 65 13 39 23 11 16 10 15 12 15
internal_value=2.27084e-05 -0.0194082 0.0300785 -0.131242 0.0572742 0.373839 -0.0127491 0.00586553 -0.177448 -0.221255 -0.455978 -0.0132376 -0.122864 -0.05792 0.0175068 -0.0559025 0.102621 -0.124812 -0.164196 -0.110081 -0.228014 0.526355 -0.624551 -0.0743301 0.439657 0.0237768
internal_weight=640 613 425 188 37 47 378 348 151 124 36 329 72 61 257 138 119 88 75 62 30 28 20 27 27 27
internal_count=640 613 425 188 37 47 378 348 151 124 36 329 72 61 257 138 119 88 75 62 30 28 20 27 27 27
is_linear=0
shrinkage=0.02


end of trees

feature_importances:
Column_0=171
Column_1=163
Column_5=99
Column_11=78
Column_8=76
Column_3=23
Column_2=14
Column_10=2

parameters:
[boosting: gbdt]
[objective: regression]
[metric: l2]
[tree_learner: serial]
[device_type: cpu]
[data_sample_strategy: goss]
[data: ]
[valid: ]
[num_iterations: 3000]
[learning_rate: 0.02]
[num_leaves: 63]
[num_threads: -1]
[seed: 42]
[deterministic: 0]
[force_col_wise: 0]
[force_row_wise: 0]
[histogram_pool_size: -1]
[max_depth: 8]
[min_data_in_leaf: 10]
[min_sum_hessian_in_leaf: 0.001]
[bagging_fraction: 1]
[pos_bagging_fraction: 1]
[neg_bagging_fraction: 1]
[bagging_freq: 0]
[bagging_seed: 400]
[bagging_by_query: 0]
[feature_fraction: 0.9]
[feature_fraction_bynode: 1]
[feature_fraction_seed: 30056]
[extra_trees: 0]
[extra_seed: 12879]
[early_stopping_round: 100]
[early_stopping_min_delta: 0]
[first_metric_only: 0]
[max_delta_step: 0]
[lambda_l1: 0.05]
[lambda_l2: 0.1]
[linear_lambda: 0]
[min_gain_to_split: 0]
[drop_rate: 0.1]
[max_drop: 50]
[skip_drop: 0.5]
[xgboost_dart_mode: 0]
[uniform_drop: 0]
[drop_seed: 17869]
[top_rate: 0.3]
[other_rate: 0.1]
[min_data_per_group: 100]
[max_cat_threshold: 32]
[cat_l2: 10]
[cat_smooth: 10]
[max_cat_to_onehot: 4]
[top_k: 20]
[monotone_constraints: ]
[monotone_constraints_method: basic]
[monotone_penalty: 0]
[feature_contri: ]
[forcedsplits_filename: ]
[refit_decay_rate: 0.9]
[cegb_tradeoff: 1]
[cegb_penalty_split: 0]
[cegb_penalty_feature_lazy: ]
[cegb_penalty_feature_coupled: ]
[path_smooth: 0]
[interaction_constraints: ]
[verbosity: -1]
[saved_feature_importance_type: 0]
[use_quantized_grad: 0]
[num_grad_quant_bins: 4]
[quant_train_renew_leaf: 0]
[stochastic_rounding: 1]
[linear_tree: 0]
[max_bin: 255]
[max_bin_by_feature: ]
[min_data_in_bin: 3]
[bin_construct_sample_cnt: 200000]
[data_random_seed: 175]
[is_enable_sparse: 1]
[enable_bundle: 1]
[use_missing: 1]
[zero_as_missing: 0]
[feature_pre_filter: 1]
[pre_partition: 0]
[two_round: 0]
[header: 0]
[label_column: ]
[weight_column: ]
[group_column: ]
[ignore_column: ]
[categorical_feature: ]
[forcedbins_filename: ]
[precise_float_parser: 0]
[parser_config_file: ]
[objective_seed: 16083]
[num_class: 1]
[is_unbalance: 0]
[scale_pos_weight: 1]
[sigmoid: 1]
[boost_from_average: 1]
[reg_sqrt: 0]
[alpha: 0.9]
[fair_c: 1]
[poisson_max_delta_step: 0.7]
[tweedie_variance_power: 1.5]
[lambdarank_truncation_level: 30]
[lambdarank_norm: 1]
[label_gain: ]
[lambdarank_position_bias_regularization: 0]
[eval_at: ]
[multi_error_top_k: 1]
[auc_mu_weights: ]
[num_machines: 1]
[local_listen_port: 12400]
[time_out: 120]
[machine_list_filename: ]
[machines: ]
[gpu_platform_id: -1]
[gpu_device_id: -1]
[gpu_use_dp: 0]
[num_gpu: 1]

end of parameters

pandas_categorical:null
