tree
version=v4
num_class=1
num_tree_per_iteration=1
label_index=0
max_feature_idx=12
objective=regression
feature_names=Column_0 Column_1 Column_2 Column_3 Column_4 Column_5 Column_6 Column_7 Column_8 Column_9 Column_10 Column_11 Column_12
feature_infos=[-1.696645172025121:1.6878279074893117] [-1.1636778831177874:2.1861032224921551] [-2.538315815728915:2.5787375456088806] [-3.2895571234686765:1.0619726844767234] [-1.8233080937887562:1.8310294387351764] [-1.6878279074893536:1.6966451720250613] [-1.6879103774502806:1.6977351334380708] [-1.6935442048357441:1.6845734680954996] [-2.1843282245520634:1.1644284206323596] [-1.6167344258521441:1.6038832840346176] [-2.140941175951347:1.1827673309026432] [-1.3545271382383657:1.3254276485354188] [-1.9948293243308153:1.2442731358861694]
tree_sizes=3295 3431 3435 3431 3508 3432 3027 3412 3020 3477 3433

Tree=0
num_leaves=35
num_cat=0
split_feature=0 8 1 5 0 0 0 0 1 1 0 1 0 1 0 1 5 1 1 1 8 5 8 8 0 1 1 3 8 5 8 0 1 8
split_gain=22624.7 14460.5 9765.04 10865.6 17657.8 10924.7 17263 10032.4 7214.94 4937.11 5107.92 4827.54 4463.86 5591.39 4176.83 3541.23 3293.06 3190.35 2481.45 2163.35 1742.14 3247.31 3081.94 5182.13 1685.03 4937 1434.24 3678.15 1299.63 4130.67 1275.58 1168.61 1026.07 687.94
threshold=1.2164433803825923 0.94575652738975158 -0.85161375730859101 -0.82984024304332304 -1.2099999947602698 -0.94039517529995187 -0.54700952677923642 -1.6050812710763334 0.31147546240125018 -0.97416000040226403 -0.34522981913283474 -0.63369964243814947 -1.5236911368996335 1.3108493894581017 1.5267432669312602 -0.53056155085313061 -1.0994450625036358 1.3956339167216696 2.0364937026223129 0.044820147837995303 1.1585195002249422 1.0000000180025095e-35 1.0996395563955008 1.0558066746822183 1.3046160257406838 1.0098557524973115 -1.149804976033336 -1.8057505132273723 -0.071443653792416503 -0.97735986123859886 0.91642006912737506 1.5996552621312203 0.23429252806066944 1.0356451140840923
decision_type=2 2 2 2 2 2 2 2 2 2 2 2 2 2 2 2 2 2 2 2 2 2 2 2 2 2 2 2 2 2 2 2 2 2
left_child=1 2 30 8 7 19 11 18 16 10 -3 -7 -9 -14 17 -8 -4 24 -5 -6 22 -22 23 33 -2 -26 -24 -28 -18 -30 -1 -16 -21 -12
right_child=14 9 3 4 5 6 15 12 -10 -11 20 -13 13 -15 31 -17 28 -19 -20 32 21 -23 26 -25 25 -27 27 -29 29 -31 -32 -33 -34 -35
leaf_value=420.27148590663006 419.16855133441271 419.91964530997245 420.35581525377711 419.68052317091758 419.00383070608518 420.10997775001016 419.33220988254152 420.29578286360345 419.54982924955971 419.12019233443715 419.48651015251721 419.74658544912359 419.97831147719842 419.49145270089849 419.70414523374393 419.63753510023179 419.819750201386 418.93743655325056 419.26947959305039 419.4673230783448 419.59424885944026 419.17828246179795 419.88084319549034 419.06463716607914 419.77172310791394 419.21336830490515 419.3044840572976 419.73239894217232 420.35473447739543 419.89922149493526 419.98587167164754 419.43717089949189 419.20286369761908 419.670872554982
leaf_weight=13.000000000000002 18 13.999999999999998 9.9999999999999982 14.000000000000002 10.999999999999998 20 55 13.999999999999998 15.999999999999998 10.999999999999998 19 54 64 10.999999999999998 11.000000000000002 21 18 10.999999999999998 9.9999999999999982 13.000000000000002 15.000000000000002 14.999999999999998 9.9999999999999982 10.999999999999998 10.000000000000002 17 10.999999999999991 29.000000000000007 10.999999999999995 29.000000000000004 12.999999999999998 15.999999999999998 10.999999999999998 13.999999999999998
leaf_count=13 18 14 10 14 11 20 55 14 16 11 19 54 64 11 11 21 18 11 10 13 15 15 10 11 10 17 11 29 11 29 13 16 11 14
internal_value=419.649 419.695 419.756 419.731 419.674 419.554 419.628 419.871 419.931 419.526 419.559 419.845 419.969 419.907 419.341 419.416 420.021 419.242 419.508 419.236 419.518 419.385 419.56 419.439 419.318 419.42 419.668 419.614 419.962 420.026 420.131 419.546 419.345 419.565
internal_weight=640 557 408 382 298 185 150 113 84 149 138 74 89 75 83 76 68 56 24 35 124 30 94 44 45 27 50 40 58 40 26 27 24 33
internal_count=640 557 408 382 298 185 150 113 84 149 138 74 89 75 83 76 68 56 24 35 124 30 94 44 45 27 50 40 58 40 26 27 24 33
is_linear=0
shrinkage=1


Tree=1
num_leaves=35
num_cat=0
split_feature=0 8 1 5 0 0 0 0 1 1 0 1 0 1 0 1 5 1 1 1 8 5 8 8 0 1 1 8 0 5 8 0 1 8
split_gain=21734.1 13891.7 9381.6 10439.1 16960.7 10496.3 16581.3 9637.14 6931.26 4743.37 4907.13 4637.45 4289.04 5370.87 4012.56 3401.21 3164.28 3065.51 2384.14 2078.43 1673.52 3119.53 2960.74 4978.88 1618.68 4742.82 1378.06 3533.64 1294.46 3105.08 1225.41 1122.65 985.814 660.853
threshold=1.2164433803825923 0.94575652738975158 -0.85161375730859101 -0.82984024304332304 -1.2099999947602698 -0.94039517529995187 -0.54700952677923642 -1.6050812710763334 0.31147546240125018 -0.97416000040226403 -0.34522981913283474 -0.63369964243814947 -1.5236911368996335 1.3108493894581017 1.5267432669312602 -0.53056155085313061 -1.0994450625036358 1.3956339167216696 2.0364937026223129 0.044820147837995303 1.1585195002249422 1.0000000180025095e-35 1.0996395563955008 1.0558066746822183 1.3046160257406838 1.0098557524973115 -1.149804976033336 1.1427590470468501 0.90105661044788044 -0.97735986123859886 0.91642006912737506 1.5996552621312203 0.23429252806066944 1.0356451140840923
decision_type=2 2 2 2 2 2 2 2 2 2 2 2 2 2 2 2 2 2 2 2 2 2 2 2 2 2 2 2 2 2 2 2 2 2
left_child=1 2 30 8 7 19 11 18 16 10 -3 -7 -9 -14 17 -8 -4 24 -5 -6 22 -22 23 33 -2 -26 -24 -28 -18 -30 -1 -16 -21 -12
right_child=14 9 3 4 5 6 15 12 -10 -11 20 -13 13 -15 31 -17 28 -19 -20 32 21 -23 26 -25 25 -27 27 -29 29 -31 -32 -33 -34 -35
leaf_value=0.61038717051498748 -0.47063686842417846 0.26552669065218448 0.69307489857815285 0.031153087683603267 -0.63212622390137063 0.45205996989610775 -0.31020992481989784 0.63419485051581204 -0.096943734092001591 -0.51807085331495817 -0.15900115861942629 0.095893230570442342 0.32299142187359559 -0.15416880805213173 0.054308197782920273 -0.01098078433936241 0.46776077717345282 -0.69720445787584451 -0.37174920412573487 -0.17781520464948114 -0.053407450874909661 -0.46110962141428558 0.22750816194137727 -0.57252492334257377 0.12054886525220207 -0.42671410209254212 0.081992580808724735 -0.33743178513672972 0.36824645894499591 0.0056436541401748098 0.33044160187699412 -0.20736293224074082 -0.43703804222313131 0.021694126805515156
leaf_weight=13.000000000000002 18 13.999999999999998 9.9999999999999982 14.000000000000002 10.999999999999998 20 55 13.999999999999998 15.999999999999998 10.999999999999998 19 54 64 10.999999999999998 11.000000000000002 21 14.999999999999998 10.999999999999998 9.9999999999999982 13.000000000000002 15.000000000000002 14.999999999999998 9.9999999999999982 10.999999999999998 10.000000000000002 17 29 10.999999999999998 28.999999999999993 14.000000000000005 12.999999999999998 15.999999999999998 10.999999999999998 13.999999999999998
leaf_count=13 18 14 10 14 11 20 55 14 16 11 19 54 64 11 11 21 15 11 10 13 15 15 10 11 10 17 29 11 29 14 13 16 11 14
internal_value=-1.80809e-06 0.0450033 0.105359 0.0802672 0.0247202 -0.0931882 -0.0203133 0.217677 0.277051 -0.120219 -0.0881464 0.192648 0.31352 0.252883 -0.301727 -0.227664 0.365078 -0.398178 -0.137527 -0.404533 -0.128267 -0.258146 -0.0865753 -0.206033 -0.323676 -0.22429 0.018729 -0.033878 0.307414 0.2505 0.472255 -0.100912 -0.297988 -0.0824784
internal_weight=640 557 408 382 298 185 150 113 84 149 138 74 89 75 83 76 68 56 24 35 124 30 94 44 45 27 50 40 58 43 26 27 24 33
internal_count=640 557 408 382 298 185 150 113 84 149 138 74 89 75 83 76 68 56 24 35 124 30 94 44 45 27 50 40 58 43 26 27 24 33
is_linear=0
shrinkage=0.02


Tree=2
num_leaves=35
num_cat=0
split_feature=2 8 1 5 1 1 4 1 1 1 4 1 1 1 1 1 5 1 1 8 5 8 8 1 1 1 3 1 8 5 8 1 1 8
split_gain=20878.4 13345.2 9013.28 10028.9 16291.1 10097.5 17207.7 9257.44 6658.52 4557.23 4714.24 4121.06 5159.04 3854.76 3783.3 3266.72 3040.68 2945.55 2290.65 1607.61 2996.78 2844.31 4783.59 1554.94 4556.28 1324.09 3394.81 1314.43 1271.8 3926.74 1177.2 1078.5 880.137 634.833
threshold=0.99062380131835359 0.94575652738975158 -0.85161375730859101 -0.82984024304332304 0.53720262295556465 -0.15746519904747444 -0.4035611327116983 1.8368421470876244 0.31147546240125018 -0.97416000040226403 -0.20493166264469129 1.5283539818929039 1.3108493894581017 1.5524167707582739 -0.63369964243814947 -0.53056155085313061 -1.0994450625036358 1.3956339167216696 2.0364937026223129 1.1585195002249422 1.0000000180025095e-35 1.0996395563955008 1.0558066746822183 0.80973311233077661 1.0098557524973115 -1.149804976033336 -1.8057505132273723 -0.0084739777569314435 -0.071443653792416503 -0.97735986123859886 0.91642006912737506 1.8153301744390167 0.23429252806066944 1.0356451140840923
decision_type=2 2 2 2 2 2 2 2 2 2 2 2 2 2 2 2 2 2 2 2 2 2 2 2 2 2 2 2 2 2 2 2 2 2
left_child=1 2 30 8 5 6 14 11 16 10 -3 12 -6 17 -5 -8 -4 23 -9 21 -21 22 33 -2 -25 -23 -27 -7 -18 -30 -1 -15 -29 -12
right_child=13 9 3 4 7 27 15 18 -10 -11 19 -13 -14 31 -16 -17 28 -19 -20 20 -22 25 -24 24 -26 26 -28 32 29 -31 -32 -33 -34 -35
leaf_value=0.59827259325799131 -0.46127613191446543 0.26025383628429249 0.67935062106293032 0.44306375228350436 0.31654166110382997 -0.5415683463966573 -0.30401698779713654 0.030534439492732914 -0.095016910659600495 -0.50780275591053403 -0.15583777622402648 0.62160092982840032 -0.15111317540074257 0.053231816914704452 0.11774008909861246 -0.010762210999619904 0.16028573040145536 -0.68338598852759003 -0.36438785817363473 -0.052346366620221671 -0.45194848824810507 0.22300305640343393 -0.56117758409397023 0.11816176650547743 -0.41822974383482453 -0.33074393607474684 0.080358359952972497 -0.19077182125571543 0.68470429216419282 0.24061359946260744 0.32388319015502931 -0.20324143853987223 -0.42837600055041614 0.021263331149486784
leaf_weight=13.000000000000002 18 13.999999999999998 9.9999999999999982 20 64 12.999999999999998 55 14.000000000000002 15.999999999999998 10.999999999999998 19 13.999999999999998 10.999999999999998 11.000000000000002 50 21 18 10.999999999999998 9.9999999999999982 15.000000000000002 14.999999999999998 9.9999999999999982 10.999999999999998 10.000000000000002 17 10.999999999999991 29.000000000000007 15.000000000000002 10.999999999999995 29.000000000000004 12.999999999999998 15.999999999999998 10.999999999999998 13.999999999999998
leaf_count=13 18 14 10 20 64 13 55 14 16 11 19 14 11 11 50 21 18 11 10 15 15 10 11 10 17 11 29 15 11 29 13 16 11 14
internal_value=-5.86645e-06 0.0441044 0.103261 0.0786664 0.0242218 -0.0913357 -0.0148738 0.213331 0.271545 -0.117835 -0.0863978 0.307268 0.247829 -0.295732 0.211203 -0.22312 0.357822 -0.390267 -0.134804 -0.125722 -0.253018 -0.0848593 -0.201945 -0.317237 -0.219826 0.0183533 -0.0332127 -0.376782 0.301295 0.364166 0.462883 -0.0989046 -0.292591 -0.0808365
internal_weight=640 557 408 382 298 185 146 113 84 149 138 89 75 83 70 76 68 56 24 124 30 94 44 45 27 50 40 39 58 40 26 27 26 33
internal_count=640 557 408 382 298 185 146 113 84 149 138 89 75 83 70 76 68 56 24 124 30 94 44 45 27 50 40 39 58 40 26 27 26 33
is_linear=0
shrinkage=0.02


Tree=3
num_leaves=35
num_cat=0
split_feature=0 8 1 5 0 0 0 0 1 1 0 1 0 1 0 1 5 1 1 1 8 1 8 8 0 1 1 3 0 5 8 0 1 8
split_gain=20056.5 12820.3 8659.34 9635.18 15647.9 9738.99 15325.3 8892.69 6396.73 4378.39 4528.92 4266.86 3959.66 4955.57 3703.16 3137.56 2921.76 2830.29 2200.82 1954.93 1544.29 2904.27 2732.45 4595.97 1493.7 4377.08 1272.22 3261.43 1263.93 2943.26 1130.89 1036.09 912.444 609.837
threshold=1.2164433803825923 0.94575652738975158 -0.85161375730859101 -0.82984024304332304 -1.2099999947602698 -0.94039517529995187 -0.54700952677923642 -1.6050812710763334 0.31147546240125018 -0.97416000040226403 -0.34522981913283474 -0.63369964243814947 -1.5236911368996335 1.3108493894581017 1.5267432669312602 -0.53056155085313061 -1.0994450625036358 1.3956339167216696 2.0364937026223129 0.044820147837995303 1.1585195002249422 -1.1627089476818291 1.0996395563955008 1.0558066746822183 1.3046160257406838 1.0098557524973115 -1.149804976033336 -1.8057505132273723 0.90105661044788044 -0.97735986123859886 0.91642006912737506 1.5996552621312203 0.23429252806066944 1.0356451140840923
decision_type=2 2 2 2 2 2 2 2 2 2 2 2 2 2 2 2 2 2 2 2 2 2 2 2 2 2 2 2 2 2 2 2 2 2
left_child=1 2 30 8 7 19 11 18 16 10 -3 -7 -9 -14 17 -8 -4 24 -5 -6 22 -22 23 33 -2 -26 -24 -28 -18 -30 -1 -16 -21 -12
right_child=14 9 3 4 5 6 15 12 -10 -11 20 -13 13 -15 31 -17 28 -19 -20 32 21 -23 26 -25 25 -27 27 -29 29 -31 -32 -33 -34 -35
leaf_value=0.5863984758799311 -0.45210158411310519 0.25508567371266955 0.66589812420382355 0.02992809336236182 -0.61012794479593502 0.43424655734010004 -0.29794767674376443 0.60925706795766843 -0.093128380953154954 -0.4977382412042704 -0.15273733496041819 0.09260339955525565 0.31022071190631711 -0.14811818440755209 0.052176785732174769 -0.01054797416614695 0.45368712052604226 -0.66984141959800381 -0.35717226387250539 -0.17049974077530486 -0.022417606306440043 -0.41929199397215366 0.21858716284874644 -0.55005514978288528 0.11582193034710267 -0.40991405933223968 -0.3241886391510837 0.078756719405708428 0.35374748075745777 0.00075346723515936633 0.31745497681712376 -0.19920184236135541 -0.41988566321295656 0.020841073922231685
leaf_weight=13.000000000000002 18 13.999999999999998 9.9999999999999982 14.000000000000002 10.999999999999998 20 55 13.999999999999998 15.999999999999998 10.999999999999998 19 54 64 10.999999999999998 11.000000000000002 21 14.999999999999998 10.999999999999998 9.9999999999999982 13.000000000000002 13.000000000000002 17 9.9999999999999982 10.999999999999998 10.000000000000002 17 10.999999999999991 29.000000000000007 28.999999999999993 14.000000000000005 12.999999999999998 15.999999999999998 10.999999999999998 13.999999999999998
leaf_count=13 18 14 10 14 11 20 55 14 16 11 19 54 64 11 11 21 15 11 10 13 13 17 10 11 10 17 11 29 29 14 13 16 11 14
internal_value=-8.68469e-06 0.0432246 0.101206 0.0770994 0.0237341 -0.0895191 -0.0193223 0.209073 0.266154 -0.115498 -0.0846838 0.185414 0.30114 0.242877 -0.289856 -0.218666 0.350718 -0.382513 -0.132135 -0.389422 -0.123228 -0.247992 -0.0831772 -0.197937 -0.310926 -0.215451 0.0179852 -0.0325604 0.295307 0.239111 0.453697 -0.0969368 -0.286111 -0.0792273
internal_weight=640 557 408 382 298 185 150 113 84 149 138 74 89 75 83 76 68 56 24 35 124 30 94 44 45 27 50 40 58 43 26 27 24 33
internal_count=640 557 408 382 298 185 150 113 84 149 138 74 89 75 83 76 68 56 24 35 124 30 94 44 45 27 50 40 58 43 26 27 24 33
is_linear=0
shrinkage=0.02


Tree=4
num_leaves=36
num_cat=0
split_feature=0 8 3 5 0 0 0 0 3 3 0 0 0 3 0 5 3 0 3 3 8 5 8 8 0 3 3 8 5 3 3 8 0 3 8
split_gain=19266.9 12315.8 8319.38 9256.51 15030.2 9360.19 15900.3 8542.32 6145.02 4206.59 4350.87 3895.54 3557.52 3481.06 3084.61 2807.63 2719.54 2528.06 2148.03 2114.52 1483.4 2840.76 2625 4415.71 1434.88 4204.93 1246.52 1243.87 3733.45 1222.39 3133.3 1086.4 995.349 818.679 585.826
threshold=1.2164433803825923 0.94575652738975158 -0.38839396953196142 -0.82984024304332304 -1.2099999947602698 -0.9302214085278645 -0.54700952677923642 -1.6050812710763334 0.62775561506722821 -0.70068322475205547 -0.34522981913283474 -1.3626064963415818 1.5267432669312602 -0.041058935122797534 0.55345291240155858 -1.0994450625036358 0.9388344576123927 -1.2523906896439676 0.92185156208718266 1.0428350324543707 1.1585195002249422 1.0000000180025095e-35 1.0996395563955008 1.0558066746822183 1.3046160257406838 0.85350891975132426 0.47376291617078764 -0.071443653792416503 -0.97735986123859886 -1.978887335255213 -1.8057505132273723 0.91642006912737506 1.5996552621312203 0.59452088007892512 1.0356451140840923
decision_type=2 2 2 2 2 2 2 2 2 2 2 2 2 2 2 2 2 2 2 2 2 2 2 2 2 2 2 2 2 2 2 2 2 2 2
left_child=1 2 31 8 7 26 13 19 15 10 -3 18 16 -7 -8 -4 24 -13 -9 -5 22 -22 23 34 -2 -26 -6 -17 -29 -24 -31 -1 -14 -28 -12
right_child=12 9 3 4 5 6 14 11 -10 -11 20 17 32 -15 -16 27 -18 -19 -20 -21 21 -23 29 -25 25 -27 33 28 -30 30 -32 -33 -34 -35 -36
leaf_value=0.57476005510519468 -0.44310952297890382 0.25002016059050325 0.65271200357097214 0.029333761837465534 -0.52300174138018196 0.42560485317932428 -0.49384822000984019 0.53056757965650947 -0.091277379219576446 -0.48787313100453972 -0.14969858930997199 0.0083535002010725265 0.051142649957994071 0.11354161001727014 -0.15590960284609423 0.15006186364105392 -0.65656527132601361 0.34856151716083494 0.27121143964182332 -0.35009953564936575 -0.047707030725794908 -0.43674171801434447 0.21425869573460948 -0.53915316491513632 0.11352842859702532 -0.40176373554252037 -0.18242967390856202 0.6641223583350313 0.23113341434714715 -0.31776328250094599 0.077186994790211558 0.31115435381882062 -0.19524255859185449 -0.41156362275819519 0.020427185356194248
leaf_weight=13.000000000000002 18 13.999999999999998 9.9999999999999982 14.000000000000002 12.999999999999998 20 12.999999999999998 27 15.999999999999998 10.999999999999998 19 23 11.000000000000002 50 63 18 10.999999999999998 13.999999999999998 25 9.9999999999999982 15.000000000000002 14.999999999999998 9.9999999999999982 10.999999999999998 10.000000000000002 17 15.000000000000002 10.999999999999995 29.000000000000004 10.999999999999991 29.000000000000007 12.999999999999998 15.999999999999998 10.999999999999998 13.999999999999998
leaf_count=13 18 14 10 14 13 20 13 27 16 11 19 23 11 50 63 18 11 14 25 10 15 15 10 11 10 17 15 11 29 11 29 13 16 11 14
internal_value=-1.22926e-05 0.0423614 0.0991905 0.0755618 0.0232556 -0.0877395 -0.0141219 0.204899 0.260864 -0.113207 -0.0830031 0.295134 -0.284096 0.203197 -0.214301 0.343748 -0.374914 0.1377 0.406656 -0.129519 -0.120782 -0.243062 -0.0815286 -0.19401 -0.304741 -0.211163 -0.362567 0.28943 0.35159 0.0176244 -0.031921 0.444693 -0.0950082 -0.280615 -0.0776501
internal_weight=640 557 408 382 298 185 146 113 84 149 138 89 83 70 76 68 56 37 52 24 124 30 94 44 45 27 39 58 40 50 40 26 27 26 33
internal_count=640 557 408 382 298 185 146 113 84 149 138 89 83 70 76 68 56 37 52 24 124 30 94 44 45 27 39 58 40 50 40 26 27 26 33
is_linear=0
shrinkage=0.02


Tree=5
num_leaves=35
num_cat=0
split_feature=0 8 1 5 0 0 0 0 1 1 0 1 0 1 0 1 5 1 1 1 8 1 8 8 0 1 0 5 1 3 8 0 1 8
split_gain=18508.5 11831.5 7992.67 8893.1 14437.9 9036.49 14165.4 8206.13 5903.42 4041.51 4179.84 3925.73 3817.72 4746.42 3417.61 2979.61 2697.83 2613.11 2031.6 1838.54 1424.98 2752.67 2521.77 4242.52 1378.38 4039.54 1233.53 2790.33 1174.51 3010.2 1043.66 956.208 844.455 562.76
threshold=1.2164433803825923 0.94575652738975158 -0.85161375730859101 -0.82984024304332304 -1.2099999947602698 -0.94039517529995187 -0.54700952677923642 -1.6050812710763334 0.31147546240125018 -0.97416000040226403 -0.34522981913283474 -0.63369964243814947 -1.5236911368996335 1.3108493894581017 1.5267432669312602 -0.53056155085313061 -1.0994450625036358 1.3956339167216696 2.0364937026223129 0.044820147837995303 1.1585195002249422 -1.1627089476818291 1.0996395563955008 1.0558066746822183 1.3046160257406838 1.0098557524973115 0.90105661044788044 -0.97735986123859886 -1.149804976033336 -1.8057505132273723 0.91642006912737506 1.5996552621312203 0.23429252806066944 1.0356451140840923
decision_type=2 2 2 2 2 2 2 2 2 2 2 2 2 2 2 2 2 2 2 2 2 2 2 2 2 2 2 2 2 2 2 2 2 2
left_child=1 2 30 8 7 19 11 18 16 10 -3 -7 -9 -14 17 -8 -4 24 -5 -6 22 -22 23 33 -2 -26 -18 -28 -24 -30 -1 -16 -21 -12
right_child=14 9 3 4 5 6 15 12 -10 -11 20 -13 13 -15 31 -17 26 -19 -20 32 21 -23 28 -25 25 -27 27 -29 29 -31 -32 -33 -34 -35
leaf_value=0.5633525982339872 -0.4342962866626392 0.2450552250645685 0.63978702614212979 0.028751261623193178 -0.58889680458618709 0.41713510171690976 -0.28729237396357932 0.59177258295370327 -0.089463161881666003 -0.47820353993424425 -0.14672027902453355 0.089429416436144257 0.29797375572639029 -0.15055786373378996 0.050129011080071714 -0.0072346074434253274 0.44008143147095935 -0.64355225812207462 -0.34316685591593826 -0.16349502184918815 -0.018650049626372237 -0.40500151784796457 0.21001595072226953 -0.52846727319665865 0.11128033024249687 -0.39377544743275777 0.33981954462339792 -0.0037095370191208843 -0.31146529206284551 0.075648566115762747 0.30497876516735278 -0.19136196065393291 -0.40340648118440092 0.020021578200319978
leaf_weight=13.000000000000002 18 13.999999999999998 9.9999999999999982 14.000000000000002 10.999999999999998 20 55 13.999999999999998 15.999999999999998 10.999999999999998 19 54 64 10.999999999999998 11.000000000000002 21 14.999999999999998 10.999999999999998 9.9999999999999982 13.000000000000002 13.000000000000002 17 9.9999999999999982 10.999999999999998 10.000000000000002 17 28.999999999999993 14.000000000000005 10.999999999999991 29.000000000000007 12.999999999999998 15.999999999999998 10.999999999999998 13.999999999999998
leaf_count=13 18 14 10 14 11 20 55 14 16 11 19 54 64 11 11 21 15 11 10 13 13 17 10 11 10 17 29 14 11 29 13 16 11 14
internal_value=-1.45926e-05 0.0415167 0.0972173 0.0740571 0.0227879 -0.0859982 -0.0183805 0.200816 0.255686 -0.110962 -0.0813565 0.178455 0.289258 0.232063 -0.278451 -0.210032 0.336924 -0.367466 -0.126954 -0.374882 -0.118385 -0.238234 -0.0799125 -0.19016 -0.298678 -0.20696 0.283678 0.228201 0.0172709 -0.0312941 0.435867 -0.0931179 -0.274714 -0.0761043
internal_weight=640 557 408 382 298 185 150 113 84 149 138 74 89 75 83 76 68 56 24 35 124 30 94 44 45 27 58 43 50 40 26 27 24 33
internal_count=640 557 408 382 298 185 150 113 84 149 138 74 89 75 83 76 68 56 24 35 124 30 94 44 45 27 58 43 50 40 26 27 24 33
is_linear=0
shrinkage=0.02


Tree=6
num_leaves=31
num_cat=0
split_feature=0 8 1 1 0 0 0 0 0 1 1 0 0 0 1 8 1 1 8 0 8 8 0 1 1 1 3 8 0 8
split_gain=17779.9 11365.9 7678.89 8443.6 5895.33 9584.95 12056.6 8708.01 7882.81 5981.62 3882.93 4015.52 3751.29 3283.2 2510.86 2344.72 1951.93 1762.29 1368.79 2692.86 2422.59 4076.11 1324.1 3880.67 1181.96 1128.51 2891.93 1002.6 918.606 540.602
threshold=1.2164433803825923 0.94575652738975158 -0.85161375730859101 -0.79932336317356578 0.87901344910835777 -1.2099999947602698 -0.9302214085278645 0.58566984051316895 -1.6050812710763334 0.31147546240125018 -0.97416000040226403 -0.34522981913283474 -1.3626064963415818 1.5267432669312602 1.3956339167216696 -0.24199753320091377 2.0364937026223129 -0.14790432231475986 1.1585195002249422 1.0000000180025095e-35 1.0996395563955008 1.0558066746822183 1.3046160257406838 1.0098557524973115 -0.0084739777569314435 -1.149804976033336 -1.8057505132273723 0.91642006912737506 1.5996552621312203 1.0356451140840923
decision_type=2 2 2 2 2 2 2 2 2 2 2 2 2 2 2 2 2 2 2 2 2 2 2 2 2 2 2 2 2 2
left_child=1 2 27 -4 5 8 24 -8 16 15 11 -3 -10 14 22 -6 -5 -17 20 -20 21 29 -2 -24 -7 -22 -27 -1 -15 -13
right_child=13 10 3 4 9 6 7 -9 12 -11 -12 18 -14 28 -16 17 -18 -19 19 -21 25 -23 23 -25 -26 26 -28 -29 -30 -31
leaf_value=0.55217153381755313 -0.42565833502711509 0.24018886302379852 -0.36182735950626127 0.028180318453633186 0.62711798627777859 -0.50507597006004279 0.20147364601182877 -0.11390386998740938 0.39292124189936956 -0.087685023864603931 -0.46872564857070509 -0.14380122786417057 0.12902271263040299 0.049135450704677668 -0.63079717687658365 0.52406596230988456 -0.3363714731801854 0.22420492490989499 -0.42206523364742848 -0.043318327033756585 0.20585723574798886 -0.5179931077012071 0.10907676564584862 -0.38594598848220196 -0.26911712054548592 -0.3052921062332018 0.074140786846069104 0.29892577025726552 -0.18755849779022402 0.019623954177748228
leaf_weight=13.000000000000002 18 13.999999999999998 17 14.000000000000002 9.9999999999999982 12.999999999999998 72 68 52 15.999999999999998 10.999999999999998 19 37 11.000000000000002 10.999999999999998 9.9999999999999982 9.9999999999999982 37 15.000000000000002 14.999999999999998 9.9999999999999982 10.999999999999998 10.000000000000002 17 26 10.999999999999991 29.000000000000007 12.999999999999998 15.999999999999998 13.999999999999998
leaf_count=13 18 14 17 14 10 13 72 68 52 16 11 19 37 11 11 10 10 37 15 15 10 11 10 17 26 11 29 13 16 14
internal_value=-1.79991e-05 0.0406875 0.0952811 0.0725801 0.0929091 0.0526733 -0.0383699 0.0483112 0.196808 0.253546 -0.108761 -0.0797418 0.28349 -0.272919 -0.360165 0.349334 -0.12444 0.289004 -0.116036 -0.233498 -0.0783286 -0.186386 -0.292737 -0.202841 -0.348886 0.0169244 -0.0306794 0.427217 -0.0912653 -0.0745893
internal_weight=640 557 408 382 365 292 179 140 113 73 149 138 89 83 56 57 24 47 124 30 94 44 45 27 39 50 40 26 27 33
internal_count=640 557 408 382 365 292 179 140 113 73 149 138 89 83 56 57 24 47 124 30 94 44 45 27 39 50 40 26 27 33
is_linear=0
shrinkage=0.02


Tree=7
num_leaves=35
num_cat=0
split_feature=0 8 1 5 0 0 0 0 1 1 1 1 0 1 0 1 5 1 1 1 0 1 0 5 8 8 8 1 1 3 8 0 1 5
split_gain=17079.7 10918.5 7377.49 8293.04 13359.9 8359.37 13189.1 7572.06 5477.59 3773.51 3730.56 3927.72 3615.73 4622.16 3154.08 2843.33 2471.82 2412.6 1875.39 1723.4 1271.95 3728.04 1234.92 2721.48 1224.61 2666.83 3578.39 2608.97 1084.3 2778.31 963.158 882.482 812.108 776.602
threshold=1.2164433803825923 0.94575652738975158 -0.85161375730859101 -0.82984024304332304 -1.2099999947602698 -0.94039517529995187 -0.54700952677923642 -1.6050812710763334 0.31147546240125018 -0.63369964243814947 -0.97416000040226403 -1.0095877060109448 -1.5236911368996335 1.3108493894581017 1.5267432669312602 -0.53056155085313061 -1.0994450625036358 1.3956339167216696 2.0364937026223129 0.044820147837995303 1.3046160257406838 1.0098557524973115 0.90105661044788044 -0.97735986123859886 1.1585195002249422 1.0996395563955008 1.0558066746822183 -1.1627089476818291 -1.149804976033336 -1.8057505132273723 0.91642006912737506 1.5996552621312203 0.23429252806066944 -0.32793441562034853
decision_type=2 2 2 2 2 2 2 2 2 2 2 2 2 2 2 2 2 2 2 2 2 2 2 2 2 2 2 2 2 2 2 2 2 2
left_child=1 2 30 8 7 19 9 18 16 -7 11 24 -9 -14 17 -8 -4 20 -5 -6 -2 -22 -18 -24 25 26 33 -26 -27 -30 -1 -16 -21 -3
right_child=14 10 3 4 5 6 15 12 -10 -11 -12 -13 13 -15 31 -17 22 -19 -20 32 21 -23 23 -25 27 28 -28 -29 29 -31 -32 -33 -34 -35
leaf_value=0.54121242144635606 -0.41719221707865672 0.056509490438026937 0.61469978963974681 0.027620709466596016 -0.56806477976274916 0.4059454630382025 -0.27839107351597336 0.5722184014827647 -0.085942221535658989 0.084666903384732234 -0.45943562610729322 0.20567016582042846 0.28722398335401805 -0.15536145768724047 0.048161592429822618 -0.0048233205786248519 0.430221111032347 -0.61829489664988468 -0.32971067371934942 -0.15490882735215977 0.10691682079050799 -0.3782722174215038 0.32857783001313101 -0.010640177760563838 -0.015107170607297471 0.20178084175185404 -0.50772657815400546 -0.39121478811342114 -0.29924125748711672 0.072663073244783064 0.29299287024345105 -0.183830616873984 -0.39007718575967326 -0.15865927425783072
leaf_weight=13.000000000000002 18 10.000000000000002 9.9999999999999982 14.000000000000002 10.999999999999998 20 55 13.999999999999998 15.999999999999998 54 10.999999999999998 17 64 10.999999999999998 11.000000000000002 21 14.999999999999998 10.999999999999998 9.9999999999999982 13.000000000000002 10.000000000000002 17 28.999999999999993 14.000000000000005 13.000000000000002 9.9999999999999982 10.999999999999998 17 10.999999999999995 29.000000000000004 12.999999999999998 15.999999999999998 10.999999999999998 20
leaf_count=13 18 10 10 14 11 20 55 14 16 54 11 17 64 11 11 21 15 11 10 13 10 17 29 14 13 10 11 17 11 29 13 16 11 20
internal_value=-2.24196e-05 0.0398736 0.093382 0.0711309 0.0216215 -0.0830244 -0.0179889 0.192875 0.246525 0.171943 -0.106604 -0.0781599 0.277832 0.222178 -0.267496 -0.202919 0.324778 -0.35301 -0.121976 -0.360874 -0.286913 -0.198804 0.273803 0.218343 -0.118182 -0.0814727 -0.200829 -0.22886 0.0165849 -0.0300769 0.418739 -0.0894494 -0.263907 -0.0869537
internal_weight=640 557 408 382 298 185 150 113 84 74 149 138 89 75 83 76 68 56 24 35 45 27 58 43 121 91 41 30 50 40 26 27 24 30
internal_count=640 557 408 382 298 185 150 113 84 74 149 138 89 75 83 76 68 56 24 35 45 27 58 43 121 91 41 30 50 40 26 27 24 30
is_linear=0
shrinkage=0.02


Tree=8
num_leaves=31
num_cat=0
split_feature=0 8 1 1 0 0 0 0 0 1 0 1 0 0 1 8 1 1 8 0 8 8 0 1 1 1 3 8 0 8
split_gain=16407.3 10488.9 7087.86 7908.3 5473.37 8838.45 11170.8 8123.2 7273.71 5540.34 3613.06 3584.17 3783 3030.04 2318.19 2152.5 1801.85 1715.41 1254.94 2552.64 2259.11 3738.62 1221.86 3581.41 1120.82 1041.83 2669.15 925.264 847.78 550.761
threshold=1.2164433803825923 0.94575652738975158 -0.85161375730859101 -0.79932336317356578 0.87901344910835777 -1.2099999947602698 -0.9302214085278645 0.58566984051316895 -1.6050812710763334 0.31147546240125018 -1.3626064963415818 -0.97416000040226403 -0.34522981913283474 1.5267432669312602 1.3956339167216696 -0.24199753320091377 2.0364937026223129 -0.14790432231475986 1.1585195002249422 1.0000000180025095e-35 1.0996395563955008 1.0558066746822183 1.3046160257406838 1.0098557524973115 -0.0084739777569314435 -1.149804976033336 -1.8057505132273723 0.91642006912737506 1.5996552621312203 1.0356451140840923
decision_type=2 2 2 2 2 2 2 2 2 2 2 2 2 2 2 2 2 2 2 2 2 2 2 2 2 2 2 2 2 2
left_child=1 2 27 -4 5 8 24 -8 16 15 -10 12 -3 14 22 -6 -5 -17 20 -20 21 29 -2 -24 -7 -22 -27 -1 -15 -14
right_child=13 11 3 4 9 6 7 -9 10 -11 -12 -13 18 28 -16 17 -18 -19 19 -21 25 -23 23 -25 -26 26 -28 -29 -30 -31
leaf_value=0.53047078503907164 -0.4088944588708614 0.23391883315769491 -0.35069865533482952 0.027072210447162594 0.60252750903368002 -0.48776314251295483 0.19455744851809439 -0.11004588910661606 0.37968168870043623 -0.08423405354067405 0.12072022402061607 -0.45032965634320238 -0.14286346168418204 0.047207033011290395 -0.60604039647557717 0.51040714792685937 -0.32318174003374461 0.21464199853393265 -0.40789998945021461 -0.039168615270134634 0.19778518620103896 -0.49766353779010941 0.10479965530999813 -0.37075100525080806 -0.25805365953408893 -0.2933103599204675 0.07121480327291585 0.28717776393162386 -0.1801768334904072 0.022079738589888768
leaf_weight=13.000000000000002 18 13.999999999999998 17 14.000000000000002 9.9999999999999982 12.999999999999998 72 68 52 15.999999999999998 37 10.999999999999998 19 11.000000000000002 10.999999999999998 9.9999999999999982 9.9999999999999982 37 15.000000000000002 14.999999999999998 9.9999999999999982 10.999999999999998 10.000000000000002 17 26 10.999999999999991 29.000000000000007 12.999999999999998 15.999999999999998 13.999999999999998
leaf_count=13 18 14 17 14 10 13 72 68 52 16 37 11 19 11 11 10 10 37 15 15 10 11 10 17 26 11 29 13 16 14
internal_value=-2.55618e-05 0.0390772 0.0915222 0.0697122 0.0893864 0.0506172 -0.0368087 0.0466272 0.189025 0.244168 0.272291 -0.104489 -0.0766088 -0.262181 -0.345997 0.336355 -0.119561 0.278542 -0.111837 -0.22431 -0.07573 -0.180078 -0.281205 -0.194847 -0.335701 0.0162522 -0.0294861 0.410429 -0.0876697 -0.073002
internal_weight=640 557 408 382 365 292 179 140 113 73 89 149 138 83 56 57 24 47 124 30 94 44 45 27 39 50 40 26 27 33
internal_count=640 557 408 382 365 292 179 140 113 73 89 149 138 83 56 57 24 47 124 30 94 44 45 27 39 50 40 26 27 33
is_linear=0
shrinkage=0.02


Tree=9
num_leaves=36
num_cat=0
split_feature=0 8 1 5 0 0 0 0 1 1 0 1 1 0 0 0 5 1 1 1 1 8 5 0 1 8 8 8 1 1 3 8 0 1 5
split_gain=15761.2 10076 6809.67 7733.85 12362.8 7733.22 12279.5 6986.98 5082.68 3627.21 3470.17 3443.52 3701.8 2910.87 2723.05 2430.37 2264.5 2227.47 2045.93 1731.19 1615.22 1245.63 3500.96 1173.74 3440.56 1121.33 2489.47 3276.39 2472.76 1001.02 2564.29 888.861 814.442 780.97 772.272
threshold=1.2164433803825923 0.94575652738975158 -0.85161375730859101 -0.82984024304332304 -1.2099999947602698 -0.94039517529995187 -0.54700952677923642 -1.6050812710763334 0.31147546240125018 -0.63369964243814947 -1.3626064963415818 -0.97416000040226403 -1.0095877060109448 1.5267432669312602 0.55345291240155858 -1.2523906896439676 -1.0994450625036358 1.3956339167216696 1.3108493894581017 2.0364937026223129 0.044820147837995303 -0.071443653792416503 -0.97735986123859886 1.3046160257406838 1.0098557524973115 1.1585195002249422 1.0996395563955008 1.0558066746822183 -1.1627089476818291 -1.149804976033336 -1.8057505132273723 0.91642006912737506 1.5996552621312203 0.23429252806066944 -0.32793441562034853
decision_type=2 2 2 2 2 2 2 2 2 2 2 2 2 2 2 2 2 2 2 2 2 2 2 2 2 2 2 2 2 2 2 2 2 2 2
left_child=1 2 31 8 7 20 9 19 16 -7 18 12 25 17 -8 -12 -4 23 -9 -5 -6 -18 -23 -2 -25 26 27 34 -27 -28 -31 -1 -15 -22 -3
right_child=13 11 3 4 5 6 14 10 -10 -11 15 -13 -14 32 -16 -17 21 -19 -20 -21 33 22 -24 24 -26 28 29 -29 -30 30 -32 -33 -34 -35 -36
leaf_value=0.51994235926912025 -0.40076175415713478 0.057892824305166089 0.59059629997404495 0.026534602253149582 -0.54796623401813682 0.39508024111315976 -0.45867759937548458 0.49293956647499904 -0.082559824828405542 0.080101727914898307 -0.0083527925829866741 -0.44140423602886025 0.20045523582146177 0.046271411223454503 -0.14119000746973343 0.32505934586761692 0.1250546726205731 -0.59402878769883172 0.24011492706390017 -0.31678211136619644 -0.14671261394296889 0.62901420520232632 0.20986291711682711 0.10272442506091427 -0.3633793537519131 -0.011778156648155385 0.19386863179726177 -0.48779994036700275 -0.37791355333830179 -0.28749698424124509 0.069795410706824851 0.28147804784410779 -0.1765956892878372 -0.37723137829754805 -0.15666696225825827
leaf_weight=13.000000000000002 18 10.000000000000002 9.9999999999999982 14.000000000000002 10.999999999999998 20 12.999999999999998 27 15.999999999999998 54 23 10.999999999999998 17 11.000000000000002 63 13.999999999999998 18 10.999999999999998 25 9.9999999999999982 13.000000000000002 10.999999999999995 29.000000000000004 10.000000000000002 17 13.000000000000002 9.9999999999999982 10.999999999999998 17 10.999999999999995 29.000000000000004 12.999999999999998 15.999999999999998 10.999999999999998 20
leaf_count=13 18 10 10 14 11 20 13 27 16 54 23 11 17 11 63 14 18 11 25 10 13 11 29 10 17 13 10 11 17 11 29 13 16 11 20
internal_value=-2.96344e-05 0.0382954 0.089698 0.0683202 0.0205092 -0.0801555 -0.0176026 0.185248 0.237698 0.165663 0.266857 -0.102417 -0.075089 -0.256972 -0.196042 0.118312 0.313078 -0.339123 0.372103 -0.117193 -0.347397 0.264278 0.326436 -0.275611 -0.190969 -0.113944 -0.0788141 -0.194133 -0.219854 0.0159262 -0.028907 0.402284 -0.0859254 -0.253535 -0.0851591
internal_weight=640 557 408 382 298 185 150 113 84 74 89 149 138 83 76 37 68 56 52 24 35 58 40 45 27 121 91 41 30 50 40 26 27 24 30
internal_count=640 557 408 382 298 185 150 113 84 74 89 149 138 83 76 37 68 56 52 24 35 58 40 45 27 121 91 41 30 50 40 26 27 24 30
is_linear=0
shrinkage=0.02


Tree=10
num_leaves=35
num_cat=0
split_feature=0 8 1 5 0 0 0 0 1 1 0 1 1 0 0 1 5 1 1 1 0 5 8 5 8 8 0 1 1 8 8 0 1 8
split_gain=15140.8 9679.67 6542.26 7430.27 11875.6 7429.77 11795.2 6711.99 4882.86 3484.38 3437.66 4485.79 3308.4 3564.51 2796.39 2683.12 2175.93 2140.3 1663.3 1551.81 1251.93 2620.97 1150.4 2419.73 2106.93 3428.61 1127.52 3305.24 961.814 2463.54 853.889 782.415 750.322 560.368
threshold=1.2164433803825923 0.94575652738975158 -0.85161375730859101 -0.82984024304332304 -1.2099999947602698 -0.94039517529995187 -0.54700952677923642 -1.6050812710763334 0.31147546240125018 -0.63369964243814947 -1.5236911368996335 1.3108493894581017 -0.97416000040226403 -0.34522981913283474 1.5267432669312602 -0.53056155085313061 -1.0994450625036358 1.3956339167216696 2.0364937026223129 0.044820147837995303 0.90105661044788044 -0.97735986123859886 1.1585195002249422 1.0000000180025095e-35 1.0996395563955008 1.0558066746822183 1.3046160257406838 1.0098557524973115 -1.149804976033336 1.1427590470468501 0.91642006912737506 1.5996552621312203 0.23429252806066944 1.0356451140840923
decision_type=2 2 2 2 2 2 2 2 2 2 2 2 2 2 2 2 2 2 2 2 2 2 2 2 2 2 2 2 2 2 2 2 2 2
left_child=1 2 30 8 7 19 9 18 16 -7 -9 -12 13 -3 17 -8 -4 26 -5 -6 -18 -22 24 -24 25 33 -2 -28 -26 -30 -1 -16 -21 -15
right_child=14 12 3 4 5 6 15 10 -10 -11 11 -13 -14 22 31 -17 20 -19 -20 32 21 -23 23 -25 28 -27 27 -29 29 -31 -32 -33 -34 -35
leaf_value=0.50962288881986184 -0.39279079642743692 0.22782572103730328 0.57890130263153872 0.026007670476926974 -0.53710564570383978 0.3872179548064274 -0.26545160390504263 0.54854716470055542 -0.080918896673825666 0.078502655298123725 0.27138358617163677 -0.16456645621909755 -0.43265566086983898 -0.14191783555515147 0.045354314881402083 0.00017881547105255851 0.41640336901936309 -0.58225524352477476 -0.31050917597100286 -0.14380078490453818 0.31144826265544834 -0.021375938442581923 -0.035246760932025521 -0.39422758771883731 0.19002965643854428 -0.47813183586876667 0.1006902769296476 -0.35615426637973002 0.068404289233111024 -0.28179886396940762 0.27589144808645466 -0.17308570103615703 -0.36975469795433247 0.024448050099907193
leaf_weight=13.000000000000002 18 13.999999999999998 9.9999999999999982 14.000000000000002 10.999999999999998 20 55 13.999999999999998 15.999999999999998 54 64 10.999999999999998 10.999999999999998 19 11.000000000000002 21 14.999999999999998 10.999999999999998 9.9999999999999982 13.000000000000002 28.999999999999993 14.000000000000005 15.000000000000002 14.999999999999998 9.9999999999999982 10.999999999999998 10.000000000000002 17 29 10.999999999999998 12.999999999999998 15.999999999999998 10.999999999999998 13.999999999999998
leaf_count=13 18 14 10 14 11 20 55 14 16 54 64 11 11 19 11 21 15 11 10 13 29 14 15 15 10 11 10 17 29 11 13 16 11 14
internal_value=-3.1481e-05 0.0375317 0.0879132 0.0669593 0.020096 -0.0785655 -0.0172521 0.181557 0.232979 0.162363 0.261543 0.207297 -0.100385 -0.0735988 -0.251866 -0.192137 0.306863 -0.332385 -0.114873 -0.340511 0.259026 0.203266 -0.107795 -0.215484 -0.0732229 -0.173995 -0.270128 -0.187168 0.0156067 -0.0283392 0.3943 -0.0842158 -0.248509 -0.0714475
internal_weight=640 557 408 382 298 185 150 113 84 74 89 75 149 138 83 76 68 56 24 35 58 43 124 30 94 44 45 27 50 40 26 27 24 33
internal_count=640 557 408 382 298 185 150 113 84 74 89 75 149 138 83 76 68 56 24 35 58 43 124 30 94 44 45 27 50 40 26 27 24 33
is_linear=0
shrinkage=0.02


end of trees

feature_importances:
Column_1=128
Column_0=111
Column_8=72
Column_5=34
Column_3=20
Column_4=2
Column_2=1

parameters:
[boosting: gbdt]
[objective: regression]
[metric: l2]
[tree_learner: serial]
[device_type: cpu]
[data_sample_strategy: goss]
[data: ]
[valid: ]
[num_iterations: 3000]
[learning_rate: 0.02]
[num_leaves: 63]
[num_threads: -1]
[seed: 42]
[deterministic: 0]
[force_col_wise: 0]
[force_row_wise: 0]
[histogram_pool_size: -1]
[max_depth: 8]
[min_data_in_leaf: 10]
[min_sum_hessian_in_leaf: 0.001]
[bagging_fraction: 1]
[pos_bagging_fraction: 1]
[neg_bagging_fraction: 1]
[bagging_freq: 0]
[bagging_seed: 400]
[bagging_by_query: 0]
[feature_fraction: 0.9]
[feature_fraction_bynode: 1]
[feature_fraction_seed: 30056]
[extra_trees: 0]
[extra_seed: 12879]
[early_stopping_round: 100]
[early_stopping_min_delta: 0]
[first_metric_only: 0]
[max_delta_step: 0]
[lambda_l1: 0.05]
[lambda_l2: 0.1]
[linear_lambda: 0]
[min_gain_to_split: 0]
[drop_rate: 0.1]
[max_drop: 50]
[skip_drop: 0.5]
[xgboost_dart_mode: 0]
[uniform_drop: 0]
[drop_seed: 17869]
[top_rate: 0.3]
[other_rate: 0.1]
[min_data_per_group: 100]
[max_cat_threshold: 32]
[cat_l2: 10]
[cat_smooth: 10]
[max_cat_to_onehot: 4]
[top_k: 20]
[monotone_constraints: ]
[monotone_constraints_method: basic]
[monotone_penalty: 0]
[feature_contri: ]
[forcedsplits_filename: ]
[refit_decay_rate: 0.9]
[cegb_tradeoff: 1]
[cegb_penalty_split: 0]
[cegb_penalty_feature_lazy: ]
[cegb_penalty_feature_coupled: ]
[path_smooth: 0]
[interaction_constraints: ]
[verbosity: -1]
[saved_feature_importance_type: 0]
[use_quantized_grad: 0]
[num_grad_quant_bins: 4]
[quant_train_renew_leaf: 0]
[stochastic_rounding: 1]
[linear_tree: 0]
[max_bin: 255]
[max_bin_by_feature: ]
[min_data_in_bin: 3]
[bin_construct_sample_cnt: 200000]
[data_random_seed: 175]
[is_enable_sparse: 1]
[enable_bundle: 1]
[use_missing: 1]
[zero_as_missing: 0]
[feature_pre_filter: 1]
[pre_partition: 0]
[two_round: 0]
[header: 0]
[label_column: ]
[weight_column: ]
[group_column: ]
[ignore_column: ]
[categorical_feature: ]
[forcedbins_filename: ]
[precise_float_parser: 0]
[parser_config_file: ]
[objective_seed: 16083]
[num_class: 1]
[is_unbalance: 0]
[scale_pos_weight: 1]
[sigmoid: 1]
[boost_from_average: 1]
[reg_sqrt: 0]
[alpha: 0.9]
[fair_c: 1]
[poisson_max_delta_step: 0.7]
[tweedie_variance_power: 1.5]
[lambdarank_truncation_level: 30]
[lambdarank_norm: 1]
[label_gain: ]
[lambdarank_position_bias_regularization: 0]
[eval_at: ]
[multi_error_top_k: 1]
[auc_mu_weights: ]
[num_machines: 1]
[local_listen_port: 12400]
[time_out: 120]
[machine_list_filename: ]
[machines: ]
[gpu_platform_id: -1]
[gpu_device_id: -1]
[gpu_use_dp: 0]
[num_gpu: 1]

end of parameters

pandas_categorical:null
