tree
version=v4
num_class=1
num_tree_per_iteration=1
label_index=0
max_feature_idx=12
objective=regression
feature_names=Column_0 Column_1 Column_2 Column_3 Column_4 Column_5 Column_6 Column_7 Column_8 Column_9 Column_10 Column_11 Column_12
feature_infos=[-1.6741034543470685:1.7905316635237578] [-1.1292378909555456:2.4911177916923215] [-2.4293755908292765:2.932735703548587] [-3.2944501125434389:1.1271232745612227] [-1.7988255009947465:1.9455913586516369] [-1.7905316635237791:1.6741034543470614] [-1.6648148163025338:1.8012740645826215] [-1.6711999482694202:1.7863419809922128] [-2.4884231867679358:1.1299620582821026] [-1.5989161706341444:1.6830833922846233] [-2.4228373691354541:1.1476437190468987] [-1.3442152333376058:1.3562666107466825] [-2.2057919548386273:1.2067602226012411]
tree_sizes=3380 3523 3511 3066 3524 3565 3504 3549

Tree=0
num_leaves=36
num_cat=0
split_feature=0 0 0 5 0 1 1 1 0 5 0 1 0 1 1 1 0 8 4 1 1 1 1 1 1 0 1 1 8 1 1 8 11 1 0
split_gain=35082.8 12048 10768.8 14505.1 9088.05 8337.93 7194.53 9229.03 6656.45 5866.69 4694.71 7024.65 5668.66 4661 4165.29 6023.4 3746.92 3269.94 5199.95 3732.23 4671.92 5025.74 3806.8 9501.01 4745.5 2471.5 2163.26 1311 867.516 640.637 492.329 1311.47 368.532 119.284 110.139
threshold=-1.1774128061613613 -1.4266295173562951 1.3879508223627111 -1.0289393363056543 0.53921978493660816 0.64383483193612601 -0.34886244579167192 -0.20538656018845861 1.544800500737145 -0.75358101204835715 1.2624710796631642 0.88847644525382552 1.145705207984419 0.95212556286997507 1.3348331768269721 1.6612651468014652 1.7051357275198995 1.0891330947153735 -0.0020141697844020521 -1.0277758703775206 -1.0545233217078305 -1.0765011053121381 -0.37803233029641703 -0.45918167657132675 -0.095487202677370556 0.056471330384184136 1.3862729791528032 -0.52134081964934997 -0.22422419775595914 1.8563693243231218 -1.1114632773558724 1.1247404301095518 1.3555178748588546 -0.018785550549360392 0.12618229855059918
decision_type=2 2 2 2 2 2 2 2 2 2 2 2 2 2 2 2 2 2 2 2 2 2 2 2 2 2 2 2 2 2 2 2 2 2 2
left_child=1 14 3 10 17 -3 9 -8 26 -6 12 -12 28 -7 -1 -16 32 19 30 20 21 -5 23 -21 -24 -20 -4 -11 -2 -17 31 -19 -10 -9 -27
right_child=2 5 8 4 6 13 7 33 16 27 11 -13 -14 -15 15 29 -18 18 25 22 -22 -23 24 -25 -26 34 -28 -29 -30 -31 -32 -33 -34 -35 -36
leaf_value=419.48111961317403 419.70373554368058 419.84758835495563 419.25618878635112 419.29557764646171 418.9145054563084 420.57399783740112 420.11440623882976 419.44618088751145 419.68008593949662 419.2981524403171 419.35196035479771 420.05388287166556 420.28204470097035 420.07415903483542 420.19521952861191 419.59030827755237 419.17279924081106 419.71586185943966 419.31534485389693 419.63538369048166 419.1950062529246 419.87400545884634 419.23049011684839 420.27068047183576 419.60228173412401 419.64867759513493 418.87595830101151 419.57515754709152 419.93498553785662 419.79684483105001 420.05408901639504 420.03992213721324 419.53583989269481 419.34805261386259 419.73437836601931
leaf_weight=13.999999999999998 13.000000000000002 17 14.000000000000002 11.000000000000002 15.999999999999998 21 9.9999999999999982 10 17.000000000000004 21.999999999999996 13.000000000000002 9.9999999999999982 18 11.999999999999998 14.999999999999998 13.000000000000002 9.9999999999999982 10.000000000000005 9.9999999999999982 139 20 12.999999999999998 19 9.9999999999999982 49 13.000000000000002 10.999999999999998 10.000000000000002 12.999999999999998 10.999999999999998 9.9999999999999982 9.9999999999999982 11.999999999999998 13 10.999999999999998
leaf_count=14 13 17 14 11 16 21 10 10 17 22 13 10 18 12 15 13 10 10 10 139 20 13 19 10 49 13 11 10 13 11 10 10 12 13 11
internal_value=419.649 419.987 419.584 419.617 419.572 420.209 419.382 419.61 419.341 419.226 419.889 419.658 420.01 420.394 419.776 419.882 419.505 419.619 419.747 419.588 419.42 419.609 419.622 419.678 419.498 419.578 419.086 419.384 419.82 419.685 419.939 419.879 419.62 419.39 419.688
internal_weight=640 103 537 473 406 50 81 33 64 48 67 23 44 33 53 39 39 325 64 261 44 24 217 149 68 34 25 32 26 24 30 20 29 23 24
internal_count=640 103 537 473 406 50 81 33 64 48 67 23 44 33 53 39 39 325 64 261 44 24 217 149 68 34 25 32 26 24 30 20 29 23 24
is_linear=0
shrinkage=1


Tree=1
num_leaves=36
num_cat=0
split_feature=0 0 0 5 0 1 1 1 0 5 0 1 0 1 1 1 0 8 4 1 1 1 1 1 1 0 1 1 8 1 1 8 11 1 0
split_gain=33701.3 11573.4 10346.6 13934.1 8730.51 8009.46 6911.32 8866.97 6394.86 5635.9 4509.73 6748.94 5445.18 4476.65 4001.5 5786.37 3599.99 3141.38 4996.11 3585.42 4487.68 4828.39 3656.96 9128.39 4558.61 2374.57 2078.48 1259.22 833.406 615.488 472.99 1260.02 354.053 114.545 105.82
threshold=-1.1774128061613613 -1.4266295173562951 1.3879508223627111 -1.0289393363056543 0.53921978493660816 0.64383483193612601 -0.34886244579167192 -0.20538656018845861 1.544800500737145 -0.75358101204835715 1.2624710796631642 0.88847644525382552 1.145705207984419 0.95212556286997507 1.3348331768269721 1.6612651468014652 1.7051357275198995 1.0891330947153735 -0.0020141697844020521 -1.0277758703775206 -1.0545233217078305 -1.0765011053121381 -0.37803233029641703 -0.45918167657132675 -0.095487202677370556 0.056471330384184136 1.3862729791528032 -0.52134081964934997 -0.22422419775595914 1.8563693243231218 -1.1114632773558724 1.1247404301095518 1.3555178748588546 -0.018785550549360392 0.12618229855059918
decision_type=2 2 2 2 2 2 2 2 2 2 2 2 2 2 2 2 2 2 2 2 2 2 2 2 2 2 2 2 2 2 2 2 2 2 2
left_child=1 14 3 10 17 -3 9 -8 26 -6 12 -12 28 -7 -1 -16 32 19 30 20 21 -5 23 -21 -24 -20 -4 -11 -2 -17 31 -19 -10 -9 -27
right_child=2 5 8 4 6 13 7 33 16 27 11 -13 -14 -15 15 29 -18 18 25 22 -22 -23 24 -25 -26 34 -28 -29 -30 -31 -32 -33 -34 -35 -36
leaf_value=-0.164290680039859 0.053905113161975181 0.19489573813321293 -0.38475478381975314 -0.34616166140582094 -0.71963996200087654 0.90684148661898212 0.45644623492023734 -0.19854696861588128 0.030723778351008535 -0.34360645276928381 -0.29088828465410765 0.39712131368051656 0.62070966947144568 0.41698206408949923 0.53562338835356249 -0.057270950142663847 -0.46651510144224262 0.065793775119403763 -0.32679219620062577 -0.013088295338909718 -0.44470315354380441 0.22079562441993303 -0.40992760753132279 0.60962590359225133 -0.045529929342434994 -6.0101793012546207e-05 -0.75746422191997909 -0.072124283290145405 0.28056542156306841 0.14517050038586868 0.39732337932775513 0.38343704657979533 -0.1106596859230483 -0.29471848203935691 0.083942118120623077
leaf_weight=13.999999999999998 13.000000000000002 17 14.000000000000002 11.000000000000002 15.999999999999998 21 9.9999999999999982 10 17.000000000000004 21.999999999999996 13.000000000000002 9.9999999999999982 18 11.999999999999998 14.999999999999998 13.000000000000002 9.9999999999999982 10.000000000000005 9.9999999999999982 139 20 12.999999999999998 19 9.9999999999999982 49 13.000000000000002 10.999999999999998 10.000000000000002 12.999999999999998 10.999999999999998 9.9999999999999982 9.9999999999999982 11.999999999999998 13 10.999999999999998
leaf_count=14 13 17 14 11 16 21 10 10 17 22 13 10 18 12 15 13 10 10 10 139 20 13 19 10 49 13 11 10 13 11 10 10 12 13 11
internal_value=0 0.331204 -0.0635756 -0.0312516 -0.0753628 0.549193 -0.261004 -0.0379465 -0.302033 -0.413937 0.235748 0.00862722 0.354159 0.730539 0.124888 0.228876 -0.141315 -0.0290263 0.0964363 -0.05982 -0.224229 -0.0393764 -0.0263911 0.0290787 -0.147814 -0.0694906 -0.551151 -0.259288 0.167914 0.0356906 0.284126 0.225783 -0.0279246 -0.253989 0.038588
internal_weight=640 103 537 473 406 50 81 33 64 48 67 23 44 33 53 39 39 325 64 261 44 24 217 149 68 34 25 32 26 24 30 20 29 23 24
internal_count=640 103 537 473 406 50 81 33 64 48 67 23 44 33 53 39 39 325 64 261 44 24 217 149 68 34 25 32 26 24 30 20 29 23 24
is_linear=0
shrinkage=0.02


Tree=2
num_leaves=36
num_cat=0
split_feature=2 1 1 5 2 1 1 1 4 5 1 1 1 1 1 1 1 8 4 1 1 1 5 1 2 1 1 1 8 1 1 8 11 1 4
split_gain=32374.3 11117.4 9940.85 13385.6 8387.04 7693.92 6639.26 8519.12 6143.54 5414.19 4332.04 6484.04 5230.51 4299.59 3844.16 5558.67 3458.83 3017.87 4800.26 3444.4 4310.69 4638.79 3522.82 2281.45 2005.95 1997.02 1209.48 948.806 800.636 591.326 454.41 1210.59 340.143 109.994 101.671
threshold=-0.85676190016504516 1.1601175367573278 1.0461441202180983 -1.0289393363056543 0.062797294227678532 0.64383483193612601 -0.34886244579167192 -0.20538656018845861 1.6331126539493617 -0.75358101204835715 0.6735507210369639 0.88847644525382552 0.35123891962247961 0.95212556286997507 1.3348331768269721 1.6612651468014652 2.1541061814859437 1.0891330947153735 -0.0020141697844020521 -1.0277758703775206 -1.0545233217078305 -1.0765011053121381 0.33391009134771821 -1.1250425666453148 -0.085256673246031311 1.3862729791528032 -0.52134081964934997 -0.96474688416415733 -0.22422419775595914 1.8563693243231218 -1.1114632773558724 1.1247404301095518 1.3555178748588546 -0.018785550549360392 0.048712590844583029
decision_type=2 2 2 2 2 2 2 2 2 2 2 2 2 2 2 2 2 2 2 2 2 2 2 2 2 2 2 2 2 2 2 2 2 2 2
left_child=1 5 3 10 17 -1 9 -8 25 -6 12 -12 28 -7 -3 -16 32 19 30 20 21 -5 27 -20 -24 -4 -11 -21 -2 -17 31 -19 -10 -9 -25
right_child=2 14 8 4 6 13 7 33 16 26 11 -13 -14 -15 15 29 -18 18 23 22 -22 -23 24 34 -26 -27 -28 -29 -30 -31 -32 -33 -34 -35 -36
leaf_value=0.19102061695522729 0.052835244914047584 -0.16102816831981037 -0.37711427695362271 -0.33930080894951337 -0.70533655409487139 0.88879059226592005 0.44740766147575756 -0.19461533990236793 0.030112873545864161 -0.33676543188310859 -0.28511494927733899 0.38925754613215385 0.60836404853104231 0.4087113269301485 0.52498188454583783 -0.056134273732891517 -0.457277180322326 0.064490935554598783 -0.32032105623347923 0.2218648494891266 -0.43585332348572076 0.21641339192863637 -0.036460511768636621 -5.8899144179948396e-05 -0.20914206140202163 -0.74245141381615998 -0.07069609840317527 0.049208157531216615 0.27499693615745952 0.14229323146579503 0.38945558557415949 0.37584421648837552 -0.10846477059293384 -0.2888690922278484 0.082278386880685631
leaf_weight=17 13.000000000000002 13.999999999999998 14.000000000000002 11.000000000000002 15.999999999999998 21 9.9999999999999982 10 17.000000000000004 21.999999999999996 13.000000000000002 9.9999999999999982 18 11.999999999999998 14.999999999999998 13.000000000000002 9.9999999999999982 10.000000000000005 9.9999999999999982 20 20 12.999999999999998 128 13.000000000000002 34 10.999999999999998 10.000000000000002 35 12.999999999999998 10.999999999999998 9.9999999999999982 9.9999999999999982 11.999999999999998 13 10.999999999999998
leaf_count=17 13 14 14 11 16 21 10 10 17 22 13 10 18 12 15 13 10 10 10 20 20 13 128 13 34 11 10 35 13 11 10 10 12 13 11
internal_value=5.1629e-07 0.324618 -0.0623103 -0.0306263 -0.0738606 0.53827 -0.255813 -0.0371898 -0.296045 -0.405706 0.231065 0.008463 0.34712 0.716009 0.122407 0.22433 -0.138516 -0.0284447 0.0945267 -0.058627 -0.21977 -0.0385985 -0.025862 -0.0681151 -0.0728152 -0.54022 -0.254129 0.112299 0.164582 0.0349832 0.278501 0.221313 -0.0273709 -0.248952 0.0378223
internal_weight=640 103 537 473 406 50 81 33 64 48 67 23 44 33 53 39 39 325 64 261 44 24 217 34 162 25 32 55 26 24 30 20 29 23 24
internal_count=640 103 537 473 406 50 81 33 64 48 67 23 44 33 53 39 39 325 64 261 44 24 217 34 162 25 32 55 26 24 30 20 29 23 24
is_linear=0
shrinkage=0.02


Tree=3
num_leaves=31
num_cat=0
split_feature=0 0 0 5 0 1 1 1 0 5 0 1 0 1 1 1 0 1 1 0 1 8 1 0 0 1 8 1 11 3
split_gain=31099.5 10679.4 9551.01 12858.7 8057.05 7390.82 6377.91 8184.92 5902.11 5201.2 4161.35 6229.55 5024.3 4129.53 3693 5339.93 3323.2 2911.31 9315.31 7839.43 4379.19 3893.73 1918.75 1717.1 1401.51 1161.7 769.154 568.113 326.779 105.623
threshold=-1.1774128061613613 -1.4266295173562951 1.3879508223627111 -1.0289393363056543 0.53921978493660816 0.64383483193612601 -0.34886244579167192 -0.20538656018845861 1.544800500737145 -0.75358101204835715 1.2624710796631642 0.88847644525382552 1.145705207984419 0.95212556286997507 1.3348331768269721 1.6612651468014652 1.7051357275198995 -0.37803233029641703 -0.45918167657132675 -0.72429151307966377 -0.095487202677370556 0.83777447225592749 1.3862729791528032 -1.0345053214202105 -1.07981745072838 -0.52134081964934997 -0.22422419775595914 1.8563693243231218 1.3555178748588546 0.48633943625317216
decision_type=2 2 2 2 2 2 2 2 2 2 2 2 2 2 2 2 2 2 2 2 2 2 2 2 2 2 2 2 2 2
left_child=1 14 3 10 17 -3 9 -8 22 -6 12 -12 26 -7 -1 -16 28 18 19 -5 -19 -21 -4 24 -22 -11 -2 -17 -10 -9
right_child=2 5 8 4 6 13 7 29 16 25 11 -13 -14 -15 15 27 -18 20 -20 21 23 -23 -24 -25 -26 -27 -28 -29 -30 -31
leaf_value=-0.15783042664223529 0.051786599923636156 0.18722252798359293 -0.36962546889663578 -0.56709740648175233 -0.69131747419049272 0.87109905098286844 0.43854813141397914 -0.19076156087441015 0.029514159040841436 -0.33006058533267202 -0.27945618840574304 0.38154945930632034 0.59626399740988378 0.40060466983101584 0.5145517866500956 -0.055020147716726052 -0.44822221123346007 -0.40104658885776057 0.59827609241598911 0.16908701933672582 -0.026620801063108188 -0.037411890753788729 -0.72773616584571632 0.11106383419827204 -0.3022286047817262 -0.069296161160610673 0.26953899907701795 0.13947302234065428 -0.10631342399218852 -0.2831358271882734
leaf_weight=13.999999999999998 13.000000000000002 17 14.000000000000002 9.9999999999999982 15.999999999999998 21 9.9999999999999982 10.000000000000002 17.000000000000004 21.999999999999996 13.000000000000002 9.9999999999999982 18 11.999999999999998 14.999999999999998 13.000000000000002 9.9999999999999982 19 9.9999999999999982 45 19.000000000000004 192 10.999999999999998 18 11.999999999999998 10.000000000000002 12.999999999999998 10.999999999999998 11.999999999999998 12.999999999999998
leaf_count=14 13 17 14 10 16 21 10 10 17 22 13 10 18 12 15 13 10 19 10 45 19 192 11 18 12 10 13 11 12 13
internal_value=1.2092e-06 0.318164 -0.0610705 -0.030014 -0.0723889 0.527565 -0.250726 -0.0364482 -0.290177 -0.397639 0.226476 0.00830188 0.340221 0.701768 0.119976 0.219875 -0.135774 -0.0278753 0.00292845 -0.021403 -0.144143 0.00184732 -0.529506 -0.0438934 -0.133969 -0.249073 0.161317 0.0342899 -0.0268282 -0.244016
internal_weight=640 103 537 473 406 50 81 33 64 48 67 23 44 33 53 39 39 325 257 247 68 237 25 49 31 32 26 24 29 23
internal_count=640 103 537 473 406 50 81 33 64 48 67 23 44 33 53 39 39 325 257 247 68 237 25 49 31 32 26 24 29 23
is_linear=0
shrinkage=0.02


Tree=4
num_leaves=36
num_cat=0
split_feature=0 0 0 5 0 3 3 3 0 5 0 3 0 3 3 3 0 8 4 3 3 3 5 0 0 3 0 3 8 3 0 8 11 3 0
split_gain=29875.3 10258.7 9176.29 12352.8 7739.8 7099.65 6126.84 7863.83 5670.16 4996.59 3997.38 5985.05 4826.22 3966.19 3547.78 5129.8 3192.89 2908.53 4612.05 3298.87 4140.79 4456.67 3413.71 3933.25 2192.05 1843.55 1115.81 840.323 738.91 545.811 436.434 1163.02 313.94 101.426 97.6654
threshold=-1.1774128061613613 -1.4266295173562951 1.3879508223627111 -1.0289393363056543 0.53921978493660816 0.77664396659010582 0.2536069473793009 0.35711596133768125 1.544800500737145 -0.75358101204835715 1.2624710796631642 0.85048535357031485 1.145705207984419 0.86767263583317833 0.95694732491732737 1.0176012570034294 1.7051357275198995 1.0891330947153735 -0.0020141697844020521 -1.0390749642272901 -1.2058914316063982 -1.3849794296421831 0.41582047894326019 -0.50818751176377741 0.056471330384184136 0.96736072169770593 0.73266772159840976 -0.65462903637182446 -0.22422419775595914 1.0503392641138061 -0.12303441264433453 1.1247404301095518 1.3555178748588546 0.48633943625317216 0.12618229855059918
decision_type=2 2 2 2 2 2 2 2 2 2 2 2 2 2 2 2 2 2 2 2 2 2 2 2 2 2 2 2 2 2 2 2 2 2 2
left_child=1 14 3 10 17 -3 9 -8 25 -6 12 -12 28 -7 -1 -16 32 19 30 20 21 -5 27 -24 -20 -4 -11 -21 -2 -17 -19 -32 -10 -9 -26
right_child=2 5 8 4 6 13 7 33 16 26 11 -13 -14 -15 15 29 -18 18 24 22 -22 -23 23 -25 34 -27 -28 -29 -30 -31 31 -33 -34 -35 -36
leaf_value=-0.15469622672872343 0.050758779977114143 0.1834999767102693 -0.36228539920022296 -0.33183441540142428 -0.67757697084675672 0.853759612585131 0.42986398583591573 -0.18698412678029272 0.028927315829092987 -0.32348924541904917 -0.27390971613294285 0.37399405526642754 0.58440459678186241 0.39265877463600851 0.5043288776574546 -0.053928141848731584 -0.43934650789393054 0.38248442933110893 -0.31323724426845512 0.040585971596346103 -0.42643513105401942 0.21286070175753297 -0.03531375478246452 -0.32429875395416674 0.00053212030243327587 -0.71331257381954716 -0.067923976784885529 0.18828472948667913 0.26418937246308072 0.13670869294587559 0.063954712931472452 0.36914258654754939 -0.10420472751964223 -0.27751634568658495 0.081389139922889528
leaf_weight=13.999999999999998 13.000000000000002 17 14.000000000000002 11.000000000000002 15.999999999999998 21 9.9999999999999982 10.000000000000002 17.000000000000004 22 13.000000000000002 9.9999999999999982 18 11.999999999999998 14.999999999999998 13.000000000000002 9.9999999999999982 10.000000000000002 9.9999999999999982 43 20 12.999999999999998 128 22 13.000000000000002 10.999999999999998 9.9999999999999982 24 12.999999999999998 10.999999999999998 10.000000000000002 9.9999999999999982 11.999999999999998 12.999999999999998 10.999999999999998
leaf_count=14 13 17 14 11 16 21 10 10 17 22 13 10 18 12 15 13 10 10 10 43 20 13 128 22 13 11 10 24 13 11 10 10 12 13 11
internal_value=1.67224e-07 0.311838 -0.0598574 -0.0294162 -0.0709492 0.517073 -0.24574 -0.0357214 -0.284425 -0.389733 0.221977 0.00814384 0.333459 0.68781 0.117592 0.215508 -0.133085 -0.0273206 0.093402 -0.0569514 -0.214654 -0.0370907 -0.0248861 -0.0778927 -0.0660207 -0.519004 -0.244117 0.0937096 0.158116 0.0336103 0.273733 0.217676 -0.0262962 -0.239178 0.037817
internal_weight=640 103 537 473 406 50 81 33 64 48 67 23 44 33 53 39 39 325 64 261 44 24 217 150 34 25 32 67 26 24 30 20 29 23 24
internal_count=640 103 537 473 406 50 81 33 64 48 67 23 44 33 53 39 39 325 64 261 44 24 217 150 34 25 32 67 26 24 30 20 29 23 24
is_linear=0
shrinkage=0.02


Tree=5
num_leaves=36
num_cat=0
split_feature=0 0 0 5 0 1 1 1 0 5 0 1 0 1 1 1 0 8 4 1 1 1 1 1 1 0 1 1 8 1 1 8 11 3 0
split_gain=28699.1 9854.5 8816.4 11866.6 7435.21 6819.96 5885.66 7555.33 5447.32 4800.02 3839.88 5750.14 4635.95 3809.32 3408.28 4927.94 3067.69 2794.28 4431.23 3169.04 3977.49 4281.67 3348.18 8446.48 4206.67 2106.11 1771.3 1071.74 709.855 524.384 419.288 1117.39 301.606 97.3943 93.8288
threshold=-1.1774128061613613 -1.4266295173562951 1.3879508223627111 -1.0289393363056543 0.53921978493660816 0.64383483193612601 -0.34886244579167192 -0.20538656018845861 1.544800500737145 -0.75358101204835715 1.2624710796631642 0.88847644525382552 1.145705207984419 0.95212556286997507 1.3348331768269721 1.6612651468014652 1.7051357275198995 1.0891330947153735 -0.0020141697844020521 -1.0277758703775206 -1.0545233217078305 -1.0765011053121381 -0.37803233029641703 -0.45918167657132675 -0.095487202677370556 0.056471330384184136 1.3862729791528032 -0.52134081964934997 -0.22422419775595914 1.8563693243231218 -1.1114632773558724 1.1247404301095518 1.3555178748588546 0.48633943625317216 0.12618229855059918
decision_type=2 2 2 2 2 2 2 2 2 2 2 2 2 2 2 2 2 2 2 2 2 2 2 2 2 2 2 2 2 2 2 2 2 2 2
left_child=1 14 3 10 17 -3 9 -8 26 -6 12 -12 28 -7 -1 -16 32 19 30 20 21 -5 23 -21 -24 -20 -4 -11 -2 -17 31 -19 -10 -9 -27
right_child=2 5 8 4 6 13 7 33 16 27 11 -13 -14 -15 15 29 -18 18 25 22 -22 -23 24 -25 -26 34 -28 -29 -30 -31 -32 -33 -34 -35 -36
leaf_value=-0.15162423343523176 0.049751338813141095 0.17985143920831512 -0.35509106987757028 -0.32525750357825467 -0.66410962877806667 0.83676534236889877 0.42135183069965626 -0.18328143608452066 0.028352169906883901 -0.31704874293297131 -0.26847333682402391 0.36658822276804709 0.57278107616782847 0.38487052357886448 0.49430912687289003 -0.052857813507545988 -0.43064658042227871 0.062688283719638735 -0.30703450113239855 -0.011875584888252574 -0.41794883784963122 0.20863599078345843 -0.39236506986368386 0.58712834405426928 -0.042319614926083757 0.00052155426440348134 -0.69917484867680191 -0.066578944744450017 0.25894589489652908 0.13399915385890654 0.37491048010269012 0.36183282965480695 -0.10213783705530088 -0.27200836181640625 0.079776041486241803
leaf_weight=13.999999999999998 13.000000000000002 17 14.000000000000002 11.000000000000002 15.999999999999998 21 9.9999999999999982 10.000000000000002 17.000000000000004 21.999999999999996 13.000000000000002 9.9999999999999982 18 11.999999999999998 14.999999999999998 13.000000000000002 9.9999999999999982 10.000000000000005 9.9999999999999982 139 20 12.999999999999998 19 9.9999999999999982 49 13.000000000000002 10.999999999999998 10.000000000000002 12.999999999999998 10.999999999999998 9.9999999999999982 9.9999999999999982 11.999999999999998 12.999999999999998 10.999999999999998
leaf_count=14 13 17 14 11 16 21 10 10 17 22 13 10 18 12 15 13 10 10 10 139 20 13 19 10 49 13 11 10 13 11 10 10 12 13 11
internal_value=4.35067e-07 0.305638 -0.0586669 -0.0288285 -0.0695361 0.506789 -0.240853 -0.035009 -0.278786 -0.381983 0.217568 0.00798876 0.326832 0.674129 0.115256 0.211228 -0.13045 -0.0267745 0.0915532 -0.0558175 -0.210385 -0.036358 -0.0243895 0.0286861 -0.140574 -0.0647127 -0.50871 -0.239259 0.154978 0.0329441 0.268314 0.213366 -0.0257748 -0.234435 0.0370683
internal_weight=640 103 537 473 406 50 81 33 64 48 67 23 44 33 53 39 39 325 64 261 44 24 217 149 68 34 25 32 26 24 30 20 29 23 24
internal_count=640 103 537 473 406 50 81 33 64 48 67 23 44 33 53 39 39 325 64 261 44 24 217 149 68 34 25 32 26 24 30 20 29 23 24
is_linear=0
shrinkage=0.02


Tree=6
num_leaves=36
num_cat=0
split_feature=0 0 0 0 0 1 1 1 0 8 1 1 1 0 1 0 0 8 4 1 1 1 1 1 1 0 1 0 1 1 8 8 11 0 1
split_gain=27569 9466.26 8470.7 10333.8 6679.75 6551.28 6261.11 6685.72 5233.25 4611.19 3658.65 3274.26 4734.02 3193.69 5524.45 5258.62 2947.4 2684.44 4257.5 3044.39 3820.63 4113.54 3216.4 8115.22 4041 2023.53 1701.88 1029.4 503.799 402.816 1073.56 313.38 289.756 90.1427 23.1581
threshold=-1.1774128061613613 -1.4266295173562951 1.3879508223627111 1.0254537878973531 0.53921978493660816 0.64383483193612601 -0.34886244579167192 -0.20538656018845861 1.544800500737145 0.48762303215239028 0.95212556286997507 1.3348331768269721 1.6612651468014652 1.2624710796631642 0.88847644525382552 1.145705207984419 1.7051357275198995 1.0891330947153735 -0.0020141697844020521 -1.0277758703775206 -1.0545233217078305 -1.0765011053121381 -0.37803233029641703 -0.45918167657132675 -0.095487202677370556 0.056471330384184136 1.3862729791528032 0.73266772159840976 1.8563693243231218 -1.1114632773558724 1.1247404301095518 -0.22422419775595914 1.3555178748588546 0.12618229855059918 -0.018785550549360392
decision_type=2 2 2 2 2 2 2 2 2 2 2 2 2 2 2 2 2 2 2 2 2 2 2 2 2 2 2 2 2 2 2 2 2 2 2
left_child=1 11 3 4 17 -3 9 -8 26 -6 -7 -1 -13 15 -15 31 32 19 29 20 21 -2 23 -21 -24 -20 -4 -11 -14 30 -19 -5 -10 -27 -9
right_child=2 5 8 13 6 10 7 34 16 27 -12 12 28 14 -16 -17 -18 18 25 22 -22 -23 24 -25 -26 33 -28 -29 -30 -31 -32 -33 -34 -35 -36
leaf_value=-0.14861327123980153 -0.31881097192162855 0.17627543086894071 -0.34803962633119395 0.048763908065912361 -0.65090993466584579 0.82010937613898549 0.41300825496711357 -0.17965210737568316 0.027788423460129403 -0.3107364526809071 0.37723670904301415 0.48448840128664944 -0.051808740455685669 -0.26314484574412567 0.35932903374775799 0.56138876045606412 -0.42211890447257766 0.061446933191601556 -0.30095462518163246 -0.011638243201394291 -0.40963146930903344 0.20449511870173098 -0.38455884264401741 0.57550202020324104 -0.041474949747870263 0.00051120375858918388 -0.68531731476654889 -0.06526054760017018 0.13134331179094746 0.36748650489467205 0.35466783674636687 0.18553403922006592 -0.10011196443857241 0.078194874385455707 -0.2300621398421358
leaf_weight=13.999999999999998 11.000000000000002 17 14.000000000000002 13.000000000000002 15.999999999999998 21 9.9999999999999982 10 17.000000000000004 22 11.999999999999998 14.999999999999998 13.000000000000002 13.000000000000002 9.9999999999999982 18 9.9999999999999982 10.000000000000005 9.9999999999999982 139 20 12.999999999999998 19 9.9999999999999982 49 13.000000000000002 10.999999999999998 9.9999999999999982 10.999999999999998 9.9999999999999982 9.9999999999999982 13.999999999999998 11.999999999999998 10.999999999999998 12
leaf_count=14 11 17 14 13 16 21 10 10 17 22 12 15 13 13 10 18 10 10 10 139 20 13 19 10 49 13 11 10 11 10 10 14 12 11 12
internal_value=1.46617e-06 0.299561 -0.0574991 -0.0282516 -0.0665683 0.49671 -0.230161 -0.0132977 -0.27326 -0.374388 0.660721 0.112967 0.207033 0.199706 0.00783661 0.297516 -0.127866 -0.0262378 0.0897409 -0.0547044 -0.206202 -0.0356397 -0.0239005 0.02812 -0.137775 -0.0634306 -0.498621 -0.234499 0.0322911 0.263002 0.209142 0.120142 -0.0252637 0.0363344 -0.20811
internal_weight=640 103 537 473 405 50 80 32 64 48 33 53 39 68 23 45 39 325 64 261 44 24 217 149 68 34 25 32 24 30 20 27 29 24 22
internal_count=640 103 537 473 405 50 80 32 64 48 33 53 39 68 23 45 39 325 64 261 44 24 217 149 68 34 25 32 24 30 20 27 29 24 22
is_linear=0
shrinkage=0.02


Tree=7
num_leaves=36
num_cat=0
split_feature=0 0 0 5 0 1 1 1 0 5 0 1 0 1 1 1 0 8 4 1 1 1 5 0 0 1 1 1 8 1 0 8 11 3 0
split_gain=26483.4 9093.32 8138.54 10975.2 6876.4 6293.19 5413.81 6991.25 5027.58 4429.79 3552.57 5307.62 4262.97 3513.93 3145.51 4547.73 2831.82 2578.93 4090.58 2924.64 3669.95 3952.01 3250.95 3800.92 1944.19 1635.17 988.74 807.157 664.021 484.022 386.99 1031.44 278.372 93.0453 86.6014
threshold=-1.1774128061613613 -1.4266295173562951 1.3879508223627111 -1.0289393363056543 0.53921978493660816 0.64383483193612601 -0.34886244579167192 -0.20538656018845861 1.544800500737145 -0.75358101204835715 1.2624710796631642 0.88847644525382552 1.145705207984419 0.95212556286997507 1.3348331768269721 1.6612651468014652 1.7051357275198995 1.0891330947153735 -0.0020141697844020521 -1.0277758703775206 -1.0545233217078305 -1.0765011053121381 0.41582047894326019 -0.50818751176377741 0.056471330384184136 1.3862729791528032 -0.52134081964934997 -0.93430426082372442 -0.22422419775595914 1.8563693243231218 -0.12303441264433453 1.1247404301095518 1.3555178748588546 0.48633943625317216 0.12618229855059918
decision_type=2 2 2 2 2 2 2 2 2 2 2 2 2 2 2 2 2 2 2 2 2 2 2 2 2 2 2 2 2 2 2 2 2 2 2
left_child=1 14 3 10 17 -3 9 -8 25 -6 12 -12 28 -7 -1 -16 32 19 30 20 21 -5 27 -24 -20 -4 -11 -21 -2 -17 -19 -32 -10 -9 -26
right_child=2 5 8 4 6 13 7 33 16 26 11 -13 -14 -15 15 29 -18 18 24 22 -22 -23 23 -25 34 -27 -28 -29 -30 -31 31 -33 -34 -35 -36
leaf_value=-0.14566209157307944 0.047796096801757802 0.17277055115727652 -0.34112820314177378 -0.31249221544007988 -0.63797259087888347 0.80378491342915181 0.40482986318002828 -0.17609464770496477 0.027235910292954465 -0.30454984936778906 -0.25792211641792118 0.35221360593739121 0.55022300562147275 0.36975433601820762 0.47486281246538981 -0.050780458959914336 -0.41376016295782408 0.36020955428038476 -0.29499514117099274 0.040245305875061289 -0.40147958176646065 0.2004364366021775 -0.03329391392667623 -0.3173739875172058 0.00050105836555247986 -0.67173444077775291 -0.063968241474415988 0.18500298401132162 0.25012415267128979 0.12874011082692191 0.060230162291243512 0.34764471375116024 -0.098126270672506538 -0.26267812772561572 0.076645080592181239
leaf_weight=13.999999999999998 13.000000000000002 17 14.000000000000002 11.000000000000002 15.999999999999998 21 9.9999999999999982 10.000000000000002 17.000000000000004 21.999999999999996 13.000000000000002 9.9999999999999982 18 11.999999999999998 14.999999999999998 13.000000000000002 9.9999999999999982 10.000000000000002 9.9999999999999982 43 20 12.999999999999998 128 22 13.000000000000002 10.999999999999998 10.000000000000002 24 12.999999999999998 10.999999999999998 10.000000000000002 9.9999999999999982 11.999999999999998 12.999999999999998 10.999999999999998
leaf_count=14 13 17 14 11 16 21 10 10 17 22 13 10 18 12 15 13 10 10 10 43 20 13 128 22 13 11 10 24 13 11 10 10 12 13 11
internal_value=2.35839e-06 0.293605 -0.0563548 -0.0276863 -0.0668352 0.486832 -0.231589 -0.0341649 -0.267843 -0.366944 0.209275 0.00768735 0.314372 0.64758 0.110723 0.202921 -0.125334 -0.0257119 0.0879645 -0.0536134 -0.202102 -0.0349355 -0.0234213 -0.0751493 -0.0621738 -0.488731 -0.229833 0.0923121 0.149569 0.0316511 0.257796 0.205002 -0.0247627 -0.226002 0.0356151
internal_weight=640 103 537 473 406 50 81 33 64 48 67 23 44 33 53 39 39 325 64 261 44 24 217 150 34 25 32 67 26 24 30 20 29 23 24
internal_count=640 103 537 473 406 50 81 33 64 48 67 23 44 33 53 39 39 325 64 261 44 24 217 150 34 25 32 67 26 24 30 20 29 23 24
is_linear=0
shrinkage=0.02


end of trees

feature_importances:
Column_1=119
Column_0=78
Column_8=24
Column_3=17
Column_5=17
Column_4=9
Column_11=8
Column_2=3

parameters:
[boosting: gbdt]
[objective: regression]
[metric: l2]
[tree_learner: serial]
[device_type: cpu]
[data_sample_strategy: goss]
[data: ]
[valid: ]
[num_iterations: 3000]
[learning_rate: 0.02]
[num_leaves: 63]
[num_threads: -1]
[seed: 42]
[deterministic: 0]
[force_col_wise: 0]
[force_row_wise: 0]
[histogram_pool_size: -1]
[max_depth: 8]
[min_data_in_leaf: 10]
[min_sum_hessian_in_leaf: 0.001]
[bagging_fraction: 1]
[pos_bagging_fraction: 1]
[neg_bagging_fraction: 1]
[bagging_freq: 0]
[bagging_seed: 400]
[bagging_by_query: 0]
[feature_fraction: 0.9]
[feature_fraction_bynode: 1]
[feature_fraction_seed: 30056]
[extra_trees: 0]
[extra_seed: 12879]
[early_stopping_round: 100]
[early_stopping_min_delta: 0]
[first_metric_only: 0]
[max_delta_step: 0]
[lambda_l1: 0.05]
[lambda_l2: 0.1]
[linear_lambda: 0]
[min_gain_to_split: 0]
[drop_rate: 0.1]
[max_drop: 50]
[skip_drop: 0.5]
[xgboost_dart_mode: 0]
[uniform_drop: 0]
[drop_seed: 17869]
[top_rate: 0.3]
[other_rate: 0.1]
[min_data_per_group: 100]
[max_cat_threshold: 32]
[cat_l2: 10]
[cat_smooth: 10]
[max_cat_to_onehot: 4]
[top_k: 20]
[monotone_constraints: ]
[monotone_constraints_method: basic]
[monotone_penalty: 0]
[feature_contri: ]
[forcedsplits_filename: ]
[refit_decay_rate: 0.9]
[cegb_tradeoff: 1]
[cegb_penalty_split: 0]
[cegb_penalty_feature_lazy: ]
[cegb_penalty_feature_coupled: ]
[path_smooth: 0]
[interaction_constraints: ]
[verbosity: -1]
[saved_feature_importance_type: 0]
[use_quantized_grad: 0]
[num_grad_quant_bins: 4]
[quant_train_renew_leaf: 0]
[stochastic_rounding: 1]
[linear_tree: 0]
[max_bin: 255]
[max_bin_by_feature: ]
[min_data_in_bin: 3]
[bin_construct_sample_cnt: 200000]
[data_random_seed: 175]
[is_enable_sparse: 1]
[enable_bundle: 1]
[use_missing: 1]
[zero_as_missing: 0]
[feature_pre_filter: 1]
[pre_partition: 0]
[two_round: 0]
[header: 0]
[label_column: ]
[weight_column: ]
[group_column: ]
[ignore_column: ]
[categorical_feature: ]
[forcedbins_filename: ]
[precise_float_parser: 0]
[parser_config_file: ]
[objective_seed: 16083]
[num_class: 1]
[is_unbalance: 0]
[scale_pos_weight: 1]
[sigmoid: 1]
[boost_from_average: 1]
[reg_sqrt: 0]
[alpha: 0.9]
[fair_c: 1]
[poisson_max_delta_step: 0.7]
[tweedie_variance_power: 1.5]
[lambdarank_truncation_level: 30]
[lambdarank_norm: 1]
[label_gain: ]
[lambdarank_position_bias_regularization: 0]
[eval_at: ]
[multi_error_top_k: 1]
[auc_mu_weights: ]
[num_machines: 1]
[local_listen_port: 12400]
[time_out: 120]
[machine_list_filename: ]
[machines: ]
[gpu_platform_id: -1]
[gpu_device_id: -1]
[gpu_use_dp: 0]
[num_gpu: 1]

end of parameters

pandas_categorical:null
