tree
version=v4
num_class=1
num_tree_per_iteration=1
label_index=0
max_feature_idx=12
objective=regression
feature_names=Column_0 Column_1 Column_2 Column_3 Column_4 Column_5 Column_6 Column_7 Column_8 Column_9 Column_10 Column_11 Column_12
feature_infos=[-1.7214841074641085:1.6945235157040242] [-1.1337708944162768:2.2261726220432387] [-2.606805332232395:2.5358675932687529] [-3.1974864908404599:1.0680774929334496] [-1.8536697855160327:1.8308226316589831] [-1.6945235157041945:1.7214841074639404] [-1.712104642604684:1.7043152967422295] [-1.7181604383579618:1.6913489315762396] [-2.2242773093584378:1.134497432315472] [-1.6358168548529348:1.6124746700128629] [-2.1779758614486826:1.1522511442065193] [-1.3583918057425766:1.3392472931202857] [-2.0223966571240002:1.2117999071482255]
tree_sizes=3730 3849

Tree=0
num_leaves=40
num_cat=0
split_feature=0 1 2 5 12 0 0 1 0 1 11 11 5 1 1 1 0 0 0 1 1 8 1 0 0 0 1 0 0 0 1 1 11 5 8 0 8 1 1
split_gain=42259.3 24562.5 17802.2 10187.9 9292.31 13295.2 19212.4 7871.31 8675.16 8151.39 5522.11 9154.37 5158.76 3049.93 7038.88 5942.37 3019.4 6468.99 2954.27 6760.24 5249.75 2755.32 2404.43 2341.04 6748.08 7781.69 1532.19 5152.65 1418.69 3854.69 1197.1 1146.6 1747.39 970.735 916.91 1222.9 738.855 107.384 62.5941
threshold=1.1617359676572392 -0.4718846772248021 -0.019606713425827926 -1.0709393758680812 1.2045217502695373 0.51245467920151089 -0.14025289573683355 1.005768874087428 -0.83750219494918543 1.175118673138319 1.3362464619288643 1.338744144017171 0.010054009397265442 -1.0858536377962897 -1.1005827074235486 -1.0059180896187681 -0.25674663614577686 -0.21734434159569313 -0.92144621377327696 -0.0455760201216193 0.38739251848999451 -1.7736049196859172 1.9575887625697883 0.77456559512163348 0.83623875180872109 0.87735418960011291 -0.56032472925424548 0.64436670878222624 -0.65076958164661447 -0.59252271144214286 -0.8140014164853876 0.65403750514688064 1.332371760158984 1.5518829265744538 -1.2031409268527375 1.3912971619925101 0.74913412806792723 -1.0059180896187681 1.3165400522192054
decision_type=2 2 2 2 2 2 2 2 2 2 2 2 2 2 2 2 2 2 2 2 2 2 2 2 2 2 2 2 2 2 2 2 2 2 2 2 2 2 2
left_child=1 2 28 -3 5 6 16 8 18 -9 31 -12 -6 14 -8 -15 37 -18 19 -5 -21 22 -11 -10 -25 -26 27 36 -1 -30 -31 -2 34 38 -33 -36 -7 -4 -23
right_child=10 3 4 7 12 26 13 9 23 21 11 -13 -14 15 -16 -17 17 -19 -20 20 -22 33 -24 24 25 -27 -28 -29 29 30 -32 32 -34 -35 35 -37 -38 -39 -40
leaf_value=419.75973511073607 419.49833350511125 420.31323460578921 419.13528806038141 420.0323705504652 419.45830849975943 419.32225474854414 419.7943200949054 420.4492580966367 420.15877416472398 419.51422531634842 418.73792847254123 419.46058133178508 418.94097390625046 419.5001603588691 420.40850457352565 419.92638690000757 419.87478293161138 419.26128478286017 419.37257775123942 419.38295642124422 419.73231844707226 419.97908477100998 419.9144116990621 419.43965903508763 420.40747064235785 419.82038824307955 419.14563245221188 419.76623887250918 420.32932051186515 419.9771210436158 419.69435010182974 419.08499671622667 419.53852478671718 420.16612846939415 419.20968467970579 419.47957869615641 419.11119153916297 419.24436476676772 419.90325785758648
leaf_weight=13.999999999999998 19 18 12.000000000000002 17 15.000000000000002 19.000000000000004 23 12.999999999999998 12.999999999999998 11.000000000000002 17.000000000000004 11.999999999999998 15.999999999999998 22 10.999999999999998 32 11.000000000000002 18 14.999999999999998 29 42 10.000000000000002 12.999999999999998 11.999999999999998 11.999999999999998 36 17 9.9999999999999982 9.9999999999999947 14.999999999999998 10.000000000000005 9.9999999999999947 10.999999999999998 10.999999999999998 18.000000000000007 10.999999999999998 10.999999999999998 9.9999999999999982 13.999999999999998
leaf_count=14 19 18 12 17 15 19 23 13 13 11 17 12 16 22 11 32 11 18 15 29 42 10 13 12 12 36 17 10 10 15 10 10 11 11 18 11 11 10 14
internal_value=419.649 419.718 419.586 419.855 419.511 419.562 419.668 419.821 419.749 419.997 419.267 419.035 419.19 419.847 419.995 419.753 419.359 419.494 419.631 419.675 419.589 419.897 419.731 419.916 419.863 419.968 419.305 419.374 419.931 419.999 419.865 419.365 419.315 420.01 419.252 419.311 419.243 419.183 419.936
internal_weight=640 542 276 266 227 196 139 248 176 72 98 29 31 88 34 54 51 29 103 88 71 59 24 73 60 48 57 40 49 35 25 69 50 35 39 29 30 22 24
internal_count=640 542 276 266 227 196 139 248 176 72 98 29 31 88 34 54 51 29 103 88 71 59 24 73 60 48 57 40 49 35 25 69 50 35 39 29 30 22 24
is_linear=0
shrinkage=1


Tree=1
num_leaves=40
num_cat=0
split_feature=0 1 2 5 12 0 0 1 0 1 11 11 5 1 1 1 0 0 0 1 0 8 1 0 0 0 1 0 0 0 1 1 11 5 8 0 8 1 1
split_gain=40597.5 23596.4 17102.9 9786.34 8926.53 12771.9 18456.7 7562.32 8333.74 7830.87 5304.5 8793.67 4955.65 2930.35 6762.9 5707.9 2901.21 6214.56 2838.07 6494.02 5042.52 2647.23 2309.99 2249.15 6482.72 7476.52 1471.77 4950.2 1363.01 3703.71 1149.96 1101.62 1678.65 932.623 881.123 1174.59 710 103.081 60.1443
threshold=1.1617359676572392 -0.4718846772248021 -0.019606713425827926 -1.0709393758680812 1.2045217502695373 0.51245467920151089 -0.14025289573683355 1.005768874087428 -0.83750219494918543 1.175118673138319 1.3362464619288643 1.338744144017171 0.010054009397265442 -1.0858536377962897 -1.1005827074235486 -1.0059180896187681 -0.25674663614577686 -0.21734434159569313 -0.92144621377327696 -0.0455760201216193 -1.1492942648672393 -1.7736049196859172 1.9575887625697883 0.77456559512163348 0.83623875180872109 0.87735418960011291 -0.56032472925424548 0.64436670878222624 -0.65076958164661447 -0.59252271144214286 -0.8140014164853876 0.65403750514688064 1.332371760158984 1.5518829265744538 -1.2031409268527375 1.3912971619925101 0.74913412806792723 -1.0059180896187681 1.3165400522192054
decision_type=2 2 2 2 2 2 2 2 2 2 2 2 2 2 2 2 2 2 2 2 2 2 2 2 2 2 2 2 2 2 2 2 2 2 2 2 2 2 2
left_child=1 2 28 -3 5 6 16 8 18 -9 31 -12 -6 14 -8 -15 37 -18 19 -5 -21 22 -11 -10 -25 -26 27 36 -1 -30 -31 -2 34 38 -33 -36 -7 -4 -23
right_child=10 3 4 7 12 26 13 9 23 21 11 -13 -14 15 -16 -17 17 -19 -20 20 -22 33 -24 24 25 -27 -28 -29 29 30 -32 32 -34 -35 35 -37 -38 -39 -40
leaf_value=0.10879203201185728 -0.14741303978166029 0.65127920993783861 -0.50326669080198283 0.37600388354028175 -0.18664702573359404 -0.31998865811612587 0.14268219456528169 0.78463107349308403 0.49991241404118425 -0.1318475533390904 -0.89270075658608583 -0.18442553249272436 -0.69369759731411196 -0.14562041280496174 0.74470724685772038 0.27211234143218516 0.221563875911472 -0.37974783763042469 -0.27067451131264891 0.081911914399570629 -0.26048509925911106 0.32380437074321322 0.26039990297710619 -0.20493283071793802 0.74368253849754651 0.16822585525274936 -0.49310317982009971 0.11517325712902712 0.6671047611047729 0.32185799516589436 0.044707993847308745 -0.55257896989879063 -0.10802969580298072 0.50713499915492433 -0.43032166834035607 -0.16580749451577126 -0.52689325349824923 -0.39636671657609468 0.24946466161849651
leaf_weight=13.999999999999998 19 18 12.000000000000002 17 15.000000000000002 19.000000000000004 23 12.999999999999998 12.999999999999998 11.000000000000002 17.000000000000004 11.999999999999998 15.999999999999998 22 10.999999999999998 32 11.000000000000002 18 14.999999999999998 42 29 10.000000000000002 12.999999999999998 11.999999999999998 11.999999999999998 36 17 9.9999999999999982 9.9999999999999947 14.999999999999998 10.000000000000005 9.9999999999999947 10.999999999999998 10.999999999999998 18.000000000000007 10.999999999999998 10.999999999999998 9.9999999999999982 13.999999999999998
leaf_count=14 19 18 12 17 15 19 23 13 13 11 17 12 16 22 11 32 11 18 15 42 29 10 13 12 12 36 17 10 10 15 10 10 11 11 18 11 11 10 14
internal_value=0 0.067752 -0.0617884 0.202139 -0.13495 -0.0849476 0.0184824 0.169287 0.098538 0.341837 -0.374391 -0.601297 -0.449772 0.193868 0.339097 0.101952 -0.283912 -0.151652 -0.0173438 0.0260845 -0.058096 0.243093 0.0807772 0.261856 0.209515 0.313358 -0.33678 -0.269253 0.276707 0.343344 0.211658 -0.278279 -0.327594 0.35382 -0.389062 -0.330938 -0.397385 -0.456734 0.281696
internal_weight=640 542 276 266 227 196 139 248 176 72 98 29 31 88 34 54 51 29 103 88 71 59 24 73 60 48 57 40 49 35 25 69 50 35 39 29 30 22 24
internal_count=640 542 276 266 227 196 139 248 176 72 98 29 31 88 34 54 51 29 103 88 71 59 24 73 60 48 57 40 49 35 25 69 50 35 39 29 30 22 24
is_linear=0
shrinkage=0.02


end of trees

feature_importances:
Column_0=29
Column_1=27
Column_5=6
Column_8=6
Column_11=6
Column_2=2
Column_12=2

parameters:
[boosting: gbdt]
[objective: regression]
[metric: l2]
[tree_learner: serial]
[device_type: cpu]
[data_sample_strategy: goss]
[data: ]
[valid: ]
[num_iterations: 3000]
[learning_rate: 0.02]
[num_leaves: 63]
[num_threads: -1]
[seed: 42]
[deterministic: 0]
[force_col_wise: 0]
[force_row_wise: 0]
[histogram_pool_size: -1]
[max_depth: 8]
[min_data_in_leaf: 10]
[min_sum_hessian_in_leaf: 0.001]
[bagging_fraction: 1]
[pos_bagging_fraction: 1]
[neg_bagging_fraction: 1]
[bagging_freq: 0]
[bagging_seed: 400]
[bagging_by_query: 0]
[feature_fraction: 0.9]
[feature_fraction_bynode: 1]
[feature_fraction_seed: 30056]
[extra_trees: 0]
[extra_seed: 12879]
[early_stopping_round: 100]
[early_stopping_min_delta: 0]
[first_metric_only: 0]
[max_delta_step: 0]
[lambda_l1: 0.05]
[lambda_l2: 0.1]
[linear_lambda: 0]
[min_gain_to_split: 0]
[drop_rate: 0.1]
[max_drop: 50]
[skip_drop: 0.5]
[xgboost_dart_mode: 0]
[uniform_drop: 0]
[drop_seed: 17869]
[top_rate: 0.3]
[other_rate: 0.1]
[min_data_per_group: 100]
[max_cat_threshold: 32]
[cat_l2: 10]
[cat_smooth: 10]
[max_cat_to_onehot: 4]
[top_k: 20]
[monotone_constraints: ]
[monotone_constraints_method: basic]
[monotone_penalty: 0]
[feature_contri: ]
[forcedsplits_filename: ]
[refit_decay_rate: 0.9]
[cegb_tradeoff: 1]
[cegb_penalty_split: 0]
[cegb_penalty_feature_lazy: ]
[cegb_penalty_feature_coupled: ]
[path_smooth: 0]
[interaction_constraints: ]
[verbosity: -1]
[saved_feature_importance_type: 0]
[use_quantized_grad: 0]
[num_grad_quant_bins: 4]
[quant_train_renew_leaf: 0]
[stochastic_rounding: 1]
[linear_tree: 0]
[max_bin: 255]
[max_bin_by_feature: ]
[min_data_in_bin: 3]
[bin_construct_sample_cnt: 200000]
[data_random_seed: 175]
[is_enable_sparse: 1]
[enable_bundle: 1]
[use_missing: 1]
[zero_as_missing: 0]
[feature_pre_filter: 1]
[pre_partition: 0]
[two_round: 0]
[header: 0]
[label_column: ]
[weight_column: ]
[group_column: ]
[ignore_column: ]
[categorical_feature: ]
[forcedbins_filename: ]
[precise_float_parser: 0]
[parser_config_file: ]
[objective_seed: 16083]
[num_class: 1]
[is_unbalance: 0]
[scale_pos_weight: 1]
[sigmoid: 1]
[boost_from_average: 1]
[reg_sqrt: 0]
[alpha: 0.9]
[fair_c: 1]
[poisson_max_delta_step: 0.7]
[tweedie_variance_power: 1.5]
[lambdarank_truncation_level: 30]
[lambdarank_norm: 1]
[label_gain: ]
[lambdarank_position_bias_regularization: 0]
[eval_at: ]
[multi_error_top_k: 1]
[auc_mu_weights: ]
[num_machines: 1]
[local_listen_port: 12400]
[time_out: 120]
[machine_list_filename: ]
[machines: ]
[gpu_platform_id: -1]
[gpu_device_id: -1]
[gpu_use_dp: 0]
[num_gpu: 1]

end of parameters

pandas_categorical:null
