tree
version=v4
num_class=1
num_tree_per_iteration=1
label_index=0
max_feature_idx=12
objective=regression
feature_names=Column_0 Column_1 Column_2 Column_3 Column_4 Column_5 Column_6 Column_7 Column_8 Column_9 Column_10 Column_11 Column_12
feature_infos=[-1.7603159286828358:1.6828107638768599] [-1.1283463880550726:2.3681280685266781] [-2.8272365897574652:2.4452521968170342] [-3.0206919023456456:1.0881958462057402] [-1.9097833101091746:1.8040695634687913] [-1.6828107638772269:1.7603159286824723] [-1.749620220579202:1.6917658153985839] [-1.7564158379505814:1.6799144750206048] [-2.3657331806838187:1.1290296517006295] [-1.6601162870886699:1.6079246978394954] [-2.3074292200394342:1.1457107815882062] [-1.346440744471042:1.3568916520324881] [-2.1142884929466139:1.201466742000374]
tree_sizes=3335 3464 3481 3455

Tree=0
num_leaves=36
num_cat=0
split_feature=11 0 1 5 8 0 0 0 0 1 1 1 1 1 1 0 0 0 11 0 0 8 0 0 8 1 0 8 0 5 0 0 8 0 1
split_gain=25947.9 18348.7 14241 13199.2 17984.7 7646.48 6985.57 19356.5 8675.82 7351.49 13998.4 4321.33 11546.7 5084.3 6847.67 3645.22 11059.5 3569.15 3550.91 3497.29 2273 2162.91 2134.08 5447.29 2533.74 2118.16 1798.75 1763.95 1666.99 1277.23 719.426 663.98 571.785 506.953 329.231
threshold=-1.3459175584659098 1.2441515492534811 1.6365370490757922 0.2058608546401216 0.72607375088542792 -0.15015809722797305 -0.86036825423725294 -1.1945847987122085 -1.5270606320180231 0.30730356172368484 0.060744678183935204 -0.21095637696239081 -0.814472007326842 -1.0732086147095561 -0.95641190967932388 0.85597295853517374 0.74804886604846932 1.026562653110932 -1.3198567766130804 1.3799270204464318 1.5052582246245401 0.55054193847453547 -0.30159996894318708 -0.3834133938927855 0.86431339374076466 -1.1265630958824888 1.3155207071882373 -1.7961735046299505 1.4147412438292395 -1.1693009689807912 -0.77855482928765452 -0.42867188429043573 0.66587981917648065 1.0857468328617055 1.8462145306159026
decision_type=2 2 2 2 2 2 2 2 2 2 2 2 2 2 2 2 2 2 2 2 2 2 2 2 2 2 2 2 2 2 2 2 2 2 2
left_child=-1 3 19 5 6 -2 7 8 34 10 -9 12 13 25 -15 16 -14 -13 -10 26 28 30 23 24 -6 -7 -3 -4 -21 -19 -8 -26 -23 -31 -5
right_child=1 2 27 4 22 11 21 9 18 -11 -12 17 15 14 -16 -17 -18 29 -20 20 -22 32 -24 -25 31 -27 -28 -29 -30 33 -32 -33 -34 -35 -36
leaf_value=420.52969820437539 420.26921411530537 419.19297907818134 419.60011855693841 419.57852524860488 419.39884947945029 419.90450544035895 419.90849362812742 419.15159143399512 420.13345882532155 418.856200719073 419.86504263312776 420.22928886576818 419.38795473766442 420.17615652179393 419.70822211084322 419.14475993175319 420.02093214950816 419.67694581993368 419.8120237219423 419.23191359501072 419.10152604481124 419.63108060692952 419.04953608564432 419.69868372173175 419.00330306417163 419.65612842066798 418.86640038448917 419.91137838492159 419.55074299173208 419.78259158833191 420.11512947245762 419.23137238389194 419.83509680943916 419.95779767144916 419.43549522848605
leaf_weight=12.999999999999998 11.999999999999998 17.000000000000004 15.000000000000002 11.000000000000002 23 18 19.000000000000004 28 21 10.999999999999998 18 10.999999999999998 41 29 22 9.9999999999999982 14.999999999999998 14.999999999999995 40 10.000000000000002 10.999999999999998 12.000000000000002 10.999999999999998 13.999999999999998 13.000000000000002 57 11.999999999999998 13.999999999999998 19 10.000000000000005 10.999999999999998 9.9999999999999982 9.9999999999999982 21 15.999999999999998
leaf_count=13 12 17 15 11 23 18 19 28 21 11 18 11 41 29 22 10 15 15 40 10 11 12 11 14 13 57 12 14 19 10 11 10 10 21 16
internal_value=419.649 419.63 419.379 419.677 419.578 419.778 419.677 419.605 419.791 419.319 419.431 419.754 419.709 419.821 419.975 419.495 419.558 419.907 419.923 419.223 419.346 419.875 419.306 419.354 419.249 419.716 419.056 419.751 419.44 419.829 419.986 419.1 419.724 419.902 419.493
internal_weight=640 627 98 529 268 261 197 145 88 57 46 249 192 126 51 66 56 57 61 69 40 52 71 60 46 75 29 29 29 46 30 23 22 31 27
internal_count=640 627 98 529 268 261 197 145 88 57 46 249 192 126 51 66 56 57 61 69 40 52 71 60 46 75 29 29 29 46 30 23 22 31 27
is_linear=0
shrinkage=1


Tree=1
num_leaves=36
num_cat=0
split_feature=11 0 1 5 8 0 0 0 0 1 1 1 1 1 1 0 0 0 11 0 0 8 0 0 8 1 0 8 0 5 0 1 8 0 1
split_gain=24928.2 17627.6 13681.4 12680.3 17277.8 7346.29 6711.2 18593.6 8333.98 7063.63 13446.3 4151.6 11091.2 4883.57 6577.36 3502.66 10623.7 3429.24 3411.09 3359.5 2183.78 2077.8 2050.44 5233.15 2434.56 2034.74 1728.29 1694.59 1601.7 1226.92 691.299 637.709 549.369 486.865 316.24
threshold=-1.3459175584659098 1.2441515492534811 1.6365370490757922 0.2058608546401216 0.72607375088542792 -0.15015809722797305 -0.86036825423725294 -1.1945847987122085 -1.5270606320180231 0.30730356172368484 0.060744678183935204 -0.21095637696239081 -0.814472007326842 -1.0732086147095561 -0.95641190967932388 0.85597295853517374 0.74804886604846932 1.026562653110932 -1.3198567766130804 1.3799270204464318 1.5052582246245401 0.55054193847453547 -0.30159996894318708 -0.3834133938927855 0.86431339374076466 -1.1265630958824888 1.3155207071882373 -1.7961735046299505 1.4147412438292395 -1.1693009689807912 -0.77855482928765452 -0.92101941945432164 0.66587981917648065 1.0857468328617055 1.8462145306159026
decision_type=2 2 2 2 2 2 2 2 2 2 2 2 2 2 2 2 2 2 2 2 2 2 2 2 2 2 2 2 2 2 2 2 2 2 2
left_child=-1 3 19 5 6 -2 7 8 34 10 -9 12 13 25 -15 16 -14 -13 -10 26 28 30 23 24 -6 -7 -3 -4 -21 -19 -8 -26 -23 -31 -5
right_child=1 2 27 4 22 11 21 9 18 -11 -12 17 15 14 -16 -17 -18 29 -20 20 -22 32 -24 -25 31 -27 -28 -29 -30 33 -32 -33 -34 -35 -36
leaf_value=0.86347461649479773 0.60816830285324541 -0.44669790457563779 -0.04765437685101237 -0.068822015212462812 -0.24491326400985963 0.25067945864977753 0.2545868401252786 -0.48723990328371314 0.475071484624492 -0.77683020617510823 0.21200155416246275 0.56904356879156992 -0.25558116905010531 0.51690553140804119 0.058298943981326005 -0.49399919264387382 0.36479868882539257 0.027646508848430312 0.16002726814098786 -0.40857133242163313 -0.53636716413068342 -0.017308036867252061 -0.58732674306577393 0.048953010613191225 -0.40910183500535402 0.0072419897050657123 -0.76682105475220796 0.2574239544158286 -0.096046259215989027 0.13120212451066113 0.4571467927125123 -0.63262566020470534 0.18266764385865469 0.30290691181381729 -0.20900526940452385
leaf_weight=12.999999999999998 11.999999999999998 17.000000000000004 15.000000000000002 11.000000000000002 23 18 19.000000000000004 28 21 10.999999999999998 18 10.999999999999998 41 29 22 9.9999999999999982 14.999999999999998 14.999999999999995 40 10.000000000000002 10.999999999999998 12.000000000000002 10.999999999999998 13.999999999999998 10.000000000000002 57 11.999999999999998 13.999999999999998 19 10.000000000000005 10.999999999999998 12.999999999999998 9.9999999999999982 21 15.999999999999998
leaf_count=13 12 17 15 11 23 18 19 28 21 11 18 11 41 29 22 10 15 15 40 10 11 12 11 14 10 57 12 14 19 10 11 13 10 21 16
internal_value=-7.20603e-07 -0.0180402 -0.264278 0.0276162 -0.0690015 0.126817 0.0274359 -0.0424868 0.139741 -0.323591 -0.213736 0.103381 0.0588124 0.168788 0.319596 -0.151064 -0.0890361 0.253123 0.269102 -0.417305 -0.297175 0.222139 -0.336258 -0.289311 -0.392165 0.0659363 -0.581377 0.099969 -0.204882 0.176485 0.330164 -0.537676 0.07396 0.24815 -0.152395
internal_weight=640 627 98 529 268 261 197 145 88 57 46 249 192 126 51 66 56 57 61 69 40 52 71 60 46 75 29 29 29 46 30 23 22 31 27
internal_count=640 627 98 529 268 261 197 145 88 57 46 249 192 126 51 66 56 57 61 69 40 52 71 60 46 75 29 29 29 46 30 23 22 31 27
is_linear=0
shrinkage=0.02


Tree=2
num_leaves=36
num_cat=0
split_feature=11 2 1 5 8 2 1 1 1 1 1 1 1 1 1 1 2 1 11 1 1 8 1 1 8 1 1 8 1 5 2 1 8 1 1
split_gain=23948.7 16934.8 13143.8 12181.9 16598.6 7057.88 6447.61 17860.8 8005.61 6787.04 12916.1 3988.54 10653.7 4690.76 6317.71 3365.67 10205 3294.82 3276.77 3227.14 2098.07 1996.04 1970.08 5027.42 2339.26 1954.61 1660.6 1627.96 1538.96 1178.59 664.272 612.476 527.831 467.573 303.762
threshold=-1.3459175584659098 0.98033789895244883 1.6365370490757922 0.2058608546401216 0.72607375088542792 -0.014953263146132496 -0.29399831779104496 0.48531489259991961 1.4997599156071726 0.30730356172368484 0.060744678183935204 -0.21095637696239081 -0.814472007326842 -1.0732086147095561 -0.95641190967932388 -0.29399831779104496 0.20274444010232823 0.060744678183935204 -1.3198567766130804 1.0271234681193631 1.4283095875910752 0.55054193847453547 -1.0251654602403566 -0.96438052378473837 0.86431339374076466 -1.1265630958824888 0.82438606429427674 -1.7961735046299505 1.1259650203061471 -1.1693009689807912 -0.25672263329955519 -0.92101941945432164 0.66587981917648065 0.20292673491138433 1.8462145306159026
decision_type=2 2 2 2 2 2 2 2 2 2 2 2 2 2 2 2 2 2 2 2 2 2 2 2 2 2 2 2 2 2 2 2 2 2 2
left_child=-1 3 19 5 6 -2 21 9 18 10 -8 12 13 25 -15 16 -14 -13 -9 26 28 30 -6 -24 -25 -7 -3 -4 -21 -19 -5 -26 -23 -31 -10
right_child=1 2 27 4 22 11 7 8 34 -11 -12 17 15 14 -16 -17 -18 29 -20 20 -22 32 23 24 31 -27 -28 -29 -30 33 -32 -33 -34 -35 -36
leaf_value=0.84633696472371811 0.59610544799773157 -0.43781622022216071 -0.046707602463021178 0.24952174700991639 -0.57568600405443893 0.24569356607468745 -0.47752979345593172 0.46561506253283169 -0.067457999538730912 -0.76143357079308316 0.20778495364426244 0.55776523031629954 -0.25048197757788093 0.50660294139508122 0.057138237758998962 -0.48421703225315205 0.35755102296538704 0.027097236336461765 0.1568346994832864 -0.40048079764488881 -0.52573650325740784 -0.016964727019475507 0.047980909415170664 -0.24003619819165919 -0.40100081453228925 0.0070973894331480278 -0.75161135996668793 0.25231198412306766 -0.094135387480571001 0.12860405600897148 0.44808623202212228 -0.62006971228213714 0.17905047072042332 0.29687747928203562 -0.20485112816650675
leaf_weight=12.999999999999998 11.999999999999998 17.000000000000004 15.000000000000002 19.000000000000004 10.999999999999998 18 28 21 11.000000000000002 10.999999999999998 18 10.999999999999998 41 29 22 9.9999999999999982 14.999999999999998 14.999999999999995 40 10.000000000000002 10.999999999999998 12.000000000000002 13.999999999999998 23 10.000000000000002 57 11.999999999999998 13.999999999999998 19 10.000000000000005 10.999999999999998 12.999999999999998 9.9999999999999982 21 15.999999999999998
leaf_count=13 12 17 15 19 11 18 28 21 11 11 18 11 41 29 22 10 15 15 40 10 11 12 14 23 10 57 12 14 19 10 11 13 10 21 16
internal_value=-2.91746e-06 -0.0176844 -0.259035 0.0270657 -0.0676338 0.124298 0.026889 -0.0416467 0.136954 -0.317156 -0.209472 0.101326 0.057641 0.165426 0.313227 -0.148054 -0.0872511 0.248098 0.263741 -0.409026 -0.291285 0.217731 -0.329584 -0.283566 -0.384379 0.0646247 -0.569833 0.0979833 -0.200819 0.172976 0.323609 -0.527014 0.0724949 0.243216 -0.149369
internal_weight=640 627 98 529 268 261 197 145 88 57 46 249 192 126 51 66 56 57 61 69 40 52 71 60 46 75 29 29 29 46 30 23 22 31 27
internal_count=640 627 98 529 268 261 197 145 88 57 46 249 192 126 51 66 56 57 61 69 40 52 71 60 46 75 29 29 29 46 30 23 22 31 27
is_linear=0
shrinkage=0.02


Tree=3
num_leaves=36
num_cat=0
split_feature=11 0 1 5 8 0 0 0 0 1 1 11 1 1 1 1 0 0 0 0 11 0 1 0 0 8 1 0 8 0 5 8 1 1 0
split_gain=23007.6 16269.2 12627.3 11703 15946.1 6780.79 6194.37 17156.9 7718.6 6521.29 12406.7 4649.08 3831.88 10233.5 4505.56 6068.32 3234.04 9802.88 3165.67 3100 2074.28 2015.72 1924.13 1892.87 4829.79 2247.69 1877.63 1595.56 1563.95 1478.69 1132.16 590.471 588.241 507.138 449.045
threshold=-1.3459175584659098 1.2441515492534811 1.6365370490757922 0.2058608546401216 0.72607375088542792 -0.15015809722797305 -0.86036825423725294 -1.1945847987122085 -1.4939871198043557 0.30730356172368484 0.060744678183935204 -1.3198567766130804 -0.21095637696239081 -0.814472007326842 -1.0732086147095561 -0.95641190967932388 0.85597295853517374 0.74804886604846932 1.026562653110932 1.3799270204464318 -1.3443453306912001 1.5052582246245401 -0.41742610369002464 -0.30159996894318708 -0.3834133938927855 0.86431339374076466 -1.1265630958824888 1.3155207071882373 -1.7961735046299505 1.4147412438292395 -1.1693009689807912 0.55054193847453547 -0.92101941945432164 -0.66096425457487762 1.0857468328617055
decision_type=2 2 2 2 2 2 2 2 2 2 2 2 2 2 2 2 2 2 2 2 2 2 2 2 2 2 2 2 2 2 2 2 2 2 2
left_child=-1 3 19 5 6 -2 7 8 20 10 -9 -10 13 14 26 -16 17 -15 -14 27 -5 29 31 24 25 -6 -7 -3 -4 -21 -20 -8 -27 -33 -32
right_child=1 2 28 4 23 12 22 9 11 -11 -12 -13 18 16 15 -17 -18 -19 30 21 -22 -23 -24 -25 -26 32 -28 -29 -30 -31 34 33 -34 -35 -36
leaf_value=0.82953944754054532 0.58428186337809918 -0.42911107269644028 -0.04577964087985209 0.072678422491059033 -0.23525625932784305 0.24080684535411176 0.23103865890029052 -0.46801316729431902 0.54840531727026776 -0.74634209400898699 0.20365221666367672 0.15370583389168072 0.54671041849497204 -0.24548453515173455 0.49650570794069482 0.056000632031470945 -0.47462855556223654 0.35044735940086924 0.026558885921705643 -0.39255050281486875 -0.25797747739606136 -0.5153164669414898 0.41322716273314564 -0.56427603060060794 0.04702809002382536 -0.39306020774463607 0.0069557013961563177 -0.73670338216891962 0.24730153888675335 -0.092262534895492479 0.12605747553381583 0.17550490978920816 -0.60776299513023324 -0.016628261558280497 0.29096807050478968
leaf_weight=12.999999999999998 11.999999999999998 17.000000000000004 15.000000000000002 13.000000000000002 23 18 15.999999999999998 28 17 10.999999999999998 18 40 10.999999999999998 41 29 22 9.9999999999999982 14.999999999999998 14.999999999999995 10.000000000000002 18 10.999999999999998 13.999999999999998 10.999999999999998 13.999999999999998 10.000000000000002 57 11.999999999999998 13.999999999999998 19 10.000000000000005 9.9999999999999982 12.999999999999998 12.000000000000002 21
leaf_count=13 12 17 15 13 23 18 16 28 17 11 18 40 11 41 29 22 10 15 15 10 18 11 14 11 14 10 57 12 14 19 10 10 13 12 21
internal_value=-5.01905e-06 -0.0173356 -0.253896 0.0265263 -0.0662932 0.121828 0.0263531 -0.0408231 0.134223 -0.310849 -0.205294 0.272195 0.0993112 0.056493 0.162131 0.306985 -0.145105 -0.0855019 0.243172 -0.40091 -0.119495 -0.285511 0.213409 -0.323043 -0.277936 -0.376747 0.0633392 -0.558519 0.0960371 -0.196838 0.169537 0.138875 -0.516563 0.0710587 0.23838
internal_weight=640 627 98 529 268 261 197 145 88 57 46 57 249 192 126 51 66 56 57 69 31 40 52 71 60 46 75 29 29 29 46 38 23 22 31
internal_count=640 627 98 529 268 261 197 145 88 57 46 57 249 192 126 51 66 56 57 69 31 40 52 71 60 46 75 29 29 29 46 38 23 22 31
is_linear=0
shrinkage=0.02


end of trees

feature_importances:
Column_1=52
Column_0=48
Column_8=19
Column_11=9
Column_5=8
Column_2=4

parameters:
[boosting: gbdt]
[objective: regression]
[metric: l2]
[tree_learner: serial]
[device_type: cpu]
[data_sample_strategy: goss]
[data: ]
[valid: ]
[num_iterations: 3000]
[learning_rate: 0.02]
[num_leaves: 63]
[num_threads: -1]
[seed: 42]
[deterministic: 0]
[force_col_wise: 0]
[force_row_wise: 0]
[histogram_pool_size: -1]
[max_depth: 8]
[min_data_in_leaf: 10]
[min_sum_hessian_in_leaf: 0.001]
[bagging_fraction: 1]
[pos_bagging_fraction: 1]
[neg_bagging_fraction: 1]
[bagging_freq: 0]
[bagging_seed: 400]
[bagging_by_query: 0]
[feature_fraction: 0.9]
[feature_fraction_bynode: 1]
[feature_fraction_seed: 30056]
[extra_trees: 0]
[extra_seed: 12879]
[early_stopping_round: 100]
[early_stopping_min_delta: 0]
[first_metric_only: 0]
[max_delta_step: 0]
[lambda_l1: 0.05]
[lambda_l2: 0.1]
[linear_lambda: 0]
[min_gain_to_split: 0]
[drop_rate: 0.1]
[max_drop: 50]
[skip_drop: 0.5]
[xgboost_dart_mode: 0]
[uniform_drop: 0]
[drop_seed: 17869]
[top_rate: 0.3]
[other_rate: 0.1]
[min_data_per_group: 100]
[max_cat_threshold: 32]
[cat_l2: 10]
[cat_smooth: 10]
[max_cat_to_onehot: 4]
[top_k: 20]
[monotone_constraints: ]
[monotone_constraints_method: basic]
[monotone_penalty: 0]
[feature_contri: ]
[forcedsplits_filename: ]
[refit_decay_rate: 0.9]
[cegb_tradeoff: 1]
[cegb_penalty_split: 0]
[cegb_penalty_feature_lazy: ]
[cegb_penalty_feature_coupled: ]
[path_smooth: 0]
[interaction_constraints: ]
[verbosity: -1]
[saved_feature_importance_type: 0]
[use_quantized_grad: 0]
[num_grad_quant_bins: 4]
[quant_train_renew_leaf: 0]
[stochastic_rounding: 1]
[linear_tree: 0]
[max_bin: 255]
[max_bin_by_feature: ]
[min_data_in_bin: 3]
[bin_construct_sample_cnt: 200000]
[data_random_seed: 175]
[is_enable_sparse: 1]
[enable_bundle: 1]
[use_missing: 1]
[zero_as_missing: 0]
[feature_pre_filter: 1]
[pre_partition: 0]
[two_round: 0]
[header: 0]
[label_column: ]
[weight_column: ]
[group_column: ]
[ignore_column: ]
[categorical_feature: ]
[forcedbins_filename: ]
[precise_float_parser: 0]
[parser_config_file: ]
[objective_seed: 16083]
[num_class: 1]
[is_unbalance: 0]
[scale_pos_weight: 1]
[sigmoid: 1]
[boost_from_average: 1]
[reg_sqrt: 0]
[alpha: 0.9]
[fair_c: 1]
[poisson_max_delta_step: 0.7]
[tweedie_variance_power: 1.5]
[lambdarank_truncation_level: 30]
[lambdarank_norm: 1]
[label_gain: ]
[lambdarank_position_bias_regularization: 0]
[eval_at: ]
[multi_error_top_k: 1]
[auc_mu_weights: ]
[num_machines: 1]
[local_listen_port: 12400]
[time_out: 120]
[machine_list_filename: ]
[machines: ]
[gpu_platform_id: -1]
[gpu_device_id: -1]
[gpu_use_dp: 0]
[num_gpu: 1]

end of parameters

pandas_categorical:null
