tree
version=v4
num_class=1
num_tree_per_iteration=1
label_index=0
max_feature_idx=19
objective=regression
feature_names=Column_0 Column_1 Column_2 Column_3 Column_4 Column_5 Column_6 Column_7 Column_8 Column_9 Column_10 Column_11 Column_12 Column_13 Column_14 Column_15 Column_16 Column_17 Column_18 Column_19
feature_infos=[-1.7744211006197348:1.7505157481170406] [-1.0716838527634784:2.3026106154869574] [-2.7418702082714779:2.5936438791437775] [-3.1523562883706031:1.1269863235033242] [-1.9208929897863591:1.885130535323231] [-1.3919524776806611:1.8955986538211695] [-1.7505157481170424:1.7744211006197512] [-1.763338478808703:1.7604937811430672] [-1.7744211006195241:1.75051574811727] [-1.7405639164476583:1.7855466355831662] [-1.7505157481170424:1.7744211006197512] [-1.763338478808703:1.7604937811430672] [-1.7705688166401399:1.7470962348621575] [-2.3005912151908152:1.0724176420401306] [-1.6749031500558185:1.661966854428651] [-2.2511885352013365:1.0903640953322764] [-1.3603475092732171:1.3758197038712325] [-2.0842396856649499:1.1507559143249158] [-1.4429671049376196:1.5160855429430309] [-1.269955404084123:1.4571017431352482]
tree_sizes=2101 2141 2208 2162 2212 2152 2142 2150 2157 2142 2165 2153 2149 2210 2156 2058 2146 2226 2071

Tree=0
num_leaves=24
num_cat=0
split_feature=0 19 13 0 1 18 1 13 1 6 1 1 18 0 1 1 0 18 6 6 13 0 18
split_gain=2.0792e+07 5.0193e+06 2.69458e+06 8.84659e+06 6.13632e+06 5.38966e+06 2.29381e+06 7.34159e+06 4.7007e+06 4.11865e+06 3.49007e+06 3.40111e+06 2.06909e+06 1.49521e+06 1.10308e+06 1.90474e+06 942332 676020 887070 589418 501202 480354 217953
threshold=1.4170757759392376 -1.2472640838158349 -0.43104384241263444 0.94602565651345216 0.84878409952558909 -0.34146779466014293 -0.92567187759432923 0.76150087589654958 -0.99051740657711473 -0.37970697360827971 -0.69734715434993577 -0.42817885922019644 -1.4054025084129036 0.083315887228025132 -0.53322717849992685 -0.64418179616332216 0.19269831196360074 -1.2806482553193863 -0.78195201941008619 -1.6146698335260825 1.068734327764852 -0.17073361538363438 -0.70665526176405169
decision_type=2 2 2 2 2 2 2 2 2 2 2 2 2 2 2 2 2 2 2 2 2 2 2
left_child=1 -1 4 6 22 -6 8 10 13 -9 -8 14 -13 20 15 -12 -15 -14 -19 -2 21 -4 -3
right_child=19 2 3 -5 5 -7 7 9 -10 -11 11 12 17 16 -16 -17 -18 18 -20 -21 -22 -23 -24
leaf_value=8398.0538756971127 8388.7130820668826 8388.5031700033524 8393.6405682169097 8398.1514699598902 8398.3137202949347 8391.8645208312282 8397.3679157181487 8392.6634254889268 8397.2518168075731 8387.2867336349609 8390.1606394331538 8396.7529248821938 8391.9412897585025 8390.3926208765752 8389.7300534818296 8394.4051522394129 8393.3512656633939 8392.7982996572173 8395.1136852460731 8386.771848690827 8392.8703772755434 8395.7640482238257 8389.9494474234834
leaf_weight=24 35 21 20 41 20 36 22 25 39 33 20 25 21 23 25 22 20 32 34 33 20 23 26
leaf_count=24 35 21 20 41 20 36 22 25 39 33 20 25 21 23 25 22 20 32 34 33 20 23 26
internal_value=8392.97 8393.6 8393.4 8393.74 8391.94 8394.18 8393.29 8392.72 8394.29 8389.6 8393.63 8393.16 8394.23 8393.2 8391.38 8392.38 8391.76 8393.5 8393.99 8387.76 8394.18 8394.78 8389.29
internal_weight=640 572 548 445 103 56 404 259 145 58 201 179 112 106 67 42 43 87 66 68 63 43 47
internal_count=640 572 548 445 103 56 404 259 145 58 201 179 112 106 67 42 43 87 66 68 63 43 47
is_linear=0
shrinkage=1


Tree=1
num_leaves=24
num_cat=0
split_feature=0 16 13 0 1 18 1 13 1 6 1 1 5 18 1 0 1 1 0 6 13 0 18
split_gain=2.03806e+07 4.15082e+06 2.79416e+06 8.67138e+06 5.87118e+06 5.46e+06 2.24842e+06 7.1964e+06 4.60761e+06 4.03717e+06 3.42126e+06 3.33396e+06 2.04154e+06 2.47144e+06 2.27083e+06 1.46571e+06 1.08129e+06 1.8672e+06 923743 577768 491316 470873 213674
threshold=1.4170757759392376 -1.3530901403927424 -0.43104384241263444 0.94602565651345216 0.84878409952558909 -0.34146779466014293 -0.92567187759432923 0.76150087589654958 -0.99051740657711473 -0.37970697360827971 -0.69734715434993577 -0.42817885922019644 0.020311597786168718 -1.1667261295158711 -0.32856100545799177 0.083315887228025132 -0.53322717849992685 -0.64418179616332216 0.19269831196360074 -1.6146698335260825 1.068734327764852 -0.17073361538363438 -0.70665526176405169
decision_type=2 2 2 2 2 2 2 2 2 2 2 2 2 2 2 2 2 2 2 2 2 2 2
left_child=1 -1 4 6 22 -6 8 10 15 -9 -8 16 14 -14 -13 20 17 -12 -17 -2 21 -4 -3
right_child=19 2 3 -5 5 -7 7 9 -10 -11 11 12 13 -15 -16 18 -18 -19 -20 -21 -22 -23 -24
leaf_value=4.288882691370298 -4.2193121472272006 -4.4273047511982471 0.65920732063822229 5.1251854253972615 5.2860905592512379 -1.3888223006633613 4.3496111854347026 -0.3082546455141098 4.2344956355192229 -5.6314974688334631 -2.7862667680494857 0.45403170319164504 1.5304225448697628 -2.8151985485148878 4.4490143398259647 -2.5565489992602117 -3.2125258485097734 1.4162084521044482 0.37276916381156094 -6.1412647581674973 -0.10335795685796456 2.7616271735881934 -2.9952991945688963
leaf_weight=29 35 21 20 41 20 31 22 25 39 33 20 27 34 21 30 23 25 22 20 33 20 23 26
leaf_count=29 35 21 20 41 20 31 22 25 39 33 20 27 34 21 30 23 25 22 20 33 20 23 26
internal_value=0 0.615889 0.418217 0.754863 -1.10885 1.23919 0.309022 -0.249235 1.30516 -3.34596 0.64678 0.187331 1.24215 -0.132985 2.56488 0.22143 -1.57438 -0.588667 -1.19863 -5.16731 1.19142 1.79136 -3.6512
internal_weight=640 572 543 445 98 51 404 259 145 58 201 179 112 55 57 106 67 42 43 68 63 43 47
internal_count=640 572 543 445 98 51 404 259 145 58 201 179 112 55 57 106 67 42 43 68 63 43 47
is_linear=0
shrinkage=0.01


Tree=2
num_leaves=25
num_cat=0
split_feature=0 19 0 3 3 3 3 3 3 9 3 3 0 0 0 0 0 9 13 13 0 3 5 0
split_gain=1.99774e+07 4.83942e+06 2.60083e+06 8.36703e+06 2.73442e+06 6.2655e+06 4.51636e+06 3.1842e+06 2.4778e+06 2.39846e+06 1.8031e+06 5.63834e+06 4.26637e+06 2.86067e+06 1.43679e+06 905522 881621 566348 535667 481626 461579 398258 285774 182266
threshold=1.4170757759392376 -1.2472640838158349 0.94602565651345216 0.74108758054479351 -0.74596919775590587 -0.37963769097561989 -1.0730009244001006 -0.17323178783337248 -0.10052359884489342 -0.38404844606822325 0.63226281561513364 0.82243495805710964 -1.4374526631278808 -0.83761355973924034 0.083315887228025132 0.19269831196360074 -0.70882457577638525 -1.6069628743217879 0.47387844919562377 1.068734327764852 -0.17073361538363438 0.46179990263054055 -0.15765490175682798 1.0801073384473838
decision_type=2 2 2 2 2 2 2 2 2 2 2 2 2 2 2 2 2 2 2 2 2 2 2 2
left_child=1 -1 4 23 6 9 14 -7 -9 -6 13 -12 -13 21 19 -16 -15 -2 22 20 -3 -10 -18 -4
right_child=17 2 3 -5 5 7 -8 8 10 -11 11 12 -14 16 15 -17 18 -19 -20 -21 -22 -23 -24 -25
leaf_value=4.9862010760346722 -4.1773587233369991 0.65268036795134587 5.6663646897324567 -1.9583597050627617 -1.1215417734781903 3.4793253794838397 4.1923667534030216 -3.4809594590593096 3.6568564484611392 -5.5394983820543224 -4.2942563917029712 -2.0700431439233205 3.5040656631040257 -1.8718843042439426 -2.5312039931889236 0.3690783455348251 -1.0620195934201075 -6.0802221383387778 1.4155723239950937 -0.10233461568851283 2.7342488808467471 1.8628544605051287 0.54966302172972437 4.2048169506720772
leaf_weight=24 35 20 22 29 22 27 39 20 25 28 32 25 30 23 23 20 24 33 29 20 23 26 20 21
leaf_count=24 35 20 22 29 22 27 39 20 25 28 32 25 30 23 23 20 24 33 29 20 23 26 20 21
internal_value=-2.38566e-06 0.60976 0.41634 2.18492 0.148017 -0.353678 1.29218 0.227503 -0.120625 -3.60783 0.169306 -0.970383 0.972042 0.844225 0.219237 -1.18675 -0.173489 -5.11594 0.36526 1.17961 1.7736 2.75314 -0.330242 4.97538
internal_weight=640 572 548 72 476 331 145 281 254 50 234 87 55 147 106 43 96 68 73 63 43 51 44 43
internal_count=640 572 548 72 476 331 145 281 254 50 234 87 55 147 106 43 96 68 73 63 43 51 44 43
is_linear=0
shrinkage=0.01


Tree=3
num_leaves=24
num_cat=0
split_feature=2 19 13 2 1 18 1 13 1 6 1 1 5 18 1 2 1 1 6 6 13 7 18
split_gain=1.95822e+07 4.74391e+06 2.55534e+06 8.33143e+06 5.85666e+06 5.09761e+06 2.15673e+06 6.95141e+06 4.42692e+06 3.90373e+06 3.31312e+06 3.24022e+06 1.99702e+06 2.36496e+06 2.18902e+06 1.40844e+06 1.05602e+06 1.79431e+06 887660 555154 472127 452468 201246
threshold=1.3666561201493825 -1.2472640838158349 -0.43104384241263444 0.39268058898337094 0.84878409952558909 -0.34146779466014293 -0.92567187759432923 0.76150087589654958 -0.99051740657711473 -0.37970697360827971 -0.69734715434993577 -0.42817885922019644 0.020311597786168718 -1.1667261295158711 -0.32856100545799177 -0.019561225926433914 -0.53322717849992685 -0.64418179616332216 -0.19269831196359669 -1.6146698335260825 1.068734327764852 -0.17554556029564988 -0.70665526176405169
decision_type=2 2 2 2 2 2 2 2 2 2 2 2 2 2 2 2 2 2 2 2 2 2 2
left_child=1 -1 4 6 22 -6 8 10 15 -9 -8 16 14 -14 -13 20 17 -12 -17 -2 21 -4 -3
right_child=19 2 3 -5 5 -7 7 9 -10 -11 11 12 13 -15 -16 18 -18 -19 -20 -21 -22 -23 -24
leaf_value=4.9367512539004492 -4.1358223943276835 -4.3556257960481464 0.64621831421804909 5.0245340380622343 5.1990592694046471 -1.0729907417560809 4.2814329312298751 -0.29954739843096057 4.1506570325578958 -5.5340429507537054 -2.7314870732373531 0.4609689440446742 1.4924917049296418 -2.7584837690389379 4.3834714290795738 0.36542409311426743 -3.1701957613324363 1.3881456995439958 -2.5061100801106155 -6.0197862896287306 -0.10132134428118716 2.7071420695863919 -2.9633546779719926
leaf_weight=24 35 21 20 41 20 36 22 25 39 33 20 27 34 21 30 20 25 22 23 33 20 23 26
leaf_count=24 35 21 20 41 20 36 22 25 39 33 20 27 34 21 30 20 25 22 23 33 20 23 26
internal_value=3.8923e-06 0.603709 0.412207 0.740733 -1.00583 1.17754 0.303717 -0.243039 1.27933 -3.28659 0.637591 0.18546 1.22534 -0.134704 2.53357 0.217066 -1.55131 -0.577209 -1.17498 -5.06509 1.16792 1.75603 -3.60127
internal_weight=640 572 548 445 103 56 404 259 145 58 201 179 112 55 57 106 67 42 43 68 63 43 47
internal_count=640 572 548 445 103 56 404 259 145 58 201 179 112 55 57 106 67 42 43 68 63 43 47
is_linear=0
shrinkage=0.01


Tree=4
num_leaves=25
num_cat=0
split_feature=0 19 0 3 3 3 3 3 3 6 3 3 0 0 0 0 0 6 13 13 0 3 5 0
split_gain=1.91948e+07 4.65032e+06 2.50733e+06 8.03876e+06 2.62934e+06 6.03043e+06 4.33925e+06 3.08838e+06 2.40394e+06 2.29535e+06 1.73484e+06 5.43509e+06 4.13158e+06 2.75625e+06 1.38066e+06 870150 853554 544180 524645 462815 443537 381814 271317 177205
threshold=1.4170757759392376 -1.2472640838158349 0.94602565651345216 0.74108758054479351 -0.74596919775590587 -0.37963769097561989 -1.0730009244001006 -0.17323178783337248 -0.10052359884489342 -0.37970697360827971 0.63226281561513364 0.82243495805710964 -1.4374526631278808 -0.83761355973924034 0.083315887228025132 0.19269831196360074 -0.70882457577638525 -1.6146698335260825 0.47387844919562377 1.068734327764852 -0.17073361538363438 0.46179990263054055 -0.15765490175682798 1.0801073384473838
decision_type=2 2 2 2 2 2 2 2 2 2 2 2 2 2 2 2 2 2 2 2 2 2 2 2
left_child=1 -1 4 23 6 9 14 -7 -9 -6 13 -12 -13 21 19 -16 -15 -2 22 20 -3 -10 -18 -4
right_child=17 2 3 -5 5 7 -8 8 10 -11 11 12 -14 16 15 -17 18 -19 -20 -21 -22 -23 -24 -25
leaf_value=4.8877917031217217 -4.0946991851113062 0.63982014911009544 5.5604188035844686 -1.9166009255549679 -1.1074588697880239 3.4253842916208157 4.1093621619866818 -3.4298651546062811 3.5862688906230624 -5.4295481491257958 -4.2157350428800404 -2.0388621430169969 3.4464826207760946 -1.8424962620899594 -2.4812650525980984 0.36180614405339306 -1.0425543479288906 -5.9599506698171778 1.3982039897082603 -0.10031818323796339 2.6803042142144564 1.829557127042581 0.52785946232257508 4.1209297856744733
leaf_weight=24 35 20 22 29 22 27 39 20 25 28 32 25 30 23 23 20 24 33 29 20 23 26 20 21
leaf_count=24 35 20 22 29 22 27 39 20 25 28 32 25 30 23 23 20 24 33 29 20 23 26 20 21
internal_value=1.95442e-06 0.597705 0.408102 2.1446 0.144646 -0.347316 1.26661 0.222859 -0.11999 -3.53984 0.165588 -0.952319 0.954773 0.827608 0.214917 -1.16333 -0.171356 -5.01473 0.35875 1.15634 1.73862 2.70135 -0.329549 4.87977
internal_weight=640 572 548 72 476 331 145 281 254 50 234 87 55 147 106 43 96 68 73 63 43 51 44 43
internal_count=640 572 548 72 476 331 145 281 254 50 234 87 55 147 106 43 96 68 73 63 43 51 44 43
is_linear=0
shrinkage=0.01


Tree=5
num_leaves=24
num_cat=0
split_feature=0 19 13 0 1 0 1 13 1 6 1 1 5 1 1 0 1 1 0 6 13 0 1
split_gain=1.88152e+07 4.55855e+06 2.46743e+06 8.00469e+06 5.71e+06 4.60675e+06 2.06872e+06 6.71502e+06 4.25331e+06 3.77497e+06 3.20836e+06 3.1493e+06 1.95356e+06 2.11021e+06 1.92156e+06 1.35342e+06 1.03136e+06 1.72406e+06 852985 533424 453687 434782 85522.4
threshold=1.4170757759392376 -1.2472640838158349 -0.43104384241263444 0.94602565651345216 0.84878409952558909 -1.4374526631278808 -0.92567187759432923 0.76150087589654958 -0.99051740657711473 -0.37970697360827971 -0.69734715434993577 -0.42817885922019644 0.020311597786168718 -0.32856100545799177 0.022645178804335715 0.083315887228025132 -0.53322717849992685 -0.64418179616332216 0.19269831196360074 -1.6146698335260825 1.068734327764852 -0.17073361538363438 0.66232699786794236
decision_type=2 2 2 2 2 2 2 2 2 2 2 2 2 2 2 2 2 2 2 2 2 2 2
left_child=1 -1 4 6 22 -6 8 10 15 -9 -8 16 13 -13 -14 20 17 -12 -17 -2 21 -4 -3
right_child=19 2 3 -5 5 -7 7 9 -10 -11 11 12 14 -15 -16 18 -18 -19 -20 -21 -22 -23 -24
leaf_value=4.8393179804431501 -4.0539849038557572 -3.9536219373871297 0.63348544583462263 4.9258366756994745 -2.0186355176047672 3.731604424012013 4.2143228652885369 -0.29098517985570999 4.0684781635050866 -5.438403261253633 -2.6776539332323734 0.46765692598679492 -2.3299798991762359 4.3190371148317857 1.4449946742324351 -2.4566664062286243 -3.1284675539107547 1.3605333244048798 0.35822382558690441 -5.9007105811245468 -0.099325021611581937 2.6537319998905575 -2.9762818867735343
leaf_weight=24 35 27 20 41 25 31 22 25 39 33 20 27 23 30 32 23 25 22 20 33 20 23 20
leaf_count=24 35 27 20 41 25 31 22 25 39 33 20 27 23 30 32 23 25 22 20 33 20 23 20
internal_value=1.10137e-05 0.591774 0.40405 0.726876 -0.98938 1.16647 0.298515 -0.23697 1.25402 -3.22833 0.628555 0.183629 1.20882 2.50273 -0.136335 0.212788 -1.5286 -0.565966 -1.15179 -4.96488 1.14488 1.72139 -3.55213
internal_weight=640 572 548 445 103 56 404 259 145 58 201 179 112 57 55 106 67 42 43 68 63 43 47
internal_count=640 572 548 445 103 56 404 259 145 58 201 179 112 57 55 106 67 42 43 68 63 43 47
is_linear=0
shrinkage=0.01


Tree=6
num_leaves=24
num_cat=0
split_feature=0 19 13 0 3 18 3 13 3 6 3 3 18 0 3 5 0 18 6 6 13 0 18
split_gain=1.84429e+07 4.46863e+06 2.41872e+06 7.84616e+06 5.59722e+06 4.84759e+06 2.02779e+06 6.5822e+06 4.16908e+06 3.70029e+06 3.14512e+06 3.08709e+06 1.92078e+06 1.32672e+06 1.01099e+06 1.69008e+06 836160 711393 910614 522880 444739 426201 188905
threshold=1.4170757759392376 -1.2472640838158349 -0.43104384241263444 0.94602565651345216 0.86510144191499183 -0.34146779466014293 -0.74596919775590587 0.76150087589654958 -1.0730009244001006 -0.37970697360827971 -0.16462933959445544 0.18895481370881043 -1.4054025084129036 0.083315887228025132 0.07212700589929695 -0.53269296274731592 0.19269831196360074 -1.2806482553193863 -0.78195201941008619 -1.6146698335260825 1.068734327764852 -0.17073361538363438 -0.70665526176405169
decision_type=2 2 2 2 2 2 2 2 2 2 2 2 2 2 2 2 2 2 2 2 2 2 2
left_child=1 -1 4 6 22 -6 8 10 13 -9 -8 14 -13 20 15 -12 -15 -14 -19 -2 21 -4 -3
right_child=19 2 3 -5 5 -7 7 9 -10 -11 11 12 17 16 -16 -17 -18 18 -20 -21 -22 -23 -24
leaf_value=4.7913246306111992 -4.0136752666126592 -4.2483195657550166 0.62721308642094686 4.8768173380731374 5.0765132311075041 -1.039813894303464 4.1725593181988145 -0.28809847127823601 4.0280009762121702 -5.3843469115337692 -2.6511425501757326 3.6282084595210966 -1.1045157623291018 -2.4323115950617296 -3.0974311799851679 1.3470506867417344 0.35467705934354576 -0.21020623331484586 2.13554142912926 -5.8420588339380473 -0.098341589823807835 2.627423492957806 -2.8981794542574697
leaf_weight=24 35 21 20 41 20 36 22 25 39 33 20 25 21 23 25 22 20 32 34 33 20 23 26
leaf_count=24 35 21 20 41 20 36 22 25 39 33 20 25 21 23 25 22 20 32 34 33 20 23 26
internal_value=3.66096e-06 0.585883 0.40002 0.719644 -0.979587 1.15486 0.295546 -0.234616 1.24155 -3.19624 0.622306 0.181787 1.1968 0.210681 -1.51345 -0.560369 -1.14037 0.491389 1.001 -4.91552 1.13354 1.70433 -3.5169
internal_weight=640 572 548 445 103 56 404 259 145 58 201 179 112 106 67 42 43 87 66 68 63 43 47
internal_count=640 572 548 445 103 56 404 259 145 58 201 179 112 106 67 42 43 87 66 68 63 43 47
is_linear=0
shrinkage=0.01


Tree=7
num_leaves=24
num_cat=0
split_feature=0 19 13 0 1 18 1 13 1 0 1 1 15 18 1 0 1 1 0 6 13 0 18
split_gain=1.8078e+07 4.38046e+06 2.37087e+06 7.69077e+06 5.48689e+06 4.75201e+06 1.98941e+06 5.7529e+06 4.91488e+06 3.97926e+06 3.08312e+06 3.02613e+06 1.90436e+06 2.28286e+06 2.0641e+06 1.30054e+06 991012 1.65677e+06 819666 512545 435968 417788 185197
threshold=1.4170757759392376 -1.2472640838158349 -0.43104384241263444 0.94602565651345216 0.84878409952558909 -0.34146779466014293 -0.94355121831743338 0.76150087589654958 -0.99051740657711473 0.34089385515373544 -0.69734715434993577 -0.42817885922019644 0.17043775088642049 -1.1667261295158711 -0.32856100545799177 0.083315887228025132 -0.53322717849992685 -0.64418179616332216 0.19269831196360074 -1.6146698335260825 1.068734327764852 -0.17073361538363438 -0.70665526176405169
decision_type=2 2 2 2 2 2 2 2 2 2 2 2 2 2 2 2 2 2 2 2 2 2 2
left_child=1 -1 4 6 22 -6 8 10 15 -9 -8 16 13 -13 -14 20 17 -12 -17 -2 21 -4 -3
right_child=19 2 3 -5 5 -7 7 9 -10 -11 11 12 14 -15 -16 18 -18 -19 -20 -21 -22 -23 -24
leaf_value=4.7438071821937875 -3.9737665952335699 -4.2062370536012468 0.62100314451916394 4.8282860891101436 5.0262508290356935 -1.0294732537454006 4.1312098034437712 -5.3039019291149172 4.6181808926685743 -0.3224464398437405 -2.6248936938295269 1.4555776937384353 0.44981339763192574 -2.7209696618565973 4.2587732398431033 -2.4081979663824211 -3.066702702840169 1.3337013057330709 0.3511654803776505 -5.7839902186680989 -0.097367921394876919 2.6013758850097655 -2.8694189014075371
leaf_weight=24 35 21 20 41 20 36 22 32 33 32 20 34 27 21 30 23 25 22 20 33 20 23 26
leaf_count=24 35 21 20 41 20 36 22 32 33 32 20 34 27 21 30 23 25 22 20 33 20 23 26
internal_value=4.72978e-06 0.58006 0.39604 0.712486 -0.969851 1.14346 0.292608 -0.215702 1.26061 -2.82195 0.616125 0.179969 1.18491 -0.143167 2.46243 0.208594 -1.49845 -0.554827 -1.12907 -4.86666 1.1223 1.68743 -3.48203
internal_weight=640 572 548 445 103 56 404 265 139 64 201 179 112 55 57 106 67 42 43 68 63 43 47
internal_count=640 572 548 445 103 56 404 265 139 64 201 179 112 55 57 106 67 42 43 68 63 43 47
is_linear=0
shrinkage=0.01


Tree=8
num_leaves=24
num_cat=0
split_feature=0 19 13 0 1 18 1 13 1 6 1 1 15 18 1 0 1 1 0 6 13 0 18
split_gain=1.77204e+07 4.29403e+06 2.32396e+06 7.53845e+06 5.37874e+06 4.6583e+06 1.95124e+06 6.33015e+06 4.01108e+06 3.56052e+06 3.02235e+06 2.96634e+06 1.86677e+06 2.2378e+06 2.02329e+06 1.27488e+06 971433 1.62412e+06 803497 502414 427369 409542 181562
threshold=1.4170757759392376 -1.2472640838158349 -0.43104384241263444 0.94602565651345216 0.84878409952558909 -0.34146779466014293 -0.92567187759432923 0.76150087589654958 -0.99051740657711473 -0.37970697360827971 -0.69734715434993577 -0.42817885922019644 0.17043775088642049 -1.1667261295158711 -0.32856100545799177 0.083315887228025132 -0.53322717849992685 -0.64418179616332216 0.19269831196360074 -1.6146698335260825 1.068734327764852 -0.17073361538363438 -0.70665526176405169
decision_type=2 2 2 2 2 2 2 2 2 2 2 2 2 2 2 2 2 2 2 2 2 2 2
left_child=1 -1 4 6 22 -6 8 10 15 -9 -8 16 13 -13 -14 20 17 -12 -17 -2 21 -4 -3
right_child=19 2 3 -5 5 -7 7 9 -10 -11 11 12 14 -15 -16 18 -18 -19 -20 -21 -22 -23 -24
leaf_value=4.6967612945850297 -3.9342545960166233 -4.1645716637485428 0.6148546362395334 4.7802374474979148 4.9764859597989828 -1.0192353665894567 4.0902698540043181 -0.28204136364043708 3.9508134078979489 -5.2811092429563224 -2.5989045390516226 1.4411070835938926 0.44534838424009443 -2.6940166601145039 4.2164675246485022 -2.3843235468401991 -3.0362790374150355 1.3204844356227565 0.34768860665878448 -5.7264984988017247 -0.096403821812997961 2.5755862459643133 -2.8409437299320719
leaf_weight=24 35 21 20 41 20 36 22 25 39 33 20 34 27 21 30 23 25 22 20 33 20 23 26
leaf_count=24 35 21 20 41 20 36 22 25 39 33 20 34 27 21 30 23 25 22 20 33 20 23 26
internal_value=4.71539e-06 0.574293 0.392098 0.705397 -0.960213 1.13217 0.289698 -0.230359 1.21767 -3.13473 0.609996 0.178159 1.17312 -0.141781 2.43797 0.206528 -1.48359 -0.549339 -1.11787 -4.81828 1.11118 1.67071 -3.44751
internal_weight=640 572 548 445 103 56 404 259 145 58 201 179 112 55 57 106 67 42 43 68 63 43 47
internal_count=640 572 548 445 103 56 404 259 145 58 201 179 112 55 57 106 67 42 43 68 63 43 47
is_linear=0
shrinkage=0.01


Tree=9
num_leaves=24
num_cat=0
split_feature=0 16 13 0 1 0 1 13 1 0 1 1 18 0 1 1 0 18 6 6 13 0 18
split_gain=1.73698e+07 3.59206e+06 2.4259e+06 7.38916e+06 5.12435e+06 4.79305e+06 1.91749e+06 5.53811e+06 4.73584e+06 3.8214e+06 2.96279e+06 2.90773e+06 1.83078e+06 1.24973e+06 952240 1.59211e+06 787648 717768 917792 492483 418940 401458 177998
threshold=1.4170757759392376 -1.3530901403927424 -0.43104384241263444 0.94602565651345216 0.84878409952558909 -1.4374526631278808 -0.94355121831743338 0.76150087589654958 -0.99051740657711473 0.34089385515373544 -0.69734715434993577 -0.42817885922019644 -1.4054025084129036 0.083315887228025132 -0.53322717849992685 -0.64418179616332216 0.19269831196360074 -1.2806482553193863 -0.78195201941008619 -1.6146698335260825 1.068734327764852 -0.17073361538363438 -0.70665526176405169
decision_type=2 2 2 2 2 2 2 2 2 2 2 2 2 2 2 2 2 2 2 2 2 2 2
left_child=1 -1 4 6 22 -6 8 10 13 -9 -8 14 -13 20 15 -12 -15 -14 -19 -2 21 -4 -3
right_child=19 2 3 -5 5 -7 7 9 -10 -11 11 12 17 16 -16 -17 -18 18 -20 -21 -22 -23 -24
leaf_value=3.9854239412856431 -3.8951358747482296 -4.1233187078558045 0.60876690061965799 4.7326671068876696 -2.6451882411465784 3.6087545585632324 4.0497354793763369 -5.2015764554539077 4.5330070651870171 -0.31990689769294689 -2.5731727365928125 3.5352063521127857 -1.1301625010652363 -2.3606859390694517 -3.0061571766081312 1.3073986613643063 0.34424608315571703 -0.23114975413920713 2.1237239242018315 -5.6695786779257187 -0.09544936992154264 2.5500525632397881 -2.8127511662927294
leaf_weight=29 35 21 20 41 20 31 22 32 33 32 20 25 21 23 25 22 20 32 34 33 20 23 26
leaf_count=29 35 21 20 41 20 31 22 32 33 32 20 25 21 23 25 22 20 32 34 33 20 23 26
internal_value=2.73637e-06 0.568582 0.384697 0.698377 -1.03818 1.15546 0.286814 -0.212223 1.23716 -2.76936 0.603928 0.176368 1.16145 0.204483 -1.46888 -0.543906 -1.10679 0.472785 0.984703 -4.77038 1.10016 1.65415 -3.41334
internal_weight=640 572 543 445 98 51 404 265 139 64 201 179 112 106 67 42 43 87 66 68 63 43 47
internal_count=640 572 543 445 98 51 404 265 139 64 201 179 112 106 67 42 43 87 66 68 63 43 47
is_linear=0
shrinkage=0.01


Tree=10
num_leaves=24
num_cat=0
split_feature=2 19 13 2 1 18 1 13 1 2 1 1 5 18 1 2 1 1 4 6 13 4 18
split_gain=1.70261e+07 4.13976e+06 2.23733e+06 7.24281e+06 5.16196e+06 4.51452e+06 1.87957e+06 5.42859e+06 4.64214e+06 3.74582e+06 2.90438e+06 2.85031e+06 1.82004e+06 2.20477e+06 1.97916e+06 1.22507e+06 933427 1.56073e+06 772111 482749 410677 393534 174504
threshold=1.3666561201493825 -1.2472640838158349 -0.43104384241263444 0.39268058898337094 0.84878409952558909 -0.34146779466014293 -0.94355121831743338 0.76150087589654958 -0.99051740657711473 1.0000000180025095e-35 -0.69734715434993577 -0.42817885922019644 0.020311597786168718 -1.1667261295158711 -0.32856100545799177 -0.019561225926433914 -0.53322717849992685 -0.64418179616332216 0.088324259823245321 -1.6146698335260825 1.068734327764852 -0.079120993679717991 -0.70665526176405169
decision_type=2 2 2 2 2 2 2 2 2 2 2 2 2 2 2 2 2 2 2 2 2 2 2
left_child=1 -1 4 6 22 -6 8 10 15 -9 -8 16 14 -14 -13 20 17 -12 -17 -2 21 -4 -3
right_child=19 2 3 -5 5 -7 7 9 -10 -11 11 12 13 -15 -16 18 -18 -19 -20 -21 -22 -23 -24
leaf_value=4.6106570868058645 -3.8564057757637715 -4.0824744864004963 0.60273952597438707 4.6855701868742416 4.8914835705143389 -1.0109555772391472 4.0096030052288159 -5.1498838053430829 4.4879499045912032 -0.31672758253464783 -2.5476959711962404 0.42816270323360672 1.4227929451033385 -2.6817028407330783 4.1578170240793799 -2.3372826179142656 -2.9763343063233392 1.2944423462463932 0.34083772668744078 -5.6132244929922628 -0.094504334383671826 2.5247719001770021 -2.7848383748440342
leaf_weight=24 35 21 20 41 20 36 22 32 33 32 20 27 34 21 30 23 25 22 20 33 20 23 26
leaf_count=24 35 21 20 41 20 36 22 32 33 32 20 27 34 21 30 23 25 22 20 33 20 23 26
internal_value=-2.61687e-06 0.56292 0.384028 0.691433 -0.942838 1.10695 0.283967 -0.210112 1.22487 -2.74184 0.597929 0.174604 1.14992 -0.148398 2.39883 0.202458 -1.45432 -0.538527 -1.09581 -4.72296 1.08926 1.63776 -3.3795
internal_weight=640 572 548 445 103 56 404 265 139 64 201 179 112 55 57 106 67 42 43 68 63 43 47
internal_count=640 572 548 445 103 56 404 265 139 64 201 179 112 55 57 106 67 42 43 68 63 43 47
is_linear=0
shrinkage=0.01


Tree=11
num_leaves=24
num_cat=0
split_feature=0 19 13 0 5 18 5 5 18 5 5 6 5 18 5 6 0 5 5 6 13 0 18
split_gain=1.66892e+07 4.05809e+06 2.19306e+06 7.09937e+06 5.06021e+06 4.4255e+06 1.84315e+06 5.98677e+06 3.87406e+06 2.38059e+06 3.0991e+06 1.95766e+06 1.78411e+06 2.16126e+06 1.94003e+06 1.06478e+06 1.29587e+06 877267 2.2724e+06 473207 322849 183989 171079
threshold=1.4170757759392376 -1.2472640838158349 -0.43104384241263444 0.94602565651345216 0.94509629430459585 -0.34146779466014293 -0.99044337076221367 -0.77411606845219794 -0.61938434753998961 -0.61593990745446681 -0.2530715193683713 -0.37970697360827971 0.020311597786168718 -1.1667261295158711 -0.1360846825365091 -0.2562106876165165 0.083315887228025132 -0.55266640817388657 -0.3839903941836032 -1.6146698335260825 1.068734327764852 0.17858445070739742 -0.70665526176405169
decision_type=2 2 2 2 2 2 2 2 2 2 2 2 2 2 2 2 2 2 2 2 2 2 2
left_child=1 -1 4 6 22 -6 8 11 -4 -9 17 -8 14 -14 -12 -10 20 -11 -19 -2 -17 -18 -3
right_child=19 2 3 -5 5 -7 7 9 15 10 12 -13 13 -15 -16 16 21 18 -20 -21 -22 -23 -24
leaf_value=4.564931363468328 -3.8180606490915467 -4.0420350314986031 4.4388101650917369 4.6389419533442524 4.8430530653849688 -1.0009020353285647 -1.0784459839640439 3.2794595162307516 2.2794515011228365 -3.3006360074789218 0.42391252461601708 -5.0707210278341952 1.4086481547216223 -2.6551387284836676 4.1165143873202092 1.5138100240316734 -2.1452470470891138 1.3011996944366939 -2.9468070947556271 -5.5574302122966355 -0.093568725585937498 -0.77977025504159458 -2.757202610860344
leaf_weight=24 35 21 29 41 20 36 22 27 23 20 27 28 34 21 30 33 20 25 25 33 20 20 26
leaf_count=24 35 21 29 41 20 36 22 27 23 20 27 28 34 21 30 33 20 25 25 33 20 20 26
internal_value=-2.5373e-06 0.557324 0.380205 0.684554 -0.933467 1.09601 0.281143 -0.224304 1.18305 0.520058 0.10754 -3.32543 1.13848 -0.14696 2.375 0.36286 -0.114999 -1.54049 -0.826062 -4.676 0.909162 -1.46981 -3.34599
internal_weight=640 572 548 445 103 56 404 259 145 209 182 50 112 55 57 116 93 70 50 68 53 40 47
internal_count=640 572 548 445 103 56 404 259 145 209 182 50 112 55 57 116 93 70 50 68 53 40 47
is_linear=0
shrinkage=0.01


Tree=12
num_leaves=24
num_cat=0
split_feature=0 19 0 1 1 1 18 1 18 18 18 18 0 6 18 6 0 0 6 0 13 0 0
split_gain=1.6359e+07 3.97804e+06 2.1559e+06 6.91521e+06 2.2556e+06 5.21515e+06 3.79751e+06 2.78326e+06 2.43455e+06 3.8793e+06 4.56111e+06 3.26787e+06 2.21111e+06 1.91896e+06 1.11506e+06 1.04379e+06 1.2703e+06 803354 463853 365054 316464 180363 163828
threshold=1.4170757759392376 -1.2472640838158349 0.94602565651345216 0.47071812565222243 -0.92567187759432923 -0.80454214198581087 -0.61938434753998961 -0.70230195378466098 -1.1667261295158711 -0.75583189811167661 -0.34146779466014293 1.4437379655794613 -0.83761355973924034 -0.37970697360827971 1.511630099581295 -0.2562106876165165 0.083315887228025132 -0.70882457577638525 -1.6146698335260825 -0.9911018009004513 1.068734327764852 0.17858445070739742 1.0801073384473838
decision_type=2 2 2 2 2 2 2 2 2 2 2 2 2 2 2 2 2 2 2 2 2 2 2
left_child=1 -1 4 22 6 13 -3 -7 12 -10 -11 -12 19 -6 -13 -8 20 -14 -2 -9 -17 -18 -4
right_child=18 2 3 -5 5 7 15 8 9 10 11 14 17 -15 -16 16 21 -19 -20 -21 -22 -23 -24
leaf_value=4.5196593014267856 -3.7800971698760981 4.3947259414359312 5.1736469708691848 -1.780076669144304 -1.067758707269892 3.2469060923772703 2.2568535502203582 3.5593923309614075 -3.9984711008486533 3.2757983695276529 -3.5413162586833886 1.6214827324065153 -1.7749932940252897 -5.020373261025612 -1.2278269542209688 1.4987628771310828 -2.1240069200614893 0.75855046384474822 -5.5021908577378973 1.8173229667208841 -0.092642229099084844 -0.77204968546876818 3.7998900586254187
leaf_weight=24 35 29 22 29 22 27 23 21 32 30 36 30 23 28 25 33 20 27 33 30 20 20 21
leaf_count=24 35 29 22 29 22 27 23 21 32 30 36 30 23 28 25 33 20 27 33 30 20 20 21
internal_value=-1.01373e-05 0.551775 0.376412 1.98663 0.132116 -0.323541 1.17129 0.206693 -0.118776 -0.913771 -0.0927228 -1.20798 1.08494 -3.29243 0.326568 0.359245 -0.113882 -0.409288 -4.62952 2.54577 0.900123 -1.45526 4.52346
internal_weight=640 572 548 72 476 331 145 281 254 153 121 91 101 50 55 116 93 50 68 51 53 40 43
internal_count=640 572 548 72 476 331 145 281 254 153 121 91 101 50 55 116 93 50 68 51 53 40 43
is_linear=0
shrinkage=0.01


Tree=13
num_leaves=25
num_cat=0
split_feature=0 19 0 1 1 1 1 1 1 6 1 1 0 0 0 0 0 13 6 13 0 0 5 0
split_gain=1.60355e+07 3.89952e+06 2.11343e+06 6.77877e+06 2.21097e+06 5.11217e+06 3.66735e+06 2.72826e+06 2.16469e+06 1.88102e+06 1.50442e+06 4.81342e+06 3.632e+06 2.40589e+06 1.14287e+06 776566 738491 491674 454685 381593 397960 357880 214393 160592
threshold=1.4170757759392376 -1.2472640838158349 0.94602565651345216 0.47071812565222243 -0.92567187759432923 -0.80454214198581087 -0.99051740657711473 -0.70230195378466098 -0.65839173664529971 -0.37970697360827971 0.21467751391775222 0.70588263362861003 -1.4374526631278808 -0.83761355973924034 0.083315887228025132 -0.70882457577638525 0.19269831196360074 0.47387844919562377 -1.6146698335260825 1.068734327764852 -0.17073361538363438 -0.9911018009004513 -0.15765490175682798 1.0801073384473838
decision_type=2 2 2 2 2 2 2 2 2 2 2 2 2 2 2 2 2 2 2 2 2 2 2 2
left_child=1 -1 4 23 6 9 14 -7 -9 -6 13 -12 -13 21 19 -15 -16 22 -2 20 -3 -10 -17 -4
right_child=18 2 3 -5 5 7 -8 8 10 -11 11 12 -14 15 16 17 -18 -19 -20 -21 -22 -23 -24 -25
leaf_value=4.474836271912598 -3.7425108168341894 0.53812781721058467 5.122376827892956 -1.7623978256852659 -1.0571772825180947 3.2146757302564732 3.7730577725293681 -3.2584377054648828 3.5241340594021779 -4.970525764032458 -3.9587347615283468 -1.8997921933825053 3.243257279238164 -1.7573964243921743 -2.2753008317690471 -0.95779902339966838 0.34378588100471119 1.3484985111184318 -5.4475003622813389 -0.091724901104917628 2.4698758118728112 1.7992700811727156 0.43830818629500889 3.7622495284170476
leaf_weight=24 35 20 22 29 22 27 39 20 21 28 32 25 30 23 23 24 20 29 33 20 23 30 20 21
leaf_count=24 35 20 22 29 22 27 39 20 21 28 32 25 30 23 23 24 20 29 33 20 23 30 20 21
internal_value=3.23682e-06 0.546308 0.372684 1.96696 0.130806 -0.32032 1.15965 0.204653 -0.117584 -3.25974 0.153414 -0.887611 0.907076 0.769907 0.192806 -0.163403 -1.06115 0.34223 -4.5835 1.04934 1.57806 2.52052 -0.32407 4.47864
internal_weight=640 572 548 72 476 331 145 281 254 50 234 87 55 147 106 96 43 73 68 63 43 51 44 43
internal_count=640 572 548 72 476 331 145 281 254 50 234 87 55 147 106 96 43 73 68 63 43 51 44 43
is_linear=0
shrinkage=0.01


Tree=14
num_leaves=24
num_cat=0
split_feature=0 19 15 0 1 18 1 15 1 0 1 1 15 18 1 0 1 1 0 6 15 0 18
split_gain=1.57183e+07 3.82256e+06 2.07346e+06 6.68763e+06 4.92176e+06 4.17048e+06 1.74569e+06 5.10753e+06 4.34604e+06 3.52997e+06 2.74577e+06 2.70056e+06 1.76502e+06 2.00168e+06 1.85177e+06 1.12033e+06 884400 1.4544e+06 723924 445697 374067 390106 154048
threshold=1.4170757759392376 -1.2472640838158349 -0.45258180916024621 0.94602565651345216 0.84878409952558909 -0.34146779466014293 -0.94355121831743338 0.764080433338716 -0.99051740657711473 0.34089385515373544 -0.69734715434993577 -0.42817885922019644 0.17043775088642049 -1.1667261295158711 -0.32856100545799177 0.083315887228025132 -0.53322717849992685 -0.64418179616332216 0.19269831196360074 -1.6146698335260825 1.0864765390106401 -0.17073361538363438 -0.70665526176405169
decision_type=2 2 2 2 2 2 2 2 2 2 2 2 2 2 2 2 2 2 2 2 2 2 2
left_child=1 -1 4 6 22 -6 8 10 15 -9 -8 16 13 -13 -14 20 17 -12 -17 -2 21 -4 -3
right_child=19 2 3 -5 5 -7 7 9 -10 -11 11 12 14 -15 -16 18 -18 -19 -20 -21 -22 -23 -24
leaf_value=4.4304576524624153 -3.7052983799847685 -3.9504881257830928 0.53279967657410288 4.5029250502354889 4.7305569915016097 -0.94260709750718163 3.8982112044257087 -4.9961300898486778 4.3374496619098153 -0.30431668344491752 -2.4642433347796451 1.3374013784754346 0.44222148180007942 -2.5734957309938826 4.0501003007699321 -2.2527438148958927 -2.8976605515252976 1.244729567175513 0.34038202191343403 -5.3933535651701039 -0.090816834610287514 2.4453898521949502 -2.7262051689351789
leaf_weight=24 35 21 20 41 20 36 22 32 33 32 20 34 27 21 30 23 25 22 20 33 20 23 26
leaf_count=24 35 21 20 41 20 36 22 32 33 32 20 34 27 21 30 23 25 22 20 33 20 23 26
internal_value=1.21719e-05 0.540887 0.368985 0.664918 -0.908363 1.09313 0.27338 -0.202777 1.18015 -2.6585 0.581004 0.169401 1.11875 -0.159746 2.34864 0.190896 -1.41616 -0.524733 -1.05062 -4.53793 1.03894 1.56242 -3.28767
internal_weight=640 572 548 445 103 56 404 265 139 64 201 179 112 55 57 106 67 42 43 68 63 43 47
internal_count=640 572 548 445 103 56 404 265 139 64 201 179 112 55 57 106 67 42 43 68 63 43 47
is_linear=0
shrinkage=0.01


Tree=15
num_leaves=23
num_cat=0
split_feature=0 19 0 1 1 13 1 0 1 18 18 18 1 18 0 18 0 0 6 13 0 0
split_gain=1.54074e+07 3.74714e+06 2.03807e+06 6.51268e+06 2.12992e+06 4.3056e+06 4.26006e+06 3.46015e+06 3.15539e+06 1.63435e+06 4.07659e+06 3.80148e+06 2.61294e+06 2.19248e+06 1.09822e+06 1.06604e+06 709644 654401 436887 366689 382406 156156
threshold=1.4170757759392376 -1.2472640838158349 0.94602565651345216 0.47071812565222243 -0.94355121831743338 0.76150087589654958 -0.99051740657711473 0.34089385515373544 -0.69734715434993577 -1.1667261295158711 -0.75583189811167661 -0.34146779466014293 -0.43468340944081996 1.4437379655794613 0.083315887228025132 1.511630099581295 0.19269831196360074 -0.89583323742107901 -1.6146698335260825 1.068734327764852 -0.17073361538363438 1.0801073384473838
decision_type=2 2 2 2 2 2 2 2 2 2 2 2 2 2 2 2 2 2 2 2 2 2
left_child=1 -1 4 21 6 8 14 -7 -6 12 -11 -12 -10 -13 19 -15 -16 -14 -2 20 -3 -4
right_child=18 2 3 -5 5 7 -8 -9 9 10 11 13 17 15 16 -17 -18 -19 -20 -21 -22 -23
leaf_value=4.3865193742957 -3.6684560706398703 0.52752461877199697 5.0269907592223566 -1.7245382649931187 3.8595803820979491 -4.9464793147211488 4.2943364056908937 -0.30129244976162167 -1.2340023510759046 -3.8865484179621155 3.19036000687555 -2.9027280177010426 1.2522987392384517 1.5868236498801125 -2.2304106590665622 -1.1991570413680304 0.33701178597931813 3.3072202620786779 -5.339744702419603 -0.08991763303775599 2.4211467259505701 3.6871974380061312
leaf_weight=24 35 20 22 29 22 32 33 32 36 32 30 34 37 30 23 25 20 27 33 20 23 21
leaf_count=24 35 20 22 29 22 32 33 32 36 32 30 34 37 30 23 25 20 27 33 20 23 21
internal_value=1.20015e-05 0.53551 0.365312 1.9309 0.127786 -0.301876 1.16843 -2.63208 0.245921 -0.0736304 -0.729947 0.123976 0.916876 -0.914462 0.189005 0.320694 -1.04021 2.12684 -4.49282 1.02864 1.54694 4.3928
internal_weight=640 572 548 72 476 337 139 64 273 251 151 119 100 89 106 55 43 64 68 63 43 43
internal_count=640 572 548 72 476 337 139 64 273 251 151 119 100 89 106 55 43 64 68 63 43 43
is_linear=0
shrinkage=0.01


Tree=16
num_leaves=24
num_cat=0
split_feature=2 19 2 3 3 3 18 3 18 18 18 18 2 6 18 6 2 2 6 2 15 2 2
split_gain=1.51027e+07 3.67317e+06 1.99791e+06 6.38417e+06 2.08923e+06 4.84299e+06 3.61408e+06 2.61798e+06 2.28614e+06 3.57403e+06 4.26575e+06 3.10163e+06 2.04635e+06 1.76258e+06 1.04498e+06 951361 1.17361e+06 791524 428252 361903 287663 159734 153071
threshold=1.3666561201493825 -1.2472640838158349 0.39268058898337094 0.74108758054479351 -0.74596919775590587 -0.37963769097561989 -0.61938434753998961 -0.17323178783337248 -1.1667261295158711 -0.75583189811167661 -0.34146779466014293 1.4437379655794613 -0.30616833577813252 -0.37970697360827971 1.511630099581295 -0.2562106876165165 -0.019561225926433914 -0.19337191891295788 -1.6146698335260825 -0.49424172815142642 1.0864765390106401 -0.017067631903782594 0.59411223247283396
decision_type=2 2 2 2 2 2 2 2 2 2 2 2 2 2 2 2 2 2 2 2 2 2 2
left_child=1 -1 4 22 6 13 -3 -7 12 -10 -11 -12 19 -6 -13 -8 20 -14 -2 -9 -17 -18 -4
right_child=18 2 3 -5 5 7 15 8 9 10 11 14 17 -15 -16 16 21 -19 -20 -21 -22 -23 -24
leaf_value=4.3430167948510032 -3.6319799353859641 4.2712502688251126 4.977173775337838 -1.7074110025902318 -1.0406992380790885 3.1475198487674487 2.1461288182488802 3.4635726579630148 -3.8479242539257736 3.1586677228851823 -3.450718759278566 1.5710605527865176 -1.7434058824078793 -4.8290739067564621 -1.1872606112465027 1.4282265003617984 -2.0360618607360537 0.77136795604930219 -5.2866689958917084 1.730874696441044 -0.08902728411230712 -0.76296241184272395 3.650673305943327
leaf_weight=24 35 29 22 29 22 27 23 21 32 30 36 30 23 28 25 33 20 27 33 30 20 20 21
leaf_count=24 35 29 22 29 22 27 23 21 32 30 36 30 23 28 25 33 20 27 33 30 20 20 21
internal_value=3.1763e-05 0.530209 0.361699 1.91179 0.126525 -0.312004 1.12664 0.19896 -0.116696 -0.887078 -0.0989785 -1.17751 1.04976 -3.173 0.317501 0.334481 -0.117194 -0.387745 -4.44815 2.4551 0.857477 -1.4065 4.34927
internal_weight=640 572 548 72 476 331 145 281 254 153 121 91 101 50 55 116 93 50 68 51 53 40 43
internal_count=640 572 548 72 476 331 145 281 254 153 121 91 101 50 55 116 93 50 68 51 53 40 43
is_linear=0
shrinkage=0.01


Tree=17
num_leaves=25
num_cat=0
split_feature=0 19 0 1 1 13 1 0 1 1 15 18 13 1 1 0 1 1 0 6 13 0 0 0
split_gain=1.4804e+07 3.60066e+06 1.95855e+06 6.25821e+06 2.05006e+06 4.16301e+06 4.11595e+06 3.3492e+06 3.05337e+06 1.59989e+06 2.98814e+06 2.19633e+06 3.82763e+06 3.16551e+06 1.7692e+06 1.05002e+06 861481 1.40126e+06 687316 419787 349906 380697 150047 4728.37
threshold=1.4170757759392376 -1.2472640838158349 0.94602565651345216 0.47071812565222243 -0.94355121831743338 0.76150087589654958 -0.99051740657711473 0.34089385515373544 -0.69734715434993577 -0.42817885922019644 0.17043775088642049 0.35164752889871692 -0.8596207175272067 0.21467751391775222 -0.32856100545799177 0.083315887228025132 -0.53322717849992685 -0.64418179616332216 0.19269831196360074 -1.6146698335260825 1.068734327764852 -0.17073361538363438 1.0801073384473838 -1.2116308830286278
decision_type=2 2 2 2 2 2 2 2 2 2 2 2 2 2 2 2 2 2 2 2 2 2 2 2
left_child=1 -1 4 22 6 8 15 -7 -6 16 11 12 -11 -14 -12 20 17 -10 -17 -2 21 -3 -4 -15
right_child=19 2 3 -5 5 7 -8 -9 9 10 14 -13 13 23 -16 18 -18 -19 -20 -21 -22 -23 -24 -25
leaf_value=4.2999455469304868 -3.5958663329211147 0.49408633090481902 4.9278504304628115 -1.6904538456381184 3.797155320279233 -4.8645429215520064 4.21879797824535 -0.29445348054546605 -2.4166429039983464 3.3124803385497832 0.44437313830151282 -3.3019667238372938 1.2838089631733141 -2.9785338697351258 3.9710107078299615 -2.1897600475673018 -2.8548294137016179 1.2239320782498198 0.33690890293310183 -5.2341209016363299 -0.08814600972846004 2.3829849121488373 3.6145110276060284 -2.545192940353167
leaf_weight=24 35 20 22 29 22 32 33 32 20 28 27 22 34 23 30 23 25 22 20 33 20 23 21 20
leaf_count=24 35 20 22 29 22 32 33 32 20 28 27 22 34 23 30 23 25 22 20 33 20 23 21 20
internal_value=4.71838e-05 0.524955 0.358117 1.89286 0.125271 -0.296258 1.14622 -2.58755 0.242392 -0.0719524 0.409941 -0.444185 0.159718 -0.99234 2.30791 0.183506 -1.39266 -0.512888 -1.01842 -4.40393 1.00451 1.51081 4.30618 -2.78972
internal_weight=640 572 548 72 476 337 139 64 273 251 184 127 105 77 57 106 67 42 43 68 63 43 43 43
internal_count=640 572 548 72 476 337 139 64 273 251 184 127 105 77 57 106 67 42 43 68 63 43 43 43
is_linear=0
shrinkage=0.01


Tree=18
num_leaves=23
num_cat=0
split_feature=0 16 13 0 13 1 13 1 0 1 1 15 1 1 0 1 1 0 1 6 1 0
split_gain=1.45112e+07 3.14501e+06 3.67847e+06 6.17784e+06 2.86481e+06 1.61473e+06 4.74362e+06 4.03452e+06 3.28296e+06 2.55421e+06 2.55419e+06 1.67629e+06 1.94372e+06 1.73422e+06 1.0293e+06 844461 1.37364e+06 673758 443977 411489 398623 343669
threshold=1.4170757759392376 -1.3419781550513372 -0.43104384241263444 0.94602565651345216 -0.73000120642447086 -0.94355121831743338 0.76150087589654958 -0.99051740657711473 0.34089385515373544 -0.69734715434993577 -0.42817885922019644 0.17043775088642049 0.022645178804335715 -0.32856100545799177 0.083315887228025132 -0.53322717849992685 -0.64418179616332216 0.19269831196360074 0.93295731574727114 -1.6146698335260825 1.6062428087339911 -0.15661975412743107
decision_type=2 2 2 2 2 2 2 2 2 2 2 2 2 2 2 2 2 2 2 2 2 2
left_child=1 20 4 5 18 7 9 14 -8 -7 15 12 -12 -13 21 16 -11 -16 -3 -2 -1 -4
right_child=19 2 3 -5 -6 6 8 -9 -10 10 11 13 -14 -15 17 -17 -18 -19 -20 -21 -22 -23
leaf_value=3.6726199063209641 -3.5601120359247376 0.93626523095985947 0.051646384877606866 4.327871738915305 -3.8855882428264055 3.7595257210946293 -4.8161997014395199 4.1768642313221847 -0.29152717981649479 -2.3927157441696316 -2.3657128557665592 0.43996209481183224 1.4309767324435783 3.9315636863455867 -2.1680510510247326 -2.8265076298183862 1.2118029132190054 0.33357313052262411 -1.0914422886914548 -5.1820949911783973 1.8332442604820685 1.5715593786628879
leaf_weight=29 35 23 24 41 34 22 32 33 32 20 23 27 32 30 23 25 22 20 20 33 21 39
leaf_count=29 35 23 24 41 34 22 32 33 32 20 23 27 32 30 23 25 22 20 20 33 21 39
internal_value=5.3732e-05 0.519745 0.289718 0.639049 -1.72556 0.262729 -0.195219 1.13483 -2.56183 0.560123 0.163138 1.0864 -0.159531 2.28499 0.181689 -1.37885 -0.507816 -1.00832 -0.00751808 -4.36015 2.91048 0.994556
internal_weight=640 572 522 445 77 404 265 139 64 201 179 112 55 57 106 67 42 43 43 68 50 63
internal_count=640 572 522 445 77 404 265 139 64 201 179 112 55 57 106 67 42 43 43 68 50 63
is_linear=0
shrinkage=0.01


end of trees

feature_importances:
Column_1=108
Column_0=107
Column_18=51
Column_13=44
Column_6=36
Column_3=28
Column_5=17
Column_19=16
Column_2=15
Column_15=9
Column_16=3
Column_4=2
Column_9=2
Column_7=1

parameters:
[boosting: gbdt]
[objective: regression]
[metric: l2]
[tree_learner: serial]
[device_type: cpu]
[data_sample_strategy: goss]
[data: ]
[valid: ]
[num_iterations: 5000]
[learning_rate: 0.01]
[num_leaves: 127]
[num_threads: -1]
[seed: 42]
[deterministic: 0]
[force_col_wise: 0]
[force_row_wise: 0]
[histogram_pool_size: -1]
[max_depth: 12]
[min_data_in_leaf: 20]
[min_sum_hessian_in_leaf: 0.001]
[bagging_fraction: 1]
[pos_bagging_fraction: 1]
[neg_bagging_fraction: 1]
[bagging_freq: 0]
[bagging_seed: 400]
[bagging_by_query: 0]
[feature_fraction: 0.8]
[feature_fraction_bynode: 1]
[feature_fraction_seed: 30056]
[extra_trees: 0]
[extra_seed: 12879]
[early_stopping_round: 200]
[early_stopping_min_delta: 0]
[first_metric_only: 0]
[max_delta_step: 0]
[lambda_l1: 0.1]
[lambda_l2: 0.2]
[linear_lambda: 0]
[min_gain_to_split: 0]
[drop_rate: 0.1]
[max_drop: 50]
[skip_drop: 0.5]
[xgboost_dart_mode: 0]
[uniform_drop: 0]
[drop_seed: 17869]
[top_rate: 0.2]
[other_rate: 0.1]
[min_data_per_group: 100]
[max_cat_threshold: 32]
[cat_l2: 10]
[cat_smooth: 10]
[max_cat_to_onehot: 4]
[top_k: 20]
[monotone_constraints: ]
[monotone_constraints_method: basic]
[monotone_penalty: 0]
[feature_contri: ]
[forcedsplits_filename: ]
[refit_decay_rate: 0.9]
[cegb_tradeoff: 1]
[cegb_penalty_split: 0]
[cegb_penalty_feature_lazy: ]
[cegb_penalty_feature_coupled: ]
[path_smooth: 0]
[interaction_constraints: ]
[verbosity: -1]
[saved_feature_importance_type: 0]
[use_quantized_grad: 0]
[num_grad_quant_bins: 4]
[quant_train_renew_leaf: 0]
[stochastic_rounding: 1]
[linear_tree: 0]
[max_bin: 255]
[max_bin_by_feature: ]
[min_data_in_bin: 3]
[bin_construct_sample_cnt: 200000]
[data_random_seed: 175]
[is_enable_sparse: 1]
[enable_bundle: 1]
[use_missing: 1]
[zero_as_missing: 0]
[feature_pre_filter: 1]
[pre_partition: 0]
[two_round: 0]
[header: 0]
[label_column: ]
[weight_column: ]
[group_column: ]
[ignore_column: ]
[categorical_feature: ]
[forcedbins_filename: ]
[precise_float_parser: 0]
[parser_config_file: ]
[objective_seed: 16083]
[num_class: 1]
[is_unbalance: 0]
[scale_pos_weight: 1]
[sigmoid: 1]
[boost_from_average: 1]
[reg_sqrt: 0]
[alpha: 0.9]
[fair_c: 1]
[poisson_max_delta_step: 0.7]
[tweedie_variance_power: 1.5]
[lambdarank_truncation_level: 30]
[lambdarank_norm: 1]
[label_gain: ]
[lambdarank_position_bias_regularization: 0]
[eval_at: ]
[multi_error_top_k: 1]
[auc_mu_weights: ]
[num_machines: 1]
[local_listen_port: 12400]
[time_out: 120]
[machine_list_filename: ]
[machines: ]
[gpu_platform_id: -1]
[gpu_device_id: -1]
[gpu_use_dp: 0]
[num_gpu: 1]

end of parameters

pandas_categorical:null
