tree
version=v4
num_class=1
num_tree_per_iteration=1
label_index=0
max_feature_idx=19
objective=regression
feature_names=Column_0 Column_1 Column_2 Column_3 Column_4 Column_5 Column_6 Column_7 Column_8 Column_9 Column_10 Column_11 Column_12 Column_13 Column_14 Column_15 Column_16 Column_17 Column_18 Column_19
feature_infos=[-1.6374816889596262:1.8351025902401401] [-1.0890353484508963:2.57840537930216] [-2.2161241654515256:2.978389956933297] [-3.2515219372711601:1.13240519871875] [-1.7558836468487813:1.9931793829852564] [-1.4282452418403728:2.0577025061386496] [-1.8351025902396751:1.6374816889600687] [-1.6281139398984974:1.8458674971000688] [-1.6374816889601265:1.8351025902396196] [-1.8243761406313244:1.6468763858115374] [-1.8351025902396751:1.6374816889600687] [-1.6281139398984974:1.8458674971000688] [-1.6349910708128916:1.8306334094131531] [-2.5756758328459219:1.0898516788689141] [-1.5722926351021003:1.7202558403243302] [-2.5089812937792644:1.1097976199737127] [-1.3388266420700667:1.381200033821931] [-2.2848553490107575:1.1766308486283648] [-1.3731769532423146:1.5286570422577188] [-1.278918715324352:1.5067191848906216]
tree_sizes=2098 2130 2217 2124 2210 2303 2209 2136 2211 2124 2206 2135 2206 2299 2207 2127 2215 2211 2212 2211 2299 2202 2130 2207 2130 2213 2132 2127 2266 2121 2191 2288 2190 2296 2190 2215 2042 2041 2122 2117

Tree=0
num_leaves=24
num_cat=0
split_feature=6 0 18 18 1 18 1 19 18 1 1 18 18 18 1 18 0 0 18 0 18 0 0
split_gain=9.89055e+06 8.54447e+06 4.59357e+06 6.34645e+06 3.73858e+06 2.0954e+06 2.47947e+06 1.56437e+06 1.47051e+06 1.61651e+06 1.89374e+06 1.34608e+06 1.12896e+06 1.00753e+06 979597 830050 616517 2.00259e+06 989934 757118 1.48301e+06 1.13319e+06 124395
threshold=1.210381714861714 -1.4980204729275071 0.055204725795280275 1.4139953816627224 0.77258894330417693 -0.14124828018851951 -1.0610010241330703 -1.1651532587398943 1.2615820991188456 -1.0331038808408326 0.28782077801772327 -1.3456009766467087 1.3373552555645836 -1.3681869295367171 -0.90881960917411397 1.5101666123185276 -0.70832133714563239 -1.0099062168150901 -1.2480253581282221 -0.45206135268661363 -0.64551414187601053 1.7217903522140432 0.10752677664226433
decision_type=2 2 2 2 2 2 2 2 2 2 2 2 2 2 2 2 2 2 2 2 2 2 2
left_child=2 -2 5 4 8 6 -1 -3 9 22 14 13 -10 -8 -11 -5 17 -13 -18 -20 -21 -22 -4
right_child=1 7 3 15 -6 -7 11 -9 12 10 -12 16 -14 -15 -16 -17 18 -19 19 20 21 -23 -24
leaf_value=8395.1512860356706 8391.5698497701487 8399.9861342287822 8395.2340824593794 8389.7777593188384 8391.2762060672994 8388.4375001485278 8391.5801150241568 8396.7409983475354 8397.925949043818 8393.4213774453783 8395.5065231401786 8391.6315271906951 8394.867090350217 8394.4966449961175 8390.5957087366551 8392.0184179134903 8393.439122610007 8387.8026244980447 8389.4659715779635 8393.1915328147625 8389.0932813173185 8392.194742484633 8396.3469989522
leaf_weight=20 30 25 24 39 35 20 24 39 23 29 27 39 26 23 21 29 22 21 22 33 27 21 21
leaf_count=20 30 25 24 39 35 20 24 39 23 29 27 39 26 23 21 29 22 21 22 33 27 21 21
internal_value=8392.97 8395.97 8392.46 8393.37 8394.25 8391.54 8391.79 8398.03 8394.86 8394.26 8393.38 8391.5 8396.32 8393.01 8392.23 8390.73 8391.11 8390.28 8391.52 8391.11 8391.56 8390.44 8395.77
internal_weight=640 94 546 274 206 272 252 64 171 122 77 232 49 47 50 68 185 60 125 103 81 48 45
internal_count=640 94 546 274 206 272 252 64 171 122 77 232 49 47 50 68 185 60 125 103 81 48 45
is_linear=0
shrinkage=1


Tree=1
num_leaves=24
num_cat=0
split_feature=6 0 18 18 1 18 1 0 18 1 1 1 1 1 0 18 1 0 1 18 0 1 0
split_gain=9.69503e+06 8.37556e+06 4.50301e+06 6.22098e+06 3.6647e+06 2.05414e+06 2.43058e+06 1.49008e+06 1.44149e+06 1.58465e+06 1.85635e+06 1.32511e+06 2.53359e+06 1.46646e+06 1.34682e+06 1.1067e+06 987504 1.3186e+06 960278 813603 555407 1.12352e+06 121949
threshold=1.210381714861714 -1.4980204729275071 0.055204725795280275 1.4139953816627224 0.77258894330417693 -0.14124828018851951 -1.0610010241330703 -1.3742486436990011 1.2615820991188456 -1.0331038808408326 0.28782077801772327 -0.3569610693173873 -0.6843512815968793 -0.12282789169764836 -0.74492990635406375 1.3373552555645836 0.2120542413815826 1.7217903522140432 -0.90881960917411397 1.5101666123185276 -0.45206135268661363 -0.95079299016945629 0.10752677664226433
decision_type=2 2 2 2 2 2 2 2 2 2 2 2 2 2 2 2 2 2 2 2 2 2 2
left_child=2 -2 5 4 8 6 -1 -3 9 22 18 12 20 -13 -14 -10 -15 -18 -11 -5 -8 -22 -4
right_child=1 7 3 19 -6 -7 11 -9 15 10 -12 13 14 16 -16 -17 17 -19 -20 -21 21 -23 -24
leaf_value=2.1549675490124391 -1.3909627530432696 6.9791436307292347 2.2369072836883799 -3.1652025209154395 -1.6816738140583036 -4.4923451519956688 -2.9954068685761581 3.7862104364651352 4.9020953040287409 0.4421730173450627 2.5066229618296907 -4.4374417732175715 -0.72845889873332814 -0.28105995637824732 2.6524537595113116 1.8735427537583211 -3.8593431606671671 -0.67438380816887178 -2.3554939118871148 -0.94685302887877387 -2.7146086048094697 0.36918723270810888 3.3388257052088681
leaf_weight=20 30 24 24 39 35 20 28 40 23 29 27 24 22 33 25 26 30 23 21 29 24 23 21
leaf_count=20 30 24 24 39 35 20 28 40 23 29 27 24 22 33 25 26 30 23 21 29 24 23 21
internal_value=0 2.96278 -0.510972 0.393759 1.25943 -1.42198 -1.17493 5.00159 1.86268 1.2772 0.403564 -1.4636 -0.744098 -2.25879 1.0735 3.30928 -1.64189 -2.48494 -0.73753 -2.22471 -1.88296 -1.21033 2.76366
internal_weight=640 94 546 274 206 272 252 64 171 122 77 232 122 110 47 49 86 53 50 68 75 47 45
internal_count=640 94 546 274 206 272 252 64 171 122 77 232 122 110 47 49 86 53 50 68 75 47 45
is_linear=0
shrinkage=0.01


Tree=2
num_leaves=25
num_cat=0
split_feature=9 0 0 19 0 0 0 3 3 19 3 3 0 19 19 0 0 3 0 0 0 0 3 0
split_gain=9.50335e+06 8.21e+06 3.16113e+06 3.64276e+06 3.95595e+06 1.91957e+06 2.96935e+06 2.42641e+06 1.98183e+06 1.50485e+06 1.42024e+06 1.19871e+06 2.0213e+06 1.17487e+06 960386 929637 761952 1.44259e+06 570413 1.54471e+06 160094 119551 59393.4 10671.9
threshold=1.2134107852571085 -1.4980204729275071 -0.80594418836811577 -1.110288574277742 1.0645793716626819 0.58518144155227247 -0.0092719917846354315 0.26756080941550014 -0.13732172027853365 -1.1651532587398943 0.73433040812336403 -1.2797276011820087 0.47709899912738002 -1.252435033319159 -1.2037488565718981 -0.45206135268661363 -1.0099062168150901 0.35400472000889732 -0.27250503704526013 -0.12955729061233814 0.66362837557033949 0.10752677664226433 -0.84063979002980627 -0.72924051955045022
decision_type=2 2 2 2 2 2 2 2 2 2 2 2 2 2 2 2 2 2 2 2 2 2 2 2
left_child=2 -2 16 13 5 6 8 20 15 -3 -6 21 22 -4 -15 -5 -1 -18 -17 -20 -7 -8 -13 -10
right_child=1 9 3 4 10 7 11 -9 23 -11 -12 12 -14 14 -16 18 17 -19 19 -21 -22 -23 -24 -25
leaf_value=-1.3097377636967873 -1.3771453400795033 6.8738374613201811 -0.40613135424153562 -2.9656654866536458 4.5832286798855488 -2.2028543445851545 2.2147231497646365 0.42699234158580834 1.3176398502384219 3.6910904218712632 1.1373878267776869 -0.29357292604875995 2.9992926591018154 -4.7559962499366621 -1.8875295745625216 0.2093025972904303 -1.3863317698352742 -5.1024422404451188 -3.5388967362889701 0.097317559355087874 -3.4214669032946023 3.3057526494646972 -1.0391153238404474 0.96242423218075601
leaf_weight=39 30 25 23 28 24 20 24 38 22 39 24 22 23 21 27 31 21 21 21 26 29 21 21 20
leaf_count=39 30 25 23 28 24 20 24 38 22 39 24 22 23 21 27 31 21 21 21 26 29 21 21 20
internal_value=4.26921e-06 2.93335 -0.505891 -0.1879 0.188179 -0.185612 0.246271 -1.46896 -0.680707 4.95191 2.8722 1.48125 0.619864 -2.26955 -3.15703 -1.40843 -2.32643 -3.25979 -0.843256 -1.53546 -2.93507 2.73627 -0.660823 1.15388
internal_weight=640 94 546 465 394 346 259 87 148 64 48 111 66 71 48 106 81 42 78 47 49 45 43 42
internal_count=640 94 546 465 394 346 259 87 148 64 48 111 66 71 48 106 81 42 78 47 49 45 43 42
is_linear=0
shrinkage=0.01


Tree=3
num_leaves=24
num_cat=0
split_feature=6 1 18 18 1 18 1 19 18 1 1 18 18 18 1 18 2 1 18 2 18 1 6
split_gain=9.31552e+06 8.0477e+06 4.33219e+06 5.98953e+06 3.51373e+06 2.02993e+06 2.37352e+06 1.47524e+06 1.404e+06 1.52937e+06 1.79352e+06 1.29001e+06 1.07717e+06 998147 950187 809173 586707 1.92644e+06 932252 721226 1.40431e+06 1.07783e+06 117201
threshold=1.210381714861714 1.3548859918279594 0.055204725795280275 1.4139953816627224 0.77258894330417693 -0.14124828018851951 -1.0610010241330703 -1.1651532587398943 1.2615820991188456 -1.0331038808408326 0.28782077801772327 -1.3456009766467087 1.3373552555645836 -1.3681869295367171 -0.90881960917411397 1.5101666123185276 -0.23313644633731387 0.021696579810462274 -1.2480253581282221 -0.10390183234466242 -0.64551414187601053 2.1394838077736158 -0.10752677664180531
decision_type=2 2 2 2 2 2 2 2 2 2 2 2 2 2 2 2 2 2 2 2 2 2 2
left_child=2 7 5 4 8 6 -1 -2 9 22 14 13 -10 -8 -11 -5 17 -13 -18 -20 -21 -22 -4
right_child=1 -3 3 15 -6 -7 11 -9 12 10 -12 16 -14 -15 -16 -17 18 -19 19 20 21 -23 -24
leaf_value=2.1416682698466989 6.8056448430863643 -1.3634651804286122 3.2730069027306898 -3.1206155729293816 -1.6439450358531691 -4.446586974375319 -1.3757789510931853 3.6543678785830123 4.8256358066098448 0.44248444230589151 2.4577822511336382 -5.0518991319188533 1.837949717281429 1.5271432656255264 -2.3404324447883749 -0.90874081756970659 0.449809975838876 -1.2967072444059409 -3.4149516502586574 0.21635977917406929 -3.774529672510484 -0.74992344689819046 2.1927588897894235
leaf_weight=20 25 30 21 39 35 20 24 39 23 29 27 21 26 23 21 29 22 39 22 33 27 21 24
leaf_count=20 25 30 21 39 35 20 24 39 23 29 27 21 26 23 21 29 22 39 22 33 27 21 24
internal_value=0 2.90421 -0.500873 0.386533 1.23595 -1.39444 -1.14886 4.90272 1.82664 1.24885 0.39061 -1.43413 3.25427 0.0452304 -0.730988 -2.18276 -1.80962 -2.62346 -1.4154 -1.81391 -1.3717 -2.45989 2.70915
internal_weight=640 94 546 274 206 272 252 64 171 122 77 232 49 47 50 68 185 60 125 103 81 48 45
internal_count=640 94 546 274 206 272 252 64 171 122 77 232 49 47 50 68 185 60 125 103 81 48 45
is_linear=0
shrinkage=0.01


Tree=4
num_leaves=25
num_cat=0
split_feature=6 0 0 19 0 0 0 3 3 19 3 19 3 0 19 0 0 3 0 0 0 0 2 0
split_gain=9.13137e+06 7.88861e+06 3.05465e+06 3.50756e+06 3.83156e+06 1.85427e+06 2.84398e+06 2.34933e+06 1.92462e+06 1.44621e+06 1.3909e+06 1.16198e+06 1.15391e+06 1.94257e+06 932850 895669 739739 1.37141e+06 548705 1.50001e+06 162610 114896 55328.9 11495.5
threshold=1.210381714861714 -1.4980204729275071 -0.80594418836811577 -1.110288574277742 1.0645793716626819 0.58518144155227247 -0.0092719917846354315 0.26756080941550014 -0.13732172027853365 -1.1651532587398943 0.73433040812336403 -1.252435033319159 -1.2797276011820087 0.47709899912738002 -1.2037488565718981 -0.45206135268661363 -1.0099062168150901 0.35400472000889732 -0.27250503704526013 -0.12955729061233814 0.66362837557033949 0.10752677664226433 -0.038681935019856895 -0.72924051955045022
decision_type=2 2 2 2 2 2 2 2 2 2 2 2 2 2 2 2 2 2 2 2 2 2 2 2
left_child=2 -2 16 11 5 6 8 20 15 -3 -6 -4 21 22 -13 -5 -1 -18 -17 -20 -7 -8 -14 -10
right_child=1 9 3 4 10 7 12 -9 23 -11 -12 14 13 -15 -16 18 17 -19 19 -21 -22 -23 -24 -25
leaf_value=-1.2838062924754861 -1.3499207510537659 6.7381283496675044 -0.37309832651039648 -2.9105347228895688 4.5204302931225993 -2.1501466573583019 2.1710126381866206 0.42211562660976226 1.3116780214051944 3.6180106003430423 1.1105825650396426 -4.6843991146447523 -0.29504864426346511 2.938459237855056 -1.8574049388310487 0.20507326627388978 -1.3781415716207253 -5.0018567293994831 -3.4804057168060876 0.1027592535328319 -3.3754313199977348 3.2405858370043195 -1.0148276573756956 0.94630837884279773
leaf_weight=39 30 25 23 28 24 20 24 38 22 39 24 21 22 23 27 31 21 21 21 26 29 21 21 20
leaf_count=39 30 25 23 28 24 20 24 38 22 39 24 21 22 23 27 31 21 21 21 26 29 21 21 20
internal_value=0 2.87536 -0.495896 -0.183307 0.185726 -0.182142 0.242332 -1.44347 -0.664868 4.85402 2.82721 -2.22596 1.45096 0.605828 -3.10854 -1.38202 -2.28551 -3.20514 -0.827264 -1.50617 -2.88611 2.6823 -0.649663 1.14303
internal_weight=640 94 546 465 394 346 259 87 148 64 48 71 111 66 48 106 81 42 78 47 49 45 43 42
internal_count=640 94 546 465 394 346 259 87 148 64 48 71 111 66 48 106 81 42 78 47 49 45 43 42
is_linear=0
shrinkage=0.01


Tree=5
num_leaves=26
num_cat=0
split_feature=0 0 0 19 0 19 0 0 1 1 1 0 19 1 0 19 0 0 0 1 0 0 0 1 0
split_gain=8.95372e+06 6.9106e+06 3.92214e+06 3.43837e+06 3.75593e+06 2.04248e+06 1.81768e+06 2.78786e+06 2.30293e+06 1.88665e+06 1.36345e+06 1.22885e+06 1.13906e+06 1.13116e+06 1.90425e+06 914486 877952 537885 1.47044e+06 503795 1.0731e+06 159376 112637 54238.2 11267.9
threshold=-1.1441376372460044 -1.4980204729275071 -0.80594418836811577 -1.110288574277742 1.0645793716626819 -1.1651532587398943 0.58518144155227247 -0.0092719917846354315 -0.32651403854801841 -0.6843512815968793 0.50496514467576414 -1.2644229360737074 -1.252435033319159 -1.0331038808408326 0.47709899912738002 -1.2037488565718981 -0.45206135268661363 -0.27250503704526013 -0.12955729061233814 -0.22706271795873717 -1.0099062168150901 0.66362837557033949 0.10752677664226433 -0.96099845590628619 -0.72924051955045022
decision_type=2 2 2 2 2 2 2 2 2 2 2 2 2 2 2 2 2 2 2 2 2 2 2 2 2
left_child=1 -1 19 12 6 -3 7 9 21 16 -6 -7 -4 22 23 -14 -5 -18 -19 -2 -21 -8 -9 -15 -11
right_child=2 5 3 4 10 11 8 13 -10 24 -12 -13 15 14 -16 -17 17 18 -20 20 -22 -23 -24 -25 -26
leaf_value=-1.3365110581758006 -1.3644901808252876 6.6712819441538009 -0.3693996429032293 -2.8816358980219419 4.4755996819961172 1.5066737933198284 -2.1288580783050839 2.149481783780185 0.41791657550172662 1.2986792514560461 1.0995686426241538 4.718706136656202 -4.6379970183462467 -0.29212475527514209 2.909327854945742 -1.8389673919888103 0.20303565673339063 -3.4459300375884436 0.10173949256653093 -1.9888981769890186 -4.9523100755799492 -3.3419083430015877 3.2084856480472492 -1.0047749386193618 0.93693897058468067
leaf_weight=30 21 25 23 28 24 24 20 24 38 22 24 24 21 22 23 27 31 21 26 30 21 29 21 21 20
leaf_count=30 21 25 23 28 24 24 20 24 38 22 24 24 21 22 23 27 31 21 26 30 21 29 21 21 20
internal_value=-3.23216e-06 2.69776 -0.518265 -0.181488 0.183888 4.35482 -0.180331 0.239933 -1.42915 -0.658271 2.79917 3.12563 -2.2039 1.43658 0.599819 -3.07773 -1.36831 -0.819072 -1.49125 -2.68674 -3.22372 -2.85747 2.65572 -0.643227 1.1317
internal_weight=640 103 537 465 394 73 346 259 87 148 48 48 71 111 66 48 106 78 47 72 51 49 45 43 42
internal_count=640 103 537 465 394 73 346 259 87 148 48 48 71 111 66 48 106 78 47 72 51 49 45 43 42
is_linear=0
shrinkage=0.01


Tree=6
num_leaves=25
num_cat=0
split_feature=6 0 18 18 3 18 3 19 18 3 3 18 18 18 3 18 0 0 0 18 3 0 18 0
split_gain=8.79561e+06 7.59251e+06 4.09613e+06 5.66387e+06 3.29492e+06 2.02031e+06 2.31086e+06 1.38193e+06 1.35884e+06 1.45341e+06 1.70797e+06 1.21437e+06 1.04101e+06 990801 948874 816270 597285 893386 1.33819e+06 763046 950489 993432 643384 110422
threshold=1.210381714861714 -1.4980204729275071 0.055204725795280275 1.4139953816627224 0.8222252361662491 -0.14124828018851951 -1.5982395857385761 -1.1651532587398943 1.2615820991188456 -1.2797276011820087 0.64765440640031657 -1.3456009766467087 1.3373552555645836 -1.3681869295367171 -0.6418839349888299 1.5101666123185276 -1.0709204988291419 -0.99247356481107507 -0.66648297233599674 -0.61809463879486926 -0.13732172027853365 -0.45206135268661363 -0.48136073619054526 0.10752677664226433
decision_type=2 2 2 2 2 2 2 2 2 2 2 2 2 2 2 2 2 2 2 2 2 2 2 2
left_child=2 -2 5 4 8 6 -1 -3 9 23 14 13 -10 -8 -11 -5 -13 -18 -19 20 21 -20 -21 -4
right_child=1 7 3 15 -6 -7 11 -9 12 10 -12 16 -14 -15 -16 -17 17 18 19 22 -22 -23 -24 -25
leaf_value=2.1360893449688905 -1.3232342601296128 6.6050984482538135 2.1281646154734712 -3.0640969313894 -1.5866103330525483 -4.4003666633249514 -1.372538838662392 3.5547342860941979 4.7232740740940491 0.44735537568183803 2.3864979654199936 -3.3423291001229916 1.7865266169846512 1.5196810830872636 -2.3336158007495809 -0.84335499018838966 0.37335498665863609 -4.2211709949757799 -2.8530237422429074 -3.7558208576463303 1.0242638646494044 -0.27670488606328547 -1.296346186045054 3.1767033857669471
leaf_weight=20 30 25 24 39 35 20 24 39 23 29 27 21 26 23 21 29 21 20 28 21 20 32 22 21
leaf_count=20 30 25 24 39 35 20 24 39 23 29 27 21 26 23 21 29 21 20 28 21 20 32 22 21
internal_value=-2.82895e-06 2.822 -0.486699 0.37619 1.20219 -1.35557 -1.11062 4.76316 1.77419 1.20583 0.369208 -1.39211 3.17862 0.0432238 -0.725276 -2.12228 -1.75643 -1.54952 -1.83204 -1.43733 -0.856297 -1.48449 -2.50934 2.6294
internal_weight=640 94 546 274 206 272 252 64 171 122 77 232 49 47 50 68 185 164 143 123 80 60 43 45
internal_count=640 94 546 274 206 272 252 64 171 122 77 232 49 47 50 68 185 164 143 123 80 60 43 45
is_linear=0
shrinkage=0.01


Tree=7
num_leaves=24
num_cat=0
split_feature=0 0 18 18 1 1 19 1 18 1 1 0 0 0 6 18 1 0 18 0 0 0 0
split_gain=8.62865e+06 6.65317e+06 4.34552e+06 5.5519e+06 3.22981e+06 2.4335e+06 1.95312e+06 1.85491e+06 1.33203e+06 1.42477e+06 1.67426e+06 1.27885e+06 1.2247e+06 1.22146e+06 1.50804e+06 1.02048e+06 930161 842842 800098 522696 1.43456e+06 266741 108251
threshold=-1.1441376372460044 -1.4980204729275071 0.055204725795280275 1.4139953816627224 0.77258894330417693 -0.3569610693173873 -1.1651532587398943 -0.6843512815968793 1.2615820991188456 -1.0331038808408326 0.28782077801772327 -0.74492990635406375 -1.2644229360737074 1.6015050533863404 0.93494581319828496 1.3373552555645836 -0.90881960917411397 -0.45206135268661363 1.5101666123185276 -0.27250503704526013 -0.12955729061233814 -1.0290821340195064 0.10752677664226433
decision_type=2 2 2 2 2 2 2 2 2 2 2 2 2 2 2 2 2 2 2 2 2 2 2
left_child=1 -1 5 4 8 7 -3 17 9 22 16 -9 -8 14 -7 -10 -11 -2 -5 -19 -21 -16 -4
right_child=2 6 3 18 -6 13 12 11 15 10 -12 -13 -14 -15 21 -17 -18 19 -20 20 -22 -23 -24
leaf_value=-1.3100895390289509 -2.8246958131993067 6.5395718068925168 2.1070588223796243 -3.033612322661341 -1.5708342956954782 -5.2608214292453441 1.4564780709763203 -0.71478403383547129 4.6764483395938212 0.44291240365537882 2.3628085775936349 2.5796836635044644 4.66230574930995 -1.1575541598642642 -2.9896603276708107 1.7687977237191819 -2.310499776714253 0.20376755041953845 -0.83497915754579521 -3.3970898639031173 0.10697516390385518 -1.4113340869250599 3.1452358405095224
leaf_weight=30 28 25 24 39 35 26 24 22 23 29 27 25 24 40 22 26 21 31 29 21 26 22 21
leaf_count=30 28 25 24 39 35 26 24 22 23 29 27 25 24 40 22 26 21 31 29 21 26 22 21
internal_value=-5.31779e-06 2.64833 -0.508772 0.372478 1.19027 -1.42647 4.27423 -0.609488 1.75659 1.19387 0.365529 1.04108 3.07211 -2.55964 -3.35524 3.1471 -0.718099 -1.34193 -2.10117 -0.803785 -1.46641 -2.21048 2.60334
internal_weight=640 103 537 274 206 263 73 153 171 122 77 47 48 110 70 49 50 106 68 78 47 44 45
internal_count=640 103 537 274 206 263 73 153 171 122 77 47 48 110 70 49 50 106 68 78 47 44 45
is_linear=0
shrinkage=0.01


Tree=8
num_leaves=25
num_cat=0
split_feature=6 0 18 18 1 18 1 19 18 1 1 18 18 18 1 18 0 0 0 18 1 0 18 0
split_gain=8.47226e+06 7.30762e+06 3.94167e+06 5.44214e+06 3.16598e+06 1.98252e+06 2.25883e+06 1.32043e+06 1.30575e+06 1.3967e+06 1.6412e+06 1.19657e+06 1.00036e+06 978650 911817 784246 596616 883140 1.29974e+06 735789 911502 951799 629074 106122
threshold=1.210381714861714 -1.4980204729275071 0.055204725795280275 1.4139953816627224 0.77258894330417693 -0.14124828018851951 -1.0610010241330703 -1.1651532587398943 1.2615820991188456 -1.0331038808408326 0.28782077801772327 -1.3456009766467087 1.3373552555645836 -1.3681869295367171 -0.90881960917411397 1.5101666123185276 -1.0709204988291419 -0.99247356481107507 -0.66648297233599674 -0.61809463879486926 -0.6843512815968793 -0.45206135268661363 -0.48136073619054526 0.10752677664226433
decision_type=2 2 2 2 2 2 2 2 2 2 2 2 2 2 2 2 2 2 2 2 2 2 2 2
left_child=2 -2 5 4 8 6 -1 -3 9 23 14 13 -10 -8 -11 -5 -13 -18 -19 20 21 -20 -21 -4
right_child=1 7 3 15 -6 -7 11 -9 12 10 -12 16 -14 -15 -16 -17 17 18 19 22 -22 -23 -24 -25
leaf_value=2.1225542816313188 -1.2970755698349303 6.4746950446234814 2.0861624498603759 -3.0034308705767803 -1.5552151534774084 -4.3461299215921079 -1.3480809229070492 3.492610707185706 4.6300869047230684 0.43851375135656911 2.3393542859133554 -3.3120913372399672 1.751244846018216 1.5263542366027831 -2.2876127456269173 -0.82668655666586477 0.39108175169746828 -4.1560152102933072 -2.7966493783774951 -3.697643219592436 0.99968209899298044 -0.27486168120958787 -1.2659754393981384 3.1140801548507979
leaf_weight=20 30 25 24 39 35 20 24 39 23 29 27 21 26 23 21 29 21 20 28 21 20 32 22 21
leaf_count=20 30 25 24 39 35 20 24 39 23 29 27 21 26 23 21 29 21 20 28 21 20 32 22 21
internal_value=1.75201e-06 2.76965 -0.477662 0.368802 1.17847 -1.33 -1.08736 4.67404 1.73917 1.18202 0.361887 -1.36567 3.11589 0.0590436 -0.710992 -2.08027 -1.72731 -1.52058 -1.80148 -1.41249 -0.841926 -1.45709 -2.46518 2.57754
internal_weight=640 94 546 274 206 272 252 64 171 122 77 232 49 47 50 68 185 164 143 123 80 60 43 45
internal_count=640 94 546 274 206 272 252 64 171 122 77 232 49 47 50 68 185 164 143 123 80 60 43 45
is_linear=0
shrinkage=0.01


Tree=9
num_leaves=24
num_cat=0
split_feature=0 0 18 18 1 1 0 1 18 1 1 0 0 6 0 18 1 0 18 0 0 0 0
split_gain=8.31553e+06 6.40545e+06 4.18298e+06 5.33455e+06 3.10342e+06 2.36708e+06 1.81366e+06 1.80233e+06 1.27999e+06 1.36918e+06 1.60881e+06 1.23743e+06 1.20506e+06 1.48689e+06 1.11874e+06 980635 893834 809131 768708 507997 1.39958e+06 262505 104035
threshold=-1.1441376372460044 -1.4980204729275071 0.055204725795280275 1.4139953816627224 0.77258894330417693 -0.3569610693173873 -1.3742486436990011 -0.6843512815968793 1.2615820991188456 -1.0331038808408326 0.28782077801772327 -0.74492990635406375 1.6015050533863404 0.93494581319828496 -1.2644229360737074 1.3373552555645836 -0.90881960917411397 -0.45206135268661363 1.5101666123185276 -0.27250503704526013 -0.12955729061233814 -1.0290821340195064 0.10752677664226433
decision_type=2 2 2 2 2 2 2 2 2 2 2 2 2 2 2 2 2 2 2 2 2 2 2
left_child=1 -1 5 4 8 7 -3 17 9 22 16 -9 13 -7 -8 -10 -11 -2 -5 -19 -21 -15 -4
right_child=2 6 3 18 -6 12 14 11 15 10 -12 -13 -14 21 -16 -17 -18 19 -20 20 -22 -23 -24
leaf_value=-1.284190699091021 -2.7688810647463966 6.4467063235448414 2.0654733395379434 -2.9735498571030945 -1.5397515666484831 -5.1996615484106634 1.5711244637625559 -0.69434121552888339 4.5841853792914034 0.43415867609520481 2.3161327468647674 2.5463849652002728 -1.1249650447285588 -2.9438914386646169 4.6067373758111119 1.7338660311926413 -2.2649524218181392 0.20447390641921603 -0.81847626604445989 -3.3490352587429983 0.11200854920248948 -1.3786926640690984 3.0832333559809992
leaf_weight=30 28 24 24 39 35 26 25 22 23 29 27 25 40 22 24 26 21 31 29 21 26 22 21
leaf_count=30 28 24 24 39 35 26 25 22 23 29 27 25 40 22 24 26 21 31 29 21 26 22 21
internal_value=0 2.59985 -0.499448 0.365163 1.16679 -1.39982 4.19519 -0.594075 1.72192 1.1703 0.35828 1.03291 -2.51741 -3.30761 3.07066 3.08499 -0.703955 -1.31607 -2.05958 -0.788789 -1.44203 -2.17109 2.55199
internal_weight=640 103 537 274 206 263 73 153 171 122 77 47 110 70 49 49 50 106 68 78 47 44 45
internal_count=640 103 537 274 206 263 73 153 171 122 77 47 110 70 49 49 50 106 68 78 47 44 45
is_linear=0
shrinkage=0.01


Tree=10
num_leaves=25
num_cat=0
split_feature=6 1 18 18 1 18 1 19 18 1 1 18 18 18 1 18 2 2 2 18 1 1 18 4
split_gain=8.16095e+06 7.03351e+06 3.79308e+06 5.22909e+06 3.04208e+06 1.94541e+06 2.20802e+06 1.26389e+06 1.25473e+06 1.34219e+06 1.57705e+06 1.17909e+06 966691 961299 876207 753477 595778 872949 1.26233e+06 709474 874000 911850 615071 101989
threshold=1.210381714861714 1.3548859918279594 0.055204725795280275 1.4139953816627224 0.77258894330417693 -0.14124828018851951 -1.0610010241330703 -1.1651532587398943 1.2615820991188456 -1.0331038808408326 0.28782077801772327 -1.3456009766467087 -1.3681869295367171 1.3373552555645836 -0.90881960917411397 1.5101666123185276 -0.66228859796184725 -0.53891455774909036 -0.20398219218777219 -0.61809463879486926 -0.6843512815968793 -0.86646864940297497 -0.48136073619054526 0.0324372523728182
decision_type=2 2 2 2 2 2 2 2 2 2 2 2 2 2 2 2 2 2 2 2 2 2 2 2
left_child=2 7 5 4 8 6 -1 -2 9 23 14 12 -8 -10 -11 -5 -13 -18 -19 20 21 -20 -21 -4
right_child=1 -3 3 15 -6 -7 11 -9 13 10 -12 16 -14 -15 -16 -17 17 18 19 22 -22 -23 -24 -25
leaf_value=2.1089968211107912 6.3484414367070272 -1.2714336822838186 2.0449891738261075 -2.9439660475174985 -1.5244413874095133 -4.2926451970563084 -1.324102126822984 3.4306158081366092 4.5387386545641668 0.42984672781539296 2.2931416211408724 -3.2821762365665075 1.5327213313661774 1.7166597087510669 -2.2425166239828433 -0.81034754838028999 0.40824778142965068 -4.0918613718995953 -0.2730587415517487 -3.640430332759641 0.97547743693436728 -2.7413886693859775 -1.2362704261573587 3.0526918133024901
leaf_weight=20 25 30 24 39 35 20 24 39 23 29 27 21 23 26 21 29 21 20 32 21 20 28 22 21
leaf_count=20 25 30 24 39 35 20 24 39 23 29 27 21 23 26 21 29 21 20 32 21 20 28 22 21
internal_value=9.70183e-06 2.7183 -0.468796 0.36156 1.15522 -1.30491 -1.06457 4.58663 1.70484 1.15869 0.35471 -1.33974 0.0744674 3.05439 -0.696989 -2.0391 -1.69872 -1.49221 -1.77148 -1.38814 -0.827868 -1.43024 -2.42184 2.5267
internal_weight=640 94 546 274 206 272 252 64 171 122 77 232 47 49 50 68 185 164 143 123 80 60 43 45
internal_count=640 94 546 274 206 272 252 64 171 122 77 232 47 49 50 68 185 164 143 123 80 60 43 45
is_linear=0
shrinkage=0.01


Tree=11
num_leaves=24
num_cat=0
split_feature=0 0 18 18 5 5 19 5 18 5 5 0 0 0 6 18 5 0 18 0 0 0 0
split_gain=8.014e+06 6.16707e+06 4.02658e+06 5.12571e+06 2.98197e+06 2.30253e+06 1.78823e+06 1.75127e+06 1.22998e+06 1.31575e+06 1.54592e+06 1.21696e+06 1.19732e+06 1.18889e+06 1.46607e+06 942344 858927 776763 738549 493768 1.3655e+06 258283 99984
threshold=-1.1441376372460044 -1.4980204729275071 0.055204725795280275 1.4139953816627224 0.88582203954725935 -0.17382416228714381 -1.1651532587398943 -0.59388959310508971 1.2615820991188456 -1.2263351693413904 0.47978614674157477 -1.2644229360737074 -0.74492990635406375 1.6015050533863404 0.93494581319828496 1.3373552555645836 -0.95729492360704949 -0.45206135268661363 1.5101666123185276 -0.27250503704526013 -0.12955729061233814 -1.0290821340195064 0.10752677664226433
decision_type=2 2 2 2 2 2 2 2 2 2 2 2 2 2 2 2 2 2 2 2 2 2 2
left_child=1 -1 5 4 8 7 -3 17 9 22 16 -8 -9 14 -7 -10 -11 -2 -5 -19 -21 -16 -4
right_child=2 6 3 18 -6 13 11 12 15 10 -12 -13 -14 -15 21 -17 -18 19 -20 20 -22 -23 -24
leaf_value=-1.2588036478434179 -2.7141689991781899 6.2854610088893343 2.0247082435986226 -2.9146767103915305 -1.5092836494879287 -5.1393936282441812 1.3577919977361506 -0.67433865796338344 4.4937424866906523 0.42557773929752724 2.270378894805908 4.5519929958375034 2.5134773702470081 -1.0930330282182834 -2.8988151921452703 1.6996241908583023 -2.2203029742330878 0.20515546444134836 -0.80229960480781459 -3.3017526835315629 0.1168452978680152 -1.3467779238589177 3.0224527047602634
leaf_weight=30 28 25 24 39 35 26 24 22 23 29 27 24 25 40 22 26 21 31 29 21 26 22 21
leaf_count=30 28 25 24 39 35 26 24 22 23 29 27 24 25 40 22 26 21 31 29 21 26 22 21
internal_value=7.07828e-06 2.55228 -0.490302 0.357992 1.14377 -1.37368 4.11766 -0.579009 1.68793 1.14719 0.351176 2.96717 1.02475 -2.47593 -3.26077 3.02411 -0.690091 -1.29071 -2.01882 -0.774079 -1.41811 -2.13242 2.50166
internal_weight=640 103 537 274 206 263 73 153 171 122 77 48 47 110 70 49 50 106 68 78 47 44 45
internal_count=640 103 537 274 206 263 73 153 171 122 77 48 47 110 70 49 50 106 68 78 47 44 45
is_linear=0
shrinkage=0.01


Tree=12
num_leaves=25
num_cat=0
split_feature=6 0 18 18 1 18 1 19 18 1 1 18 18 18 1 18 0 0 0 18 1 0 18 0
split_gain=7.86119e+06 6.76976e+06 3.65012e+06 5.02438e+06 2.92304e+06 1.90899e+06 2.15839e+06 1.2075e+06 1.20571e+06 1.28982e+06 1.5154e+06 1.16192e+06 954918 923763 841988 723916 594778 862816 1.22592e+06 684071 837930 873519 601369 98017.8
threshold=1.210381714861714 -1.4980204729275071 0.055204725795280275 1.4139953816627224 0.77258894330417693 -0.14124828018851951 -1.0610010241330703 -1.1651532587398943 1.2615820991188456 -1.0331038808408326 0.28782077801772327 -1.3456009766467087 -1.3681869295367171 1.3373552555645836 -0.90881960917411397 1.5101666123185276 -1.0709204988291419 -0.99247356481107507 -0.66648297233599674 -0.61809463879486926 -0.6843512815968793 -0.45206135268661363 -0.48136073619054526 0.10752677664226433
decision_type=2 2 2 2 2 2 2 2 2 2 2 2 2 2 2 2 2 2 2 2 2 2 2 2
left_child=2 -2 5 4 8 6 -1 -3 9 23 14 12 -8 -10 -11 -5 -13 -18 -19 20 21 -20 -21 -4
right_child=1 7 3 15 -6 -7 11 -9 13 10 -12 16 -14 -15 -16 -17 17 18 19 22 -22 -23 -24 -25
leaf_value=2.0954207006775505 -1.246298915274096 6.2231050243074932 2.0046286174679593 -2.8856785320262515 -1.4942765882475808 -4.2399005381305619 -1.300592822240404 3.3707533248589958 4.449192554539648 0.42135106191243216 2.2478419410481174 -3.2525803144922794 1.538789284804772 1.6827576957222159 -2.1983093964153864 -0.79433158273566262 0.42486535846062423 -4.028692783884483 -2.6872201386580232 -3.5841654752335455 0.95164580694519663 -0.27129483442128816 -1.20721775020565 2.9925133279584486
leaf_weight=20 30 25 24 39 35 20 24 39 23 29 27 21 23 26 21 29 21 20 28 21 20 32 22 21
leaf_count=20 30 25 24 39 35 20 24 39 23 29 27 21 23 26 21 29 21 20 28 21 20 32 22 21
internal_value=1.66548e-05 2.66791 -0.460099 0.354459 1.13243 -1.28031 -1.04224 4.50088 1.67119 1.13581 0.347676 -1.3143 0.0895035 2.99412 -0.683261 -1.99874 -1.67066 -1.46438 -1.74203 -1.36427 -0.814115 -1.40393 -2.37929 2.47686
internal_weight=640 94 546 274 206 272 252 64 171 122 77 232 47 49 50 68 185 164 143 123 80 60 43 45
internal_count=640 94 546 274 206 272 252 64 171 122 77 232 47 49 50 68 185 164 143 123 80 60 43 45
is_linear=0
shrinkage=0.01


Tree=13
num_leaves=26
num_cat=0
split_feature=0 0 0 19 0 19 0 0 1 1 1 0 19 1 0 19 0 0 0 1 0 0 0 1 0
split_gain=7.72359e+06 5.93766e+06 3.4589e+06 2.98696e+06 3.38567e+06 1.70968e+06 1.60275e+06 2.3345e+06 2.07394e+06 1.67087e+06 1.33526e+06 1.21211e+06 1.15191e+06 976955 1.62328e+06 925918 745684 479995 1.33228e+06 463000 983204 196487 96090.5 35835.9 22285.6
threshold=-1.1441376372460044 -1.4980204729275071 -0.80594418836811577 -1.110288574277742 1.0645793716626819 -1.1651532587398943 0.58518144155227247 -0.0092719917846354315 -0.32651403854801841 -0.6843512815968793 0.50496514467576414 -1.2644229360737074 -1.252435033319159 -1.0331038808408326 0.47709899912738002 -1.2037488565718981 -0.45206135268661363 -0.27250503704526013 -0.12955729061233814 -0.22706271795873717 -1.0099062168150901 0.66362837557033949 0.10752677664226433 -0.96099845590628619 -0.72924051955045022
decision_type=2 2 2 2 2 2 2 2 2 2 2 2 2 2 2 2 2 2 2 2 2 2 2 2 2
left_child=1 -1 19 12 6 -3 7 9 21 16 -6 -7 -4 22 23 -14 -5 -18 -19 -2 -21 -8 -9 -15 -11
right_child=2 5 3 4 10 11 8 13 -10 24 -12 -13 15 14 -16 -17 17 18 -20 20 -22 -23 -24 -25 -26
leaf_value=-1.2339186398083011 -1.2510745311233233 6.1613677397228424 -0.20681839252340381 -2.6605382758336709 4.317235561303856 1.3108975522380231 -1.9016516838451423 1.9847479183417707 0.40978556350887757 1.3117121955940316 0.97777630855229281 4.4980524387832519 -4.4977154850509935 -0.31935316481031811 2.6741191298386147 -1.6842598380060756 0.20581249958429582 -3.2552281030618917 0.12149016598708758 -1.8509552199003714 -4.6866120673125646 -3.231136674554381 2.9628708641034254 -0.90013751641759343 0.82886004608456465
leaf_weight=30 21 25 23 28 24 24 20 24 38 22 24 24 21 22 23 27 31 21 26 30 21 29 21 21 20
leaf_count=30 21 25 23 28 24 24 20 24 38 22 24 24 21 22 23 27 31 21 26 30 21 29 21 21 20
internal_value=1.39951e-05 2.50562 -0.481329 -0.165067 0.175479 4.0416 -0.170322 0.224314 -1.34299 -0.597622 2.65851 2.91655 -2.05005 1.31934 0.541767 -2.92872 -1.26584 -0.759648 -1.39464 -2.51773 -3.03234 -2.69845 2.45232 -0.605869 1.08682
internal_weight=640 103 537 465 394 73 346 259 87 148 48 48 71 111 66 48 106 78 47 72 51 49 45 43 42
internal_count=640 103 537 465 394 73 346 259 87 148 48 48 71 111 66 48 106 78 47 72 51 49 45 43 42
is_linear=0
shrinkage=0.01


Tree=14
num_leaves=25
num_cat=0
split_feature=6 0 18 18 1 18 1 18 1 1 19 18 18 18 1 18 0 0 0 18 1 0 18 0
split_gain=7.57263e+06 6.51597e+06 3.51658e+06 4.83585e+06 2.80177e+06 1.88517e+06 2.10954e+06 1.17431e+06 1.2453e+06 1.46394e+06 1.15354e+06 1.11703e+06 942005 898851 833604 720617 601504 849197 1.17777e+06 651694 807011 836741 594999 94201
threshold=1.210381714861714 -1.4980204729275071 0.055204725795280275 1.4139953816627224 0.77258894330417693 -0.14124828018851951 -1.0610010241330703 1.2615820991188456 -1.0331038808408326 0.28782077801772327 -1.1651532587398943 -1.3456009766467087 -1.3681869295367171 1.3373552555645836 -0.90881960917411397 1.5101666123185276 -1.0709204988291419 -0.99247356481107507 -0.66648297233599674 -0.61809463879486926 -0.6843512815968793 -0.45206135268661363 -0.48136073619054526 0.10752677664226433
decision_type=2 2 2 2 2 2 2 2 2 2 2 2 2 2 2 2 2 2 2 2 2 2 2 2
left_child=2 -2 5 4 7 6 -1 8 23 14 -3 12 -8 -9 -10 -5 -13 -18 -19 20 21 -20 -21 -4
right_child=1 10 3 15 -6 -7 11 13 9 -11 -12 16 -14 -15 -16 -17 17 18 19 22 -22 -23 -24 -25
leaf_value=2.0818292251435837 -1.2216611001546809 6.1002430591886005 1.965064421724682 -2.8455377051781632 -1.4604719270088453 -4.1976613975515464 -1.2932900824428593 4.3794718061644451 0.42173049365004456 2.2035455571903904 3.3119799279193485 -3.228979660609983 1.5268275550316122 1.6507566726480729 -2.1848445084409893 -0.75934002869749739 0.44300456424929058 -3.9478635020303257 -2.634121697473188 -3.5253089789624483 0.93357469464292642 -0.26956926262896991 -1.1617081231469508 2.9335215822255836
leaf_weight=20 30 25 24 39 35 20 24 23 29 27 39 21 23 26 21 29 21 20 28 21 20 32 22 21
leaf_count=20 30 25 24 39 35 20 24 23 29 27 39 21 23 26 21 29 21 20 28 21 20 32 22 21
internal_value=1.41178e-05 2.61849 -0.451577 0.347942 1.11118 -1.25664 -1.02008 1.63864 1.11031 0.33591 4.41677 -1.28905 0.0873682 2.9442 -0.677354 -1.96069 -1.63846 -1.43111 -1.70657 -1.3363 -0.799304 -1.37813 -2.32702 2.42801
internal_weight=640 94 546 274 206 272 252 171 122 77 64 232 47 49 50 68 185 164 143 123 80 60 43 45
internal_count=640 94 546 274 206 272 252 171 122 77 64 232 47 49 50 68 185 164 143 123 80 60 43 45
is_linear=0
shrinkage=0.01


Tree=15
num_leaves=24
num_cat=0
split_feature=0 0 18 18 1 1 1 19 0 0 6 18 1 1 0 18 1 0 18 0 0 0 0
split_gain=7.44398e+06 5.71691e+06 3.7354e+06 4.74024e+06 2.7464e+06 2.18478e+06 1.65629e+06 1.63446e+06 1.20708e+06 1.17252e+06 1.46111e+06 1.15114e+06 1.22076e+06 1.43504e+06 1.14207e+06 881127 817164 715841 706340 466665 1.29999e+06 261245 92348.6
threshold=-1.1441376372460044 -1.4980204729275071 0.055204725795280275 1.4139953816627224 0.77258894330417693 -0.3569610693173873 -0.6843512815968793 -1.1651532587398943 -1.2644229360737074 1.6015050533863404 0.93494581319828496 1.2615820991188456 -1.0331038808408326 0.28782077801772327 -0.74492990635406375 1.3373552555645836 -0.90881960917411397 -0.45206135268661363 1.5101666123185276 -0.27250503704526013 -0.12955729061233814 -1.0290821340195064 0.10752677664226433
decision_type=2 2 2 2 2 2 2 2 2 2 2 2 2 2 2 2 2 2 2 2 2 2 2
left_child=1 -1 5 4 11 6 17 -3 -9 10 -7 12 22 16 -8 -13 -14 -2 -5 -19 -21 -12 -4
right_child=2 7 3 18 -6 9 14 8 -10 -11 21 15 13 -15 -16 -17 -18 19 -20 20 -22 -23 -24
leaf_value=-1.2095253200552716 -2.6079671113710878 6.0397249518500438 1.9455762577056885 -2.8172275077080235 -1.4459501375088635 -5.051421836095912 -0.64917791830526828 1.265050818072863 4.4449234790644372 -1.0241825303983925 -2.8206192009728235 4.3360546944059175 0.41754196650361364 2.1816722036810483 2.4642697797502788 1.6343751177168984 -2.1632021340109269 0.20644603949326737 -0.75179876869671969 -3.2095121088567771 0.12598937191126 -1.2619829256899724 2.9044632715549108
leaf_weight=30 28 25 24 39 35 26 22 24 24 40 22 23 29 27 25 26 21 31 29 21 26 22 21
leaf_count=30 28 25 24 39 35 26 22 24 24 40 22 23 29 27 25 26 21 31 29 21 26 22 21
internal_value=1.15326e-05 2.45984 -0.472538 0.344508 1.10017 -1.32338 -0.549318 3.967 2.86685 -2.39706 -3.1764 1.62239 1.09929 0.332562 1.01031 2.915 -0.670651 -1.24146 -1.94119 -0.745494 -1.3716 -2.05056 2.40395
internal_weight=640 103 537 274 206 263 153 73 48 110 70 171 122 77 47 49 50 106 68 78 47 44 45
internal_count=640 103 537 274 206 263 153 73 48 110 70 171 122 77 47 49 50 106 68 78 47 44 45
is_linear=0
shrinkage=0.01


Tree=16
num_leaves=25
num_cat=0
split_feature=2 2 18 18 3 3 3 19 2 2 6 18 3 3 2 18 3 3 2 3 2 2 2 4
split_gain=7.29701e+06 5.60402e+06 3.66173e+06 4.64653e+06 2.69213e+06 2.14162e+06 1.62359e+06 1.60218e+06 1.18325e+06 1.14941e+06 1.43223e+06 1.12843e+06 1.19671e+06 1.40671e+06 1.11953e+06 863753 801048 707904 701681 457463 1.27436e+06 256092 225004 90532.6
threshold=-0.79463098005379795 -1.7105669222787638 0.055204725795280275 1.4139953816627224 0.8222252361662491 0.24837150627240881 -0.13732172027853365 -1.1651532587398943 -1.0519187826343084 1.960135836467529 0.93494581319828496 1.2615820991188456 -1.2797276011820087 0.64765440640031657 -0.2616479205892232 1.3373552555645836 -0.6418839349888299 0.22515384054670703 -0.10390183234466242 -1.0475722720991729 -0.059564664743028052 -0.59404690697428086 0.085138859096881972 0.0324372523728182
decision_type=2 2 2 2 2 2 2 2 2 2 2 2 2 2 2 2 2 2 2 2 2 2 2 2
left_child=1 -1 5 4 11 6 18 -3 -9 10 -7 12 23 16 -8 -13 -14 22 -2 20 -20 -12 -5 -4
right_child=2 7 3 17 -6 9 14 8 -10 -11 21 15 13 -15 -16 -17 -18 -19 19 -21 -22 -23 -24 -25
leaf_value=-1.1975102645750868 -2.5820725797423232 5.9798071590302486 1.9262813782494914 -1.8267563614042681 -1.4315729147907008 -5.0012932081349941 -0.64274463069331544 1.2525048021048555 4.4008416792183871 -1.0139916430421136 -2.7926672438887863 4.2930678361037682 0.41339517044694463 2.1600158279082353 2.4398226868160187 1.6181560536013304 -2.1417741707304736 -0.48885099164370838 -3.1777196804982313 0.2043946878726666 0.12473920843983423 -1.2494767018911002 -3.286836558447944 2.8756923236487046
leaf_weight=30 28 25 24 20 35 26 22 24 24 40 22 23 29 27 25 26 21 23 21 31 26 22 25 21
leaf_count=30 28 25 24 20 35 26 22 24 24 40 22 23 29 27 25 26 21 23 21 31 26 22 25 21
internal_value=2.0601e-05 2.43545 -0.467841 0.341109 1.08926 -1.31025 -0.543872 3.92765 2.83842 -2.37328 -3.14489 1.60629 1.08838 0.329248 1.00029 2.88609 -0.664013 -1.92188 -1.22915 -0.738112 -1.35802 -2.03024 -2.64889 2.38013
internal_weight=640 103 537 274 206 263 153 73 48 110 70 171 122 77 47 49 50 68 106 78 47 44 45 45
internal_count=640 103 537 274 206 263 153 73 48 110 70 171 122 77 47 49 50 68 106 78 47 44 45 45
is_linear=0
shrinkage=0.01


Tree=17
num_leaves=25
num_cat=0
split_feature=6 0 18 18 1 18 1 18 18 1 1 19 18 18 1 18 0 0 0 18 1 0 18 0
split_gain=7.16892e+06 6.15857e+06 3.32208e+06 4.55486e+06 2.63892e+06 1.85159e+06 2.0565e+06 1.10725e+06 1.10616e+06 1.17313e+06 1.37894e+06 1.07366e+06 937738 846722 785251 699650 610414 845930 1.13281e+06 617829 756184 783103 580199 88752.3
threshold=1.210381714861714 -1.4980204729275071 0.055204725795280275 1.4139953816627224 0.77258894330417693 -0.14124828018851951 -1.0610010241330703 -1.3456009766467087 1.2615820991188456 -1.0331038808408326 0.28782077801772327 -1.1651532587398943 -1.3681869295367171 1.3373552555645836 -0.90881960917411397 1.5101666123185276 -1.0709204988291419 -0.99247356481107507 -0.66648297233599674 -0.61809463879486926 -0.6843512815968793 -0.45206135268661363 -0.48136073619054526 0.10752677664226433
decision_type=2 2 2 2 2 2 2 2 2 2 2 2 2 2 2 2 2 2 2 2 2 2 2 2
left_child=2 -2 5 4 8 6 -1 12 9 23 14 -3 -8 -10 -11 -5 -9 -18 -19 20 21 -20 -21 -4
right_child=1 11 3 15 -6 -7 7 16 13 10 -12 -13 -14 -15 -16 -17 17 18 19 22 -22 -23 -24 -25
leaf_value=2.0751651718592878 -1.1856144719250157 5.9204833645290798 1.9071776388203803 -2.7746543364622154 -1.417338414767926 -4.1364821527972078 -1.2604112350842185 -3.2027740363354953 4.2505074099836682 0.409289551565092 2.1385745589873371 3.2297669932307027 1.5533293388629783 1.6020980621658207 -2.1205584836006164 -0.71935460645858551 0.47812526918807124 -3.8651189572268194 -2.5564349371998025 -3.4517361003947706 0.89639657955358532 -0.26886184893779869 -1.1182433319091798 2.8472065333600312
leaf_weight=20 30 25 24 39 35 20 24 21 23 29 27 39 23 26 21 29 21 20 28 21 20 32 22 21
leaf_count=20 30 25 24 39 35 20 24 21 23 29 27 39 23 26 21 29 21 20 28 21 20 32 22 21
internal_value=2.30405e-05 2.54774 -0.439366 0.337728 1.07846 -1.22185 -0.98743 -1.25301 1.59036 1.07759 0.325967 4.29601 0.117252 2.85747 -0.657442 -1.90282 -1.60089 -1.39211 -1.66705 -1.30394 -0.781067 -1.34136 -2.26858 2.35654
internal_weight=640 94 546 274 206 272 252 232 171 122 77 64 47 49 50 68 185 164 143 123 80 60 43 45
internal_count=640 94 546 274 206 272 252 232 171 122 77 64 47 49 50 68 185 164 143 123 80 60 43 45
is_linear=0
shrinkage=0.01


Tree=18
num_leaves=25
num_cat=0
split_feature=0 0 0 16 0 0 1 1 0 0 0 1 1 13 0 16 1 0 0 0 0 0 0 1
split_gain=7.03302e+06 5.39578e+06 3.17748e+06 2.45892e+06 1.48982e+06 1.0872e+06 1.02934e+06 2.4222e+06 2.41246e+06 1.69324e+06 1.54208e+06 1.22763e+06 1.13038e+06 832716 679433 461772 443926 932154 392077 657844 661806 87007.1 86041.7 27207.3
threshold=-1.1441376372460044 -1.4980204729275071 -0.80594418836811577 1.3673283897079942 -1.3742486436990011 -1.2644229360737074 -0.036275145284507641 0.50496514467576414 0.64793898876672595 -0.0092719917846354315 -0.61941481192515646 -1.0331038808408326 -0.38263084119868324 0.80901554296178835 0.47709899912738002 1.3527163572095129 -0.22706271795873717 -1.0099062168150901 -0.42591237468059123 -0.12955729061233814 -0.27250503704526013 0.10752677664226433 1.0698091672638865 -0.96099845590628619
decision_type=2 2 2 2 2 2 2 2 2 2 2 2 2 2 2 2 2 2 2 2 2 2 2 2
left_child=1 -1 16 6 -3 -6 8 22 9 10 -4 21 -10 -12 23 -9 -2 -18 -15 20 -20 -11 -8 -13
right_child=2 4 3 -5 5 -7 7 15 12 11 13 14 -14 18 -16 -17 17 -19 19 -21 -22 -23 -24 -25
leaf_value=-1.1738367312475546 -1.1716738243822782 5.8962403279296618 1.1096458165562566 -2.6972402129390018 1.3595999302939765 4.3490888794197522 2.2443736121031614 -1.1150061662630602 -3.3901641767452926 1.8882635795478979 -2.9629364876927071 -0.33265833313400683 -0.46358440349841945 0.47557967837494197 1.2607610647140008 0.65873353222059838 -1.7649573643160181 -4.5253769080144055 -0.58997824565018764 0.12898742530182117 -3.1331912735273257 2.8190032160057212 3.2090349616419593 -0.83984757747290273
leaf_weight=30 21 24 40 35 25 24 22 35 31 24 21 22 23 20 37 25 30 21 20 26 21 21 21 21
leaf_count=30 21 24 40 35 25 24 22 35 31 24 21 22 23 20 37 25 30 21 20 26 21 21 21 21
internal_value=2.03729e-05 2.39099 -0.4593 -0.156178 3.8552 2.83559 0.0518086 0.922573 -0.222862 0.159619 -0.563836 1.01573 -2.14999 -1.18456 0.27068 -0.376198 -2.4111 -2.91486 -0.749473 -1.1155 -1.90151 2.33318 2.72819 -0.58312
internal_weight=640 103 537 465 73 49 430 103 327 273 148 125 54 108 80 60 72 51 87 67 41 45 43 43
internal_count=640 103 537 465 73 49 430 103 327 273 148 125 54 108 80 60 72 51 87 67 41 45 43 43
is_linear=0
shrinkage=0.01


Tree=19
num_leaves=25
num_cat=0
split_feature=6 0 18 18 1 18 1 18 1 1 18 19 18 18 1 18 0 0 0 18 1 0 18 0
split_gain=6.90616e+06 5.92795e+06 3.20469e+06 4.39753e+06 2.54494e+06 1.81346e+06 2.01195e+06 1.07317e+06 1.12526e+06 1.34653e+06 1.06786e+06 1.0274e+06 923974 828763 775665 699400 614818 834525 1.08568e+06 598376 734196 757211 568265 85296.2
threshold=1.210381714861714 -1.4980204729275071 0.055204725795280275 1.4139953816627224 0.77258894330417693 -0.14124828018851951 -1.0610010241330703 1.2615820991188456 -1.0331038808408326 0.28782077801772327 -1.3456009766467087 -1.1651532587398943 -1.3681869295367171 1.3373552555645836 -0.90881960917411397 1.5101666123185276 -1.0709204988291419 -0.99247356481107507 -0.66648297233599674 -0.61809463879486926 -0.6843512815968793 -0.45206135268661363 -0.48136073619054526 0.10752677664226433
decision_type=2 2 2 2 2 2 2 2 2 2 2 2 2 2 2 2 2 2 2 2 2 2 2 2
left_child=2 -2 5 4 7 6 -1 8 23 14 12 -3 -8 -9 -10 -5 -12 -18 -19 20 21 -20 -21 -4
right_child=1 11 3 15 -6 -7 10 13 9 -11 16 -13 -14 -15 -16 -17 17 18 19 22 -22 -23 -24 -25
leaf_value=2.0614167215328405 -1.1621761582229311 5.805054472893004 1.8695368933874712 -2.7411297113068249 -1.391122619780627 -4.0842118307623529 -1.2523172514103662 4.1886947329290987 0.40974428634120996 2.1125169678295359 -3.1795211532880678 3.1726681121514764 1.5406957389568461 1.5688075511146136 -2.1046026572556991 -0.68655906585797877 0.49477833010115718 -3.7876238390478756 -2.5126067032501207 -3.4004418374907295 0.88717479441425595 -0.26317720128882743 -1.0913475717080607 2.7910793414205877
leaf_weight=20 30 25 24 39 35 20 24 23 29 27 21 39 23 26 21 29 21 20 28 21 20 32 22 21
leaf_count=20 30 25 24 39 35 20 24 23 29 27 21 39 23 26 21 29 21 20 28 21 20 32 22 21
internal_value=2.40111e-05 2.50062 -0.431237 0.332003 1.05983 -1.19977 -0.967788 1.56253 1.05747 0.32134 -1.23048 4.21584 0.115192 2.8106 -0.650439 -1.86951 -1.57212 -1.36266 -1.63575 -1.28026 -0.765697 -1.31779 -2.22959 2.31006
internal_weight=640 94 546 274 206 272 252 171 122 77 232 64 47 49 50 68 185 164 143 123 80 60 43 45
internal_count=640 94 546 274 206 272 252 171 122 77 232 64 47 49 50 68 185 164 143 123 80 60 43 45
is_linear=0
shrinkage=0.01


Tree=20
num_leaves=26
num_cat=0
split_feature=2 1 2 19 1 19 2 7 1 1 1 2 19 19 1 1 13 1 1 2 1 1 2 6 1
split_gain=6.77881e+06 5.19539e+06 3.09005e+06 2.65216e+06 3.1053e+06 1.46617e+06 1.44437e+06 2.00836e+06 1.86145e+06 1.49861e+06 1.27579e+06 1.1742e+06 1.17235e+06 921083 853804 1.42274e+06 806337 422538 899261 387181 643290 643524 203721 83618.8 24901.7
threshold=-0.79463098005379795 1.3548859918279594 -0.3157531261688315 -1.110288574277742 0.14521369679126292 -1.1651532587398943 0.039980594475249293 -0.014264485545786037 -0.32651403854801841 -0.67118773622987893 0.50496514467576414 -1.0519187826343084 -1.252435033319159 -1.2037488565718981 -1.0331038808408326 -0.84114323664622515 0.80901554296178835 -0.22706271795873717 0.021696579810462274 -0.096464510654880153 -1.0709122291235171 -1.0011050000618564 0.085138859096881972 -0.10752677664180531 -0.96099845590628619
decision_type=2 2 2 2 2 2 2 2 2 2 2 2 2 2 2 2 2 2 2 2 2 2 2 2 2
left_child=1 5 17 12 6 -1 7 9 22 16 -6 -7 -4 -14 23 24 -5 -2 -19 -18 -21 -22 -8 -9 -16
right_child=2 -3 3 4 10 11 8 14 -10 -11 -12 -13 13 -15 15 -17 19 18 -20 20 21 -23 -24 -25 -26
leaf_value=5.7474646532677474 -1.1661070330637808 -1.1506312718928255 -0.069955591662176728 -2.9119049417072871 4.1681325543616428 1.1631044397275312 -1.752726031010694 2.7634315375561984 0.38506735467161812 1.0996872096275214 0.90456496423926236 4.298116727466426 -4.3789139722428239 -1.5746368663801866 -0.33342215237316786 2.4974189143345273 0.48349886903668393 -4.4490911584530242 -1.7377398277434293 0.13305293308869573 -3.0893680673275354 -0.58153118870045883 -3.1002878654166444 1.8509960905185414 -0.81898305838962782
leaf_weight=25 21 30 23 21 24 24 20 21 38 40 24 24 21 27 22 23 20 21 30 26 21 20 29 24 21
leaf_count=25 21 30 23 21 24 24 20 21 38 40 24 24 21 27 22 23 20 21 30 26 21 20 29 24 21
internal_value=2.13957e-05 2.34738 -0.450921 -0.151999 0.168892 3.78415 -0.162282 0.212349 -1.2755 -0.550019 2.54689 2.74196 -1.9282 -2.81461 1.22801 0.501113 -1.16193 -2.37568 -2.86722 -0.733806 -1.09755 -1.87482 -2.55964 2.28716 -0.573273
internal_weight=640 103 537 465 394 73 346 259 87 148 48 48 71 48 111 66 108 72 51 87 67 41 49 45 43
internal_count=640 103 537 465 394 73 346 259 87 148 48 48 71 48 111 66 108 72 51 87 67 41 49 45 43
is_linear=0
shrinkage=0.01


Tree=21
num_leaves=25
num_cat=0
split_feature=6 0 18 18 1 18 1 18 1 1 18 19 18 18 1 18 0 0 0 18 1 0 18 0
split_gain=6.65317e+06 5.70602e+06 3.08755e+06 4.2315e+06 2.43888e+06 1.7911e+06 1.9665e+06 1.04521e+06 1.08673e+06 1.30067e+06 1.0275e+06 981222 910414 806240 768231 696184 620466 821301 1.0429e+06 569342 708955 732188 562378 81974.5
threshold=1.210381714861714 -1.4980204729275071 0.055204725795280275 1.4139953816627224 0.77258894330417693 -0.14124828018851951 -1.0610010241330703 1.2615820991188456 -1.0331038808408326 0.28782077801772327 -1.3456009766467087 -1.1651532587398943 -1.3681869295367171 1.3373552555645836 -0.90881960917411397 1.5101666123185276 -1.0709204988291419 -0.99247356481107507 -0.66648297233599674 -0.61809463879486926 -0.6843512815968793 -0.45206135268661363 -0.48136073619054526 0.10752677664226433
decision_type=2 2 2 2 2 2 2 2 2 2 2 2 2 2 2 2 2 2 2 2 2 2 2 2
left_child=2 -2 5 4 7 6 -1 8 23 14 12 -3 -8 -9 -10 -5 -12 -18 -19 20 21 -20 -21 -4
right_child=1 11 3 15 -6 -7 10 13 9 -11 16 -13 -14 -15 -16 -17 17 18 19 22 -22 -23 -24 -25
leaf_value=2.047665570702883 -1.1392011387932381 5.6904459873456803 1.8326390309373211 -2.7032257616276638 -1.3595007422363212 -4.0441868500662324 -1.2442494977210179 4.1228320641353218 0.41015034126908817 2.0705695034475888 -3.1564364911925118 3.1175352228904258 1.5281924274049956 1.5389367039513042 -2.0921094832105456 -0.65372433936759222 0.5109274839005381 -3.7115661075327653 -2.4695826655245843 -3.3447299509228401 0.87205439954701047 -0.25764195353348063 -1.0482944997151693 2.7360579573433355
leaf_weight=20 30 25 24 39 35 20 24 23 29 27 21 39 23 26 21 29 21 20 28 21 20 32 22 21
leaf_count=20 30 25 24 39 35 20 24 23 29 27 21 39 23 26 21 29 21 20 28 21 20 32 22 21
internal_value=1.60434e-05 2.45438 -0.423273 0.325889 1.03984 -1.17763 -0.947096 1.53196 1.03355 0.310145 -1.20681 4.13719 0.113183 2.76364 -0.644927 -1.83367 -1.54193 -1.33159 -1.60251 -1.2541 -0.752155 -1.29467 -2.18013 2.2645
internal_weight=640 94 546 274 206 272 252 171 122 77 232 64 47 49 50 68 185 164 143 123 80 60 43 45
internal_count=640 94 546 274 206 272 252 171 122 77 232 64 47 49 50 68 185 164 143 123 80 60 43 45
is_linear=0
shrinkage=0.01


Tree=22
num_leaves=24
num_cat=0
split_feature=0 0 18 18 3 3 3 19 0 0 6 0 18 3 3 18 3 18 0 0 0 0 0
split_gain=6.53401e+06 5.00255e+06 3.27796e+06 4.14784e+06 2.39068e+06 1.98533e+06 1.49994e+06 1.40136e+06 1.16882e+06 1.12725e+06 1.43937e+06 1.05232e+06 1.02459e+06 1.06531e+06 1.275e+06 790343 753081 682392 632489 425374 1.18414e+06 265073 80362.6
threshold=-1.1441376372460044 -1.4980204729275071 0.055204725795280275 1.4139953816627224 0.8222252361662491 0.24837150627240881 -0.13732172027853365 -1.1651532587398943 -1.2644229360737074 1.6015050533863404 0.93494581319828496 -0.74492990635406375 1.2615820991188456 -1.2797276011820087 0.64765440640031657 1.3373552555645836 -0.6418839349888299 1.5101666123185276 -0.45206135268661363 -0.27250503704526013 -0.12955729061233814 -1.0290821340195064 0.10752677664226433
decision_type=2 2 2 2 2 2 2 2 2 2 2 2 2 2 2 2 2 2 2 2 2 2 2
left_child=1 -1 5 4 12 6 18 -3 -9 10 -7 -8 13 22 16 -14 -15 -5 -2 -20 -21 -12 -4
right_child=2 7 3 17 -6 9 11 8 -10 -11 21 -13 15 14 -16 -17 -18 -19 19 20 -22 -23 -24
leaf_value=-1.1278848061972107 -2.4450620321179115 5.6339932450794041 1.8144641948731477 -2.6763313163056668 -1.3459830082809043 -4.8876638486731148 -0.61079659608033332 1.1206518151149278 4.2479060080031719 -0.9177568261065886 -2.6854039743784313 2.377874061947777 4.0819591745836981 0.40607687362252853 2.0500161572063669 1.5236647905830212 -2.0713857589156 -0.64723204926268696 0.21433849530342297 -3.0463075126791899 0.1369886232332419 -1.1189191347414309 2.7089558684151127
leaf_weight=30 28 25 24 39 35 26 22 24 24 40 22 25 23 29 27 26 21 29 31 21 26 22 21
leaf_count=30 28 25 24 39 35 26 22 24 24 40 22 25 23 29 27 26 21 29 31 21 26 22 21
internal_value=1.35318e-05 2.3046 -0.442712 0.322673 1.02954 -1.23975 -0.501908 3.71445 2.69544 -2.26324 -3.02728 0.98224 1.51676 1.02329 0.307053 2.73623 -0.638544 -1.81543 -1.16059 -0.694415 -1.2922 -1.91079 2.24206
internal_weight=640 103 537 274 206 263 153 73 48 110 70 47 171 122 77 49 50 68 106 78 47 44 45
internal_count=640 103 537 274 206 263 153 73 48 110 70 47 171 122 77 49 50 68 106 78 47 44 45
is_linear=0
shrinkage=0.01


Tree=23
num_leaves=25
num_cat=0
split_feature=6 1 2 19 1 2 7 1 1 1 19 19 19 1 1 13 1 1 2 1 1 2 6 1
split_gain=6.40949e+06 5.49248e+06 2.2508e+06 2.51453e+06 2.97601e+06 1.37409e+06 1.88245e+06 1.78279e+06 1.428e+06 1.25011e+06 1.1592e+06 937055 909856 807451 1.33969e+06 772826 644311 1.22245e+06 383027 619104 609504 211224 78782.3 21117.1
threshold=1.210381714861714 1.3548859918279594 -0.3157531261688315 -1.110288574277742 0.14521369679126292 0.039980594475249293 -0.014264485545786037 -0.32651403854801841 -0.67118773622987893 0.50496514467576414 -1.252435033319159 -1.1651532587398943 -1.2037488565718981 -1.0331038808408326 -0.84114323664622515 0.80901554296178835 -0.12282789169764836 0.1573600506452483 -0.096464510654880153 -1.0709122291235171 -1.0011050000618564 0.085138859096881972 -0.10752677664180531 -0.96099845590628619
decision_type=2 2 2 2 2 2 2 2 2 2 2 2 2 2 2 2 2 2 2 2 2 2 2 2
left_child=2 11 16 10 5 6 8 21 15 -6 -4 -2 -12 22 23 -5 -1 -18 -17 -20 -21 -7 -8 -15
right_child=1 -3 3 4 9 7 13 -9 -10 -11 12 -13 -14 14 -16 18 17 -19 19 20 -22 -23 -24 -25
leaf_value=-3.1433996103887689 5.5781005323500858 -1.1166804330712123 -0.029190764920464879 -2.8420802711990643 4.0980787534950194 -1.6821094250442961 2.6821218321458349 0.38041347643467766 1.078807046615069 0.86787919718371942 -4.312575120026211 3.0634030805315287 -1.5260967707896933 -0.33820679312353735 2.420133284207048 0.50084446368831226 -0.011855721595959785 -3.1280028713874093 0.1356292580466234 -3.016131745824274 -0.57534471474071547 -3.0509897912691719 1.7964693827668499 -0.78607068732099716
leaf_weight=29 25 30 23 21 24 20 21 38 40 24 21 39 27 22 23 20 31 21 26 21 20 29 24 21
leaf_count=29 25 30 23 21 24 20 21 38 40 24 21 39 27 22 23 20 31 21 26 21 20 29 24 21
internal_value=2.19404e-05 2.40902 -0.415443 -0.147121 0.165332 -0.158875 0.206529 -1.24468 -0.531555 2.4933 -1.87662 4.06004 -2.75804 1.18984 0.482964 -1.12889 -1.95164 -1.27748 -0.709775 -1.07158 -1.8341 -2.50139 2.21983 -0.559581
internal_weight=640 94 546 465 394 346 259 87 148 48 71 64 48 111 66 108 81 52 87 67 41 49 45 43
internal_count=640 94 546 465 394 346 259 87 148 48 71 64 48 111 66 108 81 52 87 67 41 49 45 43
is_linear=0
shrinkage=0.01


Tree=24
num_leaves=24
num_cat=0
split_feature=2 1 18 18 1 1 1 19 2 1 1 18 1 1 1 1 18 1 18 1 1 1 4
split_gain=6.2982e+06 4.81696e+06 3.15909e+06 3.99087e+06 2.29082e+06 1.94225e+06 2.84006e+06 1.33933e+06 1.16327e+06 1.067e+06 2.63463e+06 997901 1.02896e+06 1.23155e+06 833149 1.73215e+06 768810 745943 679361 613481 411007 1.13791e+06 77233.1
threshold=-0.79463098005379795 1.3548859918279594 0.055204725795280275 1.4139953816627224 0.77258894330417693 0.2120542413815826 2.1134129592810185 -1.1651532587398943 -1.0519187826343084 0.021696579810462274 -0.22706271795873717 1.2615820991188456 -1.0331038808408326 0.28782077801772327 -0.6843512815968793 -0.48367885625828849 1.3373552555645836 -0.90881960917411397 1.5101666123185276 -0.86646864940297497 -1.0011050000618564 -1.0709122291235171 0.0324372523728182
decision_type=2 2 2 2 2 2 2 2 2 2 2 2 2 2 2 2 2 2 2 2 2 2 2
left_child=1 7 5 4 11 9 -7 -1 -9 10 14 12 22 17 19 -16 -13 -14 -5 20 21 -2 -4
right_child=2 -3 3 18 -6 6 -8 8 -10 -11 -12 16 13 -15 15 -17 -18 -19 -20 -21 -22 -23 -24
leaf_value=5.522762282462347 0.13428330690806148 -1.1055876963659628 1.7786531962244962 -2.6394647774404407 -1.3152923814681441 -5.1835991405038273 -0.55656324867073825 1.0791569159641738 4.1984230413515711 1.4033259242596015 -4.3387675584037355 4.0177111224470465 0.40647648406355352 2.0091758988885315 2.3466934107220361 -1.0310694845309432 1.4946488381888123 -2.0592077587685496 -0.61520358190144586 -2.403234432910351 0.21413114144251896 -2.9862550440374411 2.6555535777109975
leaf_weight=25 26 30 24 39 35 27 26 24 24 20 21 23 29 27 25 38 26 21 29 28 31 21 21
leaf_count=25 26 30 24 39 35 27 26 24 24 20 21 23 29 27 25 38 26 21 29 28 31 21 21
internal_value=1.2415e-05 2.26263 -0.434651 0.316729 1.01009 -1.21711 -2.92438 3.64608 2.64976 -0.783847 -1.01531 1.48703 1.00005 0.296159 -0.597694 0.312481 2.69048 -0.633169 -1.78053 -1.13823 -0.679124 -1.26672 2.19784
internal_weight=640 103 537 274 206 263 53 73 48 210 190 171 122 77 169 63 49 50 68 106 78 47 45
internal_count=640 103 537 274 206 263 53 73 48 210 190 171 122 77 169 63 49 50 68 106 78 47 45
is_linear=0
shrinkage=0.01


Tree=25
num_leaves=25
num_cat=0
split_feature=6 0 0 19 0 0 0 1 0 1 19 19 19 1 0 13 1 0 0 0 0 0 0 1
split_gain=6.17487e+06 5.28699e+06 2.18146e+06 2.41289e+06 2.88723e+06 1.32592e+06 1.80659e+06 1.72756e+06 1.37466e+06 1.22419e+06 1.15059e+06 894812 883369 777470 1.28701e+06 749871 623934 1.20204e+06 376163 597281 581844 212808 75714.3 19172.2
threshold=1.210381714861714 -1.4980204729275071 -0.80594418836811577 -1.110288574277742 1.0645793716626819 0.58518144155227247 -0.0092719917846354315 -0.32651403854801841 -0.61941481192515646 0.50496514467576414 -1.252435033319159 -1.1651532587398943 -1.2037488565718981 -1.0331038808408326 0.47709899912738002 0.80901554296178835 -0.12282789169764836 -1.0709204988291419 -0.42591237468059123 -0.12955729061233814 -0.27250503704526013 0.66362837557033949 0.10752677664226433 -0.96099845590628619
decision_type=2 2 2 2 2 2 2 2 2 2 2 2 2 2 2 2 2 2 2 2 2 2 2 2
left_child=2 -2 16 10 5 6 8 21 -5 -6 -4 -3 -12 22 23 -10 -1 -18 -17 20 -20 -7 -8 -15
right_child=1 11 3 4 9 7 13 -9 15 -11 12 -13 -14 14 -16 18 17 -19 19 -21 -22 -23 -24 -25
leaf_value=-3.0928786363993606 -1.0946050190451919 5.4679727878220499 0.0023930559487178411 1.0590065909618167 4.0434692401260381 -1.6393215011370066 1.7610137921325428 0.37624071790285762 -2.794603053758729 0.84708133311311085 -4.2476687082254658 3.0102529619177991 -1.5020759571650451 -0.33888337006440034 2.37044773858169 0.50542705573657953 -3.0917145685879688 -0.0017558533106094754 -0.57176839073105623 0.13295076544958215 -2.9566742475977481 -3.0118060335394454 2.6292486741407863 -0.76602779892255679
leaf_weight=29 30 25 23 40 24 20 24 38 21 24 21 39 27 22 23 20 21 31 20 26 21 29 21 21
leaf_count=29 30 25 23 40 24 20 24 38 21 24 21 39 27 22 23 20 21 31 20 26 21 29 21 21
internal_value=2.17596e-05 2.36452 -0.407768 -0.143613 0.16246 -0.156873 0.202069 -1.22347 -0.520991 2.45544 -1.8378 3.98436 -2.71593 1.16536 0.471743 -1.10706 -1.92011 -1.25671 -0.694235 -1.0528 -1.80175 -2.46057 2.17605 -0.550093
internal_weight=640 94 546 465 394 346 259 87 148 48 71 64 48 111 66 108 81 52 87 67 41 49 45 43
internal_count=640 94 546 465 394 346 259 87 148 48 71 64 48 111 66 108 81 52 87 67 41 49 45 43
is_linear=0
shrinkage=0.01


Tree=26
num_leaves=24
num_cat=0
split_feature=2 2 18 18 3 3 2 19 2 2 3 18 3 3 3 2 18 3 18 2 3 2 4
split_gain=6.07102e+06 4.63833e+06 3.04452e+06 3.83966e+06 2.19504e+06 1.88655e+06 2.77688e+06 1.27996e+06 1.15753e+06 1.04105e+06 2.57809e+06 971928 993921 1.18958e+06 809717 1.67793e+06 747855 738855 676303 595066 397139 1.09349e+06 74225.4
threshold=-0.79463098005379795 -1.7105669222787638 0.055204725795280275 1.4139953816627224 0.8222252361662491 0.61333094904244134 2.4195715289309443 -1.1651532587398943 -1.0519187826343084 -0.56467665553746083 0.35400472000889732 1.2615820991188456 -1.2797276011820087 0.64765440640031657 -0.13732172027853365 -0.2616479205892232 1.3373552555645836 -0.6418839349888299 1.5101666123185276 -0.10390183234466242 -1.0475722720991729 -0.059564664743028052 0.0324372523728182
decision_type=2 2 2 2 2 2 2 2 2 2 2 2 2 2 2 2 2 2 2 2 2 2 2
left_child=1 -1 5 4 11 9 -7 -3 -9 -2 14 12 22 17 19 -16 -13 -14 -5 -11 21 -21 -4
right_child=2 7 3 18 -6 6 -8 8 -10 10 -12 16 13 -15 15 -17 -18 -19 -20 20 -22 -23 -24
leaf_value=-1.0837314643291449 1.3925085192387647 5.4137271322522853 1.7435491334899396 -2.6032073795552151 -1.2852750836177305 -5.1114174248190487 -0.53627404889987629 1.0386008421842718 4.1496253677242061 -2.3621567964215648 -4.2841072399211377 3.9544898750042092 0.40682918809864627 1.9690720412310432 -1.0085229759815475 2.3159651644267734 1.4661878325192985 -2.0471022810126249 -0.58382307940966471 -2.9273863911178877 0.21388678135016026 0.13163140872052606 2.6032040894706294
leaf_weight=30 20 25 24 39 35 27 26 24 24 28 21 23 29 27 38 25 26 21 29 21 31 26 21
leaf_count=30 20 25 24 39 35 27 26 24 24 28 21 23 29 27 38 25 26 21 29 21 31 26 21
internal_value=1.24547e-05 2.22145 -0.426739 0.310889 0.990985 -1.19487 -2.87748 3.579 2.6049 -0.767878 -0.996518 1.45785 0.977278 0.285487 -0.583414 0.313857 2.64551 -0.627852 -1.74625 -1.11629 -0.664151 -1.24176 2.15449
internal_weight=640 103 537 274 206 263 53 73 48 210 190 171 122 77 169 63 49 50 68 106 78 47 45
internal_count=640 103 537 274 206 263 53 73 48 210 190 171 122 77 169 63 49 50 68 106 78 47 45
is_linear=0
shrinkage=0.01


Tree=27
num_leaves=24
num_cat=0
split_feature=0 0 18 18 0 1 0 19 0 0 1 18 1 13 1 0 18 18 0 0 0 0 0
split_gain=5.95115e+06 4.54674e+06 2.98447e+06 3.76374e+06 2.15231e+06 1.84927e+06 2.72202e+06 1.25468e+06 1.13468e+06 1.02053e+06 2.52728e+06 963367 981670 1.13624e+06 793754 1.64478e+06 733109 662905 619250 583294 389308 1.07193e+06 72765.7
threshold=-1.1441376372460044 -1.4980204729275071 0.055204725795280275 1.4139953816627224 1.3225826213221026 0.2120542413815826 1.7148172914124373 -1.1651532587398943 -1.2644229360737074 -1.0099062168150901 -0.22706271795873717 1.2615820991188456 -1.0331038808408326 -0.25475157221320904 -0.6843512815968793 -0.74492990635406375 1.3373552555645836 1.5101666123185276 0.36204349590088181 -0.45206135268661363 -0.27250503704526013 -0.12955729061233814 0.10752677664226433
decision_type=2 2 2 2 2 2 2 2 2 2 2 2 2 2 2 2 2 2 2 2 2 2 2
left_child=1 -1 5 4 11 9 -7 -3 -9 -2 14 12 22 -14 19 -16 -13 -5 -15 -11 -21 -22 -4
right_child=2 7 3 17 -6 6 -8 8 -10 10 -12 16 13 18 15 -17 -18 -19 -20 20 21 -23 -24
leaf_value=-1.0729659020190208 1.3787212590887996 5.3600193660978288 1.726257593139144 -2.5773081318213014 -1.3122019872051929 -5.0606790747362025 -0.53095228850386533 1.0283007008576197 4.108472079442552 -2.3387027207503084 -4.2416702785132063 3.9152858563127189 1.7602263490817485 0.42350389717039 -0.99849046996750757 2.2929892730712891 1.45163779600886 -0.57802493683279377 -1.8647637858961161 0.21176172476548416 -2.8983887467294371 0.13032511878559608 2.5774174611073621
leaf_weight=30 20 25 24 39 34 27 26 24 24 28 21 23 31 24 38 25 26 29 23 31 21 26 21
leaf_count=30 20 25 24 39 34 27 26 24 24 28 21 23 31 24 38 25 26 29 23 31 21 26 21
internal_value=2.15949e-05 2.19942 -0.422496 0.307821 0.98116 -1.18302 -2.84892 3.5435 2.57906 -0.760262 -0.986636 1.4355 0.960422 0.280119 -0.577623 0.310759 2.61928 -1.72888 -0.699422 -1.10522 -0.657575 -1.22946 2.13313
internal_weight=640 103 537 274 206 263 53 73 48 210 190 172 123 78 169 63 49 68 47 106 78 47 45
internal_count=640 103 537 274 206 263 53 73 48 210 190 172 123 78 169 63 49 68 47 106 78 47 45
is_linear=0
shrinkage=0.01


Tree=28
num_leaves=26
num_cat=0
split_feature=6 0 18 18 1 18 1 18 18 1 1 18 19 18 1 1 0 0 0 18 18 1 0 0 0
split_gain=5.84697e+06 4.9978e+06 2.70771e+06 3.68933e+06 2.11005e+06 1.74194e+06 1.89743e+06 974278 933798 954909 1.14538e+06 891268 832134 718653 716185 653231 604665 747060 979555 521574 580032 381715 637086 237587 71334.8
threshold=1.210381714861714 -1.4980204729275071 0.055204725795280275 1.4139953816627224 0.77258894330417693 -0.14124828018851951 -1.0610010241330703 -1.3456009766467087 1.2615820991188456 -1.0331038808408326 0.28782077801772327 -1.3681869295367171 -1.1651532587398943 1.3373552555645836 -0.90881960917411397 -0.38263084119868324 -1.0709204988291419 -0.99247356481107507 -0.64905032033198173 -0.61809463879486926 -0.48136073619054526 -0.74229305522546596 -0.45206135268661363 0.66362837557033949 0.10752677664226433
decision_type=2 2 2 2 2 2 2 2 2 2 2 2 2 2 2 2 2 2 2 2 2 2 2 2 2
left_child=2 -2 5 4 8 6 -1 11 9 24 14 -8 -3 -10 -11 23 -9 -18 -19 21 -21 22 -20 -5 -4
right_child=1 12 3 15 -6 -7 7 16 13 10 -12 -13 -14 -15 -16 -17 17 18 19 20 -22 -23 -24 -25 -26
leaf_value=2.0655741240246459 -1.0623072955466264 5.3068445494818306 1.7091377362337981 -1.571798453189359 -1.2603207424012095 -3.9299909036466394 -1.189166981090199 -3.0507797485927366 3.8764705470512655 0.40250089018312224 1.9320531012030209 1.5540019193188901 2.9360496273819279 1.437232258629253 -2.0134823800932686 -0.33649452160144677 0.50723410120550194 -3.3918191327719853 -2.524151410395556 -3.2043731484323179 -0.87538012874019044 0.36674678984142489 -0.25407949720110212 -3.0626199337792777 2.5518864444516742
leaf_weight=20 30 25 24 20 35 20 24 21 23 29 27 23 39 26 21 23 21 23 20 21 22 25 32 25 21
leaf_count=20 30 25 24 20 35 20 24 21 23 29 27 23 39 26 21 23 21 23 20 21 22 25 32 25 21
internal_value=3.04115e-05 2.30089 -0.396784 0.304783 0.971433 -1.10322 -0.875928 -1.13107 1.42917 0.958119 0.280039 0.15411 3.8758 2.5933 -0.616171 -1.71169 -1.4574 -1.24989 -1.50829 -1.14222 -2.02239 -0.646725 -1.13353 -2.40994 2.11199
internal_weight=640 94 546 274 206 272 252 232 171 122 77 47 64 49 50 68 185 164 143 120 43 77 52 45 45
internal_count=640 94 546 274 206 272 252 232 171 122 77 47 64 49 50 68 185 164 143 120 43 77 52 45 45
is_linear=0
shrinkage=0.01


Tree=29
num_leaves=24
num_cat=0
split_feature=2 1 18 18 1 1 1 19 2 1 1 18 1 13 1 1 18 18 1 1 1 1 4
split_gain=5.73659e+06 4.37818e+06 2.87319e+06 3.61654e+06 2.0688e+06 1.78739e+06 2.65619e+06 1.199e+06 1.12896e+06 992106 2.44709e+06 925605 943186 1.09594e+06 769558 1.61011e+06 704482 656874 597026 564080 378885 1.04616e+06 69932
threshold=-0.79463098005379795 1.3548859918279594 0.055204725795280275 1.4139953816627224 0.84435228443275623 0.2120542413815826 2.1134129592810185 -1.1651532587398943 -1.0519187826343084 0.021696579810462274 -0.22706271795873717 1.2615820991188456 -1.0331038808408326 -0.25475157221320904 -0.6843512815968793 -0.48367885625828849 1.3373552555645836 1.5101666123185276 -0.95079299016945629 -0.86646864940297497 -1.0011050000618564 -1.0709122291235171 0.0324372523728182
decision_type=2 2 2 2 2 2 2 2 2 2 2 2 2 2 2 2 2 2 2 2 2 2 2
left_child=1 7 5 4 11 9 -7 -1 -9 10 14 12 22 -14 19 -16 -13 -5 -15 20 21 -2 -4
right_child=2 -3 3 17 -6 6 -8 8 -10 -11 -12 16 13 18 15 -17 -18 -19 -20 -21 -22 -23 -24
leaf_value=5.2541975863017729 0.1337058440055556 -1.0517544278719568 1.6921876806464078 -2.539234461687049 -1.2866272366953171 -4.983650059700012 -0.50917363872964883 0.98898480092198404 4.0608739799310358 1.3635710793674582 -4.171573004812565 3.8380400453764816 1.7283571379001326 0.41531212168291581 2.2698203398689389 -0.98678200167511143 1.4229695467184518 -0.54933656156879584 -1.8315225109560735 -2.2986201436468896 0.21218208117362783 -2.8583490940309919 2.5266083854099488
leaf_weight=25 26 30 24 39 34 27 26 24 24 20 21 23 31 24 25 38 26 29 23 28 31 21 21
leaf_count=25 26 30 24 39 34 27 26 24 24 20 21 23 31 24 25 38 26 29 23 28 31 21 21
internal_value=2.04546e-05 2.1594 -0.414811 0.301762 0.961803 -1.16102 -2.79881 3.47834 2.53543 -0.745398 -0.968601 1.40724 0.941567 0.274731 -0.566132 0.308598 2.56759 -1.69472 -0.687283 -1.08563 -0.64542 -1.2096 2.09106
internal_weight=640 103 537 274 206 263 53 73 48 210 190 172 123 78 169 63 49 68 47 106 78 47 45
internal_count=640 103 537 274 206 263 53 73 48 210 190 172 123 78 169 63 49 68 47 106 78 47 45
is_linear=0
shrinkage=0.01


Tree=30
num_leaves=25
num_cat=0
split_feature=6 0 18 18 1 18 1 18 18 1 1 18 19 1 18 18 0 0 0 18 18 1 0 0
split_gain=5.63328e+06 4.81102e+06 2.60589e+06 3.54504e+06 2.02835e+06 1.69342e+06 1.85653e+06 946899 897162 917428 1.10281e+06 865568 794435 694232 690591 643862 596956 718216 946044 498968 575040 369422 611302 68556.8
threshold=1.210381714861714 -1.4980204729275071 0.055204725795280275 1.4139953816627224 0.77258894330417693 -0.14124828018851951 -1.0610010241330703 -1.3456009766467087 1.2615820991188456 -1.0331038808408326 0.28782077801772327 -1.3681869295367171 -1.1651532587398943 -0.90881960917411397 1.3373552555645836 1.5101666123185276 -1.0709204988291419 -0.99247356481107507 -0.64905032033198173 -0.61809463879486926 -0.48136073619054526 -0.74229305522546596 -0.45206135268661363 0.10752677664226433
decision_type=2 2 2 2 2 2 2 2 2 2 2 2 2 2 2 2 2 2 2 2 2 2 2 2
left_child=2 -2 5 4 8 6 -1 11 9 23 13 -8 -3 -11 -10 -5 -9 -18 -19 21 -21 22 -20 -4
right_child=1 12 3 15 -6 -7 7 16 14 10 -12 -13 -14 -15 -16 -17 17 18 19 20 -22 -23 -24 -25
leaf_value=2.0512050356723295 -1.0413067484217764 5.2020723389822345 1.6754057081868829 -2.5139715927960919 -1.2358525187860834 -3.8696039617179645 -1.1675872638796974 -3.0155780011303017 3.7999903754530284 0.39822625212473417 1.8957182184387658 1.5357452977936845 2.8852447778351449 -1.9804325954644184 1.408848486019455 -0.54388091544582429 0.49653542284695612 -3.3307195212923246 -2.4764011252752627 -3.1576150868973638 -0.83918588243089287 0.36171000283861915 -0.25270957188576643 2.5015806334873414
leaf_weight=20 30 25 24 39 35 20 24 21 23 29 27 23 39 21 26 29 21 23 20 21 22 25 32 21
leaf_count=20 30 25 24 39 35 20 24 21 23 29 27 23 39 21 26 29 21 23 20 21 22 25 32 21
internal_value=2.91194e-05 2.25845 -0.389467 0.298784 0.952267 -1.08249 -0.858395 -1.11078 1.40105 0.939336 0.274697 0.156201 3.80366 -0.6047 2.54213 -1.67786 -1.43248 -1.22634 -1.4797 -1.11996 -1.98084 -0.635304 -1.11421 2.07034
internal_weight=640 94 546 274 206 272 252 232 171 122 77 47 64 50 49 68 185 164 143 120 43 77 52 45
internal_count=640 94 546 274 206 272 252 232 171 122 77 47 64 50 49 68 185 164 143 120 43 77 52 45
is_linear=0
shrinkage=0.01


Tree=31
num_leaves=26
num_cat=0
split_feature=0 0 18 18 0 1 0 19 0 6 0 0 18 1 13 13 18 1 0 0 1 0 0 0 6
split_gain=5.52985e+06 4.21594e+06 2.76614e+06 3.47495e+06 1.98853e+06 1.74126e+06 1.32443e+06 1.14571e+06 1.1242e+06 1.37534e+06 1.12307e+06 1.01428e+06 889324 906211 1.0571e+06 707961 676974 643421 575574 376995 560591 259056 244199 67208.6 1209.73
threshold=-1.1441376372460044 -1.4980204729275071 0.055204725795280275 1.4139953816627224 1.3225826213221026 -0.3569610693173873 -0.61941481192515646 -1.1651532587398943 1.6015050533863404 0.93494581319828496 -1.2644229360737074 -0.74492990635406375 1.2615820991188456 -1.0331038808408326 -0.25475157221320904 0.80901554296178835 1.3373552555645836 -0.38263084119868324 0.36204349590088181 -0.42591237468059123 -1.0444977661560904 -1.0290821340195064 0.66362837557033949 0.10752677664226433 -1.7583989214220175
decision_type=2 2 2 2 2 2 2 2 2 2 2 2 2 2 2 2 2 2 2 2 2 2 2 2 2
left_child=1 -1 5 4 12 6 11 -3 9 -7 -9 -2 13 23 -15 -8 -14 22 -16 -17 -21 -11 -5 -4 -10
right_child=2 7 3 17 -6 8 15 10 24 21 -12 -13 16 14 18 19 -18 -19 -20 20 -22 -23 -24 -25 -26
leaf_value=-1.0309626772387928 -0.54382760262704122 5.1504645712413479 1.6587899540672617 -1.5062042379851388 -1.2615499614693266 -4.6788180352713322 -2.688168650933032 0.95056283903516037 -0.82808285061675735 -2.5351579556164441 4.0139322132709605 2.4491242270634093 3.7623181599584119 1.6970795729679937 0.40724387933400052 0.55317458653213958 1.394867643108805 -0.29671732573673643 -1.7988580700241286 -0.18029309149711359 -2.017536624504241 -0.98907874098769188 -3.0151056571233843 2.4768007703097359 -0.67520938646675344
leaf_weight=30 22 25 24 20 34 26 21 24 20 22 24 23 23 31 24 20 26 23 23 37 30 22 25 21 20
leaf_count=30 22 25 24 20 34 26 21 24 20 22 24 23 23 31 24 20 26 23 23 37 30 22 25 21 20
internal_value=2.5025e-05 2.12014 -0.407262 0.295835 0.942827 -1.13944 -0.448472 3.41441 -2.09795 -2.86076 2.49257 0.989949 1.37954 0.923081 0.269446 -1.04854 2.51692 -1.66117 -0.675365 -0.647504 -1.00651 -1.77011 -2.35414 2.04982 -0.755411
internal_weight=640 103 537 274 206 263 153 73 110 70 48 45 172 123 78 108 49 68 47 87 67 44 45 45 40
internal_count=640 103 537 274 206 263 153 73 110 70 48 45 172 123 78 108 49 68 47 87 67 44 45 45 40
is_linear=0
shrinkage=0.01


Tree=32
num_leaves=25
num_cat=0
split_feature=6 1 18 18 1 18 1 18 18 1 13 18 19 18 18 2 2 2 1 18 18 1 1 4
split_gain=5.42751e+06 4.63129e+06 2.50795e+06 3.40639e+06 1.94981e+06 1.65969e+06 1.81016e+06 933477 861964 881417 1.06294e+06 854783 758386 663625 638155 594303 709283 923775 564218 489045 559921 358310 598818 65886.9
threshold=1.210381714861714 1.3548859918279594 0.055204725795280275 1.4139953816627224 0.77258894330417693 -0.14124828018851951 -1.0610010241330703 -1.3456009766467087 1.2615820991188456 -1.0331038808408326 -0.25475157221320904 -1.3681869295367171 -1.1651532587398943 1.3373552555645836 1.5101666123185276 -0.66228859796184725 -0.53891455774909036 -0.19286220620614114 -0.95079299016945629 -0.61809463879486926 -0.48136073619054526 -0.74229305522546596 -0.86646864940297497 0.0324372523728182
decision_type=2 2 2 2 2 2 2 2 2 2 2 2 2 2 2 2 2 2 2 2 2 2 2 2
left_child=2 12 5 4 8 6 -1 11 9 23 -11 -8 -2 -10 -5 -9 -17 -18 -12 21 -21 22 -19 -4
right_child=1 -3 3 14 -6 -7 7 15 13 10 18 -13 -14 -15 -16 16 17 19 -20 20 -22 -23 -24 -25
leaf_value=2.0326811981201174 5.0993686034187435 -1.0207210820173191 1.6423393148627166 -2.4770634265335234 -1.2118608645146542 -3.8213548567743585 -1.147197101687597 -2.9883969434702169 3.7250191435320623 1.7339141320392784 0.40320509697780138 1.5392535499046591 2.8353604760461923 1.3810253414124936 -0.51598233144577244 0.50870712136322604 -3.2841710248486748 -0.23893010406020262 -1.7810244131293789 -3.1130845530527944 -0.8253783141814911 0.36201365274096292 -2.4397083935879245 2.4522664422808953
leaf_weight=20 25 30 24 39 35 20 24 21 23 30 24 23 39 26 29 21 23 32 23 21 22 25 20 21
leaf_count=20 25 30 24 39 35 20 24 21 23 30 24 23 39 26 29 21 23 32 23 21 22 25 20 21
internal_value=2.61612e-05 2.21682 -0.38229 0.292903 0.933479 -1.06217 -0.840322 -1.08954 1.37349 0.920922 0.269456 0.16838 3.73289 2.49196 -1.6447 -1.40896 -1.20331 -1.45509 -0.66867 -1.09963 -1.95189 -0.619856 -1.09151 2.02951
internal_weight=640 94 546 274 206 272 252 232 171 122 77 47 64 49 68 185 164 143 47 120 43 77 52 45
internal_count=640 94 546 274 206 272 252 232 171 122 77 47 64 49 68 185 164 143 47 120 43 77 52 45
is_linear=0
shrinkage=0.01


Tree=33
num_leaves=26
num_cat=0
split_feature=0 0 0 19 0 19 1 0 1 0 0 19 0 19 13 1 0 1 0 0 0 0 0 0 0
split_gain=5.33074e+06 4.05978e+06 2.54813e+06 2.06263e+06 2.60581e+06 1.19065e+06 1.18326e+06 1.17403e+06 1.52865e+06 1.51935e+06 1.23686e+06 1.09472e+06 1.11703e+06 861740 691563 668304 1.08831e+06 379529 745408 372603 546137 519036 230397 64591.3 19236.1
threshold=-1.1441376372460044 -1.4980204729275071 -0.80594418836811577 -1.110288574277742 1.0645793716626819 -1.252435033319159 0.50496514467576414 0.58518144155227247 -0.32651403854801841 -0.0092719917846354315 -0.61941481192515646 -1.1651532587398943 -1.2644229360737074 -1.2037488565718981 0.80901554296178835 -1.0331038808408326 0.47709899912738002 -0.22706271795873717 -1.0099062168150901 -0.42591237468059123 -0.12955729061233814 -0.27250503704526013 0.66362837557033949 0.10752677664226433 0.33763778309526099
decision_type=2 2 2 2 2 2 2 2 2 2 2 2 2 2 2 2 2 2 2 2 2 2 2 2 2
left_child=1 -1 17 5 7 -4 -6 9 22 10 -5 -3 -13 -7 -12 23 24 -2 -19 -16 21 -21 -9 -11 -17
right_child=2 11 3 4 6 13 -8 8 -10 15 14 12 -14 -15 19 16 -18 18 -20 20 -22 -23 -24 -25 -26
leaf_value=-1.0105815460626653 -1.0029722422473837 5.0487796368674633 0.17567285932343579 1.0245197520089979 3.894016397113889 -4.1005362161600365 0.7525288695737351 -1.4667660214641307 0.35234921001014913 1.6260516751502172 -2.6505892440507997 0.91301631706805286 3.967663799002151 -1.3902983393388639 0.55986891944809725 -0.73665965259665311 2.1752959573679957 -1.5849339107488163 -4.0535286230411165 -0.54506336268812128 0.14307749668150457 -2.7976510490561428 -2.8878547356226671 2.4279750852764779 -0.30882993829661404
leaf_weight=30 21 25 23 40 24 21 24 20 38 24 21 24 24 27 20 20 23 30 21 20 26 21 29 21 23
leaf_count=30 21 25 23 40 24 21 24 20 38 24 21 24 24 27 20 20 23 30 21 20 26 21 29 21 23
internal_value=2.22791e-05 2.08162 -0.399866 -0.128422 0.154563 -1.69483 2.33293 -0.148809 -1.15246 0.18895 -0.474145 3.35169 2.45049 -2.58814 -1.03008 1.07235 0.429297 -2.14771 -2.6133 -0.633733 -0.990653 -1.70683 -2.31616 2.00939 -0.510333
internal_weight=640 103 537 465 394 71 48 346 87 259 148 73 48 48 108 111 66 72 51 87 67 41 49 45 43
internal_count=640 103 537 465 394 71 48 346 87 259 148 73 48 48 108 111 66 72 51 87 67 41 49 45 43
is_linear=0
shrinkage=0.01


Tree=34
num_leaves=25
num_cat=0
split_feature=9 0 18 18 1 18 1 18 18 18 1 1 19 1 18 18 0 0 0 18 18 1 0 0
split_gain=5.22938e+06 4.45833e+06 2.41613e+06 3.27616e+06 1.8681e+06 1.63973e+06 1.76946e+06 898338 841938 839554 851705 1.02717e+06 723916 675218 645296 635505 598524 698134 891722 465569 553926 350771 581869 63321.1
threshold=1.2134107852571085 -1.4980204729275071 0.055204725795280275 1.4139953816627224 0.77258894330417693 -0.14124828018851951 -1.0610010241330703 -1.3456009766467087 -1.3681869295367171 1.2615820991188456 -1.0331038808408326 0.28782077801772327 -1.1651532587398943 -0.90881960917411397 1.3373552555645836 1.5101666123185276 -1.0709204988291419 -0.99247356481107507 -0.64905032033198173 -0.61809463879486926 -0.48136073619054526 -0.74229305522546596 -0.45206135268661363 0.10752677664226433
decision_type=2 2 2 2 2 2 2 2 2 2 2 2 2 2 2 2 2 2 2 2 2 2 2 2
left_child=2 -2 5 4 9 6 -1 8 -8 10 23 13 -3 -12 -11 -5 -9 -18 -19 21 -21 22 -20 -4
right_child=1 12 3 15 -6 -7 7 16 -10 14 11 -13 -14 -15 -16 -17 17 18 19 20 -22 -23 -24 -25
leaf_value=2.0184180979209372 -1.0005428368761051 4.9986927964952264 1.6099254128952658 -2.4433372128739648 -1.1842349519512869 -3.7850815434975198 -1.140116065159317 -2.9666674579764312 1.5260717155193462 3.6660533783353606 0.39973746796176862 1.8238232379099901 2.7863791364553019 -1.9460932153125978 1.3547787988094886 -0.48661571737838122 0.52286123527670814 -3.2223705548253556 -2.4036135750949974 -3.062501015933055 -0.78759909724330046 0.36348973471020901 -0.234213826789619 2.4039243618947155
leaf_weight=20 30 25 24 39 35 20 24 21 23 23 29 27 39 21 26 29 21 23 20 21 22 25 32 21
leaf_count=20 30 25 24 39 35 20 24 21 23 23 29 27 39 21 26 29 21 23 20 21 22 25 32 21
internal_value=1.74138e-05 2.17597 -0.375256 0.287462 0.915675 -1.04257 -0.822078 -1.06848 0.165531 1.34637 0.899743 0.259367 3.66346 -0.58932 2.45018 -1.61274 -1.38183 -1.17552 -1.42532 -1.07609 -1.90766 -0.607963 -1.07463 1.98948
internal_weight=640 94 546 274 206 272 252 232 47 171 122 77 64 50 49 68 185 164 143 120 43 77 52 45
internal_count=640 94 546 274 206 272 252 232 47 171 122 77 64 50 49 68 185 164 143 120 43 77 52 45
is_linear=0
shrinkage=0.01


Tree=35
num_leaves=25
num_cat=0
split_feature=0 0 0 19 0 19 3 0 3 0 0 19 0 19 13 3 0 0 3 3 0 0 0 0
split_gain=5.13901e+06 3.90951e+06 2.47968e+06 1.98285e+06 2.52485e+06 1.17257e+06 1.16056e+06 1.13543e+06 1.48188e+06 1.45363e+06 1.2085e+06 1.0459e+06 1.11086e+06 851289 675534 643560 1.04528e+06 368269 535148 361459 720018 231596 62075.9 20180.8
threshold=-1.1441376372460044 -1.4980204729275071 -0.80594418836811577 -1.110288574277742 1.0645793716626819 -1.252435033319159 0.73433040812336403 0.58518144155227247 0.26756080941550014 -0.0092719917846354315 -0.61941481192515646 -1.1651532587398943 -1.2644229360737074 -1.2037488565718981 0.80901554296178835 -1.2797276011820087 0.47709899912738002 -0.42591237468059123 -1.3895022047531571 0.35400472000889732 -1.0099062168150901 0.66362837557033949 0.10752677664226433 0.33763778309526099
decision_type=2 2 2 2 2 2 2 2 2 2 2 2 2 2 2 2 2 2 2 2 2 2 2 2
left_child=1 -1 19 5 7 -4 -6 9 21 10 -5 -3 -13 -7 -12 22 23 -16 -19 -2 -21 -9 -11 -17
right_child=2 11 3 4 6 13 -8 8 -10 15 14 12 -14 -15 17 16 -18 18 -20 20 -22 -23 -24 -25
leaf_value=-0.99060355184883475 -0.99935037792853598 4.9491022845676973 0.19541918425724425 1.018924511582104 3.8428865216093615 -4.0502449802182756 0.73184198895761798 -1.4280521050066051 0.34857914969559117 1.5939591700971618 -2.6135765014504488 0.87632809410410495 3.9220772334957914 -1.3568932548691246 0.56631017930436844 -0.73332371116864803 2.130337007456812 -0.16791359645064158 -1.9629273510610821 -1.5605178897428196 -3.9867559353810438 -2.8516608624915554 2.3801119851166344 -0.29557532787322999
leaf_weight=30 21 25 23 40 24 21 24 20 38 24 21 24 24 27 20 20 23 37 30 30 21 29 21 23
leaf_count=30 21 25 23 40 24 21 24 20 38 24 21 24 24 27 20 20 23 37 30 30 21 29 21 23
internal_value=1.34946e-05 2.04383 -0.392617 -0.124845 0.152613 -1.66066 2.29688 -0.146009 -1.13302 0.18615 -0.462445 3.29017 2.40918 -2.54717 -1.01198 1.05023 0.419204 -0.620268 -0.975116 -2.11683 -2.57125 -2.27878 1.96976 -0.501655
internal_weight=640 103 537 465 394 71 48 346 87 259 148 73 48 48 108 111 66 87 67 72 51 49 45 43
internal_count=640 103 537 465 394 71 48 346 87 259 148 73 48 48 108 111 66 87 67 72 51 49 45 43
is_linear=0
shrinkage=0.01


Tree=36
num_leaves=23
num_cat=0
split_feature=6 0 0 19 0 19 1 0 1 0 1 19 19 1 0 0 0 13 1 0 0 0
split_gain=5.03857e+06 4.29189e+06 1.87269e+06 1.94374e+06 2.47502e+06 1.14944e+06 1.13765e+06 1.11656e+06 1.9932e+06 1.1977e+06 1.53804e+06 834525 690958 594029 1.18525e+06 523453 865192 414226 1.49327e+06 548916 129755 50017.2
threshold=1.210381714861714 -1.4980204729275071 -0.80594418836811577 -1.110288574277742 1.0645793716626819 -1.252435033319159 0.50496514467576414 0.64793898876672595 -0.32651403854801841 -0.12955729061233814 -0.6843512815968793 -1.2037488565718981 -1.1651532587398943 -0.12282789169764836 -1.0709204988291419 -0.27250503704526013 -0.45206135268661363 1.0818885095012114 -1.0331038808408326 0.47361246872657703 0.55728919834584845 -0.72924051955045022
decision_type=2 2 2 2 2 2 2 2 2 2 2 2 2 2 2 2 2 2 2 2 2 2
left_child=2 -2 13 5 7 -4 -6 9 -9 10 15 -7 -3 -1 -15 16 -5 18 -11 -20 -21 -12
right_child=1 12 3 4 6 11 -8 8 -10 17 21 -13 -14 14 -16 -17 -18 -19 19 20 -22 -23
leaf_value=-2.9134251811406382 -0.98076313501951717 4.9000040638636033 0.19348177844080433 -2.1787483629267266 3.8047752858784571 -4.0101245710984719 0.72458400091849084 -2.9559382705254986 0.34511164180895421 2.6816657236570949 1.2887679015838349 -1.3434241415472594 2.7382842624430754 -2.9450979603461498 0.12238087482941457 -2.7492278649672022 0.24037488497220555 -0.22621255573473475 -0.59193382418885521 1.6346739563139361 0.50494654961352081 0.58846285527295417
leaf_weight=29 30 25 23 28 24 21 24 35 38 37 22 27 39 21 31 21 31 34 39 20 21 20
leaf_count=29 30 25 23 28 24 21 24 35 38 37 22 27 39 21 31 21 31 34 39 20 21 20
internal_value=1.19516e-05 2.1359 -0.368351 -0.123608 0.1511 -1.6442 2.2741 -0.14456 -1.24132 0.149403 -0.586948 -2.52192 3.59536 -1.76958 -1.12293 -1.39931 -0.911149 0.744332 1.02628 0.255879 1.06132 0.959682
internal_weight=640 94 546 465 394 71 48 346 73 273 122 48 64 81 52 80 59 151 117 80 41 42
internal_count=640 94 546 465 394 71 48 346 73 273 122 48 64 81 52 80 59 151 117 80 41 42
is_linear=0
shrinkage=0.01


Tree=37
num_leaves=23
num_cat=0
split_feature=0 0 18 18 1 1 0 19 0 0 1 18 18 1 0 18 18 1 13 0 0 0
split_gain=4.95432e+06 3.76488e+06 2.48239e+06 3.10111e+06 1.75239e+06 1.64451e+06 2.55107e+06 999181 1.10457e+06 963170 2.19947e+06 814887 823430 694818 1.49773e+06 646321 620531 585354 503905 502269 359478 954950
threshold=-1.1441376372460044 -1.4980204729275071 0.055204725795280275 1.4139953816627224 0.77258894330417693 0.2120542413815826 1.7148172914124373 -1.1651532587398943 -1.2644229360737074 -1.0099062168150901 -0.22706271795873717 1.2615820991188456 0.95288834988686377 -0.6843512815968793 -0.74492990635406375 1.5101666123185276 1.3373552555645836 -1.0699193628345809 -0.25475157221320904 -0.45206135268661363 -0.27250503704526013 -0.12955729061233814
decision_type=2 2 2 2 2 2 2 2 2 2 2 2 2 2 2 2 2 2 2 2 2 2
left_child=1 -1 5 4 11 9 -7 -3 -9 -2 13 12 17 19 -15 -5 -13 -4 -14 -11 -21 -22
right_child=2 7 3 15 -6 6 -8 8 -10 10 -12 16 18 14 -16 -17 -18 -19 -20 20 21 -23
leaf_value=-0.97102051046510418 1.3972816044269223 4.8513929769727921 0.53612026005575109 -2.4057497923228204 -1.1420948679880663 -4.7911249660043156 -0.40693944334073834 0.84048068085977867 3.8771605950347645 -2.157115481221084 -3.9370208337172024 3.5886116580305432 1.0854176305594117 -0.93719855063872815 2.2037227836487783 -0.4330106338082928 1.3222293847935802 2.4251587768874239 -0.84769983421941719 0.2379866631825765 -2.7219949355215398 0.13658605619241262
leaf_weight=30 20 25 29 39 35 27 26 24 24 28 21 23 23 38 25 29 26 38 32 31 21 26
leaf_count=30 20 25 29 39 35 27 26 24 24 28 21 23 23 38 25 29 26 38 32 31 21 26
internal_value=8.34968e-06 2.00677 -0.385502 0.280557 0.891756 -1.07911 -2.65003 3.22984 2.36863 -0.680491 -0.900448 1.30889 0.868924 -0.518909 0.312212 -1.56819 2.39633 1.61156 -0.0382834 -1.01254 -0.597194 -1.14675
internal_weight=640 103 537 274 206 263 53 73 48 210 190 171 122 169 63 68 49 67 55 106 78 47
internal_count=640 103 537 274 206 263 53 73 48 210 190 171 122 169 63 68 49 67 55 106 78 47
is_linear=0
shrinkage=0.01


Tree=38
num_leaves=24
num_cat=0
split_feature=0 0 0 19 0 19 1 0 1 0 0 19 0 19 1 13 0 0 1 1 0 0 0
split_gain=4.85652e+06 3.69054e+06 2.35738e+06 1.86451e+06 2.40009e+06 1.14019e+06 1.11178e+06 1.086e+06 1.94165e+06 1.15566e+06 1.1434e+06 979447 1.08277e+06 810296 809589 646236 538220 363822 520163 358048 687340 120021 54491.2
threshold=-1.1441376372460044 -1.4980204729275071 -0.80594418836811577 -1.110288574277742 1.0645793716626819 -1.252435033319159 0.50496514467576414 0.64793898876672595 -0.32651403854801841 -0.0092719917846354315 -0.61941481192515646 -1.1651532587398943 -1.2644229360737074 -1.2037488565718981 -1.0331038808408326 0.80901554296178835 0.47361246872657703 -0.42591237468059123 -1.0444977661560904 -0.22706271795873717 -1.0099062168150901 0.55728919834584845 0.10752677664226433
decision_type=2 2 2 2 2 2 2 2 2 2 2 2 2 2 2 2 2 2 2 2 2 2 2
left_child=1 -1 19 5 7 -4 -6 9 -9 10 -5 -3 -13 -7 22 -12 -16 -17 -19 -2 -21 -18 -11
right_child=2 11 3 4 6 13 -8 8 -10 14 15 12 -14 -15 16 17 21 18 -20 20 -22 -23 -24
leaf_value=-0.96137456938130972 -0.95130822811486593 4.8032641601562505 0.22018758938230318 0.99045300516916146 3.7522320730232996 -3.9504948069014638 0.70737877026077145 -2.9166369032859798 0.34144236140226192 1.570271553638553 -2.5514623292886989 0.8321454696024746 3.838709515343028 -1.3228058059075301 -0.59013458889357895 0.57741631536200499 1.5984749824221773 -0.15881908744894047 -1.9284793589762503 -1.5274318292125171 -3.8980220895443325 0.51146581719506468 2.3104042010037404
leaf_weight=30 21 25 23 40 24 21 24 35 38 24 21 24 24 27 39 20 20 37 30 30 21 21 21
leaf_count=30 21 25 23 40 24 21 24 35 38 24 21 24 24 27 39 20 20 37 30 30 21 21 21
internal_value=1.37526e-05 1.98686 -0.381673 -0.120588 0.148463 -1.60987 2.23908 -0.142688 -1.22434 0.147226 -0.450466 3.1978 2.34514 -2.48406 0.85449 -0.984994 0.249364 -0.601885 -0.9546 -2.06283 -2.51499 1.04692 1.92438
internal_weight=640 103 537 465 394 71 48 346 73 273 148 73 48 48 125 108 80 87 67 72 51 41 45
internal_count=640 103 537 465 394 71 48 346 73 273 148 73 48 48 125 108 80 87 67 72 51 41 45
is_linear=0
shrinkage=0.01


Tree=39
num_leaves=24
num_cat=0
split_feature=6 0 18 18 1 18 1 18 18 18 18 18 19 18 0 13 1 18 18 1 13 0 0
split_gain=4.77213e+06 4.05781e+06 2.20999e+06 2.98883e+06 1.67988e+06 1.62538e+06 1.47904e+06 847210 834523 798163 806353 646870 641940 601600 599255 845085 1.38961e+06 916154 605323 578930 482749 377156 223721
threshold=1.210381714861714 -1.4980204729275071 0.055204725795280275 1.4139953816627224 0.77258894330417693 -0.15231852237756119 -1.0444977661560904 -1.3456009766467087 -1.3681869295367171 1.2615820991188456 0.95288834988686377 1.5101666123185276 -1.1651532587398943 1.3373552555645836 -1.0709204988291419 -0.048245963713578068 -0.57787919663138776 -1.2480253581282221 -0.5417498087699909 -1.0699193628345809 -0.25475157221320904 -0.45206135268661363 -0.37710094906934954
decision_type=2 2 2 2 2 2 2 2 2 2 2 2 2 2 2 2 2 2 2 2 2 2 2
left_child=2 -2 5 4 9 6 -1 8 -8 10 19 -5 -3 -11 -9 18 17 -17 -16 -4 -12 -19 -23
right_child=1 12 3 11 -6 -7 7 14 -10 13 20 -13 -14 -15 15 16 -18 21 -20 -21 -22 22 -24
leaf_value=1.5332976865011549 -0.95182438572510986 4.7556126331147697 0.5139331812401341 -2.3775077976499284 -1.1159580543366345 -3.5907829741744308 -1.1286136526312711 -2.9187534959361239 1.5258142300309809 3.5339403540512611 1.0505825299230116 -0.40420671436884642 2.6712756620134623 1.3023868030810175 1.1646433856569489 0.86362041545364099 -3.5086281196107256 -2.593432647430145 -1.1453009907834166 2.3923781201227796 -0.84152391042768582 -0.24110048689932193 -1.7179111104908558
leaf_weight=25 30 25 29 39 35 22 24 21 23 23 23 29 39 26 23 21 28 22 22 38 32 21 20
leaf_count=25 30 25 29 39 35 22 24 21 23 23 23 29 39 26 23 21 28 22 22 38 32 21 20
internal_value=1.76524e-05 2.07867 -0.358473 0.275344 0.875375 -0.996687 -0.765715 -1.0223 0.171302 1.28379 0.848389 -1.53962 3.49776 2.35998 -1.33731 -1.12233 -1.58667 -0.939187 0.0352443 1.58328 -0.0493217 -1.54097 -0.966362
internal_weight=640 94 546 274 206 272 250 225 47 171 122 68 64 49 178 157 112 84 45 67 55 63 41
internal_count=640 94 546 274 206 272 250 225 47 171 122 68 64 49 178 157 112 84 45 67 55 63 41
is_linear=0
shrinkage=0.01


end of trees

feature_importances:
Column_0=299
Column_1=216
Column_18=215
Column_19=70
Column_3=44
Column_2=40
Column_6=30
Column_13=16
Column_4=6
Column_5=6
Column_7=2
Column_9=2
Column_16=2

parameters:
[boosting: gbdt]
[objective: regression]
[metric: l2]
[tree_learner: serial]
[device_type: cpu]
[data_sample_strategy: goss]
[data: ]
[valid: ]
[num_iterations: 5000]
[learning_rate: 0.01]
[num_leaves: 127]
[num_threads: -1]
[seed: 42]
[deterministic: 0]
[force_col_wise: 0]
[force_row_wise: 0]
[histogram_pool_size: -1]
[max_depth: 12]
[min_data_in_leaf: 20]
[min_sum_hessian_in_leaf: 0.001]
[bagging_fraction: 1]
[pos_bagging_fraction: 1]
[neg_bagging_fraction: 1]
[bagging_freq: 0]
[bagging_seed: 400]
[bagging_by_query: 0]
[feature_fraction: 0.8]
[feature_fraction_bynode: 1]
[feature_fraction_seed: 30056]
[extra_trees: 0]
[extra_seed: 12879]
[early_stopping_round: 200]
[early_stopping_min_delta: 0]
[first_metric_only: 0]
[max_delta_step: 0]
[lambda_l1: 0.1]
[lambda_l2: 0.2]
[linear_lambda: 0]
[min_gain_to_split: 0]
[drop_rate: 0.1]
[max_drop: 50]
[skip_drop: 0.5]
[xgboost_dart_mode: 0]
[uniform_drop: 0]
[drop_seed: 17869]
[top_rate: 0.2]
[other_rate: 0.1]
[min_data_per_group: 100]
[max_cat_threshold: 32]
[cat_l2: 10]
[cat_smooth: 10]
[max_cat_to_onehot: 4]
[top_k: 20]
[monotone_constraints: ]
[monotone_constraints_method: basic]
[monotone_penalty: 0]
[feature_contri: ]
[forcedsplits_filename: ]
[refit_decay_rate: 0.9]
[cegb_tradeoff: 1]
[cegb_penalty_split: 0]
[cegb_penalty_feature_lazy: ]
[cegb_penalty_feature_coupled: ]
[path_smooth: 0]
[interaction_constraints: ]
[verbosity: -1]
[saved_feature_importance_type: 0]
[use_quantized_grad: 0]
[num_grad_quant_bins: 4]
[quant_train_renew_leaf: 0]
[stochastic_rounding: 1]
[linear_tree: 0]
[max_bin: 255]
[max_bin_by_feature: ]
[min_data_in_bin: 3]
[bin_construct_sample_cnt: 200000]
[data_random_seed: 175]
[is_enable_sparse: 1]
[enable_bundle: 1]
[use_missing: 1]
[zero_as_missing: 0]
[feature_pre_filter: 1]
[pre_partition: 0]
[two_round: 0]
[header: 0]
[label_column: ]
[weight_column: ]
[group_column: ]
[ignore_column: ]
[categorical_feature: ]
[forcedbins_filename: ]
[precise_float_parser: 0]
[parser_config_file: ]
[objective_seed: 16083]
[num_class: 1]
[is_unbalance: 0]
[scale_pos_weight: 1]
[sigmoid: 1]
[boost_from_average: 1]
[reg_sqrt: 0]
[alpha: 0.9]
[fair_c: 1]
[poisson_max_delta_step: 0.7]
[tweedie_variance_power: 1.5]
[lambdarank_truncation_level: 30]
[lambdarank_norm: 1]
[label_gain: ]
[lambdarank_position_bias_regularization: 0]
[eval_at: ]
[multi_error_top_k: 1]
[auc_mu_weights: ]
[num_machines: 1]
[local_listen_port: 12400]
[time_out: 120]
[machine_list_filename: ]
[machines: ]
[gpu_platform_id: -1]
[gpu_device_id: -1]
[gpu_use_dp: 0]
[num_gpu: 1]

end of parameters

pandas_categorical:null
