tree
version=v4
num_class=1
num_tree_per_iteration=1
label_index=0
max_feature_idx=19
objective=regression
feature_names=Column_0 Column_1 Column_2 Column_3 Column_4 Column_5 Column_6 Column_7 Column_8 Column_9 Column_10 Column_11 Column_12 Column_13 Column_14 Column_15 Column_16 Column_17 Column_18 Column_19
feature_infos=[-1.6741034543470685:1.7905316635237578] [-1.1292378909555456:2.4911177916923215] [-2.4293755908292765:2.932735703548587] [-3.2944501125434389:1.1271232745612227] [-1.7988255009947465:1.9455913586516369] [-1.4549543522007533:1.9806162977568824] [-1.7905316635237791:1.6741034543470614] [-1.6648148163025338:1.8012740645826215] [-1.6741034543471183:1.7905316635237223] [-1.7798342060258097:1.6834205288907877] [-1.7905316635237791:1.6741034543470614] [-1.6648148163025338:1.8012740645826215] [-1.6711999482694202:1.7863419809922128] [-2.4884231867679358:1.1299620582821026] [-1.5989161706341444:1.6830833922846233] [-2.4228373691354541:1.1476437190468987] [-1.3442152333376058:1.3562666107466825] [-2.2057919548386273:1.2067602226012411] [-1.4589772871135038:1.4999526905105154] [-1.2362022089194795:1.5018953624042586]
tree_sizes=2268 2327 2156 2230 2150 2145 2150 2154 2161 2162 2169 2156 2152 2140 2158 2144 2159 2141 2129 2212 2212 2223 2216 2207 2221 2201 2218 2217 2202 2206 2200 2113 2109

Tree=0
num_leaves=26
num_cat=0
split_feature=0 0 18 0 6 0 0 0 13 6 0 1 1 17 1 1 13 1 1 18 16 6 1 1 1
split_gain=1.4022e+07 4.79829e+06 4.71045e+06 5.17153e+06 4.72156e+06 3.05824e+06 2.63921e+06 1.87086e+06 1.64297e+06 2.07254e+06 1.23524e+06 1.17125e+06 1.85382e+06 1.66515e+06 3.37048e+06 1.8605e+06 2.19446e+06 1.98881e+06 1.40223e+06 1.54416e+06 1.12593e+06 553998 471110 212297 65291.3
threshold=-1.1774128061613613 -1.4266295173562951 1.4869944198713763 1.3879508223627111 -1.0289393363056543 -1.2680370647777008 1.544800500737145 1.2624710796631642 1.0891330947153735 0.01323963778224879 1.1335057885552964 -1.0277758703775206 -1.0545233217078305 0.19214901895585268 -0.45918167657132675 -0.89092653115161191 0.83777447225592749 -0.63917819781001084 -0.095487202677370556 -1.0834611419102353 -1.3412530987120539 0.33391009134771821 -0.75664669971573228 -0.96474688416415733 0.093171694018572185
decision_type=2 2 2 2 2 2 2 2 2 2 2 2 2 2 2 2 2 2 2 2 2 2 2 2 2
left_child=1 20 3 4 7 -3 -5 10 11 -10 -2 12 -6 18 15 21 17 22 -13 24 -1 23 -17 -15 -20
right_child=2 5 -4 6 8 -7 -8 -9 9 -11 -12 13 -14 14 -16 16 -18 -19 19 -21 -22 -23 -24 -25 -26
leaf_value=8395.7802337216581 8394.8785533691971 8400.6651764645649 8388.420311831971 8387.3736902999881 8392.5743561427862 8395.6246183172261 8391.5365208649164 8393.0627225507542 8392.2676383201433 8395.8641157969432 8398.2493279596292 8388.9849079484284 8388.4594580969479 8395.1776441056663 8396.3794087483402 8392.7080712885017 8388.6356665741587 8390.2381323285481 8393.4789216322515 8389.8032335327935 8392.8673884106374 8392.4816794741691 8394.6981234381346 8393.7466681911719 8392.7028097195907
leaf_weight=25 22 29 29 25 24 21 39 23 34 30 22 20 20 20 25 27 20 28 22 21 28 22 21 22 21
leaf_count=25 22 29 29 25 24 21 39 23 34 30 22 20 20 20 25 27 20 28 22 21 28 22 21 22 21
internal_value=8392.97 8396.35 8392.33 8392.55 8392.93 8398.57 8389.9 8395.38 8392.5 8393.96 8396.58 8392.2 8390.69 8392.45 8392.98 8392.45 8391.57 8392.35 8391.28 8392.01 8394.25 8393.76 8393.58 8394.44 8393.1
internal_weight=640 103 537 508 444 50 64 67 377 64 44 313 44 269 185 160 96 76 84 64 53 64 48 42 43
internal_count=640 103 537 508 444 50 64 67 377 64 44 313 44 269 185 160 96 76 84 64 53 64 48 42 43
is_linear=0
shrinkage=1


Tree=1
num_leaves=26
num_cat=0
split_feature=0 0 18 0 6 0 0 0 13 4 0 1 1 3 1 1 13 1 1 18 16 6 1 1 1
split_gain=1.37451e+07 4.70348e+06 4.61734e+06 5.06932e+06 4.62847e+06 2.99771e+06 2.58715e+06 1.83396e+06 1.61053e+06 2.03156e+06 1.21088e+06 1.14817e+06 1.8173e+06 1.63234e+06 3.30394e+06 1.8238e+06 2.15125e+06 1.94953e+06 1.37461e+06 1.51372e+06 1.1037e+06 543077 461821 208116 64003.9
threshold=-1.1774128061613613 -1.4266295173562951 1.4869944198713763 1.3879508223627111 -1.0289393363056543 -1.2680370647777008 1.544800500737145 1.2624710796631642 1.0891330947153735 -0.0020141697844020521 1.1335057885552964 -1.0277758703775206 -1.0545233217078305 0.32803704131061812 -0.45918167657132675 -0.89092653115161191 0.83777447225592749 -0.63917819781001084 -0.095487202677370556 -1.0834611419102353 -1.3412530987120539 0.33391009134771821 -0.75664669971573228 -0.96474688416415733 0.093171694018572185
decision_type=2 2 2 2 2 2 2 2 2 2 2 2 2 2 2 2 2 2 2 2 2 2 2 2 2
left_child=1 20 3 4 7 -3 -5 10 11 -10 -2 12 -6 14 15 21 17 22 -15 24 -1 23 -17 -13 -20
right_child=2 5 -4 6 8 -7 -8 -9 9 -11 -12 13 -14 18 -16 16 -18 -19 19 -21 -22 -23 -24 -25 -26
leaf_value=2.7776328731718518 1.8849182362599417 7.6140302809623828 -4.5092243506157237 -5.5455123093014675 -0.39644153941761368 2.6236008438974059 -1.4239387780792856 0.087081648727943176 2.8606447786369067 -0.70010050399958734 5.2222889008393159 2.181064586072865 -4.4706047692629367 -3.9503572621676 3.3708637628858056 -0.26405039689120124 -4.2961408966366603 -2.7094644446406799 0.49915670205880935 -3.1401190784292403 -0.10631423720231294 -0.48820296102815924 1.7062836729805426 0.76425003292324323 -0.26926515165364967
leaf_weight=25 22 29 29 25 24 21 39 23 30 34 22 20 20 20 25 27 20 28 22 21 28 22 21 22 21
leaf_count=25 22 29 29 25 24 21 39 23 30 34 22 20 20 20 25 27 20 28 22 21 28 22 21 22 21
internal_value=-6.14889e-07 3.34253 -0.642127 -0.419678 -0.0398763 5.53687 -3.0462 2.37801 -0.470616 0.972695 3.56971 -0.76617 -2.26021 -0.520291 0.00503572 -0.52442 -1.395 -0.622255 -1.67454 -0.953235 1.25935 0.781709 0.601453 1.44609 0.124349
internal_weight=640 103 537 508 444 50 64 67 377 64 44 313 44 269 185 160 96 76 84 64 53 64 48 42 43
internal_count=640 103 537 508 444 50 64 67 377 64 44 313 44 269 185 160 96 76 84 64 53 64 48 42 43
is_linear=0
shrinkage=0.01


Tree=2
num_leaves=24
num_cat=0
split_feature=0 0 0 9 0 0 3 0 0 3 13 3 4 3 3 0 16 0 0 3 3 3 0
split_gain=1.34736e+07 4.61055e+06 4.13063e+06 5.5699e+06 3.49235e+06 2.93838e+06 2.85427e+06 2.53612e+06 1.79779e+06 1.26233e+06 1.29055e+06 3.38436e+06 1.84463e+06 2.10106e+06 1.88895e+06 1.187e+06 1.08191e+06 1.02721e+06 1.01265e+06 397890 426233 362502 259513
threshold=-1.1774128061613613 -1.4266295173562951 1.3879508223627111 -1.028800812246536 0.53921978493660816 -1.2680370647777008 0.2536069473793009 1.544800500737145 1.2624710796631642 0.21779845355995828 0.83777447225592749 -0.5291778491325051 -0.0020141697844020521 -0.99414056931751149 -1.2058914316063982 1.1335057885552964 -1.3412530987120539 0.18717939569621231 -0.96305157904963523 -0.26290406740336336 1.0000000180025095e-35 0.068785093635127734 -1.0554186118701352
decision_type=2 2 2 2 2 2 2 2 2 2 2 2 2 2 2 2 2 2 2 2 2 2 2
left_child=1 16 3 8 9 -3 21 -4 15 10 19 12 14 17 -12 -2 -1 -14 22 -5 -21 -6 -11
right_child=2 5 7 4 6 -7 -8 -9 -10 18 11 -13 13 -15 -16 -17 -18 -19 -20 20 -22 -23 -24
leaf_value=2.7500770547654896 1.8662390452891857 7.5384114319004434 -5.4904971676781065 2.4141841928085479 -3.1169564042001401 2.5976125512033139 -0.34064266822424283 -1.4097721582529494 0.086218494546824495 -1.4065738588666159 2.775941508132584 -4.2536048315067108 -0.69314052693327965 1.1237209252626197 -0.46854979443262856 5.1705364220421597 -0.10525852311587502 -3.2327315849657881 -3.3787200353641325 -0.36730244249400529 1.5847540016779826 -4.9425146910723514 0.061926759275896803
leaf_weight=25 22 29 25 20 21 21 33 39 23 25 39 20 34 36 33 22 28 30 20 20 25 27 23
leaf_count=25 22 29 25 20 21 21 33 39 23 25 39 20 34 36 33 22 28 30 20 20 25 27 23
internal_value=-2.70602e-06 3.30936 -0.635756 -0.312559 -0.753625 5.48191 -2.60871 -3.01596 2.35444 -0.289958 0.0309636 -0.381467 0.0731931 -0.804942 1.29169 3.53433 1.24685 -1.88995 -1.4994 1.24667 0.719365 -4.1601 -0.705559
internal_weight=640 103 537 473 406 50 81 64 67 325 257 192 172 100 72 44 53 64 68 65 45 48 48
internal_count=640 103 537 473 406 50 81 64 67 325 257 192 172 100 72 44 53 64 68 65 45 48 48
is_linear=0
shrinkage=0.01


Tree=3
num_leaves=25
num_cat=0
split_feature=2 1 18 1 6 1 7 1 13 6 2 2 1 1 6 2 1 2 19 1 1 2 13 1
split_gain=1.32075e+07 4.51946e+06 4.43285e+06 4.87058e+06 4.44816e+06 2.88022e+06 2.4861e+06 1.76234e+06 1.54843e+06 1.95265e+06 1.16359e+06 1.1153e+06 1.41657e+06 1.76915e+06 1.03849e+06 1.51901e+06 1.8012e+06 992712 568161 465893 442925 1.16129e+06 313613 254390
threshold=-0.85676190016504516 1.1601175367573278 1.4869944198713763 1.0461441202180983 -1.0289393363056543 0.6985032661272349 1.5514637676103085 0.6735507210369639 1.0891330947153735 0.01323963778224879 0.73076634476067859 0.33135601052794078 -1.0277758703775206 -1.0545233217078305 0.41582047894326019 -0.085256673246031311 -0.37803233029641703 -0.47691100994925778 -1.2284202886037889 -0.59789992022602656 -0.89092653115161191 0.10333599120265513 0.94816839850429646 0.12615276391627009
decision_type=2 2 2 2 2 2 2 2 2 2 2 2 2 2 2 2 2 2 2 2 2 2 2 2
left_child=1 5 3 4 7 -1 -5 10 11 -10 -2 12 13 -6 20 16 19 23 -3 -16 22 -22 -14 -18
right_child=2 18 -4 6 8 -7 -8 -9 9 -11 -12 -13 14 -15 15 -17 17 -19 -20 -21 21 -23 -24 -25
leaf_value=2.5718814239861834 1.8477446918659381 2.4559615016627956 -4.4185064450192124 -5.4360280363900326 -0.38279609301858697 7.4635435752346098 -1.3957462968631666 0.085363811624461217 -0.68624959756059256 2.8046520833621753 5.11929685678568 -2.7692263426856392 2.1247303586903183 -4.4025443909900028 0.11606064551057869 -3.2066912154464036 0.061312847466304395 -3.3452674367168163 0.35741209079057745 1.8912269557341364 -1.9436116163801442 1.447415949755376 0.54675762915471837 -1.3926198476458354
leaf_weight=21 22 22 29 25 24 29 39 23 34 30 22 25 20 20 34 22 23 20 31 26 20 20 34 25
leaf_count=21 22 22 29 25 24 29 39 23 34 30 22 25 20 20 34 22 23 20 31 26 20 20 34 25
internal_value=-6.57947e-06 3.27651 -0.629451 -0.411491 -0.039209 5.4275 -2.98601 2.33111 -0.461475 0.953735 3.49931 -0.751274 -0.574301 -2.22163 -0.275662 -0.791705 -0.372266 -1.48454 1.23449 0.889044 0.547734 -0.249307 1.13689 -0.698559
internal_weight=640 103 537 508 444 50 64 67 377 64 44 313 288 44 244 150 128 68 53 60 94 40 54 48
internal_count=640 103 537 508 444 50 64 67 377 64 44 313 288 44 244 150 128 68 53 60 94 40 54 48
is_linear=0
shrinkage=0.01


Tree=4
num_leaves=24
num_cat=0
split_feature=0 0 0 6 0 0 3 0 0 3 13 3 4 2 3 0 16 0 0 3 3 3 0
split_gain=1.29467e+07 4.43015e+06 3.96897e+06 5.35238e+06 3.3676e+06 2.82321e+06 2.79449e+06 2.43707e+06 1.72758e+06 1.21465e+06 1.2497e+06 3.27702e+06 1.79184e+06 2.02254e+06 1.81255e+06 1.14064e+06 1.04687e+06 994702 973161 397299 410631 335717 249367
threshold=-1.1774128061613613 -1.4266295173562951 1.3879508223627111 -1.0289393363056543 0.53921978493660816 -1.2680370647777008 0.2536069473793009 1.544800500737145 1.2624710796631642 0.21779845355995828 0.83777447225592749 -0.5291778491325051 -0.0020141697844020521 -0.0023474671230163187 -1.2058914316063982 1.1335057885552964 -1.3412530987120539 0.18717939569621231 -0.96305157904963523 -0.26290406740336336 1.0000000180025095e-35 0.068785093635127734 -1.0554186118701352
decision_type=2 2 2 2 2 2 2 2 2 2 2 2 2 2 2 2 2 2 2 2 2 2 2
left_child=1 16 3 8 9 -3 21 -4 15 10 19 12 14 17 -12 -2 -1 -14 22 -5 -21 -6 -11
right_child=2 5 7 4 6 -7 -8 -9 -10 18 11 -13 13 -15 -16 -17 -18 -19 -20 20 -22 -23 -24
leaf_value=2.7009279865688747 1.8294335813780089 7.3894194310332004 -5.3820991419232076 2.3942305000229633 -3.0892216117427034 2.5464051023519265 -0.31635823602417867 -1.3818599930588078 0.084517336878283264 -1.3788040745447554 2.727738384163501 -4.1847429362382034 -0.67942725828516548 1.0996980420528855 -0.45050284974546317 5.0685649830586206 -0.10776218400779344 -3.1784890529809413 -3.3121459009151648 -0.36569358447990796 1.5502701617044117 -4.8495925315688639 0.060704977101293106
leaf_weight=25 22 29 25 20 21 21 33 39 23 25 39 20 34 36 33 22 28 30 20 20 25 27 23
leaf_count=25 22 29 25 20 21 21 33 39 23 25 39 20 34 36 33 22 28 30 20 20 25 27 23
internal_value=-7.95284e-06 3.244 -0.623206 -0.306396 -0.738764 5.37362 -2.56041 -2.95637 2.30801 -0.283455 0.0313467 -0.374505 0.0728858 -0.792592 1.27382 3.46463 1.22225 -1.85713 -1.46984 1.22766 0.700858 -4.09547 -0.691629
internal_weight=640 103 537 473 406 50 81 64 67 325 257 192 172 100 72 44 53 64 68 65 45 48 48
internal_count=640 103 537 473 406 50 81 64 67 325 257 192 172 100 72 44 53 64 68 65 45 48 48
is_linear=0
shrinkage=0.01


Tree=5
num_leaves=24
num_cat=0
split_feature=0 0 0 6 0 0 1 0 0 1 13 1 6 1 1 0 16 0 0 1 3 1 0
split_gain=1.2691e+07 4.34262e+06 3.89053e+06 5.24683e+06 3.30108e+06 2.76734e+06 2.73934e+06 2.389e+06 1.69351e+06 1.19068e+06 1.22507e+06 3.21243e+06 1.75638e+06 1.98253e+06 1.77667e+06 1.11814e+06 1.0262e+06 975042 953996 389479 402528 329057 244444
threshold=-1.1774128061613613 -1.4266295173562951 1.3879508223627111 -1.0289393363056543 0.53921978493660816 -1.2680370647777008 -0.34886244579167192 1.544800500737145 1.2624710796631642 -0.37803233029641703 0.83777447225592749 -0.89092653115161191 0.01323963778224879 -1.0193494874057702 -1.0545233217078305 1.1335057885552964 -1.3412530987120539 0.18717939569621231 -0.96305157904963523 -0.76918997148999457 1.0000000180025095e-35 -0.52996746075531964 -1.0554186118701352
decision_type=2 2 2 2 2 2 2 2 2 2 2 2 2 2 2 2 2 2 2 2 2 2 2
left_child=1 16 3 8 9 -3 21 -4 15 10 19 12 13 17 -14 -2 -1 -12 22 -5 -21 -6 -11
right_child=2 5 7 4 6 -7 -8 -9 -10 18 11 -13 14 -15 -16 -17 -18 -19 -20 20 -22 -23 -24
leaf_value=2.6741330685691231 1.8113041948198199 7.3160314489390759 -5.3287052693442698 2.3705250930786135 -3.058620844427145 2.521181418940706 -0.31321378806987438 -1.3681120206871811 0.083679545501182825 -1.3651254958198187 -0.67267271967659215 -4.1433096660953934 2.7006000514906279 1.0887618940574688 -0.44602498043014344 5.0183360788843654 -0.10669231969414028 -3.146914614241644 -3.2793523837552208 -0.36207288156641587 1.5348903740776911 -4.8014531929352708 0.060103103785679263
leaf_weight=25 22 29 25 20 21 21 33 39 23 25 34 20 39 36 33 22 28 30 20 20 25 27 23
leaf_count=25 22 29 25 20 21 21 33 39 23 25 34 20 39 36 33 22 28 30 20 20 25 27 23
internal_value=-1.17207e-05 3.2118 -0.617025 -0.303362 -0.731445 5.32028 -2.53501 -2.92702 2.28514 -0.280655 0.0310247 -0.370809 0.0721512 -0.784721 1.26114 3.43029 1.21012 -1.83868 -1.45527 1.21549 0.693902 -4.05484 -0.684767
internal_weight=640 103 537 473 406 50 81 64 67 325 257 192 172 100 72 44 53 64 68 65 45 48 48
internal_count=640 103 537 473 406 50 81 64 67 325 257 192 172 100 72 44 53 64 68 65 45 48 48
is_linear=0
shrinkage=0.01


Tree=6
num_leaves=24
num_cat=0
split_feature=0 0 18 0 6 0 0 0 3 3 5 5 18 6 3 0 3 0 3 0 3 19 3
split_gain=1.24403e+07 4.25682e+06 4.16784e+06 4.58678e+06 4.19099e+06 2.71256e+06 2.34188e+06 1.66011e+06 1.47242e+06 3.32108e+06 1.60237e+06 1.3e+06 1.46933e+06 1.28722e+06 2.578e+06 1.3922e+06 1.18023e+06 1.09609e+06 1.01662e+06 955770 802250 530440 55404.6
threshold=-1.1774128061613613 -1.4266295173562951 1.4869944198713763 1.3879508223627111 -1.0289393363056543 -1.2680370647777008 1.544800500737145 1.2624710796631642 0.32803704131061812 0.15149999892141419 -0.51279311920172366 0.10984563763191724 -1.0834611419102353 0.01323963778224879 -1.2058914316063982 -0.50818751176377741 -0.99414056931751149 1.1335057885552964 -0.65462903637182446 0.18717939569621231 -0.5291778491325051 -1.2284202886037889 0.54819173504172758
decision_type=2 2 2 2 2 2 2 2 2 2 2 2 2 2 2 2 2 2 2 2 2 2 2
left_child=1 21 3 4 7 -3 -5 17 9 10 13 -10 22 16 -15 -16 19 -2 -17 -6 -18 -1 -13
right_child=2 5 -4 6 8 -7 -8 -9 11 -11 -12 12 -14 14 15 18 20 -19 -20 -21 -22 -23 -24
leaf_value=2.378356896821443 1.7933544839395061 7.243372236016679 -4.2849536553311021 -5.2758411704169381 -0.66598540688118735 2.496207272511608 -1.3545006962211763 0.082849888308294886 -3.8268145393144968 3.3578053771124945 -2.6941782979762299 0.49789951530662752 -3.0668677574733518 2.6737319435148823 1.1742312546281626 -0.12476751697474513 1.0779343785238529 4.9686048311800572 -3.1258583233807538 -3.1156539280367213 -1.2195293770127624 0.35061702129168387 -0.21714922005275511
leaf_weight=22 22 29 29 25 34 21 39 23 20 25 28 22 21 39 30 23 36 22 22 30 26 31 21
leaf_count=22 22 29 29 25 34 21 39 23 20 25 28 22 21 39 30 23 36 22 22 30 26 31 21
internal_value=-1.5427e-05 3.17992 -0.610906 -0.399561 -0.0382878 5.26747 -2.89795 2.26249 -0.448166 -0.113154 -0.439203 -1.61366 -0.912271 -0.174094 0.595293 -0.489719 -0.870055 3.3963 -1.59933 -1.82041 0.113642 1.19812 0.149278
internal_weight=640 103 537 508 444 50 64 67 377 293 268 84 64 240 114 75 126 44 45 64 62 53 43
internal_count=640 103 537 508 444 50 64 67 377 293 268 84 64 240 114 75 126 44 45 64 62 53 43
is_linear=0
shrinkage=0.01


Tree=7
num_leaves=24
num_cat=0
split_feature=0 0 18 0 6 0 0 0 3 1 1 1 18 4 1 0 1 0 1 0 1 19 1
split_gain=1.21947e+07 4.1727e+06 4.08544e+06 4.49612e+06 4.10837e+06 2.65888e+06 2.29569e+06 1.62737e+06 1.44339e+06 3.25553e+06 1.57069e+06 1.27438e+06 1.44037e+06 1.26173e+06 2.52701e+06 1.36472e+06 1.15688e+06 1.07448e+06 996573 936880 786391 519983 54312.1
threshold=-1.1774128061613613 -1.4266295173562951 1.4869944198713763 1.3879508223627111 -1.0289393363056543 -1.2680370647777008 1.544800500737145 1.2624710796631642 0.32803704131061812 -0.45918167657132675 -0.63917819781001084 -0.095487202677370556 -1.0834611419102353 -0.0020141697844020521 -1.0545233217078305 -0.50818751176377741 -1.0193494874057702 1.1335057885552964 -0.93430426082372442 0.18717939569621231 -0.89092653115161191 -1.2284202886037889 0.093171694018572185
decision_type=2 2 2 2 2 2 2 2 2 2 2 2 2 2 2 2 2 2 2 2 2 2 2
left_child=1 21 3 4 7 -3 -5 17 9 10 13 -10 22 14 -6 -16 19 -2 -17 -15 -18 -1 -13
right_child=2 5 -4 6 8 -7 -8 -9 11 -11 -12 12 -14 16 15 18 20 -19 -20 -21 -22 -23 -24
leaf_value=2.3547874289160378 1.775582263018634 7.1714345730820757 -4.242397370861001 -5.2235015772259423 2.647130905584413 2.4714806207620872 -1.3410247974006495 0.082028667844575034 -3.7889253042239956 3.324493871567741 -2.6674274330950802 0.49296539298048969 -3.036488449528532 -0.65936438574428446 1.1625667140657538 -0.12353054692005289 1.0672146113274505 4.9193663616008587 -3.0948813422950536 -3.084703664716506 -1.2074272295536888 0.34713327163305041 -0.21499818738901388
leaf_weight=22 22 29 29 25 39 21 39 23 20 25 28 22 21 34 30 23 36 22 22 30 26 31 21
leaf_count=22 22 29 29 25 39 21 39 23 20 25 28 22 21 34 30 23 36 22 22 30 26 31 21
internal_value=-1.7998e-05 3.14836 -0.604847 -0.395601 -0.0379159 5.21518 -2.86918 2.24007 -0.443733 -0.11204 -0.434856 -1.59768 -0.903235 -0.172381 0.58935 -0.484877 -0.861416 3.36264 -1.58348 -1.80233 0.112501 1.18624 0.147798
internal_weight=640 103 537 508 444 50 64 67 377 293 268 84 64 240 114 75 126 44 45 64 62 53 43
internal_count=640 103 537 508 444 50 64 67 377 293 268 84 64 240 114 75 126 44 45 64 62 53 43
is_linear=0
shrinkage=0.01


Tree=8
num_leaves=24
num_cat=0
split_feature=0 0 18 0 6 0 0 0 3 1 1 1 18 4 1 0 1 0 1 0 1 19 1
split_gain=1.19539e+07 4.09024e+06 4.00468e+06 4.40726e+06 4.02737e+06 2.60625e+06 2.25041e+06 1.59528e+06 1.41493e+06 3.19127e+06 1.53963e+06 1.24928e+06 1.41197e+06 1.23675e+06 2.47702e+06 1.33778e+06 1.13399e+06 1.05328e+06 976919 918362 770846 509732 53241.1
threshold=-1.1774128061613613 -1.4266295173562951 1.4869944198713763 1.3879508223627111 -1.0289393363056543 -1.2680370647777008 1.544800500737145 1.2624710796631642 0.32803704131061812 -0.45918167657132675 -0.63917819781001084 -0.095487202677370556 -1.0834611419102353 -0.0020141697844020521 -1.0545233217078305 -0.50818751176377741 -1.0193494874057702 1.1335057885552964 -0.93430426082372442 0.18717939569621231 -0.89092653115161191 -1.2284202886037889 0.093171694018572185
decision_type=2 2 2 2 2 2 2 2 2 2 2 2 2 2 2 2 2 2 2 2 2 2 2
left_child=1 21 3 4 7 -3 -5 17 9 10 13 -10 22 14 -6 -16 19 -2 -17 -15 -18 -1 -13
right_child=2 5 -4 6 8 -7 -8 -9 11 -11 -12 12 -14 16 15 18 20 -19 -20 -21 -22 -23 -24
leaf_value=2.3314518156996717 1.7579865766645555 7.1002115505688828 -4.2002641519128456 -5.1716811764429487 2.6207946710197292 2.4469990741081959 -1.327683008544299 0.081215428648323859 -3.7514111161940167 3.2915128709399513 -2.6409423119294728 0.48808003047565091 -3.0064099916422142 -0.65280938731299498 1.1510179937754246 -0.12230597524807371 1.0566014364674605 4.8706158570985538 -3.0642113962259381 -3.0540608331541352 -1.19544515478702 0.34368421615698402 -0.21286839782067066
leaf_weight=22 22 29 29 25 39 21 39 23 20 25 28 22 21 34 30 23 36 22 22 30 26 31 21
leaf_count=22 22 29 29 25 39 21 39 23 20 25 28 22 21 34 30 23 36 22 22 30 26 31 21
internal_value=-2.05097e-05 3.11712 -0.598847 -0.391681 -0.0375475 5.16342 -2.84069 2.21787 -0.439345 -0.110938 -0.430552 -1.58186 -0.894289 -0.170685 0.583467 -0.480083 -0.852864 3.32932 -1.56779 -1.78442 0.111372 1.17448 0.146333
internal_weight=640 103 537 508 444 50 64 67 377 293 268 84 64 240 114 75 126 44 45 64 62 53 43
internal_count=640 103 537 508 444 50 64 67 377 293 268 84 64 240 114 75 126 44 45 64 62 53 43
is_linear=0
shrinkage=0.01


Tree=9
num_leaves=24
num_cat=0
split_feature=0 0 18 0 6 0 0 0 3 1 1 1 18 4 1 0 1 0 16 1 0 1 1
split_gain=1.17178e+07 4.00941e+06 3.92551e+06 4.32015e+06 3.94797e+06 2.55467e+06 2.20603e+06 1.56382e+06 1.38703e+06 3.12829e+06 1.50919e+06 1.22466e+06 1.38414e+06 1.21226e+06 2.42803e+06 1.31137e+06 1.11156e+06 1.03251e+06 967948 957652 900210 755607 52191.4
threshold=-1.1774128061613613 -1.4266295173562951 1.4869944198713763 1.3879508223627111 -1.0289393363056543 -1.2680370647777008 1.544800500737145 1.2624710796631642 0.32803704131061812 -0.45918167657132675 -0.63917819781001084 -0.095487202677370556 -1.0834611419102353 -0.0020141697844020521 -1.0545233217078305 -0.50818751176377741 -1.0193494874057702 1.1335057885552964 -1.3412530987120539 -0.93430426082372442 0.18717939569621231 -0.89092653115161191 0.093171694018572185
decision_type=2 2 2 2 2 2 2 2 2 2 2 2 2 2 2 2 2 2 2 2 2 2 2
left_child=1 18 3 4 7 -3 -5 17 9 10 13 -10 22 14 -6 -16 20 -2 -1 -17 -15 -18 -13
right_child=2 5 -4 6 8 -7 -8 -9 11 -11 -12 12 -14 16 15 19 21 -19 -20 -21 -22 -23 -24
leaf_value=2.5846891018700977 1.7405651016922685 7.0296956749484973 -4.1585490993930874 -5.1203746335468603 2.5947206084582271 2.4227599838544736 -1.3144739341735838 0.080410165786743162 -3.7142685509672262 3.258858846634153 -2.6147203291223406 0.48324343208794129 -2.9766296136604167 -0.64631949813742384 1.1395839559795051 -0.12109341165115092 1.0460937717079457 4.8223485819498704 -0.11597336586485517 -3.0338453474989882 -3.0237224902222488 -1.1835819587998717 -0.21075988103758614
leaf_weight=25 22 29 29 25 39 21 39 23 20 25 28 22 21 34 30 23 36 22 28 22 30 26 21
leaf_count=25 22 29 29 25 39 21 39 23 20 25 28 22 21 34 30 23 36 22 28 22 30 26 21
internal_value=-2.29753e-05 3.08619 -0.592908 -0.387799 -0.0371828 5.11216 -2.81249 2.1959 -0.434999 -0.109846 -0.426291 -1.5662 -0.885431 -0.169005 0.577642 -0.475336 -0.844396 3.29633 1.16283 -1.55225 -1.76669 0.110253 0.144882
internal_weight=640 103 537 508 444 50 64 67 377 293 268 84 64 240 114 75 126 44 53 45 64 62 43
internal_count=640 103 537 508 444 50 64 67 377 293 268 84 64 240 114 75 126 44 53 45 64 62 43
is_linear=0
shrinkage=0.01


Tree=10
num_leaves=24
num_cat=0
split_feature=2 1 18 1 6 1 4 1 3 1 2 18 13 4 1 18 2 16 1 1 13 2 1
split_gain=1.14864e+07 3.9302e+06 3.84791e+06 4.23477e+06 3.87014e+06 2.5041e+06 2.16252e+06 1.53298e+06 1.35968e+06 3.06654e+06 1.48121e+06 1.21317e+06 1.58112e+06 1.70089e+06 1.20054e+06 1.35685e+06 1.01215e+06 948838 794174 1.66815e+06 1.37464e+06 956741 51162.2
threshold=-0.85676190016504516 1.1601175367573278 1.4869944198713763 1.0461441202180983 -1.0289393363056543 0.6985032661272349 1.6331126539493617 0.6735507210369639 0.32803704131061812 -0.45918167657132675 0.062797294227678532 1.1132006552694493 1.0891330947153735 -0.0020141697844020521 -0.095487202677370556 -1.0834611419102353 0.73076634476067859 -1.3412530987120539 -1.0277758703775206 -1.0545233217078305 0.96664164888877868 -0.085256673246031311 0.093171694018572185
decision_type=2 2 2 2 2 2 2 2 2 2 2 2 2 2 2 2 2 2 2 2 2 2 2
left_child=1 5 3 4 7 -1 -5 16 9 10 11 12 18 -14 -10 22 -2 -3 19 -6 21 -20 -16
right_child=2 17 -4 6 8 -7 -8 -9 14 -11 -12 -13 13 -15 15 -17 -18 -19 20 -21 -22 -23 -24
leaf_value=2.3987609316268057 1.7233160579097166 2.5590475152030825 -4.117248504178165 -5.0695773148915126 -0.32306150578270276 6.959880005300862 -1.3013961496158521 0.079613056840567756 -3.6774935440969938 3.2265287998744419 -2.9587874243394383 1.922723023911153 2.6182016746571519 -0.63989396587449909 0.47845433312493407 -2.9471440451999884 4.7745596079783397 -0.11482190625887391 -0.18140273282252459 -4.2258960414168865 1.5366419528779531 -2.2542846891773278 -0.20867226771588596
leaf_weight=21 22 25 29 25 24 29 39 23 20 25 21 24 30 34 22 21 22 28 50 20 25 40 21
leaf_count=21 22 25 29 25 24 29 39 23 20 25 21 24 30 34 22 21 22 28 50 20 25 40 21
internal_value=-2.59906e-05 3.05555 -0.587027 -0.383956 -0.0368216 5.06142 -2.78457 2.17413 -0.430697 -0.108765 -0.422071 -0.204176 -0.434602 0.890721 -1.55069 -0.876661 3.26366 1.1513 -0.968521 -2.10819 -0.52956 -1.10565 0.143445
internal_weight=640 103 537 508 444 50 64 67 377 293 268 247 223 64 84 64 44 53 159 44 115 90 43
internal_count=640 103 537 508 444 50 64 67 377 293 268 247 223 64 84 64 44 53 159 44 115 90 43
is_linear=0
shrinkage=0.01


Tree=11
num_leaves=24
num_cat=0
split_feature=0 0 18 0 6 0 0 0 17 5 5 4 4 0 5 18 2 0 5 16 0 5 5
split_gain=1.12595e+07 3.85254e+06 3.77185e+06 4.15109e+06 3.79382e+06 2.45454e+06 2.11986e+06 1.50274e+06 1.33289e+06 3.006e+06 1.47186e+06 1.17836e+06 2.33318e+06 1.27119e+06 1.17688e+06 1.3301e+06 1.07341e+06 992186 931532 930105 871727 733924 50153.4
threshold=-1.1774128061613613 -1.4266295173562951 1.4869944198713763 1.3879508223627111 -1.0289393363056543 -1.2680370647777008 1.544800500737145 1.2624710796631642 0.19214901895585268 -0.28665019150945598 -0.51279311920172366 -0.0020141697844020521 -0.13984763011495424 -0.50818751176377741 0.10984563763191724 -1.0834611419102353 -0.0023474671230163187 1.1335057885552964 -0.96287884567393489 -1.3412530987120539 0.18717939569621231 -0.88711300637218504 0.29315079835055241
decision_type=2 2 2 2 2 2 2 2 2 2 2 2 2 2 2 2 2 2 2 2 2 2 2
left_child=1 19 3 4 7 -3 -5 17 14 10 11 12 13 -10 -6 22 20 -2 -15 -1 -13 -18 -16
right_child=2 5 -4 6 8 -7 -8 -9 9 -11 -12 16 -14 18 15 -17 21 -19 -20 -21 -22 -23 -24
leaf_value=2.5336601281544517 1.7062381393845019 6.8907579782564357 -4.0763580901247183 -5.0192838995797295 -3.6410827435597333 2.3749995692271106 -1.2884485688501475 0.078823669367823118 1.1300657008341606 3.1945196463569761 -2.5790782706619155 -0.63353245973587036 2.5496101248994161 -0.10878558175317173 0.4737129466598099 -2.9179506411642397 1.0307553387215125 4.7272439588941966 -2.9814404661161404 -0.1136818116100122 -2.9729995090914088 -1.1666956975805851 -0.20660511520673644
leaf_weight=25 22 29 29 25 20 21 39 23 30 25 28 34 39 23 22 21 36 22 22 28 30 26 21
leaf_count=25 22 29 29 25 20 21 39 23 30 25 28 34 39 23 22 21 36 22 22 28 30 26 21
internal_value=-2.49469e-05 3.02523 -0.5812 -0.380145 -0.0364581 5.01118 -2.75692 2.15259 -0.426431 -0.107687 -0.417884 -0.163803 0.572328 -0.459891 -1.53533 -0.867977 -0.829687 3.23132 -1.52019 1.13988 -1.73602 0.108439 0.142023
internal_weight=640 103 537 508 444 50 64 67 377 293 268 240 114 75 84 64 126 44 45 53 64 62 43
internal_count=640 103 537 508 444 50 64 67 377 293 268 240 114 75 84 64 126 44 45 53 64 62 43
is_linear=0
shrinkage=0.01


Tree=12
num_leaves=24
num_cat=0
split_feature=0 0 18 0 6 0 0 0 17 1 1 6 1 0 1 18 1 0 1 16 0 1 1
split_gain=1.10371e+07 3.77643e+06 3.69729e+06 4.06904e+06 3.71902e+06 2.40596e+06 2.07805e+06 1.47311e+06 1.30661e+06 2.94667e+06 1.44276e+06 1.15503e+06 2.28702e+06 1.24609e+06 1.1537e+06 1.30388e+06 1.05218e+06 972618 913161 911741 854498 719416 49164.4
threshold=-1.1774128061613613 -1.4266295173562951 1.4869944198713763 1.3879508223627111 -1.0289393363056543 -1.2680370647777008 1.544800500737145 1.2624710796631642 0.19214901895585268 -0.45918167657132675 -0.63917819781001084 0.01323963778224879 -1.0545233217078305 -0.50818751176377741 -0.095487202677370556 -1.0834611419102353 -1.0193494874057702 1.1335057885552964 -0.93430426082372442 -1.3412530987120539 0.18717939569621231 -0.89092653115161191 0.093171694018572185
decision_type=2 2 2 2 2 2 2 2 2 2 2 2 2 2 2 2 2 2 2 2 2 2 2
left_child=1 19 3 4 7 -3 -5 17 14 10 11 16 -13 -14 -6 22 20 -2 -15 -1 -10 -18 -16
right_child=2 5 -4 6 8 -7 -8 -9 9 -11 -12 12 13 18 15 -17 21 -19 -20 -21 -22 -23 -24
leaf_value=2.5085244097028458 1.6893295590512389 6.8223224242746019 -4.0358736775999198 -4.9694893861195402 -3.6050325022593581 2.3514736240314984 -1.2756298470010561 0.078042348664382408 -0.62723426491893519 3.1628281329926988 -2.5534703134306778 2.5242441105356019 1.1188399008251975 -0.10770707229088095 0.4690185887963923 -2.8890463362999679 1.0205047034163501 4.6803975038270691 -2.9518946219779347 -0.11255306568551569 -2.9434665245409835 -1.1551178176530446 -0.20455862324192839
leaf_weight=25 22 29 29 25 20 21 39 23 34 25 28 39 30 23 22 21 36 22 22 28 30 26 21
leaf_count=25 22 29 29 25 20 21 39 23 34 25 28 39 30 23 22 21 36 22 22 28 30 26 21
internal_value=-2.78776e-05 2.9952 -0.575435 -0.376378 -0.036104 4.96144 -2.72955 2.13126 -0.422213 -0.106627 -0.413748 -0.162192 0.566615 -0.455344 -1.52013 -0.85938 -0.821449 3.1993 -1.50513 1.12857 -1.71877 0.10735 0.140615
internal_weight=640 103 537 508 444 50 64 67 377 293 268 240 114 75 84 64 126 44 45 53 64 62 43
internal_count=640 103 537 508 444 50 64 67 377 293 268 240 114 75 84 64 126 44 45 53 64 62 43
is_linear=0
shrinkage=0.01


Tree=13
num_leaves=24
num_cat=0
split_feature=0 0 0 6 0 1 0 0 0 1 13 1 4 1 1 0 0 16 0 1 13 0 0
split_gain=1.08191e+07 3.70181e+06 3.31631e+06 4.47399e+06 2.73678e+06 2.58247e+06 2.35834e+06 2.03707e+06 1.44406e+06 1.15303e+06 1.15237e+06 2.94465e+06 1.53614e+06 1.70154e+06 1.47402e+06 953435 929646 893740 837608 365992 400749 270774 209931
threshold=-1.1774128061613613 -1.4266295173562951 1.3879508223627111 -1.0289393363056543 0.53921978493660816 -0.34886244579167192 -1.2680370647777008 1.544800500737145 1.2624710796631642 -0.37803233029641703 0.83777447225592749 -0.89092653115161191 -0.0020141697844020521 -1.0193494874057702 -1.0545233217078305 1.1335057885552964 -0.96305157904963523 -1.3412530987120539 0.18717939569621231 -0.76918997148999457 0.59228014270878415 0.73789604421089094 -1.0554186118701352
decision_type=2 2 2 2 2 2 2 2 2 2 2 2 2 2 2 2 2 2 2 2 2 2 2
left_child=1 17 3 8 9 21 -3 -4 15 10 19 12 14 18 -12 -2 22 -1 -14 -5 -21 -6 -11
right_child=2 6 7 4 5 -7 -8 -9 -10 16 11 -13 13 -15 -16 -17 -18 -19 -20 20 -22 -23 -24
leaf_value=2.4836383298843625 1.6725886054511543 6.7545662352156972 -4.9201889501299183 2.3102238173059897 -3.0534551862177954 -0.16130819572741725 2.3281807298480341 -1.2629385924825862 0.077268543901114636 -1.2908365557685733 2.4991304364496343 -3.959852418049727 -0.62099860994439371 1.0103560153687199 -0.36715750734490088 4.6340150946539804 -3.2214787806142677 -0.11143546692868496 -2.9142267184225927 1.5239502431475926 -0.36876906895401457 -4.632157435460134 0.03015394597217955
leaf_weight=25 22 29 25 20 26 33 21 39 23 25 39 20 34 36 33 22 20 28 30 25 20 22 23
leaf_count=25 22 29 25 20 26 33 21 39 23 25 39 20 34 36 33 22 20 28 30 25 20 22 23
internal_value=-3.07706e-05 2.96547 -0.569728 -0.280135 -0.675436 -2.31763 4.91219 -2.70244 2.11014 -0.264973 0.0417313 -0.348005 0.0760823 -0.725279 1.18802 3.16759 -1.42087 1.11737 -1.70169 1.19051 0.68481 -3.79327 -0.660343
internal_weight=640 103 537 473 406 81 50 64 67 325 257 192 172 100 72 44 68 53 64 65 45 48 48
internal_count=640 103 537 473 406 81 50 64 67 325 257 192 172 100 72 44 68 53 64 65 45 48 48
is_linear=0
shrinkage=0.01


Tree=14
num_leaves=24
num_cat=0
split_feature=0 0 18 0 6 0 0 0 3 1 1 1 18 4 1 0 1 0 1 16 0 1 1
split_gain=1.06055e+07 3.62867e+06 3.55139e+06 3.90967e+06 3.57396e+06 2.31166e+06 1.99689e+06 1.41558e+06 1.27062e+06 2.89388e+06 1.41603e+06 1.12189e+06 1.27945e+06 1.10542e+06 2.19805e+06 1.20011e+06 1.01644e+06 934632 882866 876095 821053 683827 46702.6
threshold=-1.1774128061613613 -1.4266295173562951 1.4869944198713763 1.3879508223627111 -1.0289393363056543 -1.2680370647777008 1.544800500737145 1.2624710796631642 0.32803704131061812 -0.45918167657132675 -0.63917819781001084 -0.095487202677370556 -1.0834611419102353 -0.0020141697844020521 -1.0545233217078305 -0.50818751176377741 -1.0193494874057702 1.1335057885552964 -0.93430426082372442 -1.3412530987120539 0.18717939569621231 -0.89092653115161191 0.093171694018572185
decision_type=2 2 2 2 2 2 2 2 2 2 2 2 2 2 2 2 2 2 2 2 2 2 2
left_child=1 19 3 4 7 -3 -5 17 9 10 13 -10 22 14 -6 -16 20 -2 -17 -1 -15 -18 -13
right_child=2 5 -4 6 8 -7 -8 -9 11 -11 -12 12 -14 16 15 18 21 -19 -20 -21 -22 -23 -24
leaf_value=2.4589990609789654 1.6560133059389959 6.6874834003187207 -3.9555526003119064 -4.8713775083753799 2.4742666590943627 2.3051187220159566 -1.2503736375302683 0.07650253953604863 -3.5525925205898758 3.1372927432590059 -2.5269066365559896 0.46553641413783176 -2.8556338932829086 -0.61482486925975621 1.0980825937820586 -0.10299938584196157 1.0003083514640343 4.5880925317712737 -2.8995831560014604 -0.11032893958666647 -2.8852774027641241 -1.1208217498546338 -0.19099189893254692
leaf_weight=25 22 29 29 25 39 21 39 23 20 25 28 22 21 34 30 23 36 22 22 28 30 26 21
leaf_count=25 22 29 29 25 39 21 39 23 20 25 28 22 21 34 30 23 36 22 22 28 30 26 21
internal_value=-3.53205e-05 2.93604 -0.564079 -0.368989 -0.035445 4.86343 -2.67561 2.08923 -0.413949 -0.102741 -0.407101 -1.49664 -0.845071 -0.157888 0.555096 -0.446785 -0.802835 3.1362 -1.47702 1.10629 -1.68479 0.110042 0.145483
internal_weight=640 103 537 508 444 50 64 67 377 293 268 84 64 240 114 75 126 44 45 53 64 62 43
internal_count=640 103 537 508 444 50 64 67 377 293 268 84 64 240 114 75 126 44 45 53 64 62 43
is_linear=0
shrinkage=0.01


Tree=15
num_leaves=24
num_cat=0
split_feature=0 0 18 0 6 0 0 0 3 1 1 1 18 6 1 0 1 0 1 16 0 1 1
split_gain=1.0396e+07 3.55698e+06 3.48118e+06 3.8324e+06 3.5035e+06 2.26591e+06 1.9575e+06 1.38766e+06 1.24557e+06 2.83676e+06 1.38803e+06 1.09978e+06 1.25422e+06 1.08353e+06 2.15457e+06 1.17642e+06 996332 916198 865454 858798 804825 670308 45781.7
threshold=-1.1774128061613613 -1.4266295173562951 1.4869944198713763 1.3879508223627111 -1.0289393363056543 -1.2680370647777008 1.544800500737145 1.2624710796631642 0.32803704131061812 -0.45918167657132675 -0.63917819781001084 -0.095487202677370556 -1.0834611419102353 0.01323963778224879 -1.0545233217078305 -0.50818751176377741 -1.0193494874057702 1.1335057885552964 -0.93430426082372442 -1.3412530987120539 0.18717939569621231 -0.89092653115161191 0.093171694018572185
decision_type=2 2 2 2 2 2 2 2 2 2 2 2 2 2 2 2 2 2 2 2 2 2 2
left_child=1 19 3 4 7 -3 -5 17 9 10 13 -10 22 16 -15 -16 20 -2 -17 -1 -6 -18 -13
right_child=2 5 -4 6 8 -7 -8 -9 11 -11 -12 12 -14 14 15 18 21 -19 -20 -21 -22 -23 -24
leaf_value=2.4346042854066878 1.6396023683290224 6.6210665122776824 -3.9162679320818756 -4.8230505498250329 -0.60871254403340191 2.2822848258828219 -1.2379337559914101 0.075744263221477648 -3.5174182210346259 3.106168746342735 -2.5018169424719843 0.46092298026557443 -2.827346964782139 2.4496501451609083 1.087174419287025 -0.10197830864067736 0.99036050617365545 4.5426248457625107 -2.8708485330117712 -0.1092336020232938 -2.856615710226905 -1.1096991001740668 -0.18910002636459639
leaf_weight=25 22 29 29 25 34 21 39 23 20 25 28 22 21 39 30 23 36 22 22 28 30 26 21
leaf_count=25 22 29 29 25 34 21 39 23 20 25 28 22 21 39 30 23 36 22 22 28 30 26 21
internal_value=-3.81113e-05 2.9069 -0.558484 -0.365332 -0.0351007 4.81515 -2.64905 2.06852 -0.409855 -0.101731 -0.403072 -1.48182 -0.836701 -0.156335 0.549555 -0.442368 -0.794864 3.10512 -1.46238 1.09531 -1.66805 0.108938 0.144041
internal_weight=640 103 537 508 444 50 64 67 377 293 268 84 64 240 114 75 126 44 45 53 64 62 43
internal_count=640 103 537 508 444 50 64 67 377 293 268 84 64 240 114 75 126 44 45 53 64 62 43
is_linear=0
shrinkage=0.01


Tree=16
num_leaves=24
num_cat=0
split_feature=2 2 18 2 6 3 4 2 3 3 2 18 15 4 5 18 2 16 3 3 15 2 3
split_gain=1.01907e+07 3.4867e+06 3.41236e+06 3.75665e+06 3.43443e+06 2.22106e+06 1.9189e+06 1.36029e+06 1.22101e+06 2.78077e+06 1.36356e+06 1.18662e+06 1.42421e+06 1.51087e+06 1.07812e+06 1.2295e+06 898129 841843 728364 1.58564e+06 1.29642e+06 883460 44879
threshold=-0.85676190016504516 -1.5102338998028293 1.4869944198713763 1.3564938070583386 -1.0289393363056543 0.79430059147198573 1.6331126539493617 1.0164424730137269 0.32803704131061812 0.15149999892141419 0.062797294227678532 1.1132006552694493 1.1046990026010692 -0.0020141697844020521 0.10984563763191724 -1.0834611419102353 0.73076634476067859 -1.3412530987120539 -1.0390749642272901 -1.2058914316063982 0.97623175111951066 -0.085256673246031311 0.54819173504172758
decision_type=2 2 2 2 2 2 2 2 2 2 2 2 2 2 2 2 2 2 2 2 2 2 2
left_child=1 17 3 4 7 -3 -5 16 9 10 11 12 18 -14 -10 22 -2 -1 19 -6 21 -20 -16
right_child=2 5 -4 6 8 -7 -8 -9 14 -11 -12 -13 13 -15 15 -17 -18 -19 20 -21 -22 -23 -24
leaf_value=2.4104514857700892 1.6233539368225649 2.2596775011746391 -3.8773735295909724 -4.7752026324801982 -0.2760076185494415 6.5553093552262816 -1.2256174297722016 0.074993215100518595 -3.4825923463613679 3.0753535279773532 -2.8329725474231644 1.9134618169611151 2.4680515814774875 -0.60266112806155669 0.45635522009016155 -2.7993402060022889 4.4976079057573193 -0.10814895508137155 -0.175599253627646 -4.0807148047721036 1.5022414125714985 -2.1675211750215557 -0.1872268849498821
leaf_weight=25 22 21 29 25 24 29 39 23 20 25 21 24 30 34 22 21 22 28 50 20 25 40 21
leaf_count=25 22 21 29 25 24 29 39 23 20 25 21 24 30 34 22 21 22 28 50 20 25 40 21
internal_value=-4.07832e-05 2.87805 -0.552945 -0.361711 -0.0347597 4.76735 -2.62275 2.04802 -0.405802 -0.10073 -0.399082 -0.190024 -0.417924 0.839924 -1.46714 -0.828413 3.07435 1.08445 -0.924653 -2.01608 -0.504279 -1.06375 0.142613
internal_weight=640 103 537 508 444 50 64 67 377 293 268 247 223 64 84 64 44 53 159 44 115 90 43
internal_count=640 103 537 508 444 50 64 67 377 293 268 247 223 64 84 64 44 53 159 44 115 90 43
is_linear=0
shrinkage=0.01


Tree=17
num_leaves=24
num_cat=0
split_feature=0 1 18 0 6 0 0 3 1 1 1 18 4 1 0 1 0 1 0 1 1 1 1
split_gain=9.98942e+06 3.44601e+06 3.34491e+06 3.68242e+06 3.3667e+06 1.88105e+06 1.33346e+06 1.19695e+06 2.72587e+06 1.35363e+06 1.05688e+06 1.20526e+06 1.05358e+06 2.07e+06 1.14022e+06 961678 880416 841736 779179 664130 651004 436174 43994
threshold=-1.1774128061613613 0.95212556286997507 1.4869944198713763 1.3879508223627111 -1.0289393363056543 1.544800500737145 1.2624710796631642 0.32803704131061812 -0.45918167657132675 -0.63917819781001084 -0.095487202677370556 -1.0834611419102353 -0.0020141697844020521 -1.0545233217078305 -0.50818751176377741 -1.0193494874057702 1.1335057885552964 -0.93430426082372442 0.18717939569621231 1.6612651468014652 -0.89092653115161191 1.2540792449755054 0.093171694018572185
decision_type=2 2 2 2 2 2 2 2 2 2 2 2 2 2 2 2 2 2 2 2 2 2 2
left_child=1 -1 3 4 6 -5 16 8 9 12 -9 22 13 -6 -15 18 -2 -16 -14 21 -17 -3 -12
right_child=2 19 -4 5 7 -7 -8 10 -10 -11 11 -13 15 14 17 20 -18 -19 -20 -21 -22 -23 -24
leaf_value=5.2345955000872388 1.6072665783306501 1.1897971200043302 -3.838865299878055 -4.727829744853671 2.4070242371851083 -1.2134239835155252 0.074249824326613853 -3.4481112359301882 3.0448442528739812 -2.4676939992701752 0.45183286426303626 -2.7716109088681775 -0.59666976009196004 1.0781191061184872 -0.090348934880618403 0.97547383556049827 4.4530370103990711 -2.8209187371881161 -2.8084481265844885 0.1198977219762881 -1.0941244075862506 3.2661929547904744 -0.18537214944947442
leaf_weight=38 22 21 29 25 39 39 23 20 25 28 22 21 34 30 23 36 22 22 30 24 26 20 21
leaf_count=38 22 21 29 25 39 39 23 20 25 28 22 21 34 30 23 36 22 22 30 24 26 20 21
internal_value=-3.96362e-05 2.84949 -0.547456 -0.358122 -0.0344166 -2.59671 2.02773 -0.401782 -0.0997305 -0.395123 -1.45262 -0.820208 -0.151466 0.544598 -0.427677 -0.781111 3.04389 -1.43189 -1.63898 1.44332 0.106834 2.21364 0.141199
internal_weight=640 103 537 508 444 64 67 377 293 268 84 64 240 114 75 126 44 45 64 65 62 41 43
internal_count=640 103 537 508 444 64 67 377 293 268 84 64 240 114 75 126 44 45 64 65 62 41 43
is_linear=0
shrinkage=0.01


Tree=18
num_leaves=24
num_cat=0
split_feature=6 1 0 6 0 1 0 0 0 13 4 1 1 6 1 0 1 0 0 1 1 1 0
split_gain=9.80972e+06 5.26042e+06 3.08668e+06 3.93169e+06 2.55302e+06 2.47481e+06 1.84395e+06 1.30717e+06 863052 853464 1.45206e+06 1.2259e+06 1.54517e+06 1.06069e+06 651043 624629 1.21117e+06 1.20944e+06 483053 427582 349824 325521 244174
threshold=1.2296960322861992 0.95212556286997507 1.3879508223627111 -1.0289393363056543 0.53921978493660816 -0.34886244579167192 1.544800500737145 1.2624710796631642 1.1335057885552964 1.0891330947153735 -0.0020141697844020521 -1.0277758703775206 -1.0545233217078305 0.33391009134771821 1.6612651468014652 -0.50818751176377741 -0.37803233029641703 -0.96305157904963523 -0.68595048058813568 1.2540792449755054 0.23205439714723161 -0.96474688416415733 0.73789604421089094
decision_type=2 2 2 2 2 2 2 2 2 2 2 2 2 2 2 2 2 2 2 2 2 2 2
left_child=2 -2 3 7 9 22 -4 8 -1 11 -11 12 -5 21 19 16 18 20 -15 -3 -18 -13 -6
right_child=1 14 6 4 5 -7 -8 -9 -10 10 -12 13 -14 15 -16 -17 17 -19 -20 -21 -22 -23 -24
leaf_value=1.5913386466911248 6.6072086626418107 1.1780115192341356 -4.6809267219664559 -0.26481445816922777 -2.9313122663425122 -0.079641522959054231 -1.201351665574677 0.073513745603890263 4.4089078569841815 2.4196236081154932 -0.59073790553020455 2.0559819053423287 -4.0205788217676748 1.8387638027977398 0.11870862881999371 -1.7584549194783492 -0.96100328792225231 -3.1762662521211231 0.03176124696145978 3.2338542666293608 0.62115233289784411 0.45805566917766222 -4.4317769206966364
leaf_weight=22 28 21 25 24 26 33 39 23 22 30 34 20 20 26 24 34 35 20 34 20 23 35 22
leaf_count=22 28 21 25 24 26 33 39 23 22 30 34 20 20 26 24 34 35 20 34 20 23 35 22
internal_value=-4.59619e-05 2.99889 -0.510832 -0.236906 -0.599199 -2.19005 -2.57092 2.00763 3.01372 -0.213466 0.823495 -0.458788 -1.98247 -0.161959 1.42903 -0.54851 -0.248287 -1.06876 0.81832 2.19172 -0.333601 1.04448 -3.63458
internal_weight=640 93 547 483 416 81 64 67 44 335 64 271 44 227 65 172 138 78 60 41 58 55 48
internal_count=640 93 547 483 416 81 64 67 44 335 64 271 44 227 65 172 138 78 60 41 58 55 48
is_linear=0
shrinkage=0.01


Tree=19
num_leaves=25
num_cat=0
split_feature=6 1 18 0 6 0 0 0 0 13 6 1 1 18 13 1 1 0 0 1 0 1 0 1
split_gain=9.61604e+06 5.1564e+06 3.27097e+06 3.62231e+06 3.14e+06 1.80758e+06 1.28139e+06 1.10996e+06 846031 824076 1.42335e+06 1.21325e+06 1.51473e+06 1.17622e+06 1.14722e+06 1.15294e+06 770490 1.44424e+06 788034 638214 473514 419159 287512 86561.8
threshold=1.2296960322861992 0.95212556286997507 1.4869944198713763 1.3879508223627111 -1.0289393363056543 1.544800500737145 1.2624710796631642 0.87906075474788137 1.1335057885552964 1.0891330947153735 0.01323963778224879 -1.0277758703775206 -1.0545233217078305 -0.99706972362691859 0.62485257500090774 -0.89092653115161191 -0.37803233029641703 -0.50818751176377741 -0.96305157904963523 1.6612651468014652 -0.68595048058813568 1.2540792449755054 -1.0554186118701352 -0.96474688416415733
decision_type=2 2 2 2 2 2 2 2 2 2 2 2 2 2 2 2 2 2 2 2 2 2 2 2
left_child=2 -2 3 4 6 -5 8 9 -1 11 -11 12 -6 16 -15 23 17 20 22 21 -13 -3 -18 -16
right_child=1 19 -4 5 7 -7 -8 -9 -10 10 -12 13 -14 14 15 -17 18 -19 -20 -21 -22 -23 -24 -25
leaf_value=1.5755688256615992 6.5416048842626262 1.1663425618297649 -3.7622755502674678 -4.6344887379237587 -0.26218803594920259 -1.1893993315404774 0.072784775043356009 -2.383326403072902 4.3652159228625598 -0.58486508856739916 2.395587491483878 1.8205166235770887 -3.9807712547377787 2.7629107971911164 1.4705637123471216 -1.5161658085093777 -1.4952409053199431 -1.8999948077291657 -3.1448180691558538 0.11753141166750064 0.031445403377912198 3.201835679724665 0.023424505529732537 0.60288305127942887
leaf_weight=22 28 21 29 25 24 39 23 25 22 34 30 26 20 21 25 27 27 29 20 24 34 20 23 22
leaf_count=22 28 21 29 25 24 39 23 25 22 34 30 26 20 21 25 27 27 29 20 24 34 20 23 22
internal_value=-4.37782e-05 2.96914 -0.505762 -0.322064 -0.00765758 -2.5454 1.98774 -0.353965 2.98386 -0.212574 0.815317 -0.433731 -1.96284 -0.167506 0.711945 0.124023 -0.693205 -0.0751668 -1.47653 1.41487 0.810199 2.17001 -0.799325 1.06871
internal_weight=640 93 547 518 454 64 67 387 44 362 64 298 44 254 95 74 159 89 70 65 60 41 50 47
internal_count=640 93 547 518 454 64 67 387 44 362 64 298 44 254 95 74 159 89 70 65 60 41 50 47
is_linear=0
shrinkage=0.01


Tree=20
num_leaves=25
num_cat=0
split_feature=6 1 1 6 2 1 7 1 2 2 1 1 6 2 1 1 2 1 2 1 1 1 1 1
split_gain=9.42618e+06 5.05444e+06 2.9659e+06 3.77812e+06 2.46124e+06 2.4175e+06 1.77193e+06 1.25612e+06 831803 1.14646e+06 1.61373e+06 1.86469e+06 1.03867e+06 829345 782886 625639 444956 1.16406e+06 1.16208e+06 818265 464162 410902 340812 229292
threshold=1.2296960322861992 0.95212556286997507 1.0461441202180983 -1.0289393363056543 0.062797294227678532 -0.34886244579167192 1.5514637676103085 0.6735507210369639 0.017700997242760641 -0.016319175772250245 -1.0545233217078305 -1.1114632773558724 0.01323963778224879 0.73076634476067859 -1.0193494874057702 1.6612651468014652 -0.085256673246031311 -0.37803233029641703 -0.47691100994925778 -0.93430426082372442 -0.59789992022602656 1.2540792449755054 0.23205439714723161 -0.50973433664874579
decision_type=2 2 2 2 2 2 2 2 2 2 2 2 2 2 2 2 2 2 2 2 2 2 2 2
left_child=2 -2 3 7 8 23 -4 13 9 10 11 12 -5 -1 -11 21 17 20 22 -18 -12 -3 -19 -6
right_child=1 15 6 4 5 -7 -8 -9 -10 14 16 -13 -14 -15 -16 -17 19 18 -20 -21 -22 -23 -24 -25
leaf_value=1.5599549707636104 6.476652851645829 1.1547890386041606 -4.588511792970082 -1.3248562873540255 -2.8943231911695642 -0.063630038686545487 -1.1775661639777979 0.072063216834232724 1.5023617833261274 -2.4262879056346658 0.031132759692376118 3.743664395989112 1.7766233719929612 4.3219569534439222 -0.10132261407786404 0.11636567959115525 -0.064701500082838134 -0.94650349113074217 -3.1136811617105313 -2.7567087768004819 1.8024504648456137 3.1701345747768288 0.61513452464136598 -4.3505747350056962
leaf_weight=22 28 21 25 23 26 33 39 23 26 39 34 21 20 22 23 24 23 35 20 22 26 20 23 22
leaf_count=22 28 21 25 23 26 33 39 23 26 39 34 21 20 22 23 24 23 35 20 22 26 20 23 22
internal_value=-3.92478e-05 2.93969 -0.50074 -0.232227 -0.587374 -2.14937 -2.52013 1.96804 -0.208639 -0.353488 -0.0478779 1.31646 0.119216 2.95429 -1.56692 1.40086 -0.525946 -0.243497 -1.04785 -1.38719 0.802159 2.14853 -0.32723 -3.57708
internal_weight=640 93 547 483 416 81 64 67 335 309 247 64 43 44 62 65 183 138 78 45 60 41 58 48
internal_count=640 93 547 483 416 81 64 67 335 309 247 64 43 44 62 65 183 138 78 45 60 41 58 48
is_linear=0
shrinkage=0.01


Tree=21
num_leaves=25
num_cat=0
split_feature=6 1 18 0 6 0 0 13 4 1 1 1 13 0 0 1 0 1 1 1 1 6 1 1
split_gain=9.24004e+06 4.95449e+06 3.14672e+06 3.41032e+06 3.09488e+06 1.73698e+06 1.23134e+06 1.06129e+06 1.36017e+06 905715 1.47209e+06 1.08596e+06 2.11768e+06 1.08597e+06 1.00221e+06 1.60528e+06 812988 703521 613310 459916 402807 343940 214396 202869
threshold=1.2296960322861992 0.95212556286997507 1.4929124714025408 1.3879508223627111 -1.0289393363056543 1.544800500737145 1.2624710796631642 1.0891330947153735 -0.0020141697844020521 -1.0277758703775206 -1.0545233217078305 -0.89092653115161191 0.83777447225592749 0.87906075474788137 -0.72429151307966377 -0.59789992022602656 1.1335057885552964 -0.095487202677370556 1.6612651468014652 -0.78673423035724199 1.2540792449755054 0.33391009134771821 -0.96474688416415733 0.23205439714723161
decision_type=2 2 2 2 2 2 2 2 2 2 2 2 2 2 2 2 2 2 2 2 2 2 2 2
left_child=2 -2 3 4 6 -5 16 9 -9 10 -6 21 13 14 17 19 -1 -13 20 -16 -3 22 -11 -19
right_child=1 18 -4 5 7 -7 -8 8 -10 11 -12 12 -14 -15 15 -17 -18 23 -20 -21 -22 -23 -24 -25
leaf_value=1.5444962262677717 6.4123457805146575 1.1433501218399913 -4.0998378451117148 -4.5429909049140083 -0.25847161285148179 -1.1658505669418646 0.071349062755190096 2.3476284909406244 -0.56594511627628086 2.0231291281822887 -3.9243496386839611 -1.8501998722309967 -3.8147926020858312 -2.3590509594054447 0.97948843135692121 2.9116344741295128 4.2791267611529378 -0.58889443107731432 0.11521183612918065 -0.91369429024783044 3.138747035111531 -0.26205362571252361 0.58852173676361919 0.60903625422510621
leaf_weight=22 28 21 23 25 24 39 23 30 34 20 20 39 20 25 20 23 22 36 24 35 20 22 22 23
leaf_count=22 28 21 23 25 24 39 23 30 34 20 20 39 20 25 20 23 22 36 24 35 20 22 22 23
internal_value=-3.08811e-05 2.91053 -0.495763 -0.336064 -0.0347193 -2.4951 1.94854 -0.373653 0.802836 -0.602866 -1.93502 -0.395984 -0.728076 -0.417449 -0.139283 0.705544 2.92501 -0.811774 1.38699 -0.224192 2.12725 0.749452 1.27804 -0.121408
internal_weight=640 93 547 524 460 64 67 393 64 329 44 285 221 201 176 78 44 98 65 55 41 64 42 59
internal_count=640 93 547 524 460 64 67 393 64 329 44 285 221 201 176 78 44 98 65 55 41 64 42 59
is_linear=0
shrinkage=0.01


Tree=22
num_leaves=25
num_cat=0
split_feature=6 3 18 0 6 0 0 0 0 13 4 3 3 18 13 3 3 0 0 3 0 3 0 3
split_gain=9.05758e+06 4.85652e+06 3.09945e+06 3.41353e+06 2.95597e+06 1.70272e+06 1.20706e+06 1.07037e+06 796954 778153 1.33328e+06 1.1628e+06 1.44309e+06 1.12375e+06 1.11842e+06 1.10114e+06 746041 1.37262e+06 745131 601225 457304 394872 287606 85004.5
threshold=1.2296960322861992 0.86767263583317833 1.4869944198713763 1.3879508223627111 -1.0289393363056543 1.544800500737145 1.2624710796631642 0.87906075474788137 1.1335057885552964 1.0891330947153735 -0.0020141697844020521 -1.0390749642272901 -1.2058914316063982 -0.99706972362691859 0.62485257500090774 -0.5291778491325051 0.21779845355995828 -0.50818751176377741 -0.96305157904963523 1.0176012570034294 -0.68595048058813568 0.93994140851545394 -1.0554186118701352 -0.7581476809488592
decision_type=2 2 2 2 2 2 2 2 2 2 2 2 2 2 2 2 2 2 2 2 2 2 2 2
left_child=2 -2 3 4 6 -5 8 9 -1 11 -11 12 -6 16 -15 23 17 20 22 21 -13 -3 -18 -16
right_child=1 19 -4 5 7 -7 -8 -9 -10 10 -12 13 -14 14 15 -17 18 -19 -20 -21 -22 -23 -24 -25
leaf_value=1.5291903411590304 6.3486771385804994 1.1320244512018167 -3.6608222329126647 -4.4979213649886001 -0.25590830653166968 -1.1542514884715176 0.070641581107830184 -2.3356476921505398 4.2367209934543917 2.3243076995390139 -0.56031871733261129 1.7920192159405191 -3.8854945826766518 2.7264142461092966 1.4422205661592031 -1.4820606141931871 -1.4803755942162347 -1.8429973241890947 -3.0651582351533495 0.11406908839202125 0.033817623623630458 3.107670146828831 0.038413858167056385 0.58268965575072151
leaf_weight=22 28 21 29 25 24 39 23 25 22 30 34 26 20 21 25 27 27 29 20 24 34 20 23 22
leaf_count=22 28 21 29 25 24 39 23 25 22 30 34 26 20 21 25 27 27 29 20 24 34 20 23 22
internal_value=-2.4856e-05 2.88165 -0.490839 -0.312022 -0.00681121 -2.47033 1.92923 -0.342817 2.89602 -0.203974 0.794863 -0.418882 -1.91586 -0.158256 0.701351 0.120857 -0.6721 -0.0639692 -1.44289 1.37326 0.799144 2.10619 -0.784343 1.04408
internal_weight=640 93 547 518 454 64 67 387 44 362 64 298 44 254 95 74 159 89 70 65 60 41 50 47
internal_count=640 93 547 518 454 64 67 387 44 362 64 298 44 254 95 74 159 89 70 65 60 41 50 47
is_linear=0
shrinkage=0.01


Tree=23
num_leaves=25
num_cat=0
split_feature=6 1 1 6 2 1 7 1 2 2 1 1 6 2 1 1 2 1 2 1 1 1 1 1
split_gain=8.87874e+06 4.76048e+06 2.79356e+06 3.5589e+06 2.34879e+06 2.36015e+06 1.66913e+06 1.18325e+06 820044 1.11568e+06 1.53153e+06 1.82479e+06 980472 781237 729665 589378 420373 1.11821e+06 1.1032e+06 788116 448273 387093 326977 199071
threshold=1.2296960322861992 0.95212556286997507 1.0461441202180983 -1.0289393363056543 0.062797294227678532 -0.34886244579167192 1.5514637676103085 0.6735507210369639 0.017700997242760641 -0.016319175772250245 -1.0545233217078305 -1.1114632773558724 0.01323963778224879 0.73076634476067859 -1.0193494874057702 1.6612651468014652 -0.085256673246031311 -0.37803233029641703 -0.47691100994925778 -0.93430426082372442 -0.59789992022602656 1.2540792449755054 0.23205439714723161 -0.50973433664874579
decision_type=2 2 2 2 2 2 2 2 2 2 2 2 2 2 2 2 2 2 2 2 2 2 2 2
left_child=2 -2 3 7 8 23 -4 13 9 10 11 12 -5 -1 -11 21 17 20 22 -18 -12 -3 -19 -6
right_child=1 15 6 4 5 -7 -8 -9 -10 14 16 -13 -14 -15 -16 -17 19 18 -20 -21 -22 -23 -24 -25
leaf_value=1.5140360060683244 6.2856402954818522 1.1208110622190082 -4.453299158522416 -1.3005563815194987 -2.8664031714519473 -0.035271871061210172 -1.1427678873101057 0.069941294768760959 1.4987742003229738 -2.3705864337086675 0.033481418222014663 3.6877896125698988 1.7127760039225663 4.1947356260145039 -0.12577319901565026 0.11293780523883409 -0.047522564139859433 -0.92644113854928456 -3.0348101806640626 -2.6893251291910811 1.7742359272032291 3.0769011574924581 0.60316836685969921 -4.2305531709688209
leaf_weight=22 28 21 25 23 26 33 39 23 26 39 34 21 20 22 23 24 23 35 20 22 26 20 23 22
leaf_count=22 28 21 25 23 26 33 39 23 26 39 34 21 20 22 23 24 23 35 20 22 26 20 23 22
internal_value=-2.06353e-05 2.85307 -0.485965 -0.225369 -0.570059 -2.09595 -2.4458 1.91011 -0.200079 -0.343905 -0.0424295 1.2867 0.102411 2.86732 -1.54093 1.35966 -0.508165 -0.233635 -1.022 -1.34528 0.791213 2.08533 -0.319866 -3.50662
internal_weight=640 93 547 483 416 81 64 67 335 309 247 64 43 44 62 65 183 138 78 45 60 41 58 48
internal_count=640 93 547 483 416 81 64 67 335 309 247 64 43 44 62 65 183 138 78 45 60 41 58 48
is_linear=0
shrinkage=0.01


Tree=24
num_leaves=25
num_cat=0
split_feature=6 1 18 1 6 4 1 2 2 13 4 1 1 18 13 1 1 2 2 1 1 1 1 1
split_gain=8.70341e+06 4.66635e+06 2.9766e+06 3.27984e+06 2.84067e+06 1.63621e+06 1.15992e+06 1.05238e+06 765829 750864 1.27382e+06 1.1354e+06 1.40241e+06 1.09561e+06 1.10178e+06 1.07035e+06 720016 1.31662e+06 714105 577764 439421 379468 285120 85376.7
threshold=1.2296960322861992 0.95212556286997507 1.4869944198713763 1.0461441202180983 -1.0289393363056543 1.6331126539493617 0.6735507210369639 0.33135601052794078 0.73076634476067859 1.0891330947153735 -0.0020141697844020521 -1.0277758703775206 -1.0545233217078305 -0.99706972362691859 0.62485257500090774 -0.89092653115161191 -0.37803233029641703 -0.085256673246031311 -0.47691100994925778 1.6612651468014652 -0.59789992022602656 1.2540792449755054 0.12615276391627009 -0.96474688416415733
decision_type=2 2 2 2 2 2 2 2 2 2 2 2 2 2 2 2 2 2 2 2 2 2 2 2
left_child=2 -2 3 4 6 -5 8 9 -1 11 -11 12 -6 16 -15 23 17 20 22 21 -13 -3 -18 -16
right_child=1 19 -4 5 7 -7 -8 -9 -10 10 -12 13 -14 14 15 -17 18 -19 -20 -21 -22 -23 -24 -25
leaf_value=1.4990321762497363 6.2232298181073897 1.1097087169143389 -3.5876583956365717 -4.4091197002123277 -0.25239171051782022 -1.1313983699253627 0.069247919279953538 -2.3121265859452502 4.1531660640132326 2.2776643208004779 -0.54192008254820845 0.033148603732125796 -3.8304535320017594 2.7066955703159543 1.4297409112112862 -1.4597586710312789 0.047217505307033156 -1.8043175318143139 -3.0047625619114036 0.1118178101216466 1.7566288425358196 3.0464367773981378 -1.4649197050403147 0.56864852492873741
leaf_weight=22 28 21 29 25 24 39 23 25 22 30 34 34 20 21 25 27 23 29 20 24 26 20 27 22
leaf_count=22 28 21 29 25 24 39 23 25 22 30 34 34 20 21 25 27 23 29 20 24 26 20 27 22
internal_value=-1.26986e-05 2.82476 -0.481135 -0.305898 -0.00672345 -2.42152 1.89118 -0.336111 2.83891 -0.198442 0.782723 -0.409548 -1.88878 -0.152015 0.696754 0.120593 -0.659386 -0.0619587 -1.41662 1.34619 0.783361 2.06468 -0.7719 1.03082
internal_weight=640 93 547 518 454 64 67 387 44 362 64 298 44 254 95 74 159 89 70 65 60 41 50 47
internal_count=640 93 547 518 454 64 67 387 44 362 64 298 44 254 95 74 159 89 70 65 60 41 50 47
is_linear=0
shrinkage=0.01


Tree=25
num_leaves=25
num_cat=0
split_feature=6 1 0 6 0 1 0 0 0 2 1 1 4 0 1 1 0 1 0 1 0 1 1 0
split_gain=8.53157e+06 4.57407e+06 2.68427e+06 3.41986e+06 2.26447e+06 2.30599e+06 1.60394e+06 1.13704e+06 805622 1.08744e+06 1.4792e+06 1.78733e+06 943238 750725 698275 566379 403648 1.07474e+06 1.05997e+06 767494 430743 371992 318594 186400
threshold=1.2296960322861992 0.95212556286997507 1.3879508223627111 -1.0289393363056543 0.53921978493660816 -0.34886244579167192 1.544800500737145 1.2624710796631642 0.4102544938287403 -0.016319175772250245 -1.0545233217078305 -1.1114632773558724 -0.0020141697844020521 1.1335057885552964 -1.0193494874057702 1.6612651468014652 -0.50818751176377741 -0.37803233029641703 -0.96305157904963523 -0.93430426082372442 -0.68595048058813568 1.2540792449755054 0.23205439714723161 0.73789604421089094
decision_type=2 2 2 2 2 2 2 2 2 2 2 2 2 2 2 2 2 2 2 2 2 2 2 2
left_child=2 -2 3 7 8 23 -4 13 9 10 11 12 -5 -1 -11 21 17 20 22 -18 -12 -3 -19 -6
right_child=1 15 6 4 5 -7 -8 -9 -10 14 16 -13 -14 -15 -16 -17 19 18 -20 -21 -22 -23 -24 -25
leaf_value=1.4841769443546331 6.1614390453210124 1.098716299668798 -4.3653782974727573 1.6732669577268093 -2.830542661361112 -0.020241109549281107 -1.120142225927236 0.06856124253108585 1.4883223695245409 -2.3314759482291278 1.739196765113423 3.6420986514721281 -1.2822905384877634 4.1120086852065079 -0.13536005940930598 0.11070888550813532 -0.037863834931932655 -0.91254368907687333 -2.9750124404453993 -2.6447935595813097 0.032818989697952716 3.0162742456115121 0.59732674006758069 -4.1530757450413054
leaf_weight=22 28 21 25 20 26 33 39 23 26 39 26 21 23 22 23 24 23 35 20 22 34 20 23 22
leaf_count=22 28 21 25 20 26 33 39 23 26 39 26 21 23 22 23 24 23 35 20 22 34 20 23 22
internal_value=-8.64155e-06 2.79674 -0.476357 -0.22091 -0.5588 -2.05705 -2.39748 1.87244 -0.195522 -0.338079 -0.0404448 1.26578 0.0937466 2.81078 -1.51986 1.33286 -0.498157 -0.229142 -1.00203 -1.31845 0.775587 2.04424 -0.31379 -3.45144
internal_weight=640 93 547 483 416 81 64 67 335 309 247 64 43 44 62 65 183 138 78 45 60 41 58 48
internal_count=640 93 547 483 416 81 64 67 335 309 247 64 43 44 62 65 183 138 78 45 60 41 58 48
is_linear=0
shrinkage=0.01


Tree=26
num_leaves=25
num_cat=0
split_feature=9 3 18 2 9 4 2 2 13 4 3 3 18 3 2 2 3 2 2 3 3 2 3 2
split_gain=8.36309e+06 4.48362e+06 2.86038e+06 3.0875e+06 2.80032e+06 1.57231e+06 1.11462e+06 1.00696e+06 766788 1.21682e+06 1.05769e+06 1.36288e+06 860575 1.48474e+06 1.94363e+06 735919 694928 1.26283e+06 684358 555219 425748 422236 364664 282628
threshold=1.2324530756854299 0.86767263583317833 1.4929124714025408 1.3564938070583386 -1.028800812246536 1.6331126539493617 1.0164424730137269 0.33135601052794078 1.0891330947153735 -0.0020141697844020521 -1.0390749642272901 -1.2058914316063982 -0.99706972362691859 0.068785093635127734 0.062797294227678532 0.73076634476067859 0.21779845355995828 -0.085256673246031311 -0.47691100994925778 1.0176012570034294 -0.65462903637182446 -0.18369539425117917 0.93994140851545394 -0.6220691058861304
decision_type=2 2 2 2 2 2 2 2 2 2 2 2 2 2 2 2 2 2 2 2 2 2 2 2
left_child=2 -2 3 4 6 -5 15 8 10 -10 11 -6 16 14 20 -1 17 21 23 22 -14 -12 -3 -18
right_child=1 19 -4 5 7 -7 -8 -9 9 -11 12 -13 13 -15 -16 -17 18 -19 -20 -21 -22 -23 -24 -25
leaf_value=1.4694687157708248 6.1002614178217902 1.0878327812338777 -3.9078090726918187 -4.3220710424771385 -0.24898232956563146 -1.1089978214186063 0.06788167230014143 -2.2889880976601251 2.2318973397261259 -0.52390344446862647 1.7219375837486208 -3.7762569344397821 0.15455565858282436 2.9580316139447809 -2.6759161060261278 4.0712590837908218 -1.4496463896356084 -1.7663806589988813 -2.9455569306930691 0.10961089741099964 1.8707488313785268 0.032492760231620385 2.9864102459898088 0.055796193829898179
leaf_weight=22 28 21 23 25 24 39 23 25 30 34 26 20 36 20 21 22 27 29 20 24 24 34 20 23
leaf_count=22 28 21 23 25 24 39 23 25 30 34 26 20 36 20 21 22 27 29 20 24 24 34 20 23
internal_value=-9.85578e-07 2.769 -0.471623 -0.319363 -0.0326359 -2.37367 1.85388 -0.355038 -0.222481 0.770791 -0.431964 -1.86214 -0.188684 0.532518 -0.0721722 2.78292 -0.646906 -0.0599809 -1.39083 1.31966 0.844984 0.767891 2.02399 -0.75966
internal_weight=640 93 547 524 460 64 67 393 368 64 304 44 260 101 81 44 159 89 70 65 60 60 41 50
internal_count=640 93 547 524 460 64 67 393 368 64 304 44 260 101 81 44 159 89 70 65 60 60 41 50
is_linear=0
shrinkage=0.01


Tree=27
num_leaves=25
num_cat=0
split_feature=9 1 18 0 9 0 0 0 0 13 4 1 1 18 13 1 1 0 0 1 0 1 0 1
split_gain=8.19799e+06 4.39496e+06 2.82098e+06 3.09083e+06 2.67415e+06 1.54129e+06 1.09264e+06 1.01518e+06 721405 709031 1.19276e+06 1.08836e+06 1.33602e+06 1.05204e+06 1.07778e+06 1.03168e+06 681227 1.23788e+06 670885 544278 413898 357481 277045 87486.5
threshold=1.2324530756854299 0.95212556286997507 1.4869944198713763 1.3879508223627111 -1.028800812246536 1.544800500737145 1.2624710796631642 0.87906075474788137 1.1335057885552964 1.0891330947153735 -0.0020141697844020521 -1.0277758703775206 -1.0545233217078305 -0.99706972362691859 0.62485257500090774 -0.89092653115161191 -0.37803233029641703 -0.50818751176377741 -0.96305157904963523 1.6612651468014652 -0.68595048058813568 1.2540792449755054 -1.0554186118701352 -0.96474688416415733
decision_type=2 2 2 2 2 2 2 2 2 2 2 2 2 2 2 2 2 2 2 2 2 2 2 2
left_child=2 -2 3 4 6 -5 8 9 -1 11 -11 12 -6 16 -15 23 17 20 22 21 -13 -3 -18 -16
right_child=1 19 -4 5 7 -7 -8 -9 -10 10 -12 13 -14 14 15 -17 18 -19 -20 -21 -22 -23 -24 -25
leaf_value=1.4549065316689982 6.0396916641073028 1.0770569884102301 -3.4911738743194163 -4.2791934247622416 -0.24651289632497742 -1.0979646143621327 0.067208712018769365 -2.2662798761943028 4.0309130928108283 2.2097261316413124 -0.51869500796000156 1.7048495425158783 -3.7388681423073953 2.676334646692816 1.4158511594742063 -1.4329808874691237 -1.4352565758456204 -1.7488378800431343 -2.9163930035581682 0.10852379065899809 0.032169684652696574 2.9568417192213605 0.055243061904249526 0.54481126871194929
leaf_weight=22 28 21 29 25 24 39 23 25 22 30 34 26 20 21 25 27 27 29 20 24 34 20 23 22
leaf_count=22 28 21 29 25 24 39 23 25 22 30 34 26 20 21 25 27 27 29 20 24 34 20 23 22
internal_value=-1.22797e-06 2.74153 -0.466945 -0.296351 -0.00592473 -2.35011 1.83551 -0.325513 2.75534 -0.190301 0.763136 -0.395445 -1.8437 -0.143308 0.688408 0.11856 -0.640492 -0.0593812 -1.37704 1.3066 0.76027 2.00395 -0.752118 1.01219
internal_weight=640 93 547 518 454 64 67 387 44 362 64 298 44 254 95 74 159 89 70 65 60 41 50 47
internal_count=640 93 547 518 454 64 67 387 44 362 64 298 44 254 95 74 159 89 70 65 60 41 50 47
is_linear=0
shrinkage=0.01


Tree=28
num_leaves=25
num_cat=0
split_feature=6 1 18 0 6 0 0 0 0 13 4 1 1 18 13 1 1 0 0 1 0 1 0 1
split_gain=8.03612e+06 4.30806e+06 2.76523e+06 3.02975e+06 2.62141e+06 1.5109e+06 1.07109e+06 995131 707177 695026 1.16918e+06 1.06692e+06 1.3097e+06 1.03129e+06 1.05653e+06 1.01131e+06 667796 1.21342e+06 657678 533553 405724 350438 271573 85757.8
threshold=1.2296960322861992 0.95212556286997507 1.4869944198713763 1.3879508223627111 -1.0289393363056543 1.544800500737145 1.2624710796631642 0.87906075474788137 1.1335057885552964 1.0891330947153735 -0.0020141697844020521 -1.0277758703775206 -1.0545233217078305 -0.99706972362691859 0.62485257500090774 -0.89092653115161191 -0.37803233029641703 -0.50818751176377741 -0.96305157904963523 1.6612651468014652 -0.68595048058813568 1.2540792449755054 -1.0554186118701352 -0.96474688416415733
decision_type=2 2 2 2 2 2 2 2 2 2 2 2 2 2 2 2 2 2 2 2 2 2 2 2
left_child=2 -2 3 4 6 -5 8 9 -1 11 -11 12 -6 16 -15 23 17 20 22 21 -13 -3 -18 -16
right_child=1 19 -4 5 7 -7 -8 -9 -10 10 -12 13 -14 14 15 -17 18 -19 -20 -21 -22 -23 -24 -25
leaf_value=1.440488316303975 5.9797230775981944 1.0663881438633183 -3.4565012599997322 -4.2367411001901782 -0.24406828068504649 -1.0870408657618931 0.066542360042703572 -2.2437969284965877 3.9909672266298588 2.1877752248498776 -0.51353841591996752 1.687931208719734 -3.7018496628563002 2.6498238772266314 1.4018049506535608 -1.4187564199111042 -1.4210095413993387 -1.7314692818628599 -2.8875178471178113 0.10744754633627647 0.031849971612294511 2.9275660327873605 0.054695526649212019 0.53941223831864094
leaf_weight=22 28 21 29 25 24 39 23 25 22 30 34 26 20 21 25 27 27 29 20 24 34 20 23 22
leaf_count=22 28 21 29 25 24 39 23 25 22 30 34 26 20 21 25 27 27 29 20 24 34 20 23 22
internal_value=0 2.71433 -0.462308 -0.293408 -0.00586591 -2.32677 1.81732 -0.322287 2.72804 -0.188417 0.755558 -0.391524 -1.82545 -0.141883 0.681592 0.117389 -0.634141 -0.0587874 -1.3634 1.29366 0.752725 1.98411 -0.744652 1.00215
internal_weight=640 93 547 518 454 64 67 387 44 362 64 298 44 254 95 74 159 89 70 65 60 41 50 47
internal_count=640 93 547 518 454 64 67 387 44 362 64 298 44 254 95 74 159 89 70 65 60 41 50 47
is_linear=0
shrinkage=0.01


Tree=29
num_leaves=25
num_cat=0
split_feature=6 1 18 1 6 4 1 2 2 13 4 1 1 18 13 1 1 2 2 1 1 1 1 1
split_gain=7.87745e+06 4.22287e+06 2.71057e+06 2.96989e+06 2.56971e+06 1.48109e+06 1.04996e+06 975480 693230 681298 1.14606e+06 1.0459e+06 1.2839e+06 1.01096e+06 1.0357e+06 991336 654629 1.18944e+06 644731 523040 397711 343535 266208 84063.4
threshold=1.2296960322861992 0.95212556286997507 1.4869944198713763 1.0461441202180983 -1.0289393363056543 1.6331126539493617 0.6735507210369639 0.33135601052794078 0.73076634476067859 1.0891330947153735 -0.0020141697844020521 -1.0277758703775206 -1.0545233217078305 -0.99706972362691859 0.62485257500090774 -0.89092653115161191 -0.37803233029641703 -0.085256673246031311 -0.47691100994925778 1.6612651468014652 -0.59789992022602656 1.2540792449755054 0.12615276391627009 -0.96474688416415733
decision_type=2 2 2 2 2 2 2 2 2 2 2 2 2 2 2 2 2 2 2 2 2 2 2 2
left_child=2 -2 3 4 6 -5 8 9 -1 11 -11 12 -6 16 -15 23 17 20 22 21 -13 -3 -18 -16
right_child=1 19 -4 5 7 -7 -8 -9 -10 10 -12 13 -14 14 15 -17 18 -19 -20 -21 -22 -23 -24 -25
leaf_value=1.4262134338928776 5.9203499311758279 1.0558248800601602 -3.4221731677120681 -4.1947098442107906 -0.24164777014866348 -1.0762259605952671 0.06588274298043087 -2.2215371738918241 3.9514171043602198 2.1660423640068003 -0.50843307146552019 0.031533254419851026 -3.6651977946970722 2.623575425777795 1.3878980903019982 -1.4046730554805082 0.054153106294829272 -1.7142731070191892 -2.8589284322757531 0.10638193745258426 1.6711807419871556 2.8985802973379005 -1.4069038986809113 0.53406669273032803
leaf_weight=22 28 21 29 25 24 39 23 25 22 30 34 34 20 21 25 27 23 29 20 24 26 20 27 22
leaf_count=22 28 21 29 25 24 39 23 25 22 30 34 34 20 21 25 27 23 29 20 24 26 20 27 22
internal_value=3.23324e-06 2.6874 -0.457718 -0.290495 -0.00580768 -2.30367 1.79931 -0.319093 2.701 -0.186552 0.748054 -0.387643 -1.80737 -0.140473 0.674842 0.116229 -0.627853 -0.0581996 -1.34988 1.28085 0.745255 1.96446 -0.73726 0.99221
internal_weight=640 93 547 518 454 64 67 387 44 362 64 298 44 254 95 74 159 89 70 65 60 41 50 47
internal_count=640 93 547 518 454 64 67 387 44 362 64 298 44 254 95 74 159 89 70 65 60 41 50 47
is_linear=0
shrinkage=0.01


Tree=30
num_leaves=25
num_cat=0
split_feature=6 1 18 0 6 0 0 0 13 6 1 1 18 1 0 0 1 0 0 1 1 0 1 0
split_gain=7.72191e+06 4.13936e+06 2.65912e+06 2.85206e+06 2.58424e+06 1.45188e+06 1.02926e+06 930418 706922 1.1234e+06 978008 1.2586e+06 798326 1.44171e+06 1.8878e+06 679558 641722 1.16594e+06 632039 512733 442133 389857 336767 260950
threshold=1.2296960322861992 0.95212556286997507 1.4929124714025408 1.3879508223627111 -1.0289393363056543 1.544800500737145 1.2624710796631642 0.87906075474788137 1.0891330947153735 0.01323963778224879 -1.0277758703775206 -1.0545233217078305 -0.99706972362691859 -0.52996746075531964 0.53921978493660816 1.1335057885552964 -0.37803233029641703 -0.50818751176377741 -0.96305157904963523 1.6612651468014652 -0.93430426082372442 -0.68595048058813568 1.2540792449755054 -1.0554186118701352
decision_type=2 2 2 2 2 2 2 2 2 2 2 2 2 2 2 2 2 2 2 2 2 2 2 2
left_child=2 -2 3 4 6 -5 15 8 10 -10 11 -6 16 14 20 -1 17 21 23 22 -14 -12 -3 -18
right_child=1 19 -4 5 7 -7 -8 -9 9 -11 12 -13 13 -15 -16 -17 18 -19 -20 -21 -22 -23 -24 -25
leaf_value=1.4120795853073533 5.8615661492246272 1.0453662469252101 -3.7662632508113467 -4.1530956962373526 -0.23925124491541838 -1.0655186980111258 0.065229491694220182 -2.1994979988582548 -0.50337847698501681 2.1445255943955175 1.6545964824880353 -3.6289086400400294 0.11905730400296205 2.9044486746457547 -2.6475500621435777 3.9122589070088156 -1.3929382795446059 -1.6972478724179203 -2.8306222926980196 0.10532696400792146 1.8677050150721524 0.031219802028254459 2.8698815036056069 0.053616187654692553
leaf_weight=22 28 21 23 25 24 39 23 25 34 30 26 20 36 20 21 22 27 29 20 24 24 34 20 23
leaf_count=22 28 21 23 25 24 39 23 25 34 30 26 20 36 20 21 22 27 29 20 24 24 34 20 23
internal_value=6.91859e-06 2.66075 -0.453173 -0.306367 -0.0307896 -2.2808 1.78148 -0.340504 -0.213084 0.740625 -0.414223 -1.78948 -0.180288 0.514339 -0.0814991 2.67424 -0.621627 -0.0576176 -1.3365 1.26816 0.822414 0.73786 1.94501 -0.729941
internal_weight=640 93 547 524 460 64 67 393 368 64 304 44 260 101 81 44 159 89 70 65 60 60 41 50
internal_count=640 93 547 524 460 64 67 393 368 64 304 44 260 101 81 44 159 89 70 65 60 60 41 50
is_linear=0
shrinkage=0.01


Tree=31
num_leaves=24
num_cat=0
split_feature=6 1 18 0 6 0 0 0 0 0 13 4 1 1 1 13 1 0 0 1 1 1 6
split_gain=7.56947e+06 4.05751e+06 2.62235e+06 2.8553e+06 2.46759e+06 1.42325e+06 1.00896e+06 938085 666155 658365 819743 1.10119e+06 822624 1.23381e+06 915024 2.06679e+06 760432 939037 553626 502630 330133 285064 370838
threshold=1.2296960322861992 0.95212556286997507 1.4869944198713763 1.3879508223627111 -1.0289393363056543 1.544800500737145 1.2624710796631642 0.87906075474788137 1.1335057885552964 0.61764462412382504 1.0891330947153735 -0.0020141697844020521 -1.0277758703775206 -1.0545233217078305 -0.89092653115161191 0.83777447225592749 -0.37803233029641703 -0.96305157904963523 -0.68595048058813568 1.6612651468014652 1.2540792449755054 -0.93430426082372442 -0.32834410623320298
decision_type=2 2 2 2 2 2 2 2 2 2 2 2 2 2 2 2 2 2 2 2 2 2 2
left_child=2 -2 3 4 6 -5 8 9 -1 10 12 -12 13 -6 21 16 18 -18 -16 20 -3 22 -14
right_child=1 19 -4 5 7 -7 -8 -9 -10 -11 11 -13 14 -15 15 -17 17 -19 -20 -21 -22 -23 -24
leaf_value=1.3980859835513004 5.8033661810303405 1.035011128839457 -3.3644880629239013 -4.1118942845056932 -0.23687859779547069 -1.0549179082987259 0.064582907906894027 -2.1776776201762851 3.8734887103347093 1.572399503122462 2.1232223183587688 -0.49837412873206782 -0.68276792490257421 -3.5929788733000798 1.6381769451112238 -3.6703603227067703 -0.29776427318140403 -2.8025963124190225 -0.1822803090454696 0.10428245418327899 2.8414668774368739 1.6830291201033682 1.1668022801854592
leaf_weight=22 28 21 29 25 24 39 23 25 22 20 30 34 21 20 26 20 58 20 46 24 20 21 22
leaf_count=22 28 21 29 25 24 39 23 25 22 20 30 34 21 20 26 20 58 20 46 24 20 21 22
internal_value=6.63411e-06 2.63435 -0.448677 -0.284199 -0.00505859 -2.25815 1.76383 -0.312056 2.64774 -0.18208 -0.285543 0.73327 -0.520452 -1.77176 -0.283848 -0.667372 -0.262613 -0.945567 0.47781 1.25561 1.92575 0.733778 0.264522
internal_weight=640 93 547 518 454 64 67 387 44 362 342 64 278 44 234 170 150 78 72 65 41 64 43
internal_count=640 93 547 518 454 64 67 387 44 362 342 64 278 44 234 170 150 78 72 65 41 64 43
is_linear=0
shrinkage=0.01


Tree=32
num_leaves=24
num_cat=0
split_feature=6 1 18 1 6 4 1 2 2 2 13 4 1 1 1 13 1 2 1 1 1 1 6
split_gain=7.42002e+06 3.97727e+06 2.57051e+06 2.79887e+06 2.41893e+06 1.39517e+06 989061 919558 653017 645394 803560 1.07942e+06 806414 1.2095e+06 896984 2.02607e+06 745426 920548 542688 492725 323630 279445 363525
threshold=1.2296960322861992 0.95212556286997507 1.4869944198713763 1.0461441202180983 -1.0289393363056543 1.6331126539493617 0.6735507210369639 0.33135601052794078 0.73076634476067859 0.10333599120265513 1.0891330947153735 -0.0020141697844020521 -1.0277758703775206 -1.0545233217078305 -0.89092653115161191 0.83777447225592749 -0.37803233029641703 -0.47691100994925778 -0.59789992022602656 1.6612651468014652 1.2540792449755054 -0.93430426082372442 -0.32834410623320298
decision_type=2 2 2 2 2 2 2 2 2 2 2 2 2 2 2 2 2 2 2 2 2 2 2
left_child=2 -2 3 4 6 -5 8 9 -1 10 12 -12 13 -6 21 16 18 -18 -16 20 -3 22 -14
right_child=1 19 -4 5 7 -7 -8 -9 -10 -11 11 -13 14 -15 15 -17 17 -19 -20 -21 -22 -23 -24
leaf_value=1.3842312711423583 5.7457441214635869 1.024758683690485 -3.331073535762421 -4.0711016550518222 -0.23452934958718039 -1.0444224976520149 0.063942762243336657 -2.1560735893249512 3.8351028414030335 1.5568311797038163 2.1021305843378535 -0.49341949368080901 -0.6760046969719653 -3.5574048742917506 -0.18046531267496413 -3.634020255060479 -0.29479702918390227 -2.7748478419237794 1.6219202050361923 0.10324817625944281 2.8133332122198427 1.6663576334827352 1.1552394993240771
leaf_weight=22 28 21 29 25 24 39 23 25 22 20 30 34 21 20 46 20 58 20 26 24 20 21 22
leaf_count=22 28 21 29 25 24 39 23 25 22 20 30 34 21 20 46 20 58 20 26 24 20 21 22
internal_value=8.52175e-06 2.60822 -0.444224 -0.28138 -0.00501074 -2.23573 1.74635 -0.308966 2.6215 -0.18028 -0.282719 0.725987 -0.515298 -1.75421 -0.281036 -0.660761 -0.260009 -0.936191 0.473072 1.24317 1.90668 0.726508 0.261899
internal_weight=640 93 547 518 454 64 67 387 44 362 342 64 278 44 234 170 150 78 72 65 41 64 43
internal_count=640 93 547 518 454 64 67 387 44 362 342 64 278 44 234 170 150 78 72 65 41 64 43
is_linear=0
shrinkage=0.01


end of trees

feature_importances:
Column_1=242
Column_0=217
Column_6=60
Column_2=53
Column_3=53
Column_18=48
Column_13=34
Column_4=30
Column_16=13
Column_5=9
Column_9=5
Column_19=4
Column_7=3
Column_17=3
Column_15=2

parameters:
[boosting: gbdt]
[objective: regression]
[metric: l2]
[tree_learner: serial]
[device_type: cpu]
[data_sample_strategy: goss]
[data: ]
[valid: ]
[num_iterations: 5000]
[learning_rate: 0.01]
[num_leaves: 127]
[num_threads: -1]
[seed: 42]
[deterministic: 0]
[force_col_wise: 0]
[force_row_wise: 0]
[histogram_pool_size: -1]
[max_depth: 12]
[min_data_in_leaf: 20]
[min_sum_hessian_in_leaf: 0.001]
[bagging_fraction: 1]
[pos_bagging_fraction: 1]
[neg_bagging_fraction: 1]
[bagging_freq: 0]
[bagging_seed: 400]
[bagging_by_query: 0]
[feature_fraction: 0.8]
[feature_fraction_bynode: 1]
[feature_fraction_seed: 30056]
[extra_trees: 0]
[extra_seed: 12879]
[early_stopping_round: 200]
[early_stopping_min_delta: 0]
[first_metric_only: 0]
[max_delta_step: 0]
[lambda_l1: 0.1]
[lambda_l2: 0.2]
[linear_lambda: 0]
[min_gain_to_split: 0]
[drop_rate: 0.1]
[max_drop: 50]
[skip_drop: 0.5]
[xgboost_dart_mode: 0]
[uniform_drop: 0]
[drop_seed: 17869]
[top_rate: 0.2]
[other_rate: 0.1]
[min_data_per_group: 100]
[max_cat_threshold: 32]
[cat_l2: 10]
[cat_smooth: 10]
[max_cat_to_onehot: 4]
[top_k: 20]
[monotone_constraints: ]
[monotone_constraints_method: basic]
[monotone_penalty: 0]
[feature_contri: ]
[forcedsplits_filename: ]
[refit_decay_rate: 0.9]
[cegb_tradeoff: 1]
[cegb_penalty_split: 0]
[cegb_penalty_feature_lazy: ]
[cegb_penalty_feature_coupled: ]
[path_smooth: 0]
[interaction_constraints: ]
[verbosity: -1]
[saved_feature_importance_type: 0]
[use_quantized_grad: 0]
[num_grad_quant_bins: 4]
[quant_train_renew_leaf: 0]
[stochastic_rounding: 1]
[linear_tree: 0]
[max_bin: 255]
[max_bin_by_feature: ]
[min_data_in_bin: 3]
[bin_construct_sample_cnt: 200000]
[data_random_seed: 175]
[is_enable_sparse: 1]
[enable_bundle: 1]
[use_missing: 1]
[zero_as_missing: 0]
[feature_pre_filter: 1]
[pre_partition: 0]
[two_round: 0]
[header: 0]
[label_column: ]
[weight_column: ]
[group_column: ]
[ignore_column: ]
[categorical_feature: ]
[forcedbins_filename: ]
[precise_float_parser: 0]
[parser_config_file: ]
[objective_seed: 16083]
[num_class: 1]
[is_unbalance: 0]
[scale_pos_weight: 1]
[sigmoid: 1]
[boost_from_average: 1]
[reg_sqrt: 0]
[alpha: 0.9]
[fair_c: 1]
[poisson_max_delta_step: 0.7]
[tweedie_variance_power: 1.5]
[lambdarank_truncation_level: 30]
[lambdarank_norm: 1]
[label_gain: ]
[lambdarank_position_bias_regularization: 0]
[eval_at: ]
[multi_error_top_k: 1]
[auc_mu_weights: ]
[num_machines: 1]
[local_listen_port: 12400]
[time_out: 120]
[machine_list_filename: ]
[machines: ]
[gpu_platform_id: -1]
[gpu_device_id: -1]
[gpu_use_dp: 0]
[num_gpu: 1]

end of parameters

pandas_categorical:null
